0.085380502045, 0.116543635726, 0.064072825015, 0.019366916269, 0.254199892282, -0.073013812304, -0.056760251522, 0.035060446709, 0.168323412538, -0.108064174652, 0.107298038900, -0.050853751600, 0.123019255698, -0.125527277589, -0.090437449515, -0.002514001448, 0.154394373298, 0.209640249610, 0.004932637792, 0.105054423213, 0.092450708151, -0.043071679771, -0.071739934385, -0.132189407945, -0.028653580695, 0.005599454511, 0.030265321955, 0.104916781187, -0.097508050501, 0.085733585060, -0.061834931374, 0.086380995810, 0.105166569352, -0.109132453799, 0.026876522228, -0.117997482419, -0.162893682718, 0.220038190484, 0.251344978809, 0.032996259630, 0.038365300745, -0.100829593837, 0.033758088946, 0.112810529768, 0.177507251501, -0.124594852328, -0.040188599378, 0.170475885272, 0.065414033830, 0.146401390433, 0.087690390646, -0.088940180838, -0.043980523944, -0.135673969984, 0.036777488887, -0.171019017696, -0.185353055596, 0.093238331378, 0.094819106162, 0.211190745234, 0.135216578841, -0.127729430795, -0.113143071532, -0.091560497880, -0.018293021247, -0.090773962438, 0.148675724864, -0.043953306973, -0.029068715870, -0.063489668071, -0.228871777654, -0.157186105847, 0.033353675157, -0.183906510472, -0.159550562501, -0.026521576568, -0.093363195658, -0.248482033610, 0.034261990339, -0.047749511898, -0.033679898828, 0.040939744562, 0.081548281014, 0.112346939743, -0.026613697410, 0.037612412125, -0.081698857248, -0.061629135162, 0.169022113085, -0.075452730060, 0.048096366227, 0.098675914109, 0.023633917794, -0.168744802475, 0.113829404116, -0.227839827538, 0.075552649796, 0.220824688673, 0.159240350127, 0.091099381447, -0.166884377599, 0.219819337130, -0.195175886154, 0.176710337400, -0.200330242515, 0.044222619385, 0.099916830659, 0.045569520444, 0.152453899384, -0.001424339600, 0.081451557577, -0.010818739422, -0.125758230686, -0.236832574010, 0.120222628117, -0.153126999736, -0.080318406224, 0.033359084278, -0.050207041204, 0.088018059731, 0.106517188251, 0.151330664754, -0.046434368938, -0.315021485090, -0.179795593023, -0.093845851719, 0.059925306588, 0.096824839711, 0.094664193690, 0.033073268831, 0.142573356628, 0.028186798096, 0.005061410833, 0.156043410301, -0.030693365261, -0.082829773426, 0.148501619697, -0.161751091480, 0.061682846397, -0.155669271946, -0.105806529522, 0.141821831465, 0.206065401435, 0.153634965420, -0.148318618536, -0.045158095658, 0.027099180967, -0.119821898639, -0.044268086553, -0.157408654690, -0.133876249194, 0.035519175231, -0.052894763649, -0.212210953236, 0.217605203390, -0.210900053382, -0.093846224248, -0.065235219896, -0.034310385585, 0.146664828062, -0.095141038299, -0.090419873595, 0.027400966734, -0.120487608016, 0.010840063915, 0.055666126311, -0.227990046144, -0.034140691161, -0.182098358870, 0.189182996750, 0.155386507511, -0.108476139605, 0.212535887957, 0.155656918883, 0.081637166440, 0.274653851986, -0.007361873984, -0.287608414888, 0.019825629890, 0.099632397294, 0.040497347713, 0.066612929106, 0.123894579709, -0.074265077710, 0.046667385846, 0.045956972986, -0.029005736113, -0.155193567276, -0.000158985844, 0.015291062184, -0.283585101366, 0.217726469040, 0.160868436098, 0.063593462110, 0.149187758565, 0.219927057624, 0.145453244448, -0.022414121777, -0.005240872968, -0.151906713843, -0.055602870882, -0.057494636625, -0.057599186897, -0.032918766141, -0.268899857998, 0.008457212709, -0.025450970978, 0.214588686824, 0.182060077786, -0.044707510620, -0.065005064011, 0.030236333609, 0.026790903881, 0.030108181760, -0.165215045214, -0.182104453444, 0.094092428684, -0.027650924399, 0.031956575811, -0.071609318256, 0.210160523653, -0.102795347571, 0.022950565442, 0.114633761346, -0.156041294336, -0.092134639621, 0.188187137246, 0.114986196160, 0.009683948010, -0.130429908633, -0.030003212392, 0.114074058831, -0.221746206284, 0.149186387658, 0.126263201237, -0.016022440046, -0.139095187187, -0.083079718053, -0.132654696703, 0.087322160602, 0.029295742512, 0.002445149235, -0.022500159219, -0.028571520001, -0.129028901458, -0.076989576221, 0.122318536043, 0.153724625707, 0.096680074930, -0.094310261309, 0.256728619337, 0.264156669378, -0.054605502635, -0.222874090075, -0.077336221933, 0.216808468103, -0.201205104589, 0.068905301392, -0.021784132347, -0.185508280993, 0.041352853179, 0.094982482493, -0.367418140173, 0.086534224451, -0.128352567554, 0.002374584088, -0.106824621558, 0.013240850531, 0.169540360570, 0.016873486340, -0.036746159196, -0.147037595510, -0.141498014331, 0.034922111779, -0.041397731751, 0.094444431365, -0.154043138027, 0.040593147278, -0.023464854807, 0.002101063728, -0.032576993108, -0.133529230952, 0.054698105901, 0.135828673840, 0.030436016619, -0.155064627528, -0.174668446183, 0.069612123072, 0.029602622613, -0.094993069768, -0.081859797239, 0.108868613839, 0.204898178577, -0.049859549850, -0.156663641334, 0.137022659183, 0.084647841752, -0.004910265096, 0.128778219223, -0.357685714960, -0.092111974955, 0.087078481913, -0.053393233567, 0.086933672428, 0.092342913151, -0.150454804301, -0.113598540425, 0.011573621072, 0.089843280613, 0.153620049357, -0.290420025587, 0.226762786508, 0.027345964685, -0.094149954617, -0.100892357528, 0.077511906624, 0.334756195545, -0.079953134060, -0.141722872853, -0.018153199926, 0.125190913677, -0.123628713191, -0.113791510463, 0.181130588055, 0.199390754104, 0.063878960907, 0.089747823775, -0.056565813720, -0.182723343372, -0.124316528440, -0.087135516107, 0.152120053768, 0.081783518195, -0.111355856061, -0.246252194047, -0.039557274431, 0.250815093517, 0.198787376285, -0.026376463473, -0.222538262606, 0.009852375835, 0.125201955438, 0.010197811760, 0.106980428100, 0.146943077445, -0.209407851100, 0.175298258662, 0.235843628645, -0.003877185984, 0.037218283862, 0.019139094278, -0.079222060740, -0.012253974564, -0.288679212332, -0.113319598138, 0.083751603961, -0.057610239834, -0.029031129554, 0.134529769421, 0.053653288633, -0.028109334409, -0.090593561530, -0.023084659129, -0.122875057161, -0.072474569082, 0.158098042011, 0.034473810345, -0.067242480814, -0.004155993462, -0.057096283883, 0.199435830116, 0.278719037771, -0.259037017822, 0.044457919896, -0.018413230777, -0.191643401980, -0.241419240832, -0.261027634144, 0.030436526984, -0.044195108116, 0.031883858144, 0.036164507270, 0.117258213460, 0.100727371871