-0.125981301069, 0.220232427120, -0.109502203763, -0.041772238910, 0.111056916416, -0.180769473314, -0.259370058775, 0.030047966167, -0.270091563463, 0.012088803574, -0.127525821328, -0.061506584287, -0.129499197006, -0.229504287243, 0.078727841377, -0.136404082179, 0.003298010677, -0.196974322200, 0.239547222853, 0.162388145924, 0.090062536299, -0.221455961466, -0.262443721294, 0.111309677362, 0.032432284206, 0.118040867150, 0.307275354862, -0.263463258743, 0.206098183990, -0.189100220799, -0.192189589143, -0.173650398850, -0.145604431629, -0.282080203295, -0.292778462172, 0.373221516609, 0.101034291089, -0.169950827956, 0.108918420970, 0.217373192310, 0.109104692936, 0.113381989300, 0.283313959837, 0.516435742378, -0.078121893108, -0.283428698778, 0.370791703463, -0.158686429262, 0.429326236248, 0.321710914373, -0.051577270031, 0.190404176712, 0.268816053867, -0.075729221106, 0.647791743279, -0.219116881490, 0.558243870735, -0.049718797207, -0.247845023870, -0.174287453294, 0.004986228421, -0.134060189128, 0.108704835176, -0.249434068799, -0.118317373097, 0.166505530477, -0.035565856844, 0.074382625520, -0.071345478296, 0.078527048230, -0.167459204793, -0.012913109735, -0.104754947126, 0.155629515648, 0.011013738811, 0.137499883771, -0.035015370697, -0.061001628637, -0.033366139978, -0.165641531348, 0.011472960003, -0.168318957090, 0.202505499125, 0.047199193388, -0.090306811035, -0.021065052599, -0.105984635651, 0.018705824390, -0.212052747607, 0.113980621099, 0.009365400299, -0.292407035828, 0.051977947354, -0.418967038393, -0.047631606460, -0.125583320856, 0.058467008173, 0.258857458830, 0.217244595289, 0.222344577312, 0.133060663939, -0.179378777742, -0.087306797504, -0.327657043934, -0.282583296299, 0.203008934855, -0.137429818511, -0.025418674573, -0.185908302665, 0.070198051631, 0.182753190398, -0.069294542074, 0.080422170460, -0.096935033798, 0.222263291478, 0.206024035811, 0.265491485596, -0.057216823101, 0.022063065320, 0.079550705850, -0.020544249564, -0.019631389529, 0.039827667177, 0.068842299283, 0.115394376218, -0.057282086462, -0.030813079327, -0.327938050032, -0.174614280462, -0.036509621888, -0.256041467190, -0.022870840505, 0.084446318448, -0.208256259561, 0.100170582533, -0.013479812071, 0.197834610939, 0.031695112586, -0.049477979541, 0.007355435751, -0.170538753271, -0.178486287594, 0.015528139658, 0.093562416732, 0.159613788128, 0.011103374884, 0.106896646321, 0.111134462059, 0.197120726109, 0.025207474828, 0.101527348161, -0.219073042274, 0.285934031010, -0.092603079975, 0.146278530359, -0.132484734058, -0.122452385724, -0.001379782916, -0.206965312362, 0.069632358849, 0.074677988887, -0.078557685018, -0.159457609057, 0.251849800348, 0.154450029135, 0.101450704038, -0.180803403258, -0.053963687271, -0.246426895261, -0.012242351659, -0.034644912928, -0.028145700693, 0.442186623812, 0.111197963357, 0.047421589494, 0.055880174041, 0.096843600273, -0.092870861292, -0.243667528033, 0.255465179682, -0.090328305960, -0.119174703956, -0.638840079308, -0.056962028146, -0.318811267614, -0.074838697910, 0.184322699904, 0.200898632407, -0.021641088650, 0.076458290219, 0.353225439787, 0.313266634941, -0.389582842588, -0.131763681769, -0.631435990334, 0.156745597720, 0.121630512178, -0.233888164163, 0.289292007685, -0.481408774853, -0.164356559515, -0.070401512086, -0.464304983616, -0.532918572426, 0.430840134621, 0.017743241042, 0.376804649830, -0.347383528948, -0.360769242048, -0.037439651787, 0.108241818845, 0.271936148405, 0.462240666151, -0.199663385749, -0.107031196356, 0.295954138041, 0.175849258900, -0.503618597984, 0.093443281949, 0.284371048212, -0.235425412655, 0.236735031009, -0.523536503315, 0.225456878543, 0.202012553811, -0.140458717942, 0.194653436542, 0.023671828210, 0.041782889515, 0.121467381716, -0.322906047106, -0.018095323816, 0.148261949420, -0.000445145386, 0.205642044544, 0.171979069710, 0.006254005712, -0.010835511610, -0.127348154783, -0.030791075900, -0.003797416575, 0.044435054064, -0.240793332458, -0.118322640657, -0.027914777398, -0.001252921065, 0.367350518703, 0.281732082367, -0.210209056735, 0.110630005598, -0.011055312119, -0.160909667611, 0.079797886312, -0.099063053727, -0.067691214383, -0.219276726246, 0.263771176338, 0.219232887030, 0.095919929445, -0.140527397394, 0.162479937077, 0.331646203995, -0.150632932782, 0.190076470375, 0.231201246381, 0.146824613214, 0.188011705875, 0.126053199172, 0.002303121844, 0.031838301569, -0.266694456339, -0.084025032818, 0.222838163376, -0.037573125213, -0.201428249478, -0.245527207851, -0.274268537760, -0.020144861192, 0.114912256598, 0.016503393650, -0.211805731058, 0.083994232118, -0.313899934292, -0.087930917740, 0.222629219294, -0.112323090434, 0.342995554209, -0.184043601155, -0.067592382431, -0.105262860656, -0.362104982138, -0.047570336610, 0.243499130011, 0.058002766222, 0.047272946686, -0.014745368622, -0.055080097169, 0.035755693913, -0.312161505222, -0.137578770518, 0.264244228601, -0.291756123304, 0.231701403856, -0.306697219610, 0.059084098786, -0.317131578922, 0.133852347732, 0.176799342036, 0.344298005104, 0.034792773426, -0.183254718781, 0.124795369804, 0.094490647316, -0.343857735395, 0.128722235560, 0.085040956736, -0.257756590843, 0.113976657391, -0.082037396729, 0.206332936883, 0.326637208462, 0.053824104369, 0.390313923359, 0.009424406104, 0.096690781415, 0.232492715120, -0.215803012252, 0.178543895483, 0.204089194536, 0.026499079540, 0.342722862959, 0.313649505377, -0.042419318110, -0.152260512114, -0.207485631108, -0.036994919181, 0.108032569289, -0.115427665412, -0.218698441982, -0.170469999313, -0.247379377484, 0.159956470132, 0.214909493923, 0.096486717463, -0.156566560268, 0.138583078980, -0.188787296414, -0.225555822253, 0.156710416079, -0.093505606055, 0.146606981754, -0.186547920108, 0.281612098217, -0.103706128895, 0.190996050835, 0.136009782553, -0.224817693233, 0.287062555552, 0.316542148590, 0.251047611237, 0.134396910667, 0.002066646237, -0.129761561751, -0.145980581641, 0.011566742323, 0.037077952176, -0.204946115613, -0.020482098684, -0.072666704655, -0.027891246602, -0.149682477117, -0.066351942718, -0.203105956316, 0.137840375304, 0.242623224854, -0.120539955795, 0.142694637179, 0.016927266493, -0.133896961808, 0.332419335842, -0.239915028214, -0.171124771237, 0.209181487560, -0.117330454290