-0.152296364307, 0.087727881968, -0.225393041968, 0.212592065334, -0.032034147531, -0.088617622852, -0.221276581287, 0.037850402296, 0.077260568738, -0.101315952837, -0.246436357498, 0.084957242012, -0.083534203470, 0.085834175348, -0.069645881653, 0.101638011634, 0.005043881945, 0.127568885684, 0.206148535013, 0.050403114408, 0.005168273114, 0.254229545593, 0.195784941316, 0.078013889492, 0.092365935445, 0.138679400086, -0.068455301225, 0.003878399264, -0.219257548451, -0.034854769707, 0.004247129429, -0.001916145324, -0.092574208975, 0.274322986603, 0.285151273012, 0.023989353329, 0.355756372213, -0.312086790800, -0.166660830379, 0.292914211750, 0.215253055096, 0.190764576197, 0.163658246398, 0.148500204086, -0.058865409344, -0.145136639476, 0.083613693714, -0.019325409085, 0.179775103927, -0.080032274127, 0.131425365806, 0.221385166049, 0.222946599126, 0.112273402512, 0.007357493043, -0.007481883746, 0.168976008892, 0.124786123633, -0.202543973923, -0.239553719759, -0.264355123043, 0.084215402603, 0.141298338771, 0.258422970772, 0.094545565546, 0.154779359698, 0.154623314738, -0.085534140468, 0.140427604318, -0.214072212577, 0.111264072359, 0.232573509216, -0.074455261230, 0.094098195434, 0.102356672287, 0.465491354465, 0.123494111001, -0.057825546712, -0.109545551240, -0.268894314766, 0.073549814522, 0.195293724537, -0.097134478390, 0.157263994217, 0.036397859454, -0.133278891444, 0.135311856866, -0.118648752570, -0.218484580517, 0.101036407053, 0.062054056674, -0.129739865661, -0.046065729111, 0.337254166603, 0.394196063280, -0.064321637154, -0.039315484464, 0.193229377270, 0.083689399064, 0.154991656542, 0.228109344840, 0.000239737186, -0.193243250251, -0.027162866667, -0.167570248246, 0.374419510365, -0.434777885675, -0.302901118994, 0.042882643640, -0.138845086098, 0.056668482721, 0.004536035471, 0.146897718310, 0.150214329362, -0.231322422624, -0.086530938745, 0.010882552713, -0.036226525903, 0.136196434498, 0.093888916075, 0.265394777060, 0.093296729028, 0.186811774969, 0.006240581162, -0.294993937016, -0.139359340072, -0.189436659217, 0.023842854425, 0.061548903584, -0.096318565309, -0.030080050230, -0.171129360795, -0.029981290922, -0.071119211614, -0.023221286014, 0.112601131201, 0.021297432482, -0.093774877489, 0.128300487995, -0.067596919835, 0.146536991000, 0.103643581271, 0.054059546441, 0.016640292481, -0.033810485154, -0.034229863435, 0.060678370297, 0.124810941517, 0.049566671252, 0.090873815119, -0.104821622372, -0.084036760032, 0.009705343284, 0.149331107736, 0.067654423416, -0.077755331993, -0.084719076753, -0.061465997249, -0.154049113393, -0.124662756920, 0.026256468147, -0.233974337578, -0.435661405325, -0.170758172870, -0.128447949886, -0.096780389547, -0.063772059977, -0.117646798491, 0.209076553583, -0.008305113763, -0.154905632138, 0.118328966200, -0.236799135804, -0.072276286781, -0.165456384420, 0.313108831644, 0.143331080675, -0.045337885618, 0.072778128088, 0.038671985269, 0.224851012230, 0.228435516357, -0.073000662029, 0.088046684861, -0.197828680277, -0.014192669652, -0.100211262703, 0.029737751931, -0.177914500237, -0.205377385020, 0.274783998728, -0.219629868865, -0.124067097902, 0.093954525888, 0.156502604485, 0.153851330280, 0.060703381896, 0.185905426741, 0.164507955313, 0.008831888437, 0.334840893745, 0.010627212934, -0.093420609832, -0.133733958006, 0.101562075317, -0.307028889656, 0.090984992683, 0.004574481398, 0.006793989800, -0.076985843480, 0.261476874352, -0.153785020113, 0.111414305866, -0.085773013532, -0.256818383932, 0.015978051350, -0.021403191611, -0.034829381853, 0.017521360889, -0.216498851776, 0.024972366169, -0.037134457380, 0.070834793150, 0.202116578817, 0.001132219913, 0.163476109505, -0.243104428053, -0.034892980009, -0.104473173618, -0.062690824270, 0.273008555174, -0.220486432314, 0.109339639544, 0.366537839174, -0.069011531770, -0.055057261139, -0.078591994941, -0.158457115293, 0.059081107378, -0.327795803547, -0.002372375922, 0.008840133436, -0.077354617417, 0.247533529997, -0.396034866571, 0.013918942772, 0.059764608741, -0.297593832016, -0.095104746521, 0.014419215731, -0.115235805511, 0.013274106197, -0.293806105852, -0.186723783612, 0.041109513491, 0.022650444880, -0.062194664031, -0.177607044578, 0.100027531385, 0.342380344868, 0.088924311101, 0.262823581696, -0.126369222999, 0.062771148980, 0.284193724394, -0.092927180231, -0.192959114909, -0.167846202850, 0.144634321332, 0.078849978745, 0.093101300299, -0.033507548273, 0.113346077502, 0.003784946632, -0.011553157121, -0.192730247974, 0.053818531334, 0.007430558093, -0.342691570520, 0.182506456971, -0.254119843245, 0.021476935595, 0.047790180892, 0.133734643459, 0.105060167611, 0.211064696312, -0.008514783345, -0.063029639423, -0.135765939951, 0.144976124167, -0.128947675228, -0.248658791184, -0.092511989176, -0.062140077353, 0.091957435012, -0.212099373341, -0.394410520792, 0.040238361806, 0.038304697722, 0.148210749030, -0.065165534616, 0.045859679580, -0.281085312366, 0.124889813364, -0.090404547751, 0.124663360417, -0.215302824974, 0.126903772354, -0.031667362899, -0.198482900858, 0.469532430172, 0.050968047231, 0.241291150451, 0.185412138700, 0.210683673620, -0.075052879751, -0.242778033018, -0.313975423574, 0.293783396482, -0.017666378990, 0.036718666553, -0.034793403000, 0.055048685521, 0.281479239464, 0.007975831628, -0.104770332575, -0.069132104516, -0.278957486153, 0.168809354305, 0.130871653557, -0.042611241341, -0.105847328901, 0.469881117344, -0.058618776500, 0.138427197933, 0.029962604865, -0.125197634101, 0.293960779905, -0.148390650749, 0.041468136013, -0.098907426000, -0.109891630709, -0.044499244541, -0.136590674520, -0.045866336673, -0.010564683005, -0.101383037865, 0.145847603679, -0.074773922563, -0.068584635854, 0.104034110904, -0.197711512446, -0.020249754190, -0.122378930449, 0.031704332680, -0.358793735504, 0.220861718059, 0.230755344033, 0.135561779141, 0.182472378016, 0.061376444995, -0.098669320345, 0.097216762602, 0.094616301358, -0.015724815428, -0.065888382494, -0.018551168963, 0.112426504493, -0.104305557907, -0.233866438270, 0.206523239613, -0.149225592613, 0.014085752890, 0.187150746584, 0.128194972873, 0.099592991173, 0.196097642183, 0.118911050260, 0.015631031245, -0.172076910734, 0.147233799100, 0.157581686974, -0.080322541296, 0.167392164469