//Numpy array shape [2, 6, 32]
//Min -0.515552520752
//Max 0.475483924150
//Number of zeros 0

#ifndef QUERY_WEIGHT16_H_
#define QUERY_WEIGHT16_H_

#ifndef __SYNTHESIS__
q_multi_head_attention_47_default_t query_weight16[384];
#else
q_multi_head_attention_47_default_t query_weight16[384] = {-0.188742905855, 0.071102887392, -0.246780946851, 0.209533601999, 0.061979886144, -0.172255784273, -0.184097722173, 0.063144944608, -0.170605033636, -0.016225472093, -0.013452281244, 0.176082894206, -0.183101043105, -0.159696131945, 0.051882073283, -0.036388173699, 0.115072011948, -0.094290047884, 0.157059028745, 0.184586361051, 0.101568192244, -0.112109743059, -0.133379504085, -0.043784040958, 0.005610619206, 0.047215379775, 0.130795538425, -0.254266172647, 0.052761405706, -0.287637144327, -0.015902828425, -0.160662457347, -0.066025711596, -0.090775504708, -0.127756595612, 0.065634928644, -0.009808786213, -0.049788232893, -0.020738353953, 0.181552425027, 0.033958178014, 0.132870510221, 0.141746819019, 0.223884686828, -0.241629824042, -0.291433811188, 0.255127668381, -0.311599731445, 0.209993481636, 0.074086256325, 0.290904253721, 0.077491074800, 0.090840697289, -0.153283938766, 0.374002367258, 0.021586565301, 0.414052575827, 0.041110347956, -0.029864287004, -0.294148564339, 0.182780697942, -0.150713667274, -0.162641167641, -0.497939914465, -0.078785449266, 0.195355936885, -0.068369492888, 0.060527101159, -0.053723134100, 0.148534283042, -0.212799608707, -0.020485507324, -0.047588832676, -0.050636518747, -0.154618605971, 0.091131620109, 0.066165819764, 0.045547373593, -0.256322503090, -0.162782236934, 0.031264208257, -0.164954453707, 0.183886900544, -0.111308626831, -0.111211605370, -0.032049205154, -0.293303608894, -0.033267065883, -0.287455022335, 0.255259931087, -0.015276978724, -0.117263093591, 0.089908838272, -0.259482651949, -0.071095660329, 0.151713103056, -0.120796889067, 0.228068321943, 0.084157101810, 0.139132365584, -0.062265068293, -0.169472649693, 0.160155743361, -0.256055146456, -0.091671124101, 0.099426992238, 0.208168223500, 0.077646031976, -0.136559143662, 0.080366402864, 0.040858607739, -0.033011924475, 0.060674447566, 0.081411629915, 0.237498089671, 0.191133245826, 0.235625147820, 0.184580996633, 0.226389586926, -0.101966626942, 0.091293692589, 0.017310574651, -0.298669636250, 0.013830807060, -0.120433628559, -0.214518904686, -0.078819565475, -0.512161016464, -0.119379237294, -0.271280914545, -0.303265184164, -0.003317817347, 0.220998927951, -0.194190770388, 0.193634957075, -0.013871165924, 0.230691462755, -0.153881102800, -0.079772628844, 0.135395675898, -0.149560034275, -0.203012123704, 0.066570118070, 0.038815431297, 0.266129404306, 0.044755719602, 0.005908460822, 0.112680658698, 0.360392808914, 0.012760165147, 0.009602902457, -0.258148521185, 0.349179357290, -0.062390588224, 0.076151750982, -0.039166338742, -0.142991319299, 0.109875239432, -0.159822478890, 0.289545595646, 0.169344529510, 0.256835043430, 0.008515994065, 0.050707027316, 0.231356680393, 0.056502085179, -0.247627273202, -0.049598421901, -0.276383042336, 0.096233770251, -0.224233716726, -0.056242883205, 0.313378393650, 0.039353843778, 0.133147448301, -0.025211790577, 0.046682152897, -0.216523364186, -0.160267561674, 0.364347577095, -0.044643431902, -0.210972785950, -0.515552520752, -0.029116466641, -0.312638550997, -0.027612159029, 0.475483924150, 0.023447325453, 0.162226483226, -0.011793697253, 0.319843828678, 0.277286559343, -0.123551428318, 0.022446071729, -0.098920367658, 0.117841035128, -0.189498141408, 0.119885988533, 0.131112456322, 0.141094580293, -0.116744332016, 0.023175511509, 0.074680402875, 0.031243152916, -0.028431251645, -0.017162596807, 0.008126473986, 0.125656917691, 0.066444784403, 0.241724252701, -0.019163720310, -0.054347719997, 0.017760593444, -0.004956917372, -0.136965602636, -0.122680746019, 0.087107144296, -0.034545980394, 0.156020775437, -0.008893445134, -0.103719905019, -0.080324873328, -0.003265266540, 0.157509043813, -0.094776116312, 0.170515581965, -0.039572533220, 0.058343198150, 0.126689404249, -0.229072436690, -0.273639917374, -0.117843389511, -0.098541565239, 0.037193525583, 0.160578578711, 0.302908837795, 0.058668773621, -0.158568248153, 0.137391671538, -0.213634625077, 0.200018122792, -0.227920785546, 0.030807912350, 0.089740149677, 0.098514601588, 0.047438699752, -0.051933061332, 0.157263770700, 0.005998983979, 0.166269898415, 0.121600888669, -0.110214814544, -0.029652317986, -0.008466160856, -0.069792263210, 0.172247901559, -0.060646034777, 0.002790079685, -0.054548848420, 0.113423414528, -0.035691738129, -0.160648494959, 0.055061463267, 0.016554402187, -0.186068758368, 0.057838130742, -0.017972745001, 0.128731653094, -0.146781638265, -0.252850055695, 0.034341271967, 0.068962320685, -0.080797336996, -0.091359794140, 0.151551336050, 0.021155612543, 0.032689213753, 0.156610473990, -0.015091474168, -0.031167937443, -0.095792248845, -0.124889627099, 0.248502656817, -0.242267757654, -0.048499185592, -0.041824162006, -0.023169836029, -0.075943261385, 0.279309004545, -0.070315785706, 0.090538807213, 0.148513764143, -0.174210265279, 0.005910982843, 0.209646940231, -0.112724937499, 0.058240272105, 0.016254441813, -0.105232536793, -0.083719871938, 0.146995529532, 0.009105837904, -0.090418830514, -0.054314836860, -0.018831016496, -0.077966883779, -0.142625704408, -0.031144076958, -0.096387356520, 0.030988385901, 0.145344018936, 0.015435312875, 0.094481788576, -0.268561840057, -0.002110582544, 0.269011020660, -0.212544515729, 0.085428729653, -0.031947180629, -0.134919062257, -0.012645524926, -0.156804203987, 0.026302229613, -0.008819188923, 0.081908553839, 0.030499000102, 0.080503366888, -0.021588241681, 0.084084995091, 0.059687897563, 0.190125748515, -0.091820925474, 0.223027631640, 0.116611532867, 0.122794233263, -0.019340667874, -0.116764910519, 0.107680343091, -0.091941140592, -0.156145617366, -0.113719001412, 0.117311708629, -0.143132224679, 0.162191689014, -0.135070666671, -0.060896266252, -0.038420718163, 0.108721375465, 0.083905458450, 0.029784681275, 0.026850130409, -0.111702792346, -0.081432960927, -0.238026097417, 0.096865102649, 0.241249427199, -0.202231019735, -0.052676249295, -0.050961412489, -0.013493933715, 0.062173876911, -0.159883603454, 0.171656191349, 0.028641982004, -0.107184000313, 0.014360453002, -0.109199620783, 0.032659057528, -0.182767823339, 0.293119221926, -0.092757865787, 0.097017496824, -0.045407250524, -0.095784686506, 0.170140221715, 0.156281054020, 0.045410681516, 0.129618808627, 0.213508754969, -0.125528097153, -0.154340222478, -0.155513167381, -0.004938036203, 0.175134405494};
#endif

#endif
