0.045912384987, -0.701385736465, -0.099130332470, 0.135797247291, 0.088765844703, 0.069064326584, 0.181987151504, 0.094518207014, 0.148437470198, 0.017414335161, 0.353951841593, 0.155438661575, 0.324315398932, 0.030910626054, 0.062667191029, 0.108219273388, 0.163305342197, 0.199441850185, -0.359956622124, -0.070310436189, -0.081267513335, 0.129784241319, 0.140290603042, -0.229478657246, 0.095559433103, -0.166400536895, -0.474601477385, 0.163031250238, -0.205323189497, 0.027454290539, 0.398785203695, 0.394468754530, 0.453604668379, 0.282826244831, 0.717057764530, -0.248287320137, -0.089676149189, 0.557461678982, -0.264327436686, 0.695310652256, 0.432478547096, 0.220687389374, 0.462087452412, 0.505173444748, -0.771858692169, -0.140024155378, -0.434726655483, 0.524497210979, 0.534853339195, 0.030509833246, -0.371765881777, -0.412495613098, -0.532068192959, 0.354801744223, 0.291111320257, -0.221321538091, -0.219873487949, 0.889924168587, -0.381039500237, -0.395331561565, 0.330808967352, -0.477593272924, 0.592987120152, -0.324288040400