0.229461133480, 0.553138375282, -0.347383737564, -0.098789557815, 0.213423669338, -0.036253508180, -0.013067285530, -0.239213272929, 0.144382193685, -0.104931287467, -0.039056941867, -0.109239622951, 0.323634207249, -0.546341419220, 0.473831206560, -0.447120934725, 0.136582225561, 0.387198776007, 0.568528175354, -0.117400132120, 0.178799018264, 0.126383826137, -0.283690035343, -0.317688316107, 0.239114075899, 0.254124194384, 0.375972568989, 0.182855412364, 0.428419232368, -0.076742462814, -0.108170121908, -0.227551519871, 0.235401019454, -0.260617017746, -0.095069922507, -0.263297408819, -0.313470304012, -0.100198283792, -0.532034099102, 0.163051411510, -0.288154304028, -0.554449856281, 0.301957279444, 0.289720416069, 0.047204874456, 0.173182398081, -0.322531819344, -0.234586343169, 0.248176172376, -0.087012708187, 0.019736822695, -0.057172793895, 0.393163204193, -0.304819792509, 0.360288679600, 0.273023962975, 0.391696423292, 0.176936745644, 0.239981919527, 0.324549227953, 0.588663637638, -0.305113613605, 0.252593606710, 0.183814883232