//Numpy array shape [2, 32]
//Min -0.203696697950
//Max 0.084440767765
//Number of zeros 0

#ifndef VALUE_BIAS16_H_
#define VALUE_BIAS16_H_

#ifndef __SYNTHESIS__
q_multi_head_attention_47_default_t value_bias16[64];
#else
q_multi_head_attention_47_default_t value_bias16[64] = {-0.017356552184, 0.024463459849, -0.054017622024, 0.023490058258, -0.045676473528, 0.031070891768, -0.023128239438, -0.053022731096, 0.057561825961, 0.048672288656, 0.047127440572, -0.125396311283, -0.064240917563, -0.007990174927, -0.064854480326, 0.036560673267, -0.017950166017, 0.026673553512, -0.045143667608, -0.027859790251, -0.032250624150, 0.032108306885, -0.203696697950, 0.017326012254, 0.004518986214, 0.031071223319, 0.000546322553, -0.004867991433, 0.041262373328, 0.034372508526, -0.001524464111, 0.021780559793, 0.023324238136, 0.084440767765, -0.023688200861, -0.022538932040, 0.001266731648, -0.031228687614, 0.065138503909, 0.021763227880, 0.036013051867, -0.012518069707, -0.040395028889, 0.030731208622, -0.027085298672, -0.014716363512, 0.069794282317, 0.032356239855, -0.008792023174, -0.023642474785, -0.011407016777, -0.032678857446, -0.023281738162, -0.053410965949, 0.040032334626, 0.014590875246, -0.030570505187, 0.015482123941, -0.017655573785, -0.035782851279, -0.004326540045, 0.040933396667, 0.028381057084, -0.015997845680};
#endif

#endif
