-0.120816357, 0.112309419, -0.050759021, -0.066000603, 0.268375188, 0.218017593, 0.028800534, 0.020747775, 0.015034501, 0.029200587, 0.121551998, 0.017072067, 0.026985541, 0.019002214, 0.000358241, -0.024012361, 0.082700811, 0.076722495, 0.147546560, -0.029321330, 0.033567030, 0.009639186, 0.173020780, 0.215871066, 0.029391337, -0.024232980, 0.016317612, -0.011098437, 0.109543085, 0.217818648, 0.126015052, 0.031692091, 0.036458153, 0.141379058, -0.350899339, -0.217874333, 0.132204100, 0.027717458, 0.031370245, 0.052839164, 0.251763731, 0.139931947, 0.011103208, -0.030552188, -0.031756982, 0.083575733, -0.098903082, -0.079104543, -0.075741291, -0.093401648, 0.010039013, 0.215458632, -0.033799216, -0.065890409, 0.041642174, -0.103022568, -0.034382656, 0.243236378, -0.143095315, -0.037876438, -0.029628646, -0.033314638, 0.093618959, -0.074855186, -0.251640439, 0.188653171, 0.208079964, 0.091802925, 0.028831476, -0.086515054, 0.202425033, -0.169610366, 0.021314234, 0.026655192, 0.027759571, -0.026657334, -0.145049199, -0.178325996, 0.224763334, 0.131194562, 0.030832414, -0.090663493, -0.044189945, -0.030363102, 0.107497133, 0.047098491, -0.050903786, -0.016463231, 0.206658781, -0.016766189, -0.042892847, -0.066019319, -0.082558632, 0.102671348, 0.046011370, -0.136758029, 0.025101447, 0.028772311, -0.027959190, -0.049180605, -0.085106008, -0.304870933, -0.114336409, -0.093960918, 0.022653431, 0.074313559, 0.044848714, 0.137629703, -0.120158069, -0.142355666, -0.165029228, 0.014840760, 0.064516410, -0.037618198, 0.109571882, 0.149814233, -0.154996425, 0.079056568, -0.010203826, 0.150398627, -0.085749730, -0.079287089, -0.051243767, 0.132398188, 0.031228494, 0.094080664, 0.032299228, -0.023828214, 0.092024148, -0.119420268, 0.130991057, 0.238051742, 0.011662249, -0.021010356, -0.029652633, 0.075537346, 0.037418682, -0.012716444, 0.032648876, 0.138112947, 0.128850847, -0.121572778, 0.250445843, -0.261289448, -0.029021556, 0.028339261, 0.011753703, -0.069721542, 0.098422460, -0.190979421, -0.078046449, -0.032123316, -0.140620068, 0.151783392, -0.301500142, 0.043254882, -0.227708593, 0.029291729, 0.039950423, 0.012310057, -0.000967688, 0.320963681, 0.006860519, 0.026031330, -0.009271690, -0.026346410, 0.040319309, -0.067860402, 0.041117270, -0.040587600, -0.018774495, 0.041752830, -0.084975258, 0.110271595, -0.105052657, -0.004485168, -0.055018272, -0.021709789, 0.156858653, 0.217248648, 0.030149065, -0.029155014, -0.028277587, 0.083397634, 0.013718141, 0.010139655, 0.249823764, 0.093525663, -0.023440804, 0.075544387, -0.041721217, 0.093769051, -0.033444021, -0.032344133, -0.046156891, 0.079502784, 0.356139183, 0.054973297, -0.171812505, 0.055522408, -0.013134169, -0.113743566, -0.149425298, 0.097457655, -0.129655972, 0.032524187, -0.032315522, -0.092772603, 0.145092562, 0.374211848, 0.029842651, 0.031422015, 0.057954449, -0.115998603, 0.055777028, 0.013590191, 0.041923039, 0.034475658, -0.023889147, -0.074842542, 0.116581328, -0.047387302, 0.033147357, -0.030186158, -0.021465605, 0.080787927, 0.257231832, 0.037970822, 0.029821295, 0.031039461, 0.027753843, -0.093010105, -0.116382800, 0.021175100, -0.032162834, -0.092238128, -0.031063760, 0.095524527, 0.161514148, 0.211946666, -0.049392473, -0.032098722, 0.157185271, -0.019322464, -0.040532161, 0.188959494, -0.156558335, 0.076981448, -0.003473199, -0.163210794, -0.077299409, -0.059195589, 0.097759120, 0.184328645, 0.149894059, -0.047616214, 0.337002426, -0.466539770, 0.109360591, 0.069947384, 0.027397558, -0.018631434, -0.014361586, -0.026190998, 0.130394161, -0.042346608, 0.031411674, 0.097353540, -0.172312006, 0.346265733, -0.252245814, -0.030497784, 0.237867966, 0.154024228, -0.075942189, -0.025351226, 0.027138097, 0.023389682, 0.047291577, 0.021167014, -0.245330691, -0.068008214, 0.149569914, -0.017065940, 0.035527345, -0.025564168, 0.073463775, -0.095209613, 0.170906708, -0.139383748, -0.027117986, 0.145488545, 0.027811218, -0.294861048, -0.020776056, 0.030516144, -0.031790517, -0.068318464, 0.218639567, -0.156327084, 0.091807209, 0.011146822, 0.027578430, 0.052089307, 0.095012955, -0.084752291, -0.031318862, 0.033103999, -0.032018226, -0.102529116, 0.276282966, 0.219707340, -0.062523790, 0.113148391, 0.115537286, -0.152247295, -0.049632382, -0.086367667, -0.115718350, 0.068035834, -0.060691606, -0.070965886, -0.142927319, -0.298903167, 0.034549192, 0.062762372, 0.064986460, 0.033652134, 0.158722207, -0.044066165, 0.085885003, 0.066889532, -0.082380354, 0.011257871, 0.134369299, 0.363601029, -0.161065578, -0.053647459, -0.055672918, 0.031500526, 0.187149048, 0.263004661, 0.090924241, 0.078560568, -0.007184520, -0.013058116, 0.205496803, -0.083037220, -0.030188547, -0.012627916, 0.013080326, 0.034085810, 0.015292237, -0.145069659, -0.053980518, -0.180546924, -0.026289783, -0.162733257, -0.090831548, 0.249442622, -0.030418269, -0.031425234, -0.031042172, 0.033119950, 0.192546457, -0.012963292, 0.150041327, -0.030857800, 0.157651156, 0.086601876, 0.102101289, -0.145896256, 0.006379860, 0.022710171, 0.013737688, 0.022053121, -0.112443335, -0.072552353, -0.209822297, 0.142362446, -0.132330179, -0.156925455, 0.216449425, 0.292958587