//Numpy array shape [2, 32, 6]
//Min -0.367418140173
//Max 0.334756195545
//Number of zeros 0

#ifndef ATTENTION_OUTPUT_WEIGHT9_H_
#define ATTENTION_OUTPUT_WEIGHT9_H_

#ifndef __SYNTHESIS__
q_multi_head_attention_46_default_t attention_output_weight9[384];
#else
q_multi_head_attention_46_default_t attention_output_weight9[384] = {0.085380502, 0.116543636, 0.064072825, 0.019366916, 0.254199892, -0.073013812, -0.056760252, 0.035060447, 0.168323413, -0.108064175, 0.107298039, -0.050853752, 0.123019256, -0.125527278, -0.090437450, -0.002514001, 0.154394373, 0.209640250, 0.004932638, 0.105054423, 0.092450708, -0.043071680, -0.071739934, -0.132189408, -0.028653581, 0.005599455, 0.030265322, 0.104916781, -0.097508051, 0.085733585, -0.061834931, 0.086380996, 0.105166569, -0.109132454, 0.026876522, -0.117997482, -0.162893683, 0.220038190, 0.251344979, 0.032996260, 0.038365301, -0.100829594, 0.033758089, 0.112810530, 0.177507252, -0.124594852, -0.040188599, 0.170475885, 0.065414034, 0.146401390, 0.087690391, -0.088940181, -0.043980524, -0.135673970, 0.036777489, -0.171019018, -0.185353056, 0.093238331, 0.094819106, 0.211190745, 0.135216579, -0.127729431, -0.113143072, -0.091560498, -0.018293021, -0.090773962, 0.148675725, -0.043953307, -0.029068716, -0.063489668, -0.228871778, -0.157186106, 0.033353675, -0.183906510, -0.159550563, -0.026521577, -0.093363196, -0.248482034, 0.034261990, -0.047749512, -0.033679899, 0.040939745, 0.081548281, 0.112346940, -0.026613697, 0.037612412, -0.081698857, -0.061629135, 0.169022113, -0.075452730, 0.048096366, 0.098675914, 0.023633918, -0.168744802, 0.113829404, -0.227839828, 0.075552650, 0.220824689, 0.159240350, 0.091099381, -0.166884378, 0.219819337, -0.195175886, 0.176710337, -0.200330243, 0.044222619, 0.099916831, 0.045569520, 0.152453899, -0.001424340, 0.081451558, -0.010818739, -0.125758231, -0.236832574, 0.120222628, -0.153127000, -0.080318406, 0.033359084, -0.050207041, 0.088018060, 0.106517188, 0.151330665, -0.046434369, -0.315021485, -0.179795593, -0.093845852, 0.059925307, 0.096824840, 0.094664194, 0.033073269, 0.142573357, 0.028186798, 0.005061411, 0.156043410, -0.030693365, -0.082829773, 0.148501620, -0.161751091, 0.061682846, -0.155669272, -0.105806530, 0.141821831, 0.206065401, 0.153634965, -0.148318619, -0.045158096, 0.027099181, -0.119821899, -0.044268087, -0.157408655, -0.133876249, 0.035519175, -0.052894764, -0.212210953, 0.217605203, -0.210900053, -0.093846224, -0.065235220, -0.034310386, 0.146664828, -0.095141038, -0.090419874, 0.027400967, -0.120487608, 0.010840064, 0.055666126, -0.227990046, -0.034140691, -0.182098359, 0.189182997, 0.155386508, -0.108476140, 0.212535888, 0.155656919, 0.081637166, 0.274653852, -0.007361874, -0.287608415, 0.019825630, 0.099632397, 0.040497348, 0.066612929, 0.123894580, -0.074265078, 0.046667386, 0.045956973, -0.029005736, -0.155193567, -0.000158986, 0.015291062, -0.283585101, 0.217726469, 0.160868436, 0.063593462, 0.149187759, 0.219927058, 0.145453244, -0.022414122, -0.005240873, -0.151906714, -0.055602871, -0.057494637, -0.057599187, -0.032918766, -0.268899858, 0.008457213, -0.025450971, 0.214588687, 0.182060078, -0.044707511, -0.065005064, 0.030236334, 0.026790904, 0.030108182, -0.165215045, -0.182104453, 0.094092429, -0.027650924, 0.031956576, -0.071609318, 0.210160524, -0.102795348, 0.022950565, 0.114633761, -0.156041294, -0.092134640, 0.188187137, 0.114986196, 0.009683948, -0.130429909, -0.030003212, 0.114074059, -0.221746206, 0.149186388, 0.126263201, -0.016022440, -0.139095187, -0.083079718, -0.132654697, 0.087322161, 0.029295743, 0.002445149, -0.022500159, -0.028571520, -0.129028901, -0.076989576, 0.122318536, 0.153724626, 0.096680075, -0.094310261, 0.256728619, 0.264156669, -0.054605503, -0.222874090, -0.077336222, 0.216808468, -0.201205105, 0.068905301, -0.021784132, -0.185508281, 0.041352853, 0.094982482, -0.367418140, 0.086534224, -0.128352568, 0.002374584, -0.106824622, 0.013240851, 0.169540361, 0.016873486, -0.036746159, -0.147037596, -0.141498014, 0.034922112, -0.041397732, 0.094444431, -0.154043138, 0.040593147, -0.023464855, 0.002101064, -0.032576993, -0.133529231, 0.054698106, 0.135828674, 0.030436017, -0.155064628, -0.174668446, 0.069612123, 0.029602623, -0.094993070, -0.081859797, 0.108868614, 0.204898179, -0.049859550, -0.156663641, 0.137022659, 0.084647842, -0.004910265, 0.128778219, -0.357685715, -0.092111975, 0.087078482, -0.053393234, 0.086933672, 0.092342913, -0.150454804, -0.113598540, 0.011573621, 0.089843281, 0.153620049, -0.290420026, 0.226762787, 0.027345965, -0.094149955, -0.100892358, 0.077511907, 0.334756196, -0.079953134, -0.141722873, -0.018153200, 0.125190914, -0.123628713, -0.113791510, 0.181130588, 0.199390754, 0.063878961, 0.089747824, -0.056565814, -0.182723343, -0.124316528, -0.087135516, 0.152120054, 0.081783518, -0.111355856, -0.246252194, -0.039557274, 0.250815094, 0.198787376, -0.026376463, -0.222538263, 0.009852376, 0.125201955, 0.010197812, 0.106980428, 0.146943077, -0.209407851, 0.175298259, 0.235843629, -0.003877186, 0.037218284, 0.019139094, -0.079222061, -0.012253975, -0.288679212, -0.113319598, 0.083751604, -0.057610240, -0.029031130, 0.134529769, 0.053653289, -0.028109334, -0.090593562, -0.023084659, -0.122875057, -0.072474569, 0.158098042, 0.034473810, -0.067242481, -0.004155993, -0.057096284, 0.199435830, 0.278719038, -0.259037018, 0.044457920, -0.018413231, -0.191643402, -0.241419241, -0.261027634, 0.030436527, -0.044195108, 0.031883858, 0.036164507, 0.117258213, 0.100727372};
#endif

#endif
