//Numpy array shape [2, 32, 6]
//Min -0.374604731798
//Max 0.396477103233
//Number of zeros 0

#ifndef ATTENTION_OUTPUT_WEIGHT16_H_
#define ATTENTION_OUTPUT_WEIGHT16_H_

#ifndef __SYNTHESIS__
q_multi_head_attention_47_default_t attention_output_weight16[384];
#else
q_multi_head_attention_47_default_t attention_output_weight16[384] = {0.091798156, 0.020580700, 0.189732775, -0.255741268, -0.121927805, -0.132758409, 0.034196183, -0.219639689, -0.045166139, -0.153549910, 0.001281954, -0.030802824, 0.128252074, -0.037124529, 0.010221591, 0.145618975, -0.176004320, 0.100257903, 0.280577689, 0.092039838, -0.028774088, -0.309546590, -0.020774176, 0.271254778, 0.075299516, 0.396477103, 0.174058780, -0.028634507, 0.002863883, -0.040774710, -0.136116952, 0.123734161, 0.023332259, 0.007162347, 0.129078656, 0.159680694, 0.054370638, 0.234204203, -0.224692211, 0.188638732, 0.117913581, 0.131386578, 0.161059365, 0.089097507, 0.093324892, 0.085323416, 0.143159330, -0.018193144, -0.022886856, -0.218456492, 0.041630812, -0.086031608, -0.156525016, 0.110116124, -0.144922212, -0.224384651, 0.248335525, -0.075000085, 0.127951682, 0.094673418, -0.152756333, 0.039122131, 0.042618122, -0.322072774, 0.046399157, 0.115462586, -0.196830660, 0.199049488, 0.161384851, -0.131254479, 0.030756325, -0.283417016, 0.082932927, 0.329955429, -0.084580116, -0.056807455, 0.070353083, -0.054466866, 0.153137505, -0.040837921, -0.115302153, -0.344483078, -0.061860140, -0.050035022, -0.032142948, 0.131129622, 0.048814181, -0.024868118, 0.088626303, -0.157871217, -0.175440058, -0.316153765, 0.056251034, -0.234530225, -0.036336534, 0.041134737, -0.006604441, -0.136516899, -0.273058265, 0.177264661, -0.143706366, -0.042496298, 0.098013565, 0.122923493, 0.022264825, -0.157643870, -0.146627843, -0.183622196, -0.213107660, 0.049121208, -0.110236354, -0.056272969, 0.233685195, -0.062945239, -0.253794312, -0.113700174, -0.012610732, 0.134238392, 0.014593163, -0.050198033, -0.088255398, 0.112379983, -0.031191967, 0.100350082, 0.035445906, 0.003087064, -0.173079893, -0.148197815, 0.183838651, -0.180877313, 0.065039478, -0.158399671, 0.021785848, 0.369225353, 0.262485683, 0.160059065, -0.093496211, -0.273040354, 0.206848964, 0.114492282, 0.143725067, -0.180280596, 0.149983481, 0.224002853, -0.208000198, -0.080711305, -0.130721033, -0.153637230, 0.155682519, -0.223534882, -0.096267276, -0.139239833, 0.179615676, 0.029288737, -0.170649514, -0.111012794, 0.162266105, 0.210433424, -0.164265782, 0.275343180, -0.017087741, 0.250394821, 0.032190520, 0.154396385, 0.037781775, 0.080188677, -0.037802238, 0.011906859, -0.075716130, -0.023588510, -0.096483134, -0.134522393, 0.191175878, 0.133292019, -0.036491778, -0.009284882, 0.112012848, 0.177102879, -0.036144011, -0.026631735, -0.129357517, -0.130473718, 0.154500723, -0.247757077, -0.100803860, -0.100463614, 0.034940656, -0.189553410, 0.084852330, 0.028393259, 0.031886589, 0.157274321, 0.117293857, 0.123031281, 0.195532173, 0.175481081, -0.055322401, 0.005111349, -0.116660044, 0.204386592, 0.057694089, -0.093670070, 0.052469607, -0.178034306, 0.098082840, -0.286838502, 0.189924523, 0.048052534, 0.219103500, -0.122676753, -0.063252576, 0.164978638, -0.030784532, 0.137421072, 0.217740491, -0.047507711, 0.156498015, 0.070654504, -0.243411928, 0.121454060, -0.062967934, -0.314840406, 0.303159624, 0.012663983, 0.187779441, -0.040011037, 0.106828406, 0.312645525, -0.045934100, 0.099117927, -0.081678912, 0.269633830, -0.055606883, 0.177306697, -0.327017367, -0.192212164, -0.118322231, 0.382964611, -0.080080085, -0.118816242, -0.125626892, -0.243697539, -0.123333372, 0.062067326, 0.019493548, 0.108295694, 0.031020273, -0.023385458, 0.268556684, 0.322850287, 0.231391162, 0.317708820, 0.093013853, 0.158879623, -0.148388878, 0.240624100, -0.177553833, -0.262818873, -0.015910065, 0.135991246, 0.234491944, -0.092400573, -0.086223967, 0.273079604, 0.133958027, -0.316571206, -0.339359671, -0.101844512, -0.054267801, -0.002405928, 0.101511486, -0.360296816, 0.289615035, 0.345263660, 0.028955728, 0.166117489, -0.240607783, 0.070152104, -0.008878102, 0.071636938, 0.033251420, 0.115695477, -0.175836548, 0.203371271, 0.162238032, -0.157575130, -0.206144765, -0.259353429, 0.004961954, 0.251043707, 0.318422288, -0.002107776, -0.227630541, 0.230514482, 0.134789214, -0.108033091, 0.086272173, 0.151162267, 0.112238556, 0.204446539, 0.307013810, 0.262455165, 0.359662354, 0.034326926, 0.094402961, -0.145672500, 0.061795723, 0.185961246, 0.337142020, -0.094566807, 0.048958436, 0.041313510, -0.098050654, -0.073922880, 0.210854128, -0.102626257, -0.029043678, -0.079638988, 0.141090780, 0.183103234, -0.354361564, -0.234372541, 0.229866773, -0.374604732, -0.068490207, -0.046397600, -0.268622309, 0.031933375, -0.080735914, 0.266366661, 0.274545729, -0.358911604, -0.191723064, -0.004174361, -0.020952964, 0.207121491, 0.227893457, -0.202670708, -0.255744189, -0.189261690, 0.282944679, 0.255801469, 0.032383606, 0.113109507, -0.356839776, -0.112396240, 0.011591939, 0.018261801, 0.078038387, 0.183032990, -0.045493294, 0.240371853, -0.128276274, -0.191945300, 0.113974445, -0.264354140, 0.162435502, 0.326181561, 0.219389886, 0.005608211, -0.017805088, -0.051183064, -0.058438171, -0.367569596, -0.007052973, -0.244142428, 0.027798949, 0.382200241, -0.123842619, 0.056215148, 0.167967126, -0.068982713, 0.037828315, -0.139484331, 0.058773912, -0.140747160, -0.252480984, 0.132340804, 0.020670906, -0.184075281, 0.279494435, 0.285389751, -0.152454361, -0.034229420};
#endif

#endif
