//Numpy array shape [2, 6, 32]
//Min -2.231344223022
//Max 2.320457696915
//Number of zeros 0

#ifndef KEY_WEIGHT2_H_
#define KEY_WEIGHT2_H_

#ifndef __SYNTHESIS__
q_multi_head_attention_45_default_t key_weight2[384];
#else
q_multi_head_attention_45_default_t key_weight2[384] = {-0.084497713, 0.199228227, 0.062828109, -0.006334138, -0.197904393, 0.182341456, 0.004003316, -0.043083575, 0.395304918, -0.163435906, 0.187287599, -0.153959125, -0.200265288, -0.010598821, 0.022935919, 0.091619052, 0.417330712, -0.171410888, -0.082010776, -0.184254989, 0.112827033, 0.159369767, 0.124719262, 0.015039491, -0.081199206, -0.118968837, 0.241859928, -0.141455829, -0.327025115, -0.176289380, 0.093425572, 0.024987256, -0.154556572, -0.574880719, 0.147436500, 0.221353590, 0.433930278, -0.120224848, -0.246165663, 0.175666377, -0.320670158, 0.470429987, -0.514183044, -0.286345929, 1.091355443, -0.372574866, 0.267871946, -0.602594495, -0.329936504, 0.078010626, 0.536364615, 0.249978423, -0.080022953, -0.012918132, -0.576176584, 0.108856000, 0.110645711, -0.251958460, 0.181513831, 0.117622480, 0.761005819, -0.041650031, -0.509860218, 0.085419677, 0.919551730, 0.820277572, 0.096279703, 0.077348061, -0.588272214, 0.361269504, -0.507359266, 0.574404716, 0.370418251, -0.772926331, -0.041482609, -0.028676854, -0.457786202, -0.091555893, -0.577437758, 0.351785988, 1.000452280, -0.586350679, -0.173266321, -0.422154933, 0.115703441, 0.714337528, 0.868840158, 0.297421515, -0.408928543, -0.022576816, 0.432531297, -0.416546613, -0.513212740, -0.291162372, 0.176581740, 0.296812356, -0.288422167, -0.575598478, 0.322256207, 0.349959046, 0.719242275, -0.101778969, -0.012028299, 0.093973897, -0.037172254, 0.305613011, -0.077245817, -0.310444236, 0.450145215, -0.461826414, -0.023665279, -0.144768745, -0.571632326, -0.274516463, 0.493573666, 0.260615230, 0.098731264, -0.023459608, -0.377812028, -0.402388930, 0.040229090, 0.076382615, 0.210453197, 0.055258993, 0.273767680, -0.278758109, -0.345391065, 0.003665518, 0.175138891, 2.320457697, -0.498453766, -0.008159936, -0.762100697, 0.466177315, -0.394305974, -0.181670964, 0.851887941, -1.240837216, 0.431255668, -0.054802593, -2.144006968, 1.556518912, -0.275428385, 0.068049058, 1.822956204, 0.014478762, -0.814358592, -1.160038710, 0.361221641, 0.694278538, 0.967719793, 0.378495574, 0.497553855, -0.217417493, 0.421205014, -0.261941046, -2.231344223, 0.316429436, 1.212029099, 0.265218228, -0.313459069, -1.842383623, -0.430879503, -0.463497609, 0.780890286, -0.443920523, -0.187231451, 0.083272338, -0.023201831, 0.467617273, -0.182504967, -0.154745832, 1.123937607, -0.432951093, -0.141245484, -0.839770198, -1.630715609, 0.124382064, 0.323933035, 0.349965602, 0.131275475, -0.957966328, -0.782215238, 0.161968485, 0.600968659, 0.067118809, -0.169857845, 0.209835947, 1.681649089, -0.111417145, -0.669909775, -0.406222552, -0.068887845, -0.096675150, 0.011161184, -0.050564915, 0.010390226, -0.093584210, -0.071616538, -0.066584095, 0.253258467, 0.116366118, 0.044425003, 0.110187106, -0.031897862, -0.060228389, 0.038053028, 0.014749941, -0.116249092, 0.123767190, 0.070368871, -0.087718263, 0.116176032, 0.106092326, 0.023686109, 0.087369472, 0.061560426, 0.112611800, -0.116892546, 0.062754750, -0.131688073, 0.076998606, -0.074554779, -0.021007257, -0.235710025, -0.015198045, 0.255463362, 0.029192558, 0.393054992, -1.119863987, -0.068604648, 0.013182434, 0.001202438, -0.317617476, -0.152874395, -0.227536887, 0.336185485, -0.203066245, -0.050851818, 0.172082499, 0.144903049, 0.158525676, -0.094106175, -0.043602724, 0.146678314, 0.125253960, -0.166546360, 0.063758001, 0.266166508, -0.107326902, -0.042333774, 0.315612465, -0.258976489, -0.501717269, -0.028196588, 0.196865231, -0.047688007, -0.061432242, 0.219571307, -0.075385608, -0.360381424, 0.654130280, 0.051844206, 0.120945796, -0.490418315, -0.100601532, 0.223345131, -0.184072614, -0.408746511, 0.311131299, -0.006226356, 0.129022732, 0.157545835, -0.298745722, 0.177692086, 0.067327820, -0.062483966, -0.260638922, -0.251406819, -0.023671476, 0.157147765, -0.519869626, -0.190110862, -0.378119528, 0.319682956, 0.245985836, 0.045909479, 0.366448045, -0.197916850, 0.060187798, -0.058536366, -0.075120732, 0.390087038, -1.154292345, -0.270388693, 0.174761683, -0.109688938, -0.153586045, -0.409078032, -0.319125235, 0.633380890, 0.081924886, 0.275386602, -0.125072688, 0.040713493, 0.020383978, -0.359184772, 0.062912531, -0.160799757, 0.057552110, 0.056595217, 0.208208770, -0.084062681, -0.072099760, -0.214038372, -0.096539266, -0.059951246, -0.433578014, 0.343695998, 0.125765577, -0.228518829, -0.013916353, 0.173747987, 0.302161455, -0.678937435, 1.396216869, 0.347610086, -0.218693763, -0.234946623, -0.301930994, 0.618046582, -0.264878571, -0.697546184, -0.055648081, 0.217082396, 0.391812950, -0.164362788, -0.697394431, 0.440990835, -0.062785722, 0.152770922, -0.365548432, -0.209036261, -0.366451740, 0.016345493, -0.261966556, -0.264487267, -0.519330919, 0.335991561, 0.206581131, -0.000744903, 0.006633306, -0.036929522, -0.418908328, 0.183157116, 0.005713368, 0.616028905, -1.331775069, -0.513378561, 0.075641364, 0.116443552, -0.087881058, -0.391863346, 0.165614039, 0.648379624, -0.102082394, 0.383080810, -0.105244547, -0.021630786, 0.483590990, -0.234627008, -0.145921692, 0.097410150, -0.160407305, 0.355854124, 0.151398122, -0.214303195, -0.026462808, -0.068203866, 0.052169148, -0.193612158, -0.434598804, -0.060811024, -0.223096624};
#endif

#endif
