-0.188742906, 0.071102887, -0.246780947, 0.209533602, 0.061979886, -0.172255784, -0.184097722, 0.063144945, -0.170605034, -0.016225472, -0.013452281, 0.176082894, -0.183101043, -0.159696132, 0.051882073, -0.036388174, 0.115072012, -0.094290048, 0.157059029, 0.184586361, 0.101568192, -0.112109743, -0.133379504, -0.043784041, 0.005610619, 0.047215380, 0.130795538, -0.254266173, 0.052761406, -0.287637144, -0.015902828, -0.160662457, -0.066025712, -0.090775505, -0.127756596, 0.065634929, -0.009808786, -0.049788233, -0.020738354, 0.181552425, 0.033958178, 0.132870510, 0.141746819, 0.223884687, -0.241629824, -0.291433811, 0.255127668, -0.311599731, 0.209993482, 0.074086256, 0.290904254, 0.077491075, 0.090840697, -0.153283939, 0.374002367, 0.021586565, 0.414052576, 0.041110348, -0.029864287, -0.294148564, 0.182780698, -0.150713667, -0.162641168, -0.497939914, -0.078785449, 0.195355937, -0.068369493, 0.060527101, -0.053723134, 0.148534283, -0.212799609, -0.020485507, -0.047588833, -0.050636519, -0.154618606, 0.091131620, 0.066165820, 0.045547374, -0.256322503, -0.162782237, 0.031264208, -0.164954454, 0.183886901, -0.111308627, -0.111211605, -0.032049205, -0.293303609, -0.033267066, -0.287455022, 0.255259931, -0.015276979, -0.117263094, 0.089908838, -0.259482652, -0.071095660, 0.151713103, -0.120796889, 0.228068322, 0.084157102, 0.139132366, -0.062265068, -0.169472650, 0.160155743, -0.256055146, -0.091671124, 0.099426992, 0.208168224, 0.077646032, -0.136559144, 0.080366403, 0.040858608, -0.033011924, 0.060674448, 0.081411630, 0.237498090, 0.191133246, 0.235625148, 0.184580997, 0.226389587, -0.101966627, 0.091293693, 0.017310575, -0.298669636, 0.013830807, -0.120433629, -0.214518905, -0.078819565, -0.512161016, -0.119379237, -0.271280915, -0.303265184, -0.003317817, 0.220998928, -0.194190770, 0.193634957, -0.013871166, 0.230691463, -0.153881103, -0.079772629, 0.135395676, -0.149560034, -0.203012124, 0.066570118, 0.038815431, 0.266129404, 0.044755720, 0.005908461, 0.112680659, 0.360392809, 0.012760165, 0.009602902, -0.258148521, 0.349179357, -0.062390588, 0.076151751, -0.039166339, -0.142991319, 0.109875239, -0.159822479, 0.289545596, 0.169344530, 0.256835043, 0.008515994, 0.050707027, 0.231356680, 0.056502085, -0.247627273, -0.049598422, -0.276383042, 0.096233770, -0.224233717, -0.056242883, 0.313378394, 0.039353844, 0.133147448, -0.025211791, 0.046682153, -0.216523364, -0.160267562, 0.364347577, -0.044643432, -0.210972786, -0.515552521, -0.029116467, -0.312638551, -0.027612159, 0.475483924, 0.023447325, 0.162226483, -0.011793697, 0.319843829, 0.277286559, -0.123551428, 0.022446072, -0.098920368, 0.117841035, -0.189498141, 0.119885989, 0.131112456, 0.141094580, -0.116744332, 0.023175512, 0.074680403, 0.031243153, -0.028431252, -0.017162597, 0.008126474, 0.125656918, 0.066444784, 0.241724253, -0.019163720, -0.054347720, 0.017760593, -0.004956917, -0.136965603, -0.122680746, 0.087107144, -0.034545980, 0.156020775, -0.008893445, -0.103719905, -0.080324873, -0.003265267, 0.157509044, -0.094776116, 0.170515582, -0.039572533, 0.058343198, 0.126689404, -0.229072437, -0.273639917, -0.117843390, -0.098541565, 0.037193526, 0.160578579, 0.302908838, 0.058668774, -0.158568248, 0.137391672, -0.213634625, 0.200018123, -0.227920786, 0.030807912, 0.089740150, 0.098514602, 0.047438700, -0.051933061, 0.157263771, 0.005998984, 0.166269898, 0.121600889, -0.110214815, -0.029652318, -0.008466161, -0.069792263, 0.172247902, -0.060646035, 0.002790080, -0.054548848, 0.113423415, -0.035691738, -0.160648495, 0.055061463, 0.016554402, -0.186068758, 0.057838131, -0.017972745, 0.128731653, -0.146781638, -0.252850056, 0.034341272, 0.068962321, -0.080797337, -0.091359794, 0.151551336, 0.021155613, 0.032689214, 0.156610474, -0.015091474, -0.031167937, -0.095792249, -0.124889627, 0.248502657, -0.242267758, -0.048499186, -0.041824162, -0.023169836, -0.075943261, 0.279309005, -0.070315786, 0.090538807, 0.148513764, -0.174210265, 0.005910983, 0.209646940, -0.112724937, 0.058240272, 0.016254442, -0.105232537, -0.083719872, 0.146995530, 0.009105838, -0.090418831, -0.054314837, -0.018831016, -0.077966884, -0.142625704, -0.031144077, -0.096387357, 0.030988386, 0.145344019, 0.015435313, 0.094481789, -0.268561840, -0.002110583, 0.269011021, -0.212544516, 0.085428730, -0.031947181, -0.134919062, -0.012645525, -0.156804204, 0.026302230, -0.008819189, 0.081908554, 0.030499000, 0.080503367, -0.021588242, 0.084084995, 0.059687898, 0.190125749, -0.091820925, 0.223027632, 0.116611533, 0.122794233, -0.019340668, -0.116764911, 0.107680343, -0.091941141, -0.156145617, -0.113719001, 0.117311709, -0.143132225, 0.162191689, -0.135070667, -0.060896266, -0.038420718, 0.108721375, 0.083905458, 0.029784681, 0.026850130, -0.111702792, -0.081432961, -0.238026097, 0.096865103, 0.241249427, -0.202231020, -0.052676249, -0.050961412, -0.013493934, 0.062173877, -0.159883603, 0.171656191, 0.028641982, -0.107184000, 0.014360453, -0.109199621, 0.032659058, -0.182767823, 0.293119222, -0.092757866, 0.097017497, -0.045407251, -0.095784687, 0.170140222, 0.156281054, 0.045410682, 0.129618809, 0.213508755, -0.125528097, -0.154340222, -0.155513167, -0.004938036, 0.175134405