//Numpy array shape [2, 6, 32]
//Min -0.307406604290
//Max 0.320714265108
//Number of zeros 0

#ifndef VALUE_WEIGHT16_H_
#define VALUE_WEIGHT16_H_

#ifndef __SYNTHESIS__
q_multi_head_attention_47_default_t value_weight16[384];
#else
q_multi_head_attention_47_default_t value_weight16[384] = {0.001783375, 0.095541790, 0.125368923, -0.080298252, -0.110979758, -0.033632677, 0.087181628, -0.041798007, -0.029985156, -0.087617315, 0.069928661, 0.184689537, 0.047596324, 0.178016886, -0.095233627, 0.078825235, -0.055382133, -0.064983428, 0.049931701, 0.097688809, -0.029574718, -0.054792348, -0.114386536, -0.134342715, 0.003229271, -0.041713536, -0.127916813, -0.053837944, -0.012370016, -0.064239033, 0.146526411, 0.091731884, -0.054032367, 0.098777987, 0.163601786, -0.087715358, -0.218655556, -0.081423596, -0.110319577, -0.181593940, -0.032255553, 0.176357791, 0.081750311, -0.112540036, -0.094054133, -0.026355842, -0.176133811, 0.014206293, -0.035298821, -0.090129443, 0.067791745, -0.058640931, -0.176537991, 0.061945383, -0.156044260, 0.057085492, 0.084640816, 0.046360470, -0.026500151, -0.092333421, 0.131882131, 0.103174478, -0.001272569, 0.000044545, -0.151184931, -0.090920247, -0.093491755, -0.128066763, -0.071606331, 0.119482368, -0.109422423, -0.046411775, -0.106724374, -0.126801476, -0.150213718, 0.134499982, 0.019561416, 0.136591077, 0.062189788, -0.093917884, 0.047249895, 0.048537102, -0.038516618, 0.115653738, 0.097804613, 0.031733792, -0.085531794, -0.059567317, 0.110438965, -0.097817622, 0.005867154, -0.075178832, -0.072312035, 0.013236202, -0.017500710, 0.051913645, 0.176759183, 0.162257522, 0.030618513, 0.163149312, -0.094157577, 0.030222338, -0.082921103, 0.176368237, 0.033545144, -0.061122581, 0.167149812, 0.103440173, 0.178730056, 0.120825946, -0.039588295, 0.121062532, 0.099324152, -0.063153110, 0.053920195, 0.035020947, -0.070318274, -0.085423730, -0.151658058, -0.031973813, -0.031142114, -0.029108046, -0.066532657, 0.136388212, 0.096077546, -0.183927581, 0.113999501, 0.082043685, 0.091795705, -0.027250130, 0.057205837, 0.141660899, 0.140724063, 0.052306484, -0.155568793, -0.038443513, 0.222062573, -0.102709025, 0.116691686, -0.148375675, -0.129636735, 0.095169418, -0.110326603, 0.248695314, -0.001545133, 0.239030823, -0.070205487, 0.030370593, 0.056334596, -0.070647873, -0.157101944, -0.142019510, -0.051864997, 0.029605743, -0.026290899, -0.101939626, -0.075384900, -0.140469477, 0.046609852, -0.137725025, -0.028919285, 0.011496547, -0.030709468, -0.255998880, -0.032692648, -0.208312765, -0.028554266, 0.044513039, -0.021084404, 0.093969397, 0.026133930, -0.014076340, 0.057107329, -0.035613216, 0.035102222, 0.019577008, -0.053773362, 0.106158853, 0.021333648, -0.000842562, 0.053509820, -0.183906853, 0.216262594, -0.114577480, 0.166753620, 0.053642064, 0.012034905, 0.038396642, -0.104535192, 0.017790554, 0.003457445, -0.194916278, -0.105572112, 0.161504343, -0.036144514, -0.095784731, 0.099011123, -0.123091258, -0.128452852, -0.038088869, -0.112050340, -0.098660231, 0.186460391, -0.137356460, -0.124007739, -0.249354720, -0.004150014, 0.220872119, -0.109043576, -0.223396733, -0.202846438, -0.120260611, -0.099429093, 0.035606090, -0.092940122, -0.282331884, -0.062029984, -0.070636004, -0.016448183, -0.247639716, 0.166580781, -0.022827517, 0.136299998, -0.127805844, 0.147243187, 0.092697553, -0.104966417, -0.023223415, 0.102403298, 0.054901224, 0.124793783, -0.037382167, -0.084434517, 0.188677967, -0.130954444, -0.031914875, 0.079314053, 0.040139541, 0.053933140, 0.211302653, 0.110135205, 0.022625282, 0.057708953, -0.140735283, -0.095450446, 0.056092516, 0.104603976, 0.107894562, -0.145210937, 0.067802645, 0.159827456, -0.135315523, 0.103098072, -0.042113196, -0.076738931, 0.031034060, -0.031017469, -0.116604127, -0.045567609, 0.166592047, -0.089521751, 0.320194930, 0.235996783, -0.191364005, 0.017654372, 0.320714265, -0.083409235, 0.200514257, -0.219671130, 0.260086864, 0.006321512, -0.193613797, 0.153114498, 0.269695550, 0.213303581, 0.048610732, -0.029867355, -0.257612824, -0.168648854, -0.044994149, 0.093950763, -0.216980442, -0.250321448, 0.145310745, -0.091554292, -0.158793464, 0.052241728, 0.067024201, 0.066816241, -0.038247839, 0.023211179, 0.023822511, 0.284012884, 0.136532664, 0.060131352, 0.154546723, 0.119716354, 0.002872345, -0.154660583, -0.098877601, -0.084357522, 0.072130956, 0.016386485, -0.097718015, -0.307406604, 0.215116024, -0.141909942, -0.262126178, -0.103293024, -0.118961252, 0.026539661, 0.134444743, 0.158000454, -0.095079429, -0.106750011, 0.029274942, -0.096534401, -0.152329326, -0.198158726, 0.157501206, -0.030925674, -0.082685232, 0.172480226, 0.026489628, 0.139706731, -0.098335393, 0.117465302, -0.046919625, -0.176975489, 0.200851083, 0.032805771, -0.193181187, 0.195923999, 0.179989085, 0.056010511, -0.017654030, -0.088725820, 0.002552048, -0.107313178, -0.163962469, -0.043128487, 0.021284401, -0.100808904, 0.144183233, 0.011795147, 0.079987839, 0.061915912, 0.027748706, -0.060139649, -0.177189901, 0.035424497, 0.004369623, 0.056207117, -0.091001131, -0.173119366, -0.161421940, 0.023185290, 0.193442628, 0.033703517, -0.278555214, -0.010666503, 0.121030889, -0.233166754, 0.081237197, 0.144770205, -0.155668885, -0.050951812, -0.053474382, 0.123390779, 0.032948576, 0.021008531, 0.041017551, 0.096369043, -0.020441037, 0.143767744, 0.093903735, 0.130892664, 0.016183369, -0.089398481, -0.213554084, 0.126404122, -0.109189369, 0.098743223, -0.198376238};
#endif

#endif
