0.0917981565, 0.0205806997, 0.1897327751, -0.2557412684, -0.1219278052, -0.1327584088, 0.0341961831, -0.2196396887, -0.0451661386, -0.1535499096, 0.0012819536, -0.0308028236, 0.1282520741, -0.0371245295, 0.0102215912, 0.1456189752, -0.1760043204, 0.1002579033, 0.2805776894, 0.0920398384, -0.0287740882, -0.3095465899, -0.0207741763, 0.2712547779, 0.0752995163, 0.3964771032, 0.1740587801, -0.0286345072, 0.0028638828, -0.0407747105, -0.1361169517, 0.1237341613, 0.0233322587, 0.0071623465, 0.1290786564, 0.1596806943, 0.0543706380, 0.2342042029, -0.2246922106, 0.1886387318, 0.1179135814, 0.1313865781, 0.1610593647, 0.0890975073, 0.0933248922, 0.0853234157, 0.1431593299, -0.0181931444, -0.0228868555, -0.2184564918, 0.0416308120, -0.0860316083, -0.1565250158, 0.1101161242, -0.1449222118, -0.2243846506, 0.2483355254, -0.0750000849, 0.1279516816, 0.0946734175, -0.1527563334, 0.0391221307, 0.0426181220, -0.3220727742, 0.0463991575, 0.1154625863, -0.1968306601, 0.1990494877, 0.1613848507, -0.1312544793, 0.0307563245, -0.2834170163, 0.0829329267, 0.3299554288, -0.0845801160, -0.0568074547, 0.0703530833, -0.0544668660, 0.1531375051, -0.0408379212, -0.1153021529, -0.3444830775, -0.0618601404, -0.0500350222, -0.0321429484, 0.1311296225, 0.0488141812, -0.0248681176, 0.0886263028, -0.1578712165, -0.1754400581, -0.3161537647, 0.0562510341, -0.2345302254, -0.0363365337, 0.0411347374, -0.0066044410, -0.1365168989, -0.2730582654, 0.1772646606, -0.1437063664, -0.0424962975, 0.0980135649, 0.1229234934, 0.0222648252, -0.1576438695, -0.1466278434, -0.1836221963, -0.2131076604, 0.0491212085, -0.1102363542, -0.0562729686, 0.2336851954, -0.0629452392, -0.2537943125, -0.1137001738, -0.0126107316, 0.1342383921, 0.0145931626, -0.0501980335, -0.0882553980, 0.1123799831, -0.0311919674, 0.1003500819, 0.0354459062, 0.0030870638, -0.1730798930, -0.1481978148, 0.1838386506, -0.1808773130, 0.0650394782, -0.1583996713, 0.0217858478, 0.3692253530, 0.2624856830, 0.1600590646, -0.0934962109, -0.2730403543, 0.2068489641, 0.1144922823, 0.1437250674, -0.1802805960, 0.1499834806, 0.2240028530, -0.2080001980, -0.0807113051, -0.1307210326, -0.1536372304, 0.1556825191, -0.2235348821, -0.0962672755, -0.1392398328, 0.1796156764, 0.0292887371, -0.1706495136, -0.1110127941, 0.1622661054, 0.2104334235, -0.1642657816, 0.2753431797, -0.0170877408, 0.2503948212, 0.0321905203, 0.1543963850, 0.0377817750, 0.0801886767, -0.0378022380, 0.0119068595, -0.0757161304, -0.0235885102, -0.0964831337, -0.1345223933, 0.1911758780, 0.1332920194, -0.0364917777, -0.0092848819, 0.1120128483, 0.1771028787, -0.0361440107, -0.0266317353, -0.1293575168, -0.1304737180, 0.1545007229, -0.2477570772, -0.1008038595, -0.1004636139, 0.0349406563, -0.1895534098, 0.0848523304, 0.0283932593, 0.0318865888, 0.1572743207, 0.1172938570, 0.1230312809, 0.1955321729, 0.1754810810, -0.0553224012, 0.0051113488, -0.1166600436, 0.2043865919, 0.0576940887, -0.0936700702, 0.0524696074, -0.1780343056, 0.0980828404, -0.2868385017, 0.1899245232, 0.0480525345, 0.2191035002, -0.1226767525, -0.0632525757, 0.1649786383, -0.0307845324, 0.1374210715, 0.2177404910, -0.0475077108, 0.1564980149, 0.0706545040, -0.2434119284, 0.1214540601, -0.0629679337, -0.3148404062, 0.3031596243, 0.0126639828, 0.1877794415, -0.0400110371, 0.1068284065, 0.3126455247, -0.0459340997, 0.0991179273, -0.0816789120, 0.2696338296, -0.0556068830, 0.1773066968, -0.3270173669, -0.1922121644, -0.1183222309, 0.3829646111, -0.0800800845, -0.1188162416, -0.1256268919, -0.2436975390, -0.1233333722, 0.0620673262, 0.0194935482, 0.1082956940, 0.0310202725, -0.0233854577, 0.2685566843, 0.3228502870, 0.2313911617, 0.3177088201, 0.0930138528, 0.1588796228, -0.1483888775, 0.2406241000, -0.1775538325, -0.2628188729, -0.0159100648, 0.1359912455, 0.2344919443, -0.0924005732, -0.0862239674, 0.2730796039, 0.1339580268, -0.3165712059, -0.3393596709, -0.1018445119, -0.0542678013, -0.0024059284, 0.1015114859, -0.3602968156, 0.2896150351, 0.3452636600, 0.0289557278, 0.1661174893, -0.2406077832, 0.0701521039, -0.0088781016, 0.0716369376, 0.0332514197, 0.1156954765, -0.1758365482, 0.2033712715, 0.1622380316, -0.1575751305, -0.2061447650, -0.2593534291, 0.0049619544, 0.2510437071, 0.3184222877, -0.0021077760, -0.2276305407, 0.2305144817, 0.1347892135, -0.1080330908, 0.0862721726, 0.1511622667, 0.1122385561, 0.2044465393, 0.3070138097, 0.2624551654, 0.3596623540, 0.0343269259, 0.0944029614, -0.1456725001, 0.0617957227, 0.1859612465, 0.3371420205, -0.0945668072, 0.0489584357, 0.0413135104, -0.0980506539, -0.0739228800, 0.2108541280, -0.1026262566, -0.0290436782, -0.0796389878, 0.1410907805, 0.1831032336, -0.3543615639, -0.2343725413, 0.2298667729, -0.3746047318, -0.0684902072, -0.0463976003, -0.2686223090, 0.0319333747, -0.0807359144, 0.2663666606, 0.2745457292, -0.3589116037, -0.1917230636, -0.0041743615, -0.0209529642, 0.2071214914, 0.2278934568, -0.2026707083, -0.2557441890, -0.1892616898, 0.2829446793, 0.2558014691, 0.0323836058, 0.1131095067, -0.3568397760, -0.1123962402, 0.0115919393, 0.0182618015, 0.0780383870, 0.1830329895, -0.0454932936, 0.2403718531, -0.1282762736, -0.1919452995, 0.1139744446, -0.2643541396, 0.1624355018, 0.3261815608, 0.2193898857, 0.0056082113, -0.0178050883, -0.0511830635, -0.0584381707, -0.3675695956, -0.0070529734, -0.2441424280, 0.0277989488, 0.3822002411, -0.1238426194, 0.0562151484, 0.1679671258, -0.0689827129, 0.0378283150, -0.1394843310, 0.0587739125, -0.1407471597, -0.2524809837, 0.1323408037, 0.0206709057, -0.1840752810, 0.2794944346, 0.2853897512, -0.1524543613, -0.0342294201