//Numpy array shape [2, 32]
//Min -0.000055383167
//Max 0.000079455356
//Number of zeros 0

#ifndef KEY_BIAS2_H_
#define KEY_BIAS2_H_

#ifndef __SYNTHESIS__
q_multi_head_attention_45_default_t key_bias2[64];
#else
q_multi_head_attention_45_default_t key_bias2[64] = {-0.0000204702, -0.0000203338, -0.0000109799, -0.0000256789, 0.0000148555, -0.0000002355, 0.0000357368, -0.0000440199, -0.0000028172, 0.0000257706, -0.0000120912, -0.0000198284, 0.0000082139, 0.0000013935, 0.0000072541, -0.0000070500, -0.0000053249, 0.0000299706, 0.0000137293, 0.0000121716, -0.0000205869, -0.0000010028, -0.0000337284, -0.0000051094, 0.0000192854, -0.0000219332, 0.0000007380, 0.0000002004, 0.0000400704, 0.0000082116, 0.0000103454, 0.0000278775, 0.0000561069, 0.0000380354, -0.0000129510, -0.0000251960, 0.0000144631, -0.0000100492, -0.0000259264, 0.0000308321, 0.0000224947, 0.0000440008, -0.0000063813, 0.0000631215, 0.0000230954, 0.0000246622, -0.0000470202, -0.0000144726, -0.0000332996, 0.0000501526, -0.0000410841, 0.0000150746, -0.0000275604, 0.0000794554, -0.0000045067, 0.0000147483, -0.0000082205, 0.0000292381, 0.0000127261, 0.0000281174, -0.0000079408, 0.0000257116, -0.0000259697, -0.0000553832};
#endif

#endif
