-0.1522963643, 0.0877278820, -0.2253930420, 0.2125920653, -0.0320341475, -0.0886176229, -0.2212765813, 0.0378504023, 0.0772605687, -0.1013159528, -0.2464363575, 0.0849572420, -0.0835342035, 0.0858341753, -0.0696458817, 0.1016380116, 0.0050438819, 0.1275688857, 0.2061485350, 0.0504031144, 0.0051682731, 0.2542295456, 0.1957849413, 0.0780138895, 0.0923659354, 0.1386794001, -0.0684553012, 0.0038783993, -0.2192575485, -0.0348547697, 0.0042471294, -0.0019161453, -0.0925742090, 0.2743229866, 0.2851512730, 0.0239893533, 0.3557563722, -0.3120867908, -0.1666608304, 0.2929142118, 0.2152530551, 0.1907645762, 0.1636582464, 0.1485002041, -0.0588654093, -0.1451366395, 0.0836136937, -0.0193254091, 0.1797751039, -0.0800322741, 0.1314253658, 0.2213851660, 0.2229465991, 0.1122734025, 0.0073574930, -0.0074818837, 0.1689760089, 0.1247861236, -0.2025439739, -0.2395537198, -0.2643551230, 0.0842154026, 0.1412983388, 0.2584229708, 0.0945455655, 0.1547793597, 0.1546233147, -0.0855341405, 0.1404276043, -0.2140722126, 0.1112640724, 0.2325735092, -0.0744552612, 0.0940981954, 0.1023566723, 0.4654913545, 0.1234941110, -0.0578255467, -0.1095455512, -0.2688943148, 0.0735498145, 0.1952937245, -0.0971344784, 0.1572639942, 0.0363978595, -0.1332788914, 0.1353118569, -0.1186487526, -0.2184845805, 0.1010364071, 0.0620540567, -0.1297398657, -0.0460657291, 0.3372541666, 0.3941960633, -0.0643216372, -0.0393154845, 0.1932293773, 0.0836893991, 0.1549916565, 0.2281093448, 0.0002397372, -0.1932432503, -0.0271628667, -0.1675702482, 0.3744195104, -0.4347778857, -0.3029011190, 0.0428826436, -0.1388450861, 0.0566684827, 0.0045360355, 0.1468977183, 0.1502143294, -0.2313224226, -0.0865309387, 0.0108825527, -0.0362265259, 0.1361964345, 0.0938889161, 0.2653947771, 0.0932967290, 0.1868117750, 0.0062405812, -0.2949939370, -0.1393593401, -0.1894366592, 0.0238428544, 0.0615489036, -0.0963185653, -0.0300800502, -0.1711293608, -0.0299812909, -0.0711192116, -0.0232212860, 0.1126011312, 0.0212974325, -0.0937748775, 0.1283004880, -0.0675969198, 0.1465369910, 0.1036435813, 0.0540595464, 0.0166402925, -0.0338104852, -0.0342298634, 0.0606783703, 0.1248109415, 0.0495666713, 0.0908738151, -0.1048216224, -0.0840367600, 0.0097053433, 0.1493311077, 0.0676544234, -0.0777553320, -0.0847190768, -0.0614659972, -0.1540491134, -0.1246627569, 0.0262564681, -0.2339743376, -0.4356614053, -0.1707581729, -0.1284479499, -0.0967803895, -0.0637720600, -0.1176467985, 0.2090765536, -0.0083051138, -0.1549056321, 0.1183289662, -0.2367991358, -0.0722762868, -0.1654563844, 0.3131088316, 0.1433310807, -0.0453378856, 0.0727781281, 0.0386719853, 0.2248510122, 0.2284355164, -0.0730006620, 0.0880466849, -0.1978286803, -0.0141926697, -0.1002112627, 0.0297377519, -0.1779145002, -0.2053773850, 0.2747839987, -0.2196298689, -0.1240670979, 0.0939545259, 0.1565026045, 0.1538513303, 0.0607033819, 0.1859054267, 0.1645079553, 0.0088318884, 0.3348408937, 0.0106272129, -0.0934206098, -0.1337339580, 0.1015620753, -0.3070288897, 0.0909849927, 0.0045744814, 0.0067939898, -0.0769858435, 0.2614768744, -0.1537850201, 0.1114143059, -0.0857730135, -0.2568183839, 0.0159780513, -0.0214031916, -0.0348293819, 0.0175213609, -0.2164988518, 0.0249723662, -0.0371344574, 0.0708347932, 0.2021165788, 0.0011322199, 0.1634761095, -0.2431044281, -0.0348929800, -0.1044731736, -0.0626908243, 0.2730085552, -0.2204864323, 0.1093396395, 0.3665378392, -0.0690115318, -0.0550572611, -0.0785919949, -0.1584571153, 0.0590811074, -0.3277958035, -0.0023723759, 0.0088401334, -0.0773546174, 0.2475335300, -0.3960348666, 0.0139189428, 0.0597646087, -0.2975938320, -0.0951047465, 0.0144192157, -0.1152358055, 0.0132741062, -0.2938061059, -0.1867237836, 0.0411095135, 0.0226504449, -0.0621946640, -0.1776070446, 0.1000275314, 0.3423803449, 0.0889243111, 0.2628235817, -0.1263692230, 0.0627711490, 0.2841937244, -0.0929271802, -0.1929591149, -0.1678462029, 0.1446343213, 0.0788499787, 0.0931013003, -0.0335075483, 0.1133460775, 0.0037849466, -0.0115531571, -0.1927302480, 0.0538185313, 0.0074305581, -0.3426915705, 0.1825064570, -0.2541198432, 0.0214769356, 0.0477901809, 0.1337346435, 0.1050601676, 0.2110646963, -0.0085147833, -0.0630296394, -0.1357659400, 0.1449761242, -0.1289476752, -0.2486587912, -0.0925119892, -0.0621400774, 0.0919574350, -0.2120993733, -0.3944105208, 0.0402383618, 0.0383046977, 0.1482107490, -0.0651655346, 0.0458596796, -0.2810853124, 0.1248898134, -0.0904045478, 0.1246633604, -0.2153028250, 0.1269037724, -0.0316673629, -0.1984829009, 0.4695324302, 0.0509680472, 0.2412911505, 0.1854121387, 0.2106836736, -0.0750528798, -0.2427780330, -0.3139754236, 0.2937833965, -0.0176663790, 0.0367186666, -0.0347934030, 0.0550486855, 0.2814792395, 0.0079758316, -0.1047703326, -0.0691321045, -0.2789574862, 0.1688093543, 0.1308716536, -0.0426112413, -0.1058473289, 0.4698811173, -0.0586187765, 0.1384271979, 0.0299626049, -0.1251976341, 0.2939607799, -0.1483906507, 0.0414681360, -0.0989074260, -0.1098916307, -0.0444992445, -0.1365906745, -0.0458663367, -0.0105646830, -0.1013830379, 0.1458476037, -0.0747739226, -0.0685846359, 0.1040341109, -0.1977115124, -0.0202497542, -0.1223789304, 0.0317043327, -0.3587937355, 0.2208617181, 0.2307553440, 0.1355617791, 0.1824723780, 0.0613764450, -0.0986693203, 0.0972167626, 0.0946163014, -0.0157248154, -0.0658883825, -0.0185511690, 0.1124265045, -0.1043055579, -0.2338664383, 0.2065232396, -0.1492255926, 0.0140857529, 0.1871507466, 0.1281949729, 0.0995929912, 0.1960976422, 0.1189110503, 0.0156310312, -0.1720769107, 0.1472337991, 0.1575816870, -0.0803225413, 0.1673921645