//Numpy array shape [2, 6, 32]
//Min -0.515552520752
//Max 0.475483924150
//Number of zeros 0

#ifndef QUERY_WEIGHT16_H_
#define QUERY_WEIGHT16_H_

#ifndef __SYNTHESIS__
q_multi_head_attention_47_default_t query_weight16[384];
#else
q_multi_head_attention_47_default_t query_weight16[384] = {-0.1887429059, 0.0711028874, -0.2467809469, 0.2095336020, 0.0619798861, -0.1722557843, -0.1840977222, 0.0631449446, -0.1706050336, -0.0162254721, -0.0134522812, 0.1760828942, -0.1831010431, -0.1596961319, 0.0518820733, -0.0363881737, 0.1150720119, -0.0942900479, 0.1570590287, 0.1845863611, 0.1015681922, -0.1121097431, -0.1333795041, -0.0437840410, 0.0056106192, 0.0472153798, 0.1307955384, -0.2542661726, 0.0527614057, -0.2876371443, -0.0159028284, -0.1606624573, -0.0660257116, -0.0907755047, -0.1277565956, 0.0656349286, -0.0098087862, -0.0497882329, -0.0207383540, 0.1815524250, 0.0339581780, 0.1328705102, 0.1417468190, 0.2238846868, -0.2416298240, -0.2914338112, 0.2551276684, -0.3115997314, 0.2099934816, 0.0740862563, 0.2909042537, 0.0774910748, 0.0908406973, -0.1532839388, 0.3740023673, 0.0215865653, 0.4140525758, 0.0411103480, -0.0298642870, -0.2941485643, 0.1827806979, -0.1507136673, -0.1626411676, -0.4979399145, -0.0787854493, 0.1953559369, -0.0683694929, 0.0605271012, -0.0537231341, 0.1485342830, -0.2127996087, -0.0204855073, -0.0475888327, -0.0506365187, -0.1546186060, 0.0911316201, 0.0661658198, 0.0455473736, -0.2563225031, -0.1627822369, 0.0312642083, -0.1649544537, 0.1838869005, -0.1113086268, -0.1112116054, -0.0320492052, -0.2933036089, -0.0332670659, -0.2874550223, 0.2552599311, -0.0152769787, -0.1172630936, 0.0899088383, -0.2594826519, -0.0710956603, 0.1517131031, -0.1207968891, 0.2280683219, 0.0841571018, 0.1391323656, -0.0622650683, -0.1694726497, 0.1601557434, -0.2560551465, -0.0916711241, 0.0994269922, 0.2081682235, 0.0776460320, -0.1365591437, 0.0803664029, 0.0408586077, -0.0330119245, 0.0606744476, 0.0814116299, 0.2374980897, 0.1911332458, 0.2356251478, 0.1845809966, 0.2263895869, -0.1019666269, 0.0912936926, 0.0173105747, -0.2986696362, 0.0138308071, -0.1204336286, -0.2145189047, -0.0788195655, -0.5121610165, -0.1193792373, -0.2712809145, -0.3032651842, -0.0033178173, 0.2209989280, -0.1941907704, 0.1936349571, -0.0138711659, 0.2306914628, -0.1538811028, -0.0797726288, 0.1353956759, -0.1495600343, -0.2030121237, 0.0665701181, 0.0388154313, 0.2661294043, 0.0447557196, 0.0059084608, 0.1126806587, 0.3603928089, 0.0127601651, 0.0096029025, -0.2581485212, 0.3491793573, -0.0623905882, 0.0761517510, -0.0391663387, -0.1429913193, 0.1098752394, -0.1598224789, 0.2895455956, 0.1693445295, 0.2568350434, 0.0085159941, 0.0507070273, 0.2313566804, 0.0565020852, -0.2476272732, -0.0495984219, -0.2763830423, 0.0962337703, -0.2242337167, -0.0562428832, 0.3133783937, 0.0393538438, 0.1331474483, -0.0252117906, 0.0466821529, -0.2165233642, -0.1602675617, 0.3643475771, -0.0446434319, -0.2109727859, -0.5155525208, -0.0291164666, -0.3126385510, -0.0276121590, 0.4754839242, 0.0234473255, 0.1622264832, -0.0117936973, 0.3198438287, 0.2772865593, -0.1235514283, 0.0224460717, -0.0989203677, 0.1178410351, -0.1894981414, 0.1198859885, 0.1311124563, 0.1410945803, -0.1167443320, 0.0231755115, 0.0746804029, 0.0312431529, -0.0284312516, -0.0171625968, 0.0081264740, 0.1256569177, 0.0664447844, 0.2417242527, -0.0191637203, -0.0543477200, 0.0177605934, -0.0049569174, -0.1369656026, -0.1226807460, 0.0871071443, -0.0345459804, 0.1560207754, -0.0088934451, -0.1037199050, -0.0803248733, -0.0032652665, 0.1575090438, -0.0947761163, 0.1705155820, -0.0395725332, 0.0583431982, 0.1266894042, -0.2290724367, -0.2736399174, -0.1178433895, -0.0985415652, 0.0371935256, 0.1605785787, 0.3029088378, 0.0586687736, -0.1585682482, 0.1373916715, -0.2136346251, 0.2000181228, -0.2279207855, 0.0308079123, 0.0897401497, 0.0985146016, 0.0474386998, -0.0519330613, 0.1572637707, 0.0059989840, 0.1662698984, 0.1216008887, -0.1102148145, -0.0296523180, -0.0084661609, -0.0697922632, 0.1722479016, -0.0606460348, 0.0027900797, -0.0545488484, 0.1134234145, -0.0356917381, -0.1606484950, 0.0550614633, 0.0165544022, -0.1860687584, 0.0578381307, -0.0179727450, 0.1287316531, -0.1467816383, -0.2528500557, 0.0343412720, 0.0689623207, -0.0807973370, -0.0913597941, 0.1515513361, 0.0211556125, 0.0326892138, 0.1566104740, -0.0150914742, -0.0311679374, -0.0957922488, -0.1248896271, 0.2485026568, -0.2422677577, -0.0484991856, -0.0418241620, -0.0231698360, -0.0759432614, 0.2793090045, -0.0703157857, 0.0905388072, 0.1485137641, -0.1742102653, 0.0059109828, 0.2096469402, -0.1127249375, 0.0582402721, 0.0162544418, -0.1052325368, -0.0837198719, 0.1469955295, 0.0091058379, -0.0904188305, -0.0543148369, -0.0188310165, -0.0779668838, -0.1426257044, -0.0311440770, -0.0963873565, 0.0309883859, 0.1453440189, 0.0154353129, 0.0944817886, -0.2685618401, -0.0021105825, 0.2690110207, -0.2125445157, 0.0854287297, -0.0319471806, -0.1349190623, -0.0126455249, -0.1568042040, 0.0263022296, -0.0088191889, 0.0819085538, 0.0304990001, 0.0805033669, -0.0215882417, 0.0840849951, 0.0596878976, 0.1901257485, -0.0918209255, 0.2230276316, 0.1166115329, 0.1227942333, -0.0193406679, -0.1167649105, 0.1076803431, -0.0919411406, -0.1561456174, -0.1137190014, 0.1173117086, -0.1431322247, 0.1621916890, -0.1350706667, -0.0608962663, -0.0384207182, 0.1087213755, 0.0839054585, 0.0297846813, 0.0268501304, -0.1117027923, -0.0814329609, -0.2380260974, 0.0968651026, 0.2412494272, -0.2022310197, -0.0526762493, -0.0509614125, -0.0134939337, 0.0621738769, -0.1598836035, 0.1716561913, 0.0286419820, -0.1071840003, 0.0143604530, -0.1091996208, 0.0326590575, -0.1827678233, 0.2931192219, -0.0927578658, 0.0970174968, -0.0454072505, -0.0957846865, 0.1701402217, 0.1562810540, 0.0454106815, 0.1296188086, 0.2135087550, -0.1255280972, -0.1543402225, -0.1555131674, -0.0049380362, 0.1751344055};
#endif

#endif
