//Numpy array shape [2, 32]
//Min -0.671836256981
//Max 0.723046422005
//Number of zeros 0

#ifndef QUERY_BIAS2_H_
#define QUERY_BIAS2_H_

#ifndef __SYNTHESIS__
q_multi_head_attention_45_default_t query_bias2[64];
#else
q_multi_head_attention_45_default_t query_bias2[64] = {-0.2458810955, 0.0687814876, -0.6718362570, -0.3426750302, -0.0631372184, 0.0336666815, 0.0087972265, -0.5945884585, 0.2347737551, -0.1328692734, 0.1568571478, 0.0818751082, -0.1800248027, 0.2112869322, 0.0148042273, -0.2465411723, 0.0269518737, 0.3766141534, -0.1637634486, -0.1354888976, 0.2151941359, -0.0652384609, 0.0911602899, 0.2831355631, 0.7230464220, -0.1270832121, -0.0230559558, 0.0040334212, -0.0965752006, 0.3910500109, 0.2724432349, -0.0676254556, -0.0118364524, 0.0933621749, -0.1015480906, -0.0477646366, 0.0243218821, 0.0583014935, -0.0029034358, 0.2604737878, -0.1511328369, 0.0703270361, -0.3350250423, -0.0907136500, 0.2500544190, 0.2152417004, 0.2102026790, -0.0938100144, 0.0189965051, -0.0981134325, -0.1656324118, 0.1060847342, -0.2008217424, 0.0522811189, 0.0996213481, 0.0581919961, -0.2170193791, -0.1074883640, -0.0023938795, -0.1685841382, 0.0319878198, -0.1473044753, 0.0933718234, 0.1500900388};
#endif

#endif
