0.0944470316, 0.0918193012, 0.0217468813, 0.0304017439, 0.0300512239, -0.0260116961, -0.0213416163, 0.0233077798, 0.1558705866, -0.0213735681, 0.0279923733, 0.0291471202, -0.0100731291, -0.0101486016, -0.0144450497, -0.0362915881, -0.0366631672, 0.1010011435, 0.0984099805, 0.1404514462, -0.0820017233, 0.0380873159, 0.0145994695, 0.1162571386, 0.0329418890, 0.0707180128, -0.0924942717, 0.0193908792, -0.0223532841, -0.0729276091, 0.0271086432, -0.0942293853, 0.0526612066, 0.0019347053, -0.0290416833, 0.0135014262, -0.0572288260, 0.0984089300, 0.1801049411, -0.0707312524, 0.0944640413, -0.0376630127, 0.0196524095, -0.0890096501, -0.0386695638, -0.1418278515, 0.0291947387, 0.0178386420, -0.0873562619, -0.0231181756, 0.0583539121, -0.1154733226, -0.0528984480, -0.0300274678, -0.0647418723, -0.0222422387, 0.0235649645, -0.0565286353, 0.0017357878, -0.0099107912, -0.0855085030, 0.1371392161, -0.0188546572, 0.0890288875, -0.1708834171, -0.1004109606, -0.0302041061, -0.1295534968, -0.0521298908, 0.1922394782, -0.1019996032, -0.0161278751, -0.1642353237, -0.0367913544, 0.0918422118, -0.1446340382, 0.0531797297, 0.1403361261, -0.0445289426, -0.0176374447, -0.0221281368, -0.0395304933, 0.0315796174, 0.0362675227, 0.0846702382, 0.0304883644, -0.0433740839, -0.1021934077, -0.0251184274, 0.0342767723, -0.0330264755, -0.0297312830, 0.0104249474, -0.0038300010, -0.0347182602, 0.0561291762, 0.0304969307, 0.0358920507, 0.0824825019, -0.0106782587, 0.0955128223, -0.0939944685, -0.0967662781, 0.0903996527, -0.0389315411, -0.1409417242, 0.0859656557, 0.1231304258, 0.0349832438, -0.0619225651, 0.0813560560, -0.0290710181, 0.0307315830, -0.0799335986, -0.0425743386, -0.0029337695, -0.0791446939, 0.0323151834, 0.0374570675, -0.0947022364, -0.0509937741, 0.0930441022, -0.0046661627, 0.0323903114, 0.0648267046, -0.0681825355, 0.0201472081, -0.0431401692, -0.1480660439, 0.0243272744, -0.0050880299, -0.0700393915, -0.0329031348, 0.1647359729, -0.1003928035, 0.0300067905, -0.0284505989, 0.1429697424, -0.0830563605, 0.0469028652, 0.0344031826, 0.1112593561, 0.0585662201, 0.0708147660, 0.0446956344, -0.0636302158, -0.0938016176, -0.0750570744, 0.0352170952, -0.0951200128, 0.0281163100, -0.0885037109, 0.0290799234, 0.0930880532, -0.1080459505, 0.0214572903, 0.0099894227, -0.1286434531, 0.0281306524, 0.0875257030, 0.0306655914, -0.0171451494, -0.0133360373, -0.0932841226, -0.0305792093, 0.0465906225, 0.0178529974, -0.0290459730, -0.0530641228, -0.0531243011, -0.0212886836, -0.0197427813, 0.0447930805, -0.1111249626, 0.0357579626, 0.0460506976, -0.0175101981, -0.0834786668, 0.0439239256, 0.0464720055, -0.0414046794, 0.0745102838, 0.0183748547, 0.1077910811, 0.0796998516, -0.0319299251, -0.0308269504, -0.0177780595, 0.0048286645, -0.0895291567, -0.0269187540, -0.2166369259, 0.0309772827, -0.0561014712, -0.0295325480, -0.0380869620, -0.0277103297, -0.0554124266, 0.0691231489, -0.0286584571, -0.0594116859, 0.0838568583, -0.0257125702, 0.0300115552, 0.1077895090, 0.0608601607, 0.1487103105, -0.0356862694, 0.0637820140, 0.0306116957, 0.0296181031, -0.0129923765, -0.0275301486, 0.0678067878, 0.0309488289, -0.0367732644, -0.1663950086, -0.0243488755, -0.0298754387, 0.0554498658, -0.0618584193, 0.0800984874, -0.0168980733, 0.0948795006, -0.0763446167, 0.0812052563, 0.0404144153, 0.0840673447, -0.0512517951, 0.0857030451, 0.0377207845, -0.0954754874, 0.1240715683, -0.0554180369, -0.0476221405, 0.0423921272, -0.0606878176, -0.1432112306, 0.0856729075, -0.0494491719, 0.1589106917, -0.0305259936, 0.0325209461, -0.0340762064, 0.0322529897, 0.1735114753, 0.0275474433, -0.0020573440, 0.0319926329, 0.0483770669, -0.0113363406, -0.0609478094, -0.0123077724, 0.0157668628, -0.0419763960, 0.0284582935, 0.0712312534, 0.0013693779, 0.0103861084, 0.1098574698, 0.0230088495, 0.0870467052, -0.0281468313, 0.0358373187, 0.0844024941, 0.0750879720, 0.1268558353, 0.0325717665, -0.0357556529, 0.1928015053, -0.0110148853, -0.0235304348, -0.0590227991, -0.0315288901, 0.1374034584, 0.0791470483, -0.0326745994, -0.1757874340, 0.1711197942, -0.0165631250, 0.1658719331, -0.0517333522, 0.0796585679, 0.1492008418, 0.0530567653, -0.0069329590, 0.0282690115, -0.0319334976, -0.0311213974, -0.1095396653, -0.0976653323, 0.0398963317, 0.0632470697, -0.1317706108, -0.0005697377, 0.0607337728, -0.1176074967, -0.1258001924, 0.0174326841, 0.0072123650, 0.0584737435, 0.0946780816, 0.0682940632, 0.0992634818, -0.1404084414, -0.0337003507, -0.0314948298, 0.0329175405, -0.0397360101, 0.0162812974, -0.0342540294, 0.0962403938, 0.0307633001, 0.0233441312, -0.0930875912, -0.0652384982, -0.0259218849, -0.0763207525, 0.1773213148, -0.0936964899, -0.0982197151, 0.0472038388, 0.0925976932, -0.0022469957, -0.0036957373, -0.0289350953, 0.0342854224, -0.0306861848, 0.0278641246, 0.2019234002, -0.1536850035, -0.0280911084, 0.0868850425, 0.0973154753, -0.0470868312, -0.0425785631, -0.1843153238, -0.0190182980, -0.0347959064, 0.0500975512, -0.0787088275, -0.0210293531, 0.0275578480, 0.0464110151, 0.0345813744, -0.0815338567, -0.0300585814, 0.0952395499, -0.0243480671, -0.0173258092, 0.0247154571, 0.0902676210, -0.0054010148, -0.0333315097, -0.0301681701, -0.0517919213, -0.0220940150, -0.0107076773, 0.0237702727, -0.0249001998, -0.1485462934, 0.0844306350, 0.0653000921, 0.0034795769, 0.0034977926, -0.0946476609, 0.0339075029, -0.0267716758, 0.0007737955, 0.0308601353, 0.0235354584, -0.1428447962, -0.0440475643, -0.0318248458, 0.0071523455, -0.0779052973, -0.1957095712, 0.0233592987, 0.0358090773, -0.0828045160, 0.0288493689, -0.0716142654, 0.1401574910, -0.0328641534