//Numpy array shape [2, 6, 32]
//Min -0.307406604290
//Max 0.320714265108
//Number of zeros 0

#ifndef VALUE_WEIGHT16_H_
#define VALUE_WEIGHT16_H_

#ifndef __SYNTHESIS__
q_multi_head_attention_47_default_t value_weight16[384];
#else
q_multi_head_attention_47_default_t value_weight16[384] = {0.0017833750, 0.0955417901, 0.1253689229, -0.0802982524, -0.1109797582, -0.0336326770, 0.0871816278, -0.0417980067, -0.0299851559, -0.0876173154, 0.0699286610, 0.1846895367, 0.0475963242, 0.1780168861, -0.0952336267, 0.0788252354, -0.0553821325, -0.0649834275, 0.0499317013, 0.0976888090, -0.0295747183, -0.0547923483, -0.1143865362, -0.1343427151, 0.0032292709, -0.0417135358, -0.1279168129, -0.0538379438, -0.0123700164, -0.0642390326, 0.1465264112, 0.0917318836, -0.0540323667, 0.0987779871, 0.1636017859, -0.0877153575, -0.2186555564, -0.0814235955, -0.1103195772, -0.1815939397, -0.0322555527, 0.1763577908, 0.0817503110, -0.1125400364, -0.0940541327, -0.0263558421, -0.1761338115, 0.0142062930, -0.0352988206, -0.0901294425, 0.0677917451, -0.0586409308, -0.1765379906, 0.0619453825, -0.1560442597, 0.0570854917, 0.0846408159, 0.0463604704, -0.0265001506, -0.0923334211, 0.1318821311, 0.1031744778, -0.0012725694, 0.0000445453, -0.1511849314, -0.0909202471, -0.0934917554, -0.1280667633, -0.0716063306, 0.1194823682, -0.1094224229, -0.0464117751, -0.1067243740, -0.1268014759, -0.1502137184, 0.1344999820, 0.0195614155, 0.1365910769, 0.0621897876, -0.0939178839, 0.0472498946, 0.0485371016, -0.0385166183, 0.1156537384, 0.0978046134, 0.0317337923, -0.0855317935, -0.0595673174, 0.1104389653, -0.0978176221, 0.0058671543, -0.0751788318, -0.0723120347, 0.0132362023, -0.0175007097, 0.0519136451, 0.1767591834, 0.1622575223, 0.0306185130, 0.1631493121, -0.0941575766, 0.0302223377, -0.0829211026, 0.1763682365, 0.0335451439, -0.0611225814, 0.1671498120, 0.1034401730, 0.1787300557, 0.1208259463, -0.0395882949, 0.1210625321, 0.0993241519, -0.0631531104, 0.0539201945, 0.0350209475, -0.0703182742, -0.0854237303, -0.1516580582, -0.0319738127, -0.0311421137, -0.0291080456, -0.0665326566, 0.1363882124, 0.0960775465, -0.1839275807, 0.1139995009, 0.0820436850, 0.0917957053, -0.0272501297, 0.0572058372, 0.1416608989, 0.1407240629, 0.0523064844, -0.1555687934, -0.0384435132, 0.2220625728, -0.1027090251, 0.1166916862, -0.1483756751, -0.1296367347, 0.0951694176, -0.1103266031, 0.2486953139, -0.0015451334, 0.2390308231, -0.0702054873, 0.0303705931, 0.0563345961, -0.0706478730, -0.1571019441, -0.1420195103, -0.0518649966, 0.0296057425, -0.0262908991, -0.1019396260, -0.0753849000, -0.1404694766, 0.0466098525, -0.1377250254, -0.0289192852, 0.0114965467, -0.0307094678, -0.2559988797, -0.0326926485, -0.2083127648, -0.0285542663, 0.0445130393, -0.0210844036, 0.0939693972, 0.0261339303, -0.0140763400, 0.0571073294, -0.0356132165, 0.0351022221, 0.0195770077, -0.0537733622, 0.1061588526, 0.0213336479, -0.0008425621, 0.0535098203, -0.1839068532, 0.2162625939, -0.1145774797, 0.1667536199, 0.0536420643, 0.0120349051, 0.0383966416, -0.1045351923, 0.0177905541, 0.0034574454, -0.1949162781, -0.1055721119, 0.1615043432, -0.0361445136, -0.0957847312, 0.0990111232, -0.1230912581, -0.1284528524, -0.0380888693, -0.1120503396, -0.0986602306, 0.1864603907, -0.1373564601, -0.1240077391, -0.2493547201, -0.0041500139, 0.2208721191, -0.1090435758, -0.2233967334, -0.2028464377, -0.1202606112, -0.0994290933, 0.0356060900, -0.0929401219, -0.2823318839, -0.0620299838, -0.0706360042, -0.0164481830, -0.2476397157, 0.1665807813, -0.0228275172, 0.1362999976, -0.1278058439, 0.1472431868, 0.0926975533, -0.1049664170, -0.0232234150, 0.1024032980, 0.0549012236, 0.1247937828, -0.0373821668, -0.0844345167, 0.1886779666, -0.1309544444, -0.0319148749, 0.0793140531, 0.0401395410, 0.0539331399, 0.2113026530, 0.1101352051, 0.0226252824, 0.0577089526, -0.1407352835, -0.0954504460, 0.0560925156, 0.1046039760, 0.1078945622, -0.1452109367, 0.0678026453, 0.1598274559, -0.1353155226, 0.1030980721, -0.0421131961, -0.0767389312, 0.0310340598, -0.0310174692, -0.1166041270, -0.0455676094, 0.1665920466, -0.0895217508, 0.3201949298, 0.2359967828, -0.1913640052, 0.0176543724, 0.3207142651, -0.0834092349, 0.2005142570, -0.2196711302, 0.2600868642, 0.0063215117, -0.1936137974, 0.1531144977, 0.2696955502, 0.2133035809, 0.0486107320, -0.0298673548, -0.2576128244, -0.1686488539, -0.0449941494, 0.0939507633, -0.2169804424, -0.2503214478, 0.1453107446, -0.0915542915, -0.1587934643, 0.0522417277, 0.0670242012, 0.0668162405, -0.0382478386, 0.0232111793, 0.0238225106, 0.2840128839, 0.1365326643, 0.0601313524, 0.1545467228, 0.1197163537, 0.0028723450, -0.1546605825, -0.0988776013, -0.0843575224, 0.0721309558, 0.0163864847, -0.0977180153, -0.3074066043, 0.2151160240, -0.1419099420, -0.2621261775, -0.1032930240, -0.1189612523, 0.0265396610, 0.1344447434, 0.1580004543, -0.0950794294, -0.1067500114, 0.0292749424, -0.0965344012, -0.1523293257, -0.1981587261, 0.1575012058, -0.0309256744, -0.0826852322, 0.1724802256, 0.0264896285, 0.1397067308, -0.0983353928, 0.1174653023, -0.0469196253, -0.1769754887, 0.2008510828, 0.0328057706, -0.1931811869, 0.1959239990, 0.1799890846, 0.0560105108, -0.0176540297, -0.0887258202, 0.0025520483, -0.1073131785, -0.1639624685, -0.0431284867, 0.0212844014, -0.1008089036, 0.1441832334, 0.0117951473, 0.0799878389, 0.0619159117, 0.0277487058, -0.0601396486, -0.1771899015, 0.0354244970, 0.0043696235, 0.0562071167, -0.0910011306, -0.1731193662, -0.1614219397, 0.0231852904, 0.1934426278, 0.0337035172, -0.2785552144, -0.0106665026, 0.1210308895, -0.2331667542, 0.0812371969, 0.1447702050, -0.1556688845, -0.0509518124, -0.0534743816, 0.1233907789, 0.0329485759, 0.0210085306, 0.0410175510, 0.0963690430, -0.0204410367, 0.1437677443, 0.0939037353, 0.1308926642, 0.0161833689, -0.0893984810, -0.2135540843, 0.1264041215, -0.1091893688, 0.0987432227, -0.1983762383};
#endif

#endif
