-0.2510732, -0.1594753, 0.3531353, 0.2282744, -0.1610940, 0.1059032, 0.2077944, 0.1553189, -0.2926311, 0.2309955, -0.2350331, -0.2470956, -0.0599288, -0.1145050, 0.1822665, -0.2557903, 0.1821957, -0.0009814, 0.0855276, -0.2213295, 0.2379403, 0.3832540, -0.3792055, 0.3423488, 0.2705851, -0.1936184, 0.0205586, 0.0613170, 0.1765875, 0.2449648, -0.2782470, 0.2099477, 0.2202417, 0.1062433, -0.4103240, -0.2337707, 0.1529377, 0.3953792, 0.0433315, 0.3007452, 0.2807471, 0.0693248, -0.0717030, 0.1828465, -0.2014271, -0.1551223, -0.1960603, 0.1489233, -0.4000810, -0.3436133, 0.0092867, -0.0830066, -0.0371568, -0.1807187, 0.4356387, -0.0101863, -0.1789791, -0.0426307, -0.0112095, -0.3443148, 0.3350365, 0.2852550, -0.2213352, -0.2385860, 0.0517511, -0.0073393, 0.4272784, 0.1236164, -0.1149436, 0.0572830, -0.0900563, -0.2986383, -0.4210349, -0.0725055, 0.4431002, -0.1380117, -0.2895056, 0.3160880, 0.0533944, -0.1346962, -0.1921141, 0.1098937, 0.4679335, 0.2288258, -0.3930342, -0.3326735, 0.3089737, -0.1619627, -0.0476536, -0.1112588, -0.1389215, -0.0791051, -0.3890730, 0.3038633, 0.2043033, -0.2486574, -0.1290134, 0.2356235, 0.2027212, 0.2369094, 0.3431754, 0.1746115, -0.3511869, -0.1124098, 0.0822300, -0.0222243, -0.1426412, -0.3539719, -0.1879925, 0.2712967, -0.3042450, -0.2921365, 0.3186703, -0.0288239, -0.3363804, -0.3071065, 0.4314837, 0.2821859, -0.2509061, 0.1360174, 0.2869932, 0.1557392, -0.0418000, 0.2006275, -0.2004824, -0.0037841, 0.3924666, 0.0926558, -0.0540900, -0.2414567, 0.1273547, 0.1457769, -0.1316466, 0.1524320, 0.2792771, -0.0841229, 0.3377767, -0.4394406, -0.2444727, -0.1120748, -0.2813708, 0.2549253, -0.2384178, -0.0887761, -0.3132203, 0.2228036, 0.4535896, -0.3678884, 0.2850702, 0.3477295, -0.0167672, 0.1214878, -0.0299306, -0.1534109, -0.3797909, -0.0456671, 0.3010229, 0.5001208, -0.2731817, 0.3046548, -0.3411387, -0.5571305, 0.3157850, -0.4086071, -0.0751060, -0.4547701, 0.3573806, 0.2143413, 0.0345142, 0.3663682, -0.0148857, 0.2186137, 0.2961518, 0.0206192, 0.2511927, 0.0038333, 0.3402280, 0.2349758, -0.3472160, 0.3764704, 0.0811985, 0.0877296, 0.3562509, -0.3453333, 0.1690739, 0.0702757, -0.0440758, -0.0727484, 0.3775092, -0.1398247, -0.2663285, 0.3467855, -0.1833304, -0.2360902, 0.1702210, -0.0006001, 0.1464017, 0.2915897, 0.0042982, 0.3685487, -0.1873334, -0.0904415, 0.0385555, -0.1925249, -0.2540638, 0.0168020, -0.1492523, -0.1460343, -0.3181882, -0.2548767, 0.3633696, 0.1348551, 0.3324685, 0.2590044, -0.0912467, 0.1280280, 0.0929644, -0.0034935, 0.2583193, -0.0056206, -0.1376439, -0.5301480, 0.4732495, -0.2441561, -0.1466090, -0.3476600, 0.1036491, 0.1942315, -0.0326430, -0.1657654, 0.3733411, -0.3450599, 0.0111574, 0.2157819, -0.1872805, -0.2128793, 0.1928693, 0.3509461, -0.1361029, -0.2461805, -0.1003399, -0.1489149, 0.1241283, 0.3911601, 0.1195698, 0.2592962, 0.2915666, 0.0880964, 0.0671746, -0.1368331, 0.0267017, -0.1172759, 0.3208587, 0.0552474, -0.2086299, 0.2037343