0.1852016, -0.0254765, -0.0467811, 0.3600985, -0.4090272, -0.1964032, 0.1855918, 0.0289345, -0.3658508, -0.3006312, -0.1901805, -0.2642863, -0.2514710, -0.1646285, 0.2869239, 0.0008476, -0.1020550, -0.1741597, -0.2682909, -0.2972257, 0.3644572, 0.1245082, -0.2066884, 0.1801451, 0.0344089, 0.0632424, 0.2458358, 0.2323437, 0.3478156, 0.0195938, 0.3006904, -0.2016831, -0.3447829, -0.1642129, 0.3745219, 0.0595440, 0.3528394, 0.2646841, 0.0769292, 0.3522317, 0.0295500, -0.2746566, -0.1035259, 0.1442787, -0.3824952, 0.2189170, 0.1001600, 0.2562361, 0.2677183, -0.3302331, -0.2681989, 0.1574451, 0.3120377, 0.0763017, -0.0759930, -0.3147800, -0.4430867, -0.2432945, 0.0624333, 0.1796515, -0.4593584, 0.1927939, -0.1176673, 0.1570889, 0.1912942, 0.2879036, -0.0592771, -0.1635076, -0.3388465, -0.3096290, 0.1068598, 0.1653861, 0.0022632, 0.3210410, 0.3357802, -0.1178760, -0.0646434, 0.0001871, 0.0756210, -0.3698663, 0.1584499, 0.1311676, -0.2771322, 0.1265448, 0.1496417, -0.1002078, 0.0575551, 0.2222212, 0.4996418, -0.2510208, -0.4263357, -0.1248551, -0.2558721, 0.2166032, 0.3867930, -0.3379857, 0.6217481, -0.2056896, -0.0545857, 0.1705232, 0.0618838, -0.1512754, 0.3128266, -0.0388306, 0.3507214, 0.0279153, 0.2182301, 0.1842240, -0.2588625, 0.4216202, 0.2498815, 0.1595419, 0.1561664, 0.1232189, -0.1739945, -0.0134459, 0.3563475, -0.2300008, -0.2091407, -0.2792747, -0.2817781, 0.2768388, 0.3785947, -0.0624470, 0.1587199, -0.3189113, 0.0018391, -0.1628579, -0.0560053, 0.3507838, 0.4151674, 0.2269641, 0.1396138, 0.3507278, -0.0675574, -0.1863213, 0.2212938, -0.1718024, -0.2876744, -0.2833765, -0.0936556, 0.1841797, -0.0469966, -0.1001659, 0.2747802, 0.2537370, 0.1505883, 0.2804293, -0.2158714, 0.1080515, 0.3356713, 0.0821685, 0.3386457, -0.1695100, -0.0131246, 0.1224246, 0.0452852, 0.1177204, 0.1131191, 0.2483227, 0.1051135, -0.1117170, 0.3192407, 0.1602602, -0.3759986, 0.1679557, 0.1276999, -0.0834447, -0.0213303, 0.0519582, -0.2228592, 0.1495769, -0.0284060, -0.0837336, -0.1534285, -0.3356695, -0.2967928, 0.1619233, -0.2488827, -0.0509646, 0.3110082, 0.0801676, -0.0551794, -0.0883232, -0.4799294, 0.3211237, 0.0781758, -0.1588384, -0.1424133, 0.1198495, -0.1423077, 0.2796366, -0.3648880, 0.2085755, 0.3850179, -0.2723486, 0.0598909, 0.3747861, -0.1052778, 0.1010293, -0.4276547, 0.1108003, 0.1770253, -0.3229503, -0.0860249, 0.3223086, 0.2371882, 0.2576665, 0.0308147, -0.1943392, 0.0047942, -0.0140204, 0.2398790, -0.1365113, 0.1432062, -0.1870941, 0.3654675, -0.1189925, 0.1501936, 0.3211792, -0.0344997, -0.2225874, -0.2439598, 0.3078706, -0.1920359, 0.2194150, -0.0705047, 0.0876161, -0.0348163, 0.1823495, -0.3222625, -0.1742364, 0.2360691, -0.2683311, -0.3319106, 0.3561409, -0.1361190, -0.2286880, -0.0584011, 0.3413754, -0.0671649, 0.1112229, 0.0616850, -0.2263622, -0.1731710, 0.2884592, -0.0371841, -0.0189938, 0.0501952, 0.1160796, 0.1119985, 0.3484840, 0.1868325, -0.2033457, -0.1176781, 0.1405491