0.0745350, 0.2988095, 0.2421477, -0.3668018, -0.5561960, -0.4833964, 0.2829313, 0.1251048, 0.3314015, 0.3208191, 0.3453267, 0.2581100, 0.1619584, -0.1247929, 0.4476982, 0.1099704, 0.4715444, 0.1346711, -0.3124041, 0.3228165, -0.0083675, -0.2016794, -0.3545420, 0.2866783, 0.3120836, -0.1012573, 0.1383815, 0.1503702, 0.1804899, -0.3219720, -0.3506038, -0.1711839, -0.0083138, -0.0027572, 0.0694916, -0.0054769, 0.0347531, 0.2622214, -0.0571765, 0.2392151, 0.0455620, -0.1426741, 0.0831420, 0.2081575, 0.0115059, 0.1246806, 0.1204167, -0.0372730, -0.2222206, 0.0705464, 0.1630999, -0.2270810, 0.0030511, 0.0530426, -0.1409704, -0.1065383, -0.2716175, -0.1169103, -0.3495210, 0.1086966, 0.0701541, 0.0204746, 0.1895966, -0.2336378, 0.3181424, -0.2452193, -0.3511130, -0.0148048, 0.1690279, 0.2032839, -0.1879648, -0.2332984, -0.0367052, 0.0151317, -0.3263050, -0.1439292, -0.0264711, 0.0167070, -0.2250876, -0.0000289, -0.2758481, -0.3027551, 0.1769045, -0.1276003, 0.1202640, 0.1973060, 0.1407987, -0.0506059, -0.0238543, -0.2686303, 0.1520115, 0.0432165, 0.0523805, -0.0463152, 0.2077617, 0.3069010, -0.0073389, -0.2849652, 0.0805993, 0.2386519, 0.0522948, 0.0431723, 0.0838051, -0.1063754, -0.1787824, -0.2389585, -0.0491335, 0.0897452, -0.2077133, -0.1800360, -0.0635609, -0.1671924, 0.0111842, -0.2825455, 0.2865101, 0.1845302, 0.1046464, 0.1528475, -0.0625557, 0.1679981, -0.1570767, 0.0720538, -0.2108891, -0.0768173, 0.0010866, 0.1826675, 0.0003332, 0.0946509, 0.3085030, 0.0024889, 0.1143953, 0.1617962, -0.1398316, -0.1621515, 0.2445281, -0.0960330, -0.1907998, 0.0927881, -0.2183876, 0.0043698, 0.0218310, 0.1964572, 0.1269092, -0.1888407, -0.0308685, 0.4110860, 0.3578650, -0.2277102, 0.0429032, -0.0306089, 0.0084815, 0.1690059, 0.0506761, -0.3126631, 0.0156308, -0.0659628, -0.0892491, -0.5237045, 0.0774349, -0.0310815, 0.0788647, 0.1779732, -0.0398618, -0.1313970, -0.2144530, 0.0102602, 0.0164704, 0.2554722, 0.1717618, 0.2170197, 0.2382397, 0.0413050, -0.0289203, -0.0676051, 0.0000887, 0.0025217, 0.0570276, -0.0985565, -0.0637655, -0.0493629, -0.0076986, -0.0534808, 0.0921415, -0.2274165, -0.1017500, -0.0053500, 0.2160306, 0.1164557, 0.1890364, 0.2037307, 0.0180866, -0.0905722, -0.3310234, -0.1104061, -0.2549973, 0.0157352, 0.2080037, 0.1021893, -0.3062782, 0.1232991, -0.2623509, -0.0525727, -0.0311386, 0.1226944, -0.0084600, -0.1682770, 0.1221455, 0.1494004, -0.1726850, -0.1613573, -0.2958646, -0.1288401, 0.0237351, 0.2585335, -0.0526728, -0.0690588, 0.2216896, 0.1509076, -0.2342824, -0.1932943, -0.0811580, -0.0016991, 0.1733221, -0.2320711, -0.1422246, 0.1165477, 0.1534186, 0.1458192, 0.1869621, 0.1739805, 0.1877865, -0.1547128, -0.0381468, -0.1941601, 0.0245037, -0.1965806, 0.0909277, -0.1324048, -0.2031654, 0.0749314, 0.0749600, -0.0988375, -0.2048833, -0.0417698, 0.1986911, 0.0158326, -0.0667870, 0.1327446, 0.0902240, 0.0028492, 0.0773780, 0.1343967, -0.1053585, 0.2049350, 0.0321383, -0.0591380