0.1606857, -0.0298502, 0.1104159, 0.0031633, 0.2025506, -0.2039618, 0.0969142, -0.0317159, -0.0582219, -0.2071679, -0.0604224, 0.2772126, 0.0466397, -0.2751626, 0.0444204, 0.0250757, 0.1270789, -0.1445524, -0.1285168, -0.1721739, -0.1345023, -0.1168353, -0.1926526, 0.1576044, -0.0968877, -0.1635750, -0.1361324, -0.1854652, 0.1382221, 0.1187206, 0.0874755, 0.0866060, 0.2252596, -0.3450684, -0.1998017, -0.1947355, 0.1962310, -0.1058664, 0.0412054, -0.0401715, -0.0536538, 0.2304126, 0.2270578, -0.0708690, 0.0082476, 0.1963413, 0.0492952, -0.1734922, 0.2862931, -0.2115175, 0.0415961, -0.2450624, 0.0549658, 0.1827129, 0.0237784, -0.0345612, 0.2165319, 0.1392144, -0.0638832, -0.0927225, 0.1104125, -0.0960369, 0.0968977, -0.0055742, -0.4219899, 0.2067567, 0.2512890, 0.3309960, 0.1943125, -0.2985988, -0.1429077, 0.1543317, 0.3269251, -0.3192777, -0.1241815, -0.0146327, -0.0060332, 0.0622052, 0.0683794, -0.0981032, 0.0905964, -0.2124135, 0.4026955, -0.0323743, -0.1666243, 0.1010817, -0.3890621, 0.2314734, -0.3657346, 0.0734105, -0.1523307, 0.3533822, -0.2525817, -0.3190145, 0.4166685, 0.1761813, -0.0580522, -0.1372020, 0.0684853, -0.3138083, 0.1840257, 0.1818023, -0.0381553, 0.2517402, -0.2417737, 0.1069585, 0.1462879, -0.1472316, 0.2027219, 0.0100261, -0.2214545, -0.2404749, 0.0679331, -0.1694901, 0.0975441, 0.0107122, 0.0630235, 0.1744077, 0.2301889, -0.2204308, 0.2124887, -0.0339186, 0.1812062, -0.0473129, 0.2236243, 0.3733251, -0.0692064, 0.1586892, 0.1551470, 0.0616970, -0.0680116, -0.1959956, 0.0365971, 0.0611700, -0.2069830, -0.1564932, 0.2357871, 0.2680538, 0.0183539, 0.0254415, 0.1369864, -0.1490261, 0.1834172, 0.2256642, -0.2176638, -0.2969512, -0.2231734, 0.1519240, 0.2372705, 0.0868204, 0.0483804, -0.1335081, 0.1921183, -0.2031432, -0.0962086, 0.1543481, -0.0382747, -0.1646441, 0.0215345, 0.1348447, -0.1852750, 0.2374762, 0.1135288, -0.1929843, -0.1544519, -0.2652052, 0.1566254, -0.1021451, 0.1138930, -0.0971675, 0.1961523, -0.1984548, -0.0728935, 0.0842019, -0.1688426, 0.2085933, -0.1812945, 0.1344076, -0.2855432, 0.2094698, 0.0565040, 0.2096217, 0.1252924, -0.0501956, 0.2278674, 0.2413684, 0.1907804, -0.1343363, 0.0614762, -0.1270870, 0.2164105, -0.1933142, 0.0991117, -0.0022814, 0.0066598, -0.1120242, -0.2940279, 0.3143613, -0.2197575, 0.1272448, -0.1056681, 0.0139847, -0.2598678, 0.0392078, -0.1765326, -0.1253995, 0.1942182, -0.0335770, 0.2278668, 0.2185416, 0.2987481, -0.0244624, -0.0430850, 0.0016966, -0.2316602, -0.2323603, 0.1353081, 0.1392666, -0.1288842, -0.2472156, -0.1705848, 0.0733196, 0.0468947, -0.3079285, -0.3125799, -0.1856008, -0.0292516, 0.1529730, 0.1165585, -0.0902727, -0.0744548, 0.1281826, 0.0546757, -0.1992386, 0.0849473, -0.1123816, -0.0872518, -0.0718713, -0.2615539, -0.2338052, 0.0425671, -0.0527177, 0.0493061, 0.1497887, -0.0342672, -0.2026767, 0.0434097, 0.2047272, -0.2753644, -0.1187329, 0.2569985, -0.0544470, -0.0209036, 0.0322361, -0.1320775, -0.0697566