//Numpy array shape [2, 6, 32]
//Min -2.231344223022
//Max 2.320457696915
//Number of zeros 0

#ifndef KEY_WEIGHT2_H_
#define KEY_WEIGHT2_H_

#ifndef __SYNTHESIS__
q_multi_head_attention_45_default_t key_weight2[384];
#else
q_multi_head_attention_45_default_t key_weight2[384] = {-0.084497712553, 0.199228227139, 0.062828108668, -0.006334137637, -0.197904393077, 0.182341456413, 0.004003316164, -0.043083574623, 0.395304918289, -0.163435906172, 0.187287598848, -0.153959125280, -0.200265288353, -0.010598820634, 0.022935919464, 0.091619051993, 0.417330712080, -0.171410888433, -0.082010775805, -0.184254989028, 0.112827032804, 0.159369766712, 0.124719262123, 0.015039491467, -0.081199206412, -0.118968836963, 0.241859927773, -0.141455829144, -0.327025115490, -0.176289379597, 0.093425571918, 0.024987256154, -0.154556572437, -0.574880719185, 0.147436499596, 0.221353590488, 0.433930277824, -0.120224848390, -0.246165663004, 0.175666376948, -0.320670157671, 0.470429986715, -0.514183044434, -0.286345928907, 1.091355443001, -0.372574865818, 0.267871946096, -0.602594494820, -0.329936504364, 0.078010626137, 0.536364614964, 0.249978423119, -0.080022953451, -0.012918132357, -0.576176583767, 0.108856000006, 0.110645711422, -0.251958459616, 0.181513831019, 0.117622479796, 0.761005818844, -0.041650030762, -0.509860217571, 0.085419677198, 0.919551730156, 0.820277571678, 0.096279703081, 0.077348060906, -0.588272213936, 0.361269503832, -0.507359266281, 0.574404716492, 0.370418250561, -0.772926330566, -0.041482608765, -0.028676854447, -0.457786202431, -0.091555893421, -0.577437758446, 0.351785987616, 1.000452280045, -0.586350679398, -0.173266321421, -0.422154933214, 0.115703441203, 0.714337527752, 0.868840157986, 0.297421514988, -0.408928543329, -0.022576816380, 0.432531297207, -0.416546612978, -0.513212740421, -0.291162371635, 0.176581740379, 0.296812355518, -0.288422167301, -0.575598478317, 0.322256207466, 0.349959045649, 0.719242274761, -0.101778969169, -0.012028299272, 0.093973897398, -0.037172254175, 0.305613011122, -0.077245816588, -0.310444235802, 0.450145214796, -0.461826413870, -0.023665279150, -0.144768744707, -0.571632325649, -0.274516463280, 0.493573665619, 0.260615229607, 0.098731264472, -0.023459607735, -0.377812027931, -0.402388930321, 0.040229089558, 0.076382614672, 0.210453197360, 0.055258993059, 0.273767679930, -0.278758108616, -0.345391064882, 0.003665518481, 0.175138890743, 2.320457696915, -0.498453766108, -0.008159936406, -0.762100696564, 0.466177314520, -0.394305974245, -0.181670963764, 0.851887941360, -1.240837216377, 0.431255668402, -0.054802592844, -2.144006967545, 1.556518912315, -0.275428384542, 0.068049058318, 1.822956204414, 0.014478761703, -0.814358592033, -1.160038709641, 0.361221641302, 0.694278538227, 0.967719793320, 0.378495573997, 0.497553855181, -0.217417493463, 0.421205013990, -0.261941045523, -2.231344223022, 0.316429436207, 1.212029099464, 0.265218228102, -0.313459068537, -1.842383623123, -0.430879503489, -0.463497608900, 0.780890285969, -0.443920522928, -0.187231451273, 0.083272337914, -0.023201830685, 0.467617273331, -0.182504966855, -0.154745832086, 1.123937606812, -0.432951092720, -0.141245484352, -0.839770197868, -1.630715608597, 0.124382063746, 0.323933035135, 0.349965602160, 0.131275475025, -0.957966327667, -0.782215237617, 0.161968484521, 0.600968658924, 0.067118808627, -0.169857844710, 0.209835946560, 1.681649088860, -0.111417144537, -0.669909775257, -0.406222552061, -0.068887844682, -0.096675150096, 0.011161183938, -0.050564914942, 0.010390225798, -0.093584209681, -0.071616537869, -0.066584095359, 0.253258466721, 0.116366118193, 0.044425003231, 0.110187105834, -0.031897861511, -0.060228388757, 0.038053028286, 0.014749941416, -0.116249091923, 0.123767189682, 0.070368871093, -0.087718263268, 0.116176031530, 0.106092326343, 0.023686109111, 0.087369471788, 0.061560425907, 0.112611800432, -0.116892546415, 0.062754750252, -0.131688073277, 0.076998606324, -0.074554778636, -0.021007256582, -0.235710024834, -0.015198045410, 0.255463361740, 0.029192557558, 0.393054991961, -1.119863986969, -0.068604648113, 0.013182434253, 0.001202437561, -0.317617475986, -0.152874395251, -0.227536886930, 0.336185485125, -0.203066244721, -0.050851818174, 0.172082498670, 0.144903048873, 0.158525675535, -0.094106175005, -0.043602723628, 0.146678313613, 0.125253960490, -0.166546359658, 0.063758000731, 0.266166508198, -0.107326902449, -0.042333774269, 0.315612465143, -0.258976489305, -0.501717269421, -0.028196588159, 0.196865230799, -0.047688007355, -0.061432242393, 0.219571307302, -0.075385607779, -0.360381424427, 0.654130280018, 0.051844205707, 0.120945796371, -0.490418314934, -0.100601531565, 0.223345130682, -0.184072613716, -0.408746510744, 0.311131298542, -0.006226356141, 0.129022732377, 0.157545834780, -0.298745721579, 0.177692085505, 0.067327819765, -0.062483966351, -0.260638922453, -0.251406818628, -0.023671476170, 0.157147765160, -0.519869625568, -0.190110862255, -0.378119528294, 0.319682955742, 0.245985835791, 0.045909479260, 0.366448044777, -0.197916850448, 0.060187797993, -0.058536365628, -0.075120732188, 0.390087038279, -1.154292345047, -0.270388692617, 0.174761682749, -0.109688937664, -0.153586044908, -0.409078031778, -0.319125235081, 0.633380889893, 0.081924885511, 0.275386601686, -0.125072687864, 0.040713492781, 0.020383978263, -0.359184771776, 0.062912531197, -0.160799756646, 0.057552110404, 0.056595217437, 0.208208769560, -0.084062680602, -0.072099760175, -0.214038372040, -0.096539266407, -0.059951245785, -0.433578014374, 0.343695998192, 0.125765576959, -0.228518828750, -0.013916352764, 0.173747986555, 0.302161455154, -0.678937435150, 1.396216869354, 0.347610086203, -0.218693763018, -0.234946623445, -0.301930993795, 0.618046581745, -0.264878571033, -0.697546184063, -0.055648081005, 0.217082396150, 0.391812950373, -0.164362788200, -0.697394430637, 0.440990835428, -0.062785722315, 0.152770921588, -0.365548431873, -0.209036260843, -0.366451740265, 0.016345493495, -0.261966556311, -0.264487266541, -0.519330918789, 0.335991561413, 0.206581130624, -0.000744902587, 0.006633306388, -0.036929521710, -0.418908327818, 0.183157116175, 0.005713367835, 0.616028904915, -1.331775069237, -0.513378560543, 0.075641363859, 0.116443552077, -0.087881058455, -0.391863346100, 0.165614038706, 0.648379623890, -0.102082394063, 0.383080810308, -0.105244547129, -0.021630786359, 0.483590990305, -0.234627008438, -0.145921692252, 0.097410149872, -0.160407304764, 0.355854123831, 0.151398122311, -0.214303195477, -0.026462808251, -0.068203866482, 0.052169147879, -0.193612158298, -0.434598803520, -0.060811024159, -0.223096624017};
#endif

#endif
