0.000005401726, 0.000048325543, 0.000004324973, 0.000014976588, 0.000021853490, 0.000000453961, 0.000020715061, -0.000014152850, -0.000029543075, 0.000026565081, -0.000032019001, 0.000003582482, 0.000019121590, 0.000007915350, -0.000007384114, 0.000011703192, 0.000012596954, -0.000015138262, 0.000027339320, 0.000020916657, 0.000013700564, -0.000011644154, -0.000017626240, -0.000015180602, -0.000016367832, 0.000023407361, 0.000016101676, -0.000001676147, 0.000008545838, 0.000000434197, -0.000005101090, 0.000010574290, 0.000067279616, 0.000027493423, 0.000022573768, -0.000167032267, -0.000067560046, 0.000279170461, 0.000034925892, 0.000210322876, 0.000001946055, 0.000053102103, -0.000005583570, 0.000043409480, -0.000110341934, 0.000047977752, -0.000081934821, 0.000132564979, 0.000132054411, 0.000134644317, -0.000040287341, -0.000090118338, -0.000042286669, 0.000037862748, -0.000037628648, -0.000149624742, -0.000016023436, 0.000104276500, -0.000044615746, -0.000040666218, 0.000065554639, -0.000107965250, 0.000107975102, -0.000014180195