1.330761909485, 2.210453748703, -0.268282383680, 0.580879747868, -1.537503480911, 1.657600045204, -1.050604343414, 0.166285708547, 1.316467881203, -1.682367324829, 0.645216584206, 0.003421675414, -2.262174844742, 1.339490890503, -0.697786271572, 1.446596741676, 1.749050140381, -0.617275714874, -1.416884899139, -1.434674501419, 0.761231780052, 1.954673409462, 2.067746162415, 1.195366501808, -0.417108595371, -0.642929375172, 0.705456972122, -0.928198635578, -2.431322336197, 0.118041366339, 2.237792968750, 1.230829238892, 0.023031987250, 0.142555266619, 0.026364935562, 0.227074369788, 0.041052795947, 0.096195958555, -0.023563859984, -0.043077860028, 0.071347743273, 0.156638637185, 0.329444438219, -0.250326305628, 0.016009248793, -0.081167213619, 0.240245118737, -0.136784195900, 0.282313793898, -0.144194677472, 0.035097442567, -0.188236072659, 0.412191867828, 0.344106227160, -0.060274437070, 0.124482534826, 0.255657166243, -0.100077860057, 0.257379114628, -0.272551268339, -0.191055387259, 0.002930249088, 0.165018901229, 0.004191714805, 0.025922305882, -0.210359647870, 0.134389445186, -0.253571718931, 0.049476239830, -0.097809158266, -0.180497989058, 0.150957301259, -0.206085681915, 0.149581149220, -0.304862856865, -0.218000680208, 0.416301041842, -0.427785068750, -0.019759748131, -0.242892429233, -0.192353129387, 0.024399291724, 0.362163335085, 0.052391182631, -0.047842681408, -0.146110221744, -0.106235571206, 0.177361771464, -0.130267679691, -0.022838259116, 0.037533078343, 0.006247373763, 0.449021458626, -0.198881685734, -0.690373778343, -0.034222908318, -0.202132388949, -0.155871734023, 0.163505688310, -0.080426447093, 0.169499218464, -0.116366937757, 0.184898436069, -0.195869833231, 0.302963465452, 0.099113062024, 0.297660142183, -0.225575715303, -0.083944007754, -0.455011308193, -0.090491212904, 0.066314689815, -0.323641389608, -0.101865105331, 0.216201335192, 0.085308313370, 0.296578615904, -0.251817882061, 0.030039474368, -0.223614245653, -0.010178248398, 0.143134325743, -0.003523792140, -0.127820253372, -0.026606956497, -0.245473101735, -0.144388303161, -0.208545789123, -0.197086766362, -0.016837555915, -0.386233508587, -0.165923938155, 0.100211076438, 0.205743223429, -0.183927714825, 0.120701931417, 0.311351060867, -0.031133187935, -0.091960541904, -0.378733009100, -0.020735455677, 0.178251877427, -0.024456879124, -0.285950332880, -0.011632283218, -0.006354925223, 0.019752187654, -0.044145643711, 0.229712322354, 0.046179339290, 0.097100816667, 0.107228577137, 0.282146364450, -0.184015125036, 0.122274719179, 0.172799855471, -0.017375294119, 0.090883702040, 0.263608723879, 0.134719431400, 0.187448829412, 0.013361194171, -0.273395925760, -0.045891527086, 0.132503375411, -0.233706966043, -0.386282742023, 0.457826167345, -0.097312018275, -0.179596170783, 0.024103844538, 0.149653926492, -0.151554152369, 0.031516216695, -0.382405430079, -0.166143536568, -0.151926487684, -0.248262584209, -0.178493276238, -0.202385529876, 0.094259753823, -0.269197911024, 0.168376550078, 0.319063186646, 0.306749194860, 0.166580960155, 0.081489264965, -0.156500577927, 0.176017910242, -0.267476320267, -0.310181558132, -0.272375106812, 0.226534739137, -0.186502933502, -0.139546483755, -0.238856106997, 1.832623362541, -2.095759868622, -0.417278617620, 0.200460895896, 0.471475690603, 0.186435908079, -0.824224829674, 0.303838521242, 0.955916404724, -0.479447782040, 0.261922925711, -0.673489928246, 0.055190570652, 1.047724246979, -0.817851722240, -0.082065910101, -0.030791355297, 0.750540494919, 0.694162487984, 0.381440609694, -0.096684858203, 0.470821678638, 0.192052826285, 0.861948668957, -0.440061360598, -0.465549111366, -0.046634964645, -0.530584335327, 0.350898146629, -0.308751523495, -0.171962395310, -0.136341243982, 0.250958651304, 0.120666332543, 0.155602127314, 0.132832124829, 0.007891801186, 0.211484983563, -0.102810606360, 0.243176192045, 0.044482339174, 0.018596168607, -0.174810707569, -0.088873676956, 0.071456514299, 0.279403686523, 0.126756116748, 0.137225553393, -0.086608581245, 0.085433259606, 0.080898419023, 0.006388387643, -0.206631362438, 0.089689336717, 0.084539763629, 0.053647834808, 0.002362302272, 0.103605315089, -0.039199128747, -0.118628256023, 0.310123264790, 0.210774064064, -0.184967443347, -0.143903896213, -0.083246156573, 0.052301190794, -0.023461282253, 0.081592187285, 0.031556166708, 0.299817234278, 0.078886091709, 0.186058908701, -0.040572214872, 0.148220658302, -0.312903821468, -0.148705393076, -0.074464306235, 0.070314779878, -0.124653585255, 0.042364425957, -0.207254543900, 0.230839788914, -0.039092674851, -0.017190150917, 0.027672167867, 0.068733856082, 0.184910416603, 0.180197209120, 0.086678884923, 0.178010001779, -0.041790667921, -0.074866883457, 0.028956744820, 0.003910179716, 0.017879463732, 0.139938980341, 0.048876825720, 0.002466715639, 0.042891878635, -0.270462661982, 0.142294973135, 0.033435497433, -0.067242115736, 0.138674780726, -0.205427482724, 0.035261411220, 0.073901399970, 0.047503225505, 0.166768148541, 0.038574274629, -0.094347469509, 0.127756595612, -0.030999509618, -0.272861838341, 0.276571780443, -0.143764019012, -0.175259262323, 0.214114993811, 0.008882407099, -0.173153251410, -0.075404882431, -0.040137540549, -0.095108598471, -0.273946762085, 0.069296382368, -0.090122781694, -0.086976952851, -0.301082581282, 0.216394647956, -0.034954831004, 0.015327233821, 0.030917959288, 0.059712622315, 0.260330587626, 0.025587543845, -0.194897785783, -0.122737213969, 0.066085197031, -0.073544129729, 0.005969529040, 0.090514183044, 0.213821187615, -0.114340141416, -0.010248800740, -0.029526885599, 0.073735162616, -0.105705916882, 0.180926531553, 0.180153727531, -0.075471922755, 0.008348701522, -0.061800025403, 0.032418783754, 0.104983448982, 0.182646796107, 0.256770491600, -0.073623061180, -0.214513331652, 0.132225736976, 0.115946836770, -0.069827951491, 0.017087513581, -0.070575587451, -0.025514194742, 0.101886235178, -0.028038932011, -0.005978055298, -0.071529962122, 0.081149764359, -0.213166981936, 0.468733310699, 0.059344325215, -0.191310092807, 0.058924864978, 0.101986236870, -0.134741991758, 0.270291596651, -0.345282077789, 0.274193257093, -0.146962702274, -0.023417146876, 0.089826993644, 0.028116837144, -0.095603331923, 0.080808632076, -0.031986322254, -0.035058971494, -0.218389198184