//Numpy array shape [2, 32]
//Min -0.081358306110
//Max 0.094336606562
//Number of zeros 0

#ifndef VALUE_BIAS9_H_
#define VALUE_BIAS9_H_

#ifndef __SYNTHESIS__
q_multi_head_attention_46_default_t value_bias9[64];
#else
q_multi_head_attention_46_default_t value_bias9[64] = {0.033893428743, -0.035488460213, 0.031852856278, 0.033668160439, 0.035259302706, 0.022307991982, 0.024942390621, 0.040179360658, -0.081358306110, 0.065613158047, -0.042313840240, -0.029663002118, 0.002241918119, 0.029509468004, 0.042959637940, 0.005983698647, 0.031312186271, 0.018184941262, -0.060288019478, -0.031575512141, -0.075350783765, 0.094336606562, -0.056930661201, 0.012944347225, 0.021936679259, -0.020647143945, 0.010542099364, 0.032565291971, -0.014776614495, -0.015641210601, 0.020972132683, 0.046213507652, 0.038774847984, -0.023202154785, 0.075257658958, 0.029348064214, -0.071143388748, -0.015281295404, -0.030619487166, 0.015156046487, -0.030151996762, -0.031765963882, -0.026304893196, 0.012818143703, 0.027959888801, -0.028705548495, 0.031351942569, -0.039584983140, 0.015490973368, 0.042539890856, -0.000166239406, 0.004331087228, -0.020665610209, 0.030993713066, -0.020829344168, 0.004016390536, -0.025857510045, -0.010690993629, 0.030899060890, 0.031528305262, 0.021487804130, -0.004917527549, 0.066822454333, -0.027709668502};
#endif

#endif
