-0.056680370122, -0.012224875391, -0.090016700327, -0.054623227566, 0.031442694366, -0.031790930778, -0.000945544685, 0.002300041029, 0.030671417713, -0.119097046554, -0.070437870920, 0.027175175026, 0.006297107786, -0.052979882807, -0.031214693561, -0.073034375906, -0.069859676063, -0.044851005077, 0.074731677771, 0.031225411221, -0.140420868993, -0.049480695277, 0.094427049160, 0.087815068662, 0.015073862858, -0.030477927998, -0.032566014677, -0.109118945897, 0.113356277347, -0.137570559978, -0.070432744920, -0.093973711133, -0.036166120321, 0.147829174995, 0.062331441790, -0.018242090940, 0.144078582525, 0.132869169116, -0.070537842810, 0.135875970125, -0.059422768652, 0.070348963141, 0.031579803675, -0.011188213713, 0.090576931834, 0.030300378799, 0.079735323787, -0.006122446153, 0.138157323003, 0.034368459135, -0.063650131226, 0.030882041901, -0.194707512856, 0.061040900648, 0.040112201124, 0.131495326757, 0.062617242336, -0.155007988214, -0.095297791064, -0.026433009654, 0.035741128027, -0.148419499397, -0.064624503255, 0.079194448888, 0.016419067979, -0.077501483262, -0.082855738699, -0.019495643675, -0.088403716683, 0.006914766505, -0.191444590688, 0.104356512427, -0.088277414441, 0.074285142124, -0.028283853084, 0.057606313378, -0.155376359820, 0.093638308346, 0.103711947799, 0.101169347763, 0.069949507713, -0.020649192855, -0.125551700592, 0.126363709569, 0.125963836908, -0.093550980091, 0.153196796775, 0.047373615205, -0.031574860215, 0.029981518164, -0.095485255122, 0.080187842250, 0.033890999854, -0.020655971020, -0.093485742807, -0.069511495531, 0.093725219369, 0.152065873146, 0.016156295314, -0.105977550149, -0.034051902592, -0.027379840612, -0.030226202682, 0.093526698649, -0.040435824543, -0.020297393203, 0.178045004606, 0.042441599071, 0.063836626709, 0.047936562449, -0.086886689067, 0.152415633202, 0.093966752291, 0.142458572984, -0.024823231623, 0.030885621905, 0.034357562661, -0.059855468571, 0.091934747994, 0.007161704358, 0.158003553748, 0.038762185723, 0.003973073326, 0.094736397266, -0.052984829992, -0.020355442539, 0.085332341492, 0.142305299640, -0.156846478581, -0.021428482607, -0.072512619197, -0.002796451328, 0.137500092387, 0.013920608908, 0.090048380196, -0.050124526024, 0.002142801881, -0.094038657844, -0.091615483165, 0.011533249170, 0.093361280859, -0.081386670470, -0.156080678105, 0.003036631038, 0.018793897703, 0.030899820849, 0.076019443572, 0.014415823855, -0.030632710084, 0.033979967237, -0.093168281019, 0.014342584647, -0.028161816299, -0.058140836656, 0.064310215414, 0.005243457388, 0.077357098460, -0.106816239655, 0.093449503183, 0.059947259724, -0.152076676488, -0.053510233760, -0.055686067790, -0.009980777279, -0.128469482064, 0.055930983275, 0.021362196654, -0.120298378170, 0.091655954719, -0.135086074471, 0.091912895441, 0.136795610189, 0.136068299413, -0.064304701984, 0.100955039263, 0.112933464348, 0.156025245786, -0.033190753311, -0.045102644712, 0.092355899513, -0.020684638992, -0.156472355127, 0.066782623529, -0.213196694851, -0.117356121540, -0.003852580907, -0.086606964469, -0.028359258547, -0.066529713571, 0.239174574614, -0.148440554738, 0.048404842615, -0.162463679910, 0.098373860121, -0.177280783653, -0.034218668938, 0.057411555201, 0.154962927103, 0.060569047928, 0.001396713546, 0.126330867410, -0.147848680615, 0.070794813335, 0.076240375638, -0.093095138669, 0.063938535750, 0.024052934721, 0.159221217036, -0.092856697738, -0.093516357243, 0.047707524151, 0.049759127200, -0.031088139862, -0.164500415325, 0.104149788618, 0.104708760977, 0.164279729128, 0.071136042476, 0.050243217498, -0.027901709080, 0.096978619695, -0.063552133739, -0.056690949947, -0.156785070896, -0.022061532363, 0.094667263329, 0.159758269787, -0.037846993655, -0.084954001009, 0.085791543126, 0.053322806954, 0.148319870234, 0.125716090202, -0.108704924583, -0.074352391064, -0.035561569035, 0.043508540839, 0.070394545794, 0.048901103437, 0.071107581258, -0.105637304485, -0.092444933951, 0.093321032822, -0.070870615542, -0.079273767769, 0.103357225657, 0.123372316360, 0.160482987761, 0.145637109876, -0.025704443455, 0.093542739749, 0.213378742337, 0.091088816524, -0.038131695241, 0.081028126180, -0.173772856593, 0.022299375385, -0.037783846259, 0.023821884766, 0.006795628928, -0.076947383583, -0.192429423332, -0.053512338549, 0.041620209813, -0.148746311665, -0.096171699464, 0.031601663679, -0.011210059747, 0.014988764189, -0.028672991320, 0.161884382367, -0.065656416118, -0.032018072903, 0.213874280453, 0.025274235755, -0.142202094197, -0.019372789189, 0.135606855154, 0.010789966211, 0.031247192994, 0.022749064490, -0.047227937728, 0.090173326433, -0.018919430673, -0.147662371397, -0.112337999046, 0.207863107324, -0.131366908550, 0.118393808603, -0.101205617189, 0.059897050261, -0.100330568850, 0.094531767070, 0.052388638258, 0.086368553340, -0.096000134945, 0.077301383018, -0.038786988705, 0.028331160545, -0.159766137600, -0.078110992908, -0.095218680799, -0.097647629678, -0.089313231409, -0.039728872478, -0.028640277684, 0.095695793629, 0.033451002091, 0.158155560493, 0.153557285666, 0.119447737932, -0.009044549428, -0.065994389355, -0.087759681046, 0.028798071668, 0.006545239594, -0.080590039492, 0.156473621726, -0.032512973994, 0.046197056770, 0.031629335135, 0.111983790994, 0.188058197498, -0.030970655382, 0.014125387184, 0.104399479926, 0.032091107219, -0.031935650855, 0.031957816333, 0.124332927167, -0.016517113894, 0.111845374107, 0.130958229303, 0.091831594706, 0.020668830723, -0.060600653291, 0.030233940110, -0.098109602928, -0.029093734920, -0.031128484756, -0.129383221269, 0.015288511291, 0.058916814625, -0.032513279468, 0.121547140181, 0.071290493011, -0.044552043080, 0.099228814244, 0.053009875119, 0.043177593499, -0.050007317215, 0.030834697187, -0.006929857656, 0.152751550078, 0.011384329759, 0.094667837024, 0.092662416399, -0.093336008489, -0.086844280362, -0.001671956968, 0.106452554464, -0.065855041146, 0.107163645327, -0.147544026375, -0.117963820696, 0.030655672774, -0.030775330961, -0.016751883551, 0.088703431189, 0.054016210139, 0.130895391107, -0.114099591970, -0.023126108572, 0.133309304714, 0.015754356980, -0.035757131875, -0.032595999539, 0.091702647507, 0.001854770584, -0.146150454879, -0.082874447107, -0.142269581556, -0.139708817005, 0.038138680160