0.078308440745, -0.004391926341, -0.000060406070, -0.010184118524, -0.023705773056, -0.036662437022, -0.031806781888, -0.023092603311, 0.027985727414, -0.048342388123, 0.028426954523, -0.034951109439, -0.028798954561, -0.030138919130, -0.035086825490, -0.027716439217, -0.029644498602, 0.030332380906, 0.016663627699, -0.001520957449, 0.029691772535, 0.019373899326, -0.029130844399, 0.014438024722, -0.030167898163, -0.002487327438, 0.083165287971, -0.004936570767, 0.012560901232, 0.046725288033, -0.027453862131, -0.019650792703, -0.012340051122, -0.000307538838, -0.028352899477, -0.030611176044, -0.030642634258, -0.012733072974, 0.025777038187, 0.004635701422, 0.008862116374, -0.020871065557, -0.013019379228, -0.015679366887, 0.022729655728, 0.025149933994, 0.033707439899, -0.022018592805, -0.001529800822, 0.002514090855, 0.003605597652, -0.030653445050, 0.019578073174, 0.028525931761, 0.010453456081, 0.009349333122, -0.030150745064, -0.022187007591, 0.007870496251, -0.019113617018, -0.006217993330, 0.007461322006, 0.042395055294, 0.004515497945