//Numpy array shape [2, 32]
//Min -0.000015185712
//Max 0.000015040097
//Number of zeros 2

#ifndef KEY_BIAS14_H_
#define KEY_BIAS14_H_

#ifndef __SYNTHESIS__
q_multi_head_attention_1_default_t key_bias14[64];
#else
q_multi_head_attention_1_default_t key_bias14[64] = {0.0000040651, 0.0000011577, -0.0000038597, 0.0000014232, 0.0000110820, -0.0000044033, -0.0000037580, 0.0000000330, -0.0000000496, 0.0000050046, -0.0000041481, 0.0000026019, -0.0000006860, -0.0000012584, -0.0000151857, -0.0000011541, 0.0000150401, -0.0000038449, -0.0000021204, 0.0000019378, 0.0000000000, 0.0000040485, -0.0000053449, 0.0000044093, -0.0000016040, -0.0000038476, -0.0000000800, 0.0000055671, 0.0000018110, 0.0000006512, -0.0000024031, 0.0000011086, 0.0000013152, 0.0000042786, -0.0000013233, 0.0000005588, 0.0000046636, 0.0000005374, -0.0000041126, -0.0000074956, 0.0000009365, -0.0000063796, -0.0000014296, -0.0000007834, 0.0000007863, -0.0000018112, 0.0000031240, 0.0000039863, -0.0000013327, -0.0000020208, 0.0000025136, 0.0000021962, -0.0000020578, -0.0000051817, 0.0000000000, 0.0000039243, -0.0000005196, -0.0000011613, 0.0000021338, -0.0000021049, 0.0000067165, 0.0000015264, 0.0000013974, 0.0000000633};
#endif

#endif
