//Numpy array shape [2, 4, 32]
//Min -0.421989947557
//Max 0.416668504477
//Number of zeros 0

#ifndef VALUE_WEIGHT14_H_
#define VALUE_WEIGHT14_H_

#ifndef __SYNTHESIS__
q_multi_head_attention_1_default_t value_weight14[256];
#else
q_multi_head_attention_1_default_t value_weight14[256] = {0.1606856585, -0.0298502222, 0.1104159132, 0.0031632828, 0.2025506049, -0.2039617896, 0.0969142318, -0.0317158774, -0.0582218803, -0.2071678638, -0.0604223758, 0.2772125602, 0.0466396585, -0.2751625776, 0.0444204174, 0.0250757355, 0.1270789057, -0.1445523947, -0.1285168082, -0.1721739173, -0.1345023215, -0.1168353111, -0.1926525682, 0.1576043963, -0.0968877226, -0.1635749787, -0.1361324191, -0.1854652166, 0.1382221431, 0.1187205762, 0.0874754786, 0.0866060182, 0.2252596468, -0.3450684249, -0.1998016983, -0.1947355419, 0.1962309927, -0.1058663577, 0.0412053503, -0.0401714705, -0.0536537915, 0.2304125726, 0.2270578444, -0.0708689839, 0.0082475813, 0.1963412613, 0.0492951758, -0.1734921634, 0.2862931192, -0.2115175426, 0.0415960848, -0.2450624406, 0.0549657568, 0.1827129275, 0.0237783659, -0.0345611647, 0.2165318578, 0.1392144263, -0.0638831779, -0.0927225053, 0.1104125232, -0.0960368514, 0.0968976617, -0.0055741705, -0.4219899476, 0.2067567408, 0.2512889802, 0.3309959769, 0.1943125278, -0.2985987663, -0.1429076642, 0.1543317288, 0.3269250691, -0.3192777038, -0.1241815388, -0.0146327494, -0.0060332217, 0.0622051843, 0.0683793575, -0.0981031731, 0.0905964449, -0.2124134600, 0.4026954770, -0.0323742926, -0.1666242927, 0.1010817140, -0.3890621364, 0.2314733565, -0.3657345772, 0.0734104961, -0.1523306668, 0.3533822298, -0.2525816560, -0.3190145195, 0.4166685045, 0.1761813313, -0.0580521524, -0.1372019798, 0.0684852898, -0.3138082623, 0.1840257496, 0.1818022728, -0.0381552726, 0.2517402470, -0.2417736948, 0.1069584563, 0.1462879330, -0.1472316086, 0.2027219385, 0.0100261383, -0.2214545012, -0.2404749244, 0.0679330975, -0.1694900841, 0.0975441188, 0.0107122362, 0.0630235374, 0.1744076759, 0.2301889062, -0.2204307765, 0.2124887258, -0.0339185707, 0.1812061518, -0.0473128818, 0.2236243486, 0.3733250797, -0.0692063794, 0.1586892009, 0.1551470011, 0.0616970174, -0.0680115968, -0.1959956288, 0.0365970805, 0.0611700229, -0.2069830298, -0.1564932317, 0.2357870787, 0.2680537999, 0.0183538925, 0.0254415330, 0.1369864196, -0.1490260810, 0.1834172308, 0.2256641984, -0.2176638097, -0.2969512045, -0.2231734395, 0.1519240290, 0.2372705042, 0.0868204013, 0.0483803712, -0.1335081011, 0.1921183467, -0.2031432390, -0.0962085575, 0.1543481499, -0.0382747352, -0.1646440625, 0.0215345342, 0.1348447204, -0.1852750331, 0.2374762446, 0.1135287508, -0.1929842830, -0.1544519216, -0.2652051747, 0.1566253901, -0.1021450534, 0.1138929725, -0.0971675366, 0.1961523145, -0.1984547526, -0.0728934780, 0.0842019096, -0.1688425839, 0.2085932642, -0.1812945157, 0.1344076246, -0.2855432332, 0.2094697803, 0.0565039776, 0.2096217275, 0.1252924204, -0.0501956083, 0.2278673649, 0.2413683981, 0.1907804310, -0.1343362629, 0.0614762008, -0.1270869672, 0.2164104581, -0.1933142245, 0.0991117284, -0.0022814132, 0.0066598342, -0.1120241955, -0.2940278947, 0.3143612742, -0.2197575271, 0.1272447854, -0.1056681499, 0.0139847491, -0.2598678470, 0.0392078161, -0.1765325963, -0.1253995001, 0.1942181885, -0.0335769877, 0.2278667986, 0.2185416073, 0.2987480760, -0.0244624000, -0.0430850126, 0.0016966218, -0.2316602021, -0.2323603183, 0.1353080869, 0.1392665505, -0.1288841665, -0.2472156286, -0.1705847830, 0.0733196139, 0.0468947440, -0.3079285324, -0.3125798702, -0.1856008470, -0.0292516239, 0.1529729813, 0.1165584922, -0.0902727246, -0.0744548067, 0.1281826347, 0.0546757244, -0.1992385685, 0.0849473327, -0.1123816296, -0.0872518122, -0.0718712732, -0.2615538538, -0.2338052094, 0.0425670706, -0.0527176857, 0.0493060611, 0.1497887075, -0.0342671610, -0.2026767135, 0.0434096977, 0.2047272176, -0.2753643990, -0.1187329143, 0.2569984794, -0.0544469655, -0.0209035948, 0.0322360769, -0.1320774704, -0.0697566047};
#endif

#endif
