//Numpy array shape [2, 4, 32]
//Min -0.393266737461
//Max 0.360018223524
//Number of zeros 0

#ifndef VALUE_WEIGHT5_H_
#define VALUE_WEIGHT5_H_

#ifndef __SYNTHESIS__
q_multi_head_attention_default_t value_weight5[256];
#else
q_multi_head_attention_default_t value_weight5[256] = {0.3181863427, 0.1944688708, 0.0927441940, 0.1827144176, -0.1051722318, -0.2152019143, -0.1795284152, 0.1968731284, -0.2194475681, -0.2707101107, -0.1805528253, -0.1684070975, 0.0066881608, 0.1983326524, 0.2979845703, 0.0170778837, -0.1187195703, 0.1986917555, 0.3064655066, 0.0039050970, 0.0639884993, 0.1236243844, 0.1985506862, -0.2036377490, 0.2031517178, -0.2440853864, -0.0450737961, -0.0752859488, -0.2635615170, 0.1743235290, -0.1738237292, 0.0637398064, 0.0000442740, 0.0643620864, -0.1983251423, 0.0818222910, -0.0724336058, 0.2320585400, 0.0357180834, 0.3019038141, 0.2439735979, 0.1767163277, -0.0332450867, 0.2255192548, -0.2207459360, 0.0502082296, -0.1487975866, 0.0257033687, -0.2557643056, -0.2340863347, 0.1032286957, -0.1284406185, -0.0937160403, -0.1689093858, 0.1104217842, 0.1322235912, -0.2712828517, -0.1724458784, -0.0419419780, 0.1117651537, -0.0929979309, -0.0922235474, -0.1099500582, -0.3115247488, 0.1613545120, 0.2405750155, 0.1347207427, -0.1781852841, 0.0382182375, -0.1656807214, -0.0819222182, -0.0490600765, -0.0449064858, 0.0036771509, -0.1540946364, 0.0011474016, -0.0372073576, 0.2507935166, 0.0256713554, -0.3823129535, 0.0284874849, -0.1865460873, 0.3397165537, 0.0510126799, 0.2665524483, 0.2470964342, 0.1348669827, 0.0444906652, -0.0611273944, -0.2615864575, -0.1446331888, -0.0311280265, -0.3932667375, -0.3352395892, -0.2193384022, 0.1111377031, 0.0075978106, -0.3089908957, 0.1618336439, -0.0705736056, 0.0294423793, -0.1583949775, -0.0447976924, 0.3146740198, -0.0051769349, 0.2137245089, -0.0994889364, -0.0825491324, -0.3021807969, -0.2539945245, 0.1115807816, 0.0659725219, -0.2565220296, 0.0457117781, -0.0790698826, -0.0912475735, -0.1235244200, -0.0519245267, -0.1823740900, -0.2797266245, -0.1186289638, -0.0323253572, 0.0757936165, 0.0894947499, -0.0412479937, 0.3050613701, -0.0111713465, 0.0194016453, 0.0075725326, -0.1053423658, -0.1746291965, 0.2237351388, 0.0171253588, 0.3442922235, 0.2118533403, 0.3542651236, -0.3809925914, 0.1401594728, -0.0042387978, -0.0194725636, -0.0365443006, 0.1057144180, -0.1000591964, 0.2704915404, -0.1239957213, 0.2600563169, 0.1386594027, 0.1179909930, -0.3089387715, -0.0749613196, 0.0927023292, 0.1102184057, -0.2818616033, -0.0774613246, -0.0632963106, 0.1657952219, 0.0808545873, -0.1539519429, -0.1054401249, 0.0015171712, 0.1254194975, -0.0496727824, -0.2933640480, -0.0849313810, 0.2241178006, -0.1565176249, 0.1375733465, -0.0150280846, 0.2666028142, -0.0822271183, -0.2201977819, 0.0926236585, -0.2330774814, -0.0334619209, -0.2695236504, -0.1106391549, 0.2672215104, -0.0638351887, 0.1976702660, -0.1793177724, 0.0105588567, 0.2193653435, -0.0439333282, 0.2142133713, -0.2407460511, 0.0674655214, -0.0754066408, -0.0831926242, -0.1225908622, -0.0393604487, -0.1128067598, 0.0672493502, -0.2002077401, 0.1661044508, 0.0854739174, -0.0330838636, -0.2818299532, 0.2931195498, 0.3600182235, 0.3561535180, -0.1522468925, -0.2719046474, 0.2203876376, -0.0954751447, 0.3494707942, -0.2977443635, -0.1143217757, 0.0727592558, -0.1400802732, 0.1789385676, -0.1036993489, -0.0302253067, -0.2730382085, 0.2720757425, -0.3073304296, -0.3567677438, -0.1991022676, -0.1851848513, 0.2827206850, 0.2184137106, 0.0172489863, 0.1212704927, -0.0485025197, 0.2643083632, -0.0639924183, 0.1909099668, 0.1712053269, 0.0389770940, -0.0274731405, 0.0366604067, -0.0868236572, -0.1560500860, 0.2344362140, 0.3128291368, -0.0836987346, -0.0182669461, -0.0192061290, -0.0730683357, -0.3137099147, -0.2621549964, 0.0028311310, -0.2124133855, -0.0820131600, 0.0318915248, 0.1208657175, -0.2812584639, -0.1266420931, 0.3486957550, 0.1685128659, 0.0929070190, -0.1351591051, -0.0701575279, 0.1274901181, -0.0301460586, 0.0963731632, -0.2613251209};
#endif

#endif
