//Numpy array shape [2, 32, 4]
//Min -0.479929357767
//Max 0.621748149395
//Number of zeros 0

#ifndef ATTENTION_OUTPUT_WEIGHT14_H_
#define ATTENTION_OUTPUT_WEIGHT14_H_

#ifndef __SYNTHESIS__
q_multi_head_attention_1_default_t attention_output_weight14[256];
#else
q_multi_head_attention_1_default_t attention_output_weight14[256] = {0.18520157, -0.02547651, -0.04678112, 0.36009851, -0.40902725, -0.19640321, 0.18559182, 0.02893448, -0.36585084, -0.30063120, -0.19018045, -0.26428628, -0.25147104, -0.16462849, 0.28692394, 0.00084761, -0.10205499, -0.17415974, -0.26829091, -0.29722574, 0.36445719, 0.12450817, -0.20668840, 0.18014513, 0.03440888, 0.06324244, 0.24583581, 0.23234372, 0.34781557, 0.01959384, 0.30069035, -0.20168309, -0.34478292, -0.16421294, 0.37452191, 0.05954403, 0.35283941, 0.26468405, 0.07692917, 0.35223165, 0.02955000, -0.27465656, -0.10352586, 0.14427873, -0.38249516, 0.21891704, 0.10015996, 0.25623608, 0.26771832, -0.33023310, -0.26819888, 0.15744515, 0.31203771, 0.07630168, -0.07599302, -0.31477997, -0.44308665, -0.24329451, 0.06243331, 0.17965147, -0.45935836, 0.19279388, -0.11766726, 0.15708889, 0.19129419, 0.28790358, -0.05927712, -0.16350760, -0.33884653, -0.30962899, 0.10685977, 0.16538610, 0.00226316, 0.32104099, 0.33578020, -0.11787602, -0.06464340, 0.00018714, 0.07562100, -0.36986634, 0.15844992, 0.13116762, -0.27713224, 0.12654483, 0.14964171, -0.10020782, 0.05755510, 0.22222120, 0.49964181, -0.25102076, -0.42633572, -0.12485506, -0.25587207, 0.21660322, 0.38679305, -0.33798569, 0.62174815, -0.20568958, -0.05458566, 0.17052318, 0.06188385, -0.15127544, 0.31282657, -0.03883062, 0.35072136, 0.02791534, 0.21823008, 0.18422404, -0.25886247, 0.42162019, 0.24988148, 0.15954188, 0.15616636, 0.12321894, -0.17399450, -0.01344595, 0.35634753, -0.23000076, -0.20914075, -0.27927473, -0.28177807, 0.27683884, 0.37859467, -0.06244703, 0.15871990, -0.31891128, 0.00183915, -0.16285788, -0.05600528, 0.35078382, 0.41516736, 0.22696412, 0.13961378, 0.35072783, -0.06755736, -0.18632133, 0.22129376, -0.17180236, -0.28767443, -0.28337646, -0.09365565, 0.18417974, -0.04699663, -0.10016591, 0.27478021, 0.25373700, 0.15058833, 0.28042930, -0.21587138, 0.10805149, 0.33567131, 0.08216850, 0.33864570, -0.16950999, -0.01312459, 0.12242457, 0.04528520, 0.11772040, 0.11311913, 0.24832274, 0.10511352, -0.11171696, 0.31924075, 0.16026025, -0.37599856, 0.16795573, 0.12769990, -0.08344466, -0.02133031, 0.05195825, -0.22285920, 0.14957692, -0.02840604, -0.08373359, -0.15342849, -0.33566955, -0.29679281, 0.16192329, -0.24888265, -0.05096455, 0.31100824, 0.08016758, -0.05517942, -0.08832322, -0.47992936, 0.32112366, 0.07817581, -0.15883841, -0.14241335, 0.11984947, -0.14230773, 0.27963662, -0.36488798, 0.20857552, 0.38501793, -0.27234855, 0.05989091, 0.37478608, -0.10527780, 0.10102928, -0.42765465, 0.11080035, 0.17702532, -0.32295033, -0.08602490, 0.32230863, 0.23718822, 0.25766650, 0.03081471, -0.19433917, 0.00479423, -0.01402042, 0.23987904, -0.13651127, 0.14320624, -0.18709408, 0.36546749, -0.11899254, 0.15019360, 0.32117915, -0.03449967, -0.22258736, -0.24395977, 0.30787063, -0.19203588, 0.21941498, -0.07050465, 0.08761606, -0.03481627, 0.18234953, -0.32226250, -0.17423645, 0.23606910, -0.26833114, -0.33191055, 0.35614094, -0.13611899, -0.22868799, -0.05840107, 0.34137544, -0.06716489, 0.11122291, 0.06168503, -0.22636215, -0.17317103, 0.28845924, -0.03718411, -0.01899385, 0.05019518, 0.11607957, 0.11199845, 0.34848401, 0.18683252, -0.20334573, -0.11767811, 0.14054914};
#endif

#endif
