//Numpy array shape [2, 4, 32]
//Min -0.393266737461
//Max 0.360018223524
//Number of zeros 0

#ifndef VALUE_WEIGHT5_H_
#define VALUE_WEIGHT5_H_

#ifndef __SYNTHESIS__
q_multi_head_attention_default_t value_weight5[256];
#else
q_multi_head_attention_default_t value_weight5[256] = {0.31818634, 0.19446887, 0.09274419, 0.18271442, -0.10517223, -0.21520191, -0.17952842, 0.19687313, -0.21944757, -0.27071011, -0.18055283, -0.16840710, 0.00668816, 0.19833265, 0.29798457, 0.01707788, -0.11871957, 0.19869176, 0.30646551, 0.00390510, 0.06398850, 0.12362438, 0.19855069, -0.20363775, 0.20315172, -0.24408539, -0.04507380, -0.07528595, -0.26356152, 0.17432353, -0.17382373, 0.06373981, 0.00004427, 0.06436209, -0.19832514, 0.08182229, -0.07243361, 0.23205854, 0.03571808, 0.30190381, 0.24397360, 0.17671633, -0.03324509, 0.22551925, -0.22074594, 0.05020823, -0.14879759, 0.02570337, -0.25576431, -0.23408633, 0.10322870, -0.12844062, -0.09371604, -0.16890939, 0.11042178, 0.13222359, -0.27128285, -0.17244588, -0.04194198, 0.11176515, -0.09299793, -0.09222355, -0.10995006, -0.31152475, 0.16135451, 0.24057502, 0.13472074, -0.17818528, 0.03821824, -0.16568072, -0.08192222, -0.04906008, -0.04490649, 0.00367715, -0.15409464, 0.00114740, -0.03720736, 0.25079352, 0.02567136, -0.38231295, 0.02848748, -0.18654609, 0.33971655, 0.05101268, 0.26655245, 0.24709643, 0.13486698, 0.04449067, -0.06112739, -0.26158646, -0.14463319, -0.03112803, -0.39326674, -0.33523959, -0.21933840, 0.11113770, 0.00759781, -0.30899090, 0.16183364, -0.07057361, 0.02944238, -0.15839498, -0.04479769, 0.31467402, -0.00517693, 0.21372451, -0.09948894, -0.08254913, -0.30218080, -0.25399452, 0.11158078, 0.06597252, -0.25652203, 0.04571178, -0.07906988, -0.09124757, -0.12352442, -0.05192453, -0.18237409, -0.27972662, -0.11862896, -0.03232536, 0.07579362, 0.08949475, -0.04124799, 0.30506137, -0.01117135, 0.01940165, 0.00757253, -0.10534237, -0.17462920, 0.22373514, 0.01712536, 0.34429222, 0.21185334, 0.35426512, -0.38099259, 0.14015947, -0.00423880, -0.01947256, -0.03654430, 0.10571442, -0.10005920, 0.27049154, -0.12399572, 0.26005632, 0.13865940, 0.11799099, -0.30893877, -0.07496132, 0.09270233, 0.11021841, -0.28186160, -0.07746132, -0.06329631, 0.16579522, 0.08085459, -0.15395194, -0.10544012, 0.00151717, 0.12541950, -0.04967278, -0.29336405, -0.08493138, 0.22411780, -0.15651762, 0.13757335, -0.01502808, 0.26660281, -0.08222712, -0.22019778, 0.09262366, -0.23307748, -0.03346192, -0.26952365, -0.11063915, 0.26722151, -0.06383519, 0.19767027, -0.17931777, 0.01055886, 0.21936534, -0.04393333, 0.21421337, -0.24074605, 0.06746552, -0.07540664, -0.08319262, -0.12259086, -0.03936045, -0.11280676, 0.06724935, -0.20020774, 0.16610445, 0.08547392, -0.03308386, -0.28182995, 0.29311955, 0.36001822, 0.35615352, -0.15224689, -0.27190465, 0.22038764, -0.09547514, 0.34947079, -0.29774436, -0.11432178, 0.07275926, -0.14008027, 0.17893857, -0.10369935, -0.03022531, -0.27303821, 0.27207574, -0.30733043, -0.35676774, -0.19910227, -0.18518485, 0.28272069, 0.21841371, 0.01724899, 0.12127049, -0.04850252, 0.26430836, -0.06399242, 0.19090997, 0.17120533, 0.03897709, -0.02747314, 0.03666041, -0.08682366, -0.15605009, 0.23443621, 0.31282914, -0.08369873, -0.01826695, -0.01920613, -0.07306834, -0.31370991, -0.26215500, 0.00283113, -0.21241339, -0.08201316, 0.03189152, 0.12086572, -0.28125846, -0.12664209, 0.34869576, 0.16851287, 0.09290702, -0.13515911, -0.07015753, 0.12749012, -0.03014606, 0.09637316, -0.26132512};
#endif

#endif
