-0.0844977, 0.1992282, 0.0628281, -0.0063341, -0.1979044, 0.1823415, 0.0040033, -0.0430836, 0.3953049, -0.1634359, 0.1872876, -0.1539591, -0.2002653, -0.0105988, 0.0229359, 0.0916191, 0.4173307, -0.1714109, -0.0820108, -0.1842550, 0.1128270, 0.1593698, 0.1247193, 0.0150395, -0.0811992, -0.1189688, 0.2418599, -0.1414558, -0.3270251, -0.1762894, 0.0934256, 0.0249873, -0.1545566, -0.5748807, 0.1474365, 0.2213536, 0.4339303, -0.1202248, -0.2461657, 0.1756664, -0.3206702, 0.4704300, -0.5141830, -0.2863459, 1.0913554, -0.3725749, 0.2678719, -0.6025945, -0.3299365, 0.0780106, 0.5363646, 0.2499784, -0.0800230, -0.0129181, -0.5761766, 0.1088560, 0.1106457, -0.2519585, 0.1815138, 0.1176225, 0.7610058, -0.0416500, -0.5098602, 0.0854197, 0.9195517, 0.8202776, 0.0962797, 0.0773481, -0.5882722, 0.3612695, -0.5073593, 0.5744047, 0.3704183, -0.7729263, -0.0414826, -0.0286769, -0.4577862, -0.0915559, -0.5774378, 0.3517860, 1.0004523, -0.5863507, -0.1732663, -0.4221549, 0.1157034, 0.7143375, 0.8688402, 0.2974215, -0.4089285, -0.0225768, 0.4325313, -0.4165466, -0.5132127, -0.2911624, 0.1765817, 0.2968124, -0.2884222, -0.5755985, 0.3222562, 0.3499590, 0.7192423, -0.1017790, -0.0120283, 0.0939739, -0.0371723, 0.3056130, -0.0772458, -0.3104442, 0.4501452, -0.4618264, -0.0236653, -0.1447687, -0.5716323, -0.2745165, 0.4935737, 0.2606152, 0.0987313, -0.0234596, -0.3778120, -0.4023889, 0.0402291, 0.0763826, 0.2104532, 0.0552590, 0.2737677, -0.2787581, -0.3453911, 0.0036655, 0.1751389, 2.3204577, -0.4984538, -0.0081599, -0.7621007, 0.4661773, -0.3943060, -0.1816710, 0.8518879, -1.2408372, 0.4312557, -0.0548026, -2.1440070, 1.5565189, -0.2754284, 0.0680491, 1.8229562, 0.0144788, -0.8143586, -1.1600387, 0.3612216, 0.6942785, 0.9677198, 0.3784956, 0.4975539, -0.2174175, 0.4212050, -0.2619410, -2.2313442, 0.3164294, 1.2120291, 0.2652182, -0.3134591, -1.8423836, -0.4308795, -0.4634976, 0.7808903, -0.4439205, -0.1872315, 0.0832723, -0.0232018, 0.4676173, -0.1825050, -0.1547458, 1.1239376, -0.4329511, -0.1412455, -0.8397702, -1.6307156, 0.1243821, 0.3239330, 0.3499656, 0.1312755, -0.9579663, -0.7822152, 0.1619685, 0.6009687, 0.0671188, -0.1698578, 0.2098359, 1.6816491, -0.1114171, -0.6699098, -0.4062226, -0.0688878, -0.0966752, 0.0111612, -0.0505649, 0.0103902, -0.0935842, -0.0716165, -0.0665841, 0.2532585, 0.1163661, 0.0444250, 0.1101871, -0.0318979, -0.0602284, 0.0380530, 0.0147499, -0.1162491, 0.1237672, 0.0703689, -0.0877183, 0.1161760, 0.1060923, 0.0236861, 0.0873695, 0.0615604, 0.1126118, -0.1168925, 0.0627548, -0.1316881, 0.0769986, -0.0745548, -0.0210073, -0.2357100, -0.0151980, 0.2554634, 0.0291926, 0.3930550, -1.1198640, -0.0686046, 0.0131824, 0.0012024, -0.3176175, -0.1528744, -0.2275369, 0.3361855, -0.2030662, -0.0508518, 0.1720825, 0.1449030, 0.1585257, -0.0941062, -0.0436027, 0.1466783, 0.1252540, -0.1665464, 0.0637580, 0.2661665, -0.1073269, -0.0423338, 0.3156125, -0.2589765, -0.5017173, -0.0281966, 0.1968652, -0.0476880, -0.0614322, 0.2195713, -0.0753856, -0.3603814, 0.6541303, 0.0518442, 0.1209458, -0.4904183, -0.1006015, 0.2233451, -0.1840726, -0.4087465, 0.3111313, -0.0062264, 0.1290227, 0.1575458, -0.2987457, 0.1776921, 0.0673278, -0.0624840, -0.2606389, -0.2514068, -0.0236715, 0.1571478, -0.5198696, -0.1901109, -0.3781195, 0.3196830, 0.2459858, 0.0459095, 0.3664480, -0.1979169, 0.0601878, -0.0585364, -0.0751207, 0.3900870, -1.1542923, -0.2703887, 0.1747617, -0.1096889, -0.1535860, -0.4090780, -0.3191252, 0.6333809, 0.0819249, 0.2753866, -0.1250727, 0.0407135, 0.0203840, -0.3591848, 0.0629125, -0.1607998, 0.0575521, 0.0565952, 0.2082088, -0.0840627, -0.0720998, -0.2140384, -0.0965393, -0.0599512, -0.4335780, 0.3436960, 0.1257656, -0.2285188, -0.0139164, 0.1737480, 0.3021615, -0.6789374, 1.3962169, 0.3476101, -0.2186938, -0.2349466, -0.3019310, 0.6180466, -0.2648786, -0.6975462, -0.0556481, 0.2170824, 0.3918130, -0.1643628, -0.6973944, 0.4409908, -0.0627857, 0.1527709, -0.3655484, -0.2090363, -0.3664517, 0.0163455, -0.2619666, -0.2644873, -0.5193309, 0.3359916, 0.2065811, -0.0007449, 0.0066333, -0.0369295, -0.4189083, 0.1831571, 0.0057134, 0.6160289, -1.3317751, -0.5133786, 0.0756414, 0.1164436, -0.0878811, -0.3918633, 0.1656140, 0.6483796, -0.1020824, 0.3830808, -0.1052445, -0.0216308, 0.4835910, -0.2346270, -0.1459217, 0.0974101, -0.1604073, 0.3558541, 0.1513981, -0.2143032, -0.0264628, -0.0682039, 0.0521691, -0.1936122, -0.4345988, -0.0608110, -0.2230966