//Numpy array shape [2, 6, 32]
//Min -0.522809088230
//Max 0.544938206673
//Number of zeros 0

#ifndef KEY_WEIGHT9_H_
#define KEY_WEIGHT9_H_

#ifndef __SYNTHESIS__
q_multi_head_attention_46_default_t key_weight9[384];
#else
q_multi_head_attention_46_default_t key_weight9[384] = {-0.1882741, -0.1702523, 0.0251769, 0.1072887, -0.0312224, -0.1909882, -0.2221601, 0.1403681, 0.1076806, 0.0592942, -0.1658043, 0.1167027, -0.3109961, 0.2225287, -0.2675044, 0.3951130, 0.0948694, -0.0470182, -0.1246838, 0.1043474, 0.0819713, 0.1782345, 0.2385182, 0.2865154, -0.1458617, -0.0548083, -0.4378358, -0.1985929, -0.3158373, -0.0609873, 0.1706983, 0.1966840, -0.1463330, 0.2466175, 0.1655736, -0.0041213, 0.2917109, -0.1876961, -0.1624491, 0.2668939, 0.1633249, -0.0358892, 0.0775841, -0.0748297, 0.0404858, -0.0820820, 0.2117035, -0.0188977, 0.0983103, 0.0209536, 0.2980199, 0.2152213, 0.1157165, 0.2660758, 0.0542714, 0.0486114, 0.3183581, 0.0833155, 0.0182072, -0.2453210, -0.1501908, -0.0242416, -0.1171210, 0.2421104, 0.1595950, 0.2963729, -0.0756215, 0.0199220, 0.0958132, -0.2233124, -0.2441514, 0.0800139, 0.2024365, 0.0512606, 0.0429241, 0.3272512, 0.2590804, -0.2809126, 0.1593173, -0.3931932, 0.0853865, 0.4236423, 0.1002042, 0.1195930, 0.0753127, 0.0596292, -0.0222581, -0.1735448, 0.1016731, 0.2770185, 0.1845356, -0.0657992, 0.0319357, 0.2476845, 0.2304881, -0.0341792, 0.0942712, 0.0182693, 0.0852333, 0.0783083, 0.1549489, 0.0246587, -0.2838597, -0.1469106, 0.0090054, 0.2286514, -0.2835451, -0.1207448, 0.0274966, -0.1981248, 0.0692692, 0.0439077, 0.0915025, 0.2079242, -0.1767608, -0.0381250, 0.2150186, 0.0481347, -0.1291965, -0.0230570, 0.4231827, 0.1414064, 0.2472082, 0.1023666, -0.2228708, -0.2028004, -0.1477934, -0.0533173, 0.1264595, -0.1879434, -0.1182898, -0.2075538, -0.0751804, -0.1059880, 0.1454567, -0.0272441, 0.2471377, -0.2096357, 0.1458203, 0.1610127, -0.0648948, -0.0985983, 0.0057551, 0.1915217, 0.0789020, -0.0215705, 0.1240277, 0.0696723, 0.1772442, 0.1959052, -0.1990665, 0.0149096, -0.2105850, 0.0160339, -0.0178265, 0.0326072, -0.0401614, -0.1588865, 0.1415833, -0.2350213, 0.0377500, 0.1506146, -0.5228091, 0.1363724, -0.1028993, -0.0240623, -0.1631551, -0.3058323, 0.0443398, -0.1764114, -0.3581272, -0.3151843, -0.0225685, -0.2009377, 0.1994710, -0.0337424, 0.0786843, 0.2063985, 0.3058684, -0.1683488, 0.0792980, 0.2090787, -0.1442245, -0.0923504, 0.1690451, 0.0405113, 0.2042994, 0.1691019, 0.1567017, -0.3425346, -0.2167953, -0.2958096, -0.1633548, 0.1617138, 0.0738111, -0.0883811, 0.1789547, 0.2296076, 0.1639159, 0.1145150, 0.1267599, -0.0161804, -0.1073447, -0.2005932, -0.1788436, -0.1069610, 0.0943372, 0.0031211, -0.0534094, -0.2391193, 0.1846472, -0.1124347, -0.0734532, 0.2253899, -0.1858287, -0.0322518, -0.1450939, -0.1548881, -0.1059485, -0.2499209, 0.0098905, 0.1974935, -0.1119416, 0.0317450, -0.0267436, -0.2766480, 0.2365118, -0.1760078, 0.0837248, 0.0399328, -0.1736252, 0.2195570, -0.0878498, -0.2243952, 0.0493652, 0.1946882, -0.1665305, 0.0958879, -0.0332548, 0.1169472, -0.0170691, 0.1080610, 0.0331698, -0.2125573, 0.2581721, 0.1250071, 0.1381781, 0.1918638, 0.0513720, -0.0664453, 0.0512422, 0.0571823, 0.2095662, 0.2226645, -0.1218449, 0.1119819, 0.0127177, -0.2157252, 0.2235442, 0.1324994, 0.2701933, 0.2829770, 0.0023787, 0.2860441, 0.2193281, -0.1117411, -0.0235407, -0.3645721, 0.1290222, -0.0741024, 0.0949627, 0.0937736, -0.0829277, -0.1253997, 0.2895857, -0.2627479, 0.2339502, 0.0625314, -0.4073868, 0.2001506, 0.0189448, 0.0459708, -0.1032616, -0.1427602, 0.2101839, 0.2454117, 0.0615477, 0.1323719, -0.0942043, -0.1344154, 0.1233768, 0.2602624, -0.0434710, -0.0281948, -0.1656164, 0.0246040, 0.1545835, -0.0536625, -0.3082664, -0.1695600, 0.0960857, 0.1696645, 0.1307503, 0.2840009, 0.0953924, -0.0680018, 0.0542660, -0.0312859, -0.0901891, 0.1080031, -0.3174739, 0.1432441, -0.2679082, -0.0844109, -0.1030734, 0.1659369, 0.1852110, 0.4059610, -0.2818954, -0.2225037, 0.1064771, -0.1092925, -0.0904649, -0.3194786, -0.1889366, 0.1116686, -0.2628793, 0.2653815, -0.2172891, -0.4088966, 0.3307794, 0.5449382, -0.1504279, 0.1516363, -0.4222862, -0.0323171, 0.1520530, -0.2641358, 0.1476887, -0.1861176, 0.2942146, -0.2362828, 0.2503671, 0.2771633, 0.3491204, 0.1718361, 0.2013048, 0.1457339, 0.4238314, -0.1002998, 0.0789590, 0.1811489, 0.1164284, -0.0590767, 0.0859054, 0.3441335, 0.0410860, 0.1439082, -0.0086986, -0.0991005, 0.2797668, -0.0882498, -0.1966491, -0.2760847, 0.1136690, -0.0900006, 0.2631536, -0.2795643, 0.1363165, 0.1681399, 0.0712292, -0.1253319, 0.1641849, -0.2355895, -0.2541599, 0.0396163, -0.2862581, -0.1276048, -0.0811728, 0.0808702, 0.0744208, -0.1527595, 0.0451158, 0.0621913};
#endif

#endif
