//Numpy array shape [2, 6, 32]
//Min -2.431322336197
//Max 2.237792968750
//Number of zeros 0

#ifndef QUERY_WEIGHT2_H_
#define QUERY_WEIGHT2_H_

#ifndef __SYNTHESIS__
q_multi_head_attention_45_default_t query_weight2[384];
#else
q_multi_head_attention_45_default_t query_weight2[384] = {1.3307619, 2.2104537, -0.2682824, 0.5808797, -1.5375035, 1.6576000, -1.0506043, 0.1662857, 1.3164679, -1.6823673, 0.6452166, 0.0034217, -2.2621748, 1.3394909, -0.6977863, 1.4465967, 1.7490501, -0.6172757, -1.4168849, -1.4346745, 0.7612318, 1.9546734, 2.0677462, 1.1953665, -0.4171086, -0.6429294, 0.7054570, -0.9281986, -2.4313223, 0.1180414, 2.2377930, 1.2308292, 0.0230320, 0.1425553, 0.0263649, 0.2270744, 0.0410528, 0.0961960, -0.0235639, -0.0430779, 0.0713477, 0.1566386, 0.3294444, -0.2503263, 0.0160092, -0.0811672, 0.2402451, -0.1367842, 0.2823138, -0.1441947, 0.0350974, -0.1882361, 0.4121919, 0.3441062, -0.0602744, 0.1244825, 0.2556572, -0.1000779, 0.2573791, -0.2725513, -0.1910554, 0.0029302, 0.1650189, 0.0041917, 0.0259223, -0.2103596, 0.1343894, -0.2535717, 0.0494762, -0.0978092, -0.1804980, 0.1509573, -0.2060857, 0.1495811, -0.3048629, -0.2180007, 0.4163010, -0.4277851, -0.0197597, -0.2428924, -0.1923531, 0.0243993, 0.3621633, 0.0523912, -0.0478427, -0.1461102, -0.1062356, 0.1773618, -0.1302677, -0.0228383, 0.0375331, 0.0062474, 0.4490215, -0.1988817, -0.6903738, -0.0342229, -0.2021324, -0.1558717, 0.1635057, -0.0804264, 0.1694992, -0.1163669, 0.1848984, -0.1958698, 0.3029635, 0.0991131, 0.2976601, -0.2255757, -0.0839440, -0.4550113, -0.0904912, 0.0663147, -0.3236414, -0.1018651, 0.2162013, 0.0853083, 0.2965786, -0.2518179, 0.0300395, -0.2236142, -0.0101782, 0.1431343, -0.0035238, -0.1278203, -0.0266070, -0.2454731, -0.1443883, -0.2085458, -0.1970868, -0.0168376, -0.3862335, -0.1659239, 0.1002111, 0.2057432, -0.1839277, 0.1207019, 0.3113511, -0.0311332, -0.0919605, -0.3787330, -0.0207355, 0.1782519, -0.0244569, -0.2859503, -0.0116323, -0.0063549, 0.0197522, -0.0441456, 0.2297123, 0.0461793, 0.0971008, 0.1072286, 0.2821464, -0.1840151, 0.1222747, 0.1727999, -0.0173753, 0.0908837, 0.2636087, 0.1347194, 0.1874488, 0.0133612, -0.2733959, -0.0458915, 0.1325034, -0.2337070, -0.3862827, 0.4578262, -0.0973120, -0.1795962, 0.0241038, 0.1496539, -0.1515542, 0.0315162, -0.3824054, -0.1661435, -0.1519265, -0.2482626, -0.1784933, -0.2023855, 0.0942598, -0.2691979, 0.1683766, 0.3190632, 0.3067492, 0.1665810, 0.0814893, -0.1565006, 0.1760179, -0.2674763, -0.3101816, -0.2723751, 0.2265347, -0.1865029, -0.1395465, -0.2388561, 1.8326234, -2.0957599, -0.4172786, 0.2004609, 0.4714757, 0.1864359, -0.8242248, 0.3038385, 0.9559164, -0.4794478, 0.2619229, -0.6734899, 0.0551906, 1.0477242, -0.8178517, -0.0820659, -0.0307914, 0.7505405, 0.6941625, 0.3814406, -0.0966849, 0.4708217, 0.1920528, 0.8619487, -0.4400614, -0.4655491, -0.0466350, -0.5305843, 0.3508981, -0.3087515, -0.1719624, -0.1363412, 0.2509587, 0.1206663, 0.1556021, 0.1328321, 0.0078918, 0.2114850, -0.1028106, 0.2431762, 0.0444823, 0.0185962, -0.1748107, -0.0888737, 0.0714565, 0.2794037, 0.1267561, 0.1372256, -0.0866086, 0.0854333, 0.0808984, 0.0063884, -0.2066314, 0.0896893, 0.0845398, 0.0536478, 0.0023623, 0.1036053, -0.0391991, -0.1186283, 0.3101233, 0.2107741, -0.1849674, -0.1439039, -0.0832462, 0.0523012, -0.0234613, 0.0815922, 0.0315562, 0.2998172, 0.0788861, 0.1860589, -0.0405722, 0.1482207, -0.3129038, -0.1487054, -0.0744643, 0.0703148, -0.1246536, 0.0423644, -0.2072545, 0.2308398, -0.0390927, -0.0171902, 0.0276722, 0.0687339, 0.1849104, 0.1801972, 0.0866789, 0.1780100, -0.0417907, -0.0748669, 0.0289567, 0.0039102, 0.0178795, 0.1399390, 0.0488768, 0.0024667, 0.0428919, -0.2704627, 0.1422950, 0.0334355, -0.0672421, 0.1386748, -0.2054275, 0.0352614, 0.0739014, 0.0475032, 0.1667681, 0.0385743, -0.0943475, 0.1277566, -0.0309995, -0.2728618, 0.2765718, -0.1437640, -0.1752593, 0.2141150, 0.0088824, -0.1731533, -0.0754049, -0.0401375, -0.0951086, -0.2739468, 0.0692964, -0.0901228, -0.0869770, -0.3010826, 0.2163946, -0.0349548, 0.0153272, 0.0309180, 0.0597126, 0.2603306, 0.0255875, -0.1948978, -0.1227372, 0.0660852, -0.0735441, 0.0059695, 0.0905142, 0.2138212, -0.1143401, -0.0102488, -0.0295269, 0.0737352, -0.1057059, 0.1809265, 0.1801537, -0.0754719, 0.0083487, -0.0618000, 0.0324188, 0.1049834, 0.1826468, 0.2567705, -0.0736231, -0.2145133, 0.1322257, 0.1159468, -0.0698280, 0.0170875, -0.0705756, -0.0255142, 0.1018862, -0.0280389, -0.0059781, -0.0715300, 0.0811498, -0.2131670, 0.4687333, 0.0593443, -0.1913101, 0.0589249, 0.1019862, -0.1347420, 0.2702916, -0.3452821, 0.2741933, -0.1469627, -0.0234171, 0.0898270, 0.0281168, -0.0956033, 0.0808086, -0.0319863, -0.0350590, -0.2183892};
#endif

#endif
