-0.1887429, 0.0711029, -0.2467809, 0.2095336, 0.0619799, -0.1722558, -0.1840977, 0.0631449, -0.1706050, -0.0162255, -0.0134523, 0.1760829, -0.1831010, -0.1596961, 0.0518821, -0.0363882, 0.1150720, -0.0942900, 0.1570590, 0.1845864, 0.1015682, -0.1121097, -0.1333795, -0.0437840, 0.0056106, 0.0472154, 0.1307955, -0.2542662, 0.0527614, -0.2876371, -0.0159028, -0.1606625, -0.0660257, -0.0907755, -0.1277566, 0.0656349, -0.0098088, -0.0497882, -0.0207384, 0.1815524, 0.0339582, 0.1328705, 0.1417468, 0.2238847, -0.2416298, -0.2914338, 0.2551277, -0.3115997, 0.2099935, 0.0740863, 0.2909043, 0.0774911, 0.0908407, -0.1532839, 0.3740024, 0.0215866, 0.4140526, 0.0411103, -0.0298643, -0.2941486, 0.1827807, -0.1507137, -0.1626412, -0.4979399, -0.0787854, 0.1953559, -0.0683695, 0.0605271, -0.0537231, 0.1485343, -0.2127996, -0.0204855, -0.0475888, -0.0506365, -0.1546186, 0.0911316, 0.0661658, 0.0455474, -0.2563225, -0.1627822, 0.0312642, -0.1649545, 0.1838869, -0.1113086, -0.1112116, -0.0320492, -0.2933036, -0.0332671, -0.2874550, 0.2552599, -0.0152770, -0.1172631, 0.0899088, -0.2594827, -0.0710957, 0.1517131, -0.1207969, 0.2280683, 0.0841571, 0.1391324, -0.0622651, -0.1694726, 0.1601557, -0.2560551, -0.0916711, 0.0994270, 0.2081682, 0.0776460, -0.1365591, 0.0803664, 0.0408586, -0.0330119, 0.0606744, 0.0814116, 0.2374981, 0.1911332, 0.2356251, 0.1845810, 0.2263896, -0.1019666, 0.0912937, 0.0173106, -0.2986696, 0.0138308, -0.1204336, -0.2145189, -0.0788196, -0.5121610, -0.1193792, -0.2712809, -0.3032652, -0.0033178, 0.2209989, -0.1941908, 0.1936350, -0.0138712, 0.2306915, -0.1538811, -0.0797726, 0.1353957, -0.1495600, -0.2030121, 0.0665701, 0.0388154, 0.2661294, 0.0447557, 0.0059085, 0.1126807, 0.3603928, 0.0127602, 0.0096029, -0.2581485, 0.3491794, -0.0623906, 0.0761518, -0.0391663, -0.1429913, 0.1098752, -0.1598225, 0.2895456, 0.1693445, 0.2568350, 0.0085160, 0.0507070, 0.2313567, 0.0565021, -0.2476273, -0.0495984, -0.2763830, 0.0962338, -0.2242337, -0.0562429, 0.3133784, 0.0393538, 0.1331474, -0.0252118, 0.0466822, -0.2165234, -0.1602676, 0.3643476, -0.0446434, -0.2109728, -0.5155525, -0.0291165, -0.3126386, -0.0276122, 0.4754839, 0.0234473, 0.1622265, -0.0117937, 0.3198438, 0.2772866, -0.1235514, 0.0224461, -0.0989204, 0.1178410, -0.1894981, 0.1198860, 0.1311125, 0.1410946, -0.1167443, 0.0231755, 0.0746804, 0.0312432, -0.0284313, -0.0171626, 0.0081265, 0.1256569, 0.0664448, 0.2417243, -0.0191637, -0.0543477, 0.0177606, -0.0049569, -0.1369656, -0.1226807, 0.0871071, -0.0345460, 0.1560208, -0.0088934, -0.1037199, -0.0803249, -0.0032653, 0.1575090, -0.0947761, 0.1705156, -0.0395725, 0.0583432, 0.1266894, -0.2290724, -0.2736399, -0.1178434, -0.0985416, 0.0371935, 0.1605786, 0.3029088, 0.0586688, -0.1585682, 0.1373917, -0.2136346, 0.2000181, -0.2279208, 0.0308079, 0.0897401, 0.0985146, 0.0474387, -0.0519331, 0.1572638, 0.0059990, 0.1662699, 0.1216009, -0.1102148, -0.0296523, -0.0084662, -0.0697923, 0.1722479, -0.0606460, 0.0027901, -0.0545488, 0.1134234, -0.0356917, -0.1606485, 0.0550615, 0.0165544, -0.1860688, 0.0578381, -0.0179727, 0.1287317, -0.1467816, -0.2528501, 0.0343413, 0.0689623, -0.0807973, -0.0913598, 0.1515513, 0.0211556, 0.0326892, 0.1566105, -0.0150915, -0.0311679, -0.0957922, -0.1248896, 0.2485027, -0.2422678, -0.0484992, -0.0418242, -0.0231698, -0.0759433, 0.2793090, -0.0703158, 0.0905388, 0.1485138, -0.1742103, 0.0059110, 0.2096469, -0.1127249, 0.0582403, 0.0162544, -0.1052325, -0.0837199, 0.1469955, 0.0091058, -0.0904188, -0.0543148, -0.0188310, -0.0779669, -0.1426257, -0.0311441, -0.0963874, 0.0309884, 0.1453440, 0.0154353, 0.0944818, -0.2685618, -0.0021106, 0.2690110, -0.2125445, 0.0854287, -0.0319472, -0.1349191, -0.0126455, -0.1568042, 0.0263022, -0.0088192, 0.0819086, 0.0304990, 0.0805034, -0.0215882, 0.0840850, 0.0596879, 0.1901257, -0.0918209, 0.2230276, 0.1166115, 0.1227942, -0.0193407, -0.1167649, 0.1076803, -0.0919411, -0.1561456, -0.1137190, 0.1173117, -0.1431322, 0.1621917, -0.1350707, -0.0608963, -0.0384207, 0.1087214, 0.0839055, 0.0297847, 0.0268501, -0.1117028, -0.0814330, -0.2380261, 0.0968651, 0.2412494, -0.2022310, -0.0526762, -0.0509614, -0.0134939, 0.0621739, -0.1598836, 0.1716562, 0.0286420, -0.1071840, 0.0143605, -0.1091996, 0.0326591, -0.1827678, 0.2931192, -0.0927579, 0.0970175, -0.0454073, -0.0957847, 0.1701402, 0.1562811, 0.0454107, 0.1296188, 0.2135088, -0.1255281, -0.1543402, -0.1555132, -0.0049380, 0.1751344