//Numpy array shape [2, 6, 32]
//Min -0.216636925936
//Max 0.201923400164
//Number of zeros 0

#ifndef VALUE_WEIGHT2_H_
#define VALUE_WEIGHT2_H_

#ifndef __SYNTHESIS__
q_multi_head_attention_45_default_t value_weight2[384];
#else
q_multi_head_attention_45_default_t value_weight2[384] = {0.0944470, 0.0918193, 0.0217469, 0.0304017, 0.0300512, -0.0260117, -0.0213416, 0.0233078, 0.1558706, -0.0213736, 0.0279924, 0.0291471, -0.0100731, -0.0101486, -0.0144450, -0.0362916, -0.0366632, 0.1010011, 0.0984100, 0.1404514, -0.0820017, 0.0380873, 0.0145995, 0.1162571, 0.0329419, 0.0707180, -0.0924943, 0.0193909, -0.0223533, -0.0729276, 0.0271086, -0.0942294, 0.0526612, 0.0019347, -0.0290417, 0.0135014, -0.0572288, 0.0984089, 0.1801049, -0.0707313, 0.0944640, -0.0376630, 0.0196524, -0.0890097, -0.0386696, -0.1418279, 0.0291947, 0.0178386, -0.0873563, -0.0231182, 0.0583539, -0.1154733, -0.0528984, -0.0300275, -0.0647419, -0.0222422, 0.0235650, -0.0565286, 0.0017358, -0.0099108, -0.0855085, 0.1371392, -0.0188547, 0.0890289, -0.1708834, -0.1004110, -0.0302041, -0.1295535, -0.0521299, 0.1922395, -0.1019996, -0.0161279, -0.1642353, -0.0367914, 0.0918422, -0.1446340, 0.0531797, 0.1403361, -0.0445289, -0.0176374, -0.0221281, -0.0395305, 0.0315796, 0.0362675, 0.0846702, 0.0304884, -0.0433741, -0.1021934, -0.0251184, 0.0342768, -0.0330265, -0.0297313, 0.0104249, -0.0038300, -0.0347183, 0.0561292, 0.0304969, 0.0358921, 0.0824825, -0.0106783, 0.0955128, -0.0939945, -0.0967663, 0.0903997, -0.0389315, -0.1409417, 0.0859657, 0.1231304, 0.0349832, -0.0619226, 0.0813561, -0.0290710, 0.0307316, -0.0799336, -0.0425743, -0.0029338, -0.0791447, 0.0323152, 0.0374571, -0.0947022, -0.0509938, 0.0930441, -0.0046662, 0.0323903, 0.0648267, -0.0681825, 0.0201472, -0.0431402, -0.1480660, 0.0243273, -0.0050880, -0.0700394, -0.0329031, 0.1647360, -0.1003928, 0.0300068, -0.0284506, 0.1429697, -0.0830564, 0.0469029, 0.0344032, 0.1112594, 0.0585662, 0.0708148, 0.0446956, -0.0636302, -0.0938016, -0.0750571, 0.0352171, -0.0951200, 0.0281163, -0.0885037, 0.0290799, 0.0930881, -0.1080460, 0.0214573, 0.0099894, -0.1286435, 0.0281307, 0.0875257, 0.0306656, -0.0171451, -0.0133360, -0.0932841, -0.0305792, 0.0465906, 0.0178530, -0.0290460, -0.0530641, -0.0531243, -0.0212887, -0.0197428, 0.0447931, -0.1111250, 0.0357580, 0.0460507, -0.0175102, -0.0834787, 0.0439239, 0.0464720, -0.0414047, 0.0745103, 0.0183749, 0.1077911, 0.0796999, -0.0319299, -0.0308270, -0.0177781, 0.0048287, -0.0895292, -0.0269188, -0.2166369, 0.0309773, -0.0561015, -0.0295325, -0.0380870, -0.0277103, -0.0554124, 0.0691231, -0.0286585, -0.0594117, 0.0838569, -0.0257126, 0.0300116, 0.1077895, 0.0608602, 0.1487103, -0.0356863, 0.0637820, 0.0306117, 0.0296181, -0.0129924, -0.0275301, 0.0678068, 0.0309488, -0.0367733, -0.1663950, -0.0243489, -0.0298754, 0.0554499, -0.0618584, 0.0800985, -0.0168981, 0.0948795, -0.0763446, 0.0812053, 0.0404144, 0.0840673, -0.0512518, 0.0857030, 0.0377208, -0.0954755, 0.1240716, -0.0554180, -0.0476221, 0.0423921, -0.0606878, -0.1432112, 0.0856729, -0.0494492, 0.1589107, -0.0305260, 0.0325209, -0.0340762, 0.0322530, 0.1735115, 0.0275474, -0.0020573, 0.0319926, 0.0483771, -0.0113363, -0.0609478, -0.0123078, 0.0157669, -0.0419764, 0.0284583, 0.0712313, 0.0013694, 0.0103861, 0.1098575, 0.0230088, 0.0870467, -0.0281468, 0.0358373, 0.0844025, 0.0750880, 0.1268558, 0.0325718, -0.0357557, 0.1928015, -0.0110149, -0.0235304, -0.0590228, -0.0315289, 0.1374035, 0.0791470, -0.0326746, -0.1757874, 0.1711198, -0.0165631, 0.1658719, -0.0517334, 0.0796586, 0.1492008, 0.0530568, -0.0069330, 0.0282690, -0.0319335, -0.0311214, -0.1095397, -0.0976653, 0.0398963, 0.0632471, -0.1317706, -0.0005697, 0.0607338, -0.1176075, -0.1258002, 0.0174327, 0.0072124, 0.0584737, 0.0946781, 0.0682941, 0.0992635, -0.1404084, -0.0337004, -0.0314948, 0.0329175, -0.0397360, 0.0162813, -0.0342540, 0.0962404, 0.0307633, 0.0233441, -0.0930876, -0.0652385, -0.0259219, -0.0763208, 0.1773213, -0.0936965, -0.0982197, 0.0472038, 0.0925977, -0.0022470, -0.0036957, -0.0289351, 0.0342854, -0.0306862, 0.0278641, 0.2019234, -0.1536850, -0.0280911, 0.0868850, 0.0973155, -0.0470868, -0.0425786, -0.1843153, -0.0190183, -0.0347959, 0.0500976, -0.0787088, -0.0210294, 0.0275578, 0.0464110, 0.0345814, -0.0815339, -0.0300586, 0.0952395, -0.0243481, -0.0173258, 0.0247155, 0.0902676, -0.0054010, -0.0333315, -0.0301682, -0.0517919, -0.0220940, -0.0107077, 0.0237703, -0.0249002, -0.1485463, 0.0844306, 0.0653001, 0.0034796, 0.0034978, -0.0946477, 0.0339075, -0.0267717, 0.0007738, 0.0308601, 0.0235355, -0.1428448, -0.0440476, -0.0318248, 0.0071523, -0.0779053, -0.1957096, 0.0233593, 0.0358091, -0.0828045, 0.0288494, -0.0716143, 0.1401575, -0.0328642};
#endif

#endif
