//Numpy array shape [2, 32, 6]
//Min -0.537825703621
//Max 0.456227004528
//Number of zeros 0

#ifndef ATTENTION_OUTPUT_WEIGHT16_H_
#define ATTENTION_OUTPUT_WEIGHT16_H_

#ifndef __SYNTHESIS__
multi_head_attention_4_default_t attention_output_weight16[384];
#else
multi_head_attention_4_default_t attention_output_weight16[384] = {0.121426366270, 0.130211487412, -0.048435974866, -0.197036415339, -0.216792106628, 0.014623412862, 0.101762801409, -0.070578604937, -0.107563100755, -0.101807050407, -0.230797171593, -0.133160531521, 0.118617348373, -0.189036935568, 0.131344512105, 0.224735215306, -0.096761591733, 0.181551590562, -0.118538819253, -0.079251512885, -0.105972856283, -0.144302830100, 0.181935146451, 0.001733226818, -0.019939288497, -0.020039595664, 0.180899694562, 0.031773999333, -0.033853538334, -0.238225921988, 0.228933334351, 0.053654108196, 0.155837774277, -0.245156764984, -0.249991476536, -0.249983862042, 0.106528349221, -0.083322115242, 0.263158023357, -0.031220119447, -0.006416053046, 0.041281476617, -0.116413958371, 0.008110215887, 0.258683383465, 0.038957629353, -0.230609998107, -0.124159865081, -0.032753717154, 0.067833177745, 0.185694947839, 0.107380129397, 0.010674664751, 0.239867091179, 0.148544341326, 0.258021831512, -0.213926985860, 0.048434648663, 0.086702153087, 0.115460053086, -0.031686220318, -0.155410856009, -0.005599770229, -0.198191612959, -0.095766685903, 0.232376769185, 0.173742085695, -0.067833304405, 0.086870320141, 0.123569473624, -0.238007679582, 0.121304869652, -0.014783193357, 0.252128779888, -0.204325526953, 0.294024318457, -0.164435714483, 0.115319795907, -0.165458932519, 0.134528622031, -0.135472208261, -0.008942812681, 0.175936922431, 0.250009328127, 0.246811553836, -0.171722069383, -0.232309073210, 0.214600875974, -0.158031091094, -0.169381409883, -0.057549417019, 0.234241992235, 0.200234457850, -0.061888579279, 0.004798673093, 0.187462404370, 0.052601549774, -0.232597246766, 0.092488974333, -0.075270511210, 0.064879380167, -0.042261704803, -0.048396419734, 0.219171583652, -0.089249484241, 0.121651276946, -0.234153360128, -0.106692723930, 0.070422202349, -0.044773142785, -0.023591730744, 0.185354381800, -0.168458834291, -0.144946143031, -0.158335044980, -0.117075517774, -0.098000362515, -0.306435853243, 0.163220092654, 0.160557821393, -0.140070959926, 0.133322760463, -0.143001988530, 0.234409153461, 0.239801615477, -0.051276862621, 0.107828840613, -0.306071639061, -0.122075401247, -0.126949265599, 0.033020954579, -0.059090767056, 0.181534349918, 0.275379240513, 0.144168466330, -0.308745741844, -0.153581991792, -0.207329213619, 0.217923298478, 0.120773352683, 0.081825219095, -0.145246893167, -0.162852823734, 0.130920067430, 0.026564089581, 0.119766041636, 0.138631150126, 0.318014711142, -0.045252196491, 0.009102238342, -0.124491430819, -0.275136470795, -0.040217723697, -0.036724288017, 0.281708538532, -0.074715435505, 0.113959044218, 0.086816631258, -0.087334454060, 0.229969337583, 0.295716315508, 0.170175686479, 0.222095444798, -0.121500998735, -0.058825671673, -0.075326904655, -0.124658755958, -0.018413608894, 0.075938269496, 0.171037167311, 0.132123455405, -0.038690287620, -0.271693140268, -0.277455508709, -0.181897073984, -0.152357682586, -0.094789735973, 0.117726258934, -0.223073065281, 0.046126361936, -0.233950614929, -0.123616501689, 0.176600605249, 0.024794474244, 0.206100091338, -0.137920901179, -0.210312381387, 0.298548251390, -0.156196713448, -0.102607801557, 0.331412404776, -0.053057990968, 0.200701609254, -0.017023516819, 0.274711072445, 0.261416763067, 0.315950363874, -0.481949120760, -0.087115801871, 0.456227004528, -0.062264576554, 0.197384417057, 0.241850346327, -0.222560986876, -0.012889636680, -0.278296500444, 0.070545792580, -0.260458797216, -0.157718509436, 0.137559711933, 0.207497119904, 0.100215867162, -0.039464171976, -0.095865957439, -0.286133617163, 0.100192673504, 0.043676137924, 0.246389329433, -0.141370743513, 0.177655279636, 0.013055427000, 0.125973194838, -0.016114600003, -0.180875197053, 0.177867159247, 0.238658949733, 0.283213943243, 0.109077565372, -0.088961444795, -0.212820068002, 0.152467668056, 0.068804308772, 0.189406216145, -0.265205830336, 0.243302717805, 0.147376134992, 0.202747881413, 0.265104651451, -0.003619562835, 0.100662879646, 0.183553919196, -0.114555090666, 0.231455266476, 0.038556355983, -0.146022364497, 0.273066580296, -0.025997838005, -0.283817052841, -0.166940242052, -0.120200753212, -0.159708335996, 0.087216556072, -0.096172839403, 0.161916717887, -0.219559609890, -0.121652878821, -0.045896172523, 0.320243269205, 0.128472492099, 0.239494025707, 0.222811624408, 0.092243582010, -0.033475726843, 0.259214878082, -0.195826023817, -0.071935817599, 0.090328671038, 0.141014799476, 0.023769609630, 0.235714748502, -0.091743595898, 0.098214767873, 0.080658130348, -0.144520550966, 0.095304355025, -0.537825703621, 0.192208632827, 0.124245315790, -0.065985992551, -0.226153954864, -0.099810235202, 0.013073339127, -0.100222058594, -0.165086030960, 0.079191431403, -0.017562458292, 0.310258567333, 0.011492484249, 0.241380602121, -0.040692757815, -0.094936847687, 0.084340460598, 0.003664008575, 0.239388778806, -0.093899317086, 0.008425922133, 0.054778054357, -0.130890533328, -0.065088063478, 0.189392864704, -0.188104212284, 0.185474678874, -0.042585525662, 0.059405419976, 0.119752421975, 0.052089869976, 0.022761832923, -0.050046265125, 0.050831034780, -0.176308304071, 0.005621668883, -0.067107893527, 0.098461255431, -0.188054129481, 0.271826118231, -0.103854343295, 0.143502801657, -0.069518864155, 0.066343821585, -0.267824262381, 0.218972831964, 0.013225869276, 0.138051658869, -0.169275969267, 0.205019086599, -0.080716773868, -0.025951152667, 0.069032788277, 0.357679814100, 0.271322190762, -0.206193223596, -0.159156233072, -0.141312584281, -0.044028144330, 0.263277024031, -0.242901444435, 0.103834897280, -0.248791530728, -0.361534118652, 0.131859049201, -0.406788676977, 0.059427972883, -0.162260189652, -0.113345623016, -0.087558783591, 0.003289815737, 0.045638460666, 0.194538563490, 0.013774788007, 0.109908223152, -0.146803677082, -0.138234511018, -0.130423665047, 0.014817145653, -0.187533378601, 0.182892516255, 0.263269364834, -0.112913727760, -0.114369481802, -0.074060194194, 0.138720288873, -0.078043960035, -0.088285066187, -0.052744906396, 0.198237240314, 0.129147946835, -0.212478429079, -0.016745559871, -0.347991794348, -0.157082721591, 0.141804128885, 0.226061910391, -0.025236414745, 0.023477211595, 0.192620143294, 0.122002676129, -0.212912157178, -0.009348345920, 0.062976084650, -0.298714190722, -0.182208701968, -0.009929760359, -0.160454243422, 0.092978604138};
#endif

#endif
