//Numpy array shape [2, 32, 6]
//Min -0.367903321981
//Max 0.313168466091
//Number of zeros 0

#ifndef ATTENTION_OUTPUT_WEIGHT2_H_
#define ATTENTION_OUTPUT_WEIGHT2_H_

#ifndef __SYNTHESIS__
multi_head_attention_2_default_t attention_output_weight2[384];
#else
multi_head_attention_2_default_t attention_output_weight2[384] = {0.078668020666, 0.202358812094, -0.089561395347, 0.085893966258, 0.215363621712, -0.073050446808, -0.002396104624, -0.082713663578, -0.075079269707, 0.140619561076, -0.006216586567, 0.033638499677, 0.173921093345, -0.083768405020, -0.088876195252, 0.092643961310, -0.258862644434, -0.316742956638, 0.105299435556, 0.089979536831, 0.068296298385, -0.041969452053, 0.141539171338, 0.089947991073, 0.033753115684, 0.222861260176, -0.162353008986, -0.225598067045, -0.029676962644, -0.070480108261, -0.003775142832, -0.024849725887, 0.034362144768, 0.155649363995, 0.126696288586, -0.153359770775, 0.032184597105, 0.093308284879, 0.015636699274, -0.220165476203, 0.071755364537, 0.037053380162, 0.027630429715, -0.187171936035, -0.175055682659, -0.102903552353, 0.084821432829, -0.238855719566, 0.014310278930, 0.169803604484, -0.195393145084, -0.106291741133, 0.182620018721, 0.220421344042, -0.029605237767, -0.107502050698, 0.054396800697, -0.010091349483, -0.113542765379, -0.270172864199, -0.094218902290, 0.210527226329, 0.077974818647, -0.206937551498, -0.204437196255, 0.079979062080, -0.108091749251, -0.150652408600, 0.068850167096, 0.051930986345, 0.311707496643, 0.206443876028, 0.129336163402, -0.191545158625, -0.165467932820, 0.162157624960, 0.313168466091, 0.103110074997, 0.040381342173, -0.001722989837, -0.028544133529, -0.147323876619, -0.068034805357, 0.173519924283, -0.051140204072, 0.009517899714, -0.155119970441, 0.045980356634, 0.234510958195, -0.219759091735, -0.082207910717, -0.095171228051, -0.121564961970, -0.154307276011, -0.141854479909, -0.353198528290, 0.053456224501, -0.084888339043, -0.098109565675, -0.174112856388, 0.090199664235, -0.271528929472, -0.077831298113, -0.002812043997, -0.051512070000, 0.236762419343, 0.001743720029, -0.140074789524, -0.116342730820, 0.108910530806, -0.143472939730, 0.145791351795, -0.120203077793, 0.147597149014, 0.024114457890, 0.182449579239, 0.172212064266, -0.130353465676, -0.236249431968, 0.062838025391, 0.122750878334, -0.045571628958, -0.027129363269, -0.025645924732, -0.300380051136, -0.131195276976, 0.028792032972, -0.001089852303, -0.085602857172, -0.105379559100, -0.078273095191, 0.246182620525, -0.054285101593, 0.018437007442, -0.083620421588, -0.101716324687, 0.043715205044, -0.261473864317, -0.055788617581, 0.027869671583, -0.012711166404, -0.068909600377, 0.100453682244, 0.234413802624, 0.224121391773, 0.102108135819, 0.034864809364, 0.042127743363, -0.207535997033, -0.272560983896, 0.007499806117, 0.204465106130, 0.264974623919, -0.002692184644, 0.133189409971, -0.101099565625, -0.073961362243, -0.181387200952, -0.175277411938, 0.075604952872, -0.136673301458, 0.072770737112, 0.099681839347, -0.202775180340, -0.037165485322, -0.070130795240, 0.165047809482, 0.186323404312, -0.042550850660, 0.050508204848, -0.123493343592, -0.075613342226, -0.257514238358, 0.075287438929, 0.171468421817, 0.182793676853, 0.063420459628, -0.085835181177, 0.158245667815, 0.270556986332, 0.085832722485, -0.139667540789, 0.215160101652, 0.189679384232, -0.176665619016, 0.190417587757, 0.003752987366, 0.003408896038, 0.004990479443, 0.007047620602, -0.073887795210, -0.125591903925, 0.157037824392, -0.025410972536, -0.067217759788, 0.170392781496, -0.035981781781, 0.161138057709, 0.027643179521, 0.062369193882, 0.052869372070, -0.176229685545, -0.113114684820, 0.116501450539, 0.048092536628, -0.010621135123, 0.114654004574, 0.094781756401, 0.145995467901, -0.367903321981, 0.074446633458, -0.159983053803, -0.140488088131, 0.016310522333, -0.059968147427, 0.166445061564, 0.027269579470, -0.041278813034, -0.104390233755, 0.108605258167, 0.259159296751, 0.051710836589, 0.008177654818, 0.194352656603, -0.072313062847, -0.178911909461, -0.130283206701, 0.064850002527, 0.025643169880, -0.029165973887, 0.009109742008, 0.055288769305, 0.023786243051, 0.045082494617, 0.082734949887, -0.000554890139, 0.170630425215, -0.163614034653, 0.038975991309, 0.074622005224, -0.089133597910, 0.187494710088, 0.084324724972, 0.207982957363, -0.016389593482, 0.133076265454, 0.152331963181, -0.160088747740, 0.021753596142, 0.077577523887, -0.095122545958, -0.025314383209, -0.231301143765, -0.067601181567, 0.112462788820, -0.075814217329, -0.170567318797, 0.291173547506, -0.085351429880, 0.066968075931, -0.033379137516, 0.105106860399, -0.105806089938, 0.105776116252, 0.136828124523, -0.220143750310, 0.018022984266, -0.049714937806, 0.234438404441, 0.203844964504, -0.032853782177, 0.203299194574, 0.064360961318, -0.187198042870, 0.073212690651, 0.116701602936, -0.199978902936, -0.220747664571, -0.119736433029, 0.120708964765, 0.160550490022, -0.256945759058, 0.065086029470, -0.074754625559, 0.126300945878, 0.206480726600, -0.225799441338, 0.170468926430, 0.123779550195, -0.013046532869, -0.059868540615, 0.013504608534, -0.188794434071, 0.177822679281, -0.200040936470, 0.191434189677, 0.057567227632, -0.224566563964, -0.186936751008, 0.257211744785, 0.112998478115, -0.137894153595, -0.075393564999, 0.057719577104, 0.222945138812, 0.067210078239, -0.004905114882, 0.026761412621, 0.032420527190, -0.056873533875, -0.136902973056, -0.064457617700, -0.071187853813, 0.175177603960, -0.076846055686, -0.086957938969, -0.060716368258, -0.113562546670, 0.142809003592, -0.144380658865, -0.028306528926, -0.004647540860, 0.111892864108, 0.172233864665, 0.109559744596, -0.045291814953, -0.017995748669, -0.136255443096, 0.143127471209, 0.048464782536, -0.098549254239, -0.165852159262, -0.244008362293, 0.156108960509, 0.090178243816, 0.074591577053, 0.055403970182, 0.181095972657, 0.173500582576, -0.241488665342, 0.307943731546, 0.006092024967, -0.047689933330, -0.250471651554, 0.059057753533, 0.264648020267, 0.170938029885, -0.170561477542, -0.067730754614, 0.176022544503, 0.110003165901, 0.083106316626, -0.348786890507, 0.047323349863, 0.023707514629, -0.156647801399, 0.092675745487, 0.031339861453, 0.112590000033, -0.173830121756, 0.077841393650, -0.170995712280, -0.167434334755, 0.203062936664, -0.195494115353, 0.143004328012, 0.082526907325, 0.013739462942, 0.092638514936, -0.198130428791, -0.180674061179, -0.154986113310, 0.011732721701, 0.041944425553, -0.036271493882, 0.033454541117, -0.046432312578, -0.160749986768, -0.038039717823, 0.046579144895, -0.078567057848, -0.125833272934, 0.105628021061, -0.110628299415};
#endif

#endif
