//Numpy array shape [2, 6, 32]
//Min -0.603174030781
//Max 0.566155314445
//Number of zeros 0

#ifndef KEY_WEIGHT16_H_
#define KEY_WEIGHT16_H_

#ifndef __SYNTHESIS__
multi_head_attention_4_default_t key_weight16[384];
#else
multi_head_attention_4_default_t key_weight16[384] = {-0.032016072422, -0.137258246541, 0.133203446865, 0.130132123828, -0.205805182457, -0.088838361204, -0.141170382500, -0.110696606338, -0.056627072394, 0.059137124568, 0.057481288910, 0.079669758677, -0.223497435451, -0.088949739933, -0.038245160133, -0.248162686825, -0.063303641975, 0.061904754490, -0.129664778709, -0.004623899236, -0.039590533823, -0.127090334892, -0.238512814045, 0.072540558875, 0.093002311885, 0.142520293593, -0.096786580980, -0.060794059187, 0.073541209102, -0.041756432503, -0.045689910650, -0.279709547758, -0.103579208255, 0.126944318414, 0.029653511941, -0.007411451079, -0.016621949151, -0.181146904826, -0.042127326131, -0.073629073799, 0.139307126403, 0.038190726191, -0.174187660217, 0.005333334673, 0.004183948971, 0.020690303296, -0.019756251946, -0.062454946339, 0.074200674891, -0.019979594275, -0.014751514420, -0.123394235969, 0.061107043177, -0.141713902354, 0.113807387650, 0.028405440971, -0.004927692935, -0.087711505592, -0.089192509651, -0.104686580598, -0.089935325086, 0.017473703250, -0.120764203370, -0.216578558087, -0.070993542671, -0.001420282526, 0.079037703574, 0.178525596857, -0.126757875085, -0.075373202562, -0.047629483044, -0.031912878156, 0.022055068985, 0.091613322496, 0.044922091067, -0.172600314021, -0.129337385297, 0.207118988037, 0.065682098269, 0.060262210667, -0.112132899463, 0.186250746250, 0.058535281569, -0.091148123145, 0.023071607575, -0.010606626049, -0.094426430762, -0.001259943820, 0.119444966316, -0.020639162511, 0.070088975132, 0.138914212584, -0.028345754370, -0.043641794473, -0.181534379721, 0.074777655303, -0.090276695788, -0.144742190838, -0.120815694332, -0.067544676363, 0.011991963722, 0.069005042315, 0.106861606240, 0.021040091291, 0.039514873177, -0.080351449549, -0.086870081723, -0.110790684819, 0.082376495004, -0.044201239944, 0.052602846175, 0.160519152880, -0.107643052936, -0.117132313550, -0.120170190930, 0.030592503026, -0.061359725893, -0.156616806984, -0.247618615627, 0.035058192909, 0.159827068448, 0.087681084871, -0.211187288165, -0.060676097870, 0.082223340869, -0.001921988209, -0.086229547858, -0.101088076830, 0.105043254793, -0.246966689825, -0.104832299054, -0.042427763343, -0.227112144232, -0.060955632478, -0.033806994557, -0.125438198447, 0.084410481155, 0.025590170175, -0.001188328490, -0.172275111079, -0.033750355244, -0.231354951859, -0.051183573902, 0.095611140132, -0.161972388625, 0.142353907228, -0.103141978383, -0.023813627660, -0.224714800715, 0.125005096197, 0.144509375095, 0.014319731854, -0.244202747941, 0.497110694647, 0.067786522210, 0.070725634694, -0.244942352176, -0.077131077647, -0.216353490949, 0.070866137743, 0.007415998727, -0.176989629865, -0.107399046421, 0.069685667753, 0.034232467413, -0.297363638878, 0.296108543873, -0.189631938934, 0.057788923383, -0.077409349382, 0.103327147663, 0.027187248692, 0.141104951501, 0.250241488218, 0.081932701170, 0.271173954010, -0.188219726086, 0.053907245398, 0.149126335979, 0.033390779048, -0.076988562942, 0.042631633580, 0.291453540325, -0.123599283397, 0.029905416071, -0.315485060215, -0.070383697748, -0.368514806032, 0.268174946308, -0.327970862389, -0.182472392917, 0.268143177032, -0.075695961714, -0.063307292759, 0.193956106901, 0.161001816392, 0.318854808807, 0.276777207851, -0.126502141356, 0.041937526315, -0.176523804665, -0.014690930024, -0.188468381763, -0.298078536987, -0.089871488512, -0.147864416242, 0.170094728470, -0.256850779057, -0.106553465128, -0.035209584981, 0.070005379617, 0.126869946718, 0.175132378936, -0.237652167678, 0.155698299408, -0.215269938111, -0.046658657491, 0.092566303909, 0.120926022530, -0.271969348192, 0.242127105594, -0.138629645109, 0.093265473843, -0.192413076758, 0.004485993180, 0.085187621415, 0.236289724708, 0.157073035836, 0.111722558737, 0.340353220701, 0.093869686127, -0.004224414472, -0.118250072002, 0.115224190056, -0.010025373660, -0.084273494780, -0.235541164875, 0.098462320864, 0.382774055004, 0.020681995898, -0.188890725374, 0.198319435120, 0.164320424199, 0.156908690929, 0.004672608338, 0.030251052231, -0.107230670750, -0.104188963771, -0.197427570820, 0.236806988716, 0.291738212109, -0.004395162221, 0.164054438472, 0.068919256330, -0.224726080894, -0.016803437844, -0.341456919909, 0.313616693020, -0.118375025690, 0.118610568345, -0.342392772436, -0.112931154668, 0.088260568678, -0.117898926139, 0.101685531437, -0.301742464304, 0.372817307711, 0.359602391720, -0.603174030781, 0.338091850281, 0.068576253951, 0.254138290882, -0.337078034878, 0.382534831762, 0.049982246011, 0.153570592403, -0.260362863541, 0.215386375785, -0.398047059774, 0.274179100990, 0.252882033587, 0.196340724826, 0.403709381819, 0.016339698806, -0.268833100796, 0.350076675415, 0.001653428772, 0.473429083824, -0.494293570518, 0.113618433475, -0.033070769161, -0.074175767601, -0.371483206749, -0.051535204053, 0.365752130747, -0.108186341822, -0.044862989336, -0.326220989227, 0.231968969107, 0.330495506525, -0.438091069460, 0.333837598562, 0.214115634561, 0.228310868144, -0.229079157114, 0.341970622540, 0.200306385756, -0.024537768215, -0.071818165481, 0.354193836451, -0.300938874483, 0.244434684515, 0.092657230794, 0.086920917034, 0.126562327147, -0.121128372848, -0.390399396420, 0.288843929768, 0.350407332182, 0.375528424978, -0.001133970567, 0.301277726889, -0.144353196025, -0.396007835865, -0.205834507942, 0.110696665943, 0.045863382518, -0.240896612406, 0.097321599722, 0.201792210340, 0.020369514823, 0.298426866531, 0.012502859347, -0.067775435746, 0.566155314445, 0.117261148989, -0.056626204401, -0.039764605463, 0.184504762292, 0.221812561154, -0.210166186094, 0.202213689685, -0.210849359632, 0.033812522888, 0.276447057724, 0.208611279726, -0.127193793654, -0.083832070231, 0.066541135311, 0.042493015528, 0.262185096741, 0.024140678346, -0.075081557035, 0.125316306949, -0.028702421114, -0.177078396082, 0.005054009613, 0.079812802374, -0.076935037971, -0.185148358345, 0.257772684097, -0.153680250049, 0.283981919289, 0.024840276688, -0.063287146389, 0.023549126461, -0.092785239220, 0.158081680536, -0.039388030767, 0.132786825299, -0.066195085645, 0.140023976564, -0.288424909115, -0.019475519657, -0.162823498249, 0.097453840077, 0.198229283094, -0.164722979069, 0.275223374367, 0.075880050659, -0.092040956020, 0.035444639623, -0.177021920681, 0.243876874447};
#endif

#endif
