//Numpy array shape [2, 32]
//Min -0.000072364383
//Max 0.000060680275
//Number of zeros 0

#ifndef KEY_BIAS9_H_
#define KEY_BIAS9_H_

#ifndef __SYNTHESIS__
multi_head_attention_3_default_t key_bias9[64];
#else
multi_head_attention_3_default_t key_bias9[64] = {0.000002107343, -0.000003039658, 0.000016459351, 0.000007335274, 0.000033489905, 0.000021795599, -0.000018202301, -0.000013298240, 0.000008956246, 0.000006578442, 0.000023911105, 0.000015718715, 0.000006066712, -0.000006687856, 0.000004432156, -0.000015182130, 0.000000621037, 0.000015606243, 0.000016246593, 0.000005077208, 0.000010389805, -0.000016296312, 0.000028554206, 0.000011100247, -0.000023619454, -0.000019049558, 0.000029621940, 0.000001818108, -0.000028851204, 0.000018721097, -0.000006529589, -0.000003332513, 0.000039675193, 0.000004120325, -0.000001565070, -0.000001910201, -0.000004510317, -0.000025433632, 0.000018925495, 0.000033706652, 0.000035608002, 0.000035878700, -0.000012935251, 0.000048904734, 0.000060680275, 0.000000593374, -0.000025449219, -0.000023199940, 0.000003485439, -0.000072364383, 0.000029286201, 0.000040364277, 0.000005305998, -0.000021800824, -0.000002804765, 0.000019285801, 0.000005719968, -0.000040089239, 0.000004480680, -0.000002112960, 0.000017126495, 0.000023438964, -0.000021591493, -0.000030529220};
#endif

#endif
