//Numpy array shape [2, 6, 32]
//Min -0.693605542183
//Max 0.722943246365
//Number of zeros 0

#ifndef KEY_WEIGHT2_H_
#define KEY_WEIGHT2_H_

#ifndef __SYNTHESIS__
multi_head_attention_2_default_t key_weight2[384];
#else
multi_head_attention_2_default_t key_weight2[384] = {-0.047190550715, -0.025728743523, 0.130868732929, 0.022169198841, 0.047681696713, -0.134593054652, -0.010173014365, -0.124945424497, 0.120756953955, 0.131344959140, -0.094956047833, 0.207424238324, -0.208185672760, 0.048073239625, 0.100240409374, 0.021769577637, -0.105027846992, -0.096580445766, 0.076587595046, 0.110920675099, -0.100590795279, 0.003584002610, 0.108267240226, 0.019413016737, -0.119041383266, -0.128580108285, 0.055280223489, -0.012071208097, 0.141755029559, 0.072928167880, 0.107776552439, 0.037226371467, 0.193549841642, 0.182428553700, 0.160490721464, -0.104601345956, -0.272913932800, 0.036007709801, 0.006588343997, 0.168007984757, 0.072541669011, 0.000454468332, -0.145331040025, 0.049049738795, 0.132312223315, 0.180621504784, -0.058071073145, 0.186460137367, -0.140466555953, -0.063029266894, 0.015386783518, 0.086297206581, -0.112342067063, -0.426804900169, 0.181145802140, -0.270516932011, 0.065683729947, -0.059228949249, -0.035887714475, 0.029675876722, 0.165413901210, -0.185629770160, 0.079591393471, -0.052064608783, 0.075493603945, 0.095389626920, 0.153073236346, -0.024308893830, 0.057991832495, 0.050694916397, 0.153651520610, 0.052758194506, -0.062635883689, 0.157587781549, 0.110983431339, 0.135052412748, -0.175919488072, 0.169676467776, 0.192465260625, -0.011253050528, 0.202306553721, -0.053190380335, -0.326293140650, 0.157114923000, 0.274002045393, -0.322828024626, 0.211726576090, -0.235325351357, 0.042908802629, 0.162470504642, 0.358475118876, 0.274173885584, -0.244185283780, 0.213078215718, -0.031018733978, 0.032599709928, 0.074348233640, -0.037953179330, 0.069069638848, 0.145731657743, 0.082972407341, 0.029674170539, 0.021264601499, 0.166471704841, -0.062877133489, 0.126563370228, 0.116339936852, 0.258535534143, 0.057111985981, 0.110428646207, -0.067472115159, 0.009186261334, -0.180302619934, -0.037282023579, -0.262025594711, 0.197858482599, -0.075391031802, -0.011733815074, 0.273510932922, 0.159892812371, 0.122007340193, -0.009910682216, -0.032652087510, 0.006312906742, 0.174268469214, -0.221685528755, -0.015123432502, 0.092472113669, -0.263714671135, 0.397950887680, -0.094764187932, 0.501653194427, -0.342061430216, -0.111242078245, -0.312110185623, 0.547012209892, 0.176258087158, 0.722943246365, 0.075667440891, -0.195102304220, -0.008824340999, 0.423331469297, 0.393594801426, -0.400415748358, 0.065724954009, 0.160684570670, -0.137471169233, 0.719620883465, 0.078287743032, -0.226843699813, -0.674754738808, -0.693605542183, -0.575843513012, 0.259438455105, 0.378207206726, 0.311182111502, -0.041282054037, 0.041585989296, 0.503128230572, 0.238084763288, 0.105378068984, 0.267216056585, 0.290121823549, -0.379739135504, 0.172550067306, 0.124665148556, 0.192951232195, -0.101064294577, 0.077256470919, 0.507732331753, -0.022820340469, 0.113865405321, -0.205183476210, -0.060961868614, -0.194483309984, 0.231580644846, 0.107008159161, 0.124493189156, 0.154470279813, 0.068132042885, 0.038257937878, -0.014638128690, 0.493159174919, -0.455790877342, 0.275432884693, 0.172349482775, 0.161721229553, 0.165439426899, 0.043932415545, 0.186457410455, -0.036677703261, -0.162693589926, 0.052326451987, 0.006005191244, -0.141637802124, -0.004523454700, 0.007153585553, 0.103216886520, 0.079266190529, 0.066135264933, 0.075414068997, 0.033515777439, -0.075985282660, 0.102693066001, 0.112059280276, 0.067840486765, 0.014188786037, -0.025543689728, 0.146227926016, -0.028657304123, 0.140802696347, -0.122252508998, -0.106814883649, -0.080898366868, 0.056202322245, -0.163506388664, -0.108553022146, -0.155037164688, -0.053795296699, 0.011975334957, 0.119896166027, 0.193493410945, -0.053520008922, 0.207536622882, -0.195553779602, 0.162785753608, 0.358043968678, -0.073298297822, -0.210969761014, -0.195886090398, 0.010993641801, -0.141759023070, 0.038032412529, 0.245127037168, -0.200809881091, -0.204088419676, 0.334757238626, -0.202603533864, -0.231255888939, -0.000578356092, -0.062551788986, 0.133713141084, 0.235532686114, -0.166369721293, -0.286596626043, 0.219714745879, 0.284799814224, -0.051530048251, -0.205012977123, -0.011333389208, -0.274498939514, 0.055665813386, 0.015683323145, -0.196444660425, -0.234152108431, -0.027328202501, -0.312586128712, -0.109381794930, 0.003345262958, 0.266953438520, 0.162151753902, -0.016549769789, -0.033136449754, 0.061869747937, 0.053441613913, -0.344168245792, 0.058485854417, 0.144843399525, 0.107434324920, -0.244460612535, -0.223463803530, 0.166083946824, -0.207313284278, 0.124978475273, -0.355629622936, -0.076503127813, 0.089719600976, 0.130572512746, 0.084898047149, 0.290752828121, -0.229771405458, 0.374890387058, -0.179239556193, -0.034978356212, -0.285600423813, -0.264359712601, -0.022279251367, 0.077907949686, 0.172692149878, -0.027361175045, -0.055456910282, -0.093860745430, -0.134651422501, -0.189208760858, 0.036787953228, -0.080153465271, 0.073921702802, 0.001313146786, 0.287684917450, -0.193090021610, -0.203554481268, 0.124585546553, 0.059243891388, 0.128396973014, 0.026953728870, 0.031507078558, 0.034896969795, -0.130439847708, 0.034702796489, -0.121313765645, -0.055335767567, 0.038112118840, -0.034796465188, 0.072188965976, 0.006568136625, 0.098023697734, 0.117112651467, -0.198209822178, 0.159781292081, -0.050029780716, -0.107494860888, -0.104073487222, -0.431551396847, -0.209163919091, 0.409073948860, -0.225685819983, -0.020064443350, 0.035028610379, -0.213544577360, -0.296584129333, 0.025614958256, 0.466968357563, 0.269932031631, -0.595563828945, -0.037087164819, -0.115159668028, -0.049641419202, -0.006252490915, -0.063289001584, 0.362648218870, 0.603304743767, 0.602051675320, 0.193448334932, 0.194053545594, 0.156016573310, 0.383202880621, -0.350404113531, 0.270141214132, -0.369622141123, -0.551850914955, 0.511936485767, 0.189428552985, 0.115969493985, 0.204736888409, -0.403979539871, -0.180175662041, -0.264330744743, 0.328551471233, -0.136429339647, 0.033671490848, -0.038585051894, 0.406607806683, -0.323344737291, 0.067864716053, -0.325792998075, 0.066798269749, 0.121414393187, -0.173055827618, -0.096308112144, 0.157751709223, -0.009929204360, 0.048855029047, 0.071239680052, -0.031703442335, -0.133722707629, 0.000841473811, 0.069391518831, 0.047979746014, -0.147192239761, -0.001681715949, 0.107420004904, -0.059445619583, -0.091213315725, 0.061574876308};
#endif

#endif
