-0.073518648744, -0.173412680626, -0.126225024462, 0.032751977444, -0.006559025496, -0.190249502659, 0.327493607998, -0.143385678530, 0.166003853083, -0.109359122813, 0.073372319341, -0.143745109439, 0.123965971172, 0.225110709667, 0.145283624530, 0.252287179232, -0.167037129402, 0.048440992832, 0.065052606165, -0.014139048755, -0.103793598711, -0.018004929647, 0.047506865114, -0.114492461085, 0.100223973393, -0.051209047437, -0.179943904281, -0.317958712578, 0.241049200296, -0.239542871714, -0.178203821182, 0.167667299509, -0.362945765257, 0.332039535046, -0.460214108229, -0.122137561440, -0.506492912769, -0.077397502959, 0.448948860168, -0.388095319271, 0.005923179910, -0.384780377150, 1.006876230240, 0.515949666500, -0.435036659241, 0.691857695580, 0.190377339721, 0.726157605648, -0.423725515604, 0.691018104553, 0.283072799444, 0.177010610700, -0.833262145519, 0.549571752548, -0.529641389847, 0.654616117477, 0.358400821686, 0.161496177316, 0.349165678024, -0.091744974256, -0.764414429665, 0.732211828232, 0.195613414049, 0.676733434200