0.130397275090, 0.142203316092, 0.213636159897, 0.040421199054, -0.029849613085, 0.066584691405, 0.119600132108, 0.023470440879, -0.038162168115, 0.162585601211, 0.116906516254, 0.209231987596, -0.217807710171, 0.014697912149, 0.074438042939, 0.093855440617, 0.065441854298, -0.142148450017, -0.121403850615, 0.179688334465, 0.069209530950, -0.157086864114, 0.139639899135, -0.110035769641, 0.066413328052, -0.124820291996, 0.150083824992, 0.171637833118, 0.047738973051, 0.073744602501, -0.050577823073, -0.089694194496, 0.161104217172, 0.120266787708, 0.150742039084, -0.369661360979, -0.354149669409, 0.098260112107, 0.133115231991, 0.057761810720, 0.063348367810, -0.161251008511, -0.096301272511, -0.027903331444, 0.229214027524, 0.109018601477, -0.268547356129, 0.284185439348, -0.137690454721, 0.028571065515, -0.104097411036, -0.050422471017, -0.071923591197, -0.209342435002, 0.152155056596, -0.052849758416, 0.140095829964, 0.071153864264, -0.059460088611, 0.010905774310, 0.044299438596, -0.267986834049, -0.098708175123, -0.121454328299, -0.133497893810, 0.011250052601, 0.147775724530, -0.013500159606, -0.043288949877, -0.058914300054, 0.049607180059, 0.163318604231, -0.027309879661, 0.020258169621, 0.175980255008, 0.021209416911, -0.086001098156, 0.140645638108, 0.057544402778, -0.107565984130, 0.222805231810, 0.074873387814, -0.148934245110, 0.032446198165, 0.126051709056, -0.192019462585, 0.042619407177, -0.058550283313, -0.081883259118, 0.202503561974, 0.143976688385, 0.242538154125, -0.209139943123, 0.119120046496, 0.071350298822, -0.049422517419, 0.267065852880, -0.239695429802, -0.057080287486, -0.089933201671, 0.155790597200, 0.211806654930, 0.098403021693, 0.049593117088, -0.174348726869, -0.374398946762, 0.305122762918, 0.050749551505, 0.088193334639, -0.201897904277, -0.247429281473, 0.205061689019, -0.128042489290, -0.063189342618, -0.209909364581, -0.190041437745, 0.072658389807, 0.238206133246, 0.103755794466, 0.552461922169, 0.156325519085, -0.115502834320, -0.215469539165, -0.201236605644, 0.130225092173, -0.279877781868, -0.191970825195, -0.089979924262, 0.068690747023, -0.077801905572, -0.223158821464, 0.253463983536, -0.176277011633, 0.072108179331, -0.164504885674, 0.281817734241, -0.059091463685, -0.084801629186, 0.081314876676, -0.139021381736, 0.187790036201, 0.010665291920, 0.179181367159, -0.233725190163, -0.099965162575, -0.031493499875, -0.044579003006, 0.128912374377, 0.220131143928, -0.023343870416, -0.252575784922, -0.074817471206, -0.183465957642, 0.131160989404, 0.151405170560, 0.051946431398, 0.043355397880, -0.070550359786, 0.164207622409, 0.218144759536, -0.193784937263, 0.222259297967, -0.139118552208, 0.504349648952, -0.298363298178, -0.118311777711, -0.192708358169, 0.362375468016, 0.090785764158, 0.349044770002, -0.091866768897, -0.085109017789, 0.053662750870, 0.288060516119, 0.094797737896, -0.351738125086, -0.113553352654, 0.089682012796, -0.191577002406, 0.362121164799, -0.172759681940, -0.161538287997, -0.269304871559, -0.229332685471, -0.312627524137, 0.033838178962, 0.016984175891, 0.236801579595, -0.053735997528, -0.057274408638, 0.226311951876, 0.193106994033, -0.049065869302, 0.032712277025, -0.066289618611, 0.054300822318, 0.007194799837, 0.045966744423, 0.061558939517, -0.150236204267, -0.059630021453, 0.021116418764, 0.037673491985, 0.166115880013, 0.150041744113, -0.016784964129, 0.054654162377, -0.073741748929, 0.249909162521, -0.033014643937, 0.126267433167, -0.008625159040, 0.067770451307, 0.061836548150, -0.029432114214, -0.208639800549, 0.023236360401, -0.151060342789, -0.021226678044, 0.101917251945, 0.219621509314, 0.126693457365, -0.032349418849, 0.092008419335, -0.177941456437, 0.012414162047, 0.249083295465, -0.016280081123, -0.069195345044, -0.030579224229, 0.115902826190, -0.101860381663, 0.127566024661, 0.060783136636, -0.154267445207, -0.065477989614, 0.335808783770, -0.171375826001, -0.413107216358, 0.047214232385, -0.004369833041, 0.058732863516, 0.201844528317, -0.040568657219, -0.240692928433, 0.210725501180, 0.224031776190, -0.073058471084, -0.206019356847, 0.019106818363, -0.252087563276, 0.156813636422, -0.095799274743, -0.036982692778, -0.320329308510, 0.079452618957, 0.097331963480, 0.116469018161, -0.126625806093, -0.146983876824, -0.044817820191, 0.195108756423, 0.014634111896, 0.117023661733, 0.000545882154, 0.260132849216, -0.065803572536, -0.068804211915, -0.210422605276, 0.259445726871, 0.149946108460, -0.149453759193, 0.042662460357, 0.066598385572, 0.098773635924, -0.032239422202, -0.111956551671, -0.233885094523, -0.142131835222, -0.203314423561, 0.111223049462, -0.160488486290, 0.050241999328, -0.106933809817, 0.220862016082, 0.126236066222, -0.195804402232, 0.062587819993, -0.104591652751, -0.156765222549, -0.111070513725, 0.207522377372, 0.116903245449, -0.009515375830, 0.067234218121, 0.035636931658, -0.045464728028, 0.028476310894, -0.016332712024, 0.021843854338, 0.010296018794, 0.136723503470, -0.189980566502, 0.168152511120, 0.082307294011, -0.099139414728, 0.060463625938, 0.122504554689, -0.085667736828, -0.234310448170, 0.168626070023, 0.061698667705, 0.028385408223, 0.028063956648, -0.080108113587, -0.144447311759, 0.125822037458, 0.043659508228, -0.010510978289, 0.181272864342, -0.056084048003, -0.107472412288, 0.380001872778, 0.272403866053, 0.027167189866, -0.007161993999, 0.113658092916, -0.117066256702, 0.175860822201, -0.180551663041, 0.140855491161, -0.223279580474, 0.020884331316, 0.245889902115, -0.055802367628, 0.342706441879, -0.112173072994, -0.021191002801, -0.127744823694, -0.235285773873, -0.261649012566, -0.325863033533, -0.143435120583, 0.119925960898, -0.086019285023, -0.183042690158, 0.183952853084, -0.231648877263, -0.074425771832, 0.101627059281, -0.241708308458, -0.125292658806, 0.005616751034, -0.351848393679, 0.053282279521, 0.332767874002, -0.022292770445, -0.064681261778, -0.025644317269, 0.071723267436, -0.006466577295, 0.114725813270, 0.207034900784, -0.046415373683, -0.084496073425, 0.208606123924, -0.160464897752, -0.026648942381, 0.048628065735, 0.149923041463, -0.074138604105, -0.178448036313, 0.085303001106, -0.256227701902, 0.195679962635, -0.111294589937, -0.284225732088, -0.156685277820, 0.230783209205, -0.283160567284, 0.158578500152, 0.260950624943, 0.036011982709, 0.068325690925