-0.159390643239, 0.069181270897, 0.411640018225, -0.469639629126, 0.538555502892, -0.258782386780, -0.392089843750, -0.277762860060, -0.601221501827, 0.337120264769, 0.486559867859, 0.105581536889, -0.025103455409, 0.226465433836, 0.182138040662, 0.473101973534, -0.444407731295, 0.705040156841, -0.124478004873, -0.383213907480, 0.128332033753, -0.600369393826, 0.349866837263, -0.524958908558, -0.554598033428, 0.052268251777, -0.017518393695, 0.021365433931, -0.087097771466, 0.546117424965, -0.468551576138, -0.270573824644, 0.410445183516, 0.336858123541, -0.321537375450, -0.323553204536, -0.242277488112, -0.235443130136, 0.149054467678, 0.336754441261, -0.298787832260, 0.303935199976, -0.127464383841, -0.121474780142, -0.377940505743, 0.140231013298, -0.158389836550, 0.099181100726, -0.294782429934, -0.016341991723, -0.243048071861, -0.254417389631, 0.455192506313, -0.245996445417, -0.191867902875, -0.496748358011, -0.071018360555, -0.099714830518, -0.352893203497, 0.346981883049, -0.075473017991, -0.197619989514, 0.123933151364, 0.104576840997, 0.062529951334, -0.057809982449, -0.003907157108, -0.052935585380, -0.082550518215, 0.233222559094, -0.084962204099, -0.040733512491, 0.055444531143, 0.057385835797, -0.089252896607, -0.026493661106, 0.077363111079, -0.180112883449, 0.216118574142, -0.079738132656, 0.248192533851, -0.012392824516, -0.096482992172, 0.073090732098, -0.079354114830, -0.051113575697, -0.074279569089, -0.082222215831, -0.109321773052, -0.200039759278, -0.140447005630, 0.039925105870, 0.194582670927, 0.165651813149, -0.181956067681, -0.237722456455, -0.070147342980, -0.275434792042, -0.189013466239, -0.096856176853, -0.136761829257, -0.167925432324, -0.080995671451, 0.172602832317, -0.056311193854, -0.177417516708, 0.065093770623, -0.065728299320, -0.075977206230, 0.258890807629, -0.105889938772, 0.140631154180, 0.021391108632, -0.072880692780, -0.177902489901, -0.084845058620, -0.045211378485, 0.156434744596, -0.209864005446, -0.078497588634, 0.286400854588, 0.290335416794, -0.105224408209, -0.041635494679, 0.114627152681, -0.002663928317, -0.031243789941, 0.203150391579, -0.040024913847, -0.065446674824, 0.197589144111, -0.079045392573, 0.107065021992, -0.143098950386, 0.029594859108, -0.167373985052, -0.170699924231, 0.146000757813, -0.056958679110, 0.117082178593, -0.107617460191, -0.028855005279, 0.016783459112, -0.054469451308, -0.129296556115, -0.066140413284, 0.118541836739, -0.236804202199, 0.179081857204, -0.133037403226, 0.165016606450, 0.053751807660, 0.055195614696, -0.009890196845, 0.164893150330, 0.229516759515, -0.011131557636, 0.036449007690, 0.043505117297, -0.139749154449, -0.090045586228, -0.136657252908, 0.002292020712, 0.101321697235, -0.103923358023, -0.191416323185, 0.258030146360, 0.052730273455, 0.134829938412, -0.208778113127, -0.143668323755, -0.056096691638, 0.002102936152, -0.129834190011, 0.038659069687, 0.065808422863, 0.054107721895, -0.195279955864, 0.087634794414, 0.219574958086, -0.167722791433, 0.182182803750, -0.058286141604, 0.159241110086, 0.205317288637, 0.019014351070, -0.096812486649, -0.155798226595, 0.095952525735, -0.232317969203, 0.212754741311, 0.086028039455, 0.079595603049, -0.127168327570, 0.141862139106, 0.014537721872, 0.064833462238, 0.068461865187, -0.076811641455, -0.194440364838, -0.129936248064, 0.208918839693, 0.041260149330, 0.147935599089, -0.430154353380, 0.171257659793, 0.127608150244, 0.160992160439, -0.006100604776, 0.349021613598, -0.309941470623, -0.122010871768, 0.199349522591, -0.057462874800, 0.298093706369, 0.025409394875, 0.173951283097, 0.376097917557, -0.155256837606, -0.354135841131, 0.031213879585, -0.124508336186, -0.469309538603, 0.458008468151, 0.132527634501, -0.120825067163, -0.107926979661, 0.061028141528, -0.107225090265, -0.017482746392, -0.112954676151, -0.229517802596, 0.049366708845, 0.056768946350, 0.010819433257, 0.302565723658, 0.096973918378, 0.192156314850, -0.025287993252, 0.097717098892, -0.153458327055, 0.396158069372, -0.053851887584, 0.079133227468, 0.011463573202, -0.057683311403, 0.134052500129, 0.020525913686, 0.057326454669, 0.149493679404, -0.182401984930, -0.043383549899, 0.275968611240, -0.134564265609, -0.233300358057, 0.425183743238, -0.216460391879, 0.157356947660, -0.013270222582, 0.057831894606, -0.154759526253, 0.312401205301, -0.244807451963, -0.172628998756, -0.250034540892, 0.293392509222, 0.164036095142, 0.538218319416, -0.554416120052, -0.022775644436, -0.086967371404, 0.130540072918, -0.005763777532, 0.394234687090, -0.297120869160, -0.260372698307, -0.129712402821, -0.210329815745, 0.115107633173, -0.188874065876, -0.137156501412, 0.311771482229, 0.009713741951, 0.057442571968, -0.190371364355, -0.107455134392, -0.320386439562, 0.348425239325, -0.098219119012, -0.007630702574, 0.058799628168, -0.046123784035, 0.131416141987, -0.068518549204, -0.025540819392, 0.003513651434, -0.218883439898, -0.076844580472, -0.021440671757, -0.133117899299, -0.145464688540, -0.020064163953, -0.161842912436, 0.127220645547, 0.214367568493, -0.085190586746, 0.182383805513, -0.189424112439, 0.161529168487, -0.102012664080, -0.022357027978, 0.182703778148, 0.109243743122, 0.071499794722, -0.024766059592, -0.138335168362, -0.158593460917, -0.113856293261, 0.016635293141, 0.096967794001, -0.051826026291, -0.280622541904, 0.204771265388, 0.068535193801, 0.150994628668, -0.089418813586, 0.315711170435, 0.051366705447, -0.013576958328, 0.085604272783, -0.109656088054, -0.312181115150, 0.026456065476, 0.013992425986, -0.061630446464, 0.176926940680, 0.228145092726, -0.425092875957, 0.017507389188, 0.318884402514, -0.098576687276, 0.241536334157, 0.205878615379, 0.123698994517, 0.209113195539, -0.380291461945, 0.123495742679, -0.264578431845, -0.009670467116, -0.108652718365, 0.033948097378, -0.359311461449, 0.057909555733, -0.009290602058, 0.028707770631, 0.138489946723, 0.087381407619, -0.070858314633, -0.215363010764, -0.177636668086, -0.119203522801, 0.088963091373, 0.052406884730, 0.393368303776, -0.267391294241, 0.074564307928, -0.047005604953, 0.009300533682, 0.010812210850, -0.009619619697, 0.110047452152, 0.017669953406, -0.052808787674, -0.185701280832, -0.078143633902, 0.024483578280, -0.177645757794, 0.159337580204, -0.127777412534, -0.055371999741, -0.166666790843, 0.061548203230, -0.116323493421, 0.050692599267