-0.213876977563, 0.106649726629, 0.216647967696, 0.199257895350, -0.018470460549, 0.163838818669, -0.258773982525, -0.270341455936, -0.003628149861, -0.009984250180, -0.118966616690, 0.513445436954, -0.391062945127, -0.395627558231, -0.551246643066, -0.144386753440, 0.027616418898, -0.263840556145, -0.275921940804, -0.027033578604, 0.365958034992, -0.141759023070, 0.160652622581, 0.037196382880, 0.078649811447, -0.417415708303, 0.455688238144, 0.426358163357, 0.260226726532, -0.227435976267, -0.042129650712, -0.248915225267, -0.268828690052, -0.351350277662, 0.120268896222, -0.023825706914, -0.409189134836, 0.274261474609, -0.293060302734, 0.625350356102, 0.440250664949, -0.759408593178, 0.193865805864, -0.327491402626, 0.707102894783, 0.215409889817, 0.993354797363, -0.459083795547, -0.423347353935, -0.153080642223, 0.051359768957, 0.608207404613, 0.082303844392, 0.518200278282, 0.143314749002, -0.210476428270, 0.054158844054, -0.425031036139, 0.277856588364, 0.184630304575, 0.390331327915, -0.133896172047, 0.169552221894, -0.545987308025