//Numpy array shape [2, 6, 32]
//Min -0.404430270195
//Max 0.295760273933
//Number of zeros 0

#ifndef VALUE_WEIGHT16_H_
#define VALUE_WEIGHT16_H_

#ifndef __SYNTHESIS__
multi_head_attention_4_default_t value_weight16[384];
#else
multi_head_attention_4_default_t value_weight16[384] = {0.170099243522, 0.135389551520, -0.111117601395, -0.085168071091, -0.140173003078, -0.043505616486, 0.049334526062, 0.165112093091, 0.144968211651, 0.031441822648, 0.059333615005, 0.021565221250, 0.021900195628, 0.006409831345, -0.205873787403, 0.011116440408, -0.154712691903, 0.236658722162, -0.033988762647, 0.143079861999, -0.160883560777, -0.194427594543, 0.185861870646, -0.018023423851, -0.072609350085, -0.075555860996, -0.152614921331, 0.105682909489, -0.021795395762, 0.059430979192, -0.021926673129, -0.048520714045, 0.122502133250, -0.102849818766, 0.190890803933, 0.071606792510, -0.202854260802, -0.073888719082, 0.018573114648, -0.049142718315, 0.054594438523, 0.065898954868, 0.295760273933, 0.107492014766, 0.097630448639, 0.070091307163, 0.054925043136, 0.194430410862, -0.115792386234, -0.043578796089, 0.030435200781, 0.156501010060, -0.170858338475, 0.053058493882, 0.035427782685, 0.041938263923, -0.142860308290, -0.015501463786, 0.008709762245, -0.051739402115, -0.187056794763, 0.193723917007, 0.169460460544, 0.057824969292, -0.152536436915, -0.114021740854, 0.025563452393, -0.061953227967, -0.100349456072, -0.008711258881, -0.084581643343, 0.121720865369, -0.091161765158, 0.071187160909, 0.106410846114, -0.160163238645, 0.135827928782, -0.092710062861, -0.139961197972, -0.118180058897, 0.017112255096, -0.100961394608, -0.053795494139, -0.073572069407, 0.158780768514, 0.058498360217, -0.131249025464, 0.135346770287, 0.089438036084, -0.124794214964, -0.038854423910, 0.083555772901, 0.038121081889, -0.081452175975, -0.007560271304, 0.094684571028, 0.075430370867, -0.080264471471, -0.177746996284, -0.132044866681, 0.217749014497, 0.154875755310, 0.112273804843, 0.032856535167, -0.138540506363, -0.002999288496, -0.064883157611, -0.094376415014, -0.092718794942, -0.206659093499, -0.043849021196, -0.132784515619, 0.019747529179, 0.100762598217, 0.029129149392, 0.049734588712, 0.038923431188, -0.075560837984, 0.116361021996, 0.169182762504, 0.059066258371, -0.194841027260, -0.213249430060, 0.004572946578, 0.134303376079, -0.017298020422, 0.094813793898, 0.126265749335, 0.072225220501, -0.089277401567, 0.006004244089, -0.102153800428, -0.008639408275, -0.153203979135, -0.060908697546, -0.209377750754, -0.150732815266, -0.115818478167, 0.148202717304, -0.126262605190, -0.048788949847, 0.001153283287, 0.105330020189, 0.098781548440, -0.025598112494, -0.185370907187, 0.109946727753, -0.080205269158, -0.058051880449, 0.116243459284, -0.152451843023, 0.040690373629, -0.017192292958, -0.045200981200, 0.148124322295, -0.004175051581, 0.018551722169, -0.171831637621, 0.155808821321, 0.144276678562, 0.016673354432, -0.007077609655, -0.147436574101, -0.068089902401, 0.114503845572, 0.161210387945, -0.080994978547, 0.117654591799, -0.099271290004, -0.173424959183, 0.010487748310, 0.017506496981, 0.119262672961, 0.017211690545, 0.071034960449, -0.055844817311, 0.079789943993, 0.044163178653, -0.126858353615, -0.035048637539, -0.103727132082, -0.078586392105, 0.034649539739, 0.012517958879, -0.081543654203, 0.141376480460, 0.070897914469, 0.112463869154, 0.049892831594, -0.108936138451, 0.036970574409, -0.161055698991, -0.171822726727, -0.278806477785, 0.165662497282, -0.003766770940, -0.107776328921, -0.131496250629, 0.001756275306, 0.028923673555, -0.073696739972, 0.067948289216, 0.013343285769, 0.170328885317, 0.071771875024, -0.404430270195, -0.047952234745, -0.021534444764, 0.053305126727, -0.019179433584, -0.081288911402, 0.181102290750, -0.111114412546, 0.048119347543, 0.123218052089, 0.052187573165, 0.128182530403, 0.064932972193, -0.069422714412, -0.172796517611, 0.135119885206, 0.108922027051, -0.148576125503, 0.072944223881, -0.052593931556, -0.226390868425, -0.042980838567, 0.062404613942, 0.042071171105, 0.025827217847, 0.037927255034, -0.096677005291, 0.051925074309, 0.109971083701, 0.024374958128, -0.171449303627, 0.011623332277, 0.010833984241, 0.151137903333, -0.191052585840, -0.035935807973, -0.022429764271, 0.029903033748, -0.031982492656, -0.005197948776, 0.137987196445, -0.090553477407, -0.032259304076, 0.089666888118, 0.125359386206, 0.052810057998, -0.132602870464, -0.175218895078, 0.068151339889, 0.039151534438, -0.093265399337, 0.131855681539, 0.084084093571, -0.102364875376, -0.194032639265, -0.120289675891, 0.125172406435, 0.176024600863, 0.168189555407, 0.001998094609, 0.015521385707, -0.142917647958, -0.029106482863, 0.006649812683, 0.155561953783, -0.157257735729, 0.055763501674, -0.142590925097, -0.250902742147, -0.115677669644, -0.083710409701, 0.204017654061, 0.009293165058, 0.142092451453, 0.160374894738, -0.145653009415, -0.121349483728, -0.196937575936, -0.092936508358, 0.104105509818, -0.171201184392, -0.054934378713, -0.136722683907, 0.114381566644, 0.276061743498, -0.108669750392, -0.054033603519, -0.102879300714, -0.103247933090, -0.028737705201, 0.082144826651, 0.000115513358, -0.067941635847, -0.149266153574, 0.051487609744, -0.117847949266, -0.155086934566, 0.096723087132, 0.117287352681, -0.076247259974, 0.077709145844, 0.196339964867, 0.189099207520, -0.047935031354, -0.010804547928, -0.093337751925, -0.023489862680, -0.006238455884, 0.083543330431, -0.126812323928, -0.076846726239, -0.125459134579, 0.084251634777, -0.034068975598, -0.167481899261, 0.102654032409, 0.037660282105, -0.048043832183, 0.090341933072, 0.103808909655, -0.067284934223, -0.049401365221, -0.092878013849, -0.253092169762, 0.078372076154, -0.132106438279, -0.003679824760, -0.183431431651, 0.107253029943, -0.069196127355, -0.018252648413, -0.110005855560, 0.021379254758, -0.042100884020, -0.042818590999, 0.012469558045, 0.227024212480, -0.072803817689, 0.012681745924, -0.090310789645, -0.053550545126, 0.089766062796, -0.099814526737, -0.163592189550, -0.035191088915, 0.168654531240, 0.132596746087, 0.099283739924, 0.100990518928, 0.011215709150, 0.042685579509, 0.098672792315, -0.040123801678, -0.125493705273, -0.081797324121, -0.200401559472, -0.162916064262, 0.032704569399, 0.107532262802, -0.060193788260, -0.112410001457, 0.050987329334, -0.031972378492, 0.155928745866, 0.051368590444, 0.099432170391, 0.043029427528, 0.109859965742, -0.054083194584, -0.124811083078, -0.130221486092, -0.012234288268, 0.065979570150, -0.167087316513, 0.057775940746, 0.120336614549, 0.020181426778, -0.087171636522, 0.061077889055};
#endif

#endif
