//Numpy array shape [90, 32]
//Min -0.463700503111
//Max 0.835328280926
//Number of zeros 0

#ifndef W24_H_
#define W24_H_

#ifndef __SYNTHESIS__
dense_14_default_t w24[2880];
#else
dense_14_default_t w24[2880] = {0.130928993225, -0.017752649263, 0.016167610884, 0.099193930626, 0.143595054746, -0.108025066555, 0.353440105915, 0.055881071836, 0.164511665702, 0.632241487503, 0.589760124683, -0.045534953475, 0.263384282589, 0.020069945604, 0.079592384398, 0.482345402241, 0.430317163467, -0.053541474044, 0.295075267553, -0.038230787963, 0.017559120432, 0.420624375343, 0.287723273039, -0.114018671215, 0.232755646110, -0.088827408850, -0.033866260201, 0.299073427916, 0.189243793488, -0.118647165596, 0.176737129688, -0.103513248265, -0.061074890196, 0.183841913939, 0.085766434669, -0.103549472988, 0.121189445257, -0.108337946236, -0.058136116713, 0.118706904352, 0.056805793196, -0.078703090549, 0.043478947133, -0.085276074708, -0.022456690669, 0.061582256109, -0.002835625550, -0.043330941349, 0.019324988127, -0.069455035031, -0.011583799496, 0.072567537427, -0.018732167780, -0.033107589930, 0.043148688972, -0.029612354934, -0.041326191276, 0.028080340475, -0.023132532835, -0.029912684113, 0.046354658902, -0.068510666490, -0.069891773164, 0.049482140690, -0.031247982755, 0.005523087457, 0.030781706795, -0.034649312496, -0.016754630953, 0.013757308945, -0.045594763011, 0.004315430764, 0.041852187365, -0.027128050104, -0.033782005310, 0.016626818106, -0.065435767174, 0.000559869048, 0.043458566070, -0.033219654113, -0.047127187252, 0.054872591048, -0.066862605512, 0.017342524603, 0.024056015536, 0.017365053296, -0.010346292518, 0.018551083282, -0.048094566911, -0.016263153404, -0.069829195738, -0.144841760397, 0.128902301192, 0.111096546054, -0.295346200466, -0.067739360034, 0.580752372742, -0.353769510984, 0.095368817449, 0.145790085196, -0.078075282276, -0.270317316055, -0.002634979319, 0.058041639626, -0.079188317060, 0.031785313040, -0.001468333183, 0.188492119312, -0.023784093559, 0.192109569907, 0.025025984272, -0.093542456627, 0.008379655890, 0.120017953217, 0.140511378646, 0.173233166337, 0.024637991562, 0.086483366787, 0.025785109028, 0.185622170568, 0.068950980902, 0.072461806238, 0.020738234743, -0.039383638650, 0.134688332677, 0.088771708310, 0.158148601651, 0.165026903152, -0.006154810078, 0.101962976158, 0.177161201835, 0.012959907763, 0.074358902872, 0.071472682059, 0.080294743180, 0.087295062840, 0.062854193151, 0.002745443955, -0.006653695833, 0.025976996869, 0.041925538331, 0.195049121976, 0.117791399360, 0.117212750018, 0.202705934644, 0.052044909447, -0.055316872895, -0.073286786675, -0.046365592629, -0.060441564769, -0.056185659021, -0.077631212771, 0.052696589381, 0.009870266542, 0.049806650728, 0.037121567875, 0.028937311843, 0.098206669092, 0.079622112215, 0.044185340405, 0.162948012352, 0.034733023494, 0.225830987096, -0.023359151557, -0.151762038469, -0.021568719298, 0.082059003413, -0.020404322073, -0.043506782502, 0.071634009480, 0.059610016644, 0.044746283442, 0.117406398058, 0.005622349214, 0.061867367476, 0.087134301662, -0.019872216508, -0.045380275697, -0.003621318610, -0.128026604652, 0.067188926041, -0.063725456595, -0.151108652353, 0.046308759600, -0.105251766741, -0.015992727131, 0.120435900986, -0.013887916692, 0.261003494263, 0.392188429832, 0.524652898312, -0.095217183232, 0.153041213751, 0.009999830276, 0.168049991131, 0.427998036146, 0.431234776974, 0.010690032504, 0.017953811213, -0.044347226620, -0.013618038967, -0.088465914130, -0.056531526148, -0.073004692793, 0.041287221014, -0.062016412616, 0.057050548494, 0.194956496358, 0.202487841249, -0.016317809001, 0.134910598397, -0.015749657527, 0.036051589996, 0.069885723293, 0.129347696900, -0.159635558724, 0.094490572810, 0.006826485507, -0.030846474692, 0.015469070524, 0.104040265083, -0.103104911745, 0.053760785609, -0.071589417756, -0.010125982575, 0.013996153139, 0.025165680796, -0.095930695534, -0.011055413634, -0.064440093935, -0.037148445845, 0.073504738510, 0.051903821528, -0.039560768753, -0.010141931474, -0.060807500035, -0.015033104457, -0.026328848675, -0.018799642101, -0.039763327688, -0.064185231924, -0.077553883195, 0.020992778242, -0.035162370652, -0.041624255478, -0.047990046442, -0.064307063818, -0.024080561474, 0.063873596489, -0.069592073560, -0.024948231876, -0.064975492656, -0.043127771467, -0.065538868308, -0.013691822067, -0.007055443246, -0.039843335748, -0.048008754849, -0.042434722185, -0.011239481159, 0.001922412310, -0.039189185947, 0.006195155438, -0.010393187404, -0.081317365170, -0.017786156386, 0.049633249640, -0.066466175020, -0.015191582032, -0.063562013209, 0.119854122400, 0.011086092331, 0.133310139179, 0.147116228938, 0.346378028393, -0.173490613699, 0.125913634896, 0.041968487203, 0.204365402460, 0.253093540668, 0.534968793392, -0.159583911300, 0.137179359794, 0.023987494409, 0.166432648897, 0.245154574513, 0.496489554644, -0.146867334843, 0.187970086932, 0.011065036990, 0.209174066782, 0.344032227993, 0.530946016312, -0.206530064344, 0.237343877554, -0.068457581103, 0.100931786001, 0.280662596226, 0.507959425449, -0.206770926714, 0.148154839873, -0.135196223855, 0.065644994378, 0.248684972525, 0.326913118362, -0.174453347921, 0.154336094856, -0.147814437747, 0.027943570167, 0.122026011348, 0.210851997137, -0.178633183241, 0.089617542922, -0.167290598154, -0.019081778824, 0.100329376757, 0.125639706850, -0.131304785609, 0.036725223064, -0.119785428047, 0.001338227768, 0.017144730315, 0.079743817449, -0.101557701826, 0.062660448253, -0.107811048627, -0.039514828473, 0.008317913860, -0.006296337582, -0.100786447525, 0.004678433295, -0.092049010098, -0.010068994947, -0.077190220356, 0.022684659809, -0.074546948075, 0.012983893044, -0.052114453167, 0.011723414995, -0.045385211706, -0.008606351912, -0.060301259160, 0.002368800109, -0.072341419756, -0.039023887366, -0.064643137157, -0.056209962815, -0.024145726115, 0.012399788015, -0.045711152256, -0.025960309431, -0.025385282934, -0.040737997741, -0.021237615496, -0.004892674740, -0.026747468859, 0.008867255412, -0.066895633936, -0.025178007782, -0.034031994641, -0.042714651674, 0.026337603107, 0.117100052536, -0.079502642155, 0.173351183534, -0.045223835856, -0.128925025463, -0.061259664595, -0.089617669582, -0.264360636473, -0.229711741209, 0.063938595355, 0.038369599730, -0.019345236942, 0.246405869722, 0.220914006233, 0.398698717356, 0.002442756202, -0.125918865204, -0.011751418002, 0.000066787776, -0.241534009576, -0.115256190300, -0.034574441612, -0.050751835108, -0.185993969440, 0.386602312326, 0.439863979816, 0.390290349722, -0.189055964351, -0.083614982665, -0.086856424809, 0.128003910184, -0.042923130095, 0.153071850538, -0.088265120983, -0.100072346628, -0.196129441261, 0.118705213070, 0.092341676354, 0.174771398306, -0.123977005482, -0.055922724307, -0.141662463546, 0.118020445108, -0.051119208336, 0.091346517205, -0.117094084620, -0.060787640512, -0.100888580084, 0.080375462770, -0.020768292248, 0.042971700430, -0.092873603106, -0.022600362077, -0.037977550179, 0.049447163939, -0.116679243743, 0.011658326723, -0.120136342943, -0.070076949894, -0.062963478267, 0.039314761758, -0.174143806100, 0.088659785688, -0.053120721132, -0.059373855591, 0.042338464409, 0.049342080951, -0.150784999132, 0.104944966733, -0.103973031044, -0.086580805480, 0.031146472320, 0.039302799851, -0.156898036599, 0.059294041246, -0.013138448820, 0.020388523117, -0.019884843379, -0.014908489771, -0.039251778275, 0.032633882016, -0.020197195932, -0.025282086805, -0.184684514999, -0.082966119051, 0.078479178250, -0.092000804842, 0.032159823924, 0.013881903142, -0.054129764438, -0.112998180091, 0.141343936324, -0.069659598172, 0.022632366046, -0.071972452104, -0.064015209675, -0.187047138810, -0.083662658930, -0.250278323889, 0.133084043860, -0.240856796503, 0.075158454478, -0.047903023660, -0.185918390751, -0.184807062149, 0.343185812235, -0.086367361248, 0.157532170415, -0.009638177231, -0.143920212984, -0.093301683664, 0.237372905016, 0.004846480675, 0.164366230369, 0.012592777610, -0.056765958667, -0.007279210258, 0.238233119249, 0.119538784027, 0.140677109361, -0.018147071823, 0.026962598786, 0.001373412320, 0.127049520612, 0.113851502538, 0.005246505141, -0.068346373737, 0.100162252784, 0.026884187013, 0.118272848427, 0.068671271205, 0.027946725488, -0.059255152941, 0.162660107017, 0.084500186145, 0.134328573942, -0.019510896876, 0.034326318651, -0.002425392624, 0.157001897693, 0.024104580283, 0.096794433892, 0.089767187834, -0.012250021100, -0.070221573114, 0.061404716223, 0.070590734482, 0.086392760277, -0.034555628896, -0.070642486215, -0.033378511667, 0.125440567732, 0.079008229077, 0.142718046904, 0.039493650198, -0.061616718769, -0.083237610757, 0.158927634358, 0.033952575177, 0.129777416587, 0.007278000936, -0.058687895536, -0.106915004551, 0.071891754866, 0.013010495342, 0.147737964988, 0.046987481415, -0.030022738501, -0.101149939001, 0.119284451008, 0.025695467368, 0.120022915304, -0.034076433629, -0.005182459019, -0.053257435560, 0.144051626325, 0.036805018783, 0.128642752767, 0.016711186618, 0.054763123393, 0.028522556648, 0.102896347642, -0.119432635605, 0.200133800507, -0.138404741883, -0.071815028787, 0.302746355534, 0.023207226768, -0.066827483475, -0.007651064545, 0.181181401014, 0.092631660402, 0.115198746324, -0.036314208061, -0.129285097122, 0.060210812837, 0.149415895343, 0.116934597492, 0.200626417994, -0.130240201950, 0.047389041632, 0.076558634639, 0.212443277240, 0.205689787865, 0.129668757319, 0.104649186134, -0.181048244238, 0.172581121325, -0.151064723730, 0.088643483818, -0.027760818601, 0.044348027557, -0.018191508949, 0.258024036884, -0.031230447814, 0.131296396255, 0.096519246697, -0.180212050676, 0.014070397243, -0.052241235971, -0.075648993254, 0.035765338689, -0.027397997677, -0.098414897919, -0.037432171404, -0.114058785141, 0.225887209177, 0.136266991496, 0.050370894372, -0.024387849495, -0.055897105485, -0.039996393025, -0.142863363028, 0.193586036563, 0.057523105294, -0.074392117560, 0.194336369634, 0.207234978676, -0.043023295701, 0.017144426703, 0.254135966301, -0.091564588249, -0.226947918534, -0.094164036214, 0.190490469337, 0.046728886664, -0.030847938731, -0.083387263119, 0.153185740113, 0.094429805875, -0.127782344818, 0.132847920060, 0.000989310211, -0.049989040941, -0.166945695877, 0.082941845059, 0.185354575515, 0.214844018221, 0.131956011057, -0.078799732029, -0.059895116836, 0.178489297628, 0.216795653105, 0.163135930896, 0.019449096173, -0.070850826800, -0.141149461269, -0.020421743393, -0.048160415143, 0.059742897749, -0.050980292261, 0.084898442030, -0.194060921669, 0.127408921719, -0.077044852078, 0.017149096355, -0.078142635524, 0.014760791324, -0.008262190968, 0.250801891088, -0.018068572506, 0.090514071286, 0.016630657017, 0.025969807059, -0.058940052986, 0.069153964520, -0.010905999690, 0.032239552587, -0.014718190767, 0.187023758888, -0.113222390413, 0.081851080060, 0.014931153506, -0.014172240160, 0.056797113270, -0.086739897728, -0.038735829294, 0.024622755125, -0.082303091884, -0.012671370991, 0.003992748447, 0.050311431289, -0.027151770890, 0.076464600861, -0.070673413575, 0.081510789692, 0.058183617890, 0.044470608234, -0.115296974778, -0.070662640035, 0.026169715449, 0.102695368230, -0.024501161650, 0.101759389043, -0.046652652323, 0.042187392712, 0.000005164504, 0.036805056036, 0.043287783861, 0.229444816709, -0.009414353408, 0.096904829144, 0.077862940729, 0.058328390121, 0.081097044051, 0.207550123334, -0.173611074686, 0.139719352126, 0.120831027627, 0.036837261170, 0.032780978829, 0.231823563576, -0.161802873015, 0.056328538805, -0.023081848398, 0.017652746290, 0.050561219454, 0.261857569218, 0.006987466943, 0.205776229501, 0.173395216465, 0.048079714179, 0.019963104278, 0.076254777610, -0.097561486065, 0.217645779252, -0.085673674941, 0.179778635502, 0.322882860899, 0.035051137209, 0.008246106096, 0.123308286071, 0.041749171913, 0.145687758923, 0.206963717937, 0.177151277661, 0.067990221083, 0.132844328880, 0.189144372940, 0.036841701716, -0.001438993728, -0.051095943898, -0.173394203186, 0.015418963507, -0.116393387318, 0.010223330930, 0.186480313540, -0.050486121327, 0.023378688842, 0.190344750881, -0.092283263803, -0.071146160364, 0.143766000867, 0.178191646934, 0.026971695945, -0.009006773122, 0.044527452439, 0.237373232841, -0.022024173290, -0.046902611852, 0.096767105162, 0.225617825985, 0.190655276179, 0.042798873037, 0.119549721479, 0.068209059536, -0.227052658796, 0.072867177427, 0.118350841105, -0.113002821803, 0.110273435712, 0.091607064009, -0.221009120345, -0.069126248360, 0.200474068522, -0.005274181720, 0.090917728841, -0.094230681658, -0.072057202458, 0.136417865753, 0.248245686293, 0.070722155273, -0.101333476603, 0.123704828322, 0.145133912563, 0.129150345922, 0.079857788980, 0.147337257862, 0.252439141273, -0.082360401750, 0.021293181926, -0.120860859752, 0.012342428789, 0.293585151434, 0.245852485299, -0.040090810508, 0.093867853284, 0.147082954645, -0.062788508832, -0.016914105043, -0.084625720978, 0.189482808113, -0.108792990446, 0.236790716648, 0.245520845056, 0.301088362932, -0.042279589921, 0.051667332649, 0.101428456604, -0.141005054116, 0.029952941462, -0.076468452811, 0.287545204163, 0.126919701695, 0.001852872083, 0.098924897611, 0.090219512582, 0.072751596570, 0.066284902394, 0.154317066073, -0.015625393018, 0.118915595114, 0.235541507602, 0.197341516614, 0.057175036520, 0.148540079594, -0.001244931249, 0.093531280756, 0.050874747336, 0.157225638628, 0.110396519303, -0.164514273405, 0.041881538928, -0.109482839704, -0.052790299058, 0.113480769098, 0.081626892090, -0.125819265842, 0.000668750086, -0.135959029198, -0.169129863381, 0.126320764422, 0.208655655384, -0.010460793041, 0.144190981984, 0.041251804680, -0.060835342854, 0.094094559550, -0.026471380144, 0.073499642313, -0.003954813816, 0.032269239426, 0.091449171305, 0.135433569551, 0.037591923028, 0.177278727293, -0.195561811328, 0.171116456389, 0.007409631740, 0.047573663294, 0.009317129850, 0.092446580529, 0.079079955816, -0.123182967305, 0.021451447159, 0.139601200819, 0.013275990263, -0.161370500922, 0.053828667849, -0.063179276884, 0.156147882342, 0.100634284317, 0.109145320952, 0.154591932893, 0.132814794779, 0.168604105711, 0.222568184137, 0.231512635946, 0.108435109258, -0.187022015452, -0.023204194382, -0.039849411696, 0.146967738867, 0.168119132519, 0.107726819813, 0.149182409048, 0.107987292111, 0.108151957393, -0.016057204455, 0.190742343664, 0.031651657075, 0.131128668785, 0.030955014750, 0.126806974411, 0.045803450048, 0.153957843781, -0.092505156994, 0.097961924970, 0.022842902690, 0.215753644705, 0.091781109571, 0.243548259139, 0.156762287021, 0.181690871716, 0.115148104727, -0.000359630911, 0.124530285597, -0.026485057548, -0.079273059964, 0.133013635874, -0.187075555325, 0.239608481526, -0.039477027953, 0.251137256622, -0.059805501252, -0.068346433342, 0.068033546209, -0.075813002884, -0.000221343915, 0.009910000488, -0.011945562437, -0.137754276395, -0.002501072129, -0.070319615304, 0.105057127774, -0.026792643592, 0.061844535172, -0.080945141613, 0.125691071153, -0.142595365644, -0.034255668521, 0.032388750464, 0.057952590287, -0.169782698154, 0.131518110633, -0.165213644505, 0.351191401482, -0.100420601666, 0.312377840281, 0.556303441525, 0.597759366035, -0.202010184526, 0.176298081875, -0.063323773444, 0.091114938259, 0.314263254404, 0.365220755339, -0.174563914537, 0.195599779487, -0.028224896640, 0.018105892465, 0.018497182056, 0.190679952502, -0.161213144660, 0.104565896094, -0.181097909808, -0.024052564055, 0.119934633374, 0.123193681240, -0.073600098491, -0.052312068641, -0.112446695566, 0.057153042406, -0.070392057300, 0.110350675881, -0.029727049172, -0.025036135688, -0.057990543544, 0.042731486261, -0.056513454765, 0.026458041742, -0.093599110842, 0.014809551649, -0.046018391848, -0.007747628726, -0.053897075355, 0.003712864127, -0.097596630454, 0.019112231210, -0.052035752684, -0.040468677878, -0.054044034332, 0.002303293673, -0.033162817359, -0.049729976803, -0.071541108191, 0.013953573070, -0.034754842520, -0.024146335199, 0.007870867848, -0.053289704025, -0.094788558781, 0.035597145557, -0.090614542365, -0.085521839559, -0.033570151776, 0.009390546940, -0.048201348633, -0.023603174835, -0.018450390548, -0.070784166455, -0.020053535700, 0.030707865953, 0.018766235560, 0.040871262550, -0.063566319644, -0.059987742454, -0.041523642838, 0.034805167466, 0.244895771146, 0.234956249595, -0.042467545718, 0.174450606108, 0.220039725304, -0.065118595958, 0.143030583858, 0.209890827537, -0.224504813552, 0.016082910821, 0.091355532408, 0.171199545264, 0.228134572506, 0.251266062260, 0.177155092359, 0.099743790925, -0.128292337060, -0.161332145333, 0.090120650828, 0.170237049460, -0.137723863125, 0.117311514914, 0.164038971066, 0.163667961955, -0.028257600963, 0.189461544156, -0.224791437387, -0.180796965957, -0.135317176580, -0.173155486584, -0.052192877978, -0.071564652026, 0.193649366498, 0.155416205525, -0.005702720489, 0.209643751383, -0.070279575884, 0.264459520578, -0.113665752113, 0.132789433002, -0.044932350516, -0.150366693735, 0.235520541668, 0.235224664211, 0.070228546858, -0.017036702484, 0.068429805338, 0.143605992198, -0.027499530464, -0.119009681046, -0.110957764089, 0.149538666010, 0.011284290813, 0.059745550156, -0.045989163220, 0.041677176952, -0.041773959994, 0.165214255452, -0.019760025665, 0.000226550925, -0.085767410696, 0.176550358534, -0.018765399233, -0.174926757812, 0.185122027993, -0.133670911193, 0.264060258865, -0.029131755233, -0.010028472170, 0.189243912697, 0.097739599645, 0.087644733489, 0.161866113544, 0.089950837195, -0.191363483667, 0.067493163049, 0.134591802955, -0.065415859222, 0.188946351409, 0.159408181906, -0.001940566581, -0.006667806301, 0.232452660799, 0.023735521361, 0.231001570821, -0.138526275754, -0.113458946347, 0.089106857777, -0.040801625699, 0.249975293875, -0.012802775949, 0.724551677704, 0.649021506310, 0.538490116596, 0.010330341756, 0.057088971138, -0.042290661484, -0.082580439746, 0.106830209494, -0.076012618840, -0.006885437761, -0.064974911511, -0.025090865791, -0.009791677818, -0.059057872742, 0.023242011666, 0.055720046163, -0.021729934961, -0.065591782331, 0.007618968841, 0.121326647699, -0.056398496032, 0.042352344841, 0.051049273461, 0.042580038309, -0.049220483750, -0.014191846363, 0.033390067518, 0.023717571050, -0.046475287527, -0.036092799157, -0.009907934815, 0.032117214054, 0.002467147540, 0.008968027309, -0.002739517484, -0.018263284117, -0.050559800118, 0.072926163673, -0.015740232542, 0.030743014067, 0.092448063195, 0.092140972614, -0.089420378208, 0.109501384199, 0.030974727124, 0.033759161830, 0.002391029149, -0.046353142709, -0.028508391231, 0.024698905647, 0.040194880217, 0.102171055973, 0.018587045372, -0.004794798326, -0.030091486871, 0.029081471264, 0.006881911308, 0.025195168331, 0.038703098893, -0.052190598100, -0.077620692551, 0.134316802025, -0.007347854320, 0.049328632653, -0.074944041669, -0.025883775204, 0.048080664128, -0.014836916700, -0.015996336937, 0.011936325580, 0.091648168862, 0.043027587235, -0.013462194242, 0.066697515547, -0.095330983400, -0.120899036527, 0.128289714456, 0.013722158037, -0.096118062735, 0.071165420115, 0.050015714020, 0.044372104108, -0.010103568435, -0.004406429827, -0.032793212682, 0.057601291686, 0.011008209549, 0.029775079340, -0.115322627127, 0.004844834097, -0.110381685197, -0.113770060241, -0.089733853936, 0.229309871793, -0.222875669599, 0.109902165830, -0.096216194332, -0.300721496344, -0.226577863097, 0.347692459822, -0.177631214261, 0.144557207823, -0.070073328912, -0.251739174128, -0.113886006176, 0.316586017609, -0.178938180208, 0.155787661672, 0.019705234095, -0.264483958483, -0.071386843920, 0.229221299291, -0.067754484713, 0.131188273430, -0.019914474338, -0.111348941922, -0.052589025348, 0.181185171008, -0.049499403685, 0.067613743246, 0.018407804891, -0.063355550170, 0.028104662895, 0.188655287027, 0.058927282691, 0.048465084285, -0.094327591360, 0.045846205205, 0.012744450942, 0.129985198379, 0.058916240931, 0.074282407761, -0.064381033182, 0.042502250522, 0.009129964747, 0.085989937186, 0.055866070092, 0.044826138765, -0.045593481511, -0.024751937017, 0.015689324588, 0.087629266083, 0.164094433188, 0.042931910604, -0.092622838914, 0.092489719391, -0.005213626660, 0.061556860805, 0.080235660076, 0.039735592902, -0.085653610528, 0.045330781490, 0.008139027283, 0.087494701147, -0.005122681148, 0.000163240940, -0.038612514734, 0.062637634575, 0.045118790120, 0.076259039342, 0.073314920068, 0.051356799901, -0.090722389519, 0.080312341452, 0.024838017300, 0.091205000877, 0.137526512146, 0.061552952975, -0.119106769562, 0.056016322225, -0.016310021281, 0.060406070203, -0.019462116063, 0.007959161885, -0.034486681223, 0.041950445622, 0.057977877557, 0.178300797939, -0.098073132336, 0.075358040631, 0.057544831187, 0.127419039607, -0.200557693839, 0.174933969975, 0.052073802799, 0.180327028036, 0.136676356196, -0.158228233457, 0.144919335842, 0.206924885511, -0.149303227663, 0.094469033182, 0.023571927100, 0.075181290507, 0.141860991716, 0.020991683006, 0.021320994943, 0.093748949468, 0.290584385395, -0.064459569752, -0.008205823600, -0.144886657596, -0.141333296895, 0.116113908589, 0.110937595367, -0.215866327286, 0.091032870114, 0.034470379353, 0.027266770601, 0.026751192287, 0.212708160281, 0.089145161211, -0.042794957757, -0.141047015786, -0.148648604751, 0.200089439750, 0.246963873506, 0.031368371099, 0.159082010388, 0.251468181610, -0.135754868388, 0.225670799613, 0.143728986382, 0.032892487943, -0.116043224931, 0.160991460085, 0.034330148250, 0.053901731968, -0.067705184221, 0.046543750912, 0.084900096059, 0.256532371044, 0.078815206885, 0.110112339258, -0.000344676053, -0.120780363679, -0.079259499907, 0.004906508606, 0.200266182423, 0.314413458109, 0.005330437794, 0.114572674036, -0.011706441641, 0.059177480638, -0.034728981555, 0.172141447663, 0.009670360014, 0.076415009797, -0.076840884984, 0.015063982457, 0.242969751358, 0.132627815008, 0.042576458305, 0.040916528553, 0.138913109899, -0.141025170684, -0.169779688120, -0.067467980087, -0.035043399781, 0.111592590809, -0.199979647994, 0.210942015052, 0.000855032995, 0.338803023100, 0.041231427342, -0.143464237452, 0.012269360013, -0.104714959860, 0.218679815531, 0.109440058470, -0.043968945742, 0.087207898498, 0.053984057158, 0.088480383158, -0.059809163213, 0.219220027328, -0.008886579424, 0.193664580584, 0.120352536440, -0.133501350880, 0.118955098093, 0.049955580384, 0.127178177238, -0.139173820615, -0.085173882544, 0.155118435621, -0.111176557839, 0.283908754587, 0.077087596059, 0.179547101259, 0.089066781104, 0.029893035069, -0.167750999331, -0.020308339968, 0.066171042621, -0.016721285880, 0.116104766726, 0.237431153655, 0.088018268347, 0.163697659969, 0.010248301551, -0.081864215434, -0.111216321588, -0.044937022030, -0.177111580968, 0.087332561612, 0.252754449844, 0.198983728886, -0.144171521068, -0.117676176131, 0.192358106375, 0.356993049383, 0.058413092047, 0.187324136496, 0.151764139533, -0.077220752835, -0.059126339853, 0.318363666534, 0.072141721845, 0.168737143278, 0.084516085684, -0.024130152538, -0.025181939825, 0.242329791188, 0.040286961943, -0.236259192228, -0.174364045262, -0.193664267659, -0.163868278265, 0.154630050063, -0.036053147167, 0.103481933475, 0.030240304768, 0.130989611149, -0.084962412715, 0.022700123489, -0.026263097301, 0.024932544678, -0.026361178607, 0.166571617126, -0.015733256936, 0.336531817913, 0.070168264210, 0.037731356919, -0.140967562795, -0.027722170576, -0.094226278365, 0.312389820814, 0.222967371345, -0.091742374003, -0.125946313143, -0.043070435524, -0.035812415183, 0.116180129349, 0.055253729224, 0.095148615539, 0.031277533621, -0.126921221614, 0.048508349806, 0.096973977983, 0.437486320734, 0.415696263313, 0.588745057583, -0.143965631723, 0.002843237482, 0.001652316307, 0.028012601659, -0.047743383795, 0.021860133857, -0.030283810571, -0.090194553137, -0.030783832073, -0.118997946382, -0.238871783018, -0.236480563879, 0.037038080394, -0.073858007789, 0.017709104344, 0.035149376839, -0.066663622856, 0.120243526995, 0.013251609169, -0.030077660456, -0.059259392321, 0.162421509624, 0.115398786962, 0.345556467772, -0.096463024616, -0.030843112618, -0.203236445785, 0.118663676083, 0.297927320004, 0.254274040461, -0.045454464853, 0.072783403099, -0.115441165864, 0.035873934627, 0.112726747990, 0.207613334060, -0.061833821237, 0.048097752035, -0.108759000897, 0.002063325606, 0.113895386457, 0.092441290617, -0.108232699335, 0.041837889701, -0.012923521921, 0.017936211079, 0.064214304090, 0.070461310446, -0.125027030706, 0.087317958474, -0.076415985823, -0.069627784193, 0.087027810514, 0.004664441105, -0.024907410145, -0.078795589507, -0.072125740349, 0.019002251327, 0.007462193724, 0.000254318351, -0.058201033622, -0.020587544888, -0.036929294467, -0.033882077783, -0.028170900419, 0.090414606035, 0.016044085845, -0.126844733953, 0.005470238626, -0.002727460582, -0.104946248233, 0.039416942745, -0.027484837919, -0.039008993655, -0.060620073229, 0.033217873424, -0.037263054401, -0.034744568169, -0.052503585815, -0.141207933426, -0.003689276287, 0.069959565997, -0.101116515696, 0.033215731382, 0.027443341911, 0.138867646456, -0.004130935762, 0.062366351485, 0.115981101990, 0.158813700080, -0.088210359216, 0.218960076571, -0.047554239631, -0.080639243126, 0.144364088774, 0.034724827856, -0.071285933256, 0.561605453491, -0.088743656874, 0.275724947453, 0.594941794872, 0.428136289120, 0.057110842317, 0.243781492114, -0.008072103374, -0.080329805613, 0.190196931362, 0.060701150447, -0.048574812710, 0.229294419289, -0.059689965099, -0.118636496365, 0.159909561276, -0.009676635265, -0.010123642161, 0.067967951298, -0.048390083015, -0.054453052580, 0.081674486399, -0.011930296198, -0.027889590710, 0.064737237990, 0.001434640842, -0.029329372570, 0.019544402137, -0.013617258519, 0.014527725056, 0.015319128521, 0.017152138054, -0.027637165040, 0.010862668976, -0.012455068529, 0.004993756767, 0.033755809069, -0.010033888742, -0.017087729648, 0.050533991307, -0.074376530945, -0.003048580838, 0.084096536040, 0.030634909868, -0.043918639421, 0.064088091254, -0.040660865605, 0.017088025808, 0.117430716753, -0.005134178791, -0.071058019996, 0.069345869124, -0.057515256107, -0.019499922171, 0.079802393913, -0.022332362831, -0.062340848148, 0.097128652036, -0.064369641244, 0.058748699725, -0.030131144449, -0.006914840546, 0.007897919975, -0.027567403391, -0.069867260754, 0.033333349973, 0.098504588008, 0.022719532251, -0.044212765992, 0.059221964329, -0.044992495328, 0.049403443933, -0.006350225303, 0.068032212555, -0.006836141460, 0.000656983990, 0.060394231230, 0.077051348984, 0.136479258537, -0.006775555201, -0.029997684062, 0.142680495977, 0.063997812569, -0.041238855571, 0.451998531818, 0.074881955981, 0.416086912155, 0.812090933323, 0.499177962542, 0.142400011420, 0.158679127693, -0.018207820132, -0.089471466839, 0.119303666055, -0.032301221043, 0.000291218574, 0.140307918191, -0.032475925982, -0.064304254949, 0.106601536274, 0.029383281246, -0.012782424688, 0.126787751913, -0.008898179978, -0.047851074487, 0.093183107674, -0.070502333343, -0.031043544412, 0.081049300730, -0.000415394286, -0.046787686646, 0.088219970465, -0.040819454938, 0.010846297257, 0.064508512616, 0.029415432364, -0.036087285727, 0.064691901207, 0.025610810146, -0.014643303119, 0.069483928382, 0.025492575020, -0.018614631146, 0.027943488210, 0.005568411667, -0.022104643285, 0.042348787189, 0.059747077525, 0.002480630763, -0.025546049699, -0.006079807412, 0.001232171548, 0.055436994880, 0.014023810625, -0.038355652243, 0.055457647890, -0.038762800395, -0.023306511343, 0.050854112953, 0.006333836820, -0.056817263365, 0.038134042174, 0.003596268594, 0.001784643391, 0.038957174867, 0.008600470610, -0.024039892480, 0.014325793833, -0.013247267343, -0.038222566247, 0.034277845174, 0.026597645134, -0.046087134629, 0.042092278600, -0.002371191047, 0.003746921662, 0.018863562495, -0.002720511984, -0.012175288051, 0.009514356032, -0.017346242443, -0.036597061902, 0.086800009012, -0.035983130336, -0.021957674995, 0.056506093591, -0.052232667804, -0.031918678433, 0.145934179425, 0.114839918911, 0.266567766666, 0.196787610650, 0.036631256342, -0.180546522141, 0.142716914415, 0.036962948740, -0.109185881913, 0.017621677369, 0.088153958321, -0.048445615917, 0.237758159637, 0.047723371536, -0.096640884876, 0.006690058392, 0.153050139546, 0.268628031015, 0.222657680511, 0.058428309858, -0.098642699420, 0.099222727120, 0.068252675235, 0.088139235973, 0.230990186334, 0.001565901795, 0.088089816272, 0.044046923518, -0.043366029859, 0.162011787295, -0.054353974760, -0.122796855867, 0.112526535988, -0.122360683978, -0.131611123681, 0.200475513935, 0.125983208418, 0.223777502775, 0.069853678346, -0.201017111540, 0.034586898983, -0.203361988068, 0.240300610662, 0.156957656145, -0.068862617016, -0.014683110639, 0.002512151143, 0.091425590217, -0.057760898024, 0.077099122107, 0.006775619928, -0.178417921066, -0.109336264431, 0.120006173849, -0.010051070713, 0.182158991694, 0.192394629121, 0.116327196360, -0.051334187388, 0.038795221597, 0.000303011504, 0.143914833665, 0.146217525005, -0.186065241694, -0.088643617928, 0.123447433114, 0.027463931590, 0.212819159031, 0.099604152143, -0.190880775452, 0.149865210056, -0.070011481643, 0.202552437782, -0.115865550935, 0.037023875862, -0.095354489982, 0.054130684584, 0.249768346548, -0.073297843337, 0.057555455714, -0.032388363034, 0.011256611906, -0.136317342520, -0.038917161524, -0.066584214568, 0.082573786378, -0.072785221040, -0.043328288943, 0.107337154448, 0.008627173491, -0.172102287412, 0.118325069547, -0.001318505616, 0.150191217661, -0.067564293742, 0.015338499099, -0.043925352395, -0.079341135919, 0.087867282331, 0.174347326159, 0.017459658906, -0.040631532669, -0.003165910719, 0.063098445535, 0.111715279520, 0.112648449838, -0.255361288786, 0.165747106075, -0.039129953831, 0.101256661117, 0.150668069720, -0.195838972926, 0.273726701736, 0.150886118412, 0.301449477673, 0.169376537204, 0.068762853742, 0.152450323105, 0.208088696003, 0.211835637689, -0.126844391227, 0.215930879116, 0.358831495047, 0.012198967859, 0.218217641115, 0.136324599385, 0.165126293898, 0.162172377110, 0.076802916825, -0.116993740201, 0.112150065601, -0.076584205031, -0.157106012106, -0.060022700578, 0.070358082652, -0.069632679224, 0.024878308177, -0.106129974127, 0.041000492871, 0.114778652787, -0.062066420913, -0.110352694988, 0.097889751196, 0.057383645326, -0.118543885648, -0.132366672158, 0.017898464575, -0.148461937904, -0.120066091418, -0.048209309578, -0.182201355696, 0.289817184210, 0.169931262732, -0.079682514071, -0.132866173983, 0.035948567092, 0.023434950039, 0.040513850749, -0.006248891354, 0.020788719878, 0.276662975550, 0.136863619089, 0.165450990200, 0.103915132582, -0.180497094989, 0.061607882380, 0.088502332568, 0.087233439088, 0.033244729042, 0.122855931520, 0.112233884633, -0.176937907934, 0.103018626571, -0.087870165706, -0.090094365180, 0.039789725095, -0.106186829507, 0.019493142143, 0.023116189986, 0.148082807660, 0.074030026793, -0.121231049299, 0.000325698900, 0.035570494831, 0.110944993794, 0.072294704616, -0.104177579284, -0.056734737009, 0.078623026609, 0.171788483858, 0.158755794168, 0.244938910007, 0.084500685334, 0.186933681369, 0.181085214019, -0.075874969363, -0.083619132638, 0.005042723846, 0.111772544682, 0.114563554525, 0.122718393803, 0.072763301432, 0.084143280983, 0.046893879771, -0.071655377746, 0.112133875489, 0.149425372481, 0.030206631869, -0.104439213872, 0.066472105682, -0.024502979591, 0.066317871213, 0.037396281958, -0.002748726867, -0.192278504372, 0.124803446233, 0.151196911931, -0.146233454347, 0.233527734876, -0.006600133609, 0.195357322693, 0.241609916091, 0.014176823199, 0.082525655627, -0.124584905803, 0.100490689278, -0.168066889048, 0.154864773154, 0.030477212742, 0.138785704970, 0.178000181913, -0.171093136072, -0.135650396347, 0.015005309135, 0.177512198687, 0.153010129929, 0.013897036202, -0.092447765172, 0.193336144090, 0.190636292100, 0.001612719032, 0.269360810518, 0.073740810156, -0.166276589036, 0.117432750762, -0.142099902034, 0.103463850915, -0.054654639214, -0.134425312281, 0.042174968868, 0.137488499284, -0.074709251523, 0.040244203061, 0.121753394604, -0.059561371803, -0.103845961392, -0.041445855051, 0.134973227978, -0.030110655352, 0.116149857640, 0.227794244885, 0.144263014197, -0.017296791077, 0.255812078714, -0.073467865586, 0.177081912756, 0.082147978246, 0.092725053430, -0.168385684490, 0.238451421261, 0.499761879444, 0.143109202385, 0.342434883118, 0.835328280926, 0.827112793922, -0.021771501750, 0.228668093681, 0.061282392591, 0.136924937367, 0.497717469931, 0.398890078068, -0.039388656616, 0.217572450638, 0.002567264484, -0.042534887791, 0.159896165133, 0.137368038297, -0.127970218658, 0.263100981712, -0.018359225243, -0.072953879833, 0.118614085019, 0.028107030317, -0.087357506156, 0.207477509975, -0.091696895659, -0.083556324244, 0.133612751961, 0.001570055960, -0.043966311961, 0.162131056190, 0.015837911516, -0.084603570402, 0.061342891306, -0.050603218377, 0.013074996881, 0.114121578634, 0.001751414849, -0.081173583865, 0.074188157916, -0.071398906410, 0.019050199538, 0.048955582082, -0.057841643691, -0.031255088747, 0.049949977547, -0.057707689703, 0.000494695967, 0.105948604643, -0.052556231618, -0.058715905994, 0.110594198108, -0.119846709073, -0.002048264258, 0.016071710736, -0.046120367944, -0.038343146443, 0.050004031509, -0.109949037433, -0.005557536613, 0.026769496500, -0.033124651760, -0.056456297636, 0.066073544323, -0.116876155138, 0.022682918236, 0.032169826329, -0.029673393816, -0.039080336690, 0.049616806209, -0.065615117550, 0.028384294361, 0.031445257366, 0.038738559932, -0.029803488404, 0.034782238305, -0.085985004902, 0.044684793800, 0.060994330794, 0.006258248352, -0.033063009381, 0.035790879279, -0.053663764149, 0.013036168180, -0.012079331093, 0.018944337964, -0.010472198017, 0.025164796039, -0.044043321162, 0.036585394293, -0.008469792083, -0.004499154165, 0.222027912736, 0.141572415829, 0.249449342489, -0.078478470445, 0.070192627609, -0.042739905417, -0.114167444408, -0.031464044005, -0.123630635440, -0.086612746119, 0.256548732519, -0.009526997805, 0.142690613866, 0.577646672726, 0.442070543766, -0.058127053082, 0.248490199447, -0.049772880971, 0.121988855302, 0.607712090015, 0.409670382738, -0.128731608391, -0.023906325921, 0.004622526001, -0.040740109980, -0.179284393787, -0.006128184032, -0.007897853851, 0.008581742644, -0.203500151634, 0.037231046706, 0.253617137671, 0.103934459388, -0.031524315476, 0.048329304904, -0.073931820691, 0.013071106747, 0.063845351338, 0.013472872786, -0.054923888296, 0.086136497557, 0.020069194958, -0.069588541985, 0.046342425048, 0.037953641266, -0.018458984792, -0.000157799470, -0.027962910011, -0.000259669963, -0.030039926991, -0.032048616558, -0.030086776242, 0.042399477214, -0.019270041957, -0.032127268612, 0.046971470118, -0.022430410609, -0.023109879345, 0.097031734884, 0.019591333345, -0.033043235540, 0.010243169032, -0.024848582223, -0.095779970288, 0.046233113855, -0.066531486809, -0.034710906446, 0.116330794990, -0.100446343422, -0.009352825582, 0.101946949959, -0.086596943438, -0.054552786052, 0.024398567155, -0.013580356725, -0.005278234836, 0.010141052306, 0.001869123196, 0.047261271626, -0.040373507887, -0.052198980004, -0.071856200695, -0.041760042310, 0.004214747343, 0.002556014806, -0.035147387534, 0.031705476344, 0.044439781457, 0.711201071739, -0.075479298830, 0.152820438147, 0.315950155258, 0.000722223136, -0.379067301750, -0.015057905577, 0.108890660107, -0.062575757504, -0.067834191024, 0.001262638019, 0.136858239770, 0.019342446700, 0.248842552304, 0.117956250906, -0.188595518470, -0.093026161194, 0.197707101703, -0.053562916815, 0.009725740179, 0.045139547437, 0.042860608548, 0.036543276161, 0.143927305937, 0.021050194278, 0.064984977245, 0.130464285612, -0.066652163863, -0.031032199040, -0.007090491243, 0.058422181755, 0.072633579373, -0.035506553948, 0.032059554011, 0.050938423723, 0.035339057446, 0.052615482360, -0.052673343569, -0.055846124887, 0.065369255841, 0.043792724609, 0.067136287689, 0.120657436550, 0.038458272815, 0.103425718844, 0.017285799608, -0.053863540292, -0.090637445450, 0.121086150408, 0.142437160015, 0.050155244768, 0.054830703884, 0.094146639109, -0.091211095452, 0.057834323496, 0.053879529238, 0.101238355041, -0.067993238568, 0.012060069479, -0.113573841751, 0.091429956257, -0.160386964679, -0.080140136182, -0.054981280118, 0.036620300263, 0.070452556014, -0.075714237988, 0.189309805632, 0.169927373528, -0.007839946076, 0.017328122631, -0.057658903301, -0.050508003682, 0.076511792839, -0.011204823852, -0.004633247852, 0.211397483945, -0.063344493508, 0.102584660053, 0.103650286794, -0.082477517426, -0.167188197374, 0.024161247537, -0.041696183383, 0.029644494876, -0.007469566539, -0.025003310293, 0.004981318023, -0.199543550611, -0.063365586102, 0.375573605299, 0.131557822227, 0.696014106274, 0.789109349251, 0.661455869675, 0.111067064106, 0.099354781210, -0.005669266917, -0.041619058698, 0.110087700188, -0.102040886879, -0.044597983360, 0.237900257111, -0.037419464439, -0.096565559506, 0.118747204542, -0.026121946052, -0.066259957850, 0.126625418663, -0.012705476955, -0.063366211951, 0.037991013378, -0.023083817214, -0.025968693197, 0.045839637518, -0.013909339905, -0.030138920993, 0.052548795938, -0.052978225052, -0.022483451292, 0.058314833790, -0.012398469262, -0.052610863000, 0.029406813905, -0.043596871197, 0.032989587635, 0.103287018836, -0.011056696065, -0.065439805388, 0.095868900418, -0.081978671253, 0.027986697853, 0.022422794253, -0.042704194784, -0.039319649339, 0.054167065769, -0.047132380307, 0.036382183433, 0.047943878919, 0.019608890638, -0.038465335965, 0.024978784844, -0.000440638891, 0.008430816233, 0.057166196406, -0.011178442277, -0.068631999195, 0.058419711888, -0.018511448056, 0.040856033564, 0.070371031761, 0.044069245458, -0.040124021471, 0.066224023700, -0.025456689298, 0.021475479007, 0.039992198348, -0.036318544298, -0.056395884603, 0.110621541739, -0.045727174729, 0.029494697228, 0.041683379561, -0.007436914369, -0.078232266009, 0.055982373655, -0.004780308343, 0.097695007920, 0.032869823277, 0.001190795447, -0.052513111383, 0.027292408049, -0.040443666279, 0.040244765580, 0.037244413048, 0.073529981077, -0.014587637037, 0.041268814355, -0.020256200805, 0.037141829729, 0.091821230948, -0.002428135835, 0.102718837559, -0.168565750122, -0.023023840040, 0.285498827696, 0.213106051087, 0.185423225164, 0.245932981372, -0.217088684440, -0.041757225990, -0.039768636227, -0.131229072809, 0.169743731618, -0.008831778541, -0.145829200745, 0.178329870105, 0.365484386683, 0.234758093953, 0.133641138673, 0.033046115190, -0.140224874020, 0.095734350383, 0.168179437518, 0.099095106125, 0.016338773072, 0.064804434776, 0.079540722072, -0.058448705822, -0.066314741969, 0.212279111147, 0.221408247948, 0.079493477941, -0.131877571344, -0.119860805571, 0.220826178789, 0.186946570873, 0.159819319844, -0.021615583450, -0.041441660374, -0.095257654786, 0.116983629763, -0.051805235445, -0.002210790990, 0.046852402389, -0.185422897339, -0.166576460004, 0.204020500183, -0.002269965829, 0.140019252896, -0.101420424879, 0.192506626248, 0.022870196030, -0.110257238150, 0.004286892712, -0.110363207757, 0.258632808924, 0.021695403382, 0.055299311876, 0.105450615287, 0.094738140702, 0.079739063978, 0.020043464378, 0.089137934148, 0.021208463237, 0.035059992224, 0.098387159407, 0.189115405083, -0.128873333335, 0.117372147739, 0.082066580653, 0.279782623053, -0.133554145694, 0.133087217808, -0.011029562913, -0.050998032093, -0.169076964259, -0.019766842946, 0.036891229451, 0.154360741377, -0.064555130899, 0.043768346310, 0.061168782413, 0.060552723706, 0.196745917201, 0.028528831899, 0.024937612936, 0.069829329848, -0.117978543043, 0.232183694839, 0.053158633411, 0.107427202165, -0.047511249781, 0.045661468059, -0.153064534068, 0.055829338729, -0.048932433128, 0.131297558546, -0.040156561881, 0.129803568125, -0.028278902173, -0.054662529379, -0.014917151071, -0.009165514261, 0.230236127973, 0.015420556068, 0.052551325411, -0.109621003270, 0.088419899344, 0.154229328036, 0.030969979241, -0.108240239322, 0.065378218889, -0.061067037284, -0.057246141136, -0.020102998242, 0.174067273736, 0.071494691074, -0.136749967933, 0.082206949592, 0.166864201427, 0.215721279383, 0.079234778881, 0.136091783643, 0.186554387212, 0.090217992663, 0.248160645366, 0.029233468696, 0.279993027449, -0.075596243143, -0.158325925469, 0.180298626423, -0.152307808399, 0.141726210713, 0.268109768629, 0.114295966923, -0.150086745620, -0.140108853579, -0.105182170868, -0.005024717655, -0.084511660039, -0.040277194232, -0.019854161888, 0.255842387676, 0.005411610473, 0.215281352401, 0.264762580395, -0.168798118830, -0.063292540610, -0.095101714134, 0.167328059673, 0.037601515651, -0.056383557618, 0.043157644570, 0.116932503879, 0.095572680235, -0.155948728323, 0.043786361814, -0.070973142982, -0.096199676394, 0.103658683598, 0.046144261956, 0.055790994316, 0.159880623221, 0.220424592495, 0.022271631286, -0.196688070893, 0.198114261031, 0.002482892247, 0.232571542263, 0.106662735343, 0.057327687740, -0.072476692498, -0.049317613244, 0.057493828237, 0.000042022817, 0.037854947150, 0.140393897891, -0.102049261332, 0.142581939697, -0.030482372269, -0.001393077080, -0.140640988946, 0.044540859759, -0.090102739632, 0.212519168854, -0.159869372845, 0.018365100026, -0.157535672188, -0.200421065092, -0.291037142277, 0.330338299274, -0.105985820293, -0.007317504846, -0.150399371982, -0.135223224759, -0.203203961253, 0.286793261766, -0.119196996093, 0.037264887244, -0.094801433384, -0.148180276155, -0.136210858822, 0.219543546438, -0.120804511011, 0.051896203309, -0.081820301712, -0.128564223647, -0.151629418135, 0.278768479824, -0.081091746688, 0.054606061429, -0.049111429602, -0.147096931934, -0.038621231914, 0.249152213335, 0.013666889630, 0.072832547128, -0.066430822015, -0.043248988688, 0.001850414788, 0.174610897899, 0.017331140116, 0.070791326463, -0.034258455038, -0.102367416024, 0.034480061382, 0.172032907605, 0.000564318849, 0.059695929289, -0.028172895312, -0.122855260968, 0.026438275352, 0.145062163472, 0.085352040827, 0.009225451387, -0.054491139948, -0.036195438355, 0.092799998820, 0.154115363955, 0.015373506583, 0.072836682200, -0.039626441896, -0.086440496147, 0.099859833717, 0.117623403668, 0.014603304677, -0.031524166465, -0.025479307398, -0.024258730933, 0.044047292322, 0.127884283662, 0.021974697709, 0.026087811217, -0.037598486990, -0.039743531495, 0.103636100888, 0.115103200078, 0.049073956907, 0.030806818977, -0.057304661721, 0.027446130291, 0.051864717156, 0.113832376897, 0.101220235229, 0.004736729432, -0.068249292672, -0.025884808972, 0.067682355642, 0.182825505733, -0.057561427355, 0.028357712552, -0.109390191734, 0.027902670205, -0.042831562459, 0.404946833849, 0.034060608596, 0.015558543615, -0.162595942616, 0.000084151630, -0.027476748452, 0.341832488775, -0.043929111212, 0.046019244939, -0.062944993377, -0.137746572495, -0.005278110038, 0.297082602978, -0.013222984038, 0.059676837176, -0.064742356539, -0.132778823376, 0.089369110763, 0.278137117624, 0.025080267340, 0.085310585797, -0.126315295696, -0.100080125034, 0.053074095398, 0.350607752800, 0.168821528554, 0.022144917399, -0.134152263403, -0.072310999036, 0.119337536395, 0.266276508570, -0.002815602580, 0.027093239129, -0.027045834810, -0.222886130214, 0.113601364195, 0.343285948038, 0.069414347410, 0.078255243599, -0.080272644758, -0.133265525103, 0.072317384183, 0.317847043276, 0.081340312958, 0.038154046983, -0.049854729325, -0.177986845374, 0.056241974235, 0.325178265572, 0.127999380231, 0.119933314621, -0.094496428967, -0.071001611650, 0.107283756137, 0.309031009674, 0.119124084711, 0.083312027156, -0.029413303360, -0.090811751783, 0.043348543346, 0.319658011198, 0.098835527897, -0.008436591364, 0.005384958815, -0.078042574227, 0.084318563342, 0.366564899683, 0.125319108367, 0.044109065086, 0.034304551780, -0.072614349425, 0.044617753476, 0.304133176804, 0.145910531282, 0.011443713680, 0.038494087756, 0.095237806439, 0.152361810207, 0.357740312815, 0.230626687407, 0.047127142549, 0.008801516145, 0.065268479288, 0.169542849064, 0.330357819796, -0.065900310874, 0.091686040163, 0.012839133851, -0.124278210104, 0.007517210208, 0.090837314725, -0.168563604355, 0.194273188710, 0.090974837542, -0.265178591013, -0.051900390536, 0.158965840936, -0.209464088082, 0.212568104267, 0.141589567065, -0.203255519271, 0.108052656054, 0.235472097993, -0.021836791188, 0.206822544336, 0.094139568508, -0.019929595292, 0.114716388285, 0.137875631452, -0.008374268189, 0.119279354811, 0.091503903270, 0.043695807457, 0.100722312927, 0.091965183616, 0.072890356183, 0.033153083175, -0.004189352039, 0.111909978092, 0.049983806908, 0.057706668973, 0.095380790532, 0.045133490115, -0.024670502171, 0.133782312274, 0.084534943104, 0.056844647974, 0.089441314340, 0.010793599300, -0.071513585746, 0.137261837721, 0.049688942730, 0.077564135194, 0.028218522668, -0.042726393789, -0.066523320973, 0.242604106665, 0.021931817755, 0.126082390547, 0.025445690379, -0.023830913007, -0.056777145714, 0.355324715376, -0.042332910001, 0.084693662822, 0.163665220141, -0.053835529834, -0.102711260319, 0.241225749254, 0.035629890859, 0.127896606922, 0.030106434599, -0.140680715442, -0.133701592684, 0.185778006911, -0.131584018469, 0.149028256536, 0.063365884125, -0.054910585284, -0.065668836236, 0.243741989136, -0.122194141150, 0.080407679081, 0.063899897039, -0.071812070906, -0.006051252130, 0.339418530464, -0.103879749775, 0.155336603522, -0.029204566032, -0.060082141310, -0.017434613779, 0.274960100651, 0.019284721464, 0.188590094447, -0.103413447738, 0.101238429546, 0.037445664406, -0.037779215723, -0.189747691154, 0.178774148226, 0.035000473261, 0.125505819917, -0.022047141567, 0.097053468227, -0.192517027259, 0.163831859827, 0.028889238834, -0.143634140491, 0.031727757305, -0.150783181190, 0.019853526726, 0.172835305333, 0.088624767959, 0.136484757066, 0.093294173479, -0.122396185994, -0.134406849742, -0.049902379513, 0.153094351292, 0.261865675449, 0.110337145627, -0.079940028489, 0.030826633796, 0.063106723130, 0.203626111150, 0.066249519587, 0.163325935602, 0.098614171147, -0.089411601424, 0.179119750857, 0.190041378140, 0.031407538801, 0.067864432931, 0.081306241453, -0.067085936666, -0.063496172428, 0.060125056654, 0.072099506855, -0.111162692308, -0.091337554157, 0.080032676458, 0.040109224617, 0.021753018722, -0.057458728552, -0.078991368413, 0.076397582889, -0.244146257639, -0.034328136593, -0.104160360992, 0.111739255488, -0.032142311335, 0.054175462574, 0.144682094455, -0.034219712019, -0.168360322714, -0.063845857978, -0.268897563219, -0.040508750826, -0.463700503111, -0.045381460339, 0.110048197210, -0.129474252462, 0.121495559812, 0.116155259311, 0.138358041644, 0.073636479676, -0.143796324730, 0.077393688262, 0.024340884760, -0.292411953211, -0.054568313062, -0.027771495283, 0.297166675329, 0.017429698259, -0.017409270629, 0.234564200044, -0.002935671248, 0.071868747473, -0.032042890787, -0.089089527726, -0.042730256915, 0.105890758336, -0.020132329315, 0.116635732353};
#endif

#endif
