//Numpy array shape [16, 8]
//Min -1.011555433273
//Max 0.763294458389
//Number of zeros 0

#ifndef W28_H_
#define W28_H_

#ifndef __SYNTHESIS__
dense_16_default_t w28[128];
#else
dense_16_default_t w28[128] = {-0.564635515213, -0.355176389217, -0.323930352926, -0.512021422386, 0.140070736408, -0.258910536766, -0.585419237614, -0.134779527783, -0.060760222375, 0.051869440824, 0.412612080574, 0.126198440790, 0.159123435616, -0.376816958189, 0.124285273254, 0.126949980855, 0.274575978518, 0.097240291536, -0.273597568274, 0.109538018703, -0.530138075352, -0.057452160865, 0.353653579950, 0.174514517188, -0.570154845715, 0.145189061761, -0.752428591251, 0.216378077865, -0.304778099060, -0.082358807325, -0.521953284740, 0.222426578403, -0.281251281500, -0.169352769852, -0.408402770758, -0.212107449770, -0.348577976227, 0.080968357623, 0.013228641823, 0.088854044676, -0.200763866305, 0.230395749211, -0.282792866230, -0.101168148220, 0.083147220314, 0.477808594704, -0.087898559868, -0.052887123078, -0.937971949577, -0.272082149982, -0.246443599463, -0.535446524620, -0.462220698595, -0.382834523916, -0.722465634346, -0.549115240574, 0.488121837378, 0.247361809015, -0.273857682943, 0.300745666027, -0.078422240913, -1.011555433273, 0.331051528454, -0.513852477074, -0.135289981961, -0.073617376387, 0.283321976662, -0.125117197633, 0.307877779007, -0.092645093799, -0.240366250277, -0.056073766202, -0.060441683978, 0.243596255779, 0.349633038044, 0.002435931237, 0.138784915209, -0.036344744265, 0.159526780248, -0.208246558905, 0.061273012310, 0.096311740577, 0.197640329599, 0.111551024020, -0.339224517345, 0.116322182119, 0.267828583717, 0.132388994098, -0.269846618176, 0.235222265124, 0.040709313005, 0.206618353724, -0.269784331322, -0.027527334169, 0.061991088092, 0.154191359878, 0.243318915367, 0.155438214540, -0.240796923637, 0.404629707336, -0.287646174431, 0.317702531815, 0.763294458389, 0.421120733023, -0.457591086626, -0.030762376264, -0.145790666342, 0.346997618675, 0.110532730818, 0.024781832471, -0.568485617638, 0.618975937366, -0.124440677464, -0.053847733885, -0.486868053675, -0.098944678903, 0.387950897217, -0.122058629990, -0.259835392237, -0.311473429203, -0.071578457952, 0.335517078638, 0.287134826183, -0.015160149895, 0.187233477831, -0.026640284806, 0.197293996811, -0.356622636318};
#endif

#endif
