0.0853805, 0.1165436, 0.0640728, 0.0193669, 0.2541999, -0.0730138, -0.0567603, 0.0350604, 0.1683234, -0.1080642, 0.1072980, -0.0508538, 0.1230193, -0.1255273, -0.0904374, -0.0025140, 0.1543944, 0.2096402, 0.0049326, 0.1050544, 0.0924507, -0.0430717, -0.0717399, -0.1321894, -0.0286536, 0.0055995, 0.0302653, 0.1049168, -0.0975081, 0.0857336, -0.0618349, 0.0863810, 0.1051666, -0.1091325, 0.0268765, -0.1179975, -0.1628937, 0.2200382, 0.2513450, 0.0329963, 0.0383653, -0.1008296, 0.0337581, 0.1128105, 0.1775073, -0.1245949, -0.0401886, 0.1704759, 0.0654140, 0.1464014, 0.0876904, -0.0889402, -0.0439805, -0.1356740, 0.0367775, -0.1710190, -0.1853531, 0.0932383, 0.0948191, 0.2111907, 0.1352166, -0.1277294, -0.1131431, -0.0915605, -0.0182930, -0.0907740, 0.1486757, -0.0439533, -0.0290687, -0.0634897, -0.2288718, -0.1571861, 0.0333537, -0.1839065, -0.1595506, -0.0265216, -0.0933632, -0.2484820, 0.0342620, -0.0477495, -0.0336799, 0.0409397, 0.0815483, 0.1123469, -0.0266137, 0.0376124, -0.0816989, -0.0616291, 0.1690221, -0.0754527, 0.0480964, 0.0986759, 0.0236339, -0.1687448, 0.1138294, -0.2278398, 0.0755526, 0.2208247, 0.1592404, 0.0910994, -0.1668844, 0.2198193, -0.1951759, 0.1767103, -0.2003302, 0.0442226, 0.0999168, 0.0455695, 0.1524539, -0.0014243, 0.0814516, -0.0108187, -0.1257582, -0.2368326, 0.1202226, -0.1531270, -0.0803184, 0.0333591, -0.0502070, 0.0880181, 0.1065172, 0.1513307, -0.0464344, -0.3150215, -0.1797956, -0.0938459, 0.0599253, 0.0968248, 0.0946642, 0.0330733, 0.1425734, 0.0281868, 0.0050614, 0.1560434, -0.0306934, -0.0828298, 0.1485016, -0.1617511, 0.0616828, -0.1556693, -0.1058065, 0.1418218, 0.2060654, 0.1536350, -0.1483186, -0.0451581, 0.0270992, -0.1198219, -0.0442681, -0.1574087, -0.1338762, 0.0355192, -0.0528948, -0.2122110, 0.2176052, -0.2109001, -0.0938462, -0.0652352, -0.0343104, 0.1466648, -0.0951410, -0.0904199, 0.0274010, -0.1204876, 0.0108401, 0.0556661, -0.2279900, -0.0341407, -0.1820984, 0.1891830, 0.1553865, -0.1084761, 0.2125359, 0.1556569, 0.0816372, 0.2746539, -0.0073619, -0.2876084, 0.0198256, 0.0996324, 0.0404973, 0.0666129, 0.1238946, -0.0742651, 0.0466674, 0.0459570, -0.0290057, -0.1551936, -0.0001590, 0.0152911, -0.2835851, 0.2177265, 0.1608684, 0.0635935, 0.1491878, 0.2199271, 0.1454532, -0.0224141, -0.0052409, -0.1519067, -0.0556029, -0.0574946, -0.0575992, -0.0329188, -0.2688999, 0.0084572, -0.0254510, 0.2145887, 0.1820601, -0.0447075, -0.0650051, 0.0302363, 0.0267909, 0.0301082, -0.1652150, -0.1821045, 0.0940924, -0.0276509, 0.0319566, -0.0716093, 0.2101605, -0.1027953, 0.0229506, 0.1146338, -0.1560413, -0.0921346, 0.1881871, 0.1149862, 0.0096839, -0.1304299, -0.0300032, 0.1140741, -0.2217462, 0.1491864, 0.1262632, -0.0160224, -0.1390952, -0.0830797, -0.1326547, 0.0873222, 0.0292957, 0.0024451, -0.0225002, -0.0285715, -0.1290289, -0.0769896, 0.1223185, 0.1537246, 0.0966801, -0.0943103, 0.2567286, 0.2641567, -0.0546055, -0.2228741, -0.0773362, 0.2168085, -0.2012051, 0.0689053, -0.0217841, -0.1855083, 0.0413529, 0.0949825, -0.3674181, 0.0865342, -0.1283526, 0.0023746, -0.1068246, 0.0132409, 0.1695404, 0.0168735, -0.0367462, -0.1470376, -0.1414980, 0.0349221, -0.0413977, 0.0944444, -0.1540431, 0.0405931, -0.0234649, 0.0021011, -0.0325770, -0.1335292, 0.0546981, 0.1358287, 0.0304360, -0.1550646, -0.1746684, 0.0696121, 0.0296026, -0.0949931, -0.0818598, 0.1088686, 0.2048982, -0.0498595, -0.1566636, 0.1370227, 0.0846478, -0.0049103, 0.1287782, -0.3576857, -0.0921120, 0.0870785, -0.0533932, 0.0869337, 0.0923429, -0.1504548, -0.1135985, 0.0115736, 0.0898433, 0.1536200, -0.2904200, 0.2267628, 0.0273460, -0.0941500, -0.1008924, 0.0775119, 0.3347562, -0.0799531, -0.1417229, -0.0181532, 0.1251909, -0.1236287, -0.1137915, 0.1811306, 0.1993908, 0.0638790, 0.0897478, -0.0565658, -0.1827233, -0.1243165, -0.0871355, 0.1521201, 0.0817835, -0.1113559, -0.2462522, -0.0395573, 0.2508151, 0.1987874, -0.0263765, -0.2225383, 0.0098524, 0.1252020, 0.0101978, 0.1069804, 0.1469431, -0.2094079, 0.1752983, 0.2358436, -0.0038772, 0.0372183, 0.0191391, -0.0792221, -0.0122540, -0.2886792, -0.1133196, 0.0837516, -0.0576102, -0.0290311, 0.1345298, 0.0536533, -0.0281093, -0.0905936, -0.0230847, -0.1228751, -0.0724746, 0.1580980, 0.0344738, -0.0672425, -0.0041560, -0.0570963, 0.1994358, 0.2787190, -0.2590370, 0.0444579, -0.0184132, -0.1916434, -0.2414192, -0.2610276, 0.0304365, -0.0441951, 0.0318839, 0.0361645, 0.1172582, 0.1007274