0.0917982, 0.0205807, 0.1897328, -0.2557413, -0.1219278, -0.1327584, 0.0341962, -0.2196397, -0.0451661, -0.1535499, 0.0012820, -0.0308028, 0.1282521, -0.0371245, 0.0102216, 0.1456190, -0.1760043, 0.1002579, 0.2805777, 0.0920398, -0.0287741, -0.3095466, -0.0207742, 0.2712548, 0.0752995, 0.3964771, 0.1740588, -0.0286345, 0.0028639, -0.0407747, -0.1361170, 0.1237342, 0.0233323, 0.0071623, 0.1290787, 0.1596807, 0.0543706, 0.2342042, -0.2246922, 0.1886387, 0.1179136, 0.1313866, 0.1610594, 0.0890975, 0.0933249, 0.0853234, 0.1431593, -0.0181931, -0.0228869, -0.2184565, 0.0416308, -0.0860316, -0.1565250, 0.1101161, -0.1449222, -0.2243847, 0.2483355, -0.0750001, 0.1279517, 0.0946734, -0.1527563, 0.0391221, 0.0426181, -0.3220728, 0.0463992, 0.1154626, -0.1968307, 0.1990495, 0.1613849, -0.1312545, 0.0307563, -0.2834170, 0.0829329, 0.3299554, -0.0845801, -0.0568075, 0.0703531, -0.0544669, 0.1531375, -0.0408379, -0.1153022, -0.3444831, -0.0618601, -0.0500350, -0.0321429, 0.1311296, 0.0488142, -0.0248681, 0.0886263, -0.1578712, -0.1754401, -0.3161538, 0.0562510, -0.2345302, -0.0363365, 0.0411347, -0.0066044, -0.1365169, -0.2730583, 0.1772647, -0.1437064, -0.0424963, 0.0980136, 0.1229235, 0.0222648, -0.1576439, -0.1466278, -0.1836222, -0.2131077, 0.0491212, -0.1102364, -0.0562730, 0.2336852, -0.0629452, -0.2537943, -0.1137002, -0.0126107, 0.1342384, 0.0145932, -0.0501980, -0.0882554, 0.1123800, -0.0311920, 0.1003501, 0.0354459, 0.0030871, -0.1730799, -0.1481978, 0.1838387, -0.1808773, 0.0650395, -0.1583997, 0.0217858, 0.3692254, 0.2624857, 0.1600591, -0.0934962, -0.2730404, 0.2068490, 0.1144923, 0.1437251, -0.1802806, 0.1499835, 0.2240029, -0.2080002, -0.0807113, -0.1307210, -0.1536372, 0.1556825, -0.2235349, -0.0962673, -0.1392398, 0.1796157, 0.0292887, -0.1706495, -0.1110128, 0.1622661, 0.2104334, -0.1642658, 0.2753432, -0.0170877, 0.2503948, 0.0321905, 0.1543964, 0.0377818, 0.0801887, -0.0378022, 0.0119069, -0.0757161, -0.0235885, -0.0964831, -0.1345224, 0.1911759, 0.1332920, -0.0364918, -0.0092849, 0.1120128, 0.1771029, -0.0361440, -0.0266317, -0.1293575, -0.1304737, 0.1545007, -0.2477571, -0.1008039, -0.1004636, 0.0349407, -0.1895534, 0.0848523, 0.0283933, 0.0318866, 0.1572743, 0.1172939, 0.1230313, 0.1955322, 0.1754811, -0.0553224, 0.0051113, -0.1166600, 0.2043866, 0.0576941, -0.0936701, 0.0524696, -0.1780343, 0.0980828, -0.2868385, 0.1899245, 0.0480525, 0.2191035, -0.1226768, -0.0632526, 0.1649786, -0.0307845, 0.1374211, 0.2177405, -0.0475077, 0.1564980, 0.0706545, -0.2434119, 0.1214541, -0.0629679, -0.3148404, 0.3031596, 0.0126640, 0.1877794, -0.0400110, 0.1068284, 0.3126455, -0.0459341, 0.0991179, -0.0816789, 0.2696338, -0.0556069, 0.1773067, -0.3270174, -0.1922122, -0.1183222, 0.3829646, -0.0800801, -0.1188162, -0.1256269, -0.2436975, -0.1233334, 0.0620673, 0.0194935, 0.1082957, 0.0310203, -0.0233855, 0.2685567, 0.3228503, 0.2313912, 0.3177088, 0.0930139, 0.1588796, -0.1483889, 0.2406241, -0.1775538, -0.2628189, -0.0159101, 0.1359912, 0.2344919, -0.0924006, -0.0862240, 0.2730796, 0.1339580, -0.3165712, -0.3393597, -0.1018445, -0.0542678, -0.0024059, 0.1015115, -0.3602968, 0.2896150, 0.3452637, 0.0289557, 0.1661175, -0.2406078, 0.0701521, -0.0088781, 0.0716369, 0.0332514, 0.1156955, -0.1758365, 0.2033713, 0.1622380, -0.1575751, -0.2061448, -0.2593534, 0.0049620, 0.2510437, 0.3184223, -0.0021078, -0.2276305, 0.2305145, 0.1347892, -0.1080331, 0.0862722, 0.1511623, 0.1122386, 0.2044465, 0.3070138, 0.2624552, 0.3596624, 0.0343269, 0.0944030, -0.1456725, 0.0617957, 0.1859612, 0.3371420, -0.0945668, 0.0489584, 0.0413135, -0.0980507, -0.0739229, 0.2108541, -0.1026263, -0.0290437, -0.0796390, 0.1410908, 0.1831032, -0.3543616, -0.2343725, 0.2298668, -0.3746047, -0.0684902, -0.0463976, -0.2686223, 0.0319334, -0.0807359, 0.2663667, 0.2745457, -0.3589116, -0.1917231, -0.0041744, -0.0209530, 0.2071215, 0.2278935, -0.2026707, -0.2557442, -0.1892617, 0.2829447, 0.2558015, 0.0323836, 0.1131095, -0.3568398, -0.1123962, 0.0115919, 0.0182618, 0.0780384, 0.1830330, -0.0454933, 0.2403719, -0.1282763, -0.1919453, 0.1139744, -0.2643541, 0.1624355, 0.3261816, 0.2193899, 0.0056082, -0.0178051, -0.0511831, -0.0584382, -0.3675696, -0.0070530, -0.2441424, 0.0277989, 0.3822002, -0.1238426, 0.0562151, 0.1679671, -0.0689827, 0.0378283, -0.1394843, 0.0587739, -0.1407472, -0.2524810, 0.1323408, 0.0206709, -0.1840753, 0.2794944, 0.2853898, -0.1524544, -0.0342294