//Numpy array shape [2, 6, 32]
//Min -0.638840079308
//Max 0.647791743279
//Number of zeros 0

#ifndef KEY_WEIGHT16_H_
#define KEY_WEIGHT16_H_

#ifndef __SYNTHESIS__
q_multi_head_attention_47_default_t key_weight16[384];
#else
q_multi_head_attention_47_default_t key_weight16[384] = {-0.1259813, 0.2202324, -0.1095022, -0.0417722, 0.1110569, -0.1807695, -0.2593701, 0.0300480, -0.2700916, 0.0120888, -0.1275258, -0.0615066, -0.1294992, -0.2295043, 0.0787278, -0.1364041, 0.0032980, -0.1969743, 0.2395472, 0.1623881, 0.0900625, -0.2214560, -0.2624437, 0.1113097, 0.0324323, 0.1180409, 0.3072754, -0.2634633, 0.2060982, -0.1891002, -0.1921896, -0.1736504, -0.1456044, -0.2820802, -0.2927785, 0.3732215, 0.1010343, -0.1699508, 0.1089184, 0.2173732, 0.1091047, 0.1133820, 0.2833140, 0.5164357, -0.0781219, -0.2834287, 0.3707917, -0.1586864, 0.4293262, 0.3217109, -0.0515773, 0.1904042, 0.2688161, -0.0757292, 0.6477917, -0.2191169, 0.5582439, -0.0497188, -0.2478450, -0.1742875, 0.0049862, -0.1340602, 0.1087048, -0.2494341, -0.1183174, 0.1665055, -0.0355659, 0.0743826, -0.0713455, 0.0785270, -0.1674592, -0.0129131, -0.1047549, 0.1556295, 0.0110137, 0.1374999, -0.0350154, -0.0610016, -0.0333661, -0.1656415, 0.0114730, -0.1683190, 0.2025055, 0.0471992, -0.0903068, -0.0210651, -0.1059846, 0.0187058, -0.2120527, 0.1139806, 0.0093654, -0.2924070, 0.0519779, -0.4189670, -0.0476316, -0.1255833, 0.0584670, 0.2588575, 0.2172446, 0.2223446, 0.1330607, -0.1793788, -0.0873068, -0.3276570, -0.2825833, 0.2030089, -0.1374298, -0.0254187, -0.1859083, 0.0701981, 0.1827532, -0.0692945, 0.0804222, -0.0969350, 0.2222633, 0.2060240, 0.2654915, -0.0572168, 0.0220631, 0.0795507, -0.0205442, -0.0196314, 0.0398277, 0.0688423, 0.1153944, -0.0572821, -0.0308131, -0.3279381, -0.1746143, -0.0365096, -0.2560415, -0.0228708, 0.0844463, -0.2082563, 0.1001706, -0.0134798, 0.1978346, 0.0316951, -0.0494780, 0.0073554, -0.1705388, -0.1784863, 0.0155281, 0.0935624, 0.1596138, 0.0111034, 0.1068966, 0.1111345, 0.1971207, 0.0252075, 0.1015273, -0.2190730, 0.2859340, -0.0926031, 0.1462785, -0.1324847, -0.1224524, -0.0013798, -0.2069653, 0.0696324, 0.0746780, -0.0785577, -0.1594576, 0.2518498, 0.1544500, 0.1014507, -0.1808034, -0.0539637, -0.2464269, -0.0122424, -0.0346449, -0.0281457, 0.4421866, 0.1111980, 0.0474216, 0.0558802, 0.0968436, -0.0928709, -0.2436675, 0.2554652, -0.0903283, -0.1191747, -0.6388401, -0.0569620, -0.3188113, -0.0748387, 0.1843227, 0.2008986, -0.0216411, 0.0764583, 0.3532254, 0.3132666, -0.3895828, -0.1317637, -0.6314360, 0.1567456, 0.1216305, -0.2338882, 0.2892920, -0.4814088, -0.1643566, -0.0704015, -0.4643050, -0.5329186, 0.4308401, 0.0177432, 0.3768046, -0.3473835, -0.3607692, -0.0374397, 0.1082418, 0.2719361, 0.4622407, -0.1996634, -0.1070312, 0.2959541, 0.1758493, -0.5036186, 0.0934433, 0.2843710, -0.2354254, 0.2367350, -0.5235365, 0.2254569, 0.2020126, -0.1404587, 0.1946534, 0.0236718, 0.0417829, 0.1214674, -0.3229060, -0.0180953, 0.1482619, -0.0004451, 0.2056420, 0.1719791, 0.0062540, -0.0108355, -0.1273482, -0.0307911, -0.0037974, 0.0444351, -0.2407933, -0.1183226, -0.0279148, -0.0012529, 0.3673505, 0.2817321, -0.2102091, 0.1106300, -0.0110553, -0.1609097, 0.0797979, -0.0990631, -0.0676912, -0.2192767, 0.2637712, 0.2192329, 0.0959199, -0.1405274, 0.1624799, 0.3316462, -0.1506329, 0.1900765, 0.2312012, 0.1468246, 0.1880117, 0.1260532, 0.0023031, 0.0318383, -0.2666945, -0.0840250, 0.2228382, -0.0375731, -0.2014282, -0.2455272, -0.2742685, -0.0201449, 0.1149123, 0.0165034, -0.2118057, 0.0839942, -0.3138999, -0.0879309, 0.2226292, -0.1123231, 0.3429956, -0.1840436, -0.0675924, -0.1052629, -0.3621050, -0.0475703, 0.2434991, 0.0580028, 0.0472729, -0.0147454, -0.0550801, 0.0357557, -0.3121615, -0.1375788, 0.2642442, -0.2917561, 0.2317014, -0.3066972, 0.0590841, -0.3171316, 0.1338523, 0.1767993, 0.3442980, 0.0347928, -0.1832547, 0.1247954, 0.0944906, -0.3438577, 0.1287222, 0.0850410, -0.2577566, 0.1139767, -0.0820374, 0.2063329, 0.3266372, 0.0538241, 0.3903139, 0.0094244, 0.0966908, 0.2324927, -0.2158030, 0.1785439, 0.2040892, 0.0264991, 0.3427229, 0.3136495, -0.0424193, -0.1522605, -0.2074856, -0.0369949, 0.1080326, -0.1154277, -0.2186984, -0.1704700, -0.2473794, 0.1599565, 0.2149095, 0.0964867, -0.1565666, 0.1385831, -0.1887873, -0.2255558, 0.1567104, -0.0935056, 0.1466070, -0.1865479, 0.2816121, -0.1037061, 0.1909961, 0.1360098, -0.2248177, 0.2870626, 0.3165421, 0.2510476, 0.1343969, 0.0020666, -0.1297616, -0.1459806, 0.0115667, 0.0370780, -0.2049461, -0.0204821, -0.0726667, -0.0278912, -0.1496825, -0.0663519, -0.2031060, 0.1378404, 0.2426232, -0.1205400, 0.1426946, 0.0169273, -0.1338970, 0.3324193, -0.2399150, -0.1711248, 0.2091815, -0.1173305};
#endif

#endif
