//Numpy array shape [2, 6, 32]
//Min -0.213196694851
//Max 0.239174574614
//Number of zeros 0

#ifndef VALUE_WEIGHT9_H_
#define VALUE_WEIGHT9_H_

#ifndef __SYNTHESIS__
q_multi_head_attention_46_default_t value_weight9[384];
#else
q_multi_head_attention_46_default_t value_weight9[384] = {-0.0566804, -0.0122249, -0.0900167, -0.0546232, 0.0314427, -0.0317909, -0.0009455, 0.0023000, 0.0306714, -0.1190970, -0.0704379, 0.0271752, 0.0062971, -0.0529799, -0.0312147, -0.0730344, -0.0698597, -0.0448510, 0.0747317, 0.0312254, -0.1404209, -0.0494807, 0.0944270, 0.0878151, 0.0150739, -0.0304779, -0.0325660, -0.1091189, 0.1133563, -0.1375706, -0.0704327, -0.0939737, -0.0361661, 0.1478292, 0.0623314, -0.0182421, 0.1440786, 0.1328692, -0.0705378, 0.1358760, -0.0594228, 0.0703490, 0.0315798, -0.0111882, 0.0905769, 0.0303004, 0.0797353, -0.0061224, 0.1381573, 0.0343685, -0.0636501, 0.0308820, -0.1947075, 0.0610409, 0.0401122, 0.1314953, 0.0626172, -0.1550080, -0.0952978, -0.0264330, 0.0357411, -0.1484195, -0.0646245, 0.0791944, 0.0164191, -0.0775015, -0.0828557, -0.0194956, -0.0884037, 0.0069148, -0.1914446, 0.1043565, -0.0882774, 0.0742851, -0.0282839, 0.0576063, -0.1553764, 0.0936383, 0.1037119, 0.1011693, 0.0699495, -0.0206492, -0.1255517, 0.1263637, 0.1259638, -0.0935510, 0.1531968, 0.0473736, -0.0315749, 0.0299815, -0.0954853, 0.0801878, 0.0338910, -0.0206560, -0.0934857, -0.0695115, 0.0937252, 0.1520659, 0.0161563, -0.1059776, -0.0340519, -0.0273798, -0.0302262, 0.0935267, -0.0404358, -0.0202974, 0.1780450, 0.0424416, 0.0638366, 0.0479366, -0.0868867, 0.1524156, 0.0939668, 0.1424586, -0.0248232, 0.0308856, 0.0343576, -0.0598555, 0.0919347, 0.0071617, 0.1580036, 0.0387622, 0.0039731, 0.0947364, -0.0529848, -0.0203554, 0.0853323, 0.1423053, -0.1568465, -0.0214285, -0.0725126, -0.0027965, 0.1375001, 0.0139206, 0.0900484, -0.0501245, 0.0021428, -0.0940387, -0.0916155, 0.0115332, 0.0933613, -0.0813867, -0.1560807, 0.0030366, 0.0187939, 0.0308998, 0.0760194, 0.0144158, -0.0306327, 0.0339800, -0.0931683, 0.0143426, -0.0281618, -0.0581408, 0.0643102, 0.0052435, 0.0773571, -0.1068162, 0.0934495, 0.0599473, -0.1520767, -0.0535102, -0.0556861, -0.0099808, -0.1284695, 0.0559310, 0.0213622, -0.1202984, 0.0916560, -0.1350861, 0.0919129, 0.1367956, 0.1360683, -0.0643047, 0.1009550, 0.1129335, 0.1560252, -0.0331908, -0.0451026, 0.0923559, -0.0206846, -0.1564724, 0.0667826, -0.2131967, -0.1173561, -0.0038526, -0.0866070, -0.0283593, -0.0665297, 0.2391746, -0.1484406, 0.0484048, -0.1624637, 0.0983739, -0.1772808, -0.0342187, 0.0574116, 0.1549629, 0.0605690, 0.0013967, 0.1263309, -0.1478487, 0.0707948, 0.0762404, -0.0930951, 0.0639385, 0.0240529, 0.1592212, -0.0928567, -0.0935164, 0.0477075, 0.0497591, -0.0310881, -0.1645004, 0.1041498, 0.1047088, 0.1642797, 0.0711360, 0.0502432, -0.0279017, 0.0969786, -0.0635521, -0.0566909, -0.1567851, -0.0220615, 0.0946673, 0.1597583, -0.0378470, -0.0849540, 0.0857915, 0.0533228, 0.1483199, 0.1257161, -0.1087049, -0.0743524, -0.0355616, 0.0435085, 0.0703945, 0.0489011, 0.0711076, -0.1056373, -0.0924449, 0.0933210, -0.0708706, -0.0792738, 0.1033572, 0.1233723, 0.1604830, 0.1456371, -0.0257044, 0.0935427, 0.2133787, 0.0910888, -0.0381317, 0.0810281, -0.1737729, 0.0222994, -0.0377838, 0.0238219, 0.0067956, -0.0769474, -0.1924294, -0.0535123, 0.0416202, -0.1487463, -0.0961717, 0.0316017, -0.0112101, 0.0149888, -0.0286730, 0.1618844, -0.0656564, -0.0320181, 0.2138743, 0.0252742, -0.1422021, -0.0193728, 0.1356069, 0.0107900, 0.0312472, 0.0227491, -0.0472279, 0.0901733, -0.0189194, -0.1476624, -0.1123380, 0.2078631, -0.1313669, 0.1183938, -0.1012056, 0.0598971, -0.1003306, 0.0945318, 0.0523886, 0.0863686, -0.0960001, 0.0773014, -0.0387870, 0.0283312, -0.1597661, -0.0781110, -0.0952187, -0.0976476, -0.0893132, -0.0397289, -0.0286403, 0.0956958, 0.0334510, 0.1581556, 0.1535573, 0.1194477, -0.0090445, -0.0659944, -0.0877597, 0.0287981, 0.0065452, -0.0805900, 0.1564736, -0.0325130, 0.0461971, 0.0316293, 0.1119838, 0.1880582, -0.0309707, 0.0141254, 0.1043995, 0.0320911, -0.0319357, 0.0319578, 0.1243329, -0.0165171, 0.1118454, 0.1309582, 0.0918316, 0.0206688, -0.0606007, 0.0302339, -0.0981096, -0.0290937, -0.0311285, -0.1293832, 0.0152885, 0.0589168, -0.0325133, 0.1215471, 0.0712905, -0.0445520, 0.0992288, 0.0530099, 0.0431776, -0.0500073, 0.0308347, -0.0069299, 0.1527516, 0.0113843, 0.0946678, 0.0926624, -0.0933360, -0.0868443, -0.0016720, 0.1064526, -0.0658550, 0.1071636, -0.1475440, -0.1179638, 0.0306557, -0.0307753, -0.0167519, 0.0887034, 0.0540162, 0.1308954, -0.1140996, -0.0231261, 0.1333093, 0.0157544, -0.0357571, -0.0325960, 0.0917026, 0.0018548, -0.1461505, -0.0828744, -0.1422696, -0.1397088, 0.0381387};
#endif

#endif
