//Numpy array shape [2, 6, 32]
//Min -0.307406604290
//Max 0.320714265108
//Number of zeros 0

#ifndef VALUE_WEIGHT16_H_
#define VALUE_WEIGHT16_H_

#ifndef __SYNTHESIS__
q_multi_head_attention_47_default_t value_weight16[384];
#else
q_multi_head_attention_47_default_t value_weight16[384] = {0.0017834, 0.0955418, 0.1253689, -0.0802983, -0.1109798, -0.0336327, 0.0871816, -0.0417980, -0.0299852, -0.0876173, 0.0699287, 0.1846895, 0.0475963, 0.1780169, -0.0952336, 0.0788252, -0.0553821, -0.0649834, 0.0499317, 0.0976888, -0.0295747, -0.0547923, -0.1143865, -0.1343427, 0.0032293, -0.0417135, -0.1279168, -0.0538379, -0.0123700, -0.0642390, 0.1465264, 0.0917319, -0.0540324, 0.0987780, 0.1636018, -0.0877154, -0.2186556, -0.0814236, -0.1103196, -0.1815939, -0.0322556, 0.1763578, 0.0817503, -0.1125400, -0.0940541, -0.0263558, -0.1761338, 0.0142063, -0.0352988, -0.0901294, 0.0677917, -0.0586409, -0.1765380, 0.0619454, -0.1560443, 0.0570855, 0.0846408, 0.0463605, -0.0265002, -0.0923334, 0.1318821, 0.1031745, -0.0012726, 0.0000445, -0.1511849, -0.0909202, -0.0934918, -0.1280668, -0.0716063, 0.1194824, -0.1094224, -0.0464118, -0.1067244, -0.1268015, -0.1502137, 0.1345000, 0.0195614, 0.1365911, 0.0621898, -0.0939179, 0.0472499, 0.0485371, -0.0385166, 0.1156537, 0.0978046, 0.0317338, -0.0855318, -0.0595673, 0.1104390, -0.0978176, 0.0058672, -0.0751788, -0.0723120, 0.0132362, -0.0175007, 0.0519136, 0.1767592, 0.1622575, 0.0306185, 0.1631493, -0.0941576, 0.0302223, -0.0829211, 0.1763682, 0.0335451, -0.0611226, 0.1671498, 0.1034402, 0.1787301, 0.1208259, -0.0395883, 0.1210625, 0.0993242, -0.0631531, 0.0539202, 0.0350209, -0.0703183, -0.0854237, -0.1516581, -0.0319738, -0.0311421, -0.0291080, -0.0665327, 0.1363882, 0.0960775, -0.1839276, 0.1139995, 0.0820437, 0.0917957, -0.0272501, 0.0572058, 0.1416609, 0.1407241, 0.0523065, -0.1555688, -0.0384435, 0.2220626, -0.1027090, 0.1166917, -0.1483757, -0.1296367, 0.0951694, -0.1103266, 0.2486953, -0.0015451, 0.2390308, -0.0702055, 0.0303706, 0.0563346, -0.0706479, -0.1571019, -0.1420195, -0.0518650, 0.0296057, -0.0262909, -0.1019396, -0.0753849, -0.1404695, 0.0466099, -0.1377250, -0.0289193, 0.0114965, -0.0307095, -0.2559989, -0.0326926, -0.2083128, -0.0285543, 0.0445130, -0.0210844, 0.0939694, 0.0261339, -0.0140763, 0.0571073, -0.0356132, 0.0351022, 0.0195770, -0.0537734, 0.1061589, 0.0213336, -0.0008426, 0.0535098, -0.1839069, 0.2162626, -0.1145775, 0.1667536, 0.0536421, 0.0120349, 0.0383966, -0.1045352, 0.0177906, 0.0034574, -0.1949163, -0.1055721, 0.1615043, -0.0361445, -0.0957847, 0.0990111, -0.1230913, -0.1284529, -0.0380889, -0.1120503, -0.0986602, 0.1864604, -0.1373565, -0.1240077, -0.2493547, -0.0041500, 0.2208721, -0.1090436, -0.2233967, -0.2028464, -0.1202606, -0.0994291, 0.0356061, -0.0929401, -0.2823319, -0.0620300, -0.0706360, -0.0164482, -0.2476397, 0.1665808, -0.0228275, 0.1363000, -0.1278058, 0.1472432, 0.0926976, -0.1049664, -0.0232234, 0.1024033, 0.0549012, 0.1247938, -0.0373822, -0.0844345, 0.1886780, -0.1309544, -0.0319149, 0.0793141, 0.0401395, 0.0539331, 0.2113027, 0.1101352, 0.0226253, 0.0577090, -0.1407353, -0.0954504, 0.0560925, 0.1046040, 0.1078946, -0.1452109, 0.0678026, 0.1598275, -0.1353155, 0.1030981, -0.0421132, -0.0767389, 0.0310341, -0.0310175, -0.1166041, -0.0455676, 0.1665920, -0.0895218, 0.3201949, 0.2359968, -0.1913640, 0.0176544, 0.3207143, -0.0834092, 0.2005143, -0.2196711, 0.2600869, 0.0063215, -0.1936138, 0.1531145, 0.2696956, 0.2133036, 0.0486107, -0.0298674, -0.2576128, -0.1686489, -0.0449941, 0.0939508, -0.2169804, -0.2503214, 0.1453107, -0.0915543, -0.1587935, 0.0522417, 0.0670242, 0.0668162, -0.0382478, 0.0232112, 0.0238225, 0.2840129, 0.1365327, 0.0601314, 0.1545467, 0.1197164, 0.0028723, -0.1546606, -0.0988776, -0.0843575, 0.0721310, 0.0163865, -0.0977180, -0.3074066, 0.2151160, -0.1419099, -0.2621262, -0.1032930, -0.1189613, 0.0265397, 0.1344447, 0.1580005, -0.0950794, -0.1067500, 0.0292749, -0.0965344, -0.1523293, -0.1981587, 0.1575012, -0.0309257, -0.0826852, 0.1724802, 0.0264896, 0.1397067, -0.0983354, 0.1174653, -0.0469196, -0.1769755, 0.2008511, 0.0328058, -0.1931812, 0.1959240, 0.1799891, 0.0560105, -0.0176540, -0.0887258, 0.0025520, -0.1073132, -0.1639625, -0.0431285, 0.0212844, -0.1008089, 0.1441832, 0.0117951, 0.0799878, 0.0619159, 0.0277487, -0.0601396, -0.1771899, 0.0354245, 0.0043696, 0.0562071, -0.0910011, -0.1731194, -0.1614219, 0.0231853, 0.1934426, 0.0337035, -0.2785552, -0.0106665, 0.1210309, -0.2331668, 0.0812372, 0.1447702, -0.1556689, -0.0509518, -0.0534744, 0.1233908, 0.0329486, 0.0210085, 0.0410176, 0.0963690, -0.0204410, 0.1437677, 0.0939037, 0.1308927, 0.0161834, -0.0893985, -0.2135541, 0.1264041, -0.1091894, 0.0987432, -0.1983762};
#endif

#endif
