//Numpy array shape [2, 6, 32]
//Min -0.522809088230
//Max 0.544938206673
//Number of zeros 0

#ifndef KEY_WEIGHT9_H_
#define KEY_WEIGHT9_H_

#ifndef __SYNTHESIS__
q_multi_head_attention_46_default_t key_weight9[384];
#else
q_multi_head_attention_46_default_t key_weight9[384] = {-0.188274145, -0.170252278, 0.025176851, 0.107288659, -0.031222427, -0.190988198, -0.222160131, 0.140368149, 0.107680634, 0.059294201, -0.165804341, 0.116702683, -0.310996056, 0.222528726, -0.267504364, 0.395112991, 0.094869442, -0.047018174, -0.124683820, 0.104347385, 0.081971273, 0.178234532, 0.238518223, 0.286515415, -0.145861715, -0.054808281, -0.437835842, -0.198592931, -0.315837294, -0.060987253, 0.170698285, 0.196683988, -0.146332994, 0.246617481, 0.165573567, -0.004121348, 0.291710854, -0.187696055, -0.162449107, 0.266893923, 0.163324878, -0.035889175, 0.077584118, -0.074829705, 0.040485751, -0.082082026, 0.211703464, -0.018897748, 0.098310292, 0.020953638, 0.298019856, 0.215221345, 0.115716502, 0.266075850, 0.054271352, 0.048611369, 0.318358094, 0.083315536, 0.018207187, -0.245320961, -0.150190830, -0.024241567, -0.117120981, 0.242110401, 0.159594953, 0.296372920, -0.075621530, 0.019921964, 0.095813222, -0.223312393, -0.244151428, 0.080013916, 0.202436507, 0.051260583, 0.042924073, 0.327251166, 0.259080440, -0.280912578, 0.159317300, -0.393193185, 0.085386470, 0.423642337, 0.100204177, 0.119592965, 0.075312652, 0.059629153, -0.022258092, -0.173544839, 0.101673089, 0.277018487, 0.184535608, -0.065799236, 0.031935748, 0.247684509, 0.230488092, -0.034179203, 0.094271153, 0.018269332, 0.085233286, 0.078308322, 0.154948860, 0.024658719, -0.283859670, -0.146910563, 0.009005443, 0.228651389, -0.283545077, -0.120744765, 0.027496556, -0.198124826, 0.069269158, 0.043907706, 0.091502488, 0.207924217, -0.176760837, -0.038124956, 0.215018630, 0.048134726, -0.129196525, -0.023056980, 0.423182726, 0.141406357, 0.247208223, 0.102366574, -0.222870752, -0.202800423, -0.147793382, -0.053317290, 0.126459464, -0.187943414, -0.118289828, -0.207553819, -0.075180404, -0.105988033, 0.145456746, -0.027244050, 0.247137710, -0.209635749, 0.145820290, 0.161012709, -0.064894758, -0.098598309, 0.005755100, 0.191521719, 0.078902036, -0.021570537, 0.124027722, 0.069672339, 0.177244201, 0.195905209, -0.199066550, 0.014909598, -0.210585013, 0.016033938, -0.017826485, 0.032607179, -0.040161379, -0.158886507, 0.141583338, -0.235021323, 0.037750039, 0.150614604, -0.522809088, 0.136372417, -0.102899291, -0.024062313, -0.163155079, -0.305832297, 0.044339843, -0.176411361, -0.358127207, -0.315184265, -0.022568479, -0.200937673, 0.199471012, -0.033742394, 0.078684285, 0.206398472, 0.305868417, -0.168348759, 0.079298042, 0.209078714, -0.144224480, -0.092350438, 0.169045091, 0.040511277, 0.204299361, 0.169101864, 0.156701699, -0.342534602, -0.216795310, -0.295809627, -0.163354799, 0.161713824, 0.073811054, -0.088381089, 0.178954676, 0.229607597, 0.163915917, 0.114514969, 0.126759946, -0.016180394, -0.107344739, -0.200593174, -0.178843603, -0.106960967, 0.094337180, 0.003121138, -0.053409368, -0.239119321, 0.184647202, -0.112434708, -0.073453188, 0.225389943, -0.185828701, -0.032251827, -0.145093873, -0.154888079, -0.105948478, -0.249920905, 0.009890550, 0.197493479, -0.111941606, 0.031744961, -0.026743639, -0.276647985, 0.236511812, -0.176007763, 0.083724774, 0.039932832, -0.173625231, 0.219556987, -0.087849759, -0.224395171, 0.049365208, 0.194688231, -0.166530535, 0.095887877, -0.033254828, 0.116947152, -0.017069053, 0.108060993, 0.033169765, -0.212557346, 0.258172095, 0.125007063, 0.138178125, 0.191863850, 0.051372029, -0.066445298, 0.051242188, 0.057182275, 0.209566221, 0.222664535, -0.121844880, 0.111981928, 0.012717742, -0.215725243, 0.223544240, 0.132499442, 0.270193338, 0.282976955, 0.002378691, 0.286044091, 0.219328076, -0.111741133, -0.023540718, -0.364572108, 0.129022181, -0.074102394, 0.094962746, 0.093773574, -0.082927689, -0.125399709, 0.289585739, -0.262747914, 0.233950153, 0.062531374, -0.407386810, 0.200150594, 0.018944843, 0.045970842, -0.103261553, -0.142760247, 0.210183859, 0.245411694, 0.061547719, 0.132371932, -0.094204314, -0.134415388, 0.123376802, 0.260262400, -0.043470979, -0.028194826, -0.165616393, 0.024603982, 0.154583454, -0.053662520, -0.308266431, -0.169560045, 0.096085727, 0.169664457, 0.130750328, 0.284000933, 0.095392421, -0.068001844, 0.054265987, -0.031285934, -0.090189122, 0.108003065, -0.317473948, 0.143244132, -0.267908156, -0.084410913, -0.103073433, 0.165936872, 0.185211048, 0.405961037, -0.281895399, -0.222503737, 0.106477112, -0.109292515, -0.090464950, -0.319478571, -0.188936561, 0.111668564, -0.262879252, 0.265381455, -0.217289105, -0.408896595, 0.330779403, 0.544938207, -0.150427863, 0.151636273, -0.422286153, -0.032317054, 0.152053043, -0.264135838, 0.147688746, -0.186117589, 0.294214636, -0.236282781, 0.250367105, 0.277163327, 0.349120408, 0.171836108, 0.201304778, 0.145733878, 0.423831433, -0.100299776, 0.078959011, 0.181148872, 0.116428442, -0.059076667, 0.085905433, 0.344133496, 0.041085970, 0.143908188, -0.008698554, -0.099100523, 0.279766768, -0.088249847, -0.196649149, -0.276084691, 0.113668986, -0.090000607, 0.263153642, -0.279564321, 0.136316478, 0.168139890, 0.071229212, -0.125331894, 0.164184943, -0.235589504, -0.254159898, 0.039616343, -0.286258101, -0.127604812, -0.081172772, 0.080870226, 0.074420750, -0.152759537, 0.045115829, 0.062191349};
#endif

#endif
