//Numpy array shape [2, 32]
//Min -0.771858692169
//Max 0.889924168587
//Number of zeros 0

#ifndef QUERY_BIAS16_H_
#define QUERY_BIAS16_H_

#ifndef __SYNTHESIS__
q_multi_head_attention_47_default_t query_bias16[64];
#else
q_multi_head_attention_47_default_t query_bias16[64] = {0.045912385, -0.701385736, -0.099130332, 0.135797247, 0.088765845, 0.069064327, 0.181987152, 0.094518207, 0.148437470, 0.017414335, 0.353951842, 0.155438662, 0.324315399, 0.030910626, 0.062667191, 0.108219273, 0.163305342, 0.199441850, -0.359956622, -0.070310436, -0.081267513, 0.129784241, 0.140290603, -0.229478657, 0.095559433, -0.166400537, -0.474601477, 0.163031250, -0.205323189, 0.027454291, 0.398785204, 0.394468755, 0.453604668, 0.282826245, 0.717057765, -0.248287320, -0.089676149, 0.557461679, -0.264327437, 0.695310652, 0.432478547, 0.220687389, 0.462087452, 0.505173445, -0.771858692, -0.140024155, -0.434726655, 0.524497211, 0.534853339, 0.030509833, -0.371765882, -0.412495613, -0.532068193, 0.354801744, 0.291111320, -0.221321538, -0.219873488, 0.889924169, -0.381039500, -0.395331562, 0.330808967, -0.477593273, 0.592987120, -0.324288040};
#endif

#endif
