-0.152296364, 0.087727882, -0.225393042, 0.212592065, -0.032034148, -0.088617623, -0.221276581, 0.037850402, 0.077260569, -0.101315953, -0.246436357, 0.084957242, -0.083534203, 0.085834175, -0.069645882, 0.101638012, 0.005043882, 0.127568886, 0.206148535, 0.050403114, 0.005168273, 0.254229546, 0.195784941, 0.078013889, 0.092365935, 0.138679400, -0.068455301, 0.003878399, -0.219257548, -0.034854770, 0.004247129, -0.001916145, -0.092574209, 0.274322987, 0.285151273, 0.023989353, 0.355756372, -0.312086791, -0.166660830, 0.292914212, 0.215253055, 0.190764576, 0.163658246, 0.148500204, -0.058865409, -0.145136639, 0.083613694, -0.019325409, 0.179775104, -0.080032274, 0.131425366, 0.221385166, 0.222946599, 0.112273403, 0.007357493, -0.007481884, 0.168976009, 0.124786124, -0.202543974, -0.239553720, -0.264355123, 0.084215403, 0.141298339, 0.258422971, 0.094545566, 0.154779360, 0.154623315, -0.085534140, 0.140427604, -0.214072213, 0.111264072, 0.232573509, -0.074455261, 0.094098195, 0.102356672, 0.465491354, 0.123494111, -0.057825547, -0.109545551, -0.268894315, 0.073549815, 0.195293725, -0.097134478, 0.157263994, 0.036397859, -0.133278891, 0.135311857, -0.118648753, -0.218484581, 0.101036407, 0.062054057, -0.129739866, -0.046065729, 0.337254167, 0.394196063, -0.064321637, -0.039315484, 0.193229377, 0.083689399, 0.154991657, 0.228109345, 0.000239737, -0.193243250, -0.027162867, -0.167570248, 0.374419510, -0.434777886, -0.302901119, 0.042882644, -0.138845086, 0.056668483, 0.004536035, 0.146897718, 0.150214329, -0.231322423, -0.086530939, 0.010882553, -0.036226526, 0.136196434, 0.093888916, 0.265394777, 0.093296729, 0.186811775, 0.006240581, -0.294993937, -0.139359340, -0.189436659, 0.023842854, 0.061548904, -0.096318565, -0.030080050, -0.171129361, -0.029981291, -0.071119212, -0.023221286, 0.112601131, 0.021297432, -0.093774877, 0.128300488, -0.067596920, 0.146536991, 0.103643581, 0.054059546, 0.016640292, -0.033810485, -0.034229863, 0.060678370, 0.124810942, 0.049566671, 0.090873815, -0.104821622, -0.084036760, 0.009705343, 0.149331108, 0.067654423, -0.077755332, -0.084719077, -0.061465997, -0.154049113, -0.124662757, 0.026256468, -0.233974338, -0.435661405, -0.170758173, -0.128447950, -0.096780390, -0.063772060, -0.117646798, 0.209076554, -0.008305114, -0.154905632, 0.118328966, -0.236799136, -0.072276287, -0.165456384, 0.313108832, 0.143331081, -0.045337886, 0.072778128, 0.038671985, 0.224851012, 0.228435516, -0.073000662, 0.088046685, -0.197828680, -0.014192670, -0.100211263, 0.029737752, -0.177914500, -0.205377385, 0.274783999, -0.219629869, -0.124067098, 0.093954526, 0.156502604, 0.153851330, 0.060703382, 0.185905427, 0.164507955, 0.008831888, 0.334840894, 0.010627213, -0.093420610, -0.133733958, 0.101562075, -0.307028890, 0.090984993, 0.004574481, 0.006793990, -0.076985843, 0.261476874, -0.153785020, 0.111414306, -0.085773014, -0.256818384, 0.015978051, -0.021403192, -0.034829382, 0.017521361, -0.216498852, 0.024972366, -0.037134457, 0.070834793, 0.202116579, 0.001132220, 0.163476110, -0.243104428, -0.034892980, -0.104473174, -0.062690824, 0.273008555, -0.220486432, 0.109339640, 0.366537839, -0.069011532, -0.055057261, -0.078591995, -0.158457115, 0.059081107, -0.327795804, -0.002372376, 0.008840133, -0.077354617, 0.247533530, -0.396034867, 0.013918943, 0.059764609, -0.297593832, -0.095104747, 0.014419216, -0.115235806, 0.013274106, -0.293806106, -0.186723784, 0.041109513, 0.022650445, -0.062194664, -0.177607045, 0.100027531, 0.342380345, 0.088924311, 0.262823582, -0.126369223, 0.062771149, 0.284193724, -0.092927180, -0.192959115, -0.167846203, 0.144634321, 0.078849979, 0.093101300, -0.033507548, 0.113346078, 0.003784947, -0.011553157, -0.192730248, 0.053818531, 0.007430558, -0.342691571, 0.182506457, -0.254119843, 0.021476936, 0.047790181, 0.133734643, 0.105060168, 0.211064696, -0.008514783, -0.063029639, -0.135765940, 0.144976124, -0.128947675, -0.248658791, -0.092511989, -0.062140077, 0.091957435, -0.212099373, -0.394410521, 0.040238362, 0.038304698, 0.148210749, -0.065165535, 0.045859680, -0.281085312, 0.124889813, -0.090404548, 0.124663360, -0.215302825, 0.126903772, -0.031667363, -0.198482901, 0.469532430, 0.050968047, 0.241291150, 0.185412139, 0.210683674, -0.075052880, -0.242778033, -0.313975424, 0.293783396, -0.017666379, 0.036718667, -0.034793403, 0.055048686, 0.281479239, 0.007975832, -0.104770333, -0.069132105, -0.278957486, 0.168809354, 0.130871654, -0.042611241, -0.105847329, 0.469881117, -0.058618777, 0.138427198, 0.029962605, -0.125197634, 0.293960780, -0.148390651, 0.041468136, -0.098907426, -0.109891631, -0.044499245, -0.136590675, -0.045866337, -0.010564683, -0.101383038, 0.145847604, -0.074773923, -0.068584636, 0.104034111, -0.197711512, -0.020249754, -0.122378930, 0.031704333, -0.358793736, 0.220861718, 0.230755344, 0.135561779, 0.182472378, 0.061376445, -0.098669320, 0.097216763, 0.094616301, -0.015724815, -0.065888382, -0.018551169, 0.112426504, -0.104305558, -0.233866438, 0.206523240, -0.149225593, 0.014085753, 0.187150747, 0.128194973, 0.099592991, 0.196097642, 0.118911050, 0.015631031, -0.172076911, 0.147233799, 0.157581687, -0.080322541, 0.167392164