0.074535049, 0.298809528, 0.242147729, -0.366801828, -0.556196034, -0.483396441, 0.282931328, 0.125104770, 0.331401527, 0.320819050, 0.345326722, 0.258110046, 0.161958396, -0.124792941, 0.447698236, 0.109970361, 0.471544355, 0.134671077, -0.312404066, 0.322816491, -0.008367459, -0.201679379, -0.354542047, 0.286678314, 0.312083572, -0.101257317, 0.138381526, 0.150370196, 0.180489868, -0.321972042, -0.350603819, -0.171183944, -0.008313832, -0.002757185, 0.069491602, -0.005476912, 0.034753136, 0.262221366, -0.057176519, 0.239215076, 0.045561951, -0.142674059, 0.083142012, 0.208157465, 0.011505872, 0.124680601, 0.120416746, -0.037273046, -0.222220570, 0.070546351, 0.163099870, -0.227081016, 0.003051144, 0.053042583, -0.140970394, -0.106538266, -0.271617502, -0.116910301, -0.349520952, 0.108696550, 0.070154116, 0.020474624, 0.189596564, -0.233637825, 0.318142354, -0.245219290, -0.351112962, -0.014804787, 0.169027910, 0.203283876, -0.187964767, -0.233298406, -0.036705166, 0.015131665, -0.326304972, -0.143929169, -0.026471112, 0.016707040, -0.225087553, -0.000028875, -0.275848120, -0.302755117, 0.176904485, -0.127600253, 0.120264031, 0.197305992, 0.140798658, -0.050605934, -0.023854321, -0.268630296, 0.152011469, 0.043216463, 0.052380536, -0.046315197, 0.207761735, 0.306900978, -0.007338884, -0.284965187, 0.080599301, 0.238651946, 0.052294791, 0.043172348, 0.083805121, -0.106375426, -0.178782403, -0.238958538, -0.049133513, 0.089745164, -0.207713321, -0.180035993, -0.063560881, -0.167192414, 0.011184192, -0.282545537, 0.286510110, 0.184530199, 0.104646407, 0.152847484, -0.062555738, 0.167998090, -0.157076716, 0.072053768, -0.210889146, -0.076817311, 0.001086592, 0.182667539, 0.000333175, 0.094650924, 0.308502972, 0.002488886, 0.114395343, 0.161796197, -0.139831573, -0.162151471, 0.244528130, -0.096033007, -0.190799803, 0.092788123, -0.218387648, 0.004369820, 0.021830996, 0.196457207, 0.126909226, -0.188840732, -0.030868461, 0.411085993, 0.357865036, -0.227710232, 0.042903192, -0.030608898, 0.008481542, 0.169005886, 0.050676122, -0.312663108, 0.015630804, -0.065962806, -0.089249134, -0.523704469, 0.077434883, -0.031081541, 0.078864746, 0.177973241, -0.039861832, -0.131397039, -0.214453012, 0.010260239, 0.016470352, 0.255472183, 0.171761811, 0.217019722, 0.238239735, 0.041305032, -0.028920341, -0.067605101, 0.000088686, 0.002521731, 0.057027575, -0.098556466, -0.063765466, -0.049362920, -0.007698599, -0.053480763, 0.092141487, -0.227416530, -0.101749979, -0.005350007, 0.216030553, 0.116455726, 0.189036399, 0.203730658, 0.018086556, -0.090572245, -0.331023425, -0.110406138, -0.254997283, 0.015735228, 0.208003744, 0.102189280, -0.306278169, 0.123299129, -0.262350917, -0.052572720, -0.031138595, 0.122694418, -0.008459977, -0.168276966, 0.122145548, 0.149400368, -0.172684997, -0.161357284, -0.295864612, -0.128840119, 0.023735141, 0.258533537, -0.052672822, -0.069058783, 0.221689552, 0.150907636, -0.234282449, -0.193294257, -0.081157990, -0.001699090, 0.173322111, -0.232071131, -0.142224625, 0.116547652, 0.153418586, 0.145819217, 0.186962098, 0.173980519, 0.187786490, -0.154712781, -0.038146820, -0.194160059, 0.024503667, -0.196580604, 0.090927735, -0.132404834, -0.203165367, 0.074931435, 0.074959964, -0.098837458, -0.204883292, -0.041769769, 0.198691115, 0.015832560, -0.066786967, 0.132744595, 0.090223961, 0.002849204, 0.077377982, 0.134396702, -0.105358541, 0.204934984, 0.032138322, -0.059137978