-0.313645929, 0.312366098, -0.208267748, -0.120476782, 1.082191825, 0.107677504, 0.203464776, 0.122039214, -0.455292523, 0.132068217, 0.195578545, -0.130793020, -0.148272023, 0.490379781, 0.293802083, -0.413845450, 0.049230643, -0.049323399, -0.317146540, -0.254401475, -0.082153544, -0.059058491, 0.386859506, 0.079133935, -0.130442917, -0.100952663, 0.126815394, -0.265881866, 0.240923718, -0.443125725, -0.090190604, -0.310684979, -0.134623155, -0.051041164, -0.116480395, 0.153426945, 0.126454309, 0.054294854, 0.220537767, 0.157714054, 0.004427255, -0.264884442, -0.191801190, 0.047631651, 0.197929248, 0.074591234, -0.144071713, -0.228084728, -0.020882023, 0.234861478, 0.066446222, 0.120511852, 0.139436260, -0.317381799, -0.048980873, -0.256060988, 0.188246638, -0.173829675, 0.091704629, -0.133454204, 0.255442828, -0.051785182, 0.191811547, -0.114210382, 0.065028958, -0.203792617, 0.243351951, -0.032108493, -1.031108856, 0.186900586, -0.208910719, -0.074535042, 0.146260366, 0.024675231, 0.317989826, 0.247812927, -0.264907539, -0.133534521, -0.308451980, 0.299453944, -0.327663183, -0.104804665, 0.236595407, 0.284461081, 0.183228940, -0.112242743, -0.051894501, -0.280428559, 0.061403424, 0.118928850, -0.300724417, 0.486320823, 0.113197029, 0.358614475, 0.168501854, 0.214020506, 0.279773593, -0.360002726, 0.010950306, -0.105193906, -0.931908250, 0.094415471, -0.236357391, 0.256360263, 0.353101939, -0.168886840, 0.134161919, 0.185038075, 0.213391438, -0.305679530, -0.190292761, 0.435064465, -0.054991659, -0.362540394, 0.149346158, 0.202272132, -0.080630124, 0.252937406, -0.251492530, 0.027422244, 0.321598470, 0.040414337, -0.295426935, 0.109241918, -0.130132824, 0.505965352, 0.317317188, 0.179814249, -0.469296336, -0.104288563, -0.063044630, -0.293392837, -0.146314025, 0.152538702, -0.237290591, 0.040800851, 0.787071943, -0.243160501, -0.357013494, 0.536044538, 0.033295497, -0.121765777, 0.153595880, 0.088609509, -0.017899226, -0.422943383, 0.586197317, 0.335451752, 0.057604294, 0.208463460, 0.249873355, 0.359073371, -0.099804461, 0.146549433, -0.042878136, -0.158302665, 0.126928955, 0.274263859, 0.440388232, 0.071898319, 0.088775732, 0.247917131, -0.017009594, -0.036046717, -0.227526262, 0.309531987, -0.066066764, -0.112792872, -0.204751670, 0.031030493, -0.269003481, 0.177300185, -0.138513491, 0.134354338, -0.261648923, -0.182354927, -0.252329439, -0.121581540, 0.138592213, 0.106079131, 0.115279540, 0.193783984, 0.113405190, 0.101644330, -0.258439839, 0.153044939, 0.145464614, 0.237371415, -0.119407587, -0.006029034, 0.239269495, -0.043409761, 0.297887623, -0.027835030, -0.231837466, -0.020026008, -0.099552989, -0.150462940, 0.294248253, 0.265066326, -0.331222326, 0.229560316, -0.082849413, -0.151749939, -0.034836054, -0.120546676, -0.103342839, -0.186504766, 0.228117213, 0.373828471, -0.543179333, -0.256636828, -0.070861600, 0.056821946, -0.062607422, -0.211970955, -0.104570322, -0.188302398, 0.067453884, -0.296945006, -0.172538862, -0.263639659, -0.182793960, -0.116666526, 0.317393094, 0.279234529, -0.050748710, -0.096559942, -0.122980602, 0.042258319, 0.160699472, 0.231414035, -0.846336663, -0.038417399, 0.489191234, -0.003188625, -0.116907291, 0.228331521, -0.054465115, 0.221433178, 0.237991795, 0.473516911, -0.736642897, -0.125152379, -0.121023834, -0.338628143, -0.173934713, -0.277768403, 0.126216441, 0.137596369, 0.143225789, 0.091054298, 0.077146493, 0.213835374, -0.054658916, -0.370590836