//Numpy array shape [2, 32]
//Min -0.205379843712
//Max 0.229686006904
//Number of zeros 0

#ifndef QUERY_BIAS14_H_
#define QUERY_BIAS14_H_

#ifndef __SYNTHESIS__
q_multi_head_attention_1_default_t query_bias14[64];
#else
q_multi_head_attention_1_default_t query_bias14[64] = {0.078885213, -0.035819110, 0.049247131, -0.038879104, -0.103080481, -0.141861275, -0.017579667, -0.146410868, 0.051103082, -0.054069512, -0.041326601, -0.042294040, -0.076683089, -0.205379844, 0.092330620, 0.109152928, 0.103487320, -0.032036439, -0.087227814, 0.195136249, 0.050945271, -0.010607647, -0.048728004, 0.086858273, 0.229686007, -0.078885213, 0.201191232, -0.012020493, 0.025951719, 0.019182414, -0.117897898, 0.086598918, -0.092303522, -0.108519271, -0.054418974, 0.113568708, 0.108735226, -0.141844839, -0.093590848, -0.112124339, -0.110755108, -0.096457243, -0.082010403, 0.106310807, -0.097383037, -0.012142166, -0.112866707, 0.092942998, -0.015866524, 0.118800171, 0.118269071, -0.022931922, 0.093117282, 0.151318923, -0.065834507, 0.120051704, 0.045702163, 0.139083654, -0.109018929, -0.106732033, -0.123360984, -0.027062133, 0.112423502, -0.114462815};
#endif

#endif
