0.160685658, -0.029850222, 0.110415913, 0.003163283, 0.202550605, -0.203961790, 0.096914232, -0.031715877, -0.058221880, -0.207167864, -0.060422376, 0.277212560, 0.046639659, -0.275162578, 0.044420417, 0.025075736, 0.127078906, -0.144552395, -0.128516808, -0.172173917, -0.134502321, -0.116835311, -0.192652568, 0.157604396, -0.096887723, -0.163574979, -0.136132419, -0.185465217, 0.138222143, 0.118720576, 0.087475479, 0.086606018, 0.225259647, -0.345068425, -0.199801698, -0.194735542, 0.196230993, -0.105866358, 0.041205350, -0.040171470, -0.053653792, 0.230412573, 0.227057844, -0.070868984, 0.008247581, 0.196341261, 0.049295176, -0.173492163, 0.286293119, -0.211517543, 0.041596085, -0.245062441, 0.054965757, 0.182712927, 0.023778366, -0.034561165, 0.216531858, 0.139214426, -0.063883178, -0.092722505, 0.110412523, -0.096036851, 0.096897662, -0.005574171, -0.421989948, 0.206756741, 0.251288980, 0.330995977, 0.194312528, -0.298598766, -0.142907664, 0.154331729, 0.326925069, -0.319277704, -0.124181539, -0.014632749, -0.006033222, 0.062205184, 0.068379357, -0.098103173, 0.090596445, -0.212413460, 0.402695477, -0.032374293, -0.166624293, 0.101081714, -0.389062136, 0.231473356, -0.365734577, 0.073410496, -0.152330667, 0.353382230, -0.252581656, -0.319014519, 0.416668504, 0.176181331, -0.058052152, -0.137201980, 0.068485290, -0.313808262, 0.184025750, 0.181802273, -0.038155273, 0.251740247, -0.241773695, 0.106958456, 0.146287933, -0.147231609, 0.202721938, 0.010026138, -0.221454501, -0.240474924, 0.067933097, -0.169490084, 0.097544119, 0.010712236, 0.063023537, 0.174407676, 0.230188906, -0.220430776, 0.212488726, -0.033918571, 0.181206152, -0.047312882, 0.223624349, 0.373325080, -0.069206379, 0.158689201, 0.155147001, 0.061697017, -0.068011597, -0.195995629, 0.036597081, 0.061170023, -0.206983030, -0.156493232, 0.235787079, 0.268053800, 0.018353892, 0.025441533, 0.136986420, -0.149026081, 0.183417231, 0.225664198, -0.217663810, -0.296951205, -0.223173440, 0.151924029, 0.237270504, 0.086820401, 0.048380371, -0.133508101, 0.192118347, -0.203143239, -0.096208557, 0.154348150, -0.038274735, -0.164644063, 0.021534534, 0.134844720, -0.185275033, 0.237476245, 0.113528751, -0.192984283, -0.154451922, -0.265205175, 0.156625390, -0.102145053, 0.113892972, -0.097167537, 0.196152315, -0.198454753, -0.072893478, 0.084201910, -0.168842584, 0.208593264, -0.181294516, 0.134407625, -0.285543233, 0.209469780, 0.056503978, 0.209621727, 0.125292420, -0.050195608, 0.227867365, 0.241368398, 0.190780431, -0.134336263, 0.061476201, -0.127086967, 0.216410458, -0.193314224, 0.099111728, -0.002281413, 0.006659834, -0.112024195, -0.294027895, 0.314361274, -0.219757527, 0.127244785, -0.105668150, 0.013984749, -0.259867847, 0.039207816, -0.176532596, -0.125399500, 0.194218189, -0.033576988, 0.227866799, 0.218541607, 0.298748076, -0.024462400, -0.043085013, 0.001696622, -0.231660202, -0.232360318, 0.135308087, 0.139266551, -0.128884166, -0.247215629, -0.170584783, 0.073319614, 0.046894744, -0.307928532, -0.312579870, -0.185600847, -0.029251624, 0.152972981, 0.116558492, -0.090272725, -0.074454807, 0.128182635, 0.054675724, -0.199238569, 0.084947333, -0.112381630, -0.087251812, -0.071871273, -0.261553854, -0.233805209, 0.042567071, -0.052717686, 0.049306061, 0.149788707, -0.034267161, -0.202676713, 0.043409698, 0.204727218, -0.275364399, -0.118732914, 0.256998479, -0.054446965, -0.020903595, 0.032236077, -0.132077470, -0.069756605