//Numpy array shape [2, 6, 32]
//Min -0.638840079308
//Max 0.647791743279
//Number of zeros 0

#ifndef KEY_WEIGHT16_H_
#define KEY_WEIGHT16_H_

#ifndef __SYNTHESIS__
q_multi_head_attention_47_default_t key_weight16[384];
#else
q_multi_head_attention_47_default_t key_weight16[384] = {-0.12598130, 0.22023243, -0.10950220, -0.04177224, 0.11105692, -0.18076947, -0.25937006, 0.03004797, -0.27009156, 0.01208880, -0.12752582, -0.06150658, -0.12949920, -0.22950429, 0.07872784, -0.13640408, 0.00329801, -0.19697432, 0.23954722, 0.16238815, 0.09006254, -0.22145596, -0.26244372, 0.11130968, 0.03243228, 0.11804087, 0.30727535, -0.26346326, 0.20609818, -0.18910022, -0.19218959, -0.17365040, -0.14560443, -0.28208020, -0.29277846, 0.37322152, 0.10103429, -0.16995083, 0.10891842, 0.21737319, 0.10910469, 0.11338199, 0.28331396, 0.51643574, -0.07812189, -0.28342870, 0.37079170, -0.15868643, 0.42932624, 0.32171091, -0.05157727, 0.19040418, 0.26881605, -0.07572922, 0.64779174, -0.21911688, 0.55824387, -0.04971880, -0.24784502, -0.17428745, 0.00498623, -0.13406019, 0.10870484, -0.24943407, -0.11831737, 0.16650553, -0.03556586, 0.07438263, -0.07134548, 0.07852705, -0.16745920, -0.01291311, -0.10475495, 0.15562952, 0.01101374, 0.13749988, -0.03501537, -0.06100163, -0.03336614, -0.16564153, 0.01147296, -0.16831896, 0.20250550, 0.04719919, -0.09030681, -0.02106505, -0.10598464, 0.01870582, -0.21205275, 0.11398062, 0.00936540, -0.29240704, 0.05197795, -0.41896704, -0.04763161, -0.12558332, 0.05846701, 0.25885746, 0.21724460, 0.22234458, 0.13306066, -0.17937878, -0.08730680, -0.32765704, -0.28258330, 0.20300893, -0.13742982, -0.02541867, -0.18590830, 0.07019805, 0.18275319, -0.06929454, 0.08042217, -0.09693503, 0.22226329, 0.20602404, 0.26549149, -0.05721682, 0.02206307, 0.07955071, -0.02054425, -0.01963139, 0.03982767, 0.06884230, 0.11539438, -0.05728209, -0.03081308, -0.32793805, -0.17461428, -0.03650962, -0.25604147, -0.02287084, 0.08444632, -0.20825626, 0.10017058, -0.01347981, 0.19783461, 0.03169511, -0.04947798, 0.00735544, -0.17053875, -0.17848629, 0.01552814, 0.09356242, 0.15961379, 0.01110337, 0.10689665, 0.11113446, 0.19712073, 0.02520747, 0.10152735, -0.21907304, 0.28593403, -0.09260308, 0.14627853, -0.13248473, -0.12245239, -0.00137978, -0.20696531, 0.06963236, 0.07467799, -0.07855769, -0.15945761, 0.25184980, 0.15445003, 0.10145070, -0.18080340, -0.05396369, -0.24642690, -0.01224235, -0.03464491, -0.02814570, 0.44218662, 0.11119796, 0.04742159, 0.05588017, 0.09684360, -0.09287086, -0.24366753, 0.25546518, -0.09032831, -0.11917470, -0.63884008, -0.05696203, -0.31881127, -0.07483870, 0.18432270, 0.20089863, -0.02164109, 0.07645829, 0.35322544, 0.31326663, -0.38958284, -0.13176368, -0.63143599, 0.15674560, 0.12163051, -0.23388816, 0.28929201, -0.48140877, -0.16435656, -0.07040151, -0.46430498, -0.53291857, 0.43084013, 0.01774324, 0.37680465, -0.34738353, -0.36076924, -0.03743965, 0.10824182, 0.27193615, 0.46224067, -0.19966339, -0.10703120, 0.29595414, 0.17584926, -0.50361860, 0.09344328, 0.28437105, -0.23542541, 0.23673503, -0.52353650, 0.22545688, 0.20201255, -0.14045872, 0.19465344, 0.02367183, 0.04178289, 0.12146738, -0.32290605, -0.01809532, 0.14826195, -0.00044515, 0.20564204, 0.17197907, 0.00625401, -0.01083551, -0.12734815, -0.03079108, -0.00379742, 0.04443505, -0.24079333, -0.11832264, -0.02791478, -0.00125292, 0.36735052, 0.28173208, -0.21020906, 0.11063001, -0.01105531, -0.16090967, 0.07979789, -0.09906305, -0.06769121, -0.21927673, 0.26377118, 0.21923289, 0.09591993, -0.14052740, 0.16247994, 0.33164620, -0.15063293, 0.19007647, 0.23120125, 0.14682461, 0.18801171, 0.12605320, 0.00230312, 0.03183830, -0.26669446, -0.08402503, 0.22283816, -0.03757313, -0.20142825, -0.24552721, -0.27426854, -0.02014486, 0.11491226, 0.01650339, -0.21180573, 0.08399423, -0.31389993, -0.08793092, 0.22262922, -0.11232309, 0.34299555, -0.18404360, -0.06759238, -0.10526286, -0.36210498, -0.04757034, 0.24349913, 0.05800277, 0.04727295, -0.01474537, -0.05508010, 0.03575569, -0.31216151, -0.13757877, 0.26424423, -0.29175612, 0.23170140, -0.30669722, 0.05908410, -0.31713158, 0.13385235, 0.17679934, 0.34429801, 0.03479277, -0.18325472, 0.12479537, 0.09449065, -0.34385774, 0.12872224, 0.08504096, -0.25775659, 0.11397666, -0.08203740, 0.20633294, 0.32663721, 0.05382410, 0.39031392, 0.00942441, 0.09669078, 0.23249272, -0.21580301, 0.17854390, 0.20408919, 0.02649908, 0.34272286, 0.31364951, -0.04241932, -0.15226051, -0.20748563, -0.03699492, 0.10803257, -0.11542767, -0.21869844, -0.17047000, -0.24737938, 0.15995647, 0.21490949, 0.09648672, -0.15656656, 0.13858308, -0.18878730, -0.22555582, 0.15671042, -0.09350561, 0.14660698, -0.18654792, 0.28161210, -0.10370613, 0.19099605, 0.13600978, -0.22481769, 0.28706256, 0.31654215, 0.25104761, 0.13439691, 0.00206665, -0.12976156, -0.14598058, 0.01156674, 0.03707795, -0.20494612, -0.02048210, -0.07266670, -0.02789125, -0.14968248, -0.06635194, -0.20310596, 0.13784038, 0.24262322, -0.12053996, 0.14269464, 0.01692727, -0.13389696, 0.33241934, -0.23991503, -0.17112477, 0.20918149, -0.11733045};
#endif

#endif
