//Numpy array shape [2, 6, 32]
//Min -2.231344223022
//Max 2.320457696915
//Number of zeros 0

#ifndef KEY_WEIGHT2_H_
#define KEY_WEIGHT2_H_

#ifndef __SYNTHESIS__
q_multi_head_attention_45_default_t key_weight2[384];
#else
q_multi_head_attention_45_default_t key_weight2[384] = {-0.08449771, 0.19922823, 0.06282811, -0.00633414, -0.19790439, 0.18234146, 0.00400332, -0.04308357, 0.39530492, -0.16343591, 0.18728760, -0.15395913, -0.20026529, -0.01059882, 0.02293592, 0.09161905, 0.41733071, -0.17141089, -0.08201078, -0.18425499, 0.11282703, 0.15936977, 0.12471926, 0.01503949, -0.08119921, -0.11896884, 0.24185993, -0.14145583, -0.32702512, -0.17628938, 0.09342557, 0.02498726, -0.15455657, -0.57488072, 0.14743650, 0.22135359, 0.43393028, -0.12022485, -0.24616566, 0.17566638, -0.32067016, 0.47042999, -0.51418304, -0.28634593, 1.09135544, -0.37257487, 0.26787195, -0.60259449, -0.32993650, 0.07801063, 0.53636461, 0.24997842, -0.08002295, -0.01291813, -0.57617658, 0.10885600, 0.11064571, -0.25195846, 0.18151383, 0.11762248, 0.76100582, -0.04165003, -0.50986022, 0.08541968, 0.91955173, 0.82027757, 0.09627970, 0.07734806, -0.58827221, 0.36126950, -0.50735927, 0.57440472, 0.37041825, -0.77292633, -0.04148261, -0.02867685, -0.45778620, -0.09155589, -0.57743776, 0.35178599, 1.00045228, -0.58635068, -0.17326632, -0.42215493, 0.11570344, 0.71433753, 0.86884016, 0.29742151, -0.40892854, -0.02257682, 0.43253130, -0.41654661, -0.51321274, -0.29116237, 0.17658174, 0.29681236, -0.28842217, -0.57559848, 0.32225621, 0.34995905, 0.71924227, -0.10177897, -0.01202830, 0.09397390, -0.03717225, 0.30561301, -0.07724582, -0.31044424, 0.45014521, -0.46182641, -0.02366528, -0.14476874, -0.57163233, -0.27451646, 0.49357367, 0.26061523, 0.09873126, -0.02345961, -0.37781203, -0.40238893, 0.04022909, 0.07638261, 0.21045320, 0.05525899, 0.27376768, -0.27875811, -0.34539106, 0.00366552, 0.17513889, 2.32045770, -0.49845377, -0.00815994, -0.76210070, 0.46617731, -0.39430597, -0.18167096, 0.85188794, -1.24083722, 0.43125567, -0.05480259, -2.14400697, 1.55651891, -0.27542838, 0.06804906, 1.82295620, 0.01447876, -0.81435859, -1.16003871, 0.36122164, 0.69427854, 0.96771979, 0.37849557, 0.49755386, -0.21741749, 0.42120501, -0.26194105, -2.23134422, 0.31642944, 1.21202910, 0.26521823, -0.31345907, -1.84238362, -0.43087950, -0.46349761, 0.78089029, -0.44392052, -0.18723145, 0.08327234, -0.02320183, 0.46761727, -0.18250497, -0.15474583, 1.12393761, -0.43295109, -0.14124548, -0.83977020, -1.63071561, 0.12438206, 0.32393304, 0.34996560, 0.13127548, -0.95796633, -0.78221524, 0.16196848, 0.60096866, 0.06711881, -0.16985784, 0.20983595, 1.68164909, -0.11141714, -0.66990978, -0.40622255, -0.06888784, -0.09667515, 0.01116118, -0.05056491, 0.01039023, -0.09358421, -0.07161654, -0.06658410, 0.25325847, 0.11636612, 0.04442500, 0.11018711, -0.03189786, -0.06022839, 0.03805303, 0.01474994, -0.11624909, 0.12376719, 0.07036887, -0.08771826, 0.11617603, 0.10609233, 0.02368611, 0.08736947, 0.06156043, 0.11261180, -0.11689255, 0.06275475, -0.13168807, 0.07699861, -0.07455478, -0.02100726, -0.23571002, -0.01519805, 0.25546336, 0.02919256, 0.39305499, -1.11986399, -0.06860465, 0.01318243, 0.00120244, -0.31761748, -0.15287440, -0.22753689, 0.33618549, -0.20306624, -0.05085182, 0.17208250, 0.14490305, 0.15852568, -0.09410618, -0.04360272, 0.14667831, 0.12525396, -0.16654636, 0.06375800, 0.26616651, -0.10732690, -0.04233377, 0.31561247, -0.25897649, -0.50171727, -0.02819659, 0.19686523, -0.04768801, -0.06143224, 0.21957131, -0.07538561, -0.36038142, 0.65413028, 0.05184421, 0.12094580, -0.49041831, -0.10060153, 0.22334513, -0.18407261, -0.40874651, 0.31113130, -0.00622636, 0.12902273, 0.15754583, -0.29874572, 0.17769209, 0.06732782, -0.06248397, -0.26063892, -0.25140682, -0.02367148, 0.15714777, -0.51986963, -0.19011086, -0.37811953, 0.31968296, 0.24598584, 0.04590948, 0.36644804, -0.19791685, 0.06018780, -0.05853637, -0.07512073, 0.39008704, -1.15429235, -0.27038869, 0.17476168, -0.10968894, -0.15358604, -0.40907803, -0.31912524, 0.63338089, 0.08192489, 0.27538660, -0.12507269, 0.04071349, 0.02038398, -0.35918477, 0.06291253, -0.16079976, 0.05755211, 0.05659522, 0.20820877, -0.08406268, -0.07209976, -0.21403837, -0.09653927, -0.05995125, -0.43357801, 0.34369600, 0.12576558, -0.22851883, -0.01391635, 0.17374799, 0.30216146, -0.67893744, 1.39621687, 0.34761009, -0.21869376, -0.23494662, -0.30193099, 0.61804658, -0.26487857, -0.69754618, -0.05564808, 0.21708240, 0.39181295, -0.16436279, -0.69739443, 0.44099084, -0.06278572, 0.15277092, -0.36554843, -0.20903626, -0.36645174, 0.01634549, -0.26196656, -0.26448727, -0.51933092, 0.33599156, 0.20658113, -0.00074490, 0.00663331, -0.03692952, -0.41890833, 0.18315712, 0.00571337, 0.61602890, -1.33177507, -0.51337856, 0.07564136, 0.11644355, -0.08788106, -0.39186335, 0.16561404, 0.64837962, -0.10208239, 0.38308081, -0.10524455, -0.02163079, 0.48359099, -0.23462701, -0.14592169, 0.09741015, -0.16040730, 0.35585412, 0.15139812, -0.21430320, -0.02646281, -0.06820387, 0.05216915, -0.19361216, -0.43459880, -0.06081102, -0.22309662};
#endif

#endif
