-0.18874291, 0.07110289, -0.24678095, 0.20953360, 0.06197989, -0.17225578, -0.18409772, 0.06314494, -0.17060503, -0.01622547, -0.01345228, 0.17608289, -0.18310104, -0.15969613, 0.05188207, -0.03638817, 0.11507201, -0.09429005, 0.15705903, 0.18458636, 0.10156819, -0.11210974, -0.13337950, -0.04378404, 0.00561062, 0.04721538, 0.13079554, -0.25426617, 0.05276141, -0.28763714, -0.01590283, -0.16066246, -0.06602571, -0.09077550, -0.12775660, 0.06563493, -0.00980879, -0.04978823, -0.02073835, 0.18155243, 0.03395818, 0.13287051, 0.14174682, 0.22388469, -0.24162982, -0.29143381, 0.25512767, -0.31159973, 0.20999348, 0.07408626, 0.29090425, 0.07749107, 0.09084070, -0.15328394, 0.37400237, 0.02158657, 0.41405258, 0.04111035, -0.02986429, -0.29414856, 0.18278070, -0.15071367, -0.16264117, -0.49793991, -0.07878545, 0.19535594, -0.06836949, 0.06052710, -0.05372313, 0.14853428, -0.21279961, -0.02048551, -0.04758883, -0.05063652, -0.15461861, 0.09113162, 0.06616582, 0.04554737, -0.25632250, -0.16278224, 0.03126421, -0.16495445, 0.18388690, -0.11130863, -0.11121161, -0.03204921, -0.29330361, -0.03326707, -0.28745502, 0.25525993, -0.01527698, -0.11726309, 0.08990884, -0.25948265, -0.07109566, 0.15171310, -0.12079689, 0.22806832, 0.08415710, 0.13913237, -0.06226507, -0.16947265, 0.16015574, -0.25605515, -0.09167112, 0.09942699, 0.20816822, 0.07764603, -0.13655914, 0.08036640, 0.04085861, -0.03301192, 0.06067445, 0.08141163, 0.23749809, 0.19113325, 0.23562515, 0.18458100, 0.22638959, -0.10196663, 0.09129369, 0.01731057, -0.29866964, 0.01383081, -0.12043363, -0.21451890, -0.07881957, -0.51216102, -0.11937924, -0.27128091, -0.30326518, -0.00331782, 0.22099893, -0.19419077, 0.19363496, -0.01387117, 0.23069146, -0.15388110, -0.07977263, 0.13539568, -0.14956003, -0.20301212, 0.06657012, 0.03881543, 0.26612940, 0.04475572, 0.00590846, 0.11268066, 0.36039281, 0.01276017, 0.00960290, -0.25814852, 0.34917936, -0.06239059, 0.07615175, -0.03916634, -0.14299132, 0.10987524, -0.15982248, 0.28954560, 0.16934453, 0.25683504, 0.00851599, 0.05070703, 0.23135668, 0.05650209, -0.24762727, -0.04959842, -0.27638304, 0.09623377, -0.22423372, -0.05624288, 0.31337839, 0.03935384, 0.13314745, -0.02521179, 0.04668215, -0.21652336, -0.16026756, 0.36434758, -0.04464343, -0.21097279, -0.51555252, -0.02911647, -0.31263855, -0.02761216, 0.47548392, 0.02344733, 0.16222648, -0.01179370, 0.31984383, 0.27728656, -0.12355143, 0.02244607, -0.09892037, 0.11784104, -0.18949814, 0.11988599, 0.13111246, 0.14109458, -0.11674433, 0.02317551, 0.07468040, 0.03124315, -0.02843125, -0.01716260, 0.00812647, 0.12565692, 0.06644478, 0.24172425, -0.01916372, -0.05434772, 0.01776059, -0.00495692, -0.13696560, -0.12268075, 0.08710714, -0.03454598, 0.15602078, -0.00889345, -0.10371991, -0.08032487, -0.00326527, 0.15750904, -0.09477612, 0.17051558, -0.03957253, 0.05834320, 0.12668940, -0.22907244, -0.27363992, -0.11784339, -0.09854157, 0.03719353, 0.16057858, 0.30290884, 0.05866877, -0.15856825, 0.13739167, -0.21363463, 0.20001812, -0.22792079, 0.03080791, 0.08974015, 0.09851460, 0.04743870, -0.05193306, 0.15726377, 0.00599898, 0.16626990, 0.12160089, -0.11021481, -0.02965232, -0.00846616, -0.06979226, 0.17224790, -0.06064603, 0.00279008, -0.05454885, 0.11342341, -0.03569174, -0.16064849, 0.05506146, 0.01655440, -0.18606876, 0.05783813, -0.01797275, 0.12873165, -0.14678164, -0.25285006, 0.03434127, 0.06896232, -0.08079734, -0.09135979, 0.15155134, 0.02115561, 0.03268921, 0.15661047, -0.01509147, -0.03116794, -0.09579225, -0.12488963, 0.24850266, -0.24226776, -0.04849919, -0.04182416, -0.02316984, -0.07594326, 0.27930900, -0.07031579, 0.09053881, 0.14851376, -0.17421027, 0.00591098, 0.20964694, -0.11272494, 0.05824027, 0.01625444, -0.10523254, -0.08371987, 0.14699553, 0.00910584, -0.09041883, -0.05431484, -0.01883102, -0.07796688, -0.14262570, -0.03114408, -0.09638736, 0.03098839, 0.14534402, 0.01543531, 0.09448179, -0.26856184, -0.00211058, 0.26901102, -0.21254452, 0.08542873, -0.03194718, -0.13491906, -0.01264552, -0.15680420, 0.02630223, -0.00881919, 0.08190855, 0.03049900, 0.08050337, -0.02158824, 0.08408500, 0.05968790, 0.19012575, -0.09182093, 0.22302763, 0.11661153, 0.12279423, -0.01934067, -0.11676491, 0.10768034, -0.09194114, -0.15614562, -0.11371900, 0.11731171, -0.14313222, 0.16219169, -0.13507067, -0.06089627, -0.03842072, 0.10872138, 0.08390546, 0.02978468, 0.02685013, -0.11170279, -0.08143296, -0.23802610, 0.09686510, 0.24124943, -0.20223102, -0.05267625, -0.05096141, -0.01349393, 0.06217388, -0.15988360, 0.17165619, 0.02864198, -0.10718400, 0.01436045, -0.10919962, 0.03265906, -0.18276782, 0.29311922, -0.09275787, 0.09701750, -0.04540725, -0.09578469, 0.17014022, 0.15628105, 0.04541068, 0.12961881, 0.21350875, -0.12552810, -0.15434022, -0.15551317, -0.00493804, 0.17513441