//Numpy array shape [2, 6, 32]
//Min -0.435661405325
//Max 0.469881117344
//Number of zeros 0

#ifndef QUERY_WEIGHT9_H_
#define QUERY_WEIGHT9_H_

#ifndef __SYNTHESIS__
q_multi_head_attention_46_default_t query_weight9[384];
#else
q_multi_head_attention_46_default_t query_weight9[384] = {-0.15229636, 0.08772788, -0.22539304, 0.21259207, -0.03203415, -0.08861762, -0.22127658, 0.03785040, 0.07726057, -0.10131595, -0.24643636, 0.08495724, -0.08353420, 0.08583418, -0.06964588, 0.10163801, 0.00504388, 0.12756889, 0.20614854, 0.05040311, 0.00516827, 0.25422955, 0.19578494, 0.07801389, 0.09236594, 0.13867940, -0.06845530, 0.00387840, -0.21925755, -0.03485477, 0.00424713, -0.00191615, -0.09257421, 0.27432299, 0.28515127, 0.02398935, 0.35575637, -0.31208679, -0.16666083, 0.29291421, 0.21525306, 0.19076458, 0.16365825, 0.14850020, -0.05886541, -0.14513664, 0.08361369, -0.01932541, 0.17977510, -0.08003227, 0.13142537, 0.22138517, 0.22294660, 0.11227340, 0.00735749, -0.00748188, 0.16897601, 0.12478612, -0.20254397, -0.23955372, -0.26435512, 0.08421540, 0.14129834, 0.25842297, 0.09454557, 0.15477936, 0.15462331, -0.08553414, 0.14042760, -0.21407221, 0.11126407, 0.23257351, -0.07445526, 0.09409820, 0.10235667, 0.46549135, 0.12349411, -0.05782555, -0.10954555, -0.26889431, 0.07354981, 0.19529372, -0.09713448, 0.15726399, 0.03639786, -0.13327889, 0.13531186, -0.11864875, -0.21848458, 0.10103641, 0.06205406, -0.12973987, -0.04606573, 0.33725417, 0.39419606, -0.06432164, -0.03931548, 0.19322938, 0.08368940, 0.15499166, 0.22810934, 0.00023974, -0.19324325, -0.02716287, -0.16757025, 0.37441951, -0.43477789, -0.30290112, 0.04288264, -0.13884509, 0.05666848, 0.00453604, 0.14689772, 0.15021433, -0.23132242, -0.08653094, 0.01088255, -0.03622653, 0.13619643, 0.09388892, 0.26539478, 0.09329673, 0.18681177, 0.00624058, -0.29499394, -0.13935934, -0.18943666, 0.02384285, 0.06154890, -0.09631857, -0.03008005, -0.17112936, -0.02998129, -0.07111921, -0.02322129, 0.11260113, 0.02129743, -0.09377488, 0.12830049, -0.06759692, 0.14653699, 0.10364358, 0.05405955, 0.01664029, -0.03381049, -0.03422986, 0.06067837, 0.12481094, 0.04956667, 0.09087382, -0.10482162, -0.08403676, 0.00970534, 0.14933111, 0.06765442, -0.07775533, -0.08471908, -0.06146600, -0.15404911, -0.12466276, 0.02625647, -0.23397434, -0.43566141, -0.17075817, -0.12844795, -0.09678039, -0.06377206, -0.11764680, 0.20907655, -0.00830511, -0.15490563, 0.11832897, -0.23679914, -0.07227629, -0.16545638, 0.31310883, 0.14333108, -0.04533789, 0.07277813, 0.03867199, 0.22485101, 0.22843552, -0.07300066, 0.08804668, -0.19782868, -0.01419267, -0.10021126, 0.02973775, -0.17791450, -0.20537739, 0.27478400, -0.21962987, -0.12406710, 0.09395453, 0.15650260, 0.15385133, 0.06070338, 0.18590543, 0.16450796, 0.00883189, 0.33484089, 0.01062721, -0.09342061, -0.13373396, 0.10156208, -0.30702889, 0.09098499, 0.00457448, 0.00679399, -0.07698584, 0.26147687, -0.15378502, 0.11141431, -0.08577301, -0.25681838, 0.01597805, -0.02140319, -0.03482938, 0.01752136, -0.21649885, 0.02497237, -0.03713446, 0.07083479, 0.20211658, 0.00113222, 0.16347611, -0.24310443, -0.03489298, -0.10447317, -0.06269082, 0.27300856, -0.22048643, 0.10933964, 0.36653784, -0.06901153, -0.05505726, -0.07859199, -0.15845712, 0.05908111, -0.32779580, -0.00237238, 0.00884013, -0.07735462, 0.24753353, -0.39603487, 0.01391894, 0.05976461, -0.29759383, -0.09510475, 0.01441922, -0.11523581, 0.01327411, -0.29380611, -0.18672378, 0.04110951, 0.02265044, -0.06219466, -0.17760704, 0.10002753, 0.34238034, 0.08892431, 0.26282358, -0.12636922, 0.06277115, 0.28419372, -0.09292718, -0.19295911, -0.16784620, 0.14463432, 0.07884998, 0.09310130, -0.03350755, 0.11334608, 0.00378495, -0.01155316, -0.19273025, 0.05381853, 0.00743056, -0.34269157, 0.18250646, -0.25411984, 0.02147694, 0.04779018, 0.13373464, 0.10506017, 0.21106470, -0.00851478, -0.06302964, -0.13576594, 0.14497612, -0.12894768, -0.24865879, -0.09251199, -0.06214008, 0.09195744, -0.21209937, -0.39441052, 0.04023836, 0.03830470, 0.14821075, -0.06516553, 0.04585968, -0.28108531, 0.12488981, -0.09040455, 0.12466336, -0.21530282, 0.12690377, -0.03166736, -0.19848290, 0.46953243, 0.05096805, 0.24129115, 0.18541214, 0.21068367, -0.07505288, -0.24277803, -0.31397542, 0.29378340, -0.01766638, 0.03671867, -0.03479340, 0.05504869, 0.28147924, 0.00797583, -0.10477033, -0.06913210, -0.27895749, 0.16880935, 0.13087165, -0.04261124, -0.10584733, 0.46988112, -0.05861878, 0.13842720, 0.02996260, -0.12519763, 0.29396078, -0.14839065, 0.04146814, -0.09890743, -0.10989163, -0.04449924, -0.13659067, -0.04586634, -0.01056468, -0.10138304, 0.14584760, -0.07477392, -0.06858464, 0.10403411, -0.19771151, -0.02024975, -0.12237893, 0.03170433, -0.35879374, 0.22086172, 0.23075534, 0.13556178, 0.18247238, 0.06137644, -0.09866932, 0.09721676, 0.09461630, -0.01572482, -0.06588838, -0.01855117, 0.11242650, -0.10430556, -0.23386644, 0.20652324, -0.14922559, 0.01408575, 0.18715075, 0.12819497, 0.09959299, 0.19609764, 0.11891105, 0.01563103, -0.17207691, 0.14723380, 0.15758169, -0.08032254, 0.16739216};
#endif

#endif
