0.09444703, 0.09181930, 0.02174688, 0.03040174, 0.03005122, -0.02601170, -0.02134162, 0.02330778, 0.15587059, -0.02137357, 0.02799237, 0.02914712, -0.01007313, -0.01014860, -0.01444505, -0.03629159, -0.03666317, 0.10100114, 0.09840998, 0.14045145, -0.08200172, 0.03808732, 0.01459947, 0.11625714, 0.03294189, 0.07071801, -0.09249427, 0.01939088, -0.02235328, -0.07292761, 0.02710864, -0.09422939, 0.05266121, 0.00193471, -0.02904168, 0.01350143, -0.05722883, 0.09840893, 0.18010494, -0.07073125, 0.09446404, -0.03766301, 0.01965241, -0.08900965, -0.03866956, -0.14182785, 0.02919474, 0.01783864, -0.08735626, -0.02311818, 0.05835391, -0.11547332, -0.05289845, -0.03002747, -0.06474187, -0.02224224, 0.02356496, -0.05652864, 0.00173579, -0.00991079, -0.08550850, 0.13713922, -0.01885466, 0.08902889, -0.17088342, -0.10041096, -0.03020411, -0.12955350, -0.05212989, 0.19223948, -0.10199960, -0.01612788, -0.16423532, -0.03679135, 0.09184221, -0.14463404, 0.05317973, 0.14033613, -0.04452894, -0.01763744, -0.02212814, -0.03953049, 0.03157962, 0.03626752, 0.08467024, 0.03048836, -0.04337408, -0.10219341, -0.02511843, 0.03427677, -0.03302648, -0.02973128, 0.01042495, -0.00383000, -0.03471826, 0.05612918, 0.03049693, 0.03589205, 0.08248250, -0.01067826, 0.09551282, -0.09399447, -0.09676628, 0.09039965, -0.03893154, -0.14094172, 0.08596566, 0.12313043, 0.03498324, -0.06192257, 0.08135606, -0.02907102, 0.03073158, -0.07993360, -0.04257434, -0.00293377, -0.07914469, 0.03231518, 0.03745707, -0.09470224, -0.05099377, 0.09304410, -0.00466616, 0.03239031, 0.06482670, -0.06818254, 0.02014721, -0.04314017, -0.14806604, 0.02432727, -0.00508803, -0.07003939, -0.03290313, 0.16473597, -0.10039280, 0.03000679, -0.02845060, 0.14296974, -0.08305636, 0.04690287, 0.03440318, 0.11125936, 0.05856622, 0.07081477, 0.04469563, -0.06363022, -0.09380162, -0.07505707, 0.03521710, -0.09512001, 0.02811631, -0.08850371, 0.02907992, 0.09308805, -0.10804595, 0.02145729, 0.00998942, -0.12864345, 0.02813065, 0.08752570, 0.03066559, -0.01714515, -0.01333604, -0.09328412, -0.03057921, 0.04659062, 0.01785300, -0.02904597, -0.05306412, -0.05312430, -0.02128868, -0.01974278, 0.04479308, -0.11112496, 0.03575796, 0.04605070, -0.01751020, -0.08347867, 0.04392393, 0.04647201, -0.04140468, 0.07451028, 0.01837485, 0.10779108, 0.07969985, -0.03192993, -0.03082695, -0.01777806, 0.00482866, -0.08952916, -0.02691875, -0.21663693, 0.03097728, -0.05610147, -0.02953255, -0.03808696, -0.02771033, -0.05541243, 0.06912315, -0.02865846, -0.05941169, 0.08385686, -0.02571257, 0.03001156, 0.10778951, 0.06086016, 0.14871031, -0.03568627, 0.06378201, 0.03061170, 0.02961810, -0.01299238, -0.02753015, 0.06780679, 0.03094883, -0.03677326, -0.16639501, -0.02434888, -0.02987544, 0.05544987, -0.06185842, 0.08009849, -0.01689807, 0.09487950, -0.07634462, 0.08120526, 0.04041442, 0.08406734, -0.05125180, 0.08570305, 0.03772078, -0.09547549, 0.12407157, -0.05541804, -0.04762214, 0.04239213, -0.06068782, -0.14321123, 0.08567291, -0.04944917, 0.15891069, -0.03052599, 0.03252095, -0.03407621, 0.03225299, 0.17351148, 0.02754744, -0.00205734, 0.03199263, 0.04837707, -0.01133634, -0.06094781, -0.01230777, 0.01576686, -0.04197640, 0.02845829, 0.07123125, 0.00136938, 0.01038611, 0.10985747, 0.02300885, 0.08704671, -0.02814683, 0.03583732, 0.08440249, 0.07508797, 0.12685584, 0.03257177, -0.03575565, 0.19280151, -0.01101489, -0.02353043, -0.05902280, -0.03152889, 0.13740346, 0.07914705, -0.03267460, -0.17578743, 0.17111979, -0.01656312, 0.16587193, -0.05173335, 0.07965857, 0.14920084, 0.05305677, -0.00693296, 0.02826901, -0.03193350, -0.03112140, -0.10953967, -0.09766533, 0.03989633, 0.06324707, -0.13177061, -0.00056974, 0.06073377, -0.11760750, -0.12580019, 0.01743268, 0.00721237, 0.05847374, 0.09467808, 0.06829406, 0.09926348, -0.14040844, -0.03370035, -0.03149483, 0.03291754, -0.03973601, 0.01628130, -0.03425403, 0.09624039, 0.03076330, 0.02334413, -0.09308759, -0.06523850, -0.02592188, -0.07632075, 0.17732131, -0.09369649, -0.09821972, 0.04720384, 0.09259769, -0.00224700, -0.00369574, -0.02893510, 0.03428542, -0.03068618, 0.02786412, 0.20192340, -0.15368500, -0.02809111, 0.08688504, 0.09731548, -0.04708683, -0.04257856, -0.18431532, -0.01901830, -0.03479591, 0.05009755, -0.07870883, -0.02102935, 0.02755785, 0.04641102, 0.03458137, -0.08153386, -0.03005858, 0.09523955, -0.02434807, -0.01732581, 0.02471546, 0.09026762, -0.00540101, -0.03333151, -0.03016817, -0.05179192, -0.02209402, -0.01070768, 0.02377027, -0.02490020, -0.14854629, 0.08443063, 0.06530009, 0.00347958, 0.00349779, -0.09464766, 0.03390750, -0.02677168, 0.00077380, 0.03086014, 0.02353546, -0.14284480, -0.04404756, -0.03182485, 0.00715235, -0.07790530, -0.19570957, 0.02335930, 0.03580908, -0.08280452, 0.02884937, -0.07161427, 0.14015749, -0.03286415