//Numpy array shape [2, 6, 32]
//Min -0.307406604290
//Max 0.320714265108
//Number of zeros 0

#ifndef VALUE_WEIGHT16_H_
#define VALUE_WEIGHT16_H_

#ifndef __SYNTHESIS__
q_multi_head_attention_47_default_t value_weight16[384];
#else
q_multi_head_attention_47_default_t value_weight16[384] = {0.00178338, 0.09554179, 0.12536892, -0.08029825, -0.11097976, -0.03363268, 0.08718163, -0.04179801, -0.02998516, -0.08761732, 0.06992866, 0.18468954, 0.04759632, 0.17801689, -0.09523363, 0.07882524, -0.05538213, -0.06498343, 0.04993170, 0.09768881, -0.02957472, -0.05479235, -0.11438654, -0.13434272, 0.00322927, -0.04171354, -0.12791681, -0.05383794, -0.01237002, -0.06423903, 0.14652641, 0.09173188, -0.05403237, 0.09877799, 0.16360179, -0.08771536, -0.21865556, -0.08142360, -0.11031958, -0.18159394, -0.03225555, 0.17635779, 0.08175031, -0.11254004, -0.09405413, -0.02635584, -0.17613381, 0.01420629, -0.03529882, -0.09012944, 0.06779175, -0.05864093, -0.17653799, 0.06194538, -0.15604426, 0.05708549, 0.08464082, 0.04636047, -0.02650015, -0.09233342, 0.13188213, 0.10317448, -0.00127257, 0.00004455, -0.15118493, -0.09092025, -0.09349176, -0.12806676, -0.07160633, 0.11948237, -0.10942242, -0.04641178, -0.10672437, -0.12680148, -0.15021372, 0.13449998, 0.01956142, 0.13659108, 0.06218979, -0.09391788, 0.04724989, 0.04853710, -0.03851662, 0.11565374, 0.09780461, 0.03173379, -0.08553179, -0.05956732, 0.11043897, -0.09781762, 0.00586715, -0.07517883, -0.07231203, 0.01323620, -0.01750071, 0.05191365, 0.17675918, 0.16225752, 0.03061851, 0.16314931, -0.09415758, 0.03022234, -0.08292110, 0.17636824, 0.03354514, -0.06112258, 0.16714981, 0.10344017, 0.17873006, 0.12082595, -0.03958829, 0.12106253, 0.09932415, -0.06315311, 0.05392019, 0.03502095, -0.07031827, -0.08542373, -0.15165806, -0.03197381, -0.03114211, -0.02910805, -0.06653266, 0.13638821, 0.09607755, -0.18392758, 0.11399950, 0.08204369, 0.09179571, -0.02725013, 0.05720584, 0.14166090, 0.14072406, 0.05230648, -0.15556879, -0.03844351, 0.22206257, -0.10270903, 0.11669169, -0.14837568, -0.12963673, 0.09516942, -0.11032660, 0.24869531, -0.00154513, 0.23903082, -0.07020549, 0.03037059, 0.05633460, -0.07064787, -0.15710194, -0.14201951, -0.05186500, 0.02960574, -0.02629090, -0.10193963, -0.07538490, -0.14046948, 0.04660985, -0.13772503, -0.02891929, 0.01149655, -0.03070947, -0.25599888, -0.03269265, -0.20831276, -0.02855427, 0.04451304, -0.02108440, 0.09396940, 0.02613393, -0.01407634, 0.05710733, -0.03561322, 0.03510222, 0.01957701, -0.05377336, 0.10615885, 0.02133365, -0.00084256, 0.05350982, -0.18390685, 0.21626259, -0.11457748, 0.16675362, 0.05364206, 0.01203491, 0.03839664, -0.10453519, 0.01779055, 0.00345745, -0.19491628, -0.10557211, 0.16150434, -0.03614451, -0.09578473, 0.09901112, -0.12309126, -0.12845285, -0.03808887, -0.11205034, -0.09866023, 0.18646039, -0.13735646, -0.12400774, -0.24935472, -0.00415001, 0.22087212, -0.10904358, -0.22339673, -0.20284644, -0.12026061, -0.09942909, 0.03560609, -0.09294012, -0.28233188, -0.06202998, -0.07063600, -0.01644818, -0.24763972, 0.16658078, -0.02282752, 0.13630000, -0.12780584, 0.14724319, 0.09269755, -0.10496642, -0.02322342, 0.10240330, 0.05490122, 0.12479378, -0.03738217, -0.08443452, 0.18867797, -0.13095444, -0.03191487, 0.07931405, 0.04013954, 0.05393314, 0.21130265, 0.11013521, 0.02262528, 0.05770895, -0.14073528, -0.09545045, 0.05609252, 0.10460398, 0.10789456, -0.14521094, 0.06780265, 0.15982746, -0.13531552, 0.10309807, -0.04211320, -0.07673893, 0.03103406, -0.03101747, -0.11660413, -0.04556761, 0.16659205, -0.08952175, 0.32019493, 0.23599678, -0.19136401, 0.01765437, 0.32071427, -0.08340923, 0.20051426, -0.21967113, 0.26008686, 0.00632151, -0.19361380, 0.15311450, 0.26969555, 0.21330358, 0.04861073, -0.02986735, -0.25761282, -0.16864885, -0.04499415, 0.09395076, -0.21698044, -0.25032145, 0.14531074, -0.09155429, -0.15879346, 0.05224173, 0.06702420, 0.06681624, -0.03824784, 0.02321118, 0.02382251, 0.28401288, 0.13653266, 0.06013135, 0.15454672, 0.11971635, 0.00287235, -0.15466058, -0.09887760, -0.08435752, 0.07213096, 0.01638648, -0.09771802, -0.30740660, 0.21511602, -0.14190994, -0.26212618, -0.10329302, -0.11896125, 0.02653966, 0.13444474, 0.15800045, -0.09507943, -0.10675001, 0.02927494, -0.09653440, -0.15232933, -0.19815873, 0.15750121, -0.03092567, -0.08268523, 0.17248023, 0.02648963, 0.13970673, -0.09833539, 0.11746530, -0.04691963, -0.17697549, 0.20085108, 0.03280577, -0.19318119, 0.19592400, 0.17998908, 0.05601051, -0.01765403, -0.08872582, 0.00255205, -0.10731318, -0.16396247, -0.04312849, 0.02128440, -0.10080890, 0.14418323, 0.01179515, 0.07998784, 0.06191591, 0.02774871, -0.06013965, -0.17718990, 0.03542450, 0.00436962, 0.05620712, -0.09100113, -0.17311937, -0.16142194, 0.02318529, 0.19344263, 0.03370352, -0.27855521, -0.01066650, 0.12103089, -0.23316675, 0.08123720, 0.14477021, -0.15566888, -0.05095181, -0.05347438, 0.12339078, 0.03294858, 0.02100853, 0.04101755, 0.09636904, -0.02044104, 0.14376774, 0.09390374, 0.13089266, 0.01618337, -0.08939848, -0.21355408, 0.12640412, -0.10918937, 0.09874322, -0.19837624};
#endif

#endif
