//Numpy array shape [2, 32]
//Min -0.048342388123
//Max 0.083165287971
//Number of zeros 0

#ifndef VALUE_BIAS2_H_
#define VALUE_BIAS2_H_

#ifndef __SYNTHESIS__
q_multi_head_attention_45_default_t value_bias2[64];
#else
q_multi_head_attention_45_default_t value_bias2[64] = {0.07830844, -0.00439193, -0.00006041, -0.01018412, -0.02370577, -0.03666244, -0.03180678, -0.02309260, 0.02798573, -0.04834239, 0.02842695, -0.03495111, -0.02879895, -0.03013892, -0.03508683, -0.02771644, -0.02964450, 0.03033238, 0.01666363, -0.00152096, 0.02969177, 0.01937390, -0.02913084, 0.01443802, -0.03016790, -0.00248733, 0.08316529, -0.00493657, 0.01256090, 0.04672529, -0.02745386, -0.01965079, -0.01234005, -0.00030754, -0.02835290, -0.03061118, -0.03064263, -0.01273307, 0.02577704, 0.00463570, 0.00886212, -0.02087107, -0.01301938, -0.01567937, 0.02272966, 0.02514993, 0.03370744, -0.02201859, -0.00152980, 0.00251409, 0.00360560, -0.03065345, 0.01957807, 0.02852593, 0.01045346, 0.00934933, -0.03015075, -0.02218701, 0.00787050, -0.01911362, -0.00621799, 0.00746132, 0.04239506, 0.00451550};
#endif

#endif
