//Numpy array shape [16, 8]
//Min -1.125000000000
//Max 0.875000000000
//Number of zeros 12

#ifndef W28_H_
#define W28_H_

#ifndef __SYNTHESIS__
weight28_t w28[128];
#else
weight28_t w28[128] = {-0.1250, 0.0000, 0.0000, -0.3750, 0.2500, -0.2500, 0.0625, -0.6875, 0.3750, 0.3125, -0.1875, -0.5000, 0.0000, 0.5000, -0.3750, -0.5000, 0.2500, -1.1250, 0.1250, 0.1875, -0.6875, -0.0625, -0.2500, 0.0625, -0.1875, 0.1250, -0.2500, 0.1250, -0.5625, 0.4375, -0.4375, 0.1250, 0.3750, -0.8125, 0.0000, 0.5625, -0.5625, 0.6875, -0.3125, -0.1250, -0.6875, -0.2500, 0.0000, -0.1875, -0.7500, 0.0625, -0.0625, -0.2500, -0.3125, 0.0000, 0.1250, -0.3750, 0.1250, -0.5000, 0.1250, -0.4375, 0.1250, 0.1875, -0.0625, -0.4375, 0.0000, 0.0625, 0.0000, -0.5000, 0.1875, 0.0000, -0.5625, -0.5625, 0.1250, -0.2500, 0.1875, -0.1250, 0.1875, 0.1875, -0.0625, -0.3750, 0.0000, 0.2500, 0.0000, -0.6250, 0.2500, -0.3750, 0.1875, 0.2500, -0.6875, -0.0625, -0.5000, 0.0625, -0.4375, 0.1875, -0.4375, 0.1250, -0.6875, -0.3750, 0.1875, 0.1875, 0.2500, -0.1250, 0.0625, -0.1250, -0.1875, -0.1250, -0.1250, -0.5000, -0.3125, -0.3125, 0.7500, -0.3750, 0.8750, -0.1250, 0.1250, 0.0625, 0.0000, 0.4375, 0.0625, 0.1875, -0.1250, -0.1875, -0.1250, -0.1250, -0.1875, -0.1875, 0.4375, -0.3750, -0.1250, 0.7500, -0.3125, -0.8125};
#endif

#endif
