-0.2510731518, -0.1594753116, 0.3531353474, 0.2282744199, -0.1610940099, 0.1059032083, 0.2077943534, 0.1553188860, -0.2926310599, 0.2309955209, -0.2350331247, -0.2470955700, -0.0599287525, -0.1145049557, 0.1822664589, -0.2557903230, 0.1821956933, -0.0009813994, 0.0855275691, -0.2213295251, 0.2379403263, 0.3832539618, -0.3792054951, 0.3423487544, 0.2705851197, -0.1936184317, 0.0205585863, 0.0613170117, 0.1765875071, 0.2449647933, -0.2782469690, 0.2099477053, 0.2202417403, 0.1062433273, -0.4103239775, -0.2337707132, 0.1529377103, 0.3953792155, 0.0433315299, 0.3007451594, 0.2807470560, 0.0693247989, -0.0717030391, 0.1828465015, -0.2014270872, -0.1551222503, -0.1960603148, 0.1489232928, -0.4000809789, -0.3436133265, 0.0092866896, -0.0830066055, -0.0371567607, -0.1807187349, 0.4356387258, -0.0101863174, -0.1789790988, -0.0426307283, -0.0112095382, -0.3443147838, 0.3350365162, 0.2852550149, -0.2213351578, -0.2385860234, 0.0517511442, -0.0073392987, 0.4272784293, 0.1236163676, -0.1149435788, 0.0572829582, -0.0900562853, -0.2986383140, -0.4210348725, -0.0725054815, 0.4431002140, -0.1380116940, -0.2895055711, 0.3160879910, 0.0533943959, -0.1346961558, -0.1921140701, 0.1098937318, 0.4679335356, 0.2288257927, -0.3930341899, -0.3326735497, 0.3089737296, -0.1619626731, -0.0476535596, -0.1112588346, -0.1389214545, -0.0791050717, -0.3890729547, 0.3038633168, 0.2043032795, -0.2486574203, -0.1290133595, 0.2356235385, 0.2027211934, 0.2369094342, 0.3431754112, 0.1746114641, -0.3511869013, -0.1124097705, 0.0822300315, -0.0222243462, -0.1426412314, -0.3539719284, -0.1879925132, 0.2712966502, -0.3042449653, -0.2921364605, 0.3186703324, -0.0288238749, -0.3363803923, -0.3071065247, 0.4314836562, 0.2821858525, -0.2509061098, 0.1360173523, 0.2869932353, 0.1557392031, -0.0418000333, 0.2006275207, -0.2004824281, -0.0037840924, 0.3924666047, 0.0926558450, -0.0540900305, -0.2414566576, 0.1273546666, 0.1457768977, -0.1316466480, 0.1524319947, 0.2792771161, -0.0841229111, 0.3377767205, -0.4394406378, -0.2444726527, -0.1120748371, -0.2813707888, 0.2549252510, -0.2384177744, -0.0887760893, -0.3132203221, 0.2228036076, 0.4535895586, -0.3678883612, 0.2850701809, 0.3477295339, -0.0167671870, 0.1214878485, -0.0299306195, -0.1534109116, -0.3797909021, -0.0456670597, 0.3010229170, 0.5001208186, -0.2731817067, 0.3046548367, -0.3411387205, -0.5571304560, 0.3157849610, -0.4086070657, -0.0751060471, -0.4547701478, 0.3573805988, 0.2143413126, 0.0345141664, 0.3663682342, -0.0148857078, 0.2186136842, 0.2961518168, 0.0206192415, 0.2511926889, 0.0038333386, 0.3402280211, 0.2349758297, -0.3472160399, 0.3764704168, 0.0811985433, 0.0877295583, 0.3562508523, -0.3453333378, 0.1690739095, 0.0702756569, -0.0440757535, -0.0727484077, 0.3775092363, -0.1398246586, -0.2663285434, 0.3467854559, -0.1833303720, -0.2360902280, 0.1702210158, -0.0006001370, 0.1464017183, 0.2915897071, 0.0042982134, 0.3685486615, -0.1873333752, -0.0904415026, 0.0385555252, -0.1925249100, -0.2540638149, 0.0168019868, -0.1492522508, -0.1460343152, -0.3181882203, -0.2548766732, 0.3633695543, 0.1348550916, 0.3324685395, 0.2590043843, -0.0912466943, 0.1280279905, 0.0929644033, -0.0034935304, 0.2583192587, -0.0056205718, -0.1376439035, -0.5301479697, 0.4732494950, -0.2441560924, -0.1466090232, -0.3476600349, 0.1036491469, 0.1942314953, -0.0326429568, -0.1657654345, 0.3733411431, -0.3450599313, 0.0111573907, 0.2157818824, -0.1872805059, -0.2128793448, 0.1928692907, 0.3509460688, -0.1361029297, -0.2461804748, -0.1003398895, -0.1489148736, 0.1241282597, 0.3911600709, 0.1195698008, 0.2592962384, 0.2915666401, 0.0880963728, 0.0671746284, -0.1368330568, 0.0267016962, -0.1172758937, 0.3208587468, 0.0552473664, -0.2086298913, 0.2037342936