//Numpy array shape [2, 4, 32]
//Min -0.421177953482
//Max 0.510431349277
//Number of zeros 0

#ifndef KEY_WEIGHT5_H_
#define KEY_WEIGHT5_H_

#ifndef __SYNTHESIS__
q_multi_head_attention_default_t key_weight5[256];
#else
q_multi_head_attention_default_t key_weight5[256] = {-0.2248078734, 0.0611337647, -0.1725282520, -0.0475583598, -0.2713466883, 0.1570925266, -0.0071011172, 0.0547132604, -0.0453257486, -0.1965297610, -0.2316368222, 0.0196216982, 0.1356055290, -0.1030823588, -0.2147889584, 0.1133235767, 0.2131965309, 0.0463110507, 0.0153999021, -0.1669390798, -0.0201924108, -0.2626534998, 0.0836825967, -0.2575686276, 0.1927733123, -0.1641287953, -0.1834233403, 0.3217151463, -0.2126527578, 0.2250677496, 0.3511623740, 0.0709172040, -0.4211779535, 0.5045044422, -0.1324115396, 0.0241126791, 0.5068475008, -0.0253795795, 0.3820844293, -0.1801856756, -0.3134052753, 0.0382604711, 0.0385633484, -0.1973229796, -0.3011498153, 0.5104313493, 0.2237589210, -0.2427784801, -0.0421690904, 0.1542919576, -0.1253203601, -0.3672282696, -0.1534063965, 0.0374538004, 0.3946037889, -0.2544814050, -0.2890169919, -0.0527433567, 0.0665592849, -0.0548732989, 0.2782517374, -0.2770497501, -0.2067093402, -0.3455597758, -0.1053127423, -0.1018893495, 0.1218057647, 0.0116049685, 0.2380414605, 0.0040312721, -0.0625022501, 0.0718149319, 0.1588710994, 0.0019593942, -0.2731032073, 0.0130703151, -0.1132587716, 0.0741965100, -0.1694826186, 0.0203405898, 0.3878595233, -0.1766878664, -0.1084525362, 0.0412535742, -0.0714726001, 0.1043803096, 0.0500438102, 0.1312217563, 0.2904096842, -0.0793100670, 0.1300050020, -0.3811477721, -0.0515882038, 0.0284105819, 0.2588011324, 0.2367051691, 0.1577335000, -0.3812230229, 0.3077552021, 0.1306254268, -0.3690240681, 0.0729116350, -0.0811926946, -0.2197433710, 0.3293662965, 0.0698633119, 0.1763567924, 0.0462020487, -0.2347721159, -0.0003517149, -0.2714278698, 0.2675992846, -0.3338477910, -0.1995655000, 0.2907236814, 0.0033490397, 0.0413438641, 0.2580592036, -0.1322435439, -0.2607736290, -0.0194657017, 0.2443888038, -0.3940925002, -0.0802523941, -0.0433561616, 0.2715276480, 0.2614483833, 0.3354015648, 0.3750713766, -0.0717105493, 0.0828654170, 0.0779110715, 0.2174922228, 0.0163444914, 0.3354334235, 0.2145414799, -0.3355334103, 0.2978674173, 0.0835508183, -0.1718482971, -0.0086688502, 0.2906662226, -0.0281559713, 0.1794894338, 0.1577293128, 0.3069641590, -0.3810603619, 0.0154451253, 0.0101831621, -0.3192845881, -0.2138163596, 0.0315293819, 0.1068383604, -0.2315547764, 0.1328022629, -0.0780299082, -0.0328216702, -0.3304406703, -0.3838912547, 0.0632713586, 0.0918153301, -0.0845124573, -0.0267641526, 0.2403541952, 0.1097626612, -0.2015997171, 0.1606361568, -0.1571983844, 0.0304671023, 0.1250164658, 0.1390090287, -0.2495683581, 0.1989251226, -0.0551397055, -0.0605948605, 0.2091017663, -0.2596656680, 0.1732292324, 0.0547211468, 0.0766148269, -0.1260762066, 0.0030792663, -0.2480155081, -0.0989457965, 0.2481115311, -0.0007703062, 0.1192502379, -0.0580487326, -0.1500293165, 0.2747268081, -0.1225631461, -0.2753071189, -0.2026162893, -0.2558941841, 0.1217406094, 0.0127040381, 0.2168700099, 0.1179486215, -0.1745264530, -0.1823400855, 0.2791995108, 0.0669120476, -0.3929465413, 0.2915882170, 0.0379499570, 0.1043417454, -0.1249198392, -0.1408600211, -0.2206937224, -0.2682710886, 0.3130452633, 0.2537207901, 0.2126333565, 0.2771842182, 0.0183078889, 0.3409086764, 0.1054967493, -0.0038873679, -0.1159078181, -0.1774279773, 0.1774778217, 0.0507509224, 0.2440958023, 0.2481609434, -0.1640230864, -0.0242034029, 0.1842522472, -0.0243844036, 0.1256539524, 0.1097835451, -0.0827307254, -0.1790160835, -0.0390777476, 0.1540777981, -0.2319326252, 0.3134943247, -0.1359618008, -0.1912187636, 0.1408879757, 0.1519791335, -0.3166086078, -0.3155068159, 0.0437685661, 0.2192493230, 0.2473794967, 0.2873272598, 0.2555258274, 0.1840077192, -0.0620638952, 0.2011141926, 0.0276229475, -0.0855325088, -0.0197204724, 0.1613597125, 0.2925479412, 0.2821905017};
#endif

#endif
