-0.3136459291, 0.3123660982, -0.2082677484, -0.1204767823, 1.0821918249, 0.1076775044, 0.2034647763, 0.1220392138, -0.4552925229, 0.1320682168, 0.1955785453, -0.1307930201, -0.1482720226, 0.4903797805, 0.2938020825, -0.4138454497, 0.0492306426, -0.0493233986, -0.3171465397, -0.2544014752, -0.0821535438, -0.0590584911, 0.3868595064, 0.0791339353, -0.1304429173, -0.1009526625, 0.1268153936, -0.2658818662, 0.2409237176, -0.4431257248, -0.0901906043, -0.3106849790, -0.1346231550, -0.0510411635, -0.1164803952, 0.1534269452, 0.1264543086, 0.0542948544, 0.2205377668, 0.1577140540, 0.0044272551, -0.2648844421, -0.1918011904, 0.0476316512, 0.1979292482, 0.0745912343, -0.1440717131, -0.2280847281, -0.0208820235, 0.2348614782, 0.0664462224, 0.1205118522, 0.1394362599, -0.3173817992, -0.0489808731, -0.2560609877, 0.1882466376, -0.1738296747, 0.0917046294, -0.1334542036, 0.2554428279, -0.0517851822, 0.1918115467, -0.1142103821, 0.0650289580, -0.2037926167, 0.2433519512, -0.0321084931, -1.0311088562, 0.1869005859, -0.2089107186, -0.0745350420, 0.1462603658, 0.0246752314, 0.3179898262, 0.2478129268, -0.2649075389, -0.1335345209, -0.3084519804, 0.2994539440, -0.3276631832, -0.1048046649, 0.2365954071, 0.2844610810, 0.1832289398, -0.1122427434, -0.0518945009, -0.2804285586, 0.0614034235, 0.1189288497, -0.3007244170, 0.4863208234, 0.1131970286, 0.3586144745, 0.1685018539, 0.2140205055, 0.2797735929, -0.3600027263, 0.0109503064, -0.1051939055, -0.9319082499, 0.0944154710, -0.2363573909, 0.2563602626, 0.3531019390, -0.1688868403, 0.1341619194, 0.1850380749, 0.2133914381, -0.3056795299, -0.1902927607, 0.4350644648, -0.0549916588, -0.3625403941, 0.1493461579, 0.2022721320, -0.0806301236, 0.2529374063, -0.2514925301, 0.0274222437, 0.3215984702, 0.0404143371, -0.2954269350, 0.1092419177, -0.1301328242, 0.5059653521, 0.3173171878, 0.1798142493, -0.4692963362, -0.1042885631, -0.0630446300, -0.2933928370, -0.1463140249, 0.1525387019, -0.2372905910, 0.0408008508, 0.7870719433, -0.2431605011, -0.3570134938, 0.5360445380, 0.0332954973, -0.1217657775, 0.1535958797, 0.0886095092, -0.0178992264, -0.4229433835, 0.5861973166, 0.3354517519, 0.0576042943, 0.2084634602, 0.2498733550, 0.3590733707, -0.0998044610, 0.1465494335, -0.0428781360, -0.1583026648, 0.1269289553, 0.2742638588, 0.4403882325, 0.0718983188, 0.0887757316, 0.2479171306, -0.0170095935, -0.0360467173, -0.2275262624, 0.3095319867, -0.0660667643, -0.1127928719, -0.2047516704, 0.0310304929, -0.2690034807, 0.1773001850, -0.1385134906, 0.1343543380, -0.2616489232, -0.1823549271, -0.2523294389, -0.1215815395, 0.1385922134, 0.1060791314, 0.1152795404, 0.1937839836, 0.1134051904, 0.1016443297, -0.2584398389, 0.1530449390, 0.1454646140, 0.2373714149, -0.1194075868, -0.0060290345, 0.2392694950, -0.0434097610, 0.2978876233, -0.0278350301, -0.2318374664, -0.0200260077, -0.0995529890, -0.1504629403, 0.2942482531, 0.2650663257, -0.3312223256, 0.2295603156, -0.0828494132, -0.1517499387, -0.0348360538, -0.1205466762, -0.1033428386, -0.1865047663, 0.2281172127, 0.3738284707, -0.5431793332, -0.2566368282, -0.0708616003, 0.0568219461, -0.0626074225, -0.2119709551, -0.1045703217, -0.1883023977, 0.0674538836, -0.2969450057, -0.1725388616, -0.2636396587, -0.1827939600, -0.1166665256, 0.3173930943, 0.2792345285, -0.0507487096, -0.0965599418, -0.1229806021, 0.0422583185, 0.1606994718, 0.2314140350, -0.8463366628, -0.0384173989, 0.4891912341, -0.0031886254, -0.1169072911, 0.2283315212, -0.0544651151, 0.2214331776, 0.2379917949, 0.4735169113, -0.7366428971, -0.1251523793, -0.1210238338, -0.3386281431, -0.1739347130, -0.2777684033, 0.1262164414, 0.1375963688, 0.1432257891, 0.0910542980, 0.0771464929, 0.2138353735, -0.0546589158, -0.3705908358