0.0745350495, 0.2988095284, 0.2421477288, -0.3668018281, -0.5561960340, -0.4833964407, 0.2829313278, 0.1251047701, 0.3314015269, 0.3208190501, 0.3453267217, 0.2581100464, 0.1619583964, -0.1247929409, 0.4476982355, 0.1099703610, 0.4715443552, 0.1346710771, -0.3124040663, 0.3228164911, -0.0083674593, -0.2016793787, -0.3545420468, 0.2866783142, 0.3120835721, -0.1012573168, 0.1383815259, 0.1503701955, 0.1804898679, -0.3219720423, -0.3506038189, -0.1711839437, -0.0083138319, -0.0027571847, 0.0694916025, -0.0054769116, 0.0347531363, 0.2622213662, -0.0571765192, 0.2392150760, 0.0455619507, -0.1426740587, 0.0831420124, 0.2081574649, 0.0115058720, 0.1246806011, 0.1204167455, -0.0372730456, -0.2222205698, 0.0705463514, 0.1630998701, -0.2270810157, 0.0030511441, 0.0530425832, -0.1409703940, -0.1065382659, -0.2716175020, -0.1169103011, -0.3495209515, 0.1086965501, 0.0701541156, 0.0204746239, 0.1895965636, -0.2336378247, 0.3181423545, -0.2452192903, -0.3511129618, -0.0148047870, 0.1690279096, 0.2032838762, -0.1879647672, -0.2332984060, -0.0367051661, 0.0151316654, -0.3263049722, -0.1439291686, -0.0264711119, 0.0167070404, -0.2250875533, -0.0000288749, -0.2758481205, -0.3027551174, 0.1769044846, -0.1276002526, 0.1202640310, 0.1973059922, 0.1407986581, -0.0506059341, -0.0238543209, -0.2686302960, 0.1520114690, 0.0432164632, 0.0523805358, -0.0463151969, 0.2077617347, 0.3069009781, -0.0073388843, -0.2849651873, 0.0805993006, 0.2386519462, 0.0522947907, 0.0431723483, 0.0838051215, -0.1063754261, -0.1787824035, -0.2389585376, -0.0491335131, 0.0897451639, -0.2077133209, -0.1800359935, -0.0635608807, -0.1671924144, 0.0111841923, -0.2825455368, 0.2865101099, 0.1845301986, 0.1046464071, 0.1528474838, -0.0625557378, 0.1679980904, -0.1570767164, 0.0720537677, -0.2108891457, -0.0768173113, 0.0010865916, 0.1826675385, 0.0003331752, 0.0946509242, 0.3085029721, 0.0024888860, 0.1143953428, 0.1617961973, -0.1398315728, -0.1621514708, 0.2445281297, -0.0960330069, -0.1907998025, 0.0927881226, -0.2183876485, 0.0043698205, 0.0218309965, 0.1964572072, 0.1269092262, -0.1888407320, -0.0308684614, 0.4110859931, 0.3578650355, -0.2277102321, 0.0429031923, -0.0306088980, 0.0084815416, 0.1690058857, 0.0506761223, -0.3126631081, 0.0156308040, -0.0659628063, -0.0892491341, -0.5237044692, 0.0774348825, -0.0310815405, 0.0788647458, 0.1779732406, -0.0398618318, -0.1313970387, -0.2144530118, 0.0102602392, 0.0164703522, 0.2554721832, 0.1717618108, 0.2170197219, 0.2382397354, 0.0413050316, -0.0289203413, -0.0676051006, 0.0000886859, 0.0025217307, 0.0570275746, -0.0985564664, -0.0637654662, -0.0493629202, -0.0076985992, -0.0534807630, 0.0921414867, -0.2274165303, -0.1017499790, -0.0053500067, 0.2160305530, 0.1164557263, 0.1890363991, 0.2037306577, 0.0180865563, -0.0905722454, -0.3310234249, -0.1104061380, -0.2549972832, 0.0157352276, 0.2080037445, 0.1021892801, -0.3062781692, 0.1232991293, -0.2623509169, -0.0525727198, -0.0311385952, 0.1226944178, -0.0084599769, -0.1682769656, 0.1221455485, 0.1494003683, -0.1726849973, -0.1613572836, -0.2958646119, -0.1288401186, 0.0237351414, 0.2585335374, -0.0526728220, -0.0690587834, 0.2216895521, 0.1509076357, -0.2342824489, -0.1932942569, -0.0811579898, -0.0016990901, 0.1733221114, -0.2320711315, -0.1422246248, 0.1165476516, 0.1534185857, 0.1458192170, 0.1869620979, 0.1739805192, 0.1877864897, -0.1547127813, -0.0381468199, -0.1941600591, 0.0245036669, -0.1965806037, 0.0909277350, -0.1324048340, -0.2031653672, 0.0749314353, 0.0749599636, -0.0988374576, -0.2048832923, -0.0417697690, 0.1986911148, 0.0158325601, -0.0667869672, 0.1327445954, 0.0902239606, 0.0028492040, 0.0773779824, 0.1343967021, -0.1053585410, 0.2049349844, 0.0321383215, -0.0591379777