0.23624153, -0.04314893, -0.28749064, -0.19241039, -0.14544265, -0.29426563, 0.04395492, -0.14127675, 0.19566822, -0.16663276, 0.05886119, 0.25787464, -0.08488424, -0.04191995, 0.15339352, 0.28379163, 0.29978776, -0.11682384, 0.20244880, 0.24165718, 0.02369964, -0.02508019, -0.13253276, 0.13291813, -0.12110026, -0.23714368, 0.24200366, 0.24378066, -0.27111787, -0.11488374, -0.22453722, -0.00365210, -0.03669157, -0.03863189, 0.19781114, 0.02410857, -0.12452625, 0.00385760, 0.12812042, -0.06967735, -0.18317775, 0.05789891, -0.10016019, -0.32851148, -0.24334994, -0.20528591, 0.21221171, -0.20909004, 0.20674898, -0.20640828, -0.26659510, 0.26323101, 0.03070405, 0.09614487, 0.04346327, -0.00118619, 0.21490683, 0.00501526, 0.27712801, -0.11446288, 0.14123057, 0.18578118, -0.06508871, 0.19419485, -0.26951230, 0.26833874, 0.17732540, -0.33557200, -0.09530636, 0.03674920, 0.29614666, 0.32664341, 0.17403457, 0.29955104, 0.26439050, 0.25825822, 0.22994106, -0.08089075, 0.25032288, -0.10416380, 0.19310907, 0.35557869, -0.33779964, 0.02233871, -0.25517252, -0.27682742, -0.19551377, 0.11878056, 0.07594685, 0.16486458, 0.03982273, 0.13306454, 0.06299080, -0.29468396, -0.09528543, -0.26810071, 0.00759881, -0.29330730, -0.32580090, 0.51166993, 0.60863733, 0.29292604, -0.31263849, 0.13917252, -0.60148150, -0.30242473, -0.49417064, 0.00887192, -0.25386107, 0.13384813, -0.38398051, -0.29144183, -0.21247382, -0.37022960, 0.37196535, -0.20861425, 0.08379087, 0.47141939, 0.33064204, -0.03299538, -0.41621965, 0.01239049, -0.21264532, -0.24218050, -0.01701752, 0.51492172, 0.44383878, 0.02816836, -0.16815385, 0.16218700, 0.09252039, 0.09683734, -0.05721256, 0.19849671, -0.22785296, -0.11609516, 0.13207860, -0.08930699, -0.17671339, 0.17232360, -0.22721267, -0.12766735, -0.08927496, 0.15052773, 0.03001382, 0.22575213, 0.24372123, -0.17289582, -0.10010860, 0.04268565, 0.18508780, 0.22120613, -0.02140461, 0.25681809, -0.06365415, -0.05197791, -0.19504693, 0.05178117, 0.12045339, 0.15411760, 0.00199096, -0.20056099, 0.16669294, -0.05441384, 0.21207027, -0.22045977, 0.13296595, -0.03290520, -0.11624210, 0.05478954, 0.00755305, -0.07886070, 0.01827967, -0.15212145, -0.19296159, -0.04240959, -0.13453317, 0.16224548, 0.24190326, 0.19266510, 0.19989385, -0.06269316, -0.21734077, -0.02211216, 0.01506297, -0.11572887, -0.36381552, 0.13768902, -0.11423875, -0.19797663, 0.26794571, -0.16131146, -0.03795666, 0.16990855, 0.14441808, -0.14255582, -0.20644227, 0.01535186, 0.25259498, -0.05064292, 0.18408404, 0.20383896, -0.03349784, 0.14512038, 0.06746153, -0.13283417, 0.00734124, -0.08094548, 0.07646796, 0.25501388, 0.22871548, 0.04748843, -0.22432274, -0.25191027, 0.15871736, -0.14480753, -0.15185820, -0.29211619, 0.04513083, 0.22248571, 0.07443850, -0.16244502, -0.11169125, -0.07869697, -0.45585948, 0.23862310, -0.31879786, -0.15657157, 0.03899610, 0.26106250, -0.36476120, 0.30197707, 0.30240521, -0.12938449, 0.06892392, -0.15071657, -0.16217858, -0.40169466, -0.04136259, 0.27197453, -0.33352619, -0.48947525, -0.43500438, 0.21269841, 0.15583079, -0.00606105, -0.14615548, -0.13107039, 0.26667044, 0.39942536, 0.08854315, -0.00267821, 0.33568281, 0.41768119, -0.00792351, -0.13899808