//Numpy array shape [2, 32]
//Min -0.092722997069
//Max 0.100318118930
//Number of zeros 0

#ifndef VALUE_BIAS5_H_
#define VALUE_BIAS5_H_

#ifndef __SYNTHESIS__
q_multi_head_attention_default_t value_bias5[64];
#else
q_multi_head_attention_default_t value_bias5[64] = {0.06396136, -0.05550216, -0.06442488, 0.03525233, -0.04931238, -0.04340197, 0.05304309, -0.04900853, -0.08460853, -0.04262875, 0.02367267, 0.06144635, 0.06668560, 0.05788686, -0.02367267, -0.07005396, 0.03905053, -0.04200254, -0.00088329, -0.03897329, 0.02093593, 0.06103440, -0.04367559, -0.02542014, -0.01657370, -0.03477598, -0.09272300, -0.06442488, 0.03835163, -0.04729431, 0.05287340, 0.03618634, 0.10031812, -0.03058720, 0.00340915, -0.08286848, -0.02687061, -0.05002837, 0.03924335, -0.04338348, 0.05562740, 0.07519098, -0.05734301, 0.04825565, -0.04537185, -0.04757411, 0.02029389, 0.03494064, 0.06826178, 0.06455878, 0.02928366, 0.00141612, 0.03577350, -0.02024402, 0.03983216, 0.06806177, 0.04716811, 0.00040007, -0.06196667, -0.05349487, 0.07891113, -0.03747403, 0.01350788, 0.08049028};
#endif

#endif
