//Numpy array shape [2, 4, 32]
//Min -0.421989947557
//Max 0.416668504477
//Number of zeros 0

#ifndef VALUE_WEIGHT14_H_
#define VALUE_WEIGHT14_H_

#ifndef __SYNTHESIS__
q_multi_head_attention_1_default_t value_weight14[256];
#else
q_multi_head_attention_1_default_t value_weight14[256] = {0.16068566, -0.02985022, 0.11041591, 0.00316328, 0.20255060, -0.20396179, 0.09691423, -0.03171588, -0.05822188, -0.20716786, -0.06042238, 0.27721256, 0.04663966, -0.27516258, 0.04442042, 0.02507574, 0.12707891, -0.14455239, -0.12851681, -0.17217392, -0.13450232, -0.11683531, -0.19265257, 0.15760440, -0.09688772, -0.16357498, -0.13613242, -0.18546522, 0.13822214, 0.11872058, 0.08747548, 0.08660602, 0.22525965, -0.34506842, -0.19980170, -0.19473554, 0.19623099, -0.10586636, 0.04120535, -0.04017147, -0.05365379, 0.23041257, 0.22705784, -0.07086898, 0.00824758, 0.19634126, 0.04929518, -0.17349216, 0.28629312, -0.21151754, 0.04159608, -0.24506244, 0.05496576, 0.18271293, 0.02377837, -0.03456116, 0.21653186, 0.13921443, -0.06388318, -0.09272251, 0.11041252, -0.09603685, 0.09689766, -0.00557417, -0.42198995, 0.20675674, 0.25128898, 0.33099598, 0.19431253, -0.29859877, -0.14290766, 0.15433173, 0.32692507, -0.31927770, -0.12418154, -0.01463275, -0.00603322, 0.06220518, 0.06837936, -0.09810317, 0.09059644, -0.21241346, 0.40269548, -0.03237429, -0.16662429, 0.10108171, -0.38906214, 0.23147336, -0.36573458, 0.07341050, -0.15233067, 0.35338223, -0.25258166, -0.31901452, 0.41666850, 0.17618133, -0.05805215, -0.13720198, 0.06848529, -0.31380826, 0.18402575, 0.18180227, -0.03815527, 0.25174025, -0.24177369, 0.10695846, 0.14628793, -0.14723161, 0.20272194, 0.01002614, -0.22145450, -0.24047492, 0.06793310, -0.16949008, 0.09754412, 0.01071224, 0.06302354, 0.17440768, 0.23018891, -0.22043078, 0.21248873, -0.03391857, 0.18120615, -0.04731288, 0.22362435, 0.37332508, -0.06920638, 0.15868920, 0.15514700, 0.06169702, -0.06801160, -0.19599563, 0.03659708, 0.06117002, -0.20698303, -0.15649323, 0.23578708, 0.26805380, 0.01835389, 0.02544153, 0.13698642, -0.14902608, 0.18341723, 0.22566420, -0.21766381, -0.29695120, -0.22317344, 0.15192403, 0.23727050, 0.08682040, 0.04838037, -0.13350810, 0.19211835, -0.20314324, -0.09620856, 0.15434815, -0.03827474, -0.16464406, 0.02153453, 0.13484472, -0.18527503, 0.23747624, 0.11352875, -0.19298428, -0.15445192, -0.26520517, 0.15662539, -0.10214505, 0.11389297, -0.09716754, 0.19615231, -0.19845475, -0.07289348, 0.08420191, -0.16884258, 0.20859326, -0.18129452, 0.13440762, -0.28554323, 0.20946978, 0.05650398, 0.20962173, 0.12529242, -0.05019561, 0.22786736, 0.24136840, 0.19078043, -0.13433626, 0.06147620, -0.12708697, 0.21641046, -0.19331422, 0.09911173, -0.00228141, 0.00665983, -0.11202420, -0.29402789, 0.31436127, -0.21975753, 0.12724479, -0.10566815, 0.01398475, -0.25986785, 0.03920782, -0.17653260, -0.12539950, 0.19421819, -0.03357699, 0.22786680, 0.21854161, 0.29874808, -0.02446240, -0.04308501, 0.00169662, -0.23166020, -0.23236032, 0.13530809, 0.13926655, -0.12888417, -0.24721563, -0.17058478, 0.07331961, 0.04689474, -0.30792853, -0.31257987, -0.18560085, -0.02925162, 0.15297298, 0.11655849, -0.09027272, -0.07445481, 0.12818263, 0.05467572, -0.19923857, 0.08494733, -0.11238163, -0.08725181, -0.07187127, -0.26155385, -0.23380521, 0.04256707, -0.05271769, 0.04930606, 0.14978871, -0.03426716, -0.20267671, 0.04340970, 0.20472722, -0.27536440, -0.11873291, 0.25699848, -0.05444697, -0.02090359, 0.03223608, -0.13207747, -0.06975660};
#endif

#endif
