//Numpy array shape [100, 8]
//Min -0.500000000000
//Max 0.250000000000
//Number of zeros 405

#ifndef W26_H_
#define W26_H_

#ifndef __SYNTHESIS__
weight26_t w26[800];
#else
weight26_t w26[800] = {0.25, 0.00, 0.00, -0.25, -0.25, -0.25, -0.25, 0.00, -0.25, -0.25, -0.25, 0.00, -0.25, 0.00, 0.00, -0.25, 0.00, -0.25, -0.25, 0.00, 0.00, 0.00, -0.25, 0.25, -0.25, 0.00, 0.00, 0.25, 0.25, 0.00, 0.00, 0.25, 0.25, 0.25, 0.25, 0.25, 0.25, 0.00, 0.25, 0.00, 0.00, 0.00, 0.00, 0.25, -0.25, 0.00, 0.00, -0.25, -0.25, -0.25, -0.25, -0.25, -0.50, -0.25, -0.25, -0.50, -0.25, -0.50, -0.25, -0.25, 0.00, -0.25, -0.25, -0.25, 0.00, 0.00, 0.00, 0.00, -0.25, 0.25, 0.00, 0.25, 0.25, 0.25, 0.00, 0.25, 0.00, 0.25, 0.25, 0.25, 0.25, 0.25, 0.25, 0.25, 0.25, 0.00, 0.00, 0.00, 0.00, 0.00, 0.00, 0.00, -0.25, -0.25, -0.25, -0.25, -0.25, 0.00, 0.00, 0.00, 0.25, 0.25, 0.25, 0.25, 0.25, 0.00, 0.00, 0.00, 0.25, 0.25, 0.25, 0.00, 0.00, 0.00, 0.25, 0.00, 0.00, 0.00, 0.00, 0.25, 0.00, 0.00, 0.00, 0.00, 0.00, 0.25, 0.25, 0.25, 0.00, 0.25, 0.25, 0.00, 0.25, 0.00, 0.00, 0.00, 0.25, 0.00, 0.00, 0.25, 0.25, 0.00, 0.00, 0.00, 0.00, 0.25, 0.00, 0.00, 0.00, 0.00, 0.00, 0.25, 0.00, 0.00, 0.00, 0.00, 0.00, 0.00, 0.00, 0.00, 0.00, 0.00, 0.00, 0.00, 0.25, 0.00, 0.00, 0.25, 0.00, 0.00, 0.00, 0.25, 0.00, 0.00, 0.00, 0.00, 0.25, 0.25, 0.00, 0.00, 0.00, 0.00, 0.00, 0.25, 0.00, 0.00, 0.00, 0.25, 0.00, 0.00, 0.00, 0.25, 0.00, 0.00, 0.00, 0.00, 0.00, 0.00, 0.00, 0.00, 0.00, -0.25, 0.00, -0.25, -0.25, -0.25, -0.25, -0.50, -0.25, -0.25, -0.25, 0.00, -0.25, -0.25, -0.25, 0.00, -0.25, -0.25, -0.25, -0.25, -0.25, 0.00, -0.25, -0.25, -0.25, -0.25, -0.25, -0.25, -0.25, -0.50, -0.25, -0.25, 0.00, -0.25, -0.25, -0.25, -0.25, -0.25, 0.00, -0.25, -0.25, -0.25, -0.25, 0.00, 0.00, 0.00, 0.00, -0.25, -0.25, -0.25, 0.00, -0.25, 0.00, -0.25, -0.25, 0.00, 0.00, -0.25, -0.25, 0.00, 0.00, -0.25, -0.25, -0.50, -0.25, -0.25, -0.25, -0.25, 0.00, 0.00, -0.25, -0.25, 0.00, -0.25, 0.00, 0.00, 0.00, 0.00, 0.00, 0.00, 0.25, 0.25, 0.00, 0.00, 0.00, 0.00, 0.00, 0.00, 0.00, 0.00, -0.25, -0.25, -0.25, 0.00, -0.25, -0.25, -0.25, -0.25, -0.25, -0.25, 0.00, 0.25, 0.00, 0.00, 0.00, 0.00, 0.25, 0.25, 0.25, 0.00, 0.25, 0.25, 0.00, 0.25, 0.25, 0.25, 0.25, 0.25, 0.25, 0.25, 0.00, 0.25, 0.00, 0.25, 0.00, 0.25, 0.25, 0.25, 0.00, 0.25, 0.00, 0.00, 0.00, 0.00, 0.00, 0.25, 0.25, 0.25, 0.25, 0.00, 0.00, 0.00, 0.00, 0.25, 0.25, 0.00, 0.25, 0.25, 0.25, 0.00, 0.00, 0.00, 0.25, 0.00, 0.00, 0.25, -0.25, 0.00, 0.00, 0.25, 0.25, 0.25, 0.25, 0.25, 0.00, 0.00, 0.25, 0.00, 0.25, 0.00, 0.25, 0.25, 0.25, 0.25, 0.00, 0.25, 0.00, 0.25, 0.00, 0.00, 0.00, 0.25, 0.25, 0.00, 0.00, 0.25, 0.00, 0.00, 0.00, 0.00, 0.00, 0.00, 0.00, 0.00, 0.25, 0.00, 0.25, 0.00, 0.00, 0.00, 0.00, 0.25, 0.00, 0.25, 0.00, 0.25, 0.00, 0.25, 0.25, 0.00, 0.25, 0.25, 0.00, 0.00, 0.00, 0.00, 0.00, 0.25, 0.25, 0.25, 0.25, 0.00, 0.25, 0.00, 0.00, 0.00, 0.25, 0.25, 0.25, 0.25, 0.00, 0.25, 0.25, 0.00, 0.25, 0.25, 0.00, 0.25, 0.25, 0.25, 0.00, 0.00, 0.00, 0.25, 0.25, 0.25, 0.25, 0.25, 0.25, 0.00, 0.25, 0.25, 0.25, 0.25, 0.00, 0.00, 0.00, 0.00, 0.25, 0.00, 0.00, 0.00, 0.00, 0.00, 0.25, 0.25, 0.00, 0.25, 0.25, 0.00, 0.00, 0.00, 0.25, 0.00, 0.00, 0.00, 0.25, 0.00, 0.00, 0.00, 0.00, 0.25, 0.25, 0.00, 0.00, 0.25, 0.00, 0.25, 0.25, 0.25, 0.00, 0.00, 0.25, 0.00, 0.00, 0.25, 0.00, 0.00, 0.00, 0.00, -0.25, -0.25, -0.25, -0.25, 0.00, -0.25, -0.25, -0.25, 0.00, -0.25, -0.25, -0.25, -0.25, 0.00, -0.25, -0.25, -0.25, 0.00, -0.25, -0.25, 0.00, -0.25, -0.25, -0.25, -0.25, -0.25, -0.25, 0.25, 0.00, 0.00, -0.25, 0.00, 0.00, 0.00, -0.25, 0.00, -0.25, 0.00, 0.00, 0.00, 0.00, 0.00, 0.00, 0.00, 0.00, 0.00, -0.25, 0.00, -0.25, -0.25, -0.25, -0.25, -0.25, -0.25, -0.25, -0.25, -0.25, -0.25, -0.25, 0.00, 0.00, 0.00, -0.25, 0.00, 0.00, 0.00, -0.25, 0.00, 0.00, -0.25, -0.25, 0.00, 0.00, -0.25, -0.25, -0.25, -0.25, 0.00, 0.00, 0.00, -0.25, -0.25, -0.25, -0.25, -0.25, 0.00, -0.25, -0.25, 0.00, -0.25, -0.25, 0.00, 0.00, 0.00, 0.00, 0.00, 0.00, 0.00, 0.00, 0.00, 0.00, 0.00, 0.25, 0.00, 0.00, 0.25, 0.25, 0.25, 0.00, 0.00, 0.00, 0.00, 0.00, 0.00, 0.00, 0.00, 0.00, 0.00, 0.25, 0.25, 0.25, 0.25, 0.00, 0.00, 0.00, 0.00, 0.00, 0.00, 0.25, 0.00, 0.25, 0.25, 0.25, 0.00, 0.25, 0.00, 0.00, 0.00, 0.25, 0.00, 0.00, 0.00, 0.00, 0.25, 0.00, 0.00, 0.00, 0.00, 0.00, 0.00, 0.00, 0.00, 0.25, 0.00, 0.25, 0.25, 0.00, 0.25, 0.00, 0.00, 0.00, 0.00, 0.00, 0.00, 0.00, 0.00, 0.00, 0.00, 0.00, 0.25, 0.00, 0.00, 0.00, 0.00, 0.00, 0.25, 0.00, 0.00, 0.00, 0.00, 0.00, 0.00, 0.00, 0.25, 0.25, 0.00, 0.00, 0.00, 0.00, 0.00, 0.00, 0.00, 0.00, 0.00, 0.00, 0.00, 0.00, 0.00, 0.00, 0.00, -0.25, -0.25, -0.25, -0.25, 0.00, -0.25, -0.25, -0.25, 0.00, -0.25, -0.25, -0.25, -0.25, -0.25, 0.00, -0.25, -0.25, -0.25, 0.00, -0.25, -0.25, -0.25, -0.25, 0.00, -0.25, 0.00, 0.00, -0.25, 0.00, -0.25, 0.00, -0.25, -0.25, -0.25, -0.25, -0.25, -0.25, -0.25, -0.25, -0.25, -0.25, -0.25, -0.25, -0.25, -0.25, -0.25, -0.25, -0.25, -0.25, 0.00, -0.25, 0.00, 0.00, -0.25, 0.00, 0.00, -0.25, 0.00, 0.00, 0.00, 0.00, 0.00, 0.25, 0.25, 0.00, 0.00, 0.00, 0.00, 0.00, 0.00, 0.00, -0.25, -0.25, 0.00, -0.25, -0.25, 0.00, 0.00, -0.25, -0.25, -0.25, -0.25, -0.25, -0.25, -0.25, -0.25, -0.25, -0.25, 0.00, 0.00, -0.25, 0.00, -0.25, -0.25, 0.00, -0.25, -0.25, 0.00, 0.00, -0.25};
#endif

#endif
