-0.120816357434, 0.112309418619, -0.050759021193, -0.066000603139, 0.268375188112, 0.218017593026, 0.028800534084, 0.020747775212, 0.015034501441, 0.029200587422, 0.121551997960, 0.017072066665, 0.026985540986, 0.019002214074, 0.000358241407, -0.024012360722, 0.082700811327, 0.076722495258, 0.147546559572, -0.029321329668, 0.033567029983, 0.009639185853, 0.173020780087, 0.215871065855, 0.029391337186, -0.024232979864, 0.016317611560, -0.011098437011, 0.109543085098, 0.217818647623, 0.126015052199, 0.031692091376, 0.036458153278, 0.141379058361, -0.350899338722, -0.217874333262, 0.132204100490, 0.027717458084, 0.031370244920, 0.052839163691, 0.251763731241, 0.139931946993, 0.011103208177, -0.030552187935, -0.031756982207, 0.083575733006, -0.098903082311, -0.079104542732, -0.075741291046, -0.093401648104, 0.010039012879, 0.215458631516, -0.033799216151, -0.065890409052, 0.041642174125, -0.103022567928, -0.034382656217, 0.243236377835, -0.143095314503, -0.037876438349, -0.029628645629, -0.033314637840, 0.093618959188, -0.074855186045, -0.251640439034, 0.188653171062, 0.208079963923, 0.091802924871, 0.028831476346, -0.086515054107, 0.202425032854, -0.169610366225, 0.021314233541, 0.026655191556, 0.027759570628, -0.026657333598, -0.145049199462, -0.178325995803, 0.224763333797, 0.131194561720, 0.030832413584, -0.090663492680, -0.044189944863, -0.030363101512, 0.107497133315, 0.047098491341, -0.050903785974, -0.016463231295, 0.206658780575, -0.016766188666, -0.042892847210, -0.066019318998, -0.082558631897, 0.102671347558, 0.046011369675, -0.136758029461, 0.025101447478, 0.028772311285, -0.027959190309, -0.049180604517, -0.085106007755, -0.304870933294, -0.114336408675, -0.093960918486, 0.022653430700, 0.074313558638, 0.044848714024, 0.137629702687, -0.120158068836, -0.142355665565, -0.165029227734, 0.014840760268, 0.064516410232, -0.037618197501, 0.109571881592, 0.149814233184, -0.154996424913, 0.079056568444, -0.010203826241, 0.150398626924, -0.085749730468, -0.079287089407, -0.051243767142, 0.132398188114, 0.031228493899, 0.094080664217, 0.032299228013, -0.023828214034, 0.092024147511, -0.119420267642, 0.130991056561, 0.238051742315, 0.011662249453, -0.021010356024, -0.029652632773, 0.075537346303, 0.037418682128, -0.012716444209, 0.032648876309, 0.138112947345, 0.128850847483, -0.121572777629, 0.250445842743, -0.261289447546, -0.029021555558, 0.028339261189, 0.011753702536, -0.069721542299, 0.098422460258, -0.190979421139, -0.078046448529, -0.032123316079, -0.140620067716, 0.151783391833, -0.301500141621, 0.043254882097, -0.227708593011, 0.029291728511, 0.039950422943, 0.012310056947, -0.000967688393, 0.320963680744, 0.006860518828, 0.026031330228, -0.009271689691, -0.026346409693, 0.040319308639, -0.067860402167, 0.041117269546, -0.040587600321, -0.018774494529, 0.041752830148, -0.084975257516, 0.110271595418, -0.105052657425, -0.004485167563, -0.055018272251, -0.021709788591, 0.156858652830, 0.217248648405, 0.030149064958, -0.029155014083, -0.028277587146, 0.083397634327, 0.013718141243, 0.010139655322, 0.249823763967, 0.093525663018, -0.023440804332, 0.075544387102, -0.041721217334, 0.093769051135, -0.033444020897, -0.032344132662, -0.046156890690, 0.079502783716, 0.356139183044, 0.054973296821, -0.171812504530, 0.055522408336, -0.013134169392, -0.113743565977, -0.149425297976, 0.097457654774, -0.129655972123, 0.032524187118, -0.032315522432, -0.092772603035, 0.145092561841, 0.374211847782, 0.029842650518, 0.031422015280, 0.057954449207, -0.115998603404, 0.055777028203, 0.013590190560, 0.041923038661, 0.034475658089, -0.023889146745, -0.074842542410, 0.116581328213, -0.047387301922, 0.033147357404, -0.030186157674, -0.021465605125, 0.080787926912, 0.257231831551, 0.037970822304, 0.029821295291, 0.031039461493, 0.027753842995, -0.093010105193, -0.116382800043, 0.021175099537, -0.032162833959, -0.092238128185, -0.031063759699, 0.095524527133, 0.161514148116, 0.211946666241, -0.049392472953, -0.032098721713, 0.157185271382, -0.019322464243, -0.040532160550, 0.188959494233, -0.156558334827, 0.076981447637, -0.003473198507, -0.163210794330, -0.077299408615, -0.059195589274, 0.097759120166, 0.184328645468, 0.149894058704, -0.047616213560, 0.337002426386, -0.466539770365, 0.109360590577, 0.069947384298, 0.027397558093, -0.018631434068, -0.014361586422, -0.026190998033, 0.130394160748, -0.042346607894, 0.031411673874, 0.097353540361, -0.172312006354, 0.346265733242, -0.252245813608, -0.030497783795, 0.237867966294, 0.154024228454, -0.075942188501, -0.025351226330, 0.027138097212, 0.023389682174, 0.047291576862, 0.021167013794, -0.245330691338, -0.068008214235, 0.149569913745, -0.017065940425, 0.035527344793, -0.025564167649, 0.073463775218, -0.095209613442, 0.170906707644, -0.139383748174, -0.027117986232, 0.145488545299, 0.027811218053, -0.294861048460, -0.020776055753, 0.030516143888, -0.031790517271, -0.068318463862, 0.218639567494, -0.156327083707, 0.091807208955, 0.011146822013, 0.027578430250, 0.052089307457, 0.095012955368, -0.084752291441, -0.031318861991, 0.033103998750, -0.032018225640, -0.102529115975, 0.276282966137, 0.219707340002, -0.062523789704, 0.113148391247, 0.115537285805, -0.152247294784, -0.049632381648, -0.086367666721, -0.115718349814, 0.068035833538, -0.060691606253, -0.070965886116, -0.142927318811, -0.298903167248, 0.034549191594, 0.062762372196, 0.064986459911, 0.033652134240, 0.158722206950, -0.044066164643, 0.085885003209, 0.066889531910, -0.082380354404, 0.011257871054, 0.134369298816, 0.363601028919, -0.161065578461, -0.053647458553, -0.055672917515, 0.031500525773, 0.187149047852, 0.263004660606, 0.090924240649, 0.078560568392, -0.007184520364, -0.013058115728, 0.205496802926, -0.083037219942, -0.030188547447, -0.012627916411, 0.013080325909, 0.034085810184, 0.015292236581, -0.145069658756, -0.053980518132, -0.180546924472, -0.026289783418, -0.162733256817, -0.090831547976, 0.249442622066, -0.030418269336, -0.031425233930, -0.031042171642, 0.033119950444, 0.192546457052, -0.012963292189, 0.150041326880, -0.030857799575, 0.157651156187, 0.086601875722, 0.102101288736, -0.145896255970, 0.006379859522, 0.022710170597, 0.013737687841, 0.022053120658, -0.112443335354, -0.072552353144, -0.209822297096, 0.142362445593, -0.132330179214, -0.156925454736, 0.216449424624, 0.292958587408