0.091798156500, 0.020580699667, 0.189732775092, -0.255741268396, -0.121927805245, -0.132758408785, 0.034196183085, -0.219639688730, -0.045166138560, -0.153549909592, 0.001281953650, -0.030802823603, 0.128252074122, -0.037124529481, 0.010221591219, 0.145618975163, -0.176004320383, 0.100257903337, 0.280577689409, 0.092039838433, -0.028774088249, -0.309546589851, -0.020774176344, 0.271254777908, 0.075299516320, 0.396477103233, 0.174058780074, -0.028634507209, 0.002863882808, -0.040774710476, -0.136116951704, 0.123734161258, 0.023332258686, 0.007162346505, 0.129078656435, 0.159680694342, 0.054370637983, 0.234204202890, -0.224692210555, 0.188638731837, 0.117913581431, 0.131386578083, 0.161059364676, 0.089097507298, 0.093324892223, 0.085323415697, 0.143159329891, -0.018193144351, -0.022886855528, -0.218456491828, 0.041630811989, -0.086031608284, -0.156525015831, 0.110116124153, -0.144922211766, -0.224384650588, 0.248335525393, -0.075000084937, 0.127951681614, 0.094673417509, -0.152756333351, 0.039122130722, 0.042618121952, -0.322072774172, 0.046399157494, 0.115462586284, -0.196830660105, 0.199049487710, 0.161384850740, -0.131254479289, 0.030756324530, -0.283417016268, 0.082932926714, 0.329955428839, -0.084580115974, -0.056807454675, 0.070353083313, -0.054466865957, 0.153137505054, -0.040837921202, -0.115302152932, -0.344483077526, -0.061860140413, -0.050035022199, -0.032142948359, 0.131129622459, 0.048814181238, -0.024868117645, 0.088626302779, -0.157871216536, -0.175440058112, -0.316153764725, 0.056251034141, -0.234530225396, -0.036336533725, 0.041134737432, -0.006604440976, -0.136516898870, -0.273058265448, 0.177264660597, -0.143706366420, -0.042496297508, 0.098013564944, 0.122923493385, 0.022264825180, -0.157643869519, -0.146627843380, -0.183622196317, -0.213107660413, 0.049121208489, -0.110236354172, -0.056272968650, 0.233685195446, -0.062945239246, -0.253794312477, -0.113700173795, -0.012610731646, 0.134238392115, 0.014593162574, -0.050198033452, -0.088255397975, 0.112379983068, -0.031191967428, 0.100350081921, 0.035445906222, 0.003087063786, -0.173079892993, -0.148197814822, 0.183838650584, -0.180877313018, 0.065039478242, -0.158399671316, 0.021785847843, 0.369225353003, 0.262485682964, 0.160059064627, -0.093496210873, -0.273040354252, 0.206848964095, 0.114492282271, 0.143725067377, -0.180280596018, 0.149983480573, 0.224002853036, -0.208000198007, -0.080711305141, -0.130721032619, -0.153637230396, 0.155682519078, -0.223534882069, -0.096267275512, -0.139239832759, 0.179615676403, 0.029288737103, -0.170649513602, -0.111012794077, 0.162266105413, 0.210433423519, -0.164265781641, 0.275343179703, -0.017087740824, 0.250394821167, 0.032190520316, 0.154396384954, 0.037781774998, 0.080188676715, -0.037802238017, 0.011906859465, -0.075716130435, -0.023588510230, -0.096483133733, -0.134522393346, 0.191175878048, 0.133292019367, -0.036491777748, -0.009284881875, 0.112012848258, 0.177102878690, -0.036144010723, -0.026631735265, -0.129357516766, -0.130473718047, 0.154500722885, -0.247757077217, -0.100803859532, -0.100463613868, 0.034940656275, -0.189553409815, 0.084852330387, 0.028393259272, 0.031886588782, 0.157274320722, 0.117293857038, 0.123031280935, 0.195532172918, 0.175481081009, -0.055322401226, 0.005111348815, -0.116660043597, 0.204386591911, 0.057694088668, -0.093670070171, 0.052469607443, -0.178034305573, 0.098082840443, -0.286838501692, 0.189924523234, 0.048052534461, 0.219103500247, -0.122676752508, -0.063252575696, 0.164978638291, -0.030784532428, 0.137421071529, 0.217740491033, -0.047507710755, 0.156498014927, 0.070654504001, -0.243411928415, 0.121454060078, -0.062967933714, -0.314840406179, 0.303159624338, 0.012663982809, 0.187779441476, -0.040011037141, 0.106828406453, 0.312645524740, -0.045934099704, 0.099117927253, -0.081678912044, 0.269633829594, -0.055606883019, 0.177306696773, -0.327017366886, -0.192212164402, -0.118322230875, 0.382964611053, -0.080080084503, -0.118816241622, -0.125626891851, -0.243697538972, -0.123333372176, 0.062067326158, 0.019493548200, 0.108295693994, 0.031020272523, -0.023385457695, 0.268556684256, 0.322850286961, 0.231391161680, 0.317708820105, 0.093013852835, 0.158879622817, -0.148388877511, 0.240624099970, -0.177553832531, -0.262818872929, -0.015910064802, 0.135991245508, 0.234491944313, -0.092400573194, -0.086223967373, 0.273079603910, 0.133958026767, -0.316571205854, -0.339359670877, -0.101844511926, -0.054267801344, -0.002405928448, 0.101511485875, -0.360296815634, 0.289615035057, 0.345263659954, 0.028955727816, 0.166117489338, -0.240607783198, 0.070152103901, -0.008878101595, 0.071636937559, 0.033251419663, 0.115695476532, -0.175836548209, 0.203371271491, 0.162238031626, -0.157575130463, -0.206144765019, -0.259353429079, 0.004961954430, 0.251043707132, 0.318422287703, -0.002107776003, -0.227630540729, 0.230514481664, 0.134789213538, -0.108033090830, 0.086272172630, 0.151162266731, 0.112238556147, 0.204446539283, 0.307013809681, 0.262455165386, 0.359662353992, 0.034326925874, 0.094402961433, -0.145672500134, 0.061795722693, 0.185961246490, 0.337142020464, -0.094566807151, 0.048958435655, 0.041313510388, -0.098050653934, -0.073922879994, 0.210854128003, -0.102626256645, -0.029043678194, -0.079638987780, 0.141090780497, 0.183103233576, -0.354361563921, -0.234372541308, 0.229866772890, -0.374604731798, -0.068490207195, -0.046397600323, -0.268622308969, 0.031933374703, -0.080735914409, 0.266366660595, 0.274545729160, -0.358911603689, -0.191723063588, -0.004174361471, -0.020952964202, 0.207121491432, 0.227893456817, -0.202670708299, -0.255744189024, -0.189261689782, 0.282944679260, 0.255801469088, 0.032383605838, 0.113109506667, -0.356839776039, -0.112396240234, 0.011591939256, 0.018261801451, 0.078038387001, 0.183032989502, -0.045493293554, 0.240371853113, -0.128276273608, -0.191945299506, 0.113974444568, -0.264354139566, 0.162435501814, 0.326181560755, 0.219389885664, 0.005608211271, -0.017805088311, -0.051183063537, -0.058438170701, -0.367569595575, -0.007052973378, -0.244142428041, 0.027798948810, 0.382200241089, -0.123842619359, 0.056215148419, 0.167967125773, -0.068982712924, 0.037828315049, -0.139484331012, 0.058773912489, -0.140747159719, -0.252480983734, 0.132340803742, 0.020670905709, -0.184075281024, 0.279494434595, 0.285389751196, -0.152454361320, -0.034229420125