-0.245881095529, 0.068781487644, -0.671836256981, -0.342675030231, -0.063137218356, 0.033666681498, 0.008797226474, -0.594588458538, 0.234773755074, -0.132869273424, 0.156857147813, 0.081875108182, -0.180024802685, 0.211286932230, 0.014804227278, -0.246541172266, 0.026951873675, 0.376614153385, -0.163763448596, -0.135488897562, 0.215194135904, -0.065238460898, 0.091160289943, 0.283135563135, 0.723046422005, -0.127083212137, -0.023055955768, 0.004033421166, -0.096575200558, 0.391050010920, 0.272443234921, -0.067625455558, -0.011836452410, 0.093362174928, -0.101548090577, -0.047764636576, 0.024321882054, 0.058301493526, -0.002903435845, 0.260473787785, -0.151132836938, 0.070327036083, -0.335025042295, -0.090713649988, 0.250054419041, 0.215241700411, 0.210202679038, -0.093810014427, 0.018996505067, -0.098113432527, -0.165632411838, 0.106084734201, -0.200821742415, 0.052281118929, 0.099621348083, 0.058191996068, -0.217019379139, -0.107488363981, -0.002393879462, -0.168584138155, 0.031987819821, -0.147304475307, 0.093371823430, 0.150090038776