//Numpy array shape [2, 6, 32]
//Min -0.216636925936
//Max 0.201923400164
//Number of zeros 0

#ifndef VALUE_WEIGHT2_H_
#define VALUE_WEIGHT2_H_

#ifndef __SYNTHESIS__
q_multi_head_attention_45_default_t value_weight2[384];
#else
q_multi_head_attention_45_default_t value_weight2[384] = {0.094447031617, 0.091819301248, 0.021746881306, 0.030401743948, 0.030051223934, -0.026011696085, -0.021341616288, 0.023307779804, 0.155870586634, -0.021373568103, 0.027992373332, 0.029147120193, -0.010073129088, -0.010148601606, -0.014445049688, -0.036291588098, -0.036663167179, 0.101001143456, 0.098409980536, 0.140451446176, -0.082001723349, 0.038087315857, 0.014599469490, 0.116257138550, 0.032941889018, 0.070718012750, -0.092494271696, 0.019390879199, -0.022353284061, -0.072927609086, 0.027108643204, -0.094229385257, 0.052661206573, 0.001934705302, -0.029041683301, 0.013501426205, -0.057228825986, 0.098408930004, 0.180104941130, -0.070731252432, 0.094464041293, -0.037663012743, 0.019652409479, -0.089009650052, -0.038669563830, -0.141827851534, 0.029194738716, 0.017838642001, -0.087356261909, -0.023118175566, 0.058353912085, -0.115473322570, -0.052898447961, -0.030027467757, -0.064741872251, -0.022242238745, 0.023564964533, -0.056528635323, 0.001735787839, -0.009910791181, -0.085508503020, 0.137139216065, -0.018854657188, 0.089028887451, -0.170883417130, -0.100410960615, -0.030204106122, -0.129553496838, -0.052129890770, 0.192239478230, -0.101999603212, -0.016127875075, -0.164235323668, -0.036791354418, 0.091842211783, -0.144634038210, 0.053179729730, 0.140336126089, -0.044528942555, -0.017637444660, -0.022128136829, -0.039530493319, 0.031579617411, 0.036267522722, 0.084670238197, 0.030488364398, -0.043374083936, -0.102193407714, -0.025118427351, 0.034276772290, -0.033026475459, -0.029731282964, 0.010424947366, -0.003830000991, -0.034718260169, 0.056129176170, 0.030496930704, 0.035892050713, 0.082482501864, -0.010678258725, 0.095512822270, -0.093994468451, -0.096766278148, 0.090399652719, -0.038931541145, -0.140941724181, 0.085965655744, 0.123130425811, 0.034983243793, -0.061922565103, 0.081356056035, -0.029071018100, 0.030731583014, -0.079933598638, -0.042574338615, -0.002933769487, -0.079144693911, 0.032315183431, 0.037457067519, -0.094702236354, -0.050993774086, 0.093044102192, -0.004666162655, 0.032390311360, 0.064826704562, -0.068182535470, 0.020147208124, -0.043140169233, -0.148066043854, 0.024327274412, -0.005088029895, -0.070039391518, -0.032903134823, 0.164735972881, -0.100392803550, 0.030006790534, -0.028450598940, 0.142969742417, -0.083056360483, 0.046902865171, 0.034403182566, 0.111259356141, 0.058566220105, 0.070814765990, 0.044695634395, -0.063630215824, -0.093801617622, -0.075057074428, 0.035217095166, -0.095120012760, 0.028116310015, -0.088503710926, 0.029079923406, 0.093088053167, -0.108045950532, 0.021457290277, 0.009989422746, -0.128643453121, 0.028130652383, 0.087525703013, 0.030665591359, -0.017145149410, -0.013336037286, -0.093284122646, -0.030579209328, 0.046590622514, 0.017852997407, -0.029045972973, -0.053064122796, -0.053124301136, -0.021288683638, -0.019742781296, 0.044793080539, -0.111124962568, 0.035757962614, 0.046050697565, -0.017510198057, -0.083478666842, 0.043923925608, 0.046472005546, -0.041404679418, 0.074510283768, 0.018374854699, 0.107791081071, 0.079699851573, -0.031929925084, -0.030826950446, -0.017778059468, 0.004828664474, -0.089529156685, -0.026918753982, -0.216636925936, 0.030977282673, -0.056101471186, -0.029532548040, -0.038086961955, -0.027710329741, -0.055412426591, 0.069123148918, -0.028658457100, -0.059411685914, 0.083856858313, -0.025712570176, 0.030011555180, 0.107789508998, 0.060860160738, 0.148710310459, -0.035686269403, 0.063782013953, 0.030611695722, 0.029618103057, -0.012992376462, -0.027530148625, 0.067806787789, 0.030948828906, -0.036773264408, -0.166395008564, -0.024348875508, -0.029875438660, 0.055449865758, -0.061858419329, 0.080098487437, -0.016898073256, 0.094879500568, -0.076344616711, 0.081205256283, 0.040414415300, 0.084067344666, -0.051251795143, 0.085703045130, 0.037720784545, -0.095475487411, 0.124071568251, -0.055418036878, -0.047622140497, 0.042392127216, -0.060687817633, -0.143211230636, 0.085672907531, -0.049449171871, 0.158910691738, -0.030525993556, 0.032520946115, -0.034076206386, 0.032252989709, 0.173511475325, 0.027547443286, -0.002057343954, 0.031992632896, 0.048377066851, -0.011336340569, -0.060947809368, -0.012307772413, 0.015766862780, -0.041976395994, 0.028458293527, 0.071231253445, 0.001369377947, 0.010386108421, 0.109857469797, 0.023008849472, 0.087046705186, -0.028146831319, 0.035837318748, 0.084402494133, 0.075087971985, 0.126855835319, 0.032571766526, -0.035755652934, 0.192801505327, -0.011014885269, -0.023530434817, -0.059022799134, -0.031528890133, 0.137403458357, 0.079147048295, -0.032674599439, -0.175787433982, 0.171119794250, -0.016563124955, 0.165871933103, -0.051733352244, 0.079658567905, 0.149200841784, 0.053056765348, -0.006932958961, 0.028269011527, -0.031933497638, -0.031121397391, -0.109539665282, -0.097665332258, 0.039896331728, 0.063247069716, -0.131770610809, -0.000569737749, 0.060733772814, -0.117607496679, -0.125800192356, 0.017432684079, 0.007212365046, 0.058473743498, 0.094678081572, 0.068294063210, 0.099263481796, -0.140408441424, -0.033700350672, -0.031494829804, 0.032917540520, -0.039736010134, 0.016281297430, -0.034254029393, 0.096240393817, 0.030763300136, 0.023344131187, -0.093087591231, -0.065238498151, -0.025921884924, -0.076320752501, 0.177321314812, -0.093696489930, -0.098219715059, 0.047203838825, 0.092597693205, -0.002246995689, -0.003695737338, -0.028935095295, 0.034285422415, -0.030686184764, 0.027864124626, 0.201923400164, -0.153685003519, -0.028091108426, 0.086885042489, 0.097315475345, -0.047086831182, -0.042578563094, -0.184315323830, -0.019018298015, -0.034795906395, 0.050097551197, -0.078708827496, -0.021029353142, 0.027557848021, 0.046411015093, 0.034581374377, -0.081533856690, -0.030058581382, 0.095239549875, -0.024348067120, -0.017325809225, 0.024715457112, 0.090267620981, -0.005401014816, -0.033331509680, -0.030168170109, -0.051791921258, -0.022094015032, -0.010707677342, 0.023770272732, -0.024900199845, -0.148546293378, 0.084430634975, 0.065300092101, 0.003479576902, 0.003497792641, -0.094647660851, 0.033907502890, -0.026771675795, 0.000773795531, 0.030860135332, 0.023535458371, -0.142844796181, -0.044047564268, -0.031824845821, 0.007152345497, -0.077905297279, -0.195709571242, 0.023359298706, 0.035809077322, -0.082804515958, 0.028849368915, -0.071614265442, 0.140157490969, -0.032864153385};
#endif

#endif
