0.09179816, 0.02058070, 0.18973278, -0.25574127, -0.12192781, -0.13275841, 0.03419618, -0.21963969, -0.04516614, -0.15354991, 0.00128195, -0.03080282, 0.12825207, -0.03712453, 0.01022159, 0.14561898, -0.17600432, 0.10025790, 0.28057769, 0.09203984, -0.02877409, -0.30954659, -0.02077418, 0.27125478, 0.07529952, 0.39647710, 0.17405878, -0.02863451, 0.00286388, -0.04077471, -0.13611695, 0.12373416, 0.02333226, 0.00716235, 0.12907866, 0.15968069, 0.05437064, 0.23420420, -0.22469221, 0.18863873, 0.11791358, 0.13138658, 0.16105936, 0.08909751, 0.09332489, 0.08532342, 0.14315933, -0.01819314, -0.02288686, -0.21845649, 0.04163081, -0.08603161, -0.15652502, 0.11011612, -0.14492221, -0.22438465, 0.24833553, -0.07500008, 0.12795168, 0.09467342, -0.15275633, 0.03912213, 0.04261812, -0.32207277, 0.04639916, 0.11546259, -0.19683066, 0.19904949, 0.16138485, -0.13125448, 0.03075632, -0.28341702, 0.08293293, 0.32995543, -0.08458012, -0.05680745, 0.07035308, -0.05446687, 0.15313751, -0.04083792, -0.11530215, -0.34448308, -0.06186014, -0.05003502, -0.03214295, 0.13112962, 0.04881418, -0.02486812, 0.08862630, -0.15787122, -0.17544006, -0.31615376, 0.05625103, -0.23453023, -0.03633653, 0.04113474, -0.00660444, -0.13651690, -0.27305827, 0.17726466, -0.14370637, -0.04249630, 0.09801356, 0.12292349, 0.02226483, -0.15764387, -0.14662784, -0.18362220, -0.21310766, 0.04912121, -0.11023635, -0.05627297, 0.23368520, -0.06294524, -0.25379431, -0.11370017, -0.01261073, 0.13423839, 0.01459316, -0.05019803, -0.08825540, 0.11237998, -0.03119197, 0.10035008, 0.03544591, 0.00308706, -0.17307989, -0.14819781, 0.18383865, -0.18087731, 0.06503948, -0.15839967, 0.02178585, 0.36922535, 0.26248568, 0.16005906, -0.09349621, -0.27304035, 0.20684896, 0.11449228, 0.14372507, -0.18028060, 0.14998348, 0.22400285, -0.20800020, -0.08071131, -0.13072103, -0.15363723, 0.15568252, -0.22353488, -0.09626728, -0.13923983, 0.17961568, 0.02928874, -0.17064951, -0.11101279, 0.16226611, 0.21043342, -0.16426578, 0.27534318, -0.01708774, 0.25039482, 0.03219052, 0.15439638, 0.03778177, 0.08018868, -0.03780224, 0.01190686, -0.07571613, -0.02358851, -0.09648313, -0.13452239, 0.19117588, 0.13329202, -0.03649178, -0.00928488, 0.11201285, 0.17710288, -0.03614401, -0.02663174, -0.12935752, -0.13047372, 0.15450072, -0.24775708, -0.10080386, -0.10046361, 0.03494066, -0.18955341, 0.08485233, 0.02839326, 0.03188659, 0.15727432, 0.11729386, 0.12303128, 0.19553217, 0.17548108, -0.05532240, 0.00511135, -0.11666004, 0.20438659, 0.05769409, -0.09367007, 0.05246961, -0.17803431, 0.09808284, -0.28683850, 0.18992452, 0.04805253, 0.21910350, -0.12267675, -0.06325258, 0.16497864, -0.03078453, 0.13742107, 0.21774049, -0.04750771, 0.15649801, 0.07065450, -0.24341193, 0.12145406, -0.06296793, -0.31484041, 0.30315962, 0.01266398, 0.18777944, -0.04001104, 0.10682841, 0.31264552, -0.04593410, 0.09911793, -0.08167891, 0.26963383, -0.05560688, 0.17730670, -0.32701737, -0.19221216, -0.11832223, 0.38296461, -0.08008008, -0.11881624, -0.12562689, -0.24369754, -0.12333337, 0.06206733, 0.01949355, 0.10829569, 0.03102027, -0.02338546, 0.26855668, 0.32285029, 0.23139116, 0.31770882, 0.09301385, 0.15887962, -0.14838888, 0.24062410, -0.17755383, -0.26281887, -0.01591006, 0.13599125, 0.23449194, -0.09240057, -0.08622397, 0.27307960, 0.13395803, -0.31657121, -0.33935967, -0.10184451, -0.05426780, -0.00240593, 0.10151149, -0.36029682, 0.28961504, 0.34526366, 0.02895573, 0.16611749, -0.24060778, 0.07015210, -0.00887810, 0.07163694, 0.03325142, 0.11569548, -0.17583655, 0.20337127, 0.16223803, -0.15757513, -0.20614477, -0.25935343, 0.00496195, 0.25104371, 0.31842229, -0.00210778, -0.22763054, 0.23051448, 0.13478921, -0.10803309, 0.08627217, 0.15116227, 0.11223856, 0.20444654, 0.30701381, 0.26245517, 0.35966235, 0.03432693, 0.09440296, -0.14567250, 0.06179572, 0.18596125, 0.33714202, -0.09456681, 0.04895844, 0.04131351, -0.09805065, -0.07392288, 0.21085413, -0.10262626, -0.02904368, -0.07963899, 0.14109078, 0.18310323, -0.35436156, -0.23437254, 0.22986677, -0.37460473, -0.06849021, -0.04639760, -0.26862231, 0.03193337, -0.08073591, 0.26636666, 0.27454573, -0.35891160, -0.19172306, -0.00417436, -0.02095296, 0.20712149, 0.22789346, -0.20267071, -0.25574419, -0.18926169, 0.28294468, 0.25580147, 0.03238361, 0.11310951, -0.35683978, -0.11239624, 0.01159194, 0.01826180, 0.07803839, 0.18303299, -0.04549329, 0.24037185, -0.12827627, -0.19194530, 0.11397444, -0.26435414, 0.16243550, 0.32618156, 0.21938989, 0.00560821, -0.01780509, -0.05118306, -0.05843817, -0.36756960, -0.00705297, -0.24414243, 0.02779895, 0.38220024, -0.12384262, 0.05621515, 0.16796713, -0.06898271, 0.03782832, -0.13948433, 0.05877391, -0.14074716, -0.25248098, 0.13234080, 0.02067091, -0.18407528, 0.27949443, 0.28538975, -0.15245436, -0.03422942