//Numpy array shape [2, 32, 6]
//Min -0.466539770365
//Max 0.374211847782
//Number of zeros 0

#ifndef ATTENTION_OUTPUT_WEIGHT2_H_
#define ATTENTION_OUTPUT_WEIGHT2_H_

#ifndef __SYNTHESIS__
q_multi_head_attention_45_default_t attention_output_weight2[384];
#else
q_multi_head_attention_45_default_t attention_output_weight2[384] = {-0.12081636, 0.11230942, -0.05075902, -0.06600060, 0.26837519, 0.21801759, 0.02880053, 0.02074778, 0.01503450, 0.02920059, 0.12155200, 0.01707207, 0.02698554, 0.01900221, 0.00035824, -0.02401236, 0.08270081, 0.07672250, 0.14754656, -0.02932133, 0.03356703, 0.00963919, 0.17302078, 0.21587107, 0.02939134, -0.02423298, 0.01631761, -0.01109844, 0.10954309, 0.21781865, 0.12601505, 0.03169209, 0.03645815, 0.14137906, -0.35089934, -0.21787433, 0.13220410, 0.02771746, 0.03137024, 0.05283916, 0.25176373, 0.13993195, 0.01110321, -0.03055219, -0.03175698, 0.08357573, -0.09890308, -0.07910454, -0.07574129, -0.09340165, 0.01003901, 0.21545863, -0.03379922, -0.06589041, 0.04164217, -0.10302257, -0.03438266, 0.24323638, -0.14309531, -0.03787644, -0.02962865, -0.03331464, 0.09361896, -0.07485519, -0.25164044, 0.18865317, 0.20807996, 0.09180292, 0.02883148, -0.08651505, 0.20242503, -0.16961037, 0.02131423, 0.02665519, 0.02775957, -0.02665733, -0.14504920, -0.17832600, 0.22476333, 0.13119456, 0.03083241, -0.09066349, -0.04418994, -0.03036310, 0.10749713, 0.04709849, -0.05090379, -0.01646323, 0.20665878, -0.01676619, -0.04289285, -0.06601932, -0.08255863, 0.10267135, 0.04601137, -0.13675803, 0.02510145, 0.02877231, -0.02795919, -0.04918060, -0.08510601, -0.30487093, -0.11433641, -0.09396092, 0.02265343, 0.07431356, 0.04484871, 0.13762970, -0.12015807, -0.14235567, -0.16502923, 0.01484076, 0.06451641, -0.03761820, 0.10957188, 0.14981423, -0.15499642, 0.07905657, -0.01020383, 0.15039863, -0.08574973, -0.07928709, -0.05124377, 0.13239819, 0.03122849, 0.09408066, 0.03229923, -0.02382821, 0.09202415, -0.11942027, 0.13099106, 0.23805174, 0.01166225, -0.02101036, -0.02965263, 0.07553735, 0.03741868, -0.01271644, 0.03264888, 0.13811295, 0.12885085, -0.12157278, 0.25044584, -0.26128945, -0.02902156, 0.02833926, 0.01175370, -0.06972154, 0.09842246, -0.19097942, -0.07804645, -0.03212332, -0.14062007, 0.15178339, -0.30150014, 0.04325488, -0.22770859, 0.02929173, 0.03995042, 0.01231006, -0.00096769, 0.32096368, 0.00686052, 0.02603133, -0.00927169, -0.02634641, 0.04031931, -0.06786040, 0.04111727, -0.04058760, -0.01877449, 0.04175283, -0.08497526, 0.11027160, -0.10505266, -0.00448517, -0.05501827, -0.02170979, 0.15685865, 0.21724865, 0.03014906, -0.02915501, -0.02827759, 0.08339763, 0.01371814, 0.01013966, 0.24982376, 0.09352566, -0.02344080, 0.07554439, -0.04172122, 0.09376905, -0.03344402, -0.03234413, -0.04615689, 0.07950278, 0.35613918, 0.05497330, -0.17181250, 0.05552241, -0.01313417, -0.11374357, -0.14942530, 0.09745765, -0.12965597, 0.03252419, -0.03231552, -0.09277260, 0.14509256, 0.37421185, 0.02984265, 0.03142202, 0.05795445, -0.11599860, 0.05577703, 0.01359019, 0.04192304, 0.03447566, -0.02388915, -0.07484254, 0.11658133, -0.04738730, 0.03314736, -0.03018616, -0.02146561, 0.08078793, 0.25723183, 0.03797082, 0.02982130, 0.03103946, 0.02775384, -0.09301011, -0.11638280, 0.02117510, -0.03216283, -0.09223813, -0.03106376, 0.09552453, 0.16151415, 0.21194667, -0.04939247, -0.03209872, 0.15718527, -0.01932246, -0.04053216, 0.18895949, -0.15655833, 0.07698145, -0.00347320, -0.16321079, -0.07729941, -0.05919559, 0.09775912, 0.18432865, 0.14989406, -0.04761621, 0.33700243, -0.46653977, 0.10936059, 0.06994738, 0.02739756, -0.01863143, -0.01436159, -0.02619100, 0.13039416, -0.04234661, 0.03141167, 0.09735354, -0.17231201, 0.34626573, -0.25224581, -0.03049778, 0.23786797, 0.15402423, -0.07594219, -0.02535123, 0.02713810, 0.02338968, 0.04729158, 0.02116701, -0.24533069, -0.06800821, 0.14956991, -0.01706594, 0.03552734, -0.02556417, 0.07346378, -0.09520961, 0.17090671, -0.13938375, -0.02711799, 0.14548855, 0.02781122, -0.29486105, -0.02077606, 0.03051614, -0.03179052, -0.06831846, 0.21863957, -0.15632708, 0.09180721, 0.01114682, 0.02757843, 0.05208931, 0.09501296, -0.08475229, -0.03131886, 0.03310400, -0.03201823, -0.10252912, 0.27628297, 0.21970734, -0.06252379, 0.11314839, 0.11553729, -0.15224729, -0.04963238, -0.08636767, -0.11571835, 0.06803583, -0.06069161, -0.07096589, -0.14292732, -0.29890317, 0.03454919, 0.06276237, 0.06498646, 0.03365213, 0.15872221, -0.04406616, 0.08588500, 0.06688953, -0.08238035, 0.01125787, 0.13436930, 0.36360103, -0.16106558, -0.05364746, -0.05567292, 0.03150053, 0.18714905, 0.26300466, 0.09092424, 0.07856057, -0.00718452, -0.01305812, 0.20549680, -0.08303722, -0.03018855, -0.01262792, 0.01308033, 0.03408581, 0.01529224, -0.14506966, -0.05398052, -0.18054692, -0.02628978, -0.16273326, -0.09083155, 0.24944262, -0.03041827, -0.03142523, -0.03104217, 0.03311995, 0.19254646, -0.01296329, 0.15004133, -0.03085780, 0.15765116, 0.08660188, 0.10210129, -0.14589626, 0.00637986, 0.02271017, 0.01373769, 0.02205312, -0.11244334, -0.07255235, -0.20982230, 0.14236245, -0.13233018, -0.15692545, 0.21644942, 0.29295859};
#endif

#endif
