0.08538050, 0.11654364, 0.06407283, 0.01936692, 0.25419989, -0.07301381, -0.05676025, 0.03506045, 0.16832341, -0.10806417, 0.10729804, -0.05085375, 0.12301926, -0.12552728, -0.09043745, -0.00251400, 0.15439437, 0.20964025, 0.00493264, 0.10505442, 0.09245071, -0.04307168, -0.07173993, -0.13218941, -0.02865358, 0.00559945, 0.03026532, 0.10491678, -0.09750805, 0.08573359, -0.06183493, 0.08638100, 0.10516657, -0.10913245, 0.02687652, -0.11799748, -0.16289368, 0.22003819, 0.25134498, 0.03299626, 0.03836530, -0.10082959, 0.03375809, 0.11281053, 0.17750725, -0.12459485, -0.04018860, 0.17047589, 0.06541403, 0.14640139, 0.08769039, -0.08894018, -0.04398052, -0.13567397, 0.03677749, -0.17101902, -0.18535306, 0.09323833, 0.09481911, 0.21119075, 0.13521658, -0.12772943, -0.11314307, -0.09156050, -0.01829302, -0.09077396, 0.14867572, -0.04395331, -0.02906872, -0.06348967, -0.22887178, -0.15718611, 0.03335368, -0.18390651, -0.15955056, -0.02652158, -0.09336320, -0.24848203, 0.03426199, -0.04774951, -0.03367990, 0.04093974, 0.08154828, 0.11234694, -0.02661370, 0.03761241, -0.08169886, -0.06162914, 0.16902211, -0.07545273, 0.04809637, 0.09867591, 0.02363392, -0.16874480, 0.11382940, -0.22783983, 0.07555265, 0.22082469, 0.15924035, 0.09109938, -0.16688438, 0.21981934, -0.19517589, 0.17671034, -0.20033024, 0.04422262, 0.09991683, 0.04556952, 0.15245390, -0.00142434, 0.08145156, -0.01081874, -0.12575823, -0.23683257, 0.12022263, -0.15312700, -0.08031841, 0.03335908, -0.05020704, 0.08801806, 0.10651719, 0.15133066, -0.04643437, -0.31502149, -0.17979559, -0.09384585, 0.05992531, 0.09682484, 0.09466419, 0.03307327, 0.14257336, 0.02818680, 0.00506141, 0.15604341, -0.03069337, -0.08282977, 0.14850162, -0.16175109, 0.06168285, -0.15566927, -0.10580653, 0.14182183, 0.20606540, 0.15363497, -0.14831862, -0.04515810, 0.02709918, -0.11982190, -0.04426809, -0.15740865, -0.13387625, 0.03551918, -0.05289476, -0.21221095, 0.21760520, -0.21090005, -0.09384622, -0.06523522, -0.03431039, 0.14666483, -0.09514104, -0.09041987, 0.02740097, -0.12048761, 0.01084006, 0.05566613, -0.22799005, -0.03414069, -0.18209836, 0.18918300, 0.15538651, -0.10847614, 0.21253589, 0.15565692, 0.08163717, 0.27465385, -0.00736187, -0.28760841, 0.01982563, 0.09963240, 0.04049735, 0.06661293, 0.12389458, -0.07426508, 0.04666739, 0.04595697, -0.02900574, -0.15519357, -0.00015899, 0.01529106, -0.28358510, 0.21772647, 0.16086844, 0.06359346, 0.14918776, 0.21992706, 0.14545324, -0.02241412, -0.00524087, -0.15190671, -0.05560287, -0.05749464, -0.05759919, -0.03291877, -0.26889986, 0.00845721, -0.02545097, 0.21458869, 0.18206008, -0.04470751, -0.06500506, 0.03023633, 0.02679090, 0.03010818, -0.16521505, -0.18210445, 0.09409243, -0.02765092, 0.03195658, -0.07160932, 0.21016052, -0.10279535, 0.02295057, 0.11463376, -0.15604129, -0.09213464, 0.18818714, 0.11498620, 0.00968395, -0.13042991, -0.03000321, 0.11407406, -0.22174621, 0.14918639, 0.12626320, -0.01602244, -0.13909519, -0.08307972, -0.13265470, 0.08732216, 0.02929574, 0.00244515, -0.02250016, -0.02857152, -0.12902890, -0.07698958, 0.12231854, 0.15372463, 0.09668007, -0.09431026, 0.25672862, 0.26415667, -0.05460550, -0.22287409, -0.07733622, 0.21680847, -0.20120510, 0.06890530, -0.02178413, -0.18550828, 0.04135285, 0.09498248, -0.36741814, 0.08653422, -0.12835257, 0.00237458, -0.10682462, 0.01324085, 0.16954036, 0.01687349, -0.03674616, -0.14703760, -0.14149801, 0.03492211, -0.04139773, 0.09444443, -0.15404314, 0.04059315, -0.02346485, 0.00210106, -0.03257699, -0.13352923, 0.05469811, 0.13582867, 0.03043602, -0.15506463, -0.17466845, 0.06961212, 0.02960262, -0.09499307, -0.08185980, 0.10886861, 0.20489818, -0.04985955, -0.15666364, 0.13702266, 0.08464784, -0.00491027, 0.12877822, -0.35768571, -0.09211197, 0.08707848, -0.05339323, 0.08693367, 0.09234291, -0.15045480, -0.11359854, 0.01157362, 0.08984328, 0.15362005, -0.29042003, 0.22676279, 0.02734596, -0.09414995, -0.10089236, 0.07751191, 0.33475620, -0.07995313, -0.14172287, -0.01815320, 0.12519091, -0.12362871, -0.11379151, 0.18113059, 0.19939075, 0.06387896, 0.08974782, -0.05656581, -0.18272334, -0.12431653, -0.08713552, 0.15212005, 0.08178352, -0.11135586, -0.24625219, -0.03955727, 0.25081509, 0.19878738, -0.02637646, -0.22253826, 0.00985238, 0.12520196, 0.01019781, 0.10698043, 0.14694308, -0.20940785, 0.17529826, 0.23584363, -0.00387719, 0.03721828, 0.01913909, -0.07922206, -0.01225397, -0.28867921, -0.11331960, 0.08375160, -0.05761024, -0.02903113, 0.13452977, 0.05365329, -0.02810933, -0.09059356, -0.02308466, -0.12287506, -0.07247457, 0.15809804, 0.03447381, -0.06724248, -0.00415599, -0.05709628, 0.19943583, 0.27871904, -0.25903702, 0.04445792, -0.01841323, -0.19164340, -0.24141924, -0.26102763, 0.03043653, -0.04419511, 0.03188386, 0.03616451, 0.11725821, 0.10072737