//Numpy array shape [2, 32]
//Min -0.000036895501
//Max 0.000057302965
//Number of zeros 0

#ifndef KEY_BIAS9_H_
#define KEY_BIAS9_H_

#ifndef __SYNTHESIS__
q_multi_head_attention_46_default_t key_bias9[64];
#else
q_multi_head_attention_46_default_t key_bias9[64] = {0.00001676, 0.00002183, 0.00001577, -0.00000527, 0.00002659, -0.00002616, -0.00002407, 0.00002366, -0.00000633, 0.00004547, -0.00001967, -0.00001012, 0.00000871, -0.00002466, 0.00001527, -0.00000912, 0.00005730, 0.00000595, -0.00001481, 0.00002611, 0.00003219, -0.00000496, -0.00000164, -0.00001563, 0.00001093, 0.00002632, 0.00002669, -0.00002527, -0.00001555, -0.00001277, -0.00001220, -0.00002373, 0.00001411, -0.00001274, -0.00000347, 0.00001396, 0.00000619, -0.00002836, 0.00000548, -0.00003002, 0.00002717, -0.00003690, 0.00002199, 0.00000241, 0.00001503, -0.00001444, 0.00001438, 0.00002004, -0.00000162, -0.00001309, 0.00001329, -0.00000160, 0.00000706, 0.00000455, -0.00001834, 0.00000108, -0.00000847, -0.00000787, -0.00000805, -0.00000162, 0.00001162, -0.00000146, -0.00000134, -0.00001058};
#endif

#endif
