//Numpy array shape [2, 32]
//Min -0.000055383167
//Max 0.000079455356
//Number of zeros 0

#ifndef KEY_BIAS2_H_
#define KEY_BIAS2_H_

#ifndef __SYNTHESIS__
q_multi_head_attention_45_default_t key_bias2[64];
#else
q_multi_head_attention_45_default_t key_bias2[64] = {-0.00002047, -0.00002033, -0.00001098, -0.00002568, 0.00001486, -0.00000024, 0.00003574, -0.00004402, -0.00000282, 0.00002577, -0.00001209, -0.00001983, 0.00000821, 0.00000139, 0.00000725, -0.00000705, -0.00000532, 0.00002997, 0.00001373, 0.00001217, -0.00002059, -0.00000100, -0.00003373, -0.00000511, 0.00001929, -0.00002193, 0.00000074, 0.00000020, 0.00004007, 0.00000821, 0.00001035, 0.00002788, 0.00005611, 0.00003804, -0.00001295, -0.00002520, 0.00001446, -0.00001005, -0.00002593, 0.00003083, 0.00002249, 0.00004400, -0.00000638, 0.00006312, 0.00002310, 0.00002466, -0.00004702, -0.00001447, -0.00003330, 0.00005015, -0.00004108, 0.00001507, -0.00002756, 0.00007946, -0.00000451, 0.00001475, -0.00000822, 0.00002924, 0.00001273, 0.00002812, -0.00000794, 0.00002571, -0.00002597, -0.00005538};
#endif

#endif
