//Numpy array shape [2, 32]
//Min -0.771858692169
//Max 0.889924168587
//Number of zeros 0

#ifndef QUERY_BIAS16_H_
#define QUERY_BIAS16_H_

#ifndef __SYNTHESIS__
q_multi_head_attention_47_default_t query_bias16[64];
#else
q_multi_head_attention_47_default_t query_bias16[64] = {0.04591238, -0.70138574, -0.09913033, 0.13579725, 0.08876584, 0.06906433, 0.18198715, 0.09451821, 0.14843747, 0.01741434, 0.35395184, 0.15543866, 0.32431540, 0.03091063, 0.06266719, 0.10821927, 0.16330534, 0.19944185, -0.35995662, -0.07031044, -0.08126751, 0.12978424, 0.14029060, -0.22947866, 0.09555943, -0.16640054, -0.47460148, 0.16303125, -0.20532319, 0.02745429, 0.39878520, 0.39446875, 0.45360467, 0.28282624, 0.71705776, -0.24828732, -0.08967615, 0.55746168, -0.26432744, 0.69531065, 0.43247855, 0.22068739, 0.46208745, 0.50517344, -0.77185869, -0.14002416, -0.43472666, 0.52449721, 0.53485334, 0.03050983, -0.37176588, -0.41249561, -0.53206819, 0.35480174, 0.29111132, -0.22132154, -0.21987349, 0.88992417, -0.38103950, -0.39533156, 0.33080897, -0.47759327, 0.59298712, -0.32428804};
#endif

#endif
