//Numpy array shape [2, 32]
//Min -0.203696697950
//Max 0.084440767765
//Number of zeros 0

#ifndef VALUE_BIAS16_H_
#define VALUE_BIAS16_H_

#ifndef __SYNTHESIS__
q_multi_head_attention_47_default_t value_bias16[64];
#else
q_multi_head_attention_47_default_t value_bias16[64] = {-0.01735655, 0.02446346, -0.05401762, 0.02349006, -0.04567647, 0.03107089, -0.02312824, -0.05302273, 0.05756183, 0.04867229, 0.04712744, -0.12539631, -0.06424092, -0.00799017, -0.06485448, 0.03656067, -0.01795017, 0.02667355, -0.04514367, -0.02785979, -0.03225062, 0.03210831, -0.20369670, 0.01732601, 0.00451899, 0.03107122, 0.00054632, -0.00486799, 0.04126237, 0.03437251, -0.00152446, 0.02178056, 0.02332424, 0.08444077, -0.02368820, -0.02253893, 0.00126673, -0.03122869, 0.06513850, 0.02176323, 0.03601305, -0.01251807, -0.04039503, 0.03073121, -0.02708530, -0.01471636, 0.06979428, 0.03235624, -0.00879202, -0.02364247, -0.01140702, -0.03267886, -0.02328174, -0.05341097, 0.04003233, 0.01459088, -0.03057051, 0.01548212, -0.01765557, -0.03578285, -0.00432654, 0.04093340, 0.02838106, -0.01599785};
#endif

#endif
