//Numpy array shape [2, 32, 4]
//Min -0.557130455971
//Max 0.500120818615
//Number of zeros 0

#ifndef ATTENTION_OUTPUT_WEIGHT5_H_
#define ATTENTION_OUTPUT_WEIGHT5_H_

#ifndef __SYNTHESIS__
q_multi_head_attention_default_t attention_output_weight5[256];
#else
q_multi_head_attention_default_t attention_output_weight5[256] = {-0.25107315, -0.15947531, 0.35313535, 0.22827442, -0.16109401, 0.10590321, 0.20779435, 0.15531889, -0.29263106, 0.23099552, -0.23503312, -0.24709557, -0.05992875, -0.11450496, 0.18226646, -0.25579032, 0.18219569, -0.00098140, 0.08552757, -0.22132953, 0.23794033, 0.38325396, -0.37920550, 0.34234875, 0.27058512, -0.19361843, 0.02055859, 0.06131701, 0.17658751, 0.24496479, -0.27824697, 0.20994771, 0.22024174, 0.10624333, -0.41032398, -0.23377071, 0.15293771, 0.39537922, 0.04333153, 0.30074516, 0.28074706, 0.06932480, -0.07170304, 0.18284650, -0.20142709, -0.15512225, -0.19606031, 0.14892329, -0.40008098, -0.34361333, 0.00928669, -0.08300661, -0.03715676, -0.18071873, 0.43563873, -0.01018632, -0.17897910, -0.04263073, -0.01120954, -0.34431478, 0.33503652, 0.28525501, -0.22133516, -0.23858602, 0.05175114, -0.00733930, 0.42727843, 0.12361637, -0.11494358, 0.05728296, -0.09005629, -0.29863831, -0.42103487, -0.07250548, 0.44310021, -0.13801169, -0.28950557, 0.31608799, 0.05339440, -0.13469616, -0.19211407, 0.10989373, 0.46793354, 0.22882579, -0.39303419, -0.33267355, 0.30897373, -0.16196267, -0.04765356, -0.11125883, -0.13892145, -0.07910507, -0.38907295, 0.30386332, 0.20430328, -0.24865742, -0.12901336, 0.23562354, 0.20272119, 0.23690943, 0.34317541, 0.17461146, -0.35118690, -0.11240977, 0.08223003, -0.02222435, -0.14264123, -0.35397193, -0.18799251, 0.27129665, -0.30424497, -0.29213646, 0.31867033, -0.02882387, -0.33638039, -0.30710652, 0.43148366, 0.28218585, -0.25090611, 0.13601735, 0.28699324, 0.15573920, -0.04180003, 0.20062752, -0.20048243, -0.00378409, 0.39246660, 0.09265584, -0.05409003, -0.24145666, 0.12735467, 0.14577690, -0.13164665, 0.15243199, 0.27927712, -0.08412291, 0.33777672, -0.43944064, -0.24447265, -0.11207484, -0.28137079, 0.25492525, -0.23841777, -0.08877609, -0.31322032, 0.22280361, 0.45358956, -0.36788836, 0.28507018, 0.34772953, -0.01676719, 0.12148785, -0.02993062, -0.15341091, -0.37979090, -0.04566706, 0.30102292, 0.50012082, -0.27318171, 0.30465484, -0.34113872, -0.55713046, 0.31578496, -0.40860707, -0.07510605, -0.45477015, 0.35738060, 0.21434131, 0.03451417, 0.36636823, -0.01488571, 0.21861368, 0.29615182, 0.02061924, 0.25119269, 0.00383334, 0.34022802, 0.23497583, -0.34721604, 0.37647042, 0.08119854, 0.08772956, 0.35625085, -0.34533334, 0.16907391, 0.07027566, -0.04407575, -0.07274841, 0.37750924, -0.13982466, -0.26632854, 0.34678546, -0.18333037, -0.23609023, 0.17022102, -0.00060014, 0.14640172, 0.29158971, 0.00429821, 0.36854866, -0.18733338, -0.09044150, 0.03855553, -0.19252491, -0.25406381, 0.01680199, -0.14925225, -0.14603432, -0.31818822, -0.25487667, 0.36336955, 0.13485509, 0.33246854, 0.25900438, -0.09124669, 0.12802799, 0.09296440, -0.00349353, 0.25831926, -0.00562057, -0.13764390, -0.53014797, 0.47324950, -0.24415609, -0.14660902, -0.34766003, 0.10364915, 0.19423150, -0.03264296, -0.16576543, 0.37334114, -0.34505993, 0.01115739, 0.21578188, -0.18728051, -0.21287934, 0.19286929, 0.35094607, -0.13610293, -0.24618047, -0.10033989, -0.14891487, 0.12412826, 0.39116007, 0.11956980, 0.25929624, 0.29156664, 0.08809637, 0.06717463, -0.13683306, 0.02670170, -0.11727589, 0.32085875, 0.05524737, -0.20862989, 0.20373429};
#endif

#endif
