-0.22480787, 0.06113376, -0.17252825, -0.04755836, -0.27134669, 0.15709253, -0.00710112, 0.05471326, -0.04532575, -0.19652976, -0.23163682, 0.01962170, 0.13560553, -0.10308236, -0.21478896, 0.11332358, 0.21319653, 0.04631105, 0.01539990, -0.16693908, -0.02019241, -0.26265350, 0.08368260, -0.25756863, 0.19277331, -0.16412880, -0.18342334, 0.32171515, -0.21265276, 0.22506775, 0.35116237, 0.07091720, -0.42117795, 0.50450444, -0.13241154, 0.02411268, 0.50684750, -0.02537958, 0.38208443, -0.18018568, -0.31340528, 0.03826047, 0.03856335, -0.19732298, -0.30114982, 0.51043135, 0.22375892, -0.24277848, -0.04216909, 0.15429196, -0.12532036, -0.36722827, -0.15340640, 0.03745380, 0.39460379, -0.25448141, -0.28901699, -0.05274336, 0.06655928, -0.05487330, 0.27825174, -0.27704975, -0.20670934, -0.34555978, -0.10531274, -0.10188935, 0.12180576, 0.01160497, 0.23804146, 0.00403127, -0.06250225, 0.07181493, 0.15887110, 0.00195939, -0.27310321, 0.01307032, -0.11325877, 0.07419651, -0.16948262, 0.02034059, 0.38785952, -0.17668787, -0.10845254, 0.04125357, -0.07147260, 0.10438031, 0.05004381, 0.13122176, 0.29040968, -0.07931007, 0.13000500, -0.38114777, -0.05158820, 0.02841058, 0.25880113, 0.23670517, 0.15773350, -0.38122302, 0.30775520, 0.13062543, -0.36902407, 0.07291164, -0.08119269, -0.21974337, 0.32936630, 0.06986331, 0.17635679, 0.04620205, -0.23477212, -0.00035171, -0.27142787, 0.26759928, -0.33384779, -0.19956550, 0.29072368, 0.00334904, 0.04134386, 0.25805920, -0.13224354, -0.26077363, -0.01946570, 0.24438880, -0.39409250, -0.08025239, -0.04335616, 0.27152765, 0.26144838, 0.33540156, 0.37507138, -0.07171055, 0.08286542, 0.07791107, 0.21749222, 0.01634449, 0.33543342, 0.21454148, -0.33553341, 0.29786742, 0.08355082, -0.17184830, -0.00866885, 0.29066622, -0.02815597, 0.17948943, 0.15772931, 0.30696416, -0.38106036, 0.01544513, 0.01018316, -0.31928459, -0.21381636, 0.03152938, 0.10683836, -0.23155478, 0.13280226, -0.07802991, -0.03282167, -0.33044067, -0.38389125, 0.06327136, 0.09181533, -0.08451246, -0.02676415, 0.24035420, 0.10976266, -0.20159972, 0.16063616, -0.15719838, 0.03046710, 0.12501647, 0.13900903, -0.24956836, 0.19892512, -0.05513971, -0.06059486, 0.20910177, -0.25966567, 0.17322923, 0.05472115, 0.07661483, -0.12607621, 0.00307927, -0.24801551, -0.09894580, 0.24811153, -0.00077031, 0.11925024, -0.05804873, -0.15002932, 0.27472681, -0.12256315, -0.27530712, -0.20261629, -0.25589418, 0.12174061, 0.01270404, 0.21687001, 0.11794862, -0.17452645, -0.18234009, 0.27919951, 0.06691205, -0.39294654, 0.29158822, 0.03794996, 0.10434175, -0.12491984, -0.14086002, -0.22069372, -0.26827109, 0.31304526, 0.25372079, 0.21263336, 0.27718422, 0.01830789, 0.34090868, 0.10549675, -0.00388737, -0.11590782, -0.17742798, 0.17747782, 0.05075092, 0.24409580, 0.24816094, -0.16402309, -0.02420340, 0.18425225, -0.02438440, 0.12565395, 0.10978355, -0.08273073, -0.17901608, -0.03907775, 0.15407780, -0.23193263, 0.31349432, -0.13596180, -0.19121876, 0.14088798, 0.15197913, -0.31660861, -0.31550682, 0.04376857, 0.21924932, 0.24737950, 0.28732726, 0.25552583, 0.18400772, -0.06206390, 0.20111419, 0.02762295, -0.08553251, -0.01972047, 0.16135971, 0.29254794, 0.28219050