//Numpy array shape [2, 32]
//Min -0.000015185712
//Max 0.000015040097
//Number of zeros 2

#ifndef KEY_BIAS14_H_
#define KEY_BIAS14_H_

#ifndef __SYNTHESIS__
q_multi_head_attention_1_default_t key_bias14[64];
#else
q_multi_head_attention_1_default_t key_bias14[64] = {0.00000407, 0.00000116, -0.00000386, 0.00000142, 0.00001108, -0.00000440, -0.00000376, 0.00000003, -0.00000005, 0.00000500, -0.00000415, 0.00000260, -0.00000069, -0.00000126, -0.00001519, -0.00000115, 0.00001504, -0.00000384, -0.00000212, 0.00000194, 0.00000000, 0.00000405, -0.00000534, 0.00000441, -0.00000160, -0.00000385, -0.00000008, 0.00000557, 0.00000181, 0.00000065, -0.00000240, 0.00000111, 0.00000132, 0.00000428, -0.00000132, 0.00000056, 0.00000466, 0.00000054, -0.00000411, -0.00000750, 0.00000094, -0.00000638, -0.00000143, -0.00000078, 0.00000079, -0.00000181, 0.00000312, 0.00000399, -0.00000133, -0.00000202, 0.00000251, 0.00000220, -0.00000206, -0.00000518, 0.00000000, 0.00000392, -0.00000052, -0.00000116, 0.00000213, -0.00000210, 0.00000672, 0.00000153, 0.00000140, 0.00000006};
#endif

#endif
