//Numpy array shape [2, 32]
//Min -0.205379843712
//Max 0.229686006904
//Number of zeros 0

#ifndef QUERY_BIAS14_H_
#define QUERY_BIAS14_H_

#ifndef __SYNTHESIS__
q_multi_head_attention_1_default_t query_bias14[64];
#else
q_multi_head_attention_1_default_t query_bias14[64] = {0.07888521, -0.03581911, 0.04924713, -0.03887910, -0.10308048, -0.14186127, -0.01757967, -0.14641087, 0.05110308, -0.05406951, -0.04132660, -0.04229404, -0.07668309, -0.20537984, 0.09233062, 0.10915293, 0.10348732, -0.03203644, -0.08722781, 0.19513625, 0.05094527, -0.01060765, -0.04872800, 0.08685827, 0.22968601, -0.07888521, 0.20119123, -0.01202049, 0.02595172, 0.01918241, -0.11789790, 0.08659892, -0.09230352, -0.10851927, -0.05441897, 0.11356871, 0.10873523, -0.14184484, -0.09359085, -0.11212434, -0.11075511, -0.09645724, -0.08201040, 0.10631081, -0.09738304, -0.01214217, -0.11286671, 0.09294300, -0.01586652, 0.11880017, 0.11826907, -0.02293192, 0.09311728, 0.15131892, -0.06583451, 0.12005170, 0.04570216, 0.13908365, -0.10901893, -0.10673203, -0.12336098, -0.02706213, 0.11242350, -0.11446282};
#endif

#endif
