//Numpy array shape [2, 4, 32]
//Min -0.556196033955
//Max 0.471544355154
//Number of zeros 0

#ifndef QUERY_WEIGHT14_H_
#define QUERY_WEIGHT14_H_

#ifndef __SYNTHESIS__
q_multi_head_attention_1_default_t query_weight14[256];
#else
q_multi_head_attention_1_default_t query_weight14[256] = {0.07453505, 0.29880953, 0.24214773, -0.36680183, -0.55619603, -0.48339644, 0.28293133, 0.12510477, 0.33140153, 0.32081905, 0.34532672, 0.25811005, 0.16195840, -0.12479294, 0.44769824, 0.10997036, 0.47154436, 0.13467108, -0.31240407, 0.32281649, -0.00836746, -0.20167938, -0.35454205, 0.28667831, 0.31208357, -0.10125732, 0.13838153, 0.15037020, 0.18048987, -0.32197204, -0.35060382, -0.17118394, -0.00831383, -0.00275718, 0.06949160, -0.00547691, 0.03475314, 0.26222137, -0.05717652, 0.23921508, 0.04556195, -0.14267406, 0.08314201, 0.20815746, 0.01150587, 0.12468060, 0.12041675, -0.03727305, -0.22222057, 0.07054635, 0.16309987, -0.22708102, 0.00305114, 0.05304258, -0.14097039, -0.10653827, -0.27161750, -0.11691030, -0.34952095, 0.10869655, 0.07015412, 0.02047462, 0.18959656, -0.23363782, 0.31814235, -0.24521929, -0.35111296, -0.01480479, 0.16902791, 0.20328388, -0.18796477, -0.23329841, -0.03670517, 0.01513167, -0.32630497, -0.14392917, -0.02647111, 0.01670704, -0.22508755, -0.00002887, -0.27584812, -0.30275512, 0.17690448, -0.12760025, 0.12026403, 0.19730599, 0.14079866, -0.05060593, -0.02385432, -0.26863030, 0.15201147, 0.04321646, 0.05238054, -0.04631520, 0.20776173, 0.30690098, -0.00733888, -0.28496519, 0.08059930, 0.23865195, 0.05229479, 0.04317235, 0.08380512, -0.10637543, -0.17878240, -0.23895854, -0.04913351, 0.08974516, -0.20771332, -0.18003599, -0.06356088, -0.16719241, 0.01118419, -0.28254554, 0.28651011, 0.18453020, 0.10464641, 0.15284748, -0.06255574, 0.16799809, -0.15707672, 0.07205377, -0.21088915, -0.07681731, 0.00108659, 0.18266754, 0.00033318, 0.09465092, 0.30850297, 0.00248889, 0.11439534, 0.16179620, -0.13983157, -0.16215147, 0.24452813, -0.09603301, -0.19079980, 0.09278812, -0.21838765, 0.00436982, 0.02183100, 0.19645721, 0.12690923, -0.18884073, -0.03086846, 0.41108599, 0.35786504, -0.22771023, 0.04290319, -0.03060890, 0.00848154, 0.16900589, 0.05067612, -0.31266311, 0.01563080, -0.06596281, -0.08924913, -0.52370447, 0.07743488, -0.03108154, 0.07886475, 0.17797324, -0.03986183, -0.13139704, -0.21445301, 0.01026024, 0.01647035, 0.25547218, 0.17176181, 0.21701972, 0.23823974, 0.04130503, -0.02892034, -0.06760510, 0.00008869, 0.00252173, 0.05702757, -0.09855647, -0.06376547, -0.04936292, -0.00769860, -0.05348076, 0.09214149, -0.22741653, -0.10174998, -0.00535001, 0.21603055, 0.11645573, 0.18903640, 0.20373066, 0.01808656, -0.09057225, -0.33102342, -0.11040614, -0.25499728, 0.01573523, 0.20800374, 0.10218928, -0.30627817, 0.12329913, -0.26235092, -0.05257272, -0.03113860, 0.12269442, -0.00845998, -0.16827697, 0.12214555, 0.14940037, -0.17268500, -0.16135728, -0.29586461, -0.12884012, 0.02373514, 0.25853354, -0.05267282, -0.06905878, 0.22168955, 0.15090764, -0.23428245, -0.19329426, -0.08115799, -0.00169909, 0.17332211, -0.23207113, -0.14222462, 0.11654765, 0.15341859, 0.14581922, 0.18696210, 0.17398052, 0.18778649, -0.15471278, -0.03814682, -0.19416006, 0.02450367, -0.19658060, 0.09092773, -0.13240483, -0.20316537, 0.07493144, 0.07495996, -0.09883746, -0.20488329, -0.04176977, 0.19869111, 0.01583256, -0.06678697, 0.13274460, 0.09022396, 0.00284920, 0.07737798, 0.13439670, -0.10535854, 0.20493498, 0.03213832, -0.05913798};
#endif

#endif
