-0.31364593, 0.31236610, -0.20826775, -0.12047678, 1.08219182, 0.10767750, 0.20346478, 0.12203921, -0.45529252, 0.13206822, 0.19557855, -0.13079302, -0.14827202, 0.49037978, 0.29380208, -0.41384545, 0.04923064, -0.04932340, -0.31714654, -0.25440148, -0.08215354, -0.05905849, 0.38685951, 0.07913394, -0.13044292, -0.10095266, 0.12681539, -0.26588187, 0.24092372, -0.44312572, -0.09019060, -0.31068498, -0.13462315, -0.05104116, -0.11648040, 0.15342695, 0.12645431, 0.05429485, 0.22053777, 0.15771405, 0.00442726, -0.26488444, -0.19180119, 0.04763165, 0.19792925, 0.07459123, -0.14407171, -0.22808473, -0.02088202, 0.23486148, 0.06644622, 0.12051185, 0.13943626, -0.31738180, -0.04898087, -0.25606099, 0.18824664, -0.17382967, 0.09170463, -0.13345420, 0.25544283, -0.05178518, 0.19181155, -0.11421038, 0.06502896, -0.20379262, 0.24335195, -0.03210849, -1.03110886, 0.18690059, -0.20891072, -0.07453504, 0.14626037, 0.02467523, 0.31798983, 0.24781293, -0.26490754, -0.13353452, -0.30845198, 0.29945394, -0.32766318, -0.10480466, 0.23659541, 0.28446108, 0.18322894, -0.11224274, -0.05189450, -0.28042856, 0.06140342, 0.11892885, -0.30072442, 0.48632082, 0.11319703, 0.35861447, 0.16850185, 0.21402051, 0.27977359, -0.36000273, 0.01095031, -0.10519391, -0.93190825, 0.09441547, -0.23635739, 0.25636026, 0.35310194, -0.16888684, 0.13416192, 0.18503807, 0.21339144, -0.30567953, -0.19029276, 0.43506446, -0.05499166, -0.36254039, 0.14934616, 0.20227213, -0.08063012, 0.25293741, -0.25149253, 0.02742224, 0.32159847, 0.04041434, -0.29542693, 0.10924192, -0.13013282, 0.50596535, 0.31731719, 0.17981425, -0.46929634, -0.10428856, -0.06304463, -0.29339284, -0.14631402, 0.15253870, -0.23729059, 0.04080085, 0.78707194, -0.24316050, -0.35701349, 0.53604454, 0.03329550, -0.12176578, 0.15359588, 0.08860951, -0.01789923, -0.42294338, 0.58619732, 0.33545175, 0.05760429, 0.20846346, 0.24987336, 0.35907337, -0.09980446, 0.14654943, -0.04287814, -0.15830266, 0.12692896, 0.27426386, 0.44038823, 0.07189832, 0.08877573, 0.24791713, -0.01700959, -0.03604672, -0.22752626, 0.30953199, -0.06606676, -0.11279287, -0.20475167, 0.03103049, -0.26900348, 0.17730018, -0.13851349, 0.13435434, -0.26164892, -0.18235493, -0.25232944, -0.12158154, 0.13859221, 0.10607913, 0.11527954, 0.19378398, 0.11340519, 0.10164433, -0.25843984, 0.15304494, 0.14546461, 0.23737141, -0.11940759, -0.00602903, 0.23926950, -0.04340976, 0.29788762, -0.02783503, -0.23183747, -0.02002601, -0.09955299, -0.15046294, 0.29424825, 0.26506633, -0.33122233, 0.22956032, -0.08284941, -0.15174994, -0.03483605, -0.12054668, -0.10334284, -0.18650477, 0.22811721, 0.37382847, -0.54317933, -0.25663683, -0.07086160, 0.05682195, -0.06260742, -0.21197096, -0.10457032, -0.18830240, 0.06745388, -0.29694501, -0.17253886, -0.26363966, -0.18279396, -0.11666653, 0.31739309, 0.27923453, -0.05074871, -0.09655994, -0.12298060, 0.04225832, 0.16069947, 0.23141403, -0.84633666, -0.03841740, 0.48919123, -0.00318863, -0.11690729, 0.22833152, -0.05446512, 0.22143318, 0.23799179, 0.47351691, -0.73664290, -0.12515238, -0.12102383, -0.33862814, -0.17393471, -0.27776840, 0.12621644, 0.13759637, 0.14322579, 0.09105430, 0.07714649, 0.21383537, -0.05465892, -0.37059084