//Numpy array shape [2, 32]
//Min -0.089989736676
//Max 0.092373803258
//Number of zeros 0

#ifndef VALUE_BIAS14_H_
#define VALUE_BIAS14_H_

#ifndef __SYNTHESIS__
q_multi_head_attention_1_default_t value_bias14[64];
#else
q_multi_head_attention_1_default_t value_bias14[64] = {0.00500170, 0.09237380, 0.05624904, 0.06589446, 0.04343022, -0.00338149, 0.03525212, -0.01115467, 0.07734907, -0.00984140, 0.04811560, -0.00013016, 0.01135246, -0.04444266, 0.05521701, -0.00524351, -0.05077804, 0.05077804, -0.01332378, -0.00958826, 0.00787710, 0.02218665, -0.00836399, -0.01122735, 0.01558794, 0.06256045, 0.05784221, -0.01368700, -0.05257441, -0.00942009, -0.00682538, 0.01301566, -0.00530612, -0.04295334, -0.00690918, -0.04569290, -0.07985960, 0.01178447, 0.02709445, 0.02748701, 0.03355279, -0.01865715, -0.02183192, -0.04770274, -0.04825128, -0.04534551, -0.01758484, 0.01082955, -0.00800706, -0.06308459, 0.01222058, -0.01274221, 0.04776804, 0.00520046, 0.04666591, 0.02543903, -0.02709445, -0.08998974, 0.01645979, 0.03808373, -0.01030258, -0.02709445, 0.02203245, 0.00575185};
#endif

#endif
