-0.12081635743, 0.11230941862, -0.05075902119, -0.06600060314, 0.26837518811, 0.21801759303, 0.02880053408, 0.02074777521, 0.01503450144, 0.02920058742, 0.12155199796, 0.01707206666, 0.02698554099, 0.01900221407, 0.00035824141, -0.02401236072, 0.08270081133, 0.07672249526, 0.14754655957, -0.02932132967, 0.03356702998, 0.00963918585, 0.17302078009, 0.21587106586, 0.02939133719, -0.02423297986, 0.01631761156, -0.01109843701, 0.10954308510, 0.21781864762, 0.12601505220, 0.03169209138, 0.03645815328, 0.14137905836, -0.35089933872, -0.21787433326, 0.13220410049, 0.02771745808, 0.03137024492, 0.05283916369, 0.25176373124, 0.13993194699, 0.01110320818, -0.03055218793, -0.03175698221, 0.08357573301, -0.09890308231, -0.07910454273, -0.07574129105, -0.09340164810, 0.01003901288, 0.21545863152, -0.03379921615, -0.06589040905, 0.04164217412, -0.10302256793, -0.03438265622, 0.24323637784, -0.14309531450, -0.03787643835, -0.02962864563, -0.03331463784, 0.09361895919, -0.07485518605, -0.25164043903, 0.18865317106, 0.20807996392, 0.09180292487, 0.02883147635, -0.08651505411, 0.20242503285, -0.16961036623, 0.02131423354, 0.02665519156, 0.02775957063, -0.02665733360, -0.14504919946, -0.17832599580, 0.22476333380, 0.13119456172, 0.03083241358, -0.09066349268, -0.04418994486, -0.03036310151, 0.10749713331, 0.04709849134, -0.05090378597, -0.01646323130, 0.20665878057, -0.01676618867, -0.04289284721, -0.06601931900, -0.08255863190, 0.10267134756, 0.04601136968, -0.13675802946, 0.02510144748, 0.02877231129, -0.02795919031, -0.04918060452, -0.08510600775, -0.30487093329, -0.11433640867, -0.09396091849, 0.02265343070, 0.07431355864, 0.04484871402, 0.13762970269, -0.12015806884, -0.14235566556, -0.16502922773, 0.01484076027, 0.06451641023, -0.03761819750, 0.10957188159, 0.14981423318, -0.15499642491, 0.07905656844, -0.01020382624, 0.15039862692, -0.08574973047, -0.07928708941, -0.05124376714, 0.13239818811, 0.03122849390, 0.09408066422, 0.03229922801, -0.02382821403, 0.09202414751, -0.11942026764, 0.13099105656, 0.23805174232, 0.01166224945, -0.02101035602, -0.02965263277, 0.07553734630, 0.03741868213, -0.01271644421, 0.03264887631, 0.13811294734, 0.12885084748, -0.12157277763, 0.25044584274, -0.26128944755, -0.02902155556, 0.02833926119, 0.01175370254, -0.06972154230, 0.09842246026, -0.19097942114, -0.07804644853, -0.03212331608, -0.14062006772, 0.15178339183, -0.30150014162, 0.04325488210, -0.22770859301, 0.02929172851, 0.03995042294, 0.01231005695, -0.00096768839, 0.32096368074, 0.00686051883, 0.02603133023, -0.00927168969, -0.02634640969, 0.04031930864, -0.06786040217, 0.04111726955, -0.04058760032, -0.01877449453, 0.04175283015, -0.08497525752, 0.11027159542, -0.10505265743, -0.00448516756, -0.05501827225, -0.02170978859, 0.15685865283, 0.21724864841, 0.03014906496, -0.02915501408, -0.02827758715, 0.08339763433, 0.01371814124, 0.01013965532, 0.24982376397, 0.09352566302, -0.02344080433, 0.07554438710, -0.04172121733, 0.09376905113, -0.03344402090, -0.03234413266, -0.04615689069, 0.07950278372, 0.35613918304, 0.05497329682, -0.17181250453, 0.05552240834, -0.01313416939, -0.11374356598, -0.14942529798, 0.09745765477, -0.12965597212, 0.03252418712, -0.03231552243, -0.09277260303, 0.14509256184, 0.37421184778, 0.02984265052, 0.03142201528, 0.05795444921, -0.11599860340, 0.05577702820, 0.01359019056, 0.04192303866, 0.03447565809, -0.02388914675, -0.07484254241, 0.11658132821, -0.04738730192, 0.03314735740, -0.03018615767, -0.02146560512, 0.08078792691, 0.25723183155, 0.03797082230, 0.02982129529, 0.03103946149, 0.02775384299, -0.09301010519, -0.11638280004, 0.02117509954, -0.03216283396, -0.09223812819, -0.03106375970, 0.09552452713, 0.16151414812, 0.21194666624, -0.04939247295, -0.03209872171, 0.15718527138, -0.01932246424, -0.04053216055, 0.18895949423, -0.15655833483, 0.07698144764, -0.00347319851, -0.16321079433, -0.07729940861, -0.05919558927, 0.09775912017, 0.18432864547, 0.14989405870, -0.04761621356, 0.33700242639, -0.46653977036, 0.10936059058, 0.06994738430, 0.02739755809, -0.01863143407, -0.01436158642, -0.02619099803, 0.13039416075, -0.04234660789, 0.03141167387, 0.09735354036, -0.17231200635, 0.34626573324, -0.25224581361, -0.03049778379, 0.23786796629, 0.15402422845, -0.07594218850, -0.02535122633, 0.02713809721, 0.02338968217, 0.04729157686, 0.02116701379, -0.24533069134, -0.06800821424, 0.14956991374, -0.01706594042, 0.03552734479, -0.02556416765, 0.07346377522, -0.09520961344, 0.17090670764, -0.13938374817, -0.02711798623, 0.14548854530, 0.02781121805, -0.29486104846, -0.02077605575, 0.03051614389, -0.03179051727, -0.06831846386, 0.21863956749, -0.15632708371, 0.09180720896, 0.01114682201, 0.02757843025, 0.05208930746, 0.09501295537, -0.08475229144, -0.03131886199, 0.03310399875, -0.03201822564, -0.10252911597, 0.27628296614, 0.21970734000, -0.06252378970, 0.11314839125, 0.11553728580, -0.15224729478, -0.04963238165, -0.08636766672, -0.11571834981, 0.06803583354, -0.06069160625, -0.07096588612, -0.14292731881, -0.29890316725, 0.03454919159, 0.06276237220, 0.06498645991, 0.03365213424, 0.15872220695, -0.04406616464, 0.08588500321, 0.06688953191, -0.08238035440, 0.01125787105, 0.13436929882, 0.36360102892, -0.16106557846, -0.05364745855, -0.05567291752, 0.03150052577, 0.18714904785, 0.26300466061, 0.09092424065, 0.07856056839, -0.00718452036, -0.01305811573, 0.20549680293, -0.08303721994, -0.03018854745, -0.01262791641, 0.01308032591, 0.03408581018, 0.01529223658, -0.14506965876, -0.05398051813, -0.18054692447, -0.02628978342, -0.16273325682, -0.09083154798, 0.24944262207, -0.03041826934, -0.03142523393, -0.03104217164, 0.03311995044, 0.19254645705, -0.01296329219, 0.15004132688, -0.03085779957, 0.15765115619, 0.08660187572, 0.10210128874, -0.14589625597, 0.00637985952, 0.02271017060, 0.01373768784, 0.02205312066, -0.11244333535, -0.07255235314, -0.20982229710, 0.14236244559, -0.13233017921, -0.15692545474, 0.21644942462, 0.29295858741