//Numpy array shape [2, 6, 32]
//Min -2.231344223022
//Max 2.320457696915
//Number of zeros 0

#ifndef KEY_WEIGHT2_H_
#define KEY_WEIGHT2_H_

#ifndef __SYNTHESIS__
q_multi_head_attention_45_default_t key_weight2[384];
#else
q_multi_head_attention_45_default_t key_weight2[384] = {-0.08449771255, 0.19922822714, 0.06282810867, -0.00633413764, -0.19790439308, 0.18234145641, 0.00400331616, -0.04308357462, 0.39530491829, -0.16343590617, 0.18728759885, -0.15395912528, -0.20026528835, -0.01059882063, 0.02293591946, 0.09161905199, 0.41733071208, -0.17141088843, -0.08201077580, -0.18425498903, 0.11282703280, 0.15936976671, 0.12471926212, 0.01503949147, -0.08119920641, -0.11896883696, 0.24185992777, -0.14145582914, -0.32702511549, -0.17628937960, 0.09342557192, 0.02498725615, -0.15455657244, -0.57488071918, 0.14743649960, 0.22135359049, 0.43393027782, -0.12022484839, -0.24616566300, 0.17566637695, -0.32067015767, 0.47042998672, -0.51418304443, -0.28634592891, 1.09135544300, -0.37257486582, 0.26787194610, -0.60259449482, -0.32993650436, 0.07801062614, 0.53636461496, 0.24997842312, -0.08002295345, -0.01291813236, -0.57617658377, 0.10885600001, 0.11064571142, -0.25195845962, 0.18151383102, 0.11762247980, 0.76100581884, -0.04165003076, -0.50986021757, 0.08541967720, 0.91955173016, 0.82027757168, 0.09627970308, 0.07734806091, -0.58827221394, 0.36126950383, -0.50735926628, 0.57440471649, 0.37041825056, -0.77292633057, -0.04148260877, -0.02867685445, -0.45778620243, -0.09155589342, -0.57743775845, 0.35178598762, 1.00045228004, -0.58635067940, -0.17326632142, -0.42215493321, 0.11570344120, 0.71433752775, 0.86884015799, 0.29742151499, -0.40892854333, -0.02257681638, 0.43253129721, -0.41654661298, -0.51321274042, -0.29116237164, 0.17658174038, 0.29681235552, -0.28842216730, -0.57559847832, 0.32225620747, 0.34995904565, 0.71924227476, -0.10177896917, -0.01202829927, 0.09397389740, -0.03717225417, 0.30561301112, -0.07724581659, -0.31044423580, 0.45014521480, -0.46182641387, -0.02366527915, -0.14476874471, -0.57163232565, -0.27451646328, 0.49357366562, 0.26061522961, 0.09873126447, -0.02345960774, -0.37781202793, -0.40238893032, 0.04022908956, 0.07638261467, 0.21045319736, 0.05525899306, 0.27376767993, -0.27875810862, -0.34539106488, 0.00366551848, 0.17513889074, 2.32045769691, -0.49845376611, -0.00815993641, -0.76210069656, 0.46617731452, -0.39430597425, -0.18167096376, 0.85188794136, -1.24083721638, 0.43125566840, -0.05480259284, -2.14400696754, 1.55651891232, -0.27542838454, 0.06804905832, 1.82295620441, 0.01447876170, -0.81435859203, -1.16003870964, 0.36122164130, 0.69427853823, 0.96771979332, 0.37849557400, 0.49755385518, -0.21741749346, 0.42120501399, -0.26194104552, -2.23134422302, 0.31642943621, 1.21202909946, 0.26521822810, -0.31345906854, -1.84238362312, -0.43087950349, -0.46349760890, 0.78089028597, -0.44392052293, -0.18723145127, 0.08327233791, -0.02320183069, 0.46761727333, -0.18250496686, -0.15474583209, 1.12393760681, -0.43295109272, -0.14124548435, -0.83977019787, -1.63071560860, 0.12438206375, 0.32393303514, 0.34996560216, 0.13127547503, -0.95796632767, -0.78221523762, 0.16196848452, 0.60096865892, 0.06711880863, -0.16985784471, 0.20983594656, 1.68164908886, -0.11141714454, -0.66990977526, -0.40622255206, -0.06888784468, -0.09667515010, 0.01116118394, -0.05056491494, 0.01039022580, -0.09358420968, -0.07161653787, -0.06658409536, 0.25325846672, 0.11636611819, 0.04442500323, 0.11018710583, -0.03189786151, -0.06022838876, 0.03805302829, 0.01474994142, -0.11624909192, 0.12376718968, 0.07036887109, -0.08771826327, 0.11617603153, 0.10609232634, 0.02368610911, 0.08736947179, 0.06156042591, 0.11261180043, -0.11689254642, 0.06275475025, -0.13168807328, 0.07699860632, -0.07455477864, -0.02100725658, -0.23571002483, -0.01519804541, 0.25546336174, 0.02919255756, 0.39305499196, -1.11986398697, -0.06860464811, 0.01318243425, 0.00120243756, -0.31761747599, -0.15287439525, -0.22753688693, 0.33618548512, -0.20306624472, -0.05085181817, 0.17208249867, 0.14490304887, 0.15852567554, -0.09410617501, -0.04360272363, 0.14667831361, 0.12525396049, -0.16654635966, 0.06375800073, 0.26616650820, -0.10732690245, -0.04233377427, 0.31561246514, -0.25897648931, -0.50171726942, -0.02819658816, 0.19686523080, -0.04768800735, -0.06143224239, 0.21957130730, -0.07538560778, -0.36038142443, 0.65413028002, 0.05184420571, 0.12094579637, -0.49041831493, -0.10060153157, 0.22334513068, -0.18407261372, -0.40874651074, 0.31113129854, -0.00622635614, 0.12902273238, 0.15754583478, -0.29874572158, 0.17769208550, 0.06732781976, -0.06248396635, -0.26063892245, -0.25140681863, -0.02367147617, 0.15714776516, -0.51986962557, -0.19011086226, -0.37811952829, 0.31968295574, 0.24598583579, 0.04590947926, 0.36644804478, -0.19791685045, 0.06018779799, -0.05853636563, -0.07512073219, 0.39008703828, -1.15429234505, -0.27038869262, 0.17476168275, -0.10968893766, -0.15358604491, -0.40907803178, -0.31912523508, 0.63338088989, 0.08192488551, 0.27538660169, -0.12507268786, 0.04071349278, 0.02038397826, -0.35918477178, 0.06291253120, -0.16079975665, 0.05755211040, 0.05659521744, 0.20820876956, -0.08406268060, -0.07209976017, -0.21403837204, -0.09653926641, -0.05995124578, -0.43357801437, 0.34369599819, 0.12576557696, -0.22851882875, -0.01391635276, 0.17374798656, 0.30216145515, -0.67893743515, 1.39621686935, 0.34761008620, -0.21869376302, -0.23494662344, -0.30193099380, 0.61804658175, -0.26487857103, -0.69754618406, -0.05564808100, 0.21708239615, 0.39181295037, -0.16436278820, -0.69739443064, 0.44099083543, -0.06278572232, 0.15277092159, -0.36554843187, -0.20903626084, -0.36645174026, 0.01634549350, -0.26196655631, -0.26448726654, -0.51933091879, 0.33599156141, 0.20658113062, -0.00074490259, 0.00663330639, -0.03692952171, -0.41890832782, 0.18315711617, 0.00571336783, 0.61602890491, -1.33177506924, -0.51337856054, 0.07564136386, 0.11644355208, -0.08788105845, -0.39186334610, 0.16561403871, 0.64837962389, -0.10208239406, 0.38308081031, -0.10524454713, -0.02163078636, 0.48359099030, -0.23462700844, -0.14592169225, 0.09741014987, -0.16040730476, 0.35585412383, 0.15139812231, -0.21430319548, -0.02646280825, -0.06820386648, 0.05216914788, -0.19361215830, -0.43459880352, -0.06081102416, -0.22309662402};
#endif

#endif
