-0.12598130107, 0.22023242712, -0.10950220376, -0.04177223891, 0.11105691642, -0.18076947331, -0.25937005877, 0.03004796617, -0.27009156346, 0.01208880357, -0.12752582133, -0.06150658429, -0.12949919701, -0.22950428724, 0.07872784138, -0.13640408218, 0.00329801068, -0.19697432220, 0.23954722285, 0.16238814592, 0.09006253630, -0.22145596147, -0.26244372129, 0.11130967736, 0.03243228421, 0.11804086715, 0.30727535486, -0.26346325874, 0.20609818399, -0.18910022080, -0.19218958914, -0.17365039885, -0.14560443163, -0.28208020329, -0.29277846217, 0.37322151661, 0.10103429109, -0.16995082796, 0.10891842097, 0.21737319231, 0.10910469294, 0.11338198930, 0.28331395984, 0.51643574238, -0.07812189311, -0.28342869878, 0.37079170346, -0.15868642926, 0.42932623625, 0.32171091437, -0.05157727003, 0.19040417671, 0.26881605387, -0.07572922111, 0.64779174328, -0.21911688149, 0.55824387074, -0.04971879721, -0.24784502387, -0.17428745329, 0.00498622842, -0.13406018913, 0.10870483518, -0.24943406880, -0.11831737310, 0.16650553048, -0.03556585684, 0.07438262552, -0.07134547830, 0.07852704823, -0.16745920479, -0.01291310973, -0.10475494713, 0.15562951565, 0.01101373881, 0.13749988377, -0.03501537070, -0.06100162864, -0.03336613998, -0.16564153135, 0.01147296000, -0.16831895709, 0.20250549912, 0.04719919339, -0.09030681103, -0.02106505260, -0.10598463565, 0.01870582439, -0.21205274761, 0.11398062110, 0.00936540030, -0.29240703583, 0.05197794735, -0.41896703839, -0.04763160646, -0.12558332086, 0.05846700817, 0.25885745883, 0.21724459529, 0.22234457731, 0.13306066394, -0.17937877774, -0.08730679750, -0.32765704393, -0.28258329630, 0.20300893486, -0.13742981851, -0.02541867457, -0.18590830266, 0.07019805163, 0.18275319040, -0.06929454207, 0.08042217046, -0.09693503380, 0.22226329148, 0.20602403581, 0.26549148560, -0.05721682310, 0.02206306532, 0.07955070585, -0.02054424956, -0.01963138953, 0.03982766718, 0.06884229928, 0.11539437622, -0.05728208646, -0.03081307933, -0.32793805003, -0.17461428046, -0.03650962189, -0.25604146719, -0.02287084050, 0.08444631845, -0.20825625956, 0.10017058253, -0.01347981207, 0.19783461094, 0.03169511259, -0.04947797954, 0.00735543575, -0.17053875327, -0.17848628759, 0.01552813966, 0.09356241673, 0.15961378813, 0.01110337488, 0.10689664632, 0.11113446206, 0.19712072611, 0.02520747483, 0.10152734816, -0.21907304227, 0.28593403101, -0.09260307997, 0.14627853036, -0.13248473406, -0.12245238572, -0.00137978292, -0.20696531236, 0.06963235885, 0.07467798889, -0.07855768502, -0.15945760906, 0.25184980035, 0.15445002913, 0.10145070404, -0.18080340326, -0.05396368727, -0.24642689526, -0.01224235166, -0.03464491293, -0.02814570069, 0.44218662381, 0.11119796336, 0.04742158949, 0.05588017404, 0.09684360027, -0.09287086129, -0.24366752803, 0.25546517968, -0.09032830596, -0.11917470396, -0.63884007931, -0.05696202815, -0.31881126761, -0.07483869791, 0.18432269990, 0.20089863241, -0.02164108865, 0.07645829022, 0.35322543979, 0.31326663494, -0.38958284259, -0.13176368177, -0.63143599033, 0.15674559772, 0.12163051218, -0.23388816416, 0.28929200768, -0.48140877485, -0.16435655951, -0.07040151209, -0.46430498362, -0.53291857243, 0.43084013462, 0.01774324104, 0.37680464983, -0.34738352895, -0.36076924205, -0.03743965179, 0.10824181885, 0.27193614841, 0.46224066615, -0.19966338575, -0.10703119636, 0.29595413804, 0.17584925890, -0.50361859798, 0.09344328195, 0.28437104821, -0.23542541265, 0.23673503101, -0.52353650331, 0.22545687854, 0.20201255381, -0.14045871794, 0.19465343654, 0.02367182821, 0.04178288952, 0.12146738172, -0.32290604711, -0.01809532382, 0.14826194942, -0.00044514539, 0.20564204454, 0.17197906971, 0.00625400571, -0.01083551161, -0.12734815478, -0.03079107590, -0.00379741658, 0.04443505406, -0.24079333246, -0.11832264066, -0.02791477740, -0.00125292107, 0.36735051870, 0.28173208237, -0.21020905674, 0.11063000560, -0.01105531212, -0.16090966761, 0.07979788631, -0.09906305373, -0.06769121438, -0.21927672625, 0.26377117634, 0.21923288703, 0.09591992944, -0.14052739739, 0.16247993708, 0.33164620399, -0.15063293278, 0.19007647038, 0.23120124638, 0.14682461321, 0.18801170588, 0.12605319917, 0.00230312184, 0.03183830157, -0.26669445634, -0.08402503282, 0.22283816338, -0.03757312521, -0.20142824948, -0.24552720785, -0.27426853776, -0.02014486119, 0.11491225660, 0.01650339365, -0.21180573106, 0.08399423212, -0.31389993429, -0.08793091774, 0.22262921929, -0.11232309043, 0.34299555421, -0.18404360116, -0.06759238243, -0.10526286066, -0.36210498214, -0.04757033661, 0.24349913001, 0.05800276622, 0.04727294669, -0.01474536862, -0.05508009717, 0.03575569391, -0.31216150522, -0.13757877052, 0.26424422860, -0.29175612330, 0.23170140386, -0.30669721961, 0.05908409879, -0.31713157892, 0.13385234773, 0.17679934204, 0.34429800510, 0.03479277343, -0.18325471878, 0.12479536980, 0.09449064732, -0.34385773540, 0.12872223556, 0.08504095674, -0.25775659084, 0.11397665739, -0.08203739673, 0.20633293688, 0.32663720846, 0.05382410437, 0.39031392336, 0.00942440610, 0.09669078141, 0.23249271512, -0.21580301225, 0.17854389548, 0.20408919454, 0.02649907954, 0.34272286296, 0.31364950538, -0.04241931811, -0.15226051211, -0.20748563111, -0.03699491918, 0.10803256929, -0.11542766541, -0.21869844198, -0.17046999931, -0.24737937748, 0.15995647013, 0.21490949392, 0.09648671746, -0.15656656027, 0.13858307898, -0.18878729641, -0.22555582225, 0.15671041608, -0.09350560606, 0.14660698175, -0.18654792011, 0.28161209822, -0.10370612890, 0.19099605083, 0.13600978255, -0.22481769323, 0.28706255555, 0.31654214859, 0.25104761124, 0.13439691067, 0.00206664624, -0.12976156175, -0.14598058164, 0.01156674232, 0.03707795218, -0.20494611561, -0.02048209868, -0.07266670465, -0.02789124660, -0.14968247712, -0.06635194272, -0.20310595632, 0.13784037530, 0.24262322485, -0.12053995579, 0.14269463718, 0.01692726649, -0.13389696181, 0.33241933584, -0.23991502821, -0.17112477124, 0.20918148756, -0.11733045429