//Numpy array shape [2, 32]
//Min -0.000167032267
//Max 0.000279170461
//Number of zeros 0

#ifndef KEY_BIAS16_H_
#define KEY_BIAS16_H_

#ifndef __SYNTHESIS__
q_multi_head_attention_47_default_t key_bias16[64];
#else
q_multi_head_attention_47_default_t key_bias16[64] = {0.00000540173, 0.00004832554, 0.00000432497, 0.00001497659, 0.00002185349, 0.00000045396, 0.00002071506, -0.00001415285, -0.00002954307, 0.00002656508, -0.00003201900, 0.00000358248, 0.00001912159, 0.00000791535, -0.00000738411, 0.00001170319, 0.00001259695, -0.00001513826, 0.00002733932, 0.00002091666, 0.00001370056, -0.00001164415, -0.00001762624, -0.00001518060, -0.00001636783, 0.00002340736, 0.00001610168, -0.00000167615, 0.00000854584, 0.00000043420, -0.00000510109, 0.00001057429, 0.00006727962, 0.00002749342, 0.00002257377, -0.00016703227, -0.00006756005, 0.00027917046, 0.00003492589, 0.00021032288, 0.00000194605, 0.00005310210, -0.00000558357, 0.00004340948, -0.00011034193, 0.00004797775, -0.00008193482, 0.00013256498, 0.00013205441, 0.00013464432, -0.00004028734, -0.00009011834, -0.00004228667, 0.00003786275, -0.00003762865, -0.00014962474, -0.00001602344, 0.00010427650, -0.00004461575, -0.00004066622, 0.00006555464, -0.00010796525, 0.00010797510, -0.00001418019};
#endif

#endif
