//Numpy array shape [2, 32]
//Min -0.554449856281
//Max 0.588663637638
//Number of zeros 0

#ifndef QUERY_BIAS9_H_
#define QUERY_BIAS9_H_

#ifndef __SYNTHESIS__
q_multi_head_attention_46_default_t query_bias9[64];
#else
q_multi_head_attention_46_default_t query_bias9[64] = {0.22946113348, 0.55313837528, -0.34738373756, -0.09878955781, 0.21342366934, -0.03625350818, -0.01306728553, -0.23921327293, 0.14438219368, -0.10493128747, -0.03905694187, -0.10923962295, 0.32363420725, -0.54634141922, 0.47383120656, -0.44712093472, 0.13658222556, 0.38719877601, 0.56852817535, -0.11740013212, 0.17879901826, 0.12638382614, -0.28369003534, -0.31768831611, 0.23911407590, 0.25412419438, 0.37597256899, 0.18285541236, 0.42841923237, -0.07674246281, -0.10817012191, -0.22755151987, 0.23540101945, -0.26061701775, -0.09506992251, -0.26329740882, -0.31347030401, -0.10019828379, -0.53203409910, 0.16305141151, -0.28815430403, -0.55444985628, 0.30195727944, 0.28972041607, 0.04720487446, 0.17318239808, -0.32253181934, -0.23458634317, 0.24817617238, -0.08701270819, 0.01973682269, -0.05717279390, 0.39316320419, -0.30481979251, 0.36028867960, 0.27302396297, 0.39169642329, 0.17693674564, 0.23998191953, 0.32454922795, 0.58866363764, -0.30511361361, 0.25259360671, 0.18381488323};
#endif

#endif
