-0.05668037012, -0.01222487539, -0.09001670033, -0.05462322757, 0.03144269437, -0.03179093078, -0.00094554469, 0.00230004103, 0.03067141771, -0.11909704655, -0.07043787092, 0.02717517503, 0.00629710779, -0.05297988281, -0.03121469356, -0.07303437591, -0.06985967606, -0.04485100508, 0.07473167777, 0.03122541122, -0.14042086899, -0.04948069528, 0.09442704916, 0.08781506866, 0.01507386286, -0.03047792800, -0.03256601468, -0.10911894590, 0.11335627735, -0.13757055998, -0.07043274492, -0.09397371113, -0.03616612032, 0.14782917500, 0.06233144179, -0.01824209094, 0.14407858253, 0.13286916912, -0.07053784281, 0.13587597013, -0.05942276865, 0.07034896314, 0.03157980368, -0.01118821371, 0.09057693183, 0.03030037880, 0.07973532379, -0.00612244615, 0.13815732300, 0.03436845914, -0.06365013123, 0.03088204190, -0.19470751286, 0.06104090065, 0.04011220112, 0.13149532676, 0.06261724234, -0.15500798821, -0.09529779106, -0.02643300965, 0.03574112803, -0.14841949940, -0.06462450325, 0.07919444889, 0.01641906798, -0.07750148326, -0.08285573870, -0.01949564368, -0.08840371668, 0.00691476651, -0.19144459069, 0.10435651243, -0.08827741444, 0.07428514212, -0.02828385308, 0.05760631338, -0.15537635982, 0.09363830835, 0.10371194780, 0.10116934776, 0.06994950771, -0.02064919285, -0.12555170059, 0.12636370957, 0.12596383691, -0.09355098009, 0.15319679677, 0.04737361521, -0.03157486022, 0.02998151816, -0.09548525512, 0.08018784225, 0.03389099985, -0.02065597102, -0.09348574281, -0.06951149553, 0.09372521937, 0.15206587315, 0.01615629531, -0.10597755015, -0.03405190259, -0.02737984061, -0.03022620268, 0.09352669865, -0.04043582454, -0.02029739320, 0.17804500461, 0.04244159907, 0.06383662671, 0.04793656245, -0.08688668907, 0.15241563320, 0.09396675229, 0.14245857298, -0.02482323162, 0.03088562191, 0.03435756266, -0.05985546857, 0.09193474799, 0.00716170436, 0.15800355375, 0.03876218572, 0.00397307333, 0.09473639727, -0.05298482999, -0.02035544254, 0.08533234149, 0.14230529964, -0.15684647858, -0.02142848261, -0.07251261920, -0.00279645133, 0.13750009239, 0.01392060891, 0.09004838020, -0.05012452602, 0.00214280188, -0.09403865784, -0.09161548316, 0.01153324917, 0.09336128086, -0.08138667047, -0.15608067811, 0.00303663104, 0.01879389770, 0.03089982085, 0.07601944357, 0.01441582385, -0.03063271008, 0.03397996724, -0.09316828102, 0.01434258465, -0.02816181630, -0.05814083666, 0.06431021541, 0.00524345739, 0.07735709846, -0.10681623966, 0.09344950318, 0.05994725972, -0.15207667649, -0.05351023376, -0.05568606779, -0.00998077728, -0.12846948206, 0.05593098328, 0.02136219665, -0.12029837817, 0.09165595472, -0.13508607447, 0.09191289544, 0.13679561019, 0.13606829941, -0.06430470198, 0.10095503926, 0.11293346435, 0.15602524579, -0.03319075331, -0.04510264471, 0.09235589951, -0.02068463899, -0.15647235513, 0.06678262353, -0.21319669485, -0.11735612154, -0.00385258091, -0.08660696447, -0.02835925855, -0.06652971357, 0.23917457461, -0.14844055474, 0.04840484262, -0.16246367991, 0.09837386012, -0.17728078365, -0.03421866894, 0.05741155520, 0.15496292710, 0.06056904793, 0.00139671355, 0.12633086741, -0.14784868062, 0.07079481333, 0.07624037564, -0.09309513867, 0.06393853575, 0.02405293472, 0.15922121704, -0.09285669774, -0.09351635724, 0.04770752415, 0.04975912720, -0.03108813986, -0.16450041533, 0.10414978862, 0.10470876098, 0.16427972913, 0.07113604248, 0.05024321750, -0.02790170908, 0.09697861969, -0.06355213374, -0.05669094995, -0.15678507090, -0.02206153236, 0.09466726333, 0.15975826979, -0.03784699365, -0.08495400101, 0.08579154313, 0.05332280695, 0.14831987023, 0.12571609020, -0.10870492458, -0.07435239106, -0.03556156904, 0.04350854084, 0.07039454579, 0.04890110344, 0.07110758126, -0.10563730448, -0.09244493395, 0.09332103282, -0.07087061554, -0.07927376777, 0.10335722566, 0.12337231636, 0.16048298776, 0.14563710988, -0.02570444345, 0.09354273975, 0.21337874234, 0.09108881652, -0.03813169524, 0.08102812618, -0.17377285659, 0.02229937539, -0.03778384626, 0.02382188477, 0.00679562893, -0.07694738358, -0.19242942333, -0.05351233855, 0.04162020981, -0.14874631166, -0.09617169946, 0.03160166368, -0.01121005975, 0.01498876419, -0.02867299132, 0.16188438237, -0.06565641612, -0.03201807290, 0.21387428045, 0.02527423576, -0.14220209420, -0.01937278919, 0.13560685515, 0.01078996621, 0.03124719299, 0.02274906449, -0.04722793773, 0.09017332643, -0.01891943067, -0.14766237140, -0.11233799905, 0.20786310732, -0.13136690855, 0.11839380860, -0.10120561719, 0.05989705026, -0.10033056885, 0.09453176707, 0.05238863826, 0.08636855334, -0.09600013494, 0.07730138302, -0.03878698871, 0.02833116055, -0.15976613760, -0.07811099291, -0.09521868080, -0.09764762968, -0.08931323141, -0.03972887248, -0.02864027768, 0.09569579363, 0.03345100209, 0.15815556049, 0.15355728567, 0.11944773793, -0.00904454943, -0.06599438936, -0.08775968105, 0.02879807167, 0.00654523959, -0.08059003949, 0.15647362173, -0.03251297399, 0.04619705677, 0.03162933514, 0.11198379099, 0.18805819750, -0.03097065538, 0.01412538718, 0.10439947993, 0.03209110722, -0.03193565086, 0.03195781633, 0.12433292717, -0.01651711389, 0.11184537411, 0.13095822930, 0.09183159471, 0.02066883072, -0.06060065329, 0.03023394011, -0.09810960293, -0.02909373492, -0.03112848476, -0.12938322127, 0.01528851129, 0.05891681463, -0.03251327947, 0.12154714018, 0.07129049301, -0.04455204308, 0.09922881424, 0.05300987512, 0.04317759350, -0.05000731722, 0.03083469719, -0.00692985766, 0.15275155008, 0.01138432976, 0.09466783702, 0.09266241640, -0.09333600849, -0.08684428036, -0.00167195697, 0.10645255446, -0.06585504115, 0.10716364533, -0.14754402637, -0.11796382070, 0.03065567277, -0.03077533096, -0.01675188355, 0.08870343119, 0.05401621014, 0.13089539111, -0.11409959197, -0.02312610857, 0.13330930471, 0.01575435698, -0.03575713187, -0.03259599954, 0.09170264751, 0.00185477058, -0.14615045488, -0.08287444711, -0.14226958156, -0.13970881701, 0.03813868016