0.09444703162, 0.09181930125, 0.02174688131, 0.03040174395, 0.03005122393, -0.02601169609, -0.02134161629, 0.02330777980, 0.15587058663, -0.02137356810, 0.02799237333, 0.02914712019, -0.01007312909, -0.01014860161, -0.01444504969, -0.03629158810, -0.03666316718, 0.10100114346, 0.09840998054, 0.14045144618, -0.08200172335, 0.03808731586, 0.01459946949, 0.11625713855, 0.03294188902, 0.07071801275, -0.09249427170, 0.01939087920, -0.02235328406, -0.07292760909, 0.02710864320, -0.09422938526, 0.05266120657, 0.00193470530, -0.02904168330, 0.01350142621, -0.05722882599, 0.09840893000, 0.18010494113, -0.07073125243, 0.09446404129, -0.03766301274, 0.01965240948, -0.08900965005, -0.03866956383, -0.14182785153, 0.02919473872, 0.01783864200, -0.08735626191, -0.02311817557, 0.05835391209, -0.11547332257, -0.05289844796, -0.03002746776, -0.06474187225, -0.02224223875, 0.02356496453, -0.05652863532, 0.00173578784, -0.00991079118, -0.08550850302, 0.13713921607, -0.01885465719, 0.08902888745, -0.17088341713, -0.10041096061, -0.03020410612, -0.12955349684, -0.05212989077, 0.19223947823, -0.10199960321, -0.01612787507, -0.16423532367, -0.03679135442, 0.09184221178, -0.14463403821, 0.05317972973, 0.14033612609, -0.04452894256, -0.01763744466, -0.02212813683, -0.03953049332, 0.03157961741, 0.03626752272, 0.08467023820, 0.03048836440, -0.04337408394, -0.10219340771, -0.02511842735, 0.03427677229, -0.03302647546, -0.02973128296, 0.01042494737, -0.00383000099, -0.03471826017, 0.05612917617, 0.03049693070, 0.03589205071, 0.08248250186, -0.01067825872, 0.09551282227, -0.09399446845, -0.09676627815, 0.09039965272, -0.03893154114, -0.14094172418, 0.08596565574, 0.12313042581, 0.03498324379, -0.06192256510, 0.08135605603, -0.02907101810, 0.03073158301, -0.07993359864, -0.04257433861, -0.00293376949, -0.07914469391, 0.03231518343, 0.03745706752, -0.09470223635, -0.05099377409, 0.09304410219, -0.00466616265, 0.03239031136, 0.06482670456, -0.06818253547, 0.02014720812, -0.04314016923, -0.14806604385, 0.02432727441, -0.00508802989, -0.07003939152, -0.03290313482, 0.16473597288, -0.10039280355, 0.03000679053, -0.02845059894, 0.14296974242, -0.08305636048, 0.04690286517, 0.03440318257, 0.11125935614, 0.05856622010, 0.07081476599, 0.04469563439, -0.06363021582, -0.09380161762, -0.07505707443, 0.03521709517, -0.09512001276, 0.02811631002, -0.08850371093, 0.02907992341, 0.09308805317, -0.10804595053, 0.02145729028, 0.00998942275, -0.12864345312, 0.02813065238, 0.08752570301, 0.03066559136, -0.01714514941, -0.01333603729, -0.09328412265, -0.03057920933, 0.04659062251, 0.01785299741, -0.02904597297, -0.05306412280, -0.05312430114, -0.02128868364, -0.01974278130, 0.04479308054, -0.11112496257, 0.03575796261, 0.04605069757, -0.01751019806, -0.08347866684, 0.04392392561, 0.04647200555, -0.04140467942, 0.07451028377, 0.01837485470, 0.10779108107, 0.07969985157, -0.03192992508, -0.03082695045, -0.01777805947, 0.00482866447, -0.08952915668, -0.02691875398, -0.21663692594, 0.03097728267, -0.05610147119, -0.02953254804, -0.03808696195, -0.02771032974, -0.05541242659, 0.06912314892, -0.02865845710, -0.05941168591, 0.08385685831, -0.02571257018, 0.03001155518, 0.10778950900, 0.06086016074, 0.14871031046, -0.03568626940, 0.06378201395, 0.03061169572, 0.02961810306, -0.01299237646, -0.02753014863, 0.06780678779, 0.03094882891, -0.03677326441, -0.16639500856, -0.02434887551, -0.02987543866, 0.05544986576, -0.06185841933, 0.08009848744, -0.01689807326, 0.09487950057, -0.07634461671, 0.08120525628, 0.04041441530, 0.08406734467, -0.05125179514, 0.08570304513, 0.03772078454, -0.09547548741, 0.12407156825, -0.05541803688, -0.04762214050, 0.04239212722, -0.06068781763, -0.14321123064, 0.08567290753, -0.04944917187, 0.15891069174, -0.03052599356, 0.03252094612, -0.03407620639, 0.03225298971, 0.17351147532, 0.02754744329, -0.00205734395, 0.03199263290, 0.04837706685, -0.01133634057, -0.06094780937, -0.01230777241, 0.01576686278, -0.04197639599, 0.02845829353, 0.07123125345, 0.00136937795, 0.01038610842, 0.10985746980, 0.02300884947, 0.08704670519, -0.02814683132, 0.03583731875, 0.08440249413, 0.07508797199, 0.12685583532, 0.03257176653, -0.03575565293, 0.19280150533, -0.01101488527, -0.02353043482, -0.05902279913, -0.03152889013, 0.13740345836, 0.07914704829, -0.03267459944, -0.17578743398, 0.17111979425, -0.01656312495, 0.16587193310, -0.05173335224, 0.07965856791, 0.14920084178, 0.05305676535, -0.00693295896, 0.02826901153, -0.03193349764, -0.03112139739, -0.10953966528, -0.09766533226, 0.03989633173, 0.06324706972, -0.13177061081, -0.00056973775, 0.06073377281, -0.11760749668, -0.12580019236, 0.01743268408, 0.00721236505, 0.05847374350, 0.09467808157, 0.06829406321, 0.09926348180, -0.14040844142, -0.03370035067, -0.03149482980, 0.03291754052, -0.03973601013, 0.01628129743, -0.03425402939, 0.09624039382, 0.03076330014, 0.02334413119, -0.09308759123, -0.06523849815, -0.02592188492, -0.07632075250, 0.17732131481, -0.09369648993, -0.09821971506, 0.04720383883, 0.09259769320, -0.00224699569, -0.00369573734, -0.02893509530, 0.03428542241, -0.03068618476, 0.02786412463, 0.20192340016, -0.15368500352, -0.02809110843, 0.08688504249, 0.09731547534, -0.04708683118, -0.04257856309, -0.18431532383, -0.01901829801, -0.03479590639, 0.05009755120, -0.07870882750, -0.02102935314, 0.02755784802, 0.04641101509, 0.03458137438, -0.08153385669, -0.03005858138, 0.09523954988, -0.02434806712, -0.01732580923, 0.02471545711, 0.09026762098, -0.00540101482, -0.03333150968, -0.03016817011, -0.05179192126, -0.02209401503, -0.01070767734, 0.02377027273, -0.02490019985, -0.14854629338, 0.08443063498, 0.06530009210, 0.00347957690, 0.00349779264, -0.09464766085, 0.03390750289, -0.02677167580, 0.00077379553, 0.03086013533, 0.02353545837, -0.14284479618, -0.04404756427, -0.03182484582, 0.00715234550, -0.07790529728, -0.19570957124, 0.02335929871, 0.03580907732, -0.08280451596, 0.02884936891, -0.07161426544, 0.14015749097, -0.03286415339