0.12142636627, 0.13021148741, -0.04843597487, -0.19703641534, -0.21679210663, 0.01462341286, 0.10176280141, -0.07057860494, -0.10756310076, -0.10180705041, -0.23079717159, -0.13316053152, 0.11861734837, -0.18903693557, 0.13134451210, 0.22473521531, -0.09676159173, 0.18155159056, -0.11853881925, -0.07925151289, -0.10597285628, -0.14430283010, 0.18193514645, 0.00173322682, -0.01993928850, -0.02003959566, 0.18089969456, 0.03177399933, -0.03385353833, -0.23822592199, 0.22893333435, 0.05365410820, 0.15583777428, -0.24515676498, -0.24999147654, -0.24998386204, 0.10652834922, -0.08332211524, 0.26315802336, -0.03122011945, -0.00641605305, 0.04128147662, -0.11641395837, 0.00811021589, 0.25868338346, 0.03895762935, -0.23060999811, -0.12415986508, -0.03275371715, 0.06783317775, 0.18569494784, 0.10738012940, 0.01067466475, 0.23986709118, 0.14854434133, 0.25802183151, -0.21392698586, 0.04843464866, 0.08670215309, 0.11546005309, -0.03168622032, -0.15541085601, -0.00559977023, -0.19819161296, -0.09576668590, 0.23237676919, 0.17374208570, -0.06783330441, 0.08687032014, 0.12356947362, -0.23800767958, 0.12130486965, -0.01478319336, 0.25212877989, -0.20432552695, 0.29402431846, -0.16443571448, 0.11531979591, -0.16545893252, 0.13452862203, -0.13547220826, -0.00894281268, 0.17593692243, 0.25000932813, 0.24681155384, -0.17172206938, -0.23230907321, 0.21460087597, -0.15803109109, -0.16938140988, -0.05754941702, 0.23424199224, 0.20023445785, -0.06188857928, 0.00479867309, 0.18746240437, 0.05260154977, -0.23259724677, 0.09248897433, -0.07527051121, 0.06487938017, -0.04226170480, -0.04839641973, 0.21917158365, -0.08924948424, 0.12165127695, -0.23415336013, -0.10669272393, 0.07042220235, -0.04477314278, -0.02359173074, 0.18535438180, -0.16845883429, -0.14494614303, -0.15833504498, -0.11707551777, -0.09800036252, -0.30643585324, 0.16322009265, 0.16055782139, -0.14007095993, 0.13332276046, -0.14300198853, 0.23440915346, 0.23980161548, -0.05127686262, 0.10782884061, -0.30607163906, -0.12207540125, -0.12694926560, 0.03302095458, -0.05909076706, 0.18153434992, 0.27537924051, 0.14416846633, -0.30874574184, -0.15358199179, -0.20732921362, 0.21792329848, 0.12077335268, 0.08182521909, -0.14524689317, -0.16285282373, 0.13092006743, 0.02656408958, 0.11976604164, 0.13863115013, 0.31801471114, -0.04525219649, 0.00910223834, -0.12449143082, -0.27513647079, -0.04021772370, -0.03672428802, 0.28170853853, -0.07471543550, 0.11395904422, 0.08681663126, -0.08733445406, 0.22996933758, 0.29571631551, 0.17017568648, 0.22209544480, -0.12150099874, -0.05882567167, -0.07532690465, -0.12465875596, -0.01841360889, 0.07593826950, 0.17103716731, 0.13212345541, -0.03869028762, -0.27169314027, -0.27745550871, -0.18189707398, -0.15235768259, -0.09478973597, 0.11772625893, -0.22307306528, 0.04612636194, -0.23395061493, -0.12361650169, 0.17660060525, 0.02479447424, 0.20610009134, -0.13792090118, -0.21031238139, 0.29854825139, -0.15619671345, -0.10260780156, 0.33141240478, -0.05305799097, 0.20070160925, -0.01702351682, 0.27471107244, 0.26141676307, 0.31595036387, -0.48194912076, -0.08711580187, 0.45622700453, -0.06226457655, 0.19738441706, 0.24185034633, -0.22256098688, -0.01288963668, -0.27829650044, 0.07054579258, -0.26045879722, -0.15771850944, 0.13755971193, 0.20749711990, 0.10021586716, -0.03946417198, -0.09586595744, -0.28613361716, 0.10019267350, 0.04367613792, 0.24638932943, -0.14137074351, 0.17765527964, 0.01305542700, 0.12597319484, -0.01611460000, -0.18087519705, 0.17786715925, 0.23865894973, 0.28321394324, 0.10907756537, -0.08896144480, -0.21282006800, 0.15246766806, 0.06880430877, 0.18940621614, -0.26520583034, 0.24330271780, 0.14737613499, 0.20274788141, 0.26510465145, -0.00361956283, 0.10066287965, 0.18355391920, -0.11455509067, 0.23145526648, 0.03855635598, -0.14602236450, 0.27306658030, -0.02599783801, -0.28381705284, -0.16694024205, -0.12020075321, -0.15970833600, 0.08721655607, -0.09617283940, 0.16191671789, -0.21955960989, -0.12165287882, -0.04589617252, 0.32024326921, 0.12847249210, 0.23949402571, 0.22281162441, 0.09224358201, -0.03347572684, 0.25921487808, -0.19582602382, -0.07193581760, 0.09032867104, 0.14101479948, 0.02376960963, 0.23571474850, -0.09174359590, 0.09821476787, 0.08065813035, -0.14452055097, 0.09530435503, -0.53782570362, 0.19220863283, 0.12424531579, -0.06598599255, -0.22615395486, -0.09981023520, 0.01307333913, -0.10022205859, -0.16508603096, 0.07919143140, -0.01756245829, 0.31025856733, 0.01149248425, 0.24138060212, -0.04069275782, -0.09493684769, 0.08434046060, 0.00366400857, 0.23938877881, -0.09389931709, 0.00842592213, 0.05477805436, -0.13089053333, -0.06508806348, 0.18939286470, -0.18810421228, 0.18547467887, -0.04258552566, 0.05940541998, 0.11975242198, 0.05208986998, 0.02276183292, -0.05004626513, 0.05083103478, -0.17630830407, 0.00562166888, -0.06710789353, 0.09846125543, -0.18805412948, 0.27182611823, -0.10385434330, 0.14350280166, -0.06951886415, 0.06634382159, -0.26782426238, 0.21897283196, 0.01322586928, 0.13805165887, -0.16927596927, 0.20501908660, -0.08071677387, -0.02595115267, 0.06903278828, 0.35767981410, 0.27132219076, -0.20619322360, -0.15915623307, -0.14131258428, -0.04402814433, 0.26327702403, -0.24290144444, 0.10383489728, -0.24879153073, -0.36153411865, 0.13185904920, -0.40678867698, 0.05942797288, -0.16226018965, -0.11334562302, -0.08755878359, 0.00328981574, 0.04563846067, 0.19453856349, 0.01377478801, 0.10990822315, -0.14680367708, -0.13823451102, -0.13042366505, 0.01481714565, -0.18753337860, 0.18289251626, 0.26326936483, -0.11291372776, -0.11436948180, -0.07406019419, 0.13872028887, -0.07804396003, -0.08828506619, -0.05274490640, 0.19823724031, 0.12914794683, -0.21247842908, -0.01674555987, -0.34799179435, -0.15708272159, 0.14180412889, 0.22606191039, -0.02523641475, 0.02347721159, 0.19262014329, 0.12200267613, -0.21291215718, -0.00934834592, 0.06297608465, -0.29871419072, -0.18220870197, -0.00992976036, -0.16045424342, 0.09297860414