0.07866802067, 0.20235881209, -0.08956139535, 0.08589396626, 0.21536362171, -0.07305044681, -0.00239610462, -0.08271366358, -0.07507926971, 0.14061956108, -0.00621658657, 0.03363849968, 0.17392109334, -0.08376840502, -0.08887619525, 0.09264396131, -0.25886264443, -0.31674295664, 0.10529943556, 0.08997953683, 0.06829629838, -0.04196945205, 0.14153917134, 0.08994799107, 0.03375311568, 0.22286126018, -0.16235300899, -0.22559806705, -0.02967696264, -0.07048010826, -0.00377514283, -0.02484972589, 0.03436214477, 0.15564936399, 0.12669628859, -0.15335977077, 0.03218459710, 0.09330828488, 0.01563669927, -0.22016547620, 0.07175536454, 0.03705338016, 0.02763042971, -0.18717193604, -0.17505568266, -0.10290355235, 0.08482143283, -0.23885571957, 0.01431027893, 0.16980360448, -0.19539314508, -0.10629174113, 0.18262001872, 0.22042134404, -0.02960523777, -0.10750205070, 0.05439680070, -0.01009134948, -0.11354276538, -0.27017286420, -0.09421890229, 0.21052722633, 0.07797481865, -0.20693755150, -0.20443719625, 0.07997906208, -0.10809174925, -0.15065240860, 0.06885016710, 0.05193098634, 0.31170749664, 0.20644387603, 0.12933616340, -0.19154515862, -0.16546793282, 0.16215762496, 0.31316846609, 0.10311007500, 0.04038134217, -0.00172298984, -0.02854413353, -0.14732387662, -0.06803480536, 0.17351992428, -0.05114020407, 0.00951789971, -0.15511997044, 0.04598035663, 0.23451095819, -0.21975909173, -0.08220791072, -0.09517122805, -0.12156496197, -0.15430727601, -0.14185447991, -0.35319852829, 0.05345622450, -0.08488833904, -0.09810956568, -0.17411285639, 0.09019966424, -0.27152892947, -0.07783129811, -0.00281204400, -0.05151207000, 0.23676241934, 0.00174372003, -0.14007478952, -0.11634273082, 0.10891053081, -0.14347293973, 0.14579135180, -0.12020307779, 0.14759714901, 0.02411445789, 0.18244957924, 0.17221206427, -0.13035346568, -0.23624943197, 0.06283802539, 0.12275087833, -0.04557162896, -0.02712936327, -0.02564592473, -0.30038005114, -0.13119527698, 0.02879203297, -0.00108985230, -0.08560285717, -0.10537955910, -0.07827309519, 0.24618262053, -0.05428510159, 0.01843700744, -0.08362042159, -0.10171632469, 0.04371520504, -0.26147386432, -0.05578861758, 0.02786967158, -0.01271116640, -0.06890960038, 0.10045368224, 0.23441380262, 0.22412139177, 0.10210813582, 0.03486480936, 0.04212774336, -0.20753599703, -0.27256098390, 0.00749980612, 0.20446510613, 0.26497462392, -0.00269218464, 0.13318940997, -0.10109956563, -0.07396136224, -0.18138720095, -0.17527741194, 0.07560495287, -0.13667330146, 0.07277073711, 0.09968183935, -0.20277518034, -0.03716548532, -0.07013079524, 0.16504780948, 0.18632340431, -0.04255085066, 0.05050820485, -0.12349334359, -0.07561334223, -0.25751423836, 0.07528743893, 0.17146842182, 0.18279367685, 0.06342045963, -0.08583518118, 0.15824566782, 0.27055698633, 0.08583272249, -0.13966754079, 0.21516010165, 0.18967938423, -0.17666561902, 0.19041758776, 0.00375298737, 0.00340889604, 0.00499047944, 0.00704762060, -0.07388779521, -0.12559190392, 0.15703782439, -0.02541097254, -0.06721775979, 0.17039278150, -0.03598178178, 0.16113805771, 0.02764317952, 0.06236919388, 0.05286937207, -0.17622968554, -0.11311468482, 0.11650145054, 0.04809253663, -0.01062113512, 0.11465400457, 0.09478175640, 0.14599546790, -0.36790332198, 0.07444663346, -0.15998305380, -0.14048808813, 0.01631052233, -0.05996814743, 0.16644506156, 0.02726957947, -0.04127881303, -0.10439023376, 0.10860525817, 0.25915929675, 0.05171083659, 0.00817765482, 0.19435265660, -0.07231306285, -0.17891190946, -0.13028320670, 0.06485000253, 0.02564316988, -0.02916597389, 0.00910974201, 0.05528876930, 0.02378624305, 0.04508249462, 0.08273494989, -0.00055489014, 0.17063042521, -0.16361403465, 0.03897599131, 0.07462200522, -0.08913359791, 0.18749471009, 0.08432472497, 0.20798295736, -0.01638959348, 0.13307626545, 0.15233196318, -0.16008874774, 0.02175359614, 0.07757752389, -0.09512254596, -0.02531438321, -0.23130114377, -0.06760118157, 0.11246278882, -0.07581421733, -0.17056731880, 0.29117354751, -0.08535142988, 0.06696807593, -0.03337913752, 0.10510686040, -0.10580608994, 0.10577611625, 0.13682812452, -0.22014375031, 0.01802298427, -0.04971493781, 0.23443840444, 0.20384496450, -0.03285378218, 0.20329919457, 0.06436096132, -0.18719804287, 0.07321269065, 0.11670160294, -0.19997890294, -0.22074766457, -0.11973643303, 0.12070896477, 0.16055049002, -0.25694575906, 0.06508602947, -0.07475462556, 0.12630094588, 0.20648072660, -0.22579944134, 0.17046892643, 0.12377955019, -0.01304653287, -0.05986854061, 0.01350460853, -0.18879443407, 0.17782267928, -0.20004093647, 0.19143418968, 0.05756722763, -0.22456656396, -0.18693675101, 0.25721174479, 0.11299847811, -0.13789415359, -0.07539356500, 0.05771957710, 0.22294513881, 0.06721007824, -0.00490511488, 0.02676141262, 0.03242052719, -0.05687353387, -0.13690297306, -0.06445761770, -0.07118785381, 0.17517760396, -0.07684605569, -0.08695793897, -0.06071636826, -0.11356254667, 0.14280900359, -0.14438065886, -0.02830652893, -0.00464754086, 0.11189286411, 0.17223386467, 0.10955974460, -0.04529181495, -0.01799574867, -0.13625544310, 0.14312747121, 0.04846478254, -0.09854925424, -0.16585215926, -0.24400836229, 0.15610896051, 0.09017824382, 0.07459157705, 0.05540397018, 0.18109597266, 0.17350058258, -0.24148866534, 0.30794373155, 0.00609202497, -0.04768993333, -0.25047165155, 0.05905775353, 0.26464802027, 0.17093802989, -0.17056147754, -0.06773075461, 0.17602254450, 0.11000316590, 0.08310631663, -0.34878689051, 0.04732334986, 0.02370751463, -0.15664780140, 0.09267574549, 0.03133986145, 0.11259000003, -0.17383012176, 0.07784139365, -0.17099571228, -0.16743433475, 0.20306293666, -0.19549411535, 0.14300432801, 0.08252690732, 0.01373946294, 0.09263851494, -0.19813042879, -0.18067406118, -0.15498611331, 0.01173272170, 0.04194442555, -0.03627149388, 0.03345454112, -0.04643231258, -0.16074998677, -0.03803971782, 0.04657914490, -0.07856705785, -0.12583327293, 0.10562802106, -0.11062829942