-0.29982745647, -0.14557555318, 0.27089983225, -0.04698672146, 0.28604710102, -0.30540600419, -0.25822469592, -0.18896904588, -0.29303112626, 0.15187108517, 0.22992695868, 0.42205125093, -0.07411863655, 0.00467609614, -0.17446912825, 0.18086610734, -0.20045863092, 0.06224496663, -0.17077811062, -0.26510158181, 0.23754033446, -0.26589292288, 0.29567319155, -0.12273030728, -0.01706079580, -0.00257558306, 0.36329731345, 0.14903067052, -0.12851992249, 0.05143071339, -0.16458649933, 0.03112158738, 0.38640734553, 0.30827865005, -0.21666733921, -0.21076416969, -0.12551368773, -0.31644743681, 0.03231092170, 0.26310443878, -0.35067427158, 0.31587836146, -0.03177810088, 0.00062654243, -0.36014488339, 0.09418846667, -0.15787605941, -0.04480347410, -0.33522754908, -0.01343804598, -0.29078093171, -0.25855675340, 0.51337671280, -0.35681837797, -0.14248268306, -0.32232764363, -0.11572171003, 0.03350507468, -0.14116458595, 0.37894013524, -0.01345100999, -0.04925463349, 0.00690218620, 0.11063178629, -0.16881063581, 0.21322327852, 0.29432007670, 0.02680175751, 0.17217788100, 0.29884395003, -0.30490124226, -0.20764510334, -0.04548173398, 0.08541604131, 0.00452813925, 0.17832805216, -0.09920414537, -0.29024168849, 0.05128872767, -0.06436658651, -0.04489804804, 0.06132485718, -0.14708586037, -0.02243916504, 0.15290811658, -0.27032142878, 0.22222045064, -0.00412171474, -0.15093597770, -0.22033032775, 0.15563525259, 0.10883923620, 0.09294325858, 0.13582409918, -0.21258071065, -0.25820863247, -0.14066922665, -0.05828349292, -0.22951667011, 0.14608630538, -0.16893355548, 0.04673382640, 0.18291157484, 0.22555074096, 0.07691221684, -0.22580569983, -0.10208912939, -0.08869197220, 0.01946370490, 0.15921388566, -0.24990104139, -0.07539498806, -0.08579287678, -0.16658906639, -0.11435300112, 0.04710019752, 0.00685413228, 0.26610520482, -0.12330199778, 0.17015840113, 0.11701418459, 0.24800063670, -0.03945039958, -0.20221744478, 0.08934762329, -0.22526401281, 0.15173469484, 0.28798088431, -0.04657417163, 0.10366208106, 0.15091967583, -0.30458480120, 0.13238227367, -0.08879441768, -0.23813292384, -0.14036725461, -0.22891367972, 0.14982561767, 0.12871773541, 0.19595886767, -0.28512829542, 0.19200980663, -0.16354426742, 0.22407104075, 0.02566118166, 0.13595697284, -0.45169010758, -0.19297741354, 0.26536300778, -0.29315528274, 0.12178602815, -0.37301519513, -0.09698210657, -0.20093573630, -0.07477864623, 0.21645466983, -0.00014449471, 0.05525201187, -0.13346032798, -0.21071280539, -0.03663982451, -0.08299829811, -0.08020263165, 0.60457152128, -0.43113321066, 0.27177202702, 0.06197360158, -0.09778004885, 0.40007227659, -0.24018946290, -0.35952866077, 0.35982280970, -0.32476872206, -0.47551542521, -0.44572573900, -0.37370878458, 0.24616883695, -0.58051615953, -0.16696076095, 0.23319016397, 0.25786739588, 0.35041093826, -0.08448217809, 0.45705118775, 0.38945615292, -0.35759782791, 0.33495709300, 0.27518734336, 0.22574076056, -0.54443860054, 0.40270471573, -0.01453880966, 0.17060457170, -0.18903417885, -0.01886603981, -0.10950689763, 0.19795973599, -0.19891475141, 0.42761167884, 0.47269353271, 0.17116782069, -0.27338400483, -0.30830562115, -0.48203530908, 0.40662598610, -0.23091189563, 0.04948472604, -0.22690770030, -0.00001460465, -0.39635613561, 0.23629747331, 0.45274448395, -0.10886821896, 0.40035900474, -0.06887283921, -0.01287990808, 0.07124427706, -0.35144105554, 0.23590624332, 0.14838629961, 0.18470530212, 0.26296219230, 0.47659626603, -0.59269160032, -0.28994891047, 0.12779712677, -0.12384723872, 0.14296030998, 0.03409301862, 0.18173253536, -0.12100627273, 0.03953364119, -0.27569359541, 0.03517758101, 0.23249752820, 0.00831989758, -0.28718927503, -0.03739852458, -0.11036991328, 0.08266062289, 0.04585631937, 0.15434272587, -0.02628190629, -0.27947568893, 0.07551986724, -0.04070255533, -0.00634912448, -0.23636969924, -0.04108504951, 0.13256537914, 0.04697189480, 0.23248210549, -0.17968754470, -0.13515146077, -0.27672490478, 0.16443163157, -0.09273710847, 0.09690164030, -0.03419801593, 0.01395440660, 0.00862448942, -0.12048486620, -0.07039448619, 0.23070944846, 0.00278151268, -0.10709125549, -0.03668005392, -0.04650873318, 0.08612779528, -0.08151737601, 0.00348079181, -0.23218339682, 0.14551208913, -0.12071049958, 0.08976468444, -0.07083224505, 0.07248818874, 0.01015225425, -0.23598165810, 0.17287969589, 0.01481086295, -0.11318217218, 0.09698180109, -0.05567864329, -0.06403033435, -0.04790685326, 0.23660659790, -0.08297128230, -0.07204230130, -0.26728788018, 0.08565770835, -0.01982025988, -0.21671922505, 0.03903567418, -0.11191255599, 0.50607770681, 0.24221287668, -0.47028213739, 0.09142529964, -0.20178842545, 0.35566586256, 0.23979167640, 0.52449023724, -0.39645105600, -0.27324989438, -0.14314496517, 0.12184951454, 0.41474083066, 0.15873983502, 0.37537527084, 0.05420812964, 0.02287092805, 0.11566437781, -0.17746973038, 0.14791144431, 0.07115532458, 0.34643194079, -0.06124440581, 0.04528251663, -0.30953693390, -0.13389824331, -0.21289055049, 0.33208009601, 0.13589447737, 0.26902255416, 0.05332283676, 0.15284238756, 0.24476172030, 0.07744209468, 0.12130414695, -0.06136511266, -0.13900928199, -0.08453328907, 0.04536319897, 0.04061788693, 0.16173167527, 0.28707185388, -0.24034397304, -0.15126168728, 0.21673589945, 0.06958392262, 0.13349032402, 0.15709149837, -0.02192340046, 0.25665712357, -0.21457289159, 0.11231239140, -0.28125545382, -0.23939074576, -0.11054956913, 0.02556203492, -0.21758827567, -0.16166788340, 0.17324797809, -0.21062977612, -0.11633446813, -0.19661903381, 0.20302757621, -0.16399675608, 0.14222113788, 0.01733776927, 0.08930581063, 0.11150339991, 0.18715731800, -0.12773327529, -0.22296106815, 0.02387887053, -0.25264057517, -0.25456929207, 0.25207507610, -0.20595113933, -0.07858391851, -0.22639374435, -0.02058126591, -0.12325172126, -0.30607977509, -0.34481668472, 0.02298507467, 0.06628533453, 0.23263701797, -0.09301670641, 0.05622054264, 0.10752134025, -0.02982252650