-0.03201607242, -0.13725824654, 0.13320344687, 0.13013212383, -0.20580518246, -0.08883836120, -0.14117038250, -0.11069660634, -0.05662707239, 0.05913712457, 0.05748128891, 0.07966975868, -0.22349743545, -0.08894973993, -0.03824516013, -0.24816268682, -0.06330364197, 0.06190475449, -0.12966477871, -0.00462389924, -0.03959053382, -0.12709033489, -0.23851281404, 0.07254055887, 0.09300231189, 0.14252029359, -0.09678658098, -0.06079405919, 0.07354120910, -0.04175643250, -0.04568991065, -0.27970954776, -0.10357920825, 0.12694431841, 0.02965351194, -0.00741145108, -0.01662194915, -0.18114690483, -0.04212732613, -0.07362907380, 0.13930712640, 0.03819072619, -0.17418766022, 0.00533333467, 0.00418394897, 0.02069030330, -0.01975625195, -0.06245494634, 0.07420067489, -0.01997959428, -0.01475151442, -0.12339423597, 0.06110704318, -0.14171390235, 0.11380738765, 0.02840544097, -0.00492769293, -0.08771150559, -0.08919250965, -0.10468658060, -0.08993532509, 0.01747370325, -0.12076420337, -0.21657855809, -0.07099354267, -0.00142028253, 0.07903770357, 0.17852559686, -0.12675787508, -0.07537320256, -0.04762948304, -0.03191287816, 0.02205506898, 0.09161332250, 0.04492209107, -0.17260031402, -0.12933738530, 0.20711898804, 0.06568209827, 0.06026221067, -0.11213289946, 0.18625074625, 0.05853528157, -0.09114812315, 0.02307160757, -0.01060662605, -0.09442643076, -0.00125994382, 0.11944496632, -0.02063916251, 0.07008897513, 0.13891421258, -0.02834575437, -0.04364179447, -0.18153437972, 0.07477765530, -0.09027669579, -0.14474219084, -0.12081569433, -0.06754467636, 0.01199196372, 0.06900504231, 0.10686160624, 0.02104009129, 0.03951487318, -0.08035144955, -0.08687008172, -0.11079068482, 0.08237649500, -0.04420123994, 0.05260284618, 0.16051915288, -0.10764305294, -0.11713231355, -0.12017019093, 0.03059250303, -0.06135972589, -0.15661680698, -0.24761861563, 0.03505819291, 0.15982706845, 0.08768108487, -0.21118728817, -0.06067609787, 0.08222334087, -0.00192198821, -0.08622954786, -0.10108807683, 0.10504325479, -0.24696668983, -0.10483229905, -0.04242776334, -0.22711214423, -0.06095563248, -0.03380699456, -0.12543819845, 0.08441048115, 0.02559017017, -0.00118832849, -0.17227511108, -0.03375035524, -0.23135495186, -0.05118357390, 0.09561114013, -0.16197238863, 0.14235390723, -0.10314197838, -0.02381362766, -0.22471480072, 0.12500509620, 0.14450937510, 0.01431973185, -0.24420274794, 0.49711069465, 0.06778652221, 0.07072563469, -0.24494235218, -0.07713107765, -0.21635349095, 0.07086613774, 0.00741599873, -0.17698962986, -0.10739904642, 0.06968566775, 0.03423246741, -0.29736363888, 0.29610854387, -0.18963193893, 0.05778892338, -0.07740934938, 0.10332714766, 0.02718724869, 0.14110495150, 0.25024148822, 0.08193270117, 0.27117395401, -0.18821972609, 0.05390724540, 0.14912633598, 0.03339077905, -0.07698856294, 0.04263163358, 0.29145354033, -0.12359928340, 0.02990541607, -0.31548506021, -0.07038369775, -0.36851480603, 0.26817494631, -0.32797086239, -0.18247239292, 0.26814317703, -0.07569596171, -0.06330729276, 0.19395610690, 0.16100181639, 0.31885480881, 0.27677720785, -0.12650214136, 0.04193752632, -0.17652380466, -0.01469093002, -0.18846838176, -0.29807853699, -0.08987148851, -0.14786441624, 0.17009472847, -0.25685077906, -0.10655346513, -0.03520958498, 0.07000537962, 0.12686994672, 0.17513237894, -0.23765216768, 0.15569829941, -0.21526993811, -0.04665865749, 0.09256630391, 0.12092602253, -0.27196934819, 0.24212710559, -0.13862964511, 0.09326547384, -0.19241307676, 0.00448599318, 0.08518762141, 0.23628972471, 0.15707303584, 0.11172255874, 0.34035322070, 0.09386968613, -0.00422441447, -0.11825007200, 0.11522419006, -0.01002537366, -0.08427349478, -0.23554116488, 0.09846232086, 0.38277405500, 0.02068199590, -0.18889072537, 0.19831943512, 0.16432042420, 0.15690869093, 0.00467260834, 0.03025105223, -0.10723067075, -0.10418896377, -0.19742757082, 0.23680698872, 0.29173821211, -0.00439516222, 0.16405443847, 0.06891925633, -0.22472608089, -0.01680343784, -0.34145691991, 0.31361669302, -0.11837502569, 0.11861056834, -0.34239277244, -0.11293115467, 0.08826056868, -0.11789892614, 0.10168553144, -0.30174246430, 0.37281730771, 0.35960239172, -0.60317403078, 0.33809185028, 0.06857625395, 0.25413829088, -0.33707803488, 0.38253483176, 0.04998224601, 0.15357059240, -0.26036286354, 0.21538637578, -0.39804705977, 0.27417910099, 0.25288203359, 0.19634072483, 0.40370938182, 0.01633969881, -0.26883310080, 0.35007667542, 0.00165342877, 0.47342908382, -0.49429357052, 0.11361843348, -0.03307076916, -0.07417576760, -0.37148320675, -0.05153520405, 0.36575213075, -0.10818634182, -0.04486298934, -0.32622098923, 0.23196896911, 0.33049550653, -0.43809106946, 0.33383759856, 0.21411563456, 0.22831086814, -0.22907915711, 0.34197062254, 0.20030638576, -0.02453776821, -0.07181816548, 0.35419383645, -0.30093887448, 0.24443468451, 0.09265723079, 0.08692091703, 0.12656232715, -0.12112837285, -0.39039939642, 0.28884392977, 0.35040733218, 0.37552842498, -0.00113397057, 0.30127772689, -0.14435319602, -0.39600783587, -0.20583450794, 0.11069666594, 0.04586338252, -0.24089661241, 0.09732159972, 0.20179221034, 0.02036951482, 0.29842686653, 0.01250285935, -0.06777543575, 0.56615531445, 0.11726114899, -0.05662620440, -0.03976460546, 0.18450476229, 0.22181256115, -0.21016618609, 0.20221368968, -0.21084935963, 0.03381252289, 0.27644705772, 0.20861127973, -0.12719379365, -0.08383207023, 0.06654113531, 0.04249301553, 0.26218509674, 0.02414067835, -0.07508155704, 0.12531630695, -0.02870242111, -0.17707839608, 0.00505400961, 0.07981280237, -0.07693503797, -0.18514835835, 0.25777268410, -0.15368025005, 0.28398191929, 0.02484027669, -0.06328714639, 0.02354912646, -0.09278523922, 0.15808168054, -0.03938803077, 0.13278682530, -0.06619508564, 0.14002397656, -0.28842490911, -0.01947551966, -0.16282349825, 0.09745384008, 0.19822928309, -0.16472297907, 0.27522337437, 0.07588005066, -0.09204095602, 0.03544463962, -0.17702192068, 0.24387687445