//Numpy array shape [2, 6, 32]
//Min -0.601221501827
//Max 0.705040156841
//Number of zeros 0

#ifndef QUERY_WEIGHT9_H_
#define QUERY_WEIGHT9_H_

#ifndef __SYNTHESIS__
multi_head_attention_3_default_t query_weight9[384];
#else
multi_head_attention_3_default_t query_weight9[384] = {-0.15939064324, 0.06918127090, 0.41164001822, -0.46963962913, 0.53855550289, -0.25878238678, -0.39208984375, -0.27776286006, -0.60122150183, 0.33712026477, 0.48655986786, 0.10558153689, -0.02510345541, 0.22646543384, 0.18213804066, 0.47310197353, -0.44440773129, 0.70504015684, -0.12447800487, -0.38321390748, 0.12833203375, -0.60036939383, 0.34986683726, -0.52495890856, -0.55459803343, 0.05226825178, -0.01751839370, 0.02136543393, -0.08709777147, 0.54611742496, -0.46855157614, -0.27057382464, 0.41044518352, 0.33685812354, -0.32153737545, -0.32355320454, -0.24227748811, -0.23544313014, 0.14905446768, 0.33675444126, -0.29878783226, 0.30393519998, -0.12746438384, -0.12147478014, -0.37794050574, 0.14023101330, -0.15838983655, 0.09918110073, -0.29478242993, -0.01634199172, -0.24304807186, -0.25441738963, 0.45519250631, -0.24599644542, -0.19186790287, -0.49674835801, -0.07101836056, -0.09971483052, -0.35289320350, 0.34698188305, -0.07547301799, -0.19761998951, 0.12393315136, 0.10457684100, 0.06252995133, -0.05780998245, -0.00390715711, -0.05293558538, -0.08255051821, 0.23322255909, -0.08496220410, -0.04073351249, 0.05544453114, 0.05738583580, -0.08925289661, -0.02649366111, 0.07736311108, -0.18011288345, 0.21611857414, -0.07973813266, 0.24819253385, -0.01239282452, -0.09648299217, 0.07309073210, -0.07935411483, -0.05111357570, -0.07427956909, -0.08222221583, -0.10932177305, -0.20003975928, -0.14044700563, 0.03992510587, 0.19458267093, 0.16565181315, -0.18195606768, -0.23772245646, -0.07014734298, -0.27543479204, -0.18901346624, -0.09685617685, -0.13676182926, -0.16792543232, -0.08099567145, 0.17260283232, -0.05631119385, -0.17741751671, 0.06509377062, -0.06572829932, -0.07597720623, 0.25889080763, -0.10588993877, 0.14063115418, 0.02139110863, -0.07288069278, -0.17790248990, -0.08484505862, -0.04521137848, 0.15643474460, -0.20986400545, -0.07849758863, 0.28640085459, 0.29033541679, -0.10522440821, -0.04163549468, 0.11462715268, -0.00266392832, -0.03124378994, 0.20315039158, -0.04002491385, -0.06544667482, 0.19758914411, -0.07904539257, 0.10706502199, -0.14309895039, 0.02959485911, -0.16737398505, -0.17069992423, 0.14600075781, -0.05695867911, 0.11708217859, -0.10761746019, -0.02885500528, 0.01678345911, -0.05446945131, -0.12929655612, -0.06614041328, 0.11854183674, -0.23680420220, 0.17908185720, -0.13303740323, 0.16501660645, 0.05375180766, 0.05519561470, -0.00989019684, 0.16489315033, 0.22951675951, -0.01113155764, 0.03644900769, 0.04350511730, -0.13974915445, -0.09004558623, -0.13665725291, 0.00229202071, 0.10132169724, -0.10392335802, -0.19141632318, 0.25803014636, 0.05273027346, 0.13482993841, -0.20877811313, -0.14366832376, -0.05609669164, 0.00210293615, -0.12983419001, 0.03865906969, 0.06580842286, 0.05410772189, -0.19527995586, 0.08763479441, 0.21957495809, -0.16772279143, 0.18218280375, -0.05828614160, 0.15924111009, 0.20531728864, 0.01901435107, -0.09681248665, -0.15579822659, 0.09595252573, -0.23231796920, 0.21275474131, 0.08602803946, 0.07959560305, -0.12716832757, 0.14186213911, 0.01453772187, 0.06483346224, 0.06846186519, -0.07681164145, -0.19444036484, -0.12993624806, 0.20891883969, 0.04126014933, 0.14793559909, -0.43015435338, 0.17125765979, 0.12760815024, 0.16099216044, -0.00610060478, 0.34902161360, -0.30994147062, -0.12201087177, 0.19934952259, -0.05746287480, 0.29809370637, 0.02540939488, 0.17395128310, 0.37609791756, -0.15525683761, -0.35413584113, 0.03121387959, -0.12450833619, -0.46930953860, 0.45800846815, 0.13252763450, -0.12082506716, -0.10792697966, 0.06102814153, -0.10722509027, -0.01748274639, -0.11295467615, -0.22951780260, 0.04936670884, 0.05676894635, 0.01081943326, 0.30256572366, 0.09697391838, 0.19215631485, -0.02528799325, 0.09771709889, -0.15345832705, 0.39615806937, -0.05385188758, 0.07913322747, 0.01146357320, -0.05768331140, 0.13405250013, 0.02052591369, 0.05732645467, 0.14949367940, -0.18240198493, -0.04338354990, 0.27596861124, -0.13456426561, -0.23330035806, 0.42518374324, -0.21646039188, 0.15735694766, -0.01327022258, 0.05783189461, -0.15475952625, 0.31240120530, -0.24480745196, -0.17262899876, -0.25003454089, 0.29339250922, 0.16403609514, 0.53821831942, -0.55441612005, -0.02277564444, -0.08696737140, 0.13054007292, -0.00576377753, 0.39423468709, -0.29712086916, -0.26037269831, -0.12971240282, -0.21032981575, 0.11510763317, -0.18887406588, -0.13715650141, 0.31177148223, 0.00971374195, 0.05744257197, -0.19037136436, -0.10745513439, -0.32038643956, 0.34842523932, -0.09821911901, -0.00763070257, 0.05879962817, -0.04612378404, 0.13141614199, -0.06851854920, -0.02554081939, 0.00351365143, -0.21888343990, -0.07684458047, -0.02144067176, -0.13311789930, -0.14546468854, -0.02006416395, -0.16184291244, 0.12722064555, 0.21436756849, -0.08519058675, 0.18238380551, -0.18942411244, 0.16152916849, -0.10201266408, -0.02235702798, 0.18270377815, 0.10924374312, 0.07149979472, -0.02476605959, -0.13833516836, -0.15859346092, -0.11385629326, 0.01663529314, 0.09696779400, -0.05182602629, -0.28062254190, 0.20477126539, 0.06853519380, 0.15099462867, -0.08941881359, 0.31571117043, 0.05136670545, -0.01357695833, 0.08560427278, -0.10965608805, -0.31218111515, 0.02645606548, 0.01399242599, -0.06163044646, 0.17692694068, 0.22814509273, -0.42509287596, 0.01750738919, 0.31888440251, -0.09857668728, 0.24153633416, 0.20587861538, 0.12369899452, 0.20911319554, -0.38029146194, 0.12349574268, -0.26457843184, -0.00967046712, -0.10865271837, 0.03394809738, -0.35931146145, 0.05790955573, -0.00929060206, 0.02870777063, 0.13848994672, 0.08738140762, -0.07085831463, -0.21536301076, -0.17763666809, -0.11920352280, 0.08896309137, 0.05240688473, 0.39336830378, -0.26739129424, 0.07456430793, -0.04700560495, 0.00930053368, 0.01081221085, -0.00961961970, 0.11004745215, 0.01766995341, -0.05280878767, -0.18570128083, -0.07814363390, 0.02448357828, -0.17764575779, 0.15933758020, -0.12777741253, -0.05537199974, -0.16666679084, 0.06154820323, -0.11632349342, 0.05069259927};
#endif

#endif
