//Numpy array shape [2, 6, 32]
//Min -0.413107216358
//Max 0.552461922169
//Number of zeros 0

#ifndef QUERY_WEIGHT2_H_
#define QUERY_WEIGHT2_H_

#ifndef __SYNTHESIS__
multi_head_attention_2_default_t query_weight2[384];
#else
multi_head_attention_2_default_t query_weight2[384] = {0.13039727509, 0.14220331609, 0.21363615990, 0.04042119905, -0.02984961309, 0.06658469141, 0.11960013211, 0.02347044088, -0.03816216812, 0.16258560121, 0.11690651625, 0.20923198760, -0.21780771017, 0.01469791215, 0.07443804294, 0.09385544062, 0.06544185430, -0.14214845002, -0.12140385062, 0.17968833447, 0.06920953095, -0.15708686411, 0.13963989913, -0.11003576964, 0.06641332805, -0.12482029200, 0.15008382499, 0.17163783312, 0.04773897305, 0.07374460250, -0.05057782307, -0.08969419450, 0.16110421717, 0.12026678771, 0.15074203908, -0.36966136098, -0.35414966941, 0.09826011211, 0.13311523199, 0.05776181072, 0.06334836781, -0.16125100851, -0.09630127251, -0.02790333144, 0.22921402752, 0.10901860148, -0.26854735613, 0.28418543935, -0.13769045472, 0.02857106552, -0.10409741104, -0.05042247102, -0.07192359120, -0.20934243500, 0.15215505660, -0.05284975842, 0.14009582996, 0.07115386426, -0.05946008861, 0.01090577431, 0.04429943860, -0.26798683405, -0.09870817512, -0.12145432830, -0.13349789381, 0.01125005260, 0.14777572453, -0.01350015961, -0.04328894988, -0.05891430005, 0.04960718006, 0.16331860423, -0.02730987966, 0.02025816962, 0.17598025501, 0.02120941691, -0.08600109816, 0.14064563811, 0.05754440278, -0.10756598413, 0.22280523181, 0.07487338781, -0.14893424511, 0.03244619817, 0.12605170906, -0.19201946259, 0.04261940718, -0.05855028331, -0.08188325912, 0.20250356197, 0.14397668839, 0.24253815413, -0.20913994312, 0.11912004650, 0.07135029882, -0.04942251742, 0.26706585288, -0.23969542980, -0.05708028749, -0.08993320167, 0.15579059720, 0.21180665493, 0.09840302169, 0.04959311709, -0.17434872687, -0.37439894676, 0.30512276292, 0.05074955150, 0.08819333464, -0.20189790428, -0.24742928147, 0.20506168902, -0.12804248929, -0.06318934262, -0.20990936458, -0.19004143775, 0.07265838981, 0.23820613325, 0.10375579447, 0.55246192217, 0.15632551908, -0.11550283432, -0.21546953917, -0.20123660564, 0.13022509217, -0.27987778187, -0.19197082520, -0.08997992426, 0.06869074702, -0.07780190557, -0.22315882146, 0.25346398354, -0.17627701163, 0.07210817933, -0.16450488567, 0.28181773424, -0.05909146369, -0.08480162919, 0.08131487668, -0.13902138174, 0.18779003620, 0.01066529192, 0.17918136716, -0.23372519016, -0.09996516258, -0.03149349988, -0.04457900301, 0.12891237438, 0.22013114393, -0.02334387042, -0.25257578492, -0.07481747121, -0.18346595764, 0.13116098940, 0.15140517056, 0.05194643140, 0.04335539788, -0.07055035979, 0.16420762241, 0.21814475954, -0.19378493726, 0.22225929797, -0.13911855221, 0.50434964895, -0.29836329818, -0.11831177771, -0.19270835817, 0.36237546802, 0.09078576416, 0.34904477000, -0.09186676890, -0.08510901779, 0.05366275087, 0.28806051612, 0.09479773790, -0.35173812509, -0.11355335265, 0.08968201280, -0.19157700241, 0.36212116480, -0.17275968194, -0.16153828800, -0.26930487156, -0.22933268547, -0.31262752414, 0.03383817896, 0.01698417589, 0.23680157959, -0.05373599753, -0.05727440864, 0.22631195188, 0.19310699403, -0.04906586930, 0.03271227702, -0.06628961861, 0.05430082232, 0.00719479984, 0.04596674442, 0.06155893952, -0.15023620427, -0.05963002145, 0.02111641876, 0.03767349198, 0.16611588001, 0.15004174411, -0.01678496413, 0.05465416238, -0.07374174893, 0.24990916252, -0.03301464394, 0.12626743317, -0.00862515904, 0.06777045131, 0.06183654815, -0.02943211421, -0.20863980055, 0.02323636040, -0.15106034279, -0.02122667804, 0.10191725194, 0.21962150931, 0.12669345737, -0.03234941885, 0.09200841933, -0.17794145644, 0.01241416205, 0.24908329546, -0.01628008112, -0.06919534504, -0.03057922423, 0.11590282619, -0.10186038166, 0.12756602466, 0.06078313664, -0.15426744521, -0.06547798961, 0.33580878377, -0.17137582600, -0.41310721636, 0.04721423239, -0.00436983304, 0.05873286352, 0.20184452832, -0.04056865722, -0.24069292843, 0.21072550118, 0.22403177619, -0.07305847108, -0.20601935685, 0.01910681836, -0.25208756328, 0.15681363642, -0.09579927474, -0.03698269278, -0.32032930851, 0.07945261896, 0.09733196348, 0.11646901816, -0.12662580609, -0.14698387682, -0.04481782019, 0.19510875642, 0.01463411190, 0.11702366173, 0.00054588215, 0.26013284922, -0.06580357254, -0.06880421191, -0.21042260528, 0.25944572687, 0.14994610846, -0.14945375919, 0.04266246036, 0.06659838557, 0.09877363592, -0.03223942220, -0.11195655167, -0.23388509452, -0.14213183522, -0.20331442356, 0.11122304946, -0.16048848629, 0.05024199933, -0.10693380982, 0.22086201608, 0.12623606622, -0.19580440223, 0.06258781999, -0.10459165275, -0.15676522255, -0.11107051373, 0.20752237737, 0.11690324545, -0.00951537583, 0.06723421812, 0.03563693166, -0.04546472803, 0.02847631089, -0.01633271202, 0.02184385434, 0.01029601879, 0.13672350347, -0.18998056650, 0.16815251112, 0.08230729401, -0.09913941473, 0.06046362594, 0.12250455469, -0.08566773683, -0.23431044817, 0.16862607002, 0.06169866771, 0.02838540822, 0.02806395665, -0.08010811359, -0.14444731176, 0.12582203746, 0.04365950823, -0.01051097829, 0.18127286434, -0.05608404800, -0.10747241229, 0.38000187278, 0.27240386605, 0.02716718987, -0.00716199400, 0.11365809292, -0.11706625670, 0.17586082220, -0.18055166304, 0.14085549116, -0.22327958047, 0.02088433132, 0.24588990211, -0.05580236763, 0.34270644188, -0.11217307299, -0.02119100280, -0.12774482369, -0.23528577387, -0.26164901257, -0.32586303353, -0.14343512058, 0.11992596090, -0.08601928502, -0.18304269016, 0.18395285308, -0.23164887726, -0.07442577183, 0.10162705928, -0.24170830846, -0.12529265881, 0.00561675103, -0.35184839368, 0.05328227952, 0.33276787400, -0.02229277045, -0.06468126178, -0.02564431727, 0.07172326744, -0.00646657730, 0.11472581327, 0.20703490078, -0.04641537368, -0.08449607342, 0.20860612392, -0.16046489775, -0.02664894238, 0.04862806574, 0.14992304146, -0.07413860410, -0.17844803631, 0.08530300111, -0.25622770190, 0.19567996264, -0.11129458994, -0.28422573209, -0.15668527782, 0.23078320920, -0.28316056728, 0.15857850015, 0.26095062494, 0.03601198271, 0.06832569093};
#endif

#endif
