-0.08927383274, -0.06893067062, 0.05723839626, -0.04938900098, -0.05926929414, -0.07248263061, -0.03844200447, -0.00654262118, 0.12954555452, 0.02774533816, 0.04640617222, 0.09593034536, -0.00183480920, 0.14978410304, -0.08993072808, -0.02616509981, -0.09474416822, 0.01092654373, 0.04809144139, -0.06323792785, -0.13252340257, -0.11714814603, 0.02029363997, -0.00180422969, 0.13208469748, -0.11622605473, -0.11728589982, 0.00916043017, 0.01649458334, -0.02333895490, -0.06230024248, 0.04648420587, 0.10567661375, 0.05287119001, 0.15062150359, -0.07207864523, -0.08487179875, 0.04207888618, 0.12138551474, 0.15140767395, -0.03676729277, -0.08413589746, -0.05470801517, -0.02776968852, -0.04288893566, 0.02568809688, 0.04991809279, -0.01725530624, -0.04344712198, -0.05476690456, -0.08312103152, 0.11330032349, -0.00287411525, -0.07935858518, 0.12209123373, 0.12918540835, -0.05186585337, -0.00110186706, -0.04197509587, -0.13536614180, -0.05417419225, -0.07035709172, -0.00429212954, 0.04732629657, -0.10596392304, -0.09333647788, -0.02648077533, -0.09747110307, 0.07975232601, -0.14426414669, -0.03357433155, 0.05400032923, 0.06950133294, -0.06960327923, -0.10128974915, -0.05464600772, 0.09562356770, -0.04226947203, 0.10626374185, -0.16749897599, -0.11150696129, 0.09445872903, -0.07796081901, 0.11371438205, 0.07920518517, 0.11719944328, -0.12885722518, -0.08743231744, -0.02530601807, -0.11083186418, -0.03832471371, -0.03960765526, 0.03101372533, -0.04135863483, -0.10611760616, -0.02345188148, -0.10346373916, 0.01608593948, 0.04796208441, 0.07841645926, 0.05302874744, 0.08470579982, -0.07293802500, 0.11267866194, 0.11557887495, -0.05825546011, 0.08615697920, 0.06998263299, -0.01164349355, -0.08074373752, -0.05198676512, -0.09271316230, 0.02652750909, -0.04648768902, 0.04794512317, -0.05015854537, -0.00145065831, 0.11159934849, -0.05167002976, -0.08914491534, -0.06219099462, 0.01398553792, -0.09433197230, -0.03810878843, -0.10117983818, -0.06434217840, 0.02399892360, -0.04628958553, 0.04367126152, 0.04845810309, 0.21298806369, 0.01334741060, -0.08356107771, -0.00867549703, -0.04019910097, 0.00247642328, -0.18833041191, 0.00421194080, 0.15322197974, -0.01412585005, -0.12216055393, 0.03385380283, -0.05188468471, 0.03805275261, 0.07618053257, 0.05828668922, 0.01526559796, 0.11761160195, 0.12466302514, 0.06045951322, 0.07281846553, -0.10749375075, 0.00161223754, -0.08800143003, 0.10932599008, -0.17533102632, 0.05534837395, -0.01152657438, -0.04291216657, -0.00832899194, -0.08340835571, -0.03910690174, 0.20227648318, 0.00222033914, 0.16714143753, -0.07688584924, 0.00396188861, -0.04821170494, 0.04710292816, 0.21042363346, 0.00713587692, -0.15988740325, 0.03198659793, -0.17603333294, 0.14961451292, 0.17568238080, -0.01607066020, 0.05609161034, -0.10837881267, 0.11997593939, -0.03580236435, -0.18431577086, 0.11997911334, -0.06768878549, 0.12688766420, 0.07319705188, 0.01876655780, -0.07539317757, -0.05029216036, -0.24226614833, 0.07844039053, -0.00994920917, -0.08440922201, -0.01376031246, -0.01134289708, 0.17696559429, 0.07964894176, 0.00677008927, 0.01842618734, 0.16666559875, -0.07557037473, 0.08407355100, -0.05859101936, 0.03434622660, -0.11284676939, 0.05458218604, 0.01233918127, 0.12541419268, -0.05649890378, -0.06569866091, -0.04924270883, 0.04948594421, 0.01607399434, -0.07019855082, 0.02866978571, 0.08506803960, 0.03722728044, -0.13398046792, 0.08073023707, 0.09611874074, 0.01263672300, -0.08544360101, -0.03064090945, -0.12147266418, 0.10958056897, -0.10961154103, -0.13871850073, -0.06601304561, -0.04325931519, -0.11769271642, 0.14613911510, -0.00407499727, -0.10161323845, -0.11131178588, 0.05074001104, -0.04003797472, -0.02483800240, 0.06232225150, 0.01924644224, 0.07284257561, 0.17301650345, -0.05313219130, -0.12967795134, 0.08470185101, -0.02442702092, -0.14935740829, 0.09220802784, -0.01174227521, 0.07013634592, -0.02422462031, -0.07879222929, 0.05717564747, 0.02495007962, -0.07241798192, 0.12006469816, 0.01175352093, -0.10087727755, -0.07251600176, 0.16590289772, -0.11002087593, -0.11751668155, -0.07419814914, -0.06483274698, -0.12370811403, -0.03481547162, -0.05405709893, 0.01738861948, -0.13274680078, -0.09832527488, -0.02946738526, 0.05261792988, -0.05894295126, -0.06777881831, -0.05976276100, -0.01229478046, 0.07009234279, 0.10517058522, 0.12959153950, 0.01929527894, -0.14798074961, -0.15292899311, 0.07089348137, -0.00663867872, 0.00497736363, -0.11632033437, 0.12402868271, 0.08260332048, -0.03045668826, 0.09735670686, 0.15302704275, -0.02634798922, 0.13391588628, 0.07853016257, 0.11726434529, -0.13083097339, 0.01858000644, 0.17610225081, 0.04697081819, -0.10816676170, -0.02787278406, -0.05187951773, -0.09548285604, 0.08584178239, -0.02893348783, -0.12917746603, 0.17483639717, 0.14033173025, -0.00234019849, -0.05796308443, 0.11669989675, -0.10899122059, -0.05672103539, 0.07867280394, 0.05115823448, -0.00793245062, 0.09736806154, -0.05492353812, -0.04809161276, -0.10711205751, 0.08857676387, 0.12799678743, -0.07201624662, -0.18048636615, 0.06662695110, 0.10452391207, -0.06071555614, 0.00057182310, -0.00539492210, -0.00311616529, -0.13782700896, 0.17900811136, -0.00374247856, -0.04727731273, 0.03312730417, -0.17340673506, 0.10922946036, -0.04461511597, 0.14082327485, 0.12397930771, -0.04968357831, 0.00518384110, 0.08212619275, 0.02763615549, -0.01060034987, 0.15788860619, -0.03451289237, -0.07906936854, 0.00763617409, 0.13377718627, -0.13641032577, -0.17016588151, -0.13089533150, 0.03203793615, -0.07890880853, 0.07690101117, 0.07501523197, 0.14016713202, 0.02845614217, 0.04369002953, 0.03559608385, 0.02519173175, 0.02076106891, -0.14770774543, 0.02633518167, 0.06927841157, 0.01816248149, 0.15955838561, -0.13501502573, -0.11351387203, -0.03221042454, -0.03803228959, -0.05064925551, 0.08468511701, -0.14799998701, -0.04221494496, -0.12154252827, 0.06747756898, 0.08437176049, -0.07430855930, -0.03678430244, -0.07878022641, 0.04217777029, -0.11558938026, -0.00823443383