//Numpy array shape [16, 8]
//Min -1.011555433273
//Max 0.763294458389
//Number of zeros 0

#ifndef W28_H_
#define W28_H_

#ifndef __SYNTHESIS__
dense_16_default_t w28[128];
#else
dense_16_default_t w28[128] = {-0.56463551521, -0.35517638922, -0.32393035293, -0.51202142239, 0.14007073641, -0.25891053677, -0.58541923761, -0.13477952778, -0.06076022238, 0.05186944082, 0.41261208057, 0.12619844079, 0.15912343562, -0.37681695819, 0.12428527325, 0.12694998085, 0.27457597852, 0.09724029154, -0.27359756827, 0.10953801870, -0.53013807535, -0.05745216087, 0.35365357995, 0.17451451719, -0.57015484571, 0.14518906176, -0.75242859125, 0.21637807786, -0.30477809906, -0.08235880733, -0.52195328474, 0.22242657840, -0.28125128150, -0.16935276985, -0.40840277076, -0.21210744977, -0.34857797623, 0.08096835762, 0.01322864182, 0.08885404468, -0.20076386631, 0.23039574921, -0.28279286623, -0.10116814822, 0.08314722031, 0.47780859470, -0.08789855987, -0.05288712308, -0.93797194958, -0.27208214998, -0.24644359946, -0.53544652462, -0.46222069860, -0.38283452392, -0.72246563435, -0.54911524057, 0.48812183738, 0.24736180902, -0.27385768294, 0.30074566603, -0.07842224091, -1.01155543327, 0.33105152845, -0.51385247707, -0.13528998196, -0.07361737639, 0.28332197666, -0.12511719763, 0.30787777901, -0.09264509380, -0.24036625028, -0.05607376620, -0.06044168398, 0.24359625578, 0.34963303804, 0.00243593124, 0.13878491521, -0.03634474427, 0.15952678025, -0.20824655890, 0.06127301231, 0.09631174058, 0.19764032960, 0.11155102402, -0.33922451735, 0.11632218212, 0.26782858372, 0.13238899410, -0.26984661818, 0.23522226512, 0.04070931301, 0.20661835372, -0.26978433132, -0.02752733417, 0.06199108809, 0.15419135988, 0.24331891537, 0.15543821454, -0.24079692364, 0.40462970734, -0.28764617443, 0.31770253181, 0.76329445839, 0.42112073302, -0.45759108663, -0.03076237626, -0.14579066634, 0.34699761868, 0.11053273082, 0.02478183247, -0.56848561764, 0.61897593737, -0.12444067746, -0.05384773389, -0.48686805367, -0.09894467890, 0.38795089722, -0.12205862999, -0.25983539224, -0.31147342920, -0.07157845795, 0.33551707864, 0.28713482618, -0.01516014989, 0.18723347783, -0.02664028481, 0.19729399681, -0.35662263632};
#endif

#endif
