//Numpy array shape [2, 32, 6]
//Min -0.466539770365
//Max 0.374211847782
//Number of zeros 0

#ifndef ATTENTION_OUTPUT_WEIGHT2_H_
#define ATTENTION_OUTPUT_WEIGHT2_H_

#ifndef __SYNTHESIS__
q_multi_head_attention_45_default_t attention_output_weight2[384];
#else
q_multi_head_attention_45_default_t attention_output_weight2[384] = {-0.1208163574, 0.1123094186, -0.0507590212, -0.0660006031, 0.2683751881, 0.2180175930, 0.0288005341, 0.0207477752, 0.0150345014, 0.0292005874, 0.1215519980, 0.0170720667, 0.0269855410, 0.0190022141, 0.0003582414, -0.0240123607, 0.0827008113, 0.0767224953, 0.1475465596, -0.0293213297, 0.0335670300, 0.0096391859, 0.1730207801, 0.2158710659, 0.0293913372, -0.0242329799, 0.0163176116, -0.0110984370, 0.1095430851, 0.2178186476, 0.1260150522, 0.0316920914, 0.0364581533, 0.1413790584, -0.3508993387, -0.2178743333, 0.1322041005, 0.0277174581, 0.0313702449, 0.0528391637, 0.2517637312, 0.1399319470, 0.0111032082, -0.0305521879, -0.0317569822, 0.0835757330, -0.0989030823, -0.0791045427, -0.0757412910, -0.0934016481, 0.0100390129, 0.2154586315, -0.0337992162, -0.0658904091, 0.0416421741, -0.1030225679, -0.0343826562, 0.2432363778, -0.1430953145, -0.0378764383, -0.0296286456, -0.0333146378, 0.0936189592, -0.0748551860, -0.2516404390, 0.1886531711, 0.2080799639, 0.0918029249, 0.0288314763, -0.0865150541, 0.2024250329, -0.1696103662, 0.0213142335, 0.0266551916, 0.0277595706, -0.0266573336, -0.1450491995, -0.1783259958, 0.2247633338, 0.1311945617, 0.0308324136, -0.0906634927, -0.0441899449, -0.0303631015, 0.1074971333, 0.0470984913, -0.0509037860, -0.0164632313, 0.2066587806, -0.0167661887, -0.0428928472, -0.0660193190, -0.0825586319, 0.1026713476, 0.0460113697, -0.1367580295, 0.0251014475, 0.0287723113, -0.0279591903, -0.0491806045, -0.0851060078, -0.3048709333, -0.1143364087, -0.0939609185, 0.0226534307, 0.0743135586, 0.0448487140, 0.1376297027, -0.1201580688, -0.1423556656, -0.1650292277, 0.0148407603, 0.0645164102, -0.0376181975, 0.1095718816, 0.1498142332, -0.1549964249, 0.0790565684, -0.0102038262, 0.1503986269, -0.0857497305, -0.0792870894, -0.0512437671, 0.1323981881, 0.0312284939, 0.0940806642, 0.0322992280, -0.0238282140, 0.0920241475, -0.1194202676, 0.1309910566, 0.2380517423, 0.0116622495, -0.0210103560, -0.0296526328, 0.0755373463, 0.0374186821, -0.0127164442, 0.0326488763, 0.1381129473, 0.1288508475, -0.1215727776, 0.2504458427, -0.2612894475, -0.0290215556, 0.0283392612, 0.0117537025, -0.0697215423, 0.0984224603, -0.1909794211, -0.0780464485, -0.0321233161, -0.1406200677, 0.1517833918, -0.3015001416, 0.0432548821, -0.2277085930, 0.0292917285, 0.0399504229, 0.0123100569, -0.0009676884, 0.3209636807, 0.0068605188, 0.0260313302, -0.0092716897, -0.0263464097, 0.0403193086, -0.0678604022, 0.0411172695, -0.0405876003, -0.0187744945, 0.0417528301, -0.0849752575, 0.1102715954, -0.1050526574, -0.0044851676, -0.0550182723, -0.0217097886, 0.1568586528, 0.2172486484, 0.0301490650, -0.0291550141, -0.0282775871, 0.0833976343, 0.0137181412, 0.0101396553, 0.2498237640, 0.0935256630, -0.0234408043, 0.0755443871, -0.0417212173, 0.0937690511, -0.0334440209, -0.0323441327, -0.0461568907, 0.0795027837, 0.3561391830, 0.0549732968, -0.1718125045, 0.0555224083, -0.0131341694, -0.1137435660, -0.1494252980, 0.0974576548, -0.1296559721, 0.0325241871, -0.0323155224, -0.0927726030, 0.1450925618, 0.3742118478, 0.0298426505, 0.0314220153, 0.0579544492, -0.1159986034, 0.0557770282, 0.0135901906, 0.0419230387, 0.0344756581, -0.0238891467, -0.0748425424, 0.1165813282, -0.0473873019, 0.0331473574, -0.0301861577, -0.0214656051, 0.0807879269, 0.2572318316, 0.0379708223, 0.0298212953, 0.0310394615, 0.0277538430, -0.0930101052, -0.1163828000, 0.0211750995, -0.0321628340, -0.0922381282, -0.0310637597, 0.0955245271, 0.1615141481, 0.2119466662, -0.0493924730, -0.0320987217, 0.1571852714, -0.0193224642, -0.0405321606, 0.1889594942, -0.1565583348, 0.0769814476, -0.0034731985, -0.1632107943, -0.0772994086, -0.0591955893, 0.0977591202, 0.1843286455, 0.1498940587, -0.0476162136, 0.3370024264, -0.4665397704, 0.1093605906, 0.0699473843, 0.0273975581, -0.0186314341, -0.0143615864, -0.0261909980, 0.1303941607, -0.0423466079, 0.0314116739, 0.0973535404, -0.1723120064, 0.3462657332, -0.2522458136, -0.0304977838, 0.2378679663, 0.1540242285, -0.0759421885, -0.0253512263, 0.0271380972, 0.0233896822, 0.0472915769, 0.0211670138, -0.2453306913, -0.0680082142, 0.1495699137, -0.0170659404, 0.0355273448, -0.0255641676, 0.0734637752, -0.0952096134, 0.1709067076, -0.1393837482, -0.0271179862, 0.1454885453, 0.0278112181, -0.2948610485, -0.0207760558, 0.0305161439, -0.0317905173, -0.0683184639, 0.2186395675, -0.1563270837, 0.0918072090, 0.0111468220, 0.0275784303, 0.0520893075, 0.0950129554, -0.0847522914, -0.0313188620, 0.0331039988, -0.0320182256, -0.1025291160, 0.2762829661, 0.2197073400, -0.0625237897, 0.1131483912, 0.1155372858, -0.1522472948, -0.0496323816, -0.0863676667, -0.1157183498, 0.0680358335, -0.0606916063, -0.0709658861, -0.1429273188, -0.2989031672, 0.0345491916, 0.0627623722, 0.0649864599, 0.0336521342, 0.1587222070, -0.0440661646, 0.0858850032, 0.0668895319, -0.0823803544, 0.0112578711, 0.1343692988, 0.3636010289, -0.1610655785, -0.0536474586, -0.0556729175, 0.0315005258, 0.1871490479, 0.2630046606, 0.0909242406, 0.0785605684, -0.0071845204, -0.0130581157, 0.2054968029, -0.0830372199, -0.0301885474, -0.0126279164, 0.0130803259, 0.0340858102, 0.0152922366, -0.1450696588, -0.0539805181, -0.1805469245, -0.0262897834, -0.1627332568, -0.0908315480, 0.2494426221, -0.0304182693, -0.0314252339, -0.0310421716, 0.0331199504, 0.1925464571, -0.0129632922, 0.1500413269, -0.0308577996, 0.1576511562, 0.0866018757, 0.1021012887, -0.1458962560, 0.0063798595, 0.0227101706, 0.0137376878, 0.0220531207, -0.1124433354, -0.0725523531, -0.2098222971, 0.1423624456, -0.1323301792, -0.1569254547, 0.2164494246, 0.2929585874};
#endif

#endif
