0.0853805020, 0.1165436357, 0.0640728250, 0.0193669163, 0.2541998923, -0.0730138123, -0.0567602515, 0.0350604467, 0.1683234125, -0.1080641747, 0.1072980389, -0.0508537516, 0.1230192557, -0.1255272776, -0.0904374495, -0.0025140014, 0.1543943733, 0.2096402496, 0.0049326378, 0.1050544232, 0.0924507082, -0.0430716798, -0.0717399344, -0.1321894079, -0.0286535807, 0.0055994545, 0.0302653220, 0.1049167812, -0.0975080505, 0.0857335851, -0.0618349314, 0.0863809958, 0.1051665694, -0.1091324538, 0.0268765222, -0.1179974824, -0.1628936827, 0.2200381905, 0.2513449788, 0.0329962596, 0.0383653007, -0.1008295938, 0.0337580889, 0.1128105298, 0.1775072515, -0.1245948523, -0.0401885994, 0.1704758853, 0.0654140338, 0.1464013904, 0.0876903906, -0.0889401808, -0.0439805239, -0.1356739700, 0.0367774889, -0.1710190177, -0.1853530556, 0.0932383314, 0.0948191062, 0.2111907452, 0.1352165788, -0.1277294308, -0.1131430715, -0.0915604979, -0.0182930212, -0.0907739624, 0.1486757249, -0.0439533070, -0.0290687159, -0.0634896681, -0.2288717777, -0.1571861058, 0.0333536752, -0.1839065105, -0.1595505625, -0.0265215766, -0.0933631957, -0.2484820336, 0.0342619903, -0.0477495119, -0.0336798988, 0.0409397446, 0.0815482810, 0.1123469397, -0.0266136974, 0.0376124121, -0.0816988572, -0.0616291352, 0.1690221131, -0.0754527301, 0.0480963662, 0.0986759141, 0.0236339178, -0.1687448025, 0.1138294041, -0.2278398275, 0.0755526498, 0.2208246887, 0.1592403501, 0.0910993814, -0.1668843776, 0.2198193371, -0.1951758862, 0.1767103374, -0.2003302425, 0.0442226194, 0.0999168307, 0.0455695204, 0.1524538994, -0.0014243396, 0.0814515576, -0.0108187394, -0.1257582307, -0.2368325740, 0.1202226281, -0.1531269997, -0.0803184062, 0.0333590843, -0.0502070412, 0.0880180597, 0.1065171883, 0.1513306648, -0.0464343689, -0.3150214851, -0.1797955930, -0.0938458517, 0.0599253066, 0.0968248397, 0.0946641937, 0.0330732688, 0.1425733566, 0.0281867981, 0.0050614108, 0.1560434103, -0.0306933653, -0.0828297734, 0.1485016197, -0.1617510915, 0.0616828464, -0.1556692719, -0.1058065295, 0.1418218315, 0.2060654014, 0.1536349654, -0.1483186185, -0.0451580957, 0.0270991810, -0.1198218986, -0.0442680866, -0.1574086547, -0.1338762492, 0.0355191752, -0.0528947636, -0.2122109532, 0.2176052034, -0.2109000534, -0.0938462242, -0.0652352199, -0.0343103856, 0.1466648281, -0.0951410383, -0.0904198736, 0.0274009667, -0.1204876080, 0.0108400639, 0.0556661263, -0.2279900461, -0.0341406912, -0.1820983589, 0.1891829967, 0.1553865075, -0.1084761396, 0.2125358880, 0.1556569189, 0.0816371664, 0.2746538520, -0.0073618740, -0.2876084149, 0.0198256299, 0.0996323973, 0.0404973477, 0.0666129291, 0.1238945797, -0.0742650777, 0.0466673858, 0.0459569730, -0.0290057361, -0.1551935673, -0.0001589858, 0.0152910622, -0.2835851014, 0.2177264690, 0.1608684361, 0.0635934621, 0.1491877586, 0.2199270576, 0.1454532444, -0.0224141218, -0.0052408730, -0.1519067138, -0.0556028709, -0.0574946366, -0.0575991869, -0.0329187661, -0.2688998580, 0.0084572127, -0.0254509710, 0.2145886868, 0.1820600778, -0.0447075106, -0.0650050640, 0.0302363336, 0.0267909039, 0.0301081818, -0.1652150452, -0.1821044534, 0.0940924287, -0.0276509244, 0.0319565758, -0.0716093183, 0.2101605237, -0.1027953476, 0.0229505654, 0.1146337613, -0.1560412943, -0.0921346396, 0.1881871372, 0.1149861962, 0.0096839480, -0.1304299086, -0.0300032124, 0.1140740588, -0.2217462063, 0.1491863877, 0.1262632012, -0.0160224400, -0.1390951872, -0.0830797181, -0.1326546967, 0.0873221606, 0.0292957425, 0.0024451492, -0.0225001592, -0.0285715200, -0.1290289015, -0.0769895762, 0.1223185360, 0.1537246257, 0.0966800749, -0.0943102613, 0.2567286193, 0.2641566694, -0.0546055026, -0.2228740901, -0.0773362219, 0.2168084681, -0.2012051046, 0.0689053014, -0.0217841323, -0.1855082810, 0.0413528532, 0.0949824825, -0.3674181402, 0.0865342245, -0.1283525676, 0.0023745841, -0.1068246216, 0.0132408505, 0.1695403606, 0.0168734863, -0.0367461592, -0.1470375955, -0.1414980143, 0.0349221118, -0.0413977318, 0.0944444314, -0.1540431380, 0.0405931473, -0.0234648548, 0.0021010637, -0.0325769931, -0.1335292310, 0.0546981059, 0.1358286738, 0.0304360166, -0.1550646275, -0.1746684462, 0.0696121231, 0.0296026226, -0.0949930698, -0.0818597972, 0.1088686138, 0.2048981786, -0.0498595499, -0.1566636413, 0.1370226592, 0.0846478418, -0.0049102651, 0.1287782192, -0.3576857150, -0.0921119750, 0.0870784819, -0.0533932336, 0.0869336724, 0.0923429132, -0.1504548043, -0.1135985404, 0.0115736211, 0.0898432806, 0.1536200494, -0.2904200256, 0.2267627865, 0.0273459647, -0.0941499546, -0.1008923575, 0.0775119066, 0.3347561955, -0.0799531341, -0.1417228729, -0.0181531999, 0.1251909137, -0.1236287132, -0.1137915105, 0.1811305881, 0.1993907541, 0.0638789609, 0.0897478238, -0.0565658137, -0.1827233434, -0.1243165284, -0.0871355161, 0.1521200538, 0.0817835182, -0.1113558561, -0.2462521940, -0.0395572744, 0.2508150935, 0.1987873763, -0.0263764635, -0.2225382626, 0.0098523758, 0.1252019554, 0.0101978118, 0.1069804281, 0.1469430774, -0.2094078511, 0.1752982587, 0.2358436286, -0.0038771860, 0.0372182839, 0.0191390943, -0.0792220607, -0.0122539746, -0.2886792123, -0.1133195981, 0.0837516040, -0.0576102398, -0.0290311296, 0.1345297694, 0.0536532886, -0.0281093344, -0.0905935615, -0.0230846591, -0.1228750572, -0.0724745691, 0.1580980420, 0.0344738103, -0.0672424808, -0.0041559935, -0.0570962839, 0.1994358301, 0.2787190378, -0.2590370178, 0.0444579199, -0.0184132308, -0.1916434020, -0.2414192408, -0.2610276341, 0.0304365270, -0.0441951081, 0.0318838581, 0.0361645073, 0.1172582135, 0.1007273719