//Numpy array shape [2, 6, 32]
//Min -0.638840079308
//Max 0.647791743279
//Number of zeros 0

#ifndef KEY_WEIGHT16_H_
#define KEY_WEIGHT16_H_

#ifndef __SYNTHESIS__
q_multi_head_attention_47_default_t key_weight16[384];
#else
q_multi_head_attention_47_default_t key_weight16[384] = {-0.1259813011, 0.2202324271, -0.1095022038, -0.0417722389, 0.1110569164, -0.1807694733, -0.2593700588, 0.0300479662, -0.2700915635, 0.0120888036, -0.1275258213, -0.0615065843, -0.1294991970, -0.2295042872, 0.0787278414, -0.1364040822, 0.0032980107, -0.1969743222, 0.2395472229, 0.1623881459, 0.0900625363, -0.2214559615, -0.2624437213, 0.1113096774, 0.0324322842, 0.1180408671, 0.3072753549, -0.2634632587, 0.2060981840, -0.1891002208, -0.1921895891, -0.1736503989, -0.1456044316, -0.2820802033, -0.2927784622, 0.3732215166, 0.1010342911, -0.1699508280, 0.1089184210, 0.2173731923, 0.1091046929, 0.1133819893, 0.2833139598, 0.5164357424, -0.0781218931, -0.2834286988, 0.3707917035, -0.1586864293, 0.4293262362, 0.3217109144, -0.0515772700, 0.1904041767, 0.2688160539, -0.0757292211, 0.6477917433, -0.2191168815, 0.5582438707, -0.0497187972, -0.2478450239, -0.1742874533, 0.0049862284, -0.1340601891, 0.1087048352, -0.2494340688, -0.1183173731, 0.1665055305, -0.0355658568, 0.0743826255, -0.0713454783, 0.0785270482, -0.1674592048, -0.0129131097, -0.1047549471, 0.1556295156, 0.0110137388, 0.1374998838, -0.0350153707, -0.0610016286, -0.0333661400, -0.1656415313, 0.0114729600, -0.1683189571, 0.2025054991, 0.0471991934, -0.0903068110, -0.0210650526, -0.1059846357, 0.0187058244, -0.2120527476, 0.1139806211, 0.0093654003, -0.2924070358, 0.0519779474, -0.4189670384, -0.0476316065, -0.1255833209, 0.0584670082, 0.2588574588, 0.2172445953, 0.2223445773, 0.1330606639, -0.1793787777, -0.0873067975, -0.3276570439, -0.2825832963, 0.2030089349, -0.1374298185, -0.0254186746, -0.1859083027, 0.0701980516, 0.1827531904, -0.0692945421, 0.0804221705, -0.0969350338, 0.2222632915, 0.2060240358, 0.2654914856, -0.0572168231, 0.0220630653, 0.0795507059, -0.0205442496, -0.0196313895, 0.0398276672, 0.0688422993, 0.1153943762, -0.0572820865, -0.0308130793, -0.3279380500, -0.1746142805, -0.0365096219, -0.2560414672, -0.0228708405, 0.0844463184, -0.2082562596, 0.1001705825, -0.0134798121, 0.1978346109, 0.0316951126, -0.0494779795, 0.0073554358, -0.1705387533, -0.1784862876, 0.0155281397, 0.0935624167, 0.1596137881, 0.0111033749, 0.1068966463, 0.1111344621, 0.1971207261, 0.0252074748, 0.1015273482, -0.2190730423, 0.2859340310, -0.0926030800, 0.1462785304, -0.1324847341, -0.1224523857, -0.0013797829, -0.2069653124, 0.0696323588, 0.0746779889, -0.0785576850, -0.1594576091, 0.2518498003, 0.1544500291, 0.1014507040, -0.1808034033, -0.0539636873, -0.2464268953, -0.0122423517, -0.0346449129, -0.0281457007, 0.4421866238, 0.1111979634, 0.0474215895, 0.0558801740, 0.0968436003, -0.0928708613, -0.2436675280, 0.2554651797, -0.0903283060, -0.1191747040, -0.6388400793, -0.0569620281, -0.3188112676, -0.0748386979, 0.1843226999, 0.2008986324, -0.0216410886, 0.0764582902, 0.3532254398, 0.3132666349, -0.3895828426, -0.1317636818, -0.6314359903, 0.1567455977, 0.1216305122, -0.2338881642, 0.2892920077, -0.4814087749, -0.1643565595, -0.0704015121, -0.4643049836, -0.5329185724, 0.4308401346, 0.0177432410, 0.3768046498, -0.3473835289, -0.3607692420, -0.0374396518, 0.1082418188, 0.2719361484, 0.4622406662, -0.1996633857, -0.1070311964, 0.2959541380, 0.1758492589, -0.5036185980, 0.0934432819, 0.2843710482, -0.2354254127, 0.2367350310, -0.5235365033, 0.2254568785, 0.2020125538, -0.1404587179, 0.1946534365, 0.0236718282, 0.0417828895, 0.1214673817, -0.3229060471, -0.0180953238, 0.1482619494, -0.0004451454, 0.2056420445, 0.1719790697, 0.0062540057, -0.0108355116, -0.1273481548, -0.0307910759, -0.0037974166, 0.0444350541, -0.2407933325, -0.1183226407, -0.0279147774, -0.0012529211, 0.3673505187, 0.2817320824, -0.2102090567, 0.1106300056, -0.0110553121, -0.1609096676, 0.0797978863, -0.0990630537, -0.0676912144, -0.2192767262, 0.2637711763, 0.2192328870, 0.0959199294, -0.1405273974, 0.1624799371, 0.3316462040, -0.1506329328, 0.1900764704, 0.2312012464, 0.1468246132, 0.1880117059, 0.1260531992, 0.0023031218, 0.0318383016, -0.2666944563, -0.0840250328, 0.2228381634, -0.0375731252, -0.2014282495, -0.2455272079, -0.2742685378, -0.0201448612, 0.1149122566, 0.0165033937, -0.2118057311, 0.0839942321, -0.3138999343, -0.0879309177, 0.2226292193, -0.1123230904, 0.3429955542, -0.1840436012, -0.0675923824, -0.1052628607, -0.3621049821, -0.0475703366, 0.2434991300, 0.0580027662, 0.0472729467, -0.0147453686, -0.0550800972, 0.0357556939, -0.3121615052, -0.1375787705, 0.2642442286, -0.2917561233, 0.2317014039, -0.3066972196, 0.0590840988, -0.3171315789, 0.1338523477, 0.1767993420, 0.3442980051, 0.0347927734, -0.1832547188, 0.1247953698, 0.0944906473, -0.3438577354, 0.1287222356, 0.0850409567, -0.2577565908, 0.1139766574, -0.0820373967, 0.2063329369, 0.3266372085, 0.0538241044, 0.3903139234, 0.0094244061, 0.0966907814, 0.2324927151, -0.2158030123, 0.1785438955, 0.2040891945, 0.0264990795, 0.3427228630, 0.3136495054, -0.0424193181, -0.1522605121, -0.2074856311, -0.0369949192, 0.1080325693, -0.1154276654, -0.2186984420, -0.1704699993, -0.2473793775, 0.1599564701, 0.2149094939, 0.0964867175, -0.1565665603, 0.1385830790, -0.1887872964, -0.2255558223, 0.1567104161, -0.0935056061, 0.1466069818, -0.1865479201, 0.2816120982, -0.1037061289, 0.1909960508, 0.1360097826, -0.2248176932, 0.2870625556, 0.3165421486, 0.2510476112, 0.1343969107, 0.0020666462, -0.1297615618, -0.1459805816, 0.0115667423, 0.0370779522, -0.2049461156, -0.0204820987, -0.0726667047, -0.0278912466, -0.1496824771, -0.0663519427, -0.2031059563, 0.1378403753, 0.2426232249, -0.1205399558, 0.1426946372, 0.0169272665, -0.1338969618, 0.3324193358, -0.2399150282, -0.1711247712, 0.2091814876, -0.1173304543};
#endif

#endif
