//Numpy array shape [2, 32]
//Min -0.000167032267
//Max 0.000279170461
//Number of zeros 0

#ifndef KEY_BIAS16_H_
#define KEY_BIAS16_H_

#ifndef __SYNTHESIS__
q_multi_head_attention_47_default_t key_bias16[64];
#else
q_multi_head_attention_47_default_t key_bias16[64] = {0.0000054017, 0.0000483255, 0.0000043250, 0.0000149766, 0.0000218535, 0.0000004540, 0.0000207151, -0.0000141528, -0.0000295431, 0.0000265651, -0.0000320190, 0.0000035825, 0.0000191216, 0.0000079153, -0.0000073841, 0.0000117032, 0.0000125970, -0.0000151383, 0.0000273393, 0.0000209167, 0.0000137006, -0.0000116442, -0.0000176262, -0.0000151806, -0.0000163678, 0.0000234074, 0.0000161017, -0.0000016761, 0.0000085458, 0.0000004342, -0.0000051011, 0.0000105743, 0.0000672796, 0.0000274934, 0.0000225738, -0.0001670323, -0.0000675600, 0.0002791705, 0.0000349259, 0.0002103229, 0.0000019461, 0.0000531021, -0.0000055836, 0.0000434095, -0.0001103419, 0.0000479778, -0.0000819348, 0.0001325650, 0.0001320544, 0.0001346443, -0.0000402873, -0.0000901183, -0.0000422867, 0.0000378627, -0.0000376286, -0.0001496247, -0.0000160234, 0.0001042765, -0.0000446157, -0.0000406662, 0.0000655546, -0.0001079653, 0.0001079751, -0.0000141802};
#endif

#endif
