-0.0844977126, 0.1992282271, 0.0628281087, -0.0063341376, -0.1979043931, 0.1823414564, 0.0040033162, -0.0430835746, 0.3953049183, -0.1634359062, 0.1872875988, -0.1539591253, -0.2002652884, -0.0105988206, 0.0229359195, 0.0916190520, 0.4173307121, -0.1714108884, -0.0820107758, -0.1842549890, 0.1128270328, 0.1593697667, 0.1247192621, 0.0150394915, -0.0811992064, -0.1189688370, 0.2418599278, -0.1414558291, -0.3270251155, -0.1762893796, 0.0934255719, 0.0249872562, -0.1545565724, -0.5748807192, 0.1474364996, 0.2213535905, 0.4339302778, -0.1202248484, -0.2461656630, 0.1756663769, -0.3206701577, 0.4704299867, -0.5141830444, -0.2863459289, 1.0913554430, -0.3725748658, 0.2678719461, -0.6025944948, -0.3299365044, 0.0780106261, 0.5363646150, 0.2499784231, -0.0800229535, -0.0129181324, -0.5761765838, 0.1088560000, 0.1106457114, -0.2519584596, 0.1815138310, 0.1176224798, 0.7610058188, -0.0416500308, -0.5098602176, 0.0854196772, 0.9195517302, 0.8202775717, 0.0962797031, 0.0773480609, -0.5882722139, 0.3612695038, -0.5073592663, 0.5744047165, 0.3704182506, -0.7729263306, -0.0414826088, -0.0286768544, -0.4577862024, -0.0915558934, -0.5774377584, 0.3517859876, 1.0004522800, -0.5863506794, -0.1732663214, -0.4221549332, 0.1157034412, 0.7143375278, 0.8688401580, 0.2974215150, -0.4089285433, -0.0225768164, 0.4325312972, -0.4165466130, -0.5132127404, -0.2911623716, 0.1765817404, 0.2968123555, -0.2884221673, -0.5755984783, 0.3222562075, 0.3499590456, 0.7192422748, -0.1017789692, -0.0120282993, 0.0939738974, -0.0371722542, 0.3056130111, -0.0772458166, -0.3104442358, 0.4501452148, -0.4618264139, -0.0236652792, -0.1447687447, -0.5716323256, -0.2745164633, 0.4935736656, 0.2606152296, 0.0987312645, -0.0234596077, -0.3778120279, -0.4023889303, 0.0402290896, 0.0763826147, 0.2104531974, 0.0552589931, 0.2737676799, -0.2787581086, -0.3453910649, 0.0036655185, 0.1751388907, 2.3204576969, -0.4984537661, -0.0081599364, -0.7621006966, 0.4661773145, -0.3943059742, -0.1816709638, 0.8518879414, -1.2408372164, 0.4312556684, -0.0548025928, -2.1440069675, 1.5565189123, -0.2754283845, 0.0680490583, 1.8229562044, 0.0144787617, -0.8143585920, -1.1600387096, 0.3612216413, 0.6942785382, 0.9677197933, 0.3784955740, 0.4975538552, -0.2174174935, 0.4212050140, -0.2619410455, -2.2313442230, 0.3164294362, 1.2120290995, 0.2652182281, -0.3134590685, -1.8423836231, -0.4308795035, -0.4634976089, 0.7808902860, -0.4439205229, -0.1872314513, 0.0832723379, -0.0232018307, 0.4676172733, -0.1825049669, -0.1547458321, 1.1239376068, -0.4329510927, -0.1412454844, -0.8397701979, -1.6307156086, 0.1243820637, 0.3239330351, 0.3499656022, 0.1312754750, -0.9579663277, -0.7822152376, 0.1619684845, 0.6009686589, 0.0671188086, -0.1698578447, 0.2098359466, 1.6816490889, -0.1114171445, -0.6699097753, -0.4062225521, -0.0688878447, -0.0966751501, 0.0111611839, -0.0505649149, 0.0103902258, -0.0935842097, -0.0716165379, -0.0665840954, 0.2532584667, 0.1163661182, 0.0444250032, 0.1101871058, -0.0318978615, -0.0602283888, 0.0380530283, 0.0147499414, -0.1162490919, 0.1237671897, 0.0703688711, -0.0877182633, 0.1161760315, 0.1060923263, 0.0236861091, 0.0873694718, 0.0615604259, 0.1126118004, -0.1168925464, 0.0627547503, -0.1316880733, 0.0769986063, -0.0745547786, -0.0210072566, -0.2357100248, -0.0151980454, 0.2554633617, 0.0291925576, 0.3930549920, -1.1198639870, -0.0686046481, 0.0131824343, 0.0012024376, -0.3176174760, -0.1528743953, -0.2275368869, 0.3361854851, -0.2030662447, -0.0508518182, 0.1720824987, 0.1449030489, 0.1585256755, -0.0941061750, -0.0436027236, 0.1466783136, 0.1252539605, -0.1665463597, 0.0637580007, 0.2661665082, -0.1073269024, -0.0423337743, 0.3156124651, -0.2589764893, -0.5017172694, -0.0281965882, 0.1968652308, -0.0476880074, -0.0614322424, 0.2195713073, -0.0753856078, -0.3603814244, 0.6541302800, 0.0518442057, 0.1209457964, -0.4904183149, -0.1006015316, 0.2233451307, -0.1840726137, -0.4087465107, 0.3111312985, -0.0062263561, 0.1290227324, 0.1575458348, -0.2987457216, 0.1776920855, 0.0673278198, -0.0624839664, -0.2606389225, -0.2514068186, -0.0236714762, 0.1571477652, -0.5198696256, -0.1901108623, -0.3781195283, 0.3196829557, 0.2459858358, 0.0459094793, 0.3664480448, -0.1979168504, 0.0601877980, -0.0585363656, -0.0751207322, 0.3900870383, -1.1542923450, -0.2703886926, 0.1747616827, -0.1096889377, -0.1535860449, -0.4090780318, -0.3191252351, 0.6333808899, 0.0819248855, 0.2753866017, -0.1250726879, 0.0407134928, 0.0203839783, -0.3591847718, 0.0629125312, -0.1607997566, 0.0575521104, 0.0565952174, 0.2082087696, -0.0840626806, -0.0720997602, -0.2140383720, -0.0965392664, -0.0599512458, -0.4335780144, 0.3436959982, 0.1257655770, -0.2285188287, -0.0139163528, 0.1737479866, 0.3021614552, -0.6789374352, 1.3962168694, 0.3476100862, -0.2186937630, -0.2349466234, -0.3019309938, 0.6180465817, -0.2648785710, -0.6975461841, -0.0556480810, 0.2170823961, 0.3918129504, -0.1643627882, -0.6973944306, 0.4409908354, -0.0627857223, 0.1527709216, -0.3655484319, -0.2090362608, -0.3664517403, 0.0163454935, -0.2619665563, -0.2644872665, -0.5193309188, 0.3359915614, 0.2065811306, -0.0007449026, 0.0066333064, -0.0369295217, -0.4189083278, 0.1831571162, 0.0057133678, 0.6160289049, -1.3317750692, -0.5133785605, 0.0756413639, 0.1164435521, -0.0878810585, -0.3918633461, 0.1656140387, 0.6483796239, -0.1020823941, 0.3830808103, -0.1052445471, -0.0216307864, 0.4835909903, -0.2346270084, -0.1459216923, 0.0974101499, -0.1604073048, 0.3558541238, 0.1513981223, -0.2143031955, -0.0264628083, -0.0682038665, 0.0521691479, -0.1936121583, -0.4345988035, -0.0608110242, -0.2230966240