//Numpy array shape [2, 6, 32]
//Min -2.431322336197
//Max 2.237792968750
//Number of zeros 0

#ifndef QUERY_WEIGHT2_H_
#define QUERY_WEIGHT2_H_

#ifndef __SYNTHESIS__
q_multi_head_attention_45_default_t query_weight2[384];
#else
q_multi_head_attention_45_default_t query_weight2[384] = {1.3307619095, 2.2104537487, -0.2682823837, 0.5808797479, -1.5375034809, 1.6576000452, -1.0506043434, 0.1662857085, 1.3164678812, -1.6823673248, 0.6452165842, 0.0034216754, -2.2621748447, 1.3394908905, -0.6977862716, 1.4465967417, 1.7490501404, -0.6172757149, -1.4168848991, -1.4346745014, 0.7612317801, 1.9546734095, 2.0677461624, 1.1953665018, -0.4171085954, -0.6429293752, 0.7054569721, -0.9281986356, -2.4313223362, 0.1180413663, 2.2377929688, 1.2308292389, 0.0230319872, 0.1425552666, 0.0263649356, 0.2270743698, 0.0410527959, 0.0961959586, -0.0235638600, -0.0430778600, 0.0713477433, 0.1566386372, 0.3294444382, -0.2503263056, 0.0160092488, -0.0811672136, 0.2402451187, -0.1367841959, 0.2823137939, -0.1441946775, 0.0350974426, -0.1882360727, 0.4121918678, 0.3441062272, -0.0602744371, 0.1244825348, 0.2556571662, -0.1000778601, 0.2573791146, -0.2725512683, -0.1910553873, 0.0029302491, 0.1650189012, 0.0041917148, 0.0259223059, -0.2103596479, 0.1343894452, -0.2535717189, 0.0494762398, -0.0978091583, -0.1804979891, 0.1509573013, -0.2060856819, 0.1495811492, -0.3048628569, -0.2180006802, 0.4163010418, -0.4277850688, -0.0197597481, -0.2428924292, -0.1923531294, 0.0243992917, 0.3621633351, 0.0523911826, -0.0478426814, -0.1461102217, -0.1062355712, 0.1773617715, -0.1302676797, -0.0228382591, 0.0375330783, 0.0062473738, 0.4490214586, -0.1988816857, -0.6903737783, -0.0342229083, -0.2021323889, -0.1558717340, 0.1635056883, -0.0804264471, 0.1694992185, -0.1163669378, 0.1848984361, -0.1958698332, 0.3029634655, 0.0991130620, 0.2976601422, -0.2255757153, -0.0839440078, -0.4550113082, -0.0904912129, 0.0663146898, -0.3236413896, -0.1018651053, 0.2162013352, 0.0853083134, 0.2965786159, -0.2518178821, 0.0300394744, -0.2236142457, -0.0101782484, 0.1431343257, -0.0035237921, -0.1278202534, -0.0266069565, -0.2454731017, -0.1443883032, -0.2085457891, -0.1970867664, -0.0168375559, -0.3862335086, -0.1659239382, 0.1002110764, 0.2057432234, -0.1839277148, 0.1207019314, 0.3113510609, -0.0311331879, -0.0919605419, -0.3787330091, -0.0207354557, 0.1782518774, -0.0244568791, -0.2859503329, -0.0116322832, -0.0063549252, 0.0197521877, -0.0441456437, 0.2297123224, 0.0461793393, 0.0971008167, 0.1072285771, 0.2821463645, -0.1840151250, 0.1222747192, 0.1727998555, -0.0173752941, 0.0908837020, 0.2636087239, 0.1347194314, 0.1874488294, 0.0133611942, -0.2733959258, -0.0458915271, 0.1325033754, -0.2337069660, -0.3862827420, 0.4578261673, -0.0973120183, -0.1795961708, 0.0241038445, 0.1496539265, -0.1515541524, 0.0315162167, -0.3824054301, -0.1661435366, -0.1519264877, -0.2482625842, -0.1784932762, -0.2023855299, 0.0942597538, -0.2691979110, 0.1683765501, 0.3190631866, 0.3067491949, 0.1665809602, 0.0814892650, -0.1565005779, 0.1760179102, -0.2674763203, -0.3101815581, -0.2723751068, 0.2265347391, -0.1865029335, -0.1395464838, -0.2388561070, 1.8326233625, -2.0957598686, -0.4172786176, 0.2004608959, 0.4714756906, 0.1864359081, -0.8242248297, 0.3038385212, 0.9559164047, -0.4794477820, 0.2619229257, -0.6734899282, 0.0551905707, 1.0477242470, -0.8178517222, -0.0820659101, -0.0307913553, 0.7505404949, 0.6941624880, 0.3814406097, -0.0966848582, 0.4708216786, 0.1920528263, 0.8619486690, -0.4400613606, -0.4655491114, -0.0466349646, -0.5305843353, 0.3508981466, -0.3087515235, -0.1719623953, -0.1363412440, 0.2509586513, 0.1206663325, 0.1556021273, 0.1328321248, 0.0078918012, 0.2114849836, -0.1028106064, 0.2431761920, 0.0444823392, 0.0185961686, -0.1748107076, -0.0888736770, 0.0714565143, 0.2794036865, 0.1267561167, 0.1372255534, -0.0866085812, 0.0854332596, 0.0808984190, 0.0063883876, -0.2066313624, 0.0896893367, 0.0845397636, 0.0536478348, 0.0023623023, 0.1036053151, -0.0391991287, -0.1186282560, 0.3101232648, 0.2107740641, -0.1849674433, -0.1439038962, -0.0832461566, 0.0523011908, -0.0234612823, 0.0815921873, 0.0315561667, 0.2998172343, 0.0788860917, 0.1860589087, -0.0405722149, 0.1482206583, -0.3129038215, -0.1487053931, -0.0744643062, 0.0703147799, -0.1246535853, 0.0423644260, -0.2072545439, 0.2308397889, -0.0390926749, -0.0171901509, 0.0276721679, 0.0687338561, 0.1849104166, 0.1801972091, 0.0866788849, 0.1780100018, -0.0417906679, -0.0748668835, 0.0289567448, 0.0039101797, 0.0178794637, 0.1399389803, 0.0488768257, 0.0024667156, 0.0428918786, -0.2704626620, 0.1422949731, 0.0334354974, -0.0672421157, 0.1386747807, -0.2054274827, 0.0352614112, 0.0739014000, 0.0475032255, 0.1667681485, 0.0385742746, -0.0943474695, 0.1277565956, -0.0309995096, -0.2728618383, 0.2765717804, -0.1437640190, -0.1752592623, 0.2141149938, 0.0088824071, -0.1731532514, -0.0754048824, -0.0401375405, -0.0951085985, -0.2739467621, 0.0692963824, -0.0901227817, -0.0869769529, -0.3010825813, 0.2163946480, -0.0349548310, 0.0153272338, 0.0309179593, 0.0597126223, 0.2603305876, 0.0255875438, -0.1948977858, -0.1227372140, 0.0660851970, -0.0735441297, 0.0059695290, 0.0905141830, 0.2138211876, -0.1143401414, -0.0102488007, -0.0295268856, 0.0737351626, -0.1057059169, 0.1809265316, 0.1801537275, -0.0754719228, 0.0083487015, -0.0618000254, 0.0324187838, 0.1049834490, 0.1826467961, 0.2567704916, -0.0736230612, -0.2145133317, 0.1322257370, 0.1159468368, -0.0698279515, 0.0170875136, -0.0705755875, -0.0255141947, 0.1018862352, -0.0280389320, -0.0059780553, -0.0715299621, 0.0811497644, -0.2131669819, 0.4687333107, 0.0593443252, -0.1913100928, 0.0589248650, 0.1019862369, -0.1347419918, 0.2702915967, -0.3452820778, 0.2741932571, -0.1469627023, -0.0234171469, 0.0898269936, 0.0281168371, -0.0956033319, 0.0808086321, -0.0319863223, -0.0350589715, -0.2183891982};
#endif

#endif
