//Numpy array shape [2, 32]
//Min -0.048342388123
//Max 0.083165287971
//Number of zeros 0

#ifndef VALUE_BIAS2_H_
#define VALUE_BIAS2_H_

#ifndef __SYNTHESIS__
q_multi_head_attention_45_default_t value_bias2[64];
#else
q_multi_head_attention_45_default_t value_bias2[64] = {0.0783084407, -0.0043919263, -0.0000604061, -0.0101841185, -0.0237057731, -0.0366624370, -0.0318067819, -0.0230926033, 0.0279857274, -0.0483423881, 0.0284269545, -0.0349511094, -0.0287989546, -0.0301389191, -0.0350868255, -0.0277164392, -0.0296444986, 0.0303323809, 0.0166636277, -0.0015209574, 0.0296917725, 0.0193738993, -0.0291308444, 0.0144380247, -0.0301678982, -0.0024873274, 0.0831652880, -0.0049365708, 0.0125609012, 0.0467252880, -0.0274538621, -0.0196507927, -0.0123400511, -0.0003075388, -0.0283528995, -0.0306111760, -0.0306426343, -0.0127330730, 0.0257770382, 0.0046357014, 0.0088621164, -0.0208710656, -0.0130193792, -0.0156793669, 0.0227296557, 0.0251499340, 0.0337074399, -0.0220185928, -0.0015298008, 0.0025140909, 0.0036055977, -0.0306534451, 0.0195780732, 0.0285259318, 0.0104534561, 0.0093493331, -0.0301507451, -0.0221870076, 0.0078704963, -0.0191136170, -0.0062179933, 0.0074613220, 0.0423950553, 0.0045154979};
#endif

#endif
