-0.0566803701, -0.0122248754, -0.0900167003, -0.0546232276, 0.0314426944, -0.0317909308, -0.0009455447, 0.0023000410, 0.0306714177, -0.1190970466, -0.0704378709, 0.0271751750, 0.0062971078, -0.0529798828, -0.0312146936, -0.0730343759, -0.0698596761, -0.0448510051, 0.0747316778, 0.0312254112, -0.1404208690, -0.0494806953, 0.0944270492, 0.0878150687, 0.0150738629, -0.0304779280, -0.0325660147, -0.1091189459, 0.1133562773, -0.1375705600, -0.0704327449, -0.0939737111, -0.0361661203, 0.1478291750, 0.0623314418, -0.0182420909, 0.1440785825, 0.1328691691, -0.0705378428, 0.1358759701, -0.0594227687, 0.0703489631, 0.0315798037, -0.0111882137, 0.0905769318, 0.0303003788, 0.0797353238, -0.0061224462, 0.1381573230, 0.0343684591, -0.0636501312, 0.0308820419, -0.1947075129, 0.0610409006, 0.0401122011, 0.1314953268, 0.0626172423, -0.1550079882, -0.0952977911, -0.0264330097, 0.0357411280, -0.1484194994, -0.0646245033, 0.0791944489, 0.0164190680, -0.0775014833, -0.0828557387, -0.0194956437, -0.0884037167, 0.0069147665, -0.1914445907, 0.1043565124, -0.0882774144, 0.0742851421, -0.0282838531, 0.0576063134, -0.1553763598, 0.0936383083, 0.1037119478, 0.1011693478, 0.0699495077, -0.0206491929, -0.1255517006, 0.1263637096, 0.1259638369, -0.0935509801, 0.1531967968, 0.0473736152, -0.0315748602, 0.0299815182, -0.0954852551, 0.0801878422, 0.0338909999, -0.0206559710, -0.0934857428, -0.0695114955, 0.0937252194, 0.1520658731, 0.0161562953, -0.1059775501, -0.0340519026, -0.0273798406, -0.0302262027, 0.0935266986, -0.0404358245, -0.0202973932, 0.1780450046, 0.0424415991, 0.0638366267, 0.0479365624, -0.0868866891, 0.1524156332, 0.0939667523, 0.1424585730, -0.0248232316, 0.0308856219, 0.0343575627, -0.0598554686, 0.0919347480, 0.0071617044, 0.1580035537, 0.0387621857, 0.0039730733, 0.0947363973, -0.0529848300, -0.0203554425, 0.0853323415, 0.1423052996, -0.1568464786, -0.0214284826, -0.0725126192, -0.0027964513, 0.1375000924, 0.0139206089, 0.0900483802, -0.0501245260, 0.0021428019, -0.0940386578, -0.0916154832, 0.0115332492, 0.0933612809, -0.0813866705, -0.1560806781, 0.0030366310, 0.0187938977, 0.0308998208, 0.0760194436, 0.0144158239, -0.0306327101, 0.0339799672, -0.0931682810, 0.0143425846, -0.0281618163, -0.0581408367, 0.0643102154, 0.0052434574, 0.0773570985, -0.1068162397, 0.0934495032, 0.0599472597, -0.1520766765, -0.0535102338, -0.0556860678, -0.0099807773, -0.1284694821, 0.0559309833, 0.0213621967, -0.1202983782, 0.0916559547, -0.1350860745, 0.0919128954, 0.1367956102, 0.1360682994, -0.0643047020, 0.1009550393, 0.1129334643, 0.1560252458, -0.0331907533, -0.0451026447, 0.0923558995, -0.0206846390, -0.1564723551, 0.0667826235, -0.2131966949, -0.1173561215, -0.0038525809, -0.0866069645, -0.0283592585, -0.0665297136, 0.2391745746, -0.1484405547, 0.0484048426, -0.1624636799, 0.0983738601, -0.1772807837, -0.0342186689, 0.0574115552, 0.1549629271, 0.0605690479, 0.0013967135, 0.1263308674, -0.1478486806, 0.0707948133, 0.0762403756, -0.0930951387, 0.0639385357, 0.0240529347, 0.1592212170, -0.0928566977, -0.0935163572, 0.0477075242, 0.0497591272, -0.0310881399, -0.1645004153, 0.1041497886, 0.1047087610, 0.1642797291, 0.0711360425, 0.0502432175, -0.0279017091, 0.0969786197, -0.0635521337, -0.0566909499, -0.1567850709, -0.0220615324, 0.0946672633, 0.1597582698, -0.0378469937, -0.0849540010, 0.0857915431, 0.0533228070, 0.1483198702, 0.1257160902, -0.1087049246, -0.0743523911, -0.0355615690, 0.0435085408, 0.0703945458, 0.0489011034, 0.0711075813, -0.1056373045, -0.0924449340, 0.0933210328, -0.0708706155, -0.0792737678, 0.1033572257, 0.1233723164, 0.1604829878, 0.1456371099, -0.0257044435, 0.0935427397, 0.2133787423, 0.0910888165, -0.0381316952, 0.0810281262, -0.1737728566, 0.0222993754, -0.0377838463, 0.0238218848, 0.0067956289, -0.0769473836, -0.1924294233, -0.0535123385, 0.0416202098, -0.1487463117, -0.0961716995, 0.0316016637, -0.0112100597, 0.0149887642, -0.0286729913, 0.1618843824, -0.0656564161, -0.0320180729, 0.2138742805, 0.0252742358, -0.1422020942, -0.0193727892, 0.1356068552, 0.0107899662, 0.0312471930, 0.0227490645, -0.0472279377, 0.0901733264, -0.0189194307, -0.1476623714, -0.1123379990, 0.2078631073, -0.1313669086, 0.1183938086, -0.1012056172, 0.0598970503, -0.1003305689, 0.0945317671, 0.0523886383, 0.0863685533, -0.0960001349, 0.0773013830, -0.0387869887, 0.0283311605, -0.1597661376, -0.0781109929, -0.0952186808, -0.0976476297, -0.0893132314, -0.0397288725, -0.0286402777, 0.0956957936, 0.0334510021, 0.1581555605, 0.1535572857, 0.1194477379, -0.0090445494, -0.0659943894, -0.0877596810, 0.0287980717, 0.0065452396, -0.0805900395, 0.1564736217, -0.0325129740, 0.0461970568, 0.0316293351, 0.1119837910, 0.1880581975, -0.0309706554, 0.0141253872, 0.1043994799, 0.0320911072, -0.0319356509, 0.0319578163, 0.1243329272, -0.0165171139, 0.1118453741, 0.1309582293, 0.0918315947, 0.0206688307, -0.0606006533, 0.0302339401, -0.0981096029, -0.0290937349, -0.0311284848, -0.1293832213, 0.0152885113, 0.0589168146, -0.0325132795, 0.1215471402, 0.0712904930, -0.0445520431, 0.0992288142, 0.0530098751, 0.0431775935, -0.0500073172, 0.0308346972, -0.0069298577, 0.1527515501, 0.0113843298, 0.0946678370, 0.0926624164, -0.0933360085, -0.0868442804, -0.0016719570, 0.1064525545, -0.0658550411, 0.1071636453, -0.1475440264, -0.1179638207, 0.0306556728, -0.0307753310, -0.0167518836, 0.0887034312, 0.0540162101, 0.1308953911, -0.1140995920, -0.0231261086, 0.1333093047, 0.0157543570, -0.0357571319, -0.0325959995, 0.0917026475, 0.0018547706, -0.1461504549, -0.0828744471, -0.1422695816, -0.1397088170, 0.0381386802