-0.22481, 0.06113, -0.17253, -0.04756, -0.27135, 0.15709, -0.00710, 0.05471, -0.04533, -0.19653, -0.23164, 0.01962, 0.13561, -0.10308, -0.21479, 0.11332, 0.21320, 0.04631, 0.01540, -0.16694, -0.02019, -0.26265, 0.08368, -0.25757, 0.19277, -0.16413, -0.18342, 0.32172, -0.21265, 0.22507, 0.35116, 0.07092, -0.42118, 0.50450, -0.13241, 0.02411, 0.50685, -0.02538, 0.38208, -0.18019, -0.31341, 0.03826, 0.03856, -0.19732, -0.30115, 0.51043, 0.22376, -0.24278, -0.04217, 0.15429, -0.12532, -0.36723, -0.15341, 0.03745, 0.39460, -0.25448, -0.28902, -0.05274, 0.06656, -0.05487, 0.27825, -0.27705, -0.20671, -0.34556, -0.10531, -0.10189, 0.12181, 0.01160, 0.23804, 0.00403, -0.06250, 0.07181, 0.15887, 0.00196, -0.27310, 0.01307, -0.11326, 0.07420, -0.16948, 0.02034, 0.38786, -0.17669, -0.10845, 0.04125, -0.07147, 0.10438, 0.05004, 0.13122, 0.29041, -0.07931, 0.13001, -0.38115, -0.05159, 0.02841, 0.25880, 0.23671, 0.15773, -0.38122, 0.30776, 0.13063, -0.36902, 0.07291, -0.08119, -0.21974, 0.32937, 0.06986, 0.17636, 0.04620, -0.23477, -0.00035, -0.27143, 0.26760, -0.33385, -0.19957, 0.29072, 0.00335, 0.04134, 0.25806, -0.13224, -0.26077, -0.01947, 0.24439, -0.39409, -0.08025, -0.04336, 0.27153, 0.26145, 0.33540, 0.37507, -0.07171, 0.08287, 0.07791, 0.21749, 0.01634, 0.33543, 0.21454, -0.33553, 0.29787, 0.08355, -0.17185, -0.00867, 0.29067, -0.02816, 0.17949, 0.15773, 0.30696, -0.38106, 0.01545, 0.01018, -0.31928, -0.21382, 0.03153, 0.10684, -0.23155, 0.13280, -0.07803, -0.03282, -0.33044, -0.38389, 0.06327, 0.09182, -0.08451, -0.02676, 0.24035, 0.10976, -0.20160, 0.16064, -0.15720, 0.03047, 0.12502, 0.13901, -0.24957, 0.19893, -0.05514, -0.06059, 0.20910, -0.25967, 0.17323, 0.05472, 0.07661, -0.12608, 0.00308, -0.24802, -0.09895, 0.24811, -0.00077, 0.11925, -0.05805, -0.15003, 0.27473, -0.12256, -0.27531, -0.20262, -0.25589, 0.12174, 0.01270, 0.21687, 0.11795, -0.17453, -0.18234, 0.27920, 0.06691, -0.39295, 0.29159, 0.03795, 0.10434, -0.12492, -0.14086, -0.22069, -0.26827, 0.31305, 0.25372, 0.21263, 0.27718, 0.01831, 0.34091, 0.10550, -0.00389, -0.11591, -0.17743, 0.17748, 0.05075, 0.24410, 0.24816, -0.16402, -0.02420, 0.18425, -0.02438, 0.12565, 0.10978, -0.08273, -0.17902, -0.03908, 0.15408, -0.23193, 0.31349, -0.13596, -0.19122, 0.14089, 0.15198, -0.31661, -0.31551, 0.04377, 0.21925, 0.24738, 0.28733, 0.25553, 0.18401, -0.06206, 0.20111, 0.02762, -0.08553, -0.01972, 0.16136, 0.29255, 0.28219