//Numpy array shape [2, 4, 32]
//Min -0.601481497288
//Max 0.608637332916
//Number of zeros 0

#ifndef KEY_WEIGHT14_H_
#define KEY_WEIGHT14_H_

#ifndef __SYNTHESIS__
q_multi_head_attention_1_default_t key_weight14[256];
#else
q_multi_head_attention_1_default_t key_weight14[256] = {0.23624, -0.04315, -0.28749, -0.19241, -0.14544, -0.29427, 0.04395, -0.14128, 0.19567, -0.16663, 0.05886, 0.25787, -0.08488, -0.04192, 0.15339, 0.28379, 0.29979, -0.11682, 0.20245, 0.24166, 0.02370, -0.02508, -0.13253, 0.13292, -0.12110, -0.23714, 0.24200, 0.24378, -0.27112, -0.11488, -0.22454, -0.00365, -0.03669, -0.03863, 0.19781, 0.02411, -0.12453, 0.00386, 0.12812, -0.06968, -0.18318, 0.05790, -0.10016, -0.32851, -0.24335, -0.20529, 0.21221, -0.20909, 0.20675, -0.20641, -0.26660, 0.26323, 0.03070, 0.09614, 0.04346, -0.00119, 0.21491, 0.00502, 0.27713, -0.11446, 0.14123, 0.18578, -0.06509, 0.19419, -0.26951, 0.26834, 0.17733, -0.33557, -0.09531, 0.03675, 0.29615, 0.32664, 0.17403, 0.29955, 0.26439, 0.25826, 0.22994, -0.08089, 0.25032, -0.10416, 0.19311, 0.35558, -0.33780, 0.02234, -0.25517, -0.27683, -0.19551, 0.11878, 0.07595, 0.16486, 0.03982, 0.13306, 0.06299, -0.29468, -0.09529, -0.26810, 0.00760, -0.29331, -0.32580, 0.51167, 0.60864, 0.29293, -0.31264, 0.13917, -0.60148, -0.30242, -0.49417, 0.00887, -0.25386, 0.13385, -0.38398, -0.29144, -0.21247, -0.37023, 0.37197, -0.20861, 0.08379, 0.47142, 0.33064, -0.03300, -0.41622, 0.01239, -0.21265, -0.24218, -0.01702, 0.51492, 0.44384, 0.02817, -0.16815, 0.16219, 0.09252, 0.09684, -0.05721, 0.19850, -0.22785, -0.11610, 0.13208, -0.08931, -0.17671, 0.17232, -0.22721, -0.12767, -0.08927, 0.15053, 0.03001, 0.22575, 0.24372, -0.17290, -0.10011, 0.04269, 0.18509, 0.22121, -0.02140, 0.25682, -0.06365, -0.05198, -0.19505, 0.05178, 0.12045, 0.15412, 0.00199, -0.20056, 0.16669, -0.05441, 0.21207, -0.22046, 0.13297, -0.03291, -0.11624, 0.05479, 0.00755, -0.07886, 0.01828, -0.15212, -0.19296, -0.04241, -0.13453, 0.16225, 0.24190, 0.19267, 0.19989, -0.06269, -0.21734, -0.02211, 0.01506, -0.11573, -0.36382, 0.13769, -0.11424, -0.19798, 0.26795, -0.16131, -0.03796, 0.16991, 0.14442, -0.14256, -0.20644, 0.01535, 0.25259, -0.05064, 0.18408, 0.20384, -0.03350, 0.14512, 0.06746, -0.13283, 0.00734, -0.08095, 0.07647, 0.25501, 0.22872, 0.04749, -0.22432, -0.25191, 0.15872, -0.14481, -0.15186, -0.29212, 0.04513, 0.22249, 0.07444, -0.16245, -0.11169, -0.07870, -0.45586, 0.23862, -0.31880, -0.15657, 0.03900, 0.26106, -0.36476, 0.30198, 0.30241, -0.12938, 0.06892, -0.15072, -0.16218, -0.40169, -0.04136, 0.27197, -0.33353, -0.48948, -0.43500, 0.21270, 0.15583, -0.00606, -0.14616, -0.13107, 0.26667, 0.39943, 0.08854, -0.00268, 0.33568, 0.41768, -0.00792, -0.13900};
#endif

#endif
