0.18520, -0.02548, -0.04678, 0.36010, -0.40903, -0.19640, 0.18559, 0.02893, -0.36585, -0.30063, -0.19018, -0.26429, -0.25147, -0.16463, 0.28692, 0.00085, -0.10205, -0.17416, -0.26829, -0.29723, 0.36446, 0.12451, -0.20669, 0.18015, 0.03441, 0.06324, 0.24584, 0.23234, 0.34782, 0.01959, 0.30069, -0.20168, -0.34478, -0.16421, 0.37452, 0.05954, 0.35284, 0.26468, 0.07693, 0.35223, 0.02955, -0.27466, -0.10353, 0.14428, -0.38250, 0.21892, 0.10016, 0.25624, 0.26772, -0.33023, -0.26820, 0.15745, 0.31204, 0.07630, -0.07599, -0.31478, -0.44309, -0.24329, 0.06243, 0.17965, -0.45936, 0.19279, -0.11767, 0.15709, 0.19129, 0.28790, -0.05928, -0.16351, -0.33885, -0.30963, 0.10686, 0.16539, 0.00226, 0.32104, 0.33578, -0.11788, -0.06464, 0.00019, 0.07562, -0.36987, 0.15845, 0.13117, -0.27713, 0.12654, 0.14964, -0.10021, 0.05756, 0.22222, 0.49964, -0.25102, -0.42634, -0.12486, -0.25587, 0.21660, 0.38679, -0.33799, 0.62175, -0.20569, -0.05459, 0.17052, 0.06188, -0.15128, 0.31283, -0.03883, 0.35072, 0.02792, 0.21823, 0.18422, -0.25886, 0.42162, 0.24988, 0.15954, 0.15617, 0.12322, -0.17399, -0.01345, 0.35635, -0.23000, -0.20914, -0.27927, -0.28178, 0.27684, 0.37859, -0.06245, 0.15872, -0.31891, 0.00184, -0.16286, -0.05601, 0.35078, 0.41517, 0.22696, 0.13961, 0.35073, -0.06756, -0.18632, 0.22129, -0.17180, -0.28767, -0.28338, -0.09366, 0.18418, -0.04700, -0.10017, 0.27478, 0.25374, 0.15059, 0.28043, -0.21587, 0.10805, 0.33567, 0.08217, 0.33865, -0.16951, -0.01312, 0.12242, 0.04529, 0.11772, 0.11312, 0.24832, 0.10511, -0.11172, 0.31924, 0.16026, -0.37600, 0.16796, 0.12770, -0.08344, -0.02133, 0.05196, -0.22286, 0.14958, -0.02841, -0.08373, -0.15343, -0.33567, -0.29679, 0.16192, -0.24888, -0.05096, 0.31101, 0.08017, -0.05518, -0.08832, -0.47993, 0.32112, 0.07818, -0.15884, -0.14241, 0.11985, -0.14231, 0.27964, -0.36489, 0.20858, 0.38502, -0.27235, 0.05989, 0.37479, -0.10528, 0.10103, -0.42765, 0.11080, 0.17703, -0.32295, -0.08602, 0.32231, 0.23719, 0.25767, 0.03081, -0.19434, 0.00479, -0.01402, 0.23988, -0.13651, 0.14321, -0.18709, 0.36547, -0.11899, 0.15019, 0.32118, -0.03450, -0.22259, -0.24396, 0.30787, -0.19204, 0.21941, -0.07050, 0.08762, -0.03482, 0.18235, -0.32226, -0.17424, 0.23607, -0.26833, -0.33191, 0.35614, -0.13612, -0.22869, -0.05840, 0.34138, -0.06716, 0.11122, 0.06169, -0.22636, -0.17317, 0.28846, -0.03718, -0.01899, 0.05020, 0.11608, 0.11200, 0.34848, 0.18683, -0.20335, -0.11768, 0.14055