-0.31365, 0.31237, -0.20827, -0.12048, 1.08219, 0.10768, 0.20346, 0.12204, -0.45529, 0.13207, 0.19558, -0.13079, -0.14827, 0.49038, 0.29380, -0.41385, 0.04923, -0.04932, -0.31715, -0.25440, -0.08215, -0.05906, 0.38686, 0.07913, -0.13044, -0.10095, 0.12682, -0.26588, 0.24092, -0.44313, -0.09019, -0.31068, -0.13462, -0.05104, -0.11648, 0.15343, 0.12645, 0.05429, 0.22054, 0.15771, 0.00443, -0.26488, -0.19180, 0.04763, 0.19793, 0.07459, -0.14407, -0.22808, -0.02088, 0.23486, 0.06645, 0.12051, 0.13944, -0.31738, -0.04898, -0.25606, 0.18825, -0.17383, 0.09170, -0.13345, 0.25544, -0.05179, 0.19181, -0.11421, 0.06503, -0.20379, 0.24335, -0.03211, -1.03111, 0.18690, -0.20891, -0.07454, 0.14626, 0.02468, 0.31799, 0.24781, -0.26491, -0.13353, -0.30845, 0.29945, -0.32766, -0.10480, 0.23660, 0.28446, 0.18323, -0.11224, -0.05189, -0.28043, 0.06140, 0.11893, -0.30072, 0.48632, 0.11320, 0.35861, 0.16850, 0.21402, 0.27977, -0.36000, 0.01095, -0.10519, -0.93191, 0.09442, -0.23636, 0.25636, 0.35310, -0.16889, 0.13416, 0.18504, 0.21339, -0.30568, -0.19029, 0.43506, -0.05499, -0.36254, 0.14935, 0.20227, -0.08063, 0.25294, -0.25149, 0.02742, 0.32160, 0.04041, -0.29543, 0.10924, -0.13013, 0.50597, 0.31732, 0.17981, -0.46930, -0.10429, -0.06304, -0.29339, -0.14631, 0.15254, -0.23729, 0.04080, 0.78707, -0.24316, -0.35701, 0.53604, 0.03330, -0.12177, 0.15360, 0.08861, -0.01790, -0.42294, 0.58620, 0.33545, 0.05760, 0.20846, 0.24987, 0.35907, -0.09980, 0.14655, -0.04288, -0.15830, 0.12693, 0.27426, 0.44039, 0.07190, 0.08878, 0.24792, -0.01701, -0.03605, -0.22753, 0.30953, -0.06607, -0.11279, -0.20475, 0.03103, -0.26900, 0.17730, -0.13851, 0.13435, -0.26165, -0.18235, -0.25233, -0.12158, 0.13859, 0.10608, 0.11528, 0.19378, 0.11341, 0.10164, -0.25844, 0.15304, 0.14546, 0.23737, -0.11941, -0.00603, 0.23927, -0.04341, 0.29789, -0.02784, -0.23184, -0.02003, -0.09955, -0.15046, 0.29425, 0.26507, -0.33122, 0.22956, -0.08285, -0.15175, -0.03484, -0.12055, -0.10334, -0.18650, 0.22812, 0.37383, -0.54318, -0.25664, -0.07086, 0.05682, -0.06261, -0.21197, -0.10457, -0.18830, 0.06745, -0.29695, -0.17254, -0.26364, -0.18279, -0.11667, 0.31739, 0.27923, -0.05075, -0.09656, -0.12298, 0.04226, 0.16070, 0.23141, -0.84634, -0.03842, 0.48919, -0.00319, -0.11691, 0.22833, -0.05447, 0.22143, 0.23799, 0.47352, -0.73664, -0.12515, -0.12102, -0.33863, -0.17393, -0.27777, 0.12622, 0.13760, 0.14323, 0.09105, 0.07715, 0.21384, -0.05466, -0.37059