//Numpy array shape [2, 4, 32]
//Min -0.421989947557
//Max 0.416668504477
//Number of zeros 0

#ifndef VALUE_WEIGHT14_H_
#define VALUE_WEIGHT14_H_

#ifndef __SYNTHESIS__
q_multi_head_attention_1_default_t value_weight14[256];
#else
q_multi_head_attention_1_default_t value_weight14[256] = {0.16069, -0.02985, 0.11042, 0.00316, 0.20255, -0.20396, 0.09691, -0.03172, -0.05822, -0.20717, -0.06042, 0.27721, 0.04664, -0.27516, 0.04442, 0.02508, 0.12708, -0.14455, -0.12852, -0.17217, -0.13450, -0.11684, -0.19265, 0.15760, -0.09689, -0.16357, -0.13613, -0.18547, 0.13822, 0.11872, 0.08748, 0.08661, 0.22526, -0.34507, -0.19980, -0.19474, 0.19623, -0.10587, 0.04121, -0.04017, -0.05365, 0.23041, 0.22706, -0.07087, 0.00825, 0.19634, 0.04930, -0.17349, 0.28629, -0.21152, 0.04160, -0.24506, 0.05497, 0.18271, 0.02378, -0.03456, 0.21653, 0.13921, -0.06388, -0.09272, 0.11041, -0.09604, 0.09690, -0.00557, -0.42199, 0.20676, 0.25129, 0.33100, 0.19431, -0.29860, -0.14291, 0.15433, 0.32693, -0.31928, -0.12418, -0.01463, -0.00603, 0.06221, 0.06838, -0.09810, 0.09060, -0.21241, 0.40270, -0.03237, -0.16662, 0.10108, -0.38906, 0.23147, -0.36573, 0.07341, -0.15233, 0.35338, -0.25258, -0.31901, 0.41667, 0.17618, -0.05805, -0.13720, 0.06849, -0.31381, 0.18403, 0.18180, -0.03816, 0.25174, -0.24177, 0.10696, 0.14629, -0.14723, 0.20272, 0.01003, -0.22145, -0.24047, 0.06793, -0.16949, 0.09754, 0.01071, 0.06302, 0.17441, 0.23019, -0.22043, 0.21249, -0.03392, 0.18121, -0.04731, 0.22362, 0.37333, -0.06921, 0.15869, 0.15515, 0.06170, -0.06801, -0.19600, 0.03660, 0.06117, -0.20698, -0.15649, 0.23579, 0.26805, 0.01835, 0.02544, 0.13699, -0.14903, 0.18342, 0.22566, -0.21766, -0.29695, -0.22317, 0.15192, 0.23727, 0.08682, 0.04838, -0.13351, 0.19212, -0.20314, -0.09621, 0.15435, -0.03827, -0.16464, 0.02153, 0.13484, -0.18528, 0.23748, 0.11353, -0.19298, -0.15445, -0.26521, 0.15663, -0.10215, 0.11389, -0.09717, 0.19615, -0.19845, -0.07289, 0.08420, -0.16884, 0.20859, -0.18129, 0.13441, -0.28554, 0.20947, 0.05650, 0.20962, 0.12529, -0.05020, 0.22787, 0.24137, 0.19078, -0.13434, 0.06148, -0.12709, 0.21641, -0.19331, 0.09911, -0.00228, 0.00666, -0.11202, -0.29403, 0.31436, -0.21976, 0.12724, -0.10567, 0.01398, -0.25987, 0.03921, -0.17653, -0.12540, 0.19422, -0.03358, 0.22787, 0.21854, 0.29875, -0.02446, -0.04309, 0.00170, -0.23166, -0.23236, 0.13531, 0.13927, -0.12888, -0.24722, -0.17058, 0.07332, 0.04689, -0.30793, -0.31258, -0.18560, -0.02925, 0.15297, 0.11656, -0.09027, -0.07445, 0.12818, 0.05468, -0.19924, 0.08495, -0.11238, -0.08725, -0.07187, -0.26155, -0.23381, 0.04257, -0.05272, 0.04931, 0.14979, -0.03427, -0.20268, 0.04341, 0.20473, -0.27536, -0.11873, 0.25700, -0.05445, -0.02090, 0.03224, -0.13208, -0.06976};
#endif

#endif
