0.20781698823, 0.25536969304, -0.12527817488, 0.10945910960, -0.07965949923, -0.23542886972, 0.10908717662, 0.05302298814, 0.16597670317, -0.13133627176, 0.00165073306, -0.23763599992, 0.03091474064, 0.22777937353, 0.15755303204, -0.21697254479, 0.26146802306, 0.19623681903, -0.23790790141, -0.01704047620, -0.09151884168, 0.05829416215, -0.15044923127, -0.13083954155, 0.14089280367, -0.01571297832, -0.17031633854, -0.18626217544, 0.26357910037, 0.20381842554, -0.15619003773, 0.24649359286, -0.05077761784, -0.22242960334, 0.07489529997, 0.09626661986, 0.13807594776, 0.23590159416, -0.04824457690, 0.00984653551, 0.17438018322, 0.17772260308, 0.18085156381, -0.15008158982, 0.20394106209, 0.19138953090, 0.18586096168, -0.12347004563, -0.14515280724, -0.10698051751, -0.22859950364, 0.13732850552, 0.23668432236, 0.02360725403, -0.00796996523, -0.04680461809, 0.09668816626, 0.07337649167, -0.10907094181, -0.26079162955, 0.16654767096, 0.05604694411, 0.11232545972, 0.11511774361, 0.09071170539, 0.12032663077, -0.03019870818, 0.01190021727, 0.16321843863, -0.00646298053, 0.13721495867, 0.20422406495, -0.04457201436, 0.20883858204, 0.10693699121, 0.20102377236, -0.01726961695, -0.04498751834, -0.33100637794, 0.16933450103, 0.05293687433, -0.16685317457, 0.19510622323, 0.08148755878, -0.06148522720, -0.13305439055, 0.17060801387, 0.03663729504, -0.17614209652, -0.10793094337, 0.31080296636, -0.11466485262, -0.15025079250, -0.01339681912, 0.25273644924, -0.16622495651, -0.22515854239, 0.11521449685, -0.10281509906, -0.08239427209, -0.26470538974, 0.02684980072, 0.15716461837, -0.10688776523, -0.21006342769, 0.21201956272, -0.00358745013, 0.11917486042, -0.08493357897, 0.07871419936, -0.07928448170, 0.05857156962, -0.05211367458, 0.13768410683, -0.22390478849, -0.20466017723, 0.03724111989, -0.01132356934, 0.02729385905, 0.16361725330, -0.08173904568, -0.20118646324, 0.00946782622, 0.16683140397, 0.15111166239, 0.11085855216, -0.00040686346, -0.00375569589, -0.09131877869, 0.13309127092, -0.24016563594, -0.20299080014, 0.15198364854, 0.06561266631, -0.17684884369, 0.19381663203, -0.15868623555, -0.25695693493, 0.22046718001, -0.21541912854, 0.11875273287, 0.08278201520, -0.12959563732, 0.26234105229, -0.20698568225, 0.02371019870, 0.17110314965, 0.04284160212, -0.10335198045, 0.22476139665, 0.31263309717, -0.11046350747, 0.10195399821, -0.06457792968, 0.25167468190, 0.12110353261, 0.05886762589, -0.16812331975, 0.20817805827, 0.22398078442, -0.26023623347, 0.00024882876, 0.06359246373, -0.18792541325, 0.24457901716, -0.01064273342, 0.16613945365, 0.21370221674, 0.05643529072, 0.14382545650, 0.17268767953, -0.13216578960, 0.22980205715, -0.09553416818, -0.10775267333, -0.02407374978, 0.09723979980, 0.12851333618, -0.26932650805, 0.07449415326, -0.28035113215, 0.19108188152, -0.09666049480, 0.20845848322, 0.09988922626, 0.02802597731, -0.18558335304, -0.13192507625, 0.08758302778, 0.17525607347, -0.28353396058, -0.09604960680, 0.11606826633, 0.13108332455, 0.16452376544, 0.11142578721, 0.14664050937, 0.01957499050, -0.13359816372, 0.12071463466, 0.22217218578, -0.04861320928, 0.16877941787, -0.15980890393, -0.10668662190, -0.10714527220, 0.01755489036, -0.05369574204, 0.10197272897, -0.03299614042, 0.25166833401, 0.23238319159, 0.08387447149, 0.03041380644, -0.18128760159, 0.24199986458, 0.07090126723, 0.17986938357, 0.12495355308, -0.02890598960, 0.18308317661, -0.13250941038, -0.17486491799, -0.21950785816, 0.09652231634, -0.03052620403, 0.21438264847, -0.33092299104, -0.10844951123, 0.27559867501, -0.14463362098, -0.08827287704, 0.05881198496, -0.01240990683, -0.14134499431, -0.01088709198, 0.10245592892, 0.22197368741, -0.08606927842, -0.14965203404, 0.20438772440, -0.12692587078, -0.17550386488, 0.18278129399, 0.19419522583, 0.11756902188, 0.02761657536, -0.17130716145, -0.21426150203, -0.06202692538, -0.13415135443, -0.13491240144, 0.15096066892, 0.29132986069, -0.21287333965, 0.19970612228, 0.09513136744, -0.13164991140, -0.22881461680, 0.15816818178, 0.00401542475, 0.16524416208, 0.10732412338, 0.09862939268, 0.03611051664, -0.08478557318, 0.03701343760, -0.10831001401, -0.10933600366, -0.23727472126, 0.18864667416, 0.11697828025, -0.09183090925, 0.12798821926, 0.16343085468, 0.10283869505, -0.16722725332, 0.03303287551, -0.06039397791, -0.22402989864, 0.34731817245, -0.09727671742, -0.16771402955, -0.00322998851, 0.10141060501, -0.01990659162, 0.20173069835, -0.24424688518, -0.02272557653, 0.00383141846, 0.07807229459, 0.02338708937, -0.19020357728, 0.14921928942, 0.31044220924, 0.08064649254, -0.00249271630, -0.05862351134, 0.04962894693, -0.29508322477, 0.00834048633, 0.05212939158, 0.02882003784, -0.09448101372, -0.07584773749, -0.12200716883, 0.21850779653, -0.07100618631, 0.02585717849, 0.03280855343, -0.01268185955, -0.01933812909, 0.00475651631, -0.11920723319, -0.04105818644, 0.06896051019, -0.12027295679, -0.05214259401, -0.04395455122, -0.19640633464, 0.08006571233, 0.22061450779, -0.11278866976, -0.26499429345, 0.00880778022, -0.01259162836, -0.16301278770, 0.02965214476, -0.16716781259, 0.15206968784, 0.10385737568, 0.06250388920, 0.01749736257, 0.11402137578, 0.25077247620, 0.14345142245, 0.11460746825, 0.02201811038, 0.26671189070, 0.24880839884, 0.16554725170, 0.07371505350, 0.14389513433, 0.01565705612, 0.04453653842, -0.07944944501, -0.15851558745, 0.18496915698, -0.08363769203, 0.32290729880, 0.13365462422, -0.17554180324, -0.09502773732, -0.25774642825, -0.05806367099, 0.13532853127, 0.21404196322, 0.00277773594, 0.20440606773, 0.25536823273, 0.06430364400, 0.12612307072, 0.16370217502, 0.04984701425, 0.03016457707, -0.18535333872, -0.08577838540, -0.01730208471, -0.09962949902, 0.15336878598, 0.08756337315, 0.14222976565, 0.11689302325, -0.00456454279, -0.08941255510, -0.00545612117, -0.22626745701, -0.26889330149, -0.16412039101, 0.04885160550, 0.11569589376, -0.08837535977, -0.27732381225, -0.05048541352