-0.04719055071, -0.02572874352, 0.13086873293, 0.02216919884, 0.04768169671, -0.13459305465, -0.01017301437, -0.12494542450, 0.12075695395, 0.13134495914, -0.09495604783, 0.20742423832, -0.20818567276, 0.04807323962, 0.10024040937, 0.02176957764, -0.10502784699, -0.09658044577, 0.07658759505, 0.11092067510, -0.10059079528, 0.00358400261, 0.10826724023, 0.01941301674, -0.11904138327, -0.12858010828, 0.05528022349, -0.01207120810, 0.14175502956, 0.07292816788, 0.10777655244, 0.03722637147, 0.19354984164, 0.18242855370, 0.16049072146, -0.10460134596, -0.27291393280, 0.03600770980, 0.00658834400, 0.16800798476, 0.07254166901, 0.00045446833, -0.14533104002, 0.04904973879, 0.13231222332, 0.18062150478, -0.05807107314, 0.18646013737, -0.14046655595, -0.06302926689, 0.01538678352, 0.08629720658, -0.11234206706, -0.42680490017, 0.18114580214, -0.27051693201, 0.06568372995, -0.05922894925, -0.03588771448, 0.02967587672, 0.16541390121, -0.18562977016, 0.07959139347, -0.05206460878, 0.07549360394, 0.09538962692, 0.15307323635, -0.02430889383, 0.05799183249, 0.05069491640, 0.15365152061, 0.05275819451, -0.06263588369, 0.15758778155, 0.11098343134, 0.13505241275, -0.17591948807, 0.16967646778, 0.19246526062, -0.01125305053, 0.20230655372, -0.05319038033, -0.32629314065, 0.15711492300, 0.27400204539, -0.32282802463, 0.21172657609, -0.23532535136, 0.04290880263, 0.16247050464, 0.35847511888, 0.27417388558, -0.24418528378, 0.21307821572, -0.03101873398, 0.03259970993, 0.07434823364, -0.03795317933, 0.06906963885, 0.14573165774, 0.08297240734, 0.02967417054, 0.02126460150, 0.16647170484, -0.06287713349, 0.12656337023, 0.11633993685, 0.25853553414, 0.05711198598, 0.11042864621, -0.06747211516, 0.00918626133, -0.18030261993, -0.03728202358, -0.26202559471, 0.19785848260, -0.07539103180, -0.01173381507, 0.27351093292, 0.15989281237, 0.12200734019, -0.00991068222, -0.03265208751, 0.00631290674, 0.17426846921, -0.22168552876, -0.01512343250, 0.09247211367, -0.26371467113, 0.39795088768, -0.09476418793, 0.50165319443, -0.34206143022, -0.11124207824, -0.31211018562, 0.54701220989, 0.17625808716, 0.72294324636, 0.07566744089, -0.19510230422, -0.00882434100, 0.42333146930, 0.39359480143, -0.40041574836, 0.06572495401, 0.16068457067, -0.13747116923, 0.71962088346, 0.07828774303, -0.22684369981, -0.67475473881, -0.69360554218, -0.57584351301, 0.25943845510, 0.37820720673, 0.31118211150, -0.04128205404, 0.04158598930, 0.50312823057, 0.23808476329, 0.10537806898, 0.26721605659, 0.29012182355, -0.37973913550, 0.17255006731, 0.12466514856, 0.19295123219, -0.10106429458, 0.07725647092, 0.50773233175, -0.02282034047, 0.11386540532, -0.20518347621, -0.06096186861, -0.19448330998, 0.23158064485, 0.10700815916, 0.12449318916, 0.15447027981, 0.06813204288, 0.03825793788, -0.01463812869, 0.49315917492, -0.45579087734, 0.27543288469, 0.17234948277, 0.16172122955, 0.16543942690, 0.04393241554, 0.18645741045, -0.03667770326, -0.16269358993, 0.05232645199, 0.00600519124, -0.14163780212, -0.00452345470, 0.00715358555, 0.10321688652, 0.07926619053, 0.06613526493, 0.07541406900, 0.03351577744, -0.07598528266, 0.10269306600, 0.11205928028, 0.06784048676, 0.01418878604, -0.02554368973, 0.14622792602, -0.02865730412, 0.14080269635, -0.12225250900, -0.10681488365, -0.08089836687, 0.05620232224, -0.16350638866, -0.10855302215, -0.15503716469, -0.05379529670, 0.01197533496, 0.11989616603, 0.19349341094, -0.05352000892, 0.20753662288, -0.19555377960, 0.16278575361, 0.35804396868, -0.07329829782, -0.21096976101, -0.19588609040, 0.01099364180, -0.14175902307, 0.03803241253, 0.24512703717, -0.20080988109, -0.20408841968, 0.33475723863, -0.20260353386, -0.23125588894, -0.00057835609, -0.06255178899, 0.13371314108, 0.23553268611, -0.16636972129, -0.28659662604, 0.21971474588, 0.28479981422, -0.05153004825, -0.20501297712, -0.01133338921, -0.27449893951, 0.05566581339, 0.01568332314, -0.19644466043, -0.23415210843, -0.02732820250, -0.31258612871, -0.10938179493, 0.00334526296, 0.26695343852, 0.16215175390, -0.01654976979, -0.03313644975, 0.06186974794, 0.05344161391, -0.34416824579, 0.05848585442, 0.14484339952, 0.10743432492, -0.24446061254, -0.22346380353, 0.16608394682, -0.20731328428, 0.12497847527, -0.35562962294, -0.07650312781, 0.08971960098, 0.13057251275, 0.08489804715, 0.29075282812, -0.22977140546, 0.37489038706, -0.17923955619, -0.03497835621, -0.28560042381, -0.26435971260, -0.02227925137, 0.07790794969, 0.17269214988, -0.02736117505, -0.05545691028, -0.09386074543, -0.13465142250, -0.18920876086, 0.03678795323, -0.08015346527, 0.07392170280, 0.00131314679, 0.28768491745, -0.19309002161, -0.20355448127, 0.12458554655, 0.05924389139, 0.12839697301, 0.02695372887, 0.03150707856, 0.03489696980, -0.13043984771, 0.03470279649, -0.12131376565, -0.05533576757, 0.03811211884, -0.03479646519, 0.07218896598, 0.00656813662, 0.09802369773, 0.11711265147, -0.19820982218, 0.15978129208, -0.05002978072, -0.10749486089, -0.10407348722, -0.43155139685, -0.20916391909, 0.40907394886, -0.22568581998, -0.02006444335, 0.03502861038, -0.21354457736, -0.29658412933, 0.02561495826, 0.46696835756, 0.26993203163, -0.59556382895, -0.03708716482, -0.11515966803, -0.04964141920, -0.00625249092, -0.06328900158, 0.36264821887, 0.60330474377, 0.60205167532, 0.19344833493, 0.19405354559, 0.15601657331, 0.38320288062, -0.35040411353, 0.27014121413, -0.36962214112, -0.55185091496, 0.51193648577, 0.18942855299, 0.11596949399, 0.20473688841, -0.40397953987, -0.18017566204, -0.26433074474, 0.32855147123, -0.13642933965, 0.03367149085, -0.03858505189, 0.40660780668, -0.32334473729, 0.06786471605, -0.32579299808, 0.06679826975, 0.12141439319, -0.17305582762, -0.09630811214, 0.15775170922, -0.00992920436, 0.04885502905, 0.07123968005, -0.03170344234, -0.13372270763, 0.00084147381, 0.06939151883, 0.04797974601, -0.14719223976, -0.00168171595, 0.10742000490, -0.05944561958, -0.09121331573, 0.06157487631