//Numpy array shape [2, 32]
//Min -0.759408593178
//Max 0.993354797363
//Number of zeros 0

#ifndef QUERY_BIAS9_H_
#define QUERY_BIAS9_H_

#ifndef __SYNTHESIS__
multi_head_attention_3_default_t query_bias9[64];
#else
multi_head_attention_3_default_t query_bias9[64] = {-0.21387697756, 0.10664972663, 0.21664796770, 0.19925789535, -0.01847046055, 0.16383881867, -0.25877398252, -0.27034145594, -0.00362814986, -0.00998425018, -0.11896661669, 0.51344543695, -0.39106294513, -0.39562755823, -0.55124664307, -0.14438675344, 0.02761641890, -0.26384055614, -0.27592194080, -0.02703357860, 0.36595803499, -0.14175902307, 0.16065262258, 0.03719638288, 0.07864981145, -0.41741570830, 0.45568823814, 0.42635816336, 0.26022672653, -0.22743597627, -0.04212965071, -0.24891522527, -0.26882869005, -0.35135027766, 0.12026889622, -0.02382570691, -0.40918913484, 0.27426147461, -0.29306030273, 0.62535035610, 0.44025066495, -0.75940859318, 0.19386580586, -0.32749140263, 0.70710289478, 0.21540988982, 0.99335479736, -0.45908379555, -0.42334735394, -0.15308064222, 0.05135976896, 0.60820740461, 0.08230384439, 0.51820027828, 0.14331474900, -0.21047642827, 0.05415884405, -0.42503103614, 0.27785658836, 0.18463030457, 0.39033132792, -0.13389617205, 0.16955222189, -0.54598730803};
#endif

#endif
