//Numpy array shape [2, 6, 32]
//Min -0.463728338480
//Max 0.501122176647
//Number of zeros 0

#ifndef QUERY_WEIGHT16_H_
#define QUERY_WEIGHT16_H_

#ifndef __SYNTHESIS__
multi_head_attention_4_default_t query_weight16[384];
#else
multi_head_attention_4_default_t query_weight16[384] = {-0.05058171228, -0.15967456996, 0.09985613823, 0.03215191513, -0.10510479659, -0.12044168264, -0.05137614161, -0.02571764402, -0.09245039523, 0.11075561494, -0.13396923244, 0.04379149899, -0.17436884344, -0.15050746500, 0.12952888012, -0.15978802741, -0.00094178726, -0.07394878566, -0.14312657714, -0.15179665387, -0.01942040026, -0.10892147571, -0.20781439543, 0.16025610268, 0.01259952784, 0.13182714581, -0.02845070511, 0.03970157355, -0.06024983525, -0.08132286370, -0.08719666302, -0.18586502969, 0.01060118061, 0.00952715427, -0.15965269506, -0.06280835718, 0.24513241649, -0.07731141150, 0.20957534015, 0.12675191462, 0.12669952214, -0.09328474104, -0.09188449383, 0.03272821382, 0.03518474847, -0.10506961495, 0.06793382019, -0.03276401013, -0.12850362062, -0.08869822323, 0.13810051978, -0.07096402347, -0.06675112247, -0.08155085146, 0.01695627533, -0.01441777684, -0.05178046599, 0.06870525330, 0.07501293719, -0.09518685937, 0.04551649094, -0.07816201448, -0.01599087194, 0.23487940431, -0.10859926045, 0.14525678754, 0.11651793867, -0.06026911736, 0.16167397797, 0.12697999179, 0.03745608404, 0.16301357746, -0.09460545331, -0.00604049908, 0.10046358407, -0.01186777372, 0.14505198598, 0.10580127686, -0.11173926294, 0.13576851785, 0.15223896503, -0.13532719016, -0.02061313577, 0.00312156556, 0.00131994626, -0.02092611045, 0.12564280629, -0.01994490996, -0.05540599674, -0.11931305379, -0.02379866689, 0.01966803335, 0.07838828862, -0.00805142801, 0.00694920029, 0.21172809601, 0.02532595210, -0.12052568048, -0.04332783073, -0.13087818027, -0.07223433256, 0.15718522668, 0.05745031312, 0.05962188542, -0.06197070703, -0.10119243711, -0.08876156062, -0.03422156721, -0.08613929152, -0.23884561658, -0.11239030212, 0.07150172442, -0.01895114593, -0.19227020442, -0.14262065291, -0.03728830814, -0.12396379560, -0.05363699049, -0.16506646574, 0.18102061749, 0.00136027567, 0.20887507498, -0.24800802767, -0.09806426615, 0.02876072936, 0.08103892952, -0.01826587319, -0.07264494896, 0.07360816747, -0.11578696966, -0.13220971823, 0.05793762580, 0.14815147221, -0.13628979027, 0.07917620987, -0.07842767984, -0.01420533936, -0.06736448407, -0.07681324333, 0.12828400731, 0.20814155042, 0.04478769749, 0.05702827126, 0.17841593921, -0.02060627006, -0.03275580332, 0.15938287973, 0.04228544235, 0.08450537175, 0.12404742837, 0.28553169966, -0.00708276080, -0.00116750551, -0.11028242856, -0.05397513881, -0.26098832488, 0.15938889980, -0.15105333924, 0.07560270280, 0.19343310595, 0.11028700322, -0.08884851635, 0.08325174451, 0.00405114004, -0.07426501065, 0.02777557261, -0.09442736953, -0.05121148750, -0.08205574751, 0.15907849371, 0.02105912752, -0.04986210540, 0.05503192544, -0.01556283608, 0.00103707216, 0.09347391874, -0.09183862805, 0.10102076083, -0.11488132179, -0.01135855727, -0.02990778163, 0.12600356340, 0.20357479155, 0.01449400838, -0.23156914115, 0.16395950317, 0.13953840733, 0.14971172810, -0.23525977135, -0.00000876226, -0.10133723915, -0.00330493599, -0.03303260729, 0.25424626470, -0.21371851861, -0.15030071139, 0.02579771355, -0.00168295857, 0.02703950182, -0.06623010337, 0.21283784509, 0.03925732151, 0.15302176774, 0.04100720212, -0.19232611358, -0.04316948727, 0.05925896391, 0.24818435311, -0.26739516854, 0.25134930015, -0.10076688230, -0.00216202927, -0.36376860738, -0.08684768528, -0.12626394629, 0.15497614443, 0.01922901906, -0.00710603595, 0.04835176095, -0.11168160290, -0.06816599518, 0.26141047478, -0.16201019287, 0.11387114227, -0.10395196080, 0.05540251732, 0.50112217665, 0.40510353446, 0.27616995573, 0.40865084529, -0.04570215940, 0.02756643854, -0.16379202902, -0.03607002646, -0.10472436994, -0.17631733418, -0.11708942056, 0.16006833315, 0.16248740256, -0.12737265229, -0.21435558796, 0.25014197826, -0.00697406149, 0.20035171509, 0.20707696676, -0.16604241729, -0.10365951806, -0.16142319143, -0.17859646678, 0.19931350648, 0.39723837376, -0.19384782016, 0.12242015451, -0.05642936751, -0.13170285523, 0.05093539134, -0.02222046070, 0.07819339633, 0.33330899477, 0.21764488518, 0.15382781625, 0.08126747608, -0.05245052651, 0.16739405692, 0.03413807228, -0.05077277496, -0.24865184724, -0.05935770273, -0.07449206710, -0.22145931423, -0.05351324007, -0.32008633018, -0.00140820083, -0.00887271576, -0.12676343322, 0.00458720652, 0.31521597505, -0.09533321857, 0.23212790489, -0.14422486722, -0.21937017143, -0.00514330296, 0.15196157992, -0.05896157771, 0.29112932086, -0.02926756628, 0.00855681580, -0.13788439333, -0.13119737804, 0.23956768215, -0.27509531379, -0.08455927670, -0.25081861019, -0.29153004289, -0.06666345149, -0.05713279918, 0.33415105939, -0.19815401733, 0.36700460315, 0.18433497846, -0.05102767050, 0.07047590613, -0.07580430806, 0.43893516064, 0.07804825902, 0.07522243261, -0.19259783626, -0.10521294922, -0.39212059975, 0.05574746430, -0.26269274950, 0.20344637334, 0.09112206101, -0.05764983967, 0.18489669263, 0.17812363803, -0.20069594681, 0.17931716144, -0.10582486540, 0.38513025641, 0.08938902617, 0.18266166747, 0.00172870175, -0.26525050402, 0.00671734428, 0.22115135193, 0.04216024280, -0.15533840656, 0.16653278470, 0.26415422559, 0.00854776986, 0.15290218592, 0.13628599048, 0.00020181242, 0.24932865798, 0.14164260030, 0.09087678790, 0.09614577144, -0.00677407300, 0.25094750524, -0.33028885722, -0.03063512966, -0.20323073864, -0.05683775246, 0.27233830094, 0.09664595872, -0.07478145510, 0.06152227148, 0.27054387331, -0.04741512612, 0.02255473100, 0.06746681780, 0.00200279104, 0.06007789820, -0.10197536647, -0.25873547792, 0.07782165706, 0.08394528180, -0.25519427657, -0.05225542560, -0.22234696150, 0.15816940367, -0.46372833848, -0.02473765239, 0.00193510903, -0.39896449447, 0.26830717921, -0.15269680321, 0.05736675858, -0.31450110674, 0.18385657668, 0.01493674517, 0.24513487518, 0.03206665441, 0.21911904216, -0.11254753917, 0.03342764825, 0.10781859607, -0.13084395230, -0.03574077040, 0.25264841318, -0.27984744310, 0.06701244414, -0.30738565326};
#endif

#endif
