//Numpy array shape [2, 6, 32]
//Min -0.219202578068
//Max 0.221800744534
//Number of zeros 0

#ifndef VALUE_WEIGHT9_H_
#define VALUE_WEIGHT9_H_

#ifndef __SYNTHESIS__
multi_head_attention_3_default_t value_weight9[384];
#else
multi_head_attention_3_default_t value_weight9[384] = {-0.04731668532, 0.08786688000, -0.10091210902, 0.00295928679, 0.12047825009, 0.02362863347, -0.13763442636, 0.01200194843, 0.00282344548, 0.10662374645, -0.07962015271, 0.13693329692, -0.11084868014, 0.16161806881, 0.11106020212, -0.06921296567, -0.00922685862, -0.05729074404, 0.06178603694, 0.03744771332, -0.09220997989, -0.15567241609, 0.07329740375, -0.10012226552, -0.02600300871, -0.13044390082, 0.05372749642, -0.03819949180, 0.01876342110, -0.04498019814, 0.16273908317, 0.18137343228, 0.01502349321, 0.01714177988, 0.10021439940, 0.05864472687, -0.06439517438, -0.21771347523, -0.16452500224, -0.10001110286, 0.00786564220, 0.05303048715, -0.09457243979, -0.02828901261, -0.05875524879, 0.06934422255, -0.07883229107, 0.11701662093, -0.11568718404, 0.12384489179, -0.21920257807, -0.02099600807, 0.17227938771, -0.04922263697, 0.11704844236, -0.00696056150, 0.05942796543, 0.01847482473, 0.14024868608, 0.13885970414, 0.00402843021, -0.08046613634, -0.03580538556, -0.07474865019, 0.09875258803, -0.03488435969, -0.13034510612, 0.09118755907, 0.09009561688, 0.03195150569, 0.09087777883, 0.00386994705, -0.06218269467, -0.09875041246, -0.12097877264, 0.05204787850, -0.06964254379, -0.01195567101, 0.08097693324, 0.00052487408, 0.02920812927, -0.00014527272, -0.05674400181, -0.08595497906, -0.09411907941, -0.05278775841, 0.05431056768, 0.17017008364, -0.09142924845, 0.14057046175, 0.06873265654, 0.10667698830, -0.00697112223, -0.04614882544, 0.15330347419, 0.11228122562, -0.13999846578, 0.14201506972, -0.01562787406, 0.08976144344, -0.09734489769, -0.09698008746, -0.01682543755, -0.10125958174, -0.08350047469, 0.14805617929, 0.09317439795, -0.10915239900, -0.09142261744, 0.14040294290, -0.12162423879, -0.05813498423, -0.08993749321, -0.13962650299, -0.00711935107, 0.13920342922, -0.01411894895, 0.00587691879, 0.08559917659, -0.03318000585, 0.13320286572, 0.06086934730, -0.06936126947, -0.13805197179, -0.03448645025, -0.01754500717, 0.19193580747, -0.15235528350, 0.06861436367, 0.12159000337, 0.05742019415, 0.05965011939, -0.01261113398, 0.11113282293, 0.00429406995, -0.12273485214, 0.04789330065, -0.01542185713, 0.09206544608, -0.05914750695, -0.02351725101, -0.09189185500, 0.05403190851, 0.13089706004, 0.01460633520, -0.10355409235, 0.11866239458, -0.07101590931, 0.10377535969, -0.08291431516, -0.01497308630, 0.06820600480, 0.04576856643, 0.06491547823, 0.04542176053, -0.03223390132, -0.08780352026, 0.01757734641, -0.05787796900, 0.09624662250, -0.09949826449, 0.04221788049, 0.06075491384, 0.03364611790, 0.03036324494, 0.17665730417, -0.08279956877, 0.14860619605, -0.06059304625, -0.10058948398, -0.02184674330, -0.00600079447, 0.22180074453, -0.10026083887, -0.01691266336, 0.11686974764, 0.14162264764, 0.00853726268, -0.02722459100, 0.06192140654, 0.09278853983, 0.02029975876, 0.05139185488, -0.10249803960, -0.03087303787, -0.03234260157, 0.01094968431, 0.00330161443, 0.00784069765, -0.00148395263, 0.05363246053, -0.00977072492, -0.04335343838, 0.14979828894, -0.09958517551, 0.08680055290, -0.02251847461, 0.04824351892, -0.02143178694, 0.17203706503, -0.01987742633, 0.01474837121, 0.06765222549, 0.16065630317, 0.12699873745, 0.07808796316, -0.10053689778, 0.03825317696, -0.06391693652, -0.05166081712, 0.08933613449, 0.06679588556, -0.10996029526, -0.14978335798, 0.07848867029, -0.14688080549, 0.01805949956, 0.07562804222, -0.05394223705, -0.11537287384, -0.04078393802, -0.00378287770, -0.15749539435, 0.03091019951, -0.09746611863, 0.05000729114, -0.13515710831, 0.08511181921, -0.04125541821, -0.13742257655, 0.20090799034, 0.07233272493, 0.08982580155, 0.11536419392, 0.19995366037, 0.14370447397, -0.02295295149, -0.00639555790, 0.02554780804, 0.10841593146, 0.08910262585, 0.02260701545, 0.21307121217, -0.05550899357, 0.13911071420, 0.01952506974, 0.08445942402, -0.14045371115, -0.03050178476, 0.00025879583, 0.08148044348, 0.11482036859, 0.07091479748, -0.20134250820, 0.06655590236, 0.12227902561, 0.14232036471, 0.02657489851, 0.08695780486, -0.06324027479, -0.13079132140, -0.02460445650, -0.03746726736, -0.03943628818, -0.17195767164, 0.05009993911, -0.01498751249, 0.04809325561, -0.12681216002, -0.04790166020, -0.01628032327, -0.13716050982, -0.03669243306, -0.17501118779, -0.08804004639, -0.01934443600, -0.04227248207, -0.12973947823, -0.11585630476, 0.00411908841, 0.03450343013, 0.11512906104, 0.06196446717, -0.01025862712, -0.01197065786, 0.12176413834, -0.12193176150, 0.06173812225, 0.07686553895, 0.00194383180, 0.12093456835, -0.00421167258, 0.10107388347, 0.17945143580, -0.00822752900, -0.01933247596, -0.01412273850, 0.19630576670, 0.07454311848, -0.17006738484, -0.17002655566, 0.05791813880, -0.10915505141, 0.12239148468, -0.04377895221, 0.02435266227, -0.10993710905, -0.05041239411, 0.10571219027, 0.05357558280, -0.04225348309, -0.14536449313, -0.07386571169, -0.05549364910, -0.08363524079, 0.01645218395, 0.06188048422, 0.11318160594, -0.05650621653, -0.03023308888, -0.04900219664, 0.10459414870, -0.13355071843, 0.17986562848, -0.01801756211, 0.05559531599, 0.02587529086, 0.04088564590, -0.07974505424, -0.00780338934, 0.07891865820, -0.08514972031, -0.09659121186, 0.05993551761, -0.18309538066, -0.15403313935, -0.02735482529, -0.00383374002, 0.03407355025, 0.10249269754, 0.05045706406, -0.10524138063, -0.12360677868, -0.08525655419, -0.14644649625, -0.02864413895, -0.04000573233, -0.15478785336, 0.10466187447, -0.04046104476, -0.19338358939, 0.10419314355, 0.00372615666, -0.03545026481, -0.02969177999, 0.05233856663, -0.19782942533, -0.14228861034, 0.01123354211, -0.10079249740, 0.15964870155, -0.05182142928, -0.13606370986, 0.03758440167, 0.08127458394, -0.12337783724, -0.08036420494, -0.06757452339, -0.00380271487, 0.05799568072, -0.02416631393, 0.08003713191, -0.07674867660, -0.11371125281, -0.00921150018, 0.11333856732, 0.14164237678, -0.00079802657, -0.03356371447, -0.09591835737, -0.04032288119, -0.13900238276, -0.13384865224, -0.03684794530};
#endif

#endif
