0.17009924352, 0.13538955152, -0.11111760139, -0.08516807109, -0.14017300308, -0.04350561649, 0.04933452606, 0.16511209309, 0.14496821165, 0.03144182265, 0.05933361501, 0.02156522125, 0.02190019563, 0.00640983135, -0.20587378740, 0.01111644041, -0.15471269190, 0.23665872216, -0.03398876265, 0.14307986200, -0.16088356078, -0.19442759454, 0.18586187065, -0.01802342385, -0.07260935009, -0.07555586100, -0.15261492133, 0.10568290949, -0.02179539576, 0.05943097919, -0.02192667313, -0.04852071404, 0.12250213325, -0.10284981877, 0.19089080393, 0.07160679251, -0.20285426080, -0.07388871908, 0.01857311465, -0.04914271832, 0.05459443852, 0.06589895487, 0.29576027393, 0.10749201477, 0.09763044864, 0.07009130716, 0.05492504314, 0.19443041086, -0.11579238623, -0.04357879609, 0.03043520078, 0.15650101006, -0.17085833848, 0.05305849388, 0.03542778268, 0.04193826392, -0.14286030829, -0.01550146379, 0.00870976225, -0.05173940212, -0.18705679476, 0.19372391701, 0.16946046054, 0.05782496929, -0.15253643692, -0.11402174085, 0.02556345239, -0.06195322797, -0.10034945607, -0.00871125888, -0.08458164334, 0.12172086537, -0.09116176516, 0.07118716091, 0.10641084611, -0.16016323864, 0.13582792878, -0.09271006286, -0.13996119797, -0.11818005890, 0.01711225510, -0.10096139461, -0.05379549414, -0.07357206941, 0.15878076851, 0.05849836022, -0.13124902546, 0.13534677029, 0.08943803608, -0.12479421496, -0.03885442391, 0.08355577290, 0.03812108189, -0.08145217597, -0.00756027130, 0.09468457103, 0.07543037087, -0.08026447147, -0.17774699628, -0.13204486668, 0.21774901450, 0.15487575531, 0.11227380484, 0.03285653517, -0.13854050636, -0.00299928850, -0.06488315761, -0.09437641501, -0.09271879494, -0.20665909350, -0.04384902120, -0.13278451562, 0.01974752918, 0.10076259822, 0.02912914939, 0.04973458871, 0.03892343119, -0.07556083798, 0.11636102200, 0.16918276250, 0.05906625837, -0.19484102726, -0.21324943006, 0.00457294658, 0.13430337608, -0.01729802042, 0.09481379390, 0.12626574934, 0.07222522050, -0.08927740157, 0.00600424409, -0.10215380043, -0.00863940828, -0.15320397913, -0.06090869755, -0.20937775075, -0.15073281527, -0.11581847817, 0.14820271730, -0.12626260519, -0.04878894985, 0.00115328329, 0.10533002019, 0.09878154844, -0.02559811249, -0.18537090719, 0.10994672775, -0.08020526916, -0.05805188045, 0.11624345928, -0.15245184302, 0.04069037363, -0.01719229296, -0.04520098120, 0.14812432230, -0.00417505158, 0.01855172217, -0.17183163762, 0.15580882132, 0.14427667856, 0.01667335443, -0.00707760965, -0.14743657410, -0.06808990240, 0.11450384557, 0.16121038795, -0.08099497855, 0.11765459180, -0.09927129000, -0.17342495918, 0.01048774831, 0.01750649698, 0.11926267296, 0.01721169055, 0.07103496045, -0.05584481731, 0.07978994399, 0.04416317865, -0.12685835361, -0.03504863754, -0.10372713208, -0.07858639210, 0.03464953974, 0.01251795888, -0.08154365420, 0.14137648046, 0.07089791447, 0.11246386915, 0.04989283159, -0.10893613845, 0.03697057441, -0.16105569899, -0.17182272673, -0.27880647779, 0.16566249728, -0.00376677094, -0.10777632892, -0.13149625063, 0.00175627531, 0.02892367356, -0.07369673997, 0.06794828922, 0.01334328577, 0.17032888532, 0.07177187502, -0.40443027020, -0.04795223475, -0.02153444476, 0.05330512673, -0.01917943358, -0.08128891140, 0.18110229075, -0.11111441255, 0.04811934754, 0.12321805209, 0.05218757316, 0.12818253040, 0.06493297219, -0.06942271441, -0.17279651761, 0.13511988521, 0.10892202705, -0.14857612550, 0.07294422388, -0.05259393156, -0.22639086843, -0.04298083857, 0.06240461394, 0.04207117110, 0.02582721785, 0.03792725503, -0.09667700529, 0.05192507431, 0.10997108370, 0.02437495813, -0.17144930363, 0.01162333228, 0.01083398424, 0.15113790333, -0.19105258584, -0.03593580797, -0.02242976427, 0.02990303375, -0.03198249266, -0.00519794878, 0.13798719645, -0.09055347741, -0.03225930408, 0.08966688812, 0.12535938621, 0.05281005800, -0.13260287046, -0.17521889508, 0.06815133989, 0.03915153444, -0.09326539934, 0.13185568154, 0.08408409357, -0.10236487538, -0.19403263927, -0.12028967589, 0.12517240644, 0.17602460086, 0.16818955541, 0.00199809461, 0.01552138571, -0.14291764796, -0.02910648286, 0.00664981268, 0.15556195378, -0.15725773573, 0.05576350167, -0.14259092510, -0.25090274215, -0.11567766964, -0.08371040970, 0.20401765406, 0.00929316506, 0.14209245145, 0.16037489474, -0.14565300941, -0.12134948373, -0.19693757594, -0.09293650836, 0.10410550982, -0.17120118439, -0.05493437871, -0.13672268391, 0.11438156664, 0.27606174350, -0.10866975039, -0.05403360352, -0.10287930071, -0.10324793309, -0.02873770520, 0.08214482665, 0.00011551336, -0.06794163585, -0.14926615357, 0.05148760974, -0.11784794927, -0.15508693457, 0.09672308713, 0.11728735268, -0.07624725997, 0.07770914584, 0.19633996487, 0.18909920752, -0.04793503135, -0.01080454793, -0.09333775192, -0.02348986268, -0.00623845588, 0.08354333043, -0.12681232393, -0.07684672624, -0.12545913458, 0.08425163478, -0.03406897560, -0.16748189926, 0.10265403241, 0.03766028211, -0.04804383218, 0.09034193307, 0.10380890965, -0.06728493422, -0.04940136522, -0.09287801385, -0.25309216976, 0.07837207615, -0.13210643828, -0.00367982476, -0.18343143165, 0.10725302994, -0.06919612736, -0.01825264841, -0.11000585556, 0.02137925476, -0.04210088402, -0.04281859100, 0.01246955805, 0.22702421248, -0.07280381769, 0.01268174592, -0.09031078964, -0.05355054513, 0.08976606280, -0.09981452674, -0.16359218955, -0.03519108891, 0.16865453124, 0.13259674609, 0.09928373992, 0.10099051893, 0.01121570915, 0.04268557951, 0.09867279232, -0.04012380168, -0.12549370527, -0.08179732412, -0.20040155947, -0.16291606426, 0.03270456940, 0.10753226280, -0.06019378826, -0.11241000146, 0.05098732933, -0.03197237849, 0.15592874587, 0.05136859044, 0.09943217039, 0.04302942753, 0.10985996574, -0.05408319458, -0.12481108308, -0.13022148609, -0.01223428827, 0.06597957015, -0.16708731651, 0.05777594075, 0.12033661455, 0.02018142678, -0.08717163652, 0.06107788906