//Numpy array shape [2, 32]
//Min -0.103085711598
//Max 0.116700582206
//Number of zeros 0

#ifndef VALUE_BIAS16_H_
#define VALUE_BIAS16_H_

#ifndef __SYNTHESIS__
multi_head_attention_4_default_t value_bias16[64];
#else
multi_head_attention_4_default_t value_bias16[64] = {-0.01462167501, -0.03867109865, -0.03583782539, -0.00702058384, -0.07580552995, -0.00625843182, 0.02900864556, 0.02264967933, 0.01892862655, -0.00372310681, 0.02017449774, -0.06463244557, 0.02208577096, 0.00620249892, -0.03534564748, 0.01232388616, 0.00439059408, -0.04514234886, -0.03074503504, 0.04234343022, 0.01446131896, -0.05368087441, -0.04560974985, -0.02329104207, -0.01466081850, 0.02671795897, -0.01462971512, -0.03683457151, -0.01499814354, -0.01602875628, 0.02497019805, 0.02552455850, -0.00181343534, -0.03960008174, 0.02540863119, 0.02385301702, 0.01904175617, 0.03735774755, -0.03153947368, 0.03442565352, 0.11670058221, 0.00292398967, 0.00876021478, 0.06319801509, 0.05682854727, -0.05262445658, -0.02721043862, -0.00046436087, 0.09677624702, 0.03462660685, 0.00379391573, -0.01611850783, -0.00611668406, -0.00271582534, 0.03567199036, -0.10308571160, -0.04882473126, 0.04902962223, -0.05079571530, 0.00334425550, 0.04755572230, 0.00435558939, 0.01888067834, -0.02530551888};
#endif

#endif
