//Numpy array shape [90, 32]
//Min -0.463700503111
//Max 0.835328280926
//Number of zeros 0

#ifndef W24_H_
#define W24_H_

#ifndef __SYNTHESIS__
dense_14_default_t w24[2880];
#else
dense_14_default_t w24[2880] = {0.13092899323, -0.01775264926, 0.01616761088, 0.09919393063, 0.14359505475, -0.10802506655, 0.35344010592, 0.05588107184, 0.16451166570, 0.63224148750, 0.58976012468, -0.04553495347, 0.26338428259, 0.02006994560, 0.07959238440, 0.48234540224, 0.43031716347, -0.05354147404, 0.29507526755, -0.03823078796, 0.01755912043, 0.42062437534, 0.28772327304, -0.11401867121, 0.23275564611, -0.08882740885, -0.03386626020, 0.29907342792, 0.18924379349, -0.11864716560, 0.17673712969, -0.10351324826, -0.06107489020, 0.18384191394, 0.08576643467, -0.10354947299, 0.12118944526, -0.10833794624, -0.05813611671, 0.11870690435, 0.05680579320, -0.07870309055, 0.04347894713, -0.08527607471, -0.02245669067, 0.06158225611, -0.00283562555, -0.04333094135, 0.01932498813, -0.06945503503, -0.01158379950, 0.07256753743, -0.01873216778, -0.03310758993, 0.04314868897, -0.02961235493, -0.04132619128, 0.02808034047, -0.02313253284, -0.02991268411, 0.04635465890, -0.06851066649, -0.06989177316, 0.04948214069, -0.03124798276, 0.00552308746, 0.03078170680, -0.03464931250, -0.01675463095, 0.01375730895, -0.04559476301, 0.00431543076, 0.04185218737, -0.02712805010, -0.03378200531, 0.01662681811, -0.06543576717, 0.00055986905, 0.04345856607, -0.03321965411, -0.04712718725, 0.05487259105, -0.06686260551, 0.01734252460, 0.02405601554, 0.01736505330, -0.01034629252, 0.01855108328, -0.04809456691, -0.01626315340, -0.06982919574, -0.14484176040, 0.12890230119, 0.11109654605, -0.29534620047, -0.06773936003, 0.58075237274, -0.35376951098, 0.09536881745, 0.14579008520, -0.07807528228, -0.27031731606, -0.00263497932, 0.05804163963, -0.07918831706, 0.03178531304, -0.00146833318, 0.18849211931, -0.02378409356, 0.19210956991, 0.02502598427, -0.09354245663, 0.00837965589, 0.12001795322, 0.14051137865, 0.17323316634, 0.02463799156, 0.08648336679, 0.02578510903, 0.18562217057, 0.06895098090, 0.07246180624, 0.02073823474, -0.03938363865, 0.13468833268, 0.08877170831, 0.15814860165, 0.16502690315, -0.00615481008, 0.10196297616, 0.17716120183, 0.01295990776, 0.07435890287, 0.07147268206, 0.08029474318, 0.08729506284, 0.06285419315, 0.00274544396, -0.00665369583, 0.02597699687, 0.04192553833, 0.19504912198, 0.11779139936, 0.11721275002, 0.20270593464, 0.05204490945, -0.05531687289, -0.07328678668, -0.04636559263, -0.06044156477, -0.05618565902, -0.07763121277, 0.05269658938, 0.00987026654, 0.04980665073, 0.03712156788, 0.02893731184, 0.09820666909, 0.07962211221, 0.04418534040, 0.16294801235, 0.03473302349, 0.22583098710, -0.02335915156, -0.15176203847, -0.02156871930, 0.08205900341, -0.02040432207, -0.04350678250, 0.07163400948, 0.05961001664, 0.04474628344, 0.11740639806, 0.00562234921, 0.06186736748, 0.08713430166, -0.01987221651, -0.04538027570, -0.00362131861, -0.12802660465, 0.06718892604, -0.06372545660, -0.15110865235, 0.04630875960, -0.10525176674, -0.01599272713, 0.12043590099, -0.01388791669, 0.26100349426, 0.39218842983, 0.52465289831, -0.09521718323, 0.15304121375, 0.00999983028, 0.16804999113, 0.42799803615, 0.43123477697, 0.01069003250, 0.01795381121, -0.04434722662, -0.01361803897, -0.08846591413, -0.05653152615, -0.07300469279, 0.04128722101, -0.06201641262, 0.05705054849, 0.19495649636, 0.20248784125, -0.01631780900, 0.13491059840, -0.01574965753, 0.03605159000, 0.06988572329, 0.12934769690, -0.15963555872, 0.09449057281, 0.00682648551, -0.03084647469, 0.01546907052, 0.10404026508, -0.10310491174, 0.05376078561, -0.07158941776, -0.01012598258, 0.01399615314, 0.02516568080, -0.09593069553, -0.01105541363, -0.06444009393, -0.03714844584, 0.07350473851, 0.05190382153, -0.03956076875, -0.01014193147, -0.06080750003, -0.01503310446, -0.02632884867, -0.01879964210, -0.03976332769, -0.06418523192, -0.07755388319, 0.02099277824, -0.03516237065, -0.04162425548, -0.04799004644, -0.06430706382, -0.02408056147, 0.06387359649, -0.06959207356, -0.02494823188, -0.06497549266, -0.04312777147, -0.06553886831, -0.01369182207, -0.00705544325, -0.03984333575, -0.04800875485, -0.04243472219, -0.01123948116, 0.00192241231, -0.03918918595, 0.00619515544, -0.01039318740, -0.08131736517, -0.01778615639, 0.04963324964, -0.06646617502, -0.01519158203, -0.06356201321, 0.11985412240, 0.01108609233, 0.13331013918, 0.14711622894, 0.34637802839, -0.17349061370, 0.12591363490, 0.04196848720, 0.20436540246, 0.25309354067, 0.53496879339, -0.15958391130, 0.13717935979, 0.02398749441, 0.16643264890, 0.24515457451, 0.49648955464, -0.14686733484, 0.18797008693, 0.01106503699, 0.20917406678, 0.34403222799, 0.53094601631, -0.20653006434, 0.23734387755, -0.06845758110, 0.10093178600, 0.28066259623, 0.50795942545, -0.20677092671, 0.14815483987, -0.13519622386, 0.06564499438, 0.24868497252, 0.32691311836, -0.17445334792, 0.15433609486, -0.14781443775, 0.02794357017, 0.12202601135, 0.21085199714, -0.17863318324, 0.08961754292, -0.16729059815, -0.01908177882, 0.10032937676, 0.12563970685, -0.13130478561, 0.03672522306, -0.11978542805, 0.00133822777, 0.01714473031, 0.07974381745, -0.10155770183, 0.06266044825, -0.10781104863, -0.03951482847, 0.00831791386, -0.00629633758, -0.10078644753, 0.00467843330, -0.09204901010, -0.01006899495, -0.07719022036, 0.02268465981, -0.07454694808, 0.01298389304, -0.05211445317, 0.01172341499, -0.04538521171, -0.00860635191, -0.06030125916, 0.00236880011, -0.07234141976, -0.03902388737, -0.06464313716, -0.05620996282, -0.02414572611, 0.01239978801, -0.04571115226, -0.02596030943, -0.02538528293, -0.04073799774, -0.02123761550, -0.00489267474, -0.02674746886, 0.00886725541, -0.06689563394, -0.02517800778, -0.03403199464, -0.04271465167, 0.02633760311, 0.11710005254, -0.07950264215, 0.17335118353, -0.04522383586, -0.12892502546, -0.06125966460, -0.08961766958, -0.26436063647, -0.22971174121, 0.06393859535, 0.03836959973, -0.01934523694, 0.24640586972, 0.22091400623, 0.39869871736, 0.00244275620, -0.12591886520, -0.01175141800, 0.00006678778, -0.24153400958, -0.11525619030, -0.03457444161, -0.05075183511, -0.18599396944, 0.38660231233, 0.43986397982, 0.39029034972, -0.18905596435, -0.08361498266, -0.08685642481, 0.12800391018, -0.04292313010, 0.15307185054, -0.08826512098, -0.10007234663, -0.19612944126, 0.11870521307, 0.09234167635, 0.17477139831, -0.12397700548, -0.05592272431, -0.14166246355, 0.11802044511, -0.05111920834, 0.09134651721, -0.11709408462, -0.06078764051, -0.10088858008, 0.08037546277, -0.02076829225, 0.04297170043, -0.09287360311, -0.02260036208, -0.03797755018, 0.04944716394, -0.11667924374, 0.01165832672, -0.12013634294, -0.07007694989, -0.06296347827, 0.03931476176, -0.17414380610, 0.08865978569, -0.05312072113, -0.05937385559, 0.04233846441, 0.04934208095, -0.15078499913, 0.10494496673, -0.10397303104, -0.08658080548, 0.03114647232, 0.03930279985, -0.15689803660, 0.05929404125, -0.01313844882, 0.02038852312, -0.01988484338, -0.01490848977, -0.03925177827, 0.03263388202, -0.02019719593, -0.02528208680, -0.18468451500, -0.08296611905, 0.07847917825, -0.09200080484, 0.03215982392, 0.01388190314, -0.05412976444, -0.11299818009, 0.14134393632, -0.06965959817, 0.02263236605, -0.07197245210, -0.06401520967, -0.18704713881, -0.08366265893, -0.25027832389, 0.13308404386, -0.24085679650, 0.07515845448, -0.04790302366, -0.18591839075, -0.18480706215, 0.34318581223, -0.08636736125, 0.15753217041, -0.00963817723, -0.14392021298, -0.09330168366, 0.23737290502, 0.00484648068, 0.16436623037, 0.01259277761, -0.05676595867, -0.00727921026, 0.23823311925, 0.11953878403, 0.14067710936, -0.01814707182, 0.02696259879, 0.00137341232, 0.12704952061, 0.11385150254, 0.00524650514, -0.06834637374, 0.10016225278, 0.02688418701, 0.11827284843, 0.06867127120, 0.02794672549, -0.05925515294, 0.16266010702, 0.08450018615, 0.13432857394, -0.01951089688, 0.03432631865, -0.00242539262, 0.15700189769, 0.02410458028, 0.09679443389, 0.08976718783, -0.01225002110, -0.07022157311, 0.06140471622, 0.07059073448, 0.08639276028, -0.03455562890, -0.07064248621, -0.03337851167, 0.12544056773, 0.07900822908, 0.14271804690, 0.03949365020, -0.06161671877, -0.08323761076, 0.15892763436, 0.03395257518, 0.12977741659, 0.00727800094, -0.05868789554, -0.10691500455, 0.07189175487, 0.01301049534, 0.14773796499, 0.04698748142, -0.03002273850, -0.10114993900, 0.11928445101, 0.02569546737, 0.12002291530, -0.03407643363, -0.00518245902, -0.05325743556, 0.14405162632, 0.03680501878, 0.12864275277, 0.01671118662, 0.05476312339, 0.02852255665, 0.10289634764, -0.11943263561, 0.20013380051, -0.13840474188, -0.07181502879, 0.30274635553, 0.02320722677, -0.06682748348, -0.00765106454, 0.18118140101, 0.09263166040, 0.11519874632, -0.03631420806, -0.12928509712, 0.06021081284, 0.14941589534, 0.11693459749, 0.20062641799, -0.13024020195, 0.04738904163, 0.07655863464, 0.21244327724, 0.20568978786, 0.12966875732, 0.10464918613, -0.18104824424, 0.17258112133, -0.15106472373, 0.08864348382, -0.02776081860, 0.04434802756, -0.01819150895, 0.25802403688, -0.03123044781, 0.13129639626, 0.09651924670, -0.18021205068, 0.01407039724, -0.05224123597, -0.07564899325, 0.03576533869, -0.02739799768, -0.09841489792, -0.03743217140, -0.11405878514, 0.22588720918, 0.13626699150, 0.05037089437, -0.02438784949, -0.05589710549, -0.03999639302, -0.14286336303, 0.19358603656, 0.05752310529, -0.07439211756, 0.19433636963, 0.20723497868, -0.04302329570, 0.01714442670, 0.25413596630, -0.09156458825, -0.22694791853, -0.09416403621, 0.19049046934, 0.04672888666, -0.03084793873, -0.08338726312, 0.15318574011, 0.09442980587, -0.12778234482, 0.13284792006, 0.00098931021, -0.04998904094, -0.16694569588, 0.08294184506, 0.18535457551, 0.21484401822, 0.13195601106, -0.07879973203, -0.05989511684, 0.17848929763, 0.21679565310, 0.16313593090, 0.01944909617, -0.07085082680, -0.14114946127, -0.02042174339, -0.04816041514, 0.05974289775, -0.05098029226, 0.08489844203, -0.19406092167, 0.12740892172, -0.07704485208, 0.01714909635, -0.07814263552, 0.01476079132, -0.00826219097, 0.25080189109, -0.01806857251, 0.09051407129, 0.01663065702, 0.02596980706, -0.05894005299, 0.06915396452, -0.01090599969, 0.03223955259, -0.01471819077, 0.18702375889, -0.11322239041, 0.08185108006, 0.01493115351, -0.01417224016, 0.05679711327, -0.08673989773, -0.03873582929, 0.02462275513, -0.08230309188, -0.01267137099, 0.00399274845, 0.05031143129, -0.02715177089, 0.07646460086, -0.07067341357, 0.08151078969, 0.05818361789, 0.04447060823, -0.11529697478, -0.07066264004, 0.02616971545, 0.10269536823, -0.02450116165, 0.10175938904, -0.04665265232, 0.04218739271, 0.00000516450, 0.03680505604, 0.04328778386, 0.22944481671, -0.00941435341, 0.09690482914, 0.07786294073, 0.05832839012, 0.08109704405, 0.20755012333, -0.17361107469, 0.13971935213, 0.12083102763, 0.03683726117, 0.03278097883, 0.23182356358, -0.16180287302, 0.05632853881, -0.02308184840, 0.01765274629, 0.05056121945, 0.26185756922, 0.00698746694, 0.20577622950, 0.17339521646, 0.04807971418, 0.01996310428, 0.07625477761, -0.09756148607, 0.21764577925, -0.08567367494, 0.17977863550, 0.32288286090, 0.03505113721, 0.00824610610, 0.12330828607, 0.04174917191, 0.14568775892, 0.20696371794, 0.17715127766, 0.06799022108, 0.13284432888, 0.18914437294, 0.03684170172, -0.00143899373, -0.05109594390, -0.17339420319, 0.01541896351, -0.11639338732, 0.01022333093, 0.18648031354, -0.05048612133, 0.02337868884, 0.19034475088, -0.09228326380, -0.07114616036, 0.14376600087, 0.17819164693, 0.02697169594, -0.00900677312, 0.04452745244, 0.23737323284, -0.02202417329, -0.04690261185, 0.09676710516, 0.22561782598, 0.19065527618, 0.04279887304, 0.11954972148, 0.06820905954, -0.22705265880, 0.07286717743, 0.11835084110, -0.11300282180, 0.11027343571, 0.09160706401, -0.22100912035, -0.06912624836, 0.20047406852, -0.00527418172, 0.09091772884, -0.09423068166, -0.07205720246, 0.13641786575, 0.24824568629, 0.07072215527, -0.10133347660, 0.12370482832, 0.14513391256, 0.12915034592, 0.07985778898, 0.14733725786, 0.25243914127, -0.08236040175, 0.02129318193, -0.12086085975, 0.01234242879, 0.29358515143, 0.24585248530, -0.04009081051, 0.09386785328, 0.14708295465, -0.06278850883, -0.01691410504, -0.08462572098, 0.18948280811, -0.10879299045, 0.23679071665, 0.24552084506, 0.30108836293, -0.04227958992, 0.05166733265, 0.10142845660, -0.14100505412, 0.02995294146, -0.07646845281, 0.28754520416, 0.12691970170, 0.00185287208, 0.09892489761, 0.09021951258, 0.07275159657, 0.06628490239, 0.15431706607, -0.01562539302, 0.11891559511, 0.23554150760, 0.19734151661, 0.05717503652, 0.14854007959, -0.00124493125, 0.09353128076, 0.05087474734, 0.15722563863, 0.11039651930, -0.16451427341, 0.04188153893, -0.10948283970, -0.05279029906, 0.11348076910, 0.08162689209, -0.12581926584, 0.00066875009, -0.13595902920, -0.16912986338, 0.12632076442, 0.20865565538, -0.01046079304, 0.14419098198, 0.04125180468, -0.06083534285, 0.09409455955, -0.02647138014, 0.07349964231, -0.00395481382, 0.03226923943, 0.09144917130, 0.13543356955, 0.03759192303, 0.17727872729, -0.19556181133, 0.17111645639, 0.00740963174, 0.04757366329, 0.00931712985, 0.09244658053, 0.07907995582, -0.12318296731, 0.02145144716, 0.13960120082, 0.01327599026, -0.16137050092, 0.05382866785, -0.06317927688, 0.15614788234, 0.10063428432, 0.10914532095, 0.15459193289, 0.13281479478, 0.16860410571, 0.22256818414, 0.23151263595, 0.10843510926, -0.18702201545, -0.02320419438, -0.03984941170, 0.14696773887, 0.16811913252, 0.10772681981, 0.14918240905, 0.10798729211, 0.10815195739, -0.01605720446, 0.19074234366, 0.03165165707, 0.13112866879, 0.03095501475, 0.12680697441, 0.04580345005, 0.15395784378, -0.09250515699, 0.09796192497, 0.02284290269, 0.21575364470, 0.09178110957, 0.24354825914, 0.15676228702, 0.18169087172, 0.11514810473, -0.00035963091, 0.12453028560, -0.02648505755, -0.07927305996, 0.13301363587, -0.18707555532, 0.23960848153, -0.03947702795, 0.25113725662, -0.05980550125, -0.06834643334, 0.06803354621, -0.07581300288, -0.00022134391, 0.00991000049, -0.01194556244, -0.13775427639, -0.00250107213, -0.07031961530, 0.10505712777, -0.02679264359, 0.06184453517, -0.08094514161, 0.12569107115, -0.14259536564, -0.03425566852, 0.03238875046, 0.05795259029, -0.16978269815, 0.13151811063, -0.16521364450, 0.35119140148, -0.10042060167, 0.31237784028, 0.55630344152, 0.59775936604, -0.20201018453, 0.17629808187, -0.06332377344, 0.09111493826, 0.31426325440, 0.36522075534, -0.17456391454, 0.19559977949, -0.02822489664, 0.01810589246, 0.01849718206, 0.19067995250, -0.16121314466, 0.10456589609, -0.18109790981, -0.02405256405, 0.11993463337, 0.12319368124, -0.07360009849, -0.05231206864, -0.11244669557, 0.05715304241, -0.07039205730, 0.11035067588, -0.02972704917, -0.02503613569, -0.05799054354, 0.04273148626, -0.05651345477, 0.02645804174, -0.09359911084, 0.01480955165, -0.04601839185, -0.00774762873, -0.05389707536, 0.00371286413, -0.09759663045, 0.01911223121, -0.05203575268, -0.04046867788, -0.05404403433, 0.00230329367, -0.03316281736, -0.04972997680, -0.07154110819, 0.01395357307, -0.03475484252, -0.02414633520, 0.00787086785, -0.05328970402, -0.09478855878, 0.03559714556, -0.09061454237, -0.08552183956, -0.03357015178, 0.00939054694, -0.04820134863, -0.02360317484, -0.01845039055, -0.07078416646, -0.02005353570, 0.03070786595, 0.01876623556, 0.04087126255, -0.06356631964, -0.05998774245, -0.04152364284, 0.03480516747, 0.24489577115, 0.23495624959, -0.04246754572, 0.17445060611, 0.22003972530, -0.06511859596, 0.14303058386, 0.20989082754, -0.22450481355, 0.01608291082, 0.09135553241, 0.17119954526, 0.22813457251, 0.25126606226, 0.17715509236, 0.09974379092, -0.12829233706, -0.16133214533, 0.09012065083, 0.17023704946, -0.13772386312, 0.11731151491, 0.16403897107, 0.16366796196, -0.02825760096, 0.18946154416, -0.22479143739, -0.18079696596, -0.13531717658, -0.17315548658, -0.05219287798, -0.07156465203, 0.19364936650, 0.15541620553, -0.00570272049, 0.20964375138, -0.07027957588, 0.26445952058, -0.11366575211, 0.13278943300, -0.04493235052, -0.15036669374, 0.23552054167, 0.23522466421, 0.07022854686, -0.01703670248, 0.06842980534, 0.14360599220, -0.02749953046, -0.11900968105, -0.11095776409, 0.14953866601, 0.01128429081, 0.05974555016, -0.04598916322, 0.04167717695, -0.04177395999, 0.16521425545, -0.01976002567, 0.00022655092, -0.08576741070, 0.17655035853, -0.01876539923, -0.17492675781, 0.18512202799, -0.13367091119, 0.26406025887, -0.02913175523, -0.01002847217, 0.18924391270, 0.09773959965, 0.08764473349, 0.16186611354, 0.08995083719, -0.19136348367, 0.06749316305, 0.13459180295, -0.06541585922, 0.18894635141, 0.15940818191, -0.00194056658, -0.00666780630, 0.23245266080, 0.02373552136, 0.23100157082, -0.13852627575, -0.11345894635, 0.08910685778, -0.04080162570, 0.24997529387, -0.01280277595, 0.72455167770, 0.64902150631, 0.53849011660, 0.01033034176, 0.05708897114, -0.04229066148, -0.08258043975, 0.10683020949, -0.07601261884, -0.00688543776, -0.06497491151, -0.02509086579, -0.00979167782, -0.05905787274, 0.02324201167, 0.05572004616, -0.02172993496, -0.06559178233, 0.00761896884, 0.12132664770, -0.05639849603, 0.04235234484, 0.05104927346, 0.04258003831, -0.04922048375, -0.01419184636, 0.03339006752, 0.02371757105, -0.04647528753, -0.03609279916, -0.00990793481, 0.03211721405, 0.00246714754, 0.00896802731, -0.00273951748, -0.01826328412, -0.05055980012, 0.07292616367, -0.01574023254, 0.03074301407, 0.09244806319, 0.09214097261, -0.08942037821, 0.10950138420, 0.03097472712, 0.03375916183, 0.00239102915, -0.04635314271, -0.02850839123, 0.02469890565, 0.04019488022, 0.10217105597, 0.01858704537, -0.00479479833, -0.03009148687, 0.02908147126, 0.00688191131, 0.02519516833, 0.03870309889, -0.05219059810, -0.07762069255, 0.13431680202, -0.00734785432, 0.04932863265, -0.07494404167, -0.02588377520, 0.04808066413, -0.01483691670, -0.01599633694, 0.01193632558, 0.09164816886, 0.04302758723, -0.01346219424, 0.06669751555, -0.09533098340, -0.12089903653, 0.12828971446, 0.01372215804, -0.09611806273, 0.07116542011, 0.05001571402, 0.04437210411, -0.01010356843, -0.00440642983, -0.03279321268, 0.05760129169, 0.01100820955, 0.02977507934, -0.11532262713, 0.00484483410, -0.11038168520, -0.11377006024, -0.08973385394, 0.22930987179, -0.22287566960, 0.10990216583, -0.09621619433, -0.30072149634, -0.22657786310, 0.34769245982, -0.17763121426, 0.14455720782, -0.07007332891, -0.25173917413, -0.11388600618, 0.31658601761, -0.17893818021, 0.15578766167, 0.01970523410, -0.26448395848, -0.07138684392, 0.22922129929, -0.06775448471, 0.13118827343, -0.01991447434, -0.11134894192, -0.05258902535, 0.18118517101, -0.04949940369, 0.06761374325, 0.01840780489, -0.06335555017, 0.02810466290, 0.18865528703, 0.05892728269, 0.04846508428, -0.09432759136, 0.04584620520, 0.01274445094, 0.12998519838, 0.05891624093, 0.07428240776, -0.06438103318, 0.04250225052, 0.00912996475, 0.08598993719, 0.05586607009, 0.04482613876, -0.04559348151, -0.02475193702, 0.01568932459, 0.08762926608, 0.16409443319, 0.04293191060, -0.09262283891, 0.09248971939, -0.00521362666, 0.06155686080, 0.08023566008, 0.03973559290, -0.08565361053, 0.04533078149, 0.00813902728, 0.08749470115, -0.00512268115, 0.00016324094, -0.03861251473, 0.06263763458, 0.04511879012, 0.07625903934, 0.07331492007, 0.05135679990, -0.09072238952, 0.08031234145, 0.02483801730, 0.09120500088, 0.13752651215, 0.06155295298, -0.11910676956, 0.05601632223, -0.01631002128, 0.06040607020, -0.01946211606, 0.00795916189, -0.03448668122, 0.04195044562, 0.05797787756, 0.17830079794, -0.09807313234, 0.07535804063, 0.05754483119, 0.12741903961, -0.20055769384, 0.17493396997, 0.05207380280, 0.18032702804, 0.13667635620, -0.15822823346, 0.14491933584, 0.20692488551, -0.14930322766, 0.09446903318, 0.02357192710, 0.07518129051, 0.14186099172, 0.02099168301, 0.02132099494, 0.09374894947, 0.29058438540, -0.06445956975, -0.00820582360, -0.14488665760, -0.14133329690, 0.11611390859, 0.11093759537, -0.21586632729, 0.09103287011, 0.03447037935, 0.02726677060, 0.02675119229, 0.21270816028, 0.08914516121, -0.04279495776, -0.14104701579, -0.14864860475, 0.20008943975, 0.24696387351, 0.03136837110, 0.15908201039, 0.25146818161, -0.13575486839, 0.22567079961, 0.14372898638, 0.03289248794, -0.11604322493, 0.16099146008, 0.03433014825, 0.05390173197, -0.06770518422, 0.04654375091, 0.08490009606, 0.25653237104, 0.07881520689, 0.11011233926, -0.00034467605, -0.12078036368, -0.07925949991, 0.00490650861, 0.20026618242, 0.31441345811, 0.00533043779, 0.11457267404, -0.01170644164, 0.05917748064, -0.03472898155, 0.17214144766, 0.00967036001, 0.07641500980, -0.07684088498, 0.01506398246, 0.24296975136, 0.13262781501, 0.04257645831, 0.04091652855, 0.13891310990, -0.14102517068, -0.16977968812, -0.06746798009, -0.03504339978, 0.11159259081, -0.19997964799, 0.21094201505, 0.00085503299, 0.33880302310, 0.04123142734, -0.14346423745, 0.01226936001, -0.10471495986, 0.21867981553, 0.10944005847, -0.04396894574, 0.08720789850, 0.05398405716, 0.08848038316, -0.05980916321, 0.21922002733, -0.00888657942, 0.19366458058, 0.12035253644, -0.13350135088, 0.11895509809, 0.04995558038, 0.12717817724, -0.13917382061, -0.08517388254, 0.15511843562, -0.11117655784, 0.28390875459, 0.07708759606, 0.17954710126, 0.08906678110, 0.02989303507, -0.16775099933, -0.02030833997, 0.06617104262, -0.01672128588, 0.11610476673, 0.23743115366, 0.08801826835, 0.16369765997, 0.01024830155, -0.08186421543, -0.11121632159, -0.04493702203, -0.17711158097, 0.08733256161, 0.25275444984, 0.19898372889, -0.14417152107, -0.11767617613, 0.19235810637, 0.35699304938, 0.05841309205, 0.18732413650, 0.15176413953, -0.07722075284, -0.05912633985, 0.31836366653, 0.07214172184, 0.16873714328, 0.08451608568, -0.02413015254, -0.02518193983, 0.24232979119, 0.04028696194, -0.23625919223, -0.17436404526, -0.19366426766, -0.16386827826, 0.15463005006, -0.03605314717, 0.10348193347, 0.03024030477, 0.13098961115, -0.08496241271, 0.02270012349, -0.02626309730, 0.02493254468, -0.02636117861, 0.16657161713, -0.01573325694, 0.33653181791, 0.07016826421, 0.03773135692, -0.14096756279, -0.02772217058, -0.09422627836, 0.31238982081, 0.22296737134, -0.09174237400, -0.12594631314, -0.04307043552, -0.03581241518, 0.11618012935, 0.05525372922, 0.09514861554, 0.03127753362, -0.12692122161, 0.04850834981, 0.09697397798, 0.43748632073, 0.41569626331, 0.58874505758, -0.14396563172, 0.00284323748, 0.00165231631, 0.02801260166, -0.04774338380, 0.02186013386, -0.03028381057, -0.09019455314, -0.03078383207, -0.11899794638, -0.23887178302, -0.23648056388, 0.03703808039, -0.07385800779, 0.01770910434, 0.03514937684, -0.06666362286, 0.12024352700, 0.01325160917, -0.03007766046, -0.05925939232, 0.16242150962, 0.11539878696, 0.34555646777, -0.09646302462, -0.03084311262, -0.20323644578, 0.11866367608, 0.29792732000, 0.25427404046, -0.04545446485, 0.07278340310, -0.11544116586, 0.03587393463, 0.11272674799, 0.20761333406, -0.06183382124, 0.04809775203, -0.10875900090, 0.00206332561, 0.11389538646, 0.09244129062, -0.10823269933, 0.04183788970, -0.01292352192, 0.01793621108, 0.06421430409, 0.07046131045, -0.12502703071, 0.08731795847, -0.07641598582, -0.06962778419, 0.08702781051, 0.00466444110, -0.02490741014, -0.07879558951, -0.07212574035, 0.01900225133, 0.00746219372, 0.00025431835, -0.05820103362, -0.02058754489, -0.03692929447, -0.03388207778, -0.02817090042, 0.09041460603, 0.01604408585, -0.12684473395, 0.00547023863, -0.00272746058, -0.10494624823, 0.03941694275, -0.02748483792, -0.03900899366, -0.06062007323, 0.03321787342, -0.03726305440, -0.03474456817, -0.05250358582, -0.14120793343, -0.00368927629, 0.06995956600, -0.10111651570, 0.03321573138, 0.02744334191, 0.13886764646, -0.00413093576, 0.06236635149, 0.11598110199, 0.15881370008, -0.08821035922, 0.21896007657, -0.04755423963, -0.08063924313, 0.14436408877, 0.03472482786, -0.07128593326, 0.56160545349, -0.08874365687, 0.27572494745, 0.59494179487, 0.42813628912, 0.05711084232, 0.24378149211, -0.00807210337, -0.08032980561, 0.19019693136, 0.06070115045, -0.04857481271, 0.22929441929, -0.05968996510, -0.11863649637, 0.15990956128, -0.00967663527, -0.01012364216, 0.06796795130, -0.04839008301, -0.05445305258, 0.08167448640, -0.01193029620, -0.02788959071, 0.06473723799, 0.00143464084, -0.02932937257, 0.01954440214, -0.01361725852, 0.01452772506, 0.01531912852, 0.01715213805, -0.02763716504, 0.01086266898, -0.01245506853, 0.00499375677, 0.03375580907, -0.01003388874, -0.01708772965, 0.05053399131, -0.07437653095, -0.00304858084, 0.08409653604, 0.03063490987, -0.04391863942, 0.06408809125, -0.04066086560, 0.01708802581, 0.11743071675, -0.00513417879, -0.07105802000, 0.06934586912, -0.05751525611, -0.01949992217, 0.07980239391, -0.02233236283, -0.06234084815, 0.09712865204, -0.06436964124, 0.05874869972, -0.03013114445, -0.00691484055, 0.00789791998, -0.02756740339, -0.06986726075, 0.03333334997, 0.09850458801, 0.02271953225, -0.04421276599, 0.05922196433, -0.04499249533, 0.04940344393, -0.00635022530, 0.06803221256, -0.00683614146, 0.00065698399, 0.06039423123, 0.07705134898, 0.13647925854, -0.00677555520, -0.02999768406, 0.14268049598, 0.06399781257, -0.04123885557, 0.45199853182, 0.07488195598, 0.41608691216, 0.81209093332, 0.49917796254, 0.14240001142, 0.15867912769, -0.01820782013, -0.08947146684, 0.11930366606, -0.03230122104, 0.00029121857, 0.14030791819, -0.03247592598, -0.06430425495, 0.10660153627, 0.02938328125, -0.01278242469, 0.12678775191, -0.00889817998, -0.04785107449, 0.09318310767, -0.07050233334, -0.03104354441, 0.08104930073, -0.00041539429, -0.04678768665, 0.08821997046, -0.04081945494, 0.01084629726, 0.06450851262, 0.02941543236, -0.03608728573, 0.06469190121, 0.02561081015, -0.01464330312, 0.06948392838, 0.02549257502, -0.01861463115, 0.02794348821, 0.00556841167, -0.02210464329, 0.04234878719, 0.05974707752, 0.00248063076, -0.02554604970, -0.00607980741, 0.00123217155, 0.05543699488, 0.01402381063, -0.03835565224, 0.05545764789, -0.03876280040, -0.02330651134, 0.05085411295, 0.00633383682, -0.05681726336, 0.03813404217, 0.00359626859, 0.00178464339, 0.03895717487, 0.00860047061, -0.02403989248, 0.01432579383, -0.01324726734, -0.03822256625, 0.03427784517, 0.02659764513, -0.04608713463, 0.04209227860, -0.00237119105, 0.00374692166, 0.01886356249, -0.00272051198, -0.01217528805, 0.00951435603, -0.01734624244, -0.03659706190, 0.08680000901, -0.03598313034, -0.02195767500, 0.05650609359, -0.05223266780, -0.03191867843, 0.14593417943, 0.11483991891, 0.26656776667, 0.19678761065, 0.03663125634, -0.18054652214, 0.14271691442, 0.03696294874, -0.10918588191, 0.01762167737, 0.08815395832, -0.04844561592, 0.23775815964, 0.04772337154, -0.09664088488, 0.00669005839, 0.15305013955, 0.26862803102, 0.22265768051, 0.05842830986, -0.09864269942, 0.09922272712, 0.06825267524, 0.08813923597, 0.23099018633, 0.00156590180, 0.08808981627, 0.04404692352, -0.04336602986, 0.16201178730, -0.05435397476, -0.12279685587, 0.11252653599, -0.12236068398, -0.13161112368, 0.20047551394, 0.12598320842, 0.22377750278, 0.06985367835, -0.20101711154, 0.03458689898, -0.20336198807, 0.24030061066, 0.15695765615, -0.06886261702, -0.01468311064, 0.00251215114, 0.09142559022, -0.05776089802, 0.07709912211, 0.00677561993, -0.17841792107, -0.10933626443, 0.12000617385, -0.01005107071, 0.18215899169, 0.19239462912, 0.11632719636, -0.05133418739, 0.03879522160, 0.00030301150, 0.14391483366, 0.14621752501, -0.18606524169, -0.08864361793, 0.12344743311, 0.02746393159, 0.21281915903, 0.09960415214, -0.19088077545, 0.14986521006, -0.07001148164, 0.20255243778, -0.11586555094, 0.03702387586, -0.09535448998, 0.05413068458, 0.24976834655, -0.07329784334, 0.05755545571, -0.03238836303, 0.01125661191, -0.13631734252, -0.03891716152, -0.06658421457, 0.08257378638, -0.07278522104, -0.04332828894, 0.10733715445, 0.00862717349, -0.17210228741, 0.11832506955, -0.00131850562, 0.15019121766, -0.06756429374, 0.01533849910, -0.04392535239, -0.07934113592, 0.08786728233, 0.17434732616, 0.01745965891, -0.04063153267, -0.00316591072, 0.06309844553, 0.11171527952, 0.11264844984, -0.25536128879, 0.16574710608, -0.03912995383, 0.10125666112, 0.15066806972, -0.19583897293, 0.27372670174, 0.15088611841, 0.30144947767, 0.16937653720, 0.06876285374, 0.15245032310, 0.20808869600, 0.21183563769, -0.12684439123, 0.21593087912, 0.35883149505, 0.01219896786, 0.21821764112, 0.13632459939, 0.16512629390, 0.16217237711, 0.07680291682, -0.11699374020, 0.11215006560, -0.07658420503, -0.15710601211, -0.06002270058, 0.07035808265, -0.06963267922, 0.02487830818, -0.10612997413, 0.04100049287, 0.11477865279, -0.06206642091, -0.11035269499, 0.09788975120, 0.05738364533, -0.11854388565, -0.13236667216, 0.01789846458, -0.14846193790, -0.12006609142, -0.04820930958, -0.18220135570, 0.28981718421, 0.16993126273, -0.07968251407, -0.13286617398, 0.03594856709, 0.02343495004, 0.04051385075, -0.00624889135, 0.02078871988, 0.27666297555, 0.13686361909, 0.16545099020, 0.10391513258, -0.18049709499, 0.06160788238, 0.08850233257, 0.08723343909, 0.03324472904, 0.12285593152, 0.11223388463, -0.17693790793, 0.10301862657, -0.08787016571, -0.09009436518, 0.03978972510, -0.10618682951, 0.01949314214, 0.02311618999, 0.14808280766, 0.07403002679, -0.12123104930, 0.00032569890, 0.03557049483, 0.11094499379, 0.07229470462, -0.10417757928, -0.05673473701, 0.07862302661, 0.17178848386, 0.15875579417, 0.24493891001, 0.08450068533, 0.18693368137, 0.18108521402, -0.07587496936, -0.08361913264, 0.00504272385, 0.11177254468, 0.11456355453, 0.12271839380, 0.07276330143, 0.08414328098, 0.04689387977, -0.07165537775, 0.11213387549, 0.14942537248, 0.03020663187, -0.10443921387, 0.06647210568, -0.02450297959, 0.06631787121, 0.03739628196, -0.00274872687, -0.19227850437, 0.12480344623, 0.15119691193, -0.14623345435, 0.23352773488, -0.00660013361, 0.19535732269, 0.24160991609, 0.01417682320, 0.08252565563, -0.12458490580, 0.10049068928, -0.16806688905, 0.15486477315, 0.03047721274, 0.13878570497, 0.17800018191, -0.17109313607, -0.13565039635, 0.01500530913, 0.17751219869, 0.15301012993, 0.01389703620, -0.09244776517, 0.19333614409, 0.19063629210, 0.00161271903, 0.26936081052, 0.07374081016, -0.16627658904, 0.11743275076, -0.14209990203, 0.10346385092, -0.05465463921, -0.13442531228, 0.04217496887, 0.13748849928, -0.07470925152, 0.04024420306, 0.12175339460, -0.05956137180, -0.10384596139, -0.04144585505, 0.13497322798, -0.03011065535, 0.11614985764, 0.22779424489, 0.14426301420, -0.01729679108, 0.25581207871, -0.07346786559, 0.17708191276, 0.08214797825, 0.09272505343, -0.16838568449, 0.23845142126, 0.49976187944, 0.14310920238, 0.34243488312, 0.83532828093, 0.82711279392, -0.02177150175, 0.22866809368, 0.06128239259, 0.13692493737, 0.49771746993, 0.39889007807, -0.03938865662, 0.21757245064, 0.00256726448, -0.04253488779, 0.15989616513, 0.13736803830, -0.12797021866, 0.26310098171, -0.01835922524, -0.07295387983, 0.11861408502, 0.02810703032, -0.08735750616, 0.20747750998, -0.09169689566, -0.08355632424, 0.13361275196, 0.00157005596, -0.04396631196, 0.16213105619, 0.01583791152, -0.08460357040, 0.06134289131, -0.05060321838, 0.01307499688, 0.11412157863, 0.00175141485, -0.08117358387, 0.07418815792, -0.07139890641, 0.01905019954, 0.04895558208, -0.05784164369, -0.03125508875, 0.04994997755, -0.05770768970, 0.00049469597, 0.10594860464, -0.05255623162, -0.05871590599, 0.11059419811, -0.11984670907, -0.00204826426, 0.01607171074, -0.04612036794, -0.03834314644, 0.05000403151, -0.10994903743, -0.00555753661, 0.02676949650, -0.03312465176, -0.05645629764, 0.06607354432, -0.11687615514, 0.02268291824, 0.03216982633, -0.02967339382, -0.03908033669, 0.04961680621, -0.06561511755, 0.02838429436, 0.03144525737, 0.03873855993, -0.02980348840, 0.03478223830, -0.08598500490, 0.04468479380, 0.06099433079, 0.00625824835, -0.03306300938, 0.03579087928, -0.05366376415, 0.01303616818, -0.01207933109, 0.01894433796, -0.01047219802, 0.02516479604, -0.04404332116, 0.03658539429, -0.00846979208, -0.00449915417, 0.22202791274, 0.14157241583, 0.24944934249, -0.07847847044, 0.07019262761, -0.04273990542, -0.11416744441, -0.03146404400, -0.12363063544, -0.08661274612, 0.25654873252, -0.00952699780, 0.14269061387, 0.57764667273, 0.44207054377, -0.05812705308, 0.24849019945, -0.04977288097, 0.12198885530, 0.60771209002, 0.40967038274, -0.12873160839, -0.02390632592, 0.00462252600, -0.04074010998, -0.17928439379, -0.00612818403, -0.00789785385, 0.00858174264, -0.20350015163, 0.03723104671, 0.25361713767, 0.10393445939, -0.03152431548, 0.04832930490, -0.07393182069, 0.01307110675, 0.06384535134, 0.01347287279, -0.05492388830, 0.08613649756, 0.02006919496, -0.06958854198, 0.04634242505, 0.03795364127, -0.01845898479, -0.00015779947, -0.02796291001, -0.00025966996, -0.03003992699, -0.03204861656, -0.03008677624, 0.04239947721, -0.01927004196, -0.03212726861, 0.04697147012, -0.02243041061, -0.02310987934, 0.09703173488, 0.01959133334, -0.03304323554, 0.01024316903, -0.02484858222, -0.09577997029, 0.04623311386, -0.06653148681, -0.03471090645, 0.11633079499, -0.10044634342, -0.00935282558, 0.10194694996, -0.08659694344, -0.05455278605, 0.02439856716, -0.01358035672, -0.00527823484, 0.01014105231, 0.00186912320, 0.04726127163, -0.04037350789, -0.05219898000, -0.07185620070, -0.04176004231, 0.00421474734, 0.00255601481, -0.03514738753, 0.03170547634, 0.04443978146, 0.71120107174, -0.07547929883, 0.15282043815, 0.31595015526, 0.00072222314, -0.37906730175, -0.01505790558, 0.10889066011, -0.06257575750, -0.06783419102, 0.00126263802, 0.13685823977, 0.01934244670, 0.24884255230, 0.11795625091, -0.18859551847, -0.09302616119, 0.19770710170, -0.05356291682, 0.00972574018, 0.04513954744, 0.04286060855, 0.03654327616, 0.14392730594, 0.02105019428, 0.06498497725, 0.13046428561, -0.06665216386, -0.03103219904, -0.00709049124, 0.05842218176, 0.07263357937, -0.03550655395, 0.03205955401, 0.05093842372, 0.03533905745, 0.05261548236, -0.05267334357, -0.05584612489, 0.06536925584, 0.04379272461, 0.06713628769, 0.12065743655, 0.03845827281, 0.10342571884, 0.01728579961, -0.05386354029, -0.09063744545, 0.12108615041, 0.14243716002, 0.05015524477, 0.05483070388, 0.09414663911, -0.09121109545, 0.05783432350, 0.05387952924, 0.10123835504, -0.06799323857, 0.01206006948, -0.11357384175, 0.09142995626, -0.16038696468, -0.08014013618, -0.05498128012, 0.03662030026, 0.07045255601, -0.07571423799, 0.18930980563, 0.16992737353, -0.00783994608, 0.01732812263, -0.05765890330, -0.05050800368, 0.07651179284, -0.01120482385, -0.00463324785, 0.21139748394, -0.06334449351, 0.10258466005, 0.10365028679, -0.08247751743, -0.16718819737, 0.02416124754, -0.04169618338, 0.02964449488, -0.00746956654, -0.02500331029, 0.00498131802, -0.19954355061, -0.06336558610, 0.37557360530, 0.13155782223, 0.69601410627, 0.78910934925, 0.66145586967, 0.11106706411, 0.09935478121, -0.00566926692, -0.04161905870, 0.11008770019, -0.10204088688, -0.04459798336, 0.23790025711, -0.03741946444, -0.09656555951, 0.11874720454, -0.02612194605, -0.06625995785, 0.12662541866, -0.01270547695, -0.06336621195, 0.03799101338, -0.02308381721, -0.02596869320, 0.04583963752, -0.01390933990, -0.03013892099, 0.05254879594, -0.05297822505, -0.02248345129, 0.05831483379, -0.01239846926, -0.05261086300, 0.02940681390, -0.04359687120, 0.03298958763, 0.10328701884, -0.01105669606, -0.06543980539, 0.09586890042, -0.08197867125, 0.02798669785, 0.02242279425, -0.04270419478, -0.03931964934, 0.05416706577, -0.04713238031, 0.03638218343, 0.04794387892, 0.01960889064, -0.03846533597, 0.02497878484, -0.00044063889, 0.00843081623, 0.05716619641, -0.01117844228, -0.06863199919, 0.05841971189, -0.01851144806, 0.04085603356, 0.07037103176, 0.04406924546, -0.04012402147, 0.06622402370, -0.02545668930, 0.02147547901, 0.03999219835, -0.03631854430, -0.05639588460, 0.11062154174, -0.04572717473, 0.02949469723, 0.04168337956, -0.00743691437, -0.07823226601, 0.05598237365, -0.00478030834, 0.09769500792, 0.03286982328, 0.00119079545, -0.05251311138, 0.02729240805, -0.04044366628, 0.04024476558, 0.03724441305, 0.07352998108, -0.01458763704, 0.04126881436, -0.02025620081, 0.03714182973, 0.09182123095, -0.00242813583, 0.10271883756, -0.16856575012, -0.02302384004, 0.28549882770, 0.21310605109, 0.18542322516, 0.24593298137, -0.21708868444, -0.04175722599, -0.03976863623, -0.13122907281, 0.16974373162, -0.00883177854, -0.14582920074, 0.17832987010, 0.36548438668, 0.23475809395, 0.13364113867, 0.03304611519, -0.14022487402, 0.09573435038, 0.16817943752, 0.09909510612, 0.01633877307, 0.06480443478, 0.07954072207, -0.05844870582, -0.06631474197, 0.21227911115, 0.22140824795, 0.07949347794, -0.13187757134, -0.11986080557, 0.22082617879, 0.18694657087, 0.15981931984, -0.02161558345, -0.04144166037, -0.09525765479, 0.11698362976, -0.05180523545, -0.00221079099, 0.04685240239, -0.18542289734, -0.16657646000, 0.20402050018, -0.00226996583, 0.14001925290, -0.10142042488, 0.19250662625, 0.02287019603, -0.11025723815, 0.00428689271, -0.11036320776, 0.25863280892, 0.02169540338, 0.05529931188, 0.10545061529, 0.09473814070, 0.07973906398, 0.02004346438, 0.08913793415, 0.02120846324, 0.03505999222, 0.09838715941, 0.18911540508, -0.12887333333, 0.11737214774, 0.08206658065, 0.27978262305, -0.13355414569, 0.13308721781, -0.01102956291, -0.05099803209, -0.16907696426, -0.01976684295, 0.03689122945, 0.15436074138, -0.06455513090, 0.04376834631, 0.06116878241, 0.06055272371, 0.19674591720, 0.02852883190, 0.02493761294, 0.06982932985, -0.11797854304, 0.23218369484, 0.05315863341, 0.10742720217, -0.04751124978, 0.04566146806, -0.15306453407, 0.05582933873, -0.04893243313, 0.13129755855, -0.04015656188, 0.12980356812, -0.02827890217, -0.05466252938, -0.01491715107, -0.00916551426, 0.23023612797, 0.01542055607, 0.05255132541, -0.10962100327, 0.08841989934, 0.15422932804, 0.03096997924, -0.10824023932, 0.06537821889, -0.06106703728, -0.05724614114, -0.02010299824, 0.17406727374, 0.07149469107, -0.13674996793, 0.08220694959, 0.16686420143, 0.21572127938, 0.07923477888, 0.13609178364, 0.18655438721, 0.09021799266, 0.24816064537, 0.02923346870, 0.27999302745, -0.07559624314, -0.15832592547, 0.18029862642, -0.15230780840, 0.14172621071, 0.26810976863, 0.11429596692, -0.15008674562, -0.14010885358, -0.10518217087, -0.00502471766, -0.08451166004, -0.04027719423, -0.01985416189, 0.25584238768, 0.00541161047, 0.21528135240, 0.26476258039, -0.16879811883, -0.06329254061, -0.09510171413, 0.16732805967, 0.03760151565, -0.05638355762, 0.04315764457, 0.11693250388, 0.09557268023, -0.15594872832, 0.04378636181, -0.07097314298, -0.09619967639, 0.10365868360, 0.04614426196, 0.05579099432, 0.15988062322, 0.22042459249, 0.02227163129, -0.19668807089, 0.19811426103, 0.00248289225, 0.23257154226, 0.10666273534, 0.05732768774, -0.07247669250, -0.04931761324, 0.05749382824, 0.00004202282, 0.03785494715, 0.14039389789, -0.10204926133, 0.14258193970, -0.03048237227, -0.00139307708, -0.14064098895, 0.04454085976, -0.09010273963, 0.21251916885, -0.15986937284, 0.01836510003, -0.15753567219, -0.20042106509, -0.29103714228, 0.33033829927, -0.10598582029, -0.00731750485, -0.15039937198, -0.13522322476, -0.20320396125, 0.28679326177, -0.11919699609, 0.03726488724, -0.09480143338, -0.14818027616, -0.13621085882, 0.21954354644, -0.12080451101, 0.05189620331, -0.08182030171, -0.12856422365, -0.15162941813, 0.27876847982, -0.08109174669, 0.05460606143, -0.04911142960, -0.14709693193, -0.03862123191, 0.24915221334, 0.01366688963, 0.07283254713, -0.06643082201, -0.04324898869, 0.00185041479, 0.17461089790, 0.01733114012, 0.07079132646, -0.03425845504, -0.10236741602, 0.03448006138, 0.17203290761, 0.00056431885, 0.05969592929, -0.02817289531, -0.12285526097, 0.02643827535, 0.14506216347, 0.08535204083, 0.00922545139, -0.05449113995, -0.03619543836, 0.09279999882, 0.15411536396, 0.01537350658, 0.07283668220, -0.03962644190, -0.08644049615, 0.09985983372, 0.11762340367, 0.01460330468, -0.03152416646, -0.02547930740, -0.02425873093, 0.04404729232, 0.12788428366, 0.02197469771, 0.02608781122, -0.03759848699, -0.03974353150, 0.10363610089, 0.11510320008, 0.04907395691, 0.03080681898, -0.05730466172, 0.02744613029, 0.05186471716, 0.11383237690, 0.10122023523, 0.00473672943, -0.06824929267, -0.02588480897, 0.06768235564, 0.18282550573, -0.05756142735, 0.02835771255, -0.10939019173, 0.02790267020, -0.04283156246, 0.40494683385, 0.03406060860, 0.01555854362, -0.16259594262, 0.00008415163, -0.02747674845, 0.34183248878, -0.04392911121, 0.04601924494, -0.06294499338, -0.13774657249, -0.00527811004, 0.29708260298, -0.01322298404, 0.05967683718, -0.06474235654, -0.13277882338, 0.08936911076, 0.27813711762, 0.02508026734, 0.08531058580, -0.12631529570, -0.10008012503, 0.05307409540, 0.35060775280, 0.16882152855, 0.02214491740, -0.13415226340, -0.07231099904, 0.11933753639, 0.26627650857, -0.00281560258, 0.02709323913, -0.02704583481, -0.22288613021, 0.11360136420, 0.34328594804, 0.06941434741, 0.07825524360, -0.08027264476, -0.13326552510, 0.07231738418, 0.31784704328, 0.08134031296, 0.03815404698, -0.04985472932, -0.17798684537, 0.05624197423, 0.32517826557, 0.12799938023, 0.11993331462, -0.09449642897, -0.07100161165, 0.10728375614, 0.30903100967, 0.11912408471, 0.08331202716, -0.02941330336, -0.09081175178, 0.04334854335, 0.31965801120, 0.09883552790, -0.00843659136, 0.00538495881, -0.07804257423, 0.08431856334, 0.36656489968, 0.12531910837, 0.04410906509, 0.03430455178, -0.07261434942, 0.04461775348, 0.30413317680, 0.14591053128, 0.01144371368, 0.03849408776, 0.09523780644, 0.15236181021, 0.35774031281, 0.23062668741, 0.04712714255, 0.00880151615, 0.06526847929, 0.16954284906, 0.33035781980, -0.06590031087, 0.09168604016, 0.01283913385, -0.12427821010, 0.00751721021, 0.09083731472, -0.16856360435, 0.19427318871, 0.09097483754, -0.26517859101, -0.05190039054, 0.15896584094, -0.20946408808, 0.21256810427, 0.14158956707, -0.20325551927, 0.10805265605, 0.23547209799, -0.02183679119, 0.20682254434, 0.09413956851, -0.01992959529, 0.11471638829, 0.13787563145, -0.00837426819, 0.11927935481, 0.09150390327, 0.04369580746, 0.10072231293, 0.09196518362, 0.07289035618, 0.03315308318, -0.00418935204, 0.11190997809, 0.04998380691, 0.05770666897, 0.09538079053, 0.04513349012, -0.02467050217, 0.13378231227, 0.08453494310, 0.05684464797, 0.08944131434, 0.01079359930, -0.07151358575, 0.13726183772, 0.04968894273, 0.07756413519, 0.02821852267, -0.04272639379, -0.06652332097, 0.24260410666, 0.02193181776, 0.12608239055, 0.02544569038, -0.02383091301, -0.05677714571, 0.35532471538, -0.04233291000, 0.08469366282, 0.16366522014, -0.05383552983, -0.10271126032, 0.24122574925, 0.03562989086, 0.12789660692, 0.03010643460, -0.14068071544, -0.13370159268, 0.18577800691, -0.13158401847, 0.14902825654, 0.06336588413, -0.05491058528, -0.06566883624, 0.24374198914, -0.12219414115, 0.08040767908, 0.06389989704, -0.07181207091, -0.00605125213, 0.33941853046, -0.10387974977, 0.15533660352, -0.02920456603, -0.06008214131, -0.01743461378, 0.27496010065, 0.01928472146, 0.18859009445, -0.10341344774, 0.10123842955, 0.03744566441, -0.03777921572, -0.18974769115, 0.17877414823, 0.03500047326, 0.12550581992, -0.02204714157, 0.09705346823, -0.19251702726, 0.16383185983, 0.02888923883, -0.14363414049, 0.03172775730, -0.15078318119, 0.01985352673, 0.17283530533, 0.08862476796, 0.13648475707, 0.09329417348, -0.12239618599, -0.13440684974, -0.04990237951, 0.15309435129, 0.26186567545, 0.11033714563, -0.07994002849, 0.03082663380, 0.06310672313, 0.20362611115, 0.06624951959, 0.16332593560, 0.09861417115, -0.08941160142, 0.17911975086, 0.19004137814, 0.03140753880, 0.06786443293, 0.08130624145, -0.06708593667, -0.06349617243, 0.06012505665, 0.07209950686, -0.11116269231, -0.09133755416, 0.08003267646, 0.04010922462, 0.02175301872, -0.05745872855, -0.07899136841, 0.07639758289, -0.24414625764, -0.03432813659, -0.10416036099, 0.11173925549, -0.03214231133, 0.05417546257, 0.14468209445, -0.03421971202, -0.16836032271, -0.06384585798, -0.26889756322, -0.04050875083, -0.46370050311, -0.04538146034, 0.11004819721, -0.12947425246, 0.12149555981, 0.11615525931, 0.13835804164, 0.07363647968, -0.14379632473, 0.07739368826, 0.02434088476, -0.29241195321, -0.05456831306, -0.02777149528, 0.29716667533, 0.01742969826, -0.01740927063, 0.23456420004, -0.00293567125, 0.07186874747, -0.03204289079, -0.08908952773, -0.04273025692, 0.10589075834, -0.02013232931, 0.11663573235};
#endif

#endif
