//Numpy array shape [2, 32, 4]
//Min -0.557130455971
//Max 0.500120818615
//Number of zeros 0

#ifndef ATTENTION_OUTPUT_WEIGHT5_H_
#define ATTENTION_OUTPUT_WEIGHT5_H_

#ifndef __SYNTHESIS__
q_multi_head_attention_default_t attention_output_weight5[256];
#else
q_multi_head_attention_default_t attention_output_weight5[256] = {-0.251073152, -0.159475312, 0.353135347, 0.228274420, -0.161094010, 0.105903208, 0.207794353, 0.155318886, -0.292631060, 0.230995521, -0.235033125, -0.247095570, -0.059928752, -0.114504956, 0.182266459, -0.255790323, 0.182195693, -0.000981399, 0.085527569, -0.221329525, 0.237940326, 0.383253962, -0.379205495, 0.342348754, 0.270585120, -0.193618432, 0.020558586, 0.061317012, 0.176587507, 0.244964793, -0.278246969, 0.209947705, 0.220241740, 0.106243327, -0.410323977, -0.233770713, 0.152937710, 0.395379215, 0.043331530, 0.300745159, 0.280747056, 0.069324799, -0.071703039, 0.182846501, -0.201427087, -0.155122250, -0.196060315, 0.148923293, -0.400080979, -0.343613327, 0.009286690, -0.083006606, -0.037156761, -0.180718735, 0.435638726, -0.010186317, -0.178979099, -0.042630728, -0.011209538, -0.344314784, 0.335036516, 0.285255015, -0.221335158, -0.238586023, 0.051751144, -0.007339299, 0.427278429, 0.123616368, -0.114943579, 0.057282958, -0.090056285, -0.298638314, -0.421034873, -0.072505482, 0.443100214, -0.138011694, -0.289505571, 0.316087991, 0.053394396, -0.134696156, -0.192114070, 0.109893732, 0.467933536, 0.228825793, -0.393034190, -0.332673550, 0.308973730, -0.161962673, -0.047653560, -0.111258835, -0.138921455, -0.079105072, -0.389072955, 0.303863317, 0.204303280, -0.248657420, -0.129013360, 0.235623538, 0.202721193, 0.236909434, 0.343175411, 0.174611464, -0.351186901, -0.112409770, 0.082230031, -0.022224346, -0.142641231, -0.353971928, -0.187992513, 0.271296650, -0.304244965, -0.292136461, 0.318670332, -0.028823875, -0.336380392, -0.307106525, 0.431483656, 0.282185853, -0.250906110, 0.136017352, 0.286993235, 0.155739203, -0.041800033, 0.200627521, -0.200482428, -0.003784092, 0.392466605, 0.092655845, -0.054090030, -0.241456658, 0.127354667, 0.145776898, -0.131646648, 0.152431995, 0.279277116, -0.084122911, 0.337776721, -0.439440638, -0.244472653, -0.112074837, -0.281370789, 0.254925251, -0.238417774, -0.088776089, -0.313220322, 0.222803608, 0.453589559, -0.367888361, 0.285070181, 0.347729534, -0.016767187, 0.121487848, -0.029930620, -0.153410912, -0.379790902, -0.045667060, 0.301022917, 0.500120819, -0.273181707, 0.304654837, -0.341138721, -0.557130456, 0.315784961, -0.408607066, -0.075106047, -0.454770148, 0.357380599, 0.214341313, 0.034514166, 0.366368234, -0.014885708, 0.218613684, 0.296151817, 0.020619242, 0.251192689, 0.003833339, 0.340228021, 0.234975830, -0.347216040, 0.376470417, 0.081198543, 0.087729558, 0.356250852, -0.345333338, 0.169073910, 0.070275657, -0.044075754, -0.072748408, 0.377509236, -0.139824659, -0.266328543, 0.346785456, -0.183330372, -0.236090228, 0.170221016, -0.000600137, 0.146401718, 0.291589707, 0.004298213, 0.368548661, -0.187333375, -0.090441503, 0.038555525, -0.192524910, -0.254063815, 0.016801987, -0.149252251, -0.146034315, -0.318188220, -0.254876673, 0.363369554, 0.134855092, 0.332468539, 0.259004384, -0.091246694, 0.128027990, 0.092964403, -0.003493530, 0.258319259, -0.005620572, -0.137643903, -0.530147970, 0.473249495, -0.244156092, -0.146609023, -0.347660035, 0.103649147, 0.194231495, -0.032642957, -0.165765435, 0.373341143, -0.345059931, 0.011157391, 0.215781882, -0.187280506, -0.212879345, 0.192869291, 0.350946069, -0.136102930, -0.246180475, -0.100339890, -0.148914874, 0.124128260, 0.391160071, 0.119569801, 0.259296238, 0.291566640, 0.088096373, 0.067174628, -0.136833057, 0.026701696, -0.117275894, 0.320858747, 0.055247366, -0.208629891, 0.203734294};
#endif

#endif
