0.236241534, -0.043148927, -0.287490636, -0.192410395, -0.145442650, -0.294265628, 0.043954916, -0.141276747, 0.195668221, -0.166632757, 0.058861189, 0.257874638, -0.084884241, -0.041919954, 0.153393522, 0.283791631, 0.299787760, -0.116823845, 0.202448800, 0.241657183, 0.023699641, -0.025080189, -0.132532761, 0.132918134, -0.121100262, -0.237143680, 0.242003664, 0.243780658, -0.271117866, -0.114883736, -0.224537224, -0.003652100, -0.036691573, -0.038631890, 0.197811142, 0.024108574, -0.124526247, 0.003857596, 0.128120422, -0.069677353, -0.183177754, 0.057898905, -0.100160189, -0.328511477, -0.243349940, -0.205285907, 0.212211713, -0.209090039, 0.206748977, -0.206408277, -0.266595095, 0.263231009, 0.030704051, 0.096144870, 0.043463267, -0.001186193, 0.214906827, 0.005015257, 0.277128011, -0.114462882, 0.141230568, 0.185781181, -0.065088712, 0.194194853, -0.269512296, 0.268338740, 0.177325398, -0.335572004, -0.095306359, 0.036749195, 0.296146661, 0.326643407, 0.174034566, 0.299551040, 0.264390498, 0.258258224, 0.229941055, -0.080890752, 0.250322878, -0.104163796, 0.193109065, 0.355578691, -0.337799639, 0.022338711, -0.255172521, -0.276827425, -0.195513770, 0.118780561, 0.075946845, 0.164864585, 0.039822735, 0.133064538, 0.062990800, -0.294683963, -0.095285431, -0.268100709, 0.007598809, -0.293307304, -0.325800896, 0.511669934, 0.608637333, 0.292926043, -0.312638491, 0.139172524, -0.601481497, -0.302424729, -0.494170636, 0.008871922, -0.253861070, 0.133848131, -0.383980513, -0.291441828, -0.212473825, -0.370229602, 0.371965349, -0.208614245, 0.083790869, 0.471419394, 0.330642045, -0.032995377, -0.416219652, 0.012390486, -0.212645322, -0.242180496, -0.017017519, 0.514921725, 0.443838775, 0.028168362, -0.168153852, 0.162186995, 0.092520386, 0.096837342, -0.057212561, 0.198496714, -0.227852955, -0.116095155, 0.132078603, -0.089306988, -0.176713392, 0.172323599, -0.227212667, -0.127667353, -0.089274958, 0.150527731, 0.030013816, 0.225752130, 0.243721232, -0.172895819, -0.100108601, 0.042685650, 0.185087800, 0.221206129, -0.021404611, 0.256818086, -0.063654155, -0.051977910, -0.195046932, 0.051781170, 0.120453395, 0.154117599, 0.001990963, -0.200560987, 0.166692942, -0.054413844, 0.212070271, -0.220459774, 0.132965952, -0.032905199, -0.116242096, 0.054789539, 0.007553051, -0.078860700, 0.018279666, -0.152121454, -0.192961589, -0.042409591, -0.134533167, 0.162245482, 0.241903260, 0.192665100, 0.199893847, -0.062693164, -0.217340767, -0.022112155, 0.015062970, -0.115728870, -0.363815516, 0.137689024, -0.114238746, -0.197976634, 0.267945707, -0.161311463, -0.037956662, 0.169908553, 0.144418076, -0.142555818, -0.206442267, 0.015351857, 0.252594978, -0.050642923, 0.184084043, 0.203838959, -0.033497844, 0.145120382, 0.067461528, -0.132834166, 0.007341235, -0.080945477, 0.076467961, 0.255013883, 0.228715479, 0.047488429, -0.224322736, -0.251910269, 0.158717364, -0.144807532, -0.151858196, -0.292116195, 0.045130827, 0.222485706, 0.074438505, -0.162445024, -0.111691251, -0.078696966, -0.455859482, 0.238623098, -0.318797857, -0.156571567, 0.038996100, 0.261062503, -0.364761204, 0.301977068, 0.302405208, -0.129384488, 0.068923920, -0.150716573, -0.162178576, -0.401694655, -0.041362595, 0.271974534, -0.333526194, -0.489475250, -0.435004383, 0.212698415, 0.155830786, -0.006061054, -0.146155477, -0.131070390, 0.266670436, 0.399425358, 0.088543147, -0.002678214, 0.335682809, 0.417681187, -0.007923505, -0.138998076