//Numpy array shape [2, 4, 32]
//Min -0.421177953482
//Max 0.510431349277
//Number of zeros 0

#ifndef KEY_WEIGHT5_H_
#define KEY_WEIGHT5_H_

#ifndef __SYNTHESIS__
q_multi_head_attention_default_t key_weight5[256];
#else
q_multi_head_attention_default_t key_weight5[256] = {-0.224807873, 0.061133765, -0.172528252, -0.047558360, -0.271346688, 0.157092527, -0.007101117, 0.054713260, -0.045325749, -0.196529761, -0.231636822, 0.019621698, 0.135605529, -0.103082359, -0.214788958, 0.113323577, 0.213196531, 0.046311051, 0.015399902, -0.166939080, -0.020192411, -0.262653500, 0.083682597, -0.257568628, 0.192773312, -0.164128795, -0.183423340, 0.321715146, -0.212652758, 0.225067750, 0.351162374, 0.070917204, -0.421177953, 0.504504442, -0.132411540, 0.024112679, 0.506847501, -0.025379580, 0.382084429, -0.180185676, -0.313405275, 0.038260471, 0.038563348, -0.197322980, -0.301149815, 0.510431349, 0.223758921, -0.242778480, -0.042169090, 0.154291958, -0.125320360, -0.367228270, -0.153406397, 0.037453800, 0.394603789, -0.254481405, -0.289016992, -0.052743357, 0.066559285, -0.054873299, 0.278251737, -0.277049750, -0.206709340, -0.345559776, -0.105312742, -0.101889350, 0.121805765, 0.011604968, 0.238041461, 0.004031272, -0.062502250, 0.071814932, 0.158871099, 0.001959394, -0.273103207, 0.013070315, -0.113258772, 0.074196510, -0.169482619, 0.020340590, 0.387859523, -0.176687866, -0.108452536, 0.041253574, -0.071472600, 0.104380310, 0.050043810, 0.131221756, 0.290409684, -0.079310067, 0.130005002, -0.381147772, -0.051588204, 0.028410582, 0.258801132, 0.236705169, 0.157733500, -0.381223023, 0.307755202, 0.130625427, -0.369024068, 0.072911635, -0.081192695, -0.219743371, 0.329366297, 0.069863312, 0.176356792, 0.046202049, -0.234772116, -0.000351715, -0.271427870, 0.267599285, -0.333847791, -0.199565500, 0.290723681, 0.003349040, 0.041343864, 0.258059204, -0.132243544, -0.260773629, -0.019465702, 0.244388804, -0.394092500, -0.080252394, -0.043356162, 0.271527648, 0.261448383, 0.335401565, 0.375071377, -0.071710549, 0.082865417, 0.077911071, 0.217492223, 0.016344491, 0.335433424, 0.214541480, -0.335533410, 0.297867417, 0.083550818, -0.171848297, -0.008668850, 0.290666223, -0.028155971, 0.179489434, 0.157729313, 0.306964159, -0.381060362, 0.015445125, 0.010183162, -0.319284588, -0.213816360, 0.031529382, 0.106838360, -0.231554776, 0.132802263, -0.078029908, -0.032821670, -0.330440670, -0.383891255, 0.063271359, 0.091815330, -0.084512457, -0.026764153, 0.240354195, 0.109762661, -0.201599717, 0.160636157, -0.157198384, 0.030467102, 0.125016466, 0.139009029, -0.249568358, 0.198925123, -0.055139706, -0.060594860, 0.209101766, -0.259665668, 0.173229232, 0.054721147, 0.076614827, -0.126076207, 0.003079266, -0.248015508, -0.098945796, 0.248111531, -0.000770306, 0.119250238, -0.058048733, -0.150029317, 0.274726808, -0.122563146, -0.275307119, -0.202616289, -0.255894184, 0.121740609, 0.012704038, 0.216870010, 0.117948622, -0.174526453, -0.182340086, 0.279199511, 0.066912048, -0.392946541, 0.291588217, 0.037949957, 0.104341745, -0.124919839, -0.140860021, -0.220693722, -0.268271089, 0.313045263, 0.253720790, 0.212633356, 0.277184218, 0.018307889, 0.340908676, 0.105496749, -0.003887368, -0.115907818, -0.177427977, 0.177477822, 0.050750922, 0.244095802, 0.248160943, -0.164023086, -0.024203403, 0.184252247, -0.024384404, 0.125653952, 0.109783545, -0.082730725, -0.179016083, -0.039077748, 0.154077798, -0.231932625, 0.313494325, -0.135961801, -0.191218764, 0.140887976, 0.151979133, -0.316608608, -0.315506816, 0.043768566, 0.219249323, 0.247379497, 0.287327260, 0.255525827, 0.184007719, -0.062063895, 0.201114193, 0.027622947, -0.085532509, -0.019720472, 0.161359712, 0.292547941, 0.282190502};
#endif

#endif
