//Numpy array shape [2, 4, 32]
//Min -0.393266737461
//Max 0.360018223524
//Number of zeros 0

#ifndef VALUE_WEIGHT5_H_
#define VALUE_WEIGHT5_H_

#ifndef __SYNTHESIS__
q_multi_head_attention_default_t value_weight5[256];
#else
q_multi_head_attention_default_t value_weight5[256] = {0.318186343, 0.194468871, 0.092744194, 0.182714418, -0.105172232, -0.215201914, -0.179528415, 0.196873128, -0.219447568, -0.270710111, -0.180552825, -0.168407097, 0.006688161, 0.198332652, 0.297984570, 0.017077884, -0.118719570, 0.198691756, 0.306465507, 0.003905097, 0.063988499, 0.123624384, 0.198550686, -0.203637749, 0.203151718, -0.244085386, -0.045073796, -0.075285949, -0.263561517, 0.174323529, -0.173823729, 0.063739806, 0.000044274, 0.064362086, -0.198325142, 0.081822291, -0.072433606, 0.232058540, 0.035718083, 0.301903814, 0.243973598, 0.176716328, -0.033245087, 0.225519255, -0.220745936, 0.050208230, -0.148797587, 0.025703369, -0.255764306, -0.234086335, 0.103228696, -0.128440619, -0.093716040, -0.168909386, 0.110421784, 0.132223591, -0.271282852, -0.172445878, -0.041941978, 0.111765154, -0.092997931, -0.092223547, -0.109950058, -0.311524749, 0.161354512, 0.240575016, 0.134720743, -0.178185284, 0.038218237, -0.165680721, -0.081922218, -0.049060076, -0.044906486, 0.003677151, -0.154094636, 0.001147402, -0.037207358, 0.250793517, 0.025671355, -0.382312953, 0.028487485, -0.186546087, 0.339716554, 0.051012680, 0.266552448, 0.247096434, 0.134866983, 0.044490665, -0.061127394, -0.261586457, -0.144633189, -0.031128027, -0.393266737, -0.335239589, -0.219338402, 0.111137703, 0.007597811, -0.308990896, 0.161833644, -0.070573606, 0.029442379, -0.158394977, -0.044797692, 0.314674020, -0.005176935, 0.213724509, -0.099488936, -0.082549132, -0.302180797, -0.253994524, 0.111580782, 0.065972522, -0.256522030, 0.045711778, -0.079069883, -0.091247573, -0.123524420, -0.051924527, -0.182374090, -0.279726624, -0.118628964, -0.032325357, 0.075793616, 0.089494750, -0.041247994, 0.305061370, -0.011171347, 0.019401645, 0.007572533, -0.105342366, -0.174629197, 0.223735139, 0.017125359, 0.344292223, 0.211853340, 0.354265124, -0.380992591, 0.140159473, -0.004238798, -0.019472564, -0.036544301, 0.105714418, -0.100059196, 0.270491540, -0.123995721, 0.260056317, 0.138659403, 0.117990993, -0.308938771, -0.074961320, 0.092702329, 0.110218406, -0.281861603, -0.077461325, -0.063296311, 0.165795222, 0.080854587, -0.153951943, -0.105440125, 0.001517171, 0.125419497, -0.049672782, -0.293364048, -0.084931381, 0.224117801, -0.156517625, 0.137573346, -0.015028085, 0.266602814, -0.082227118, -0.220197782, 0.092623658, -0.233077481, -0.033461921, -0.269523650, -0.110639155, 0.267221510, -0.063835189, 0.197670266, -0.179317772, 0.010558857, 0.219365343, -0.043933328, 0.214213371, -0.240746051, 0.067465521, -0.075406641, -0.083192624, -0.122590862, -0.039360449, -0.112806760, 0.067249350, -0.200207740, 0.166104451, 0.085473917, -0.033083864, -0.281829953, 0.293119550, 0.360018224, 0.356153518, -0.152246892, -0.271904647, 0.220387638, -0.095475145, 0.349470794, -0.297744364, -0.114321776, 0.072759256, -0.140080273, 0.178938568, -0.103699349, -0.030225307, -0.273038208, 0.272075742, -0.307330430, -0.356767744, -0.199102268, -0.185184851, 0.282720685, 0.218413711, 0.017248986, 0.121270493, -0.048502520, 0.264308363, -0.063992418, 0.190909967, 0.171205327, 0.038977094, -0.027473141, 0.036660407, -0.086823657, -0.156050086, 0.234436214, 0.312829137, -0.083698735, -0.018266946, -0.019206129, -0.073068336, -0.313709915, -0.262154996, 0.002831131, -0.212413386, -0.082013160, 0.031891525, 0.120865718, -0.281258464, -0.126642093, 0.348695755, 0.168512866, 0.092907019, -0.135159105, -0.070157528, 0.127490118, -0.030146059, 0.096373163, -0.261325121};
#endif

#endif
