//Numpy array shape [2, 6, 32]
//Min -0.435661405325
//Max 0.469881117344
//Number of zeros 0

#ifndef QUERY_WEIGHT9_H_
#define QUERY_WEIGHT9_H_

#ifndef __SYNTHESIS__
q_multi_head_attention_46_default_t query_weight9[384];
#else
q_multi_head_attention_46_default_t query_weight9[384] = {-0.15229636431, 0.08772788197, -0.22539304197, 0.21259206533, -0.03203414753, -0.08861762285, -0.22127658129, 0.03785040230, 0.07726056874, -0.10131595284, -0.24643635750, 0.08495724201, -0.08353420347, 0.08583417535, -0.06964588165, 0.10163801163, 0.00504388195, 0.12756888568, 0.20614853501, 0.05040311441, 0.00516827311, 0.25422954559, 0.19578494132, 0.07801388949, 0.09236593544, 0.13867940009, -0.06845530123, 0.00387839926, -0.21925754845, -0.03485476971, 0.00424712943, -0.00191614532, -0.09257420897, 0.27432298660, 0.28515127301, 0.02398935333, 0.35575637221, -0.31208679080, -0.16666083038, 0.29291421175, 0.21525305510, 0.19076457620, 0.16365824640, 0.14850020409, -0.05886540934, -0.14513663948, 0.08361369371, -0.01932540908, 0.17977510393, -0.08003227413, 0.13142536581, 0.22138516605, 0.22294659913, 0.11227340251, 0.00735749304, -0.00748188375, 0.16897600889, 0.12478612363, -0.20254397392, -0.23955371976, -0.26435512304, 0.08421540260, 0.14129833877, 0.25842297077, 0.09454556555, 0.15477935970, 0.15462331474, -0.08553414047, 0.14042760432, -0.21407221258, 0.11126407236, 0.23257350922, -0.07445526123, 0.09409819543, 0.10235667229, 0.46549135447, 0.12349411100, -0.05782554671, -0.10954555124, -0.26889431477, 0.07354981452, 0.19529372454, -0.09713447839, 0.15726399422, 0.03639785945, -0.13327889144, 0.13531185687, -0.11864875257, -0.21848458052, 0.10103640705, 0.06205405667, -0.12973986566, -0.04606572911, 0.33725416660, 0.39419606328, -0.06432163715, -0.03931548446, 0.19322937727, 0.08368939906, 0.15499165654, 0.22810934484, 0.00023973719, -0.19324325025, -0.02716286667, -0.16757024825, 0.37441951036, -0.43477788568, -0.30290111899, 0.04288264364, -0.13884508610, 0.05666848272, 0.00453603547, 0.14689771831, 0.15021432936, -0.23132242262, -0.08653093874, 0.01088255271, -0.03622652590, 0.13619643450, 0.09388891608, 0.26539477706, 0.09329672903, 0.18681177497, 0.00624058116, -0.29499393702, -0.13935934007, -0.18943665922, 0.02384285443, 0.06154890358, -0.09631856531, -0.03008005023, -0.17112936080, -0.02998129092, -0.07111921161, -0.02322128601, 0.11260113120, 0.02129743248, -0.09377487749, 0.12830048800, -0.06759691983, 0.14653699100, 0.10364358127, 0.05405954644, 0.01664029248, -0.03381048515, -0.03422986344, 0.06067837030, 0.12481094152, 0.04956667125, 0.09087381512, -0.10482162237, -0.08403676003, 0.00970534328, 0.14933110774, 0.06765442342, -0.07775533199, -0.08471907675, -0.06146599725, -0.15404911339, -0.12466275692, 0.02625646815, -0.23397433758, -0.43566140532, -0.17075817287, -0.12844794989, -0.09678038955, -0.06377205998, -0.11764679849, 0.20907655358, -0.00830511376, -0.15490563214, 0.11832896620, -0.23679913580, -0.07227628678, -0.16545638442, 0.31310883164, 0.14333108068, -0.04533788562, 0.07277812809, 0.03867198527, 0.22485101223, 0.22843551636, -0.07300066203, 0.08804668486, -0.19782868028, -0.01419266965, -0.10021126270, 0.02973775193, -0.17791450024, -0.20537738502, 0.27478399873, -0.21962986887, -0.12406709790, 0.09395452589, 0.15650260448, 0.15385133028, 0.06070338190, 0.18590542674, 0.16450795531, 0.00883188844, 0.33484089375, 0.01062721293, -0.09342060983, -0.13373395801, 0.10156207532, -0.30702888966, 0.09098499268, 0.00457448140, 0.00679398980, -0.07698584348, 0.26147687435, -0.15378502011, 0.11141430587, -0.08577301353, -0.25681838393, 0.01597805135, -0.02140319161, -0.03482938185, 0.01752136089, -0.21649885178, 0.02497236617, -0.03713445738, 0.07083479315, 0.20211657882, 0.00113221991, 0.16347610950, -0.24310442805, -0.03489298001, -0.10447317362, -0.06269082427, 0.27300855517, -0.22048643231, 0.10933963954, 0.36653783917, -0.06901153177, -0.05505726114, -0.07859199494, -0.15845711529, 0.05908110738, -0.32779580355, -0.00237237592, 0.00884013344, -0.07735461742, 0.24753353000, -0.39603486657, 0.01391894277, 0.05976460874, -0.29759383202, -0.09510474652, 0.01441921573, -0.11523580551, 0.01327410620, -0.29380610585, -0.18672378361, 0.04110951349, 0.02265044488, -0.06219466403, -0.17760704458, 0.10002753139, 0.34238034487, 0.08892431110, 0.26282358170, -0.12636922300, 0.06277114898, 0.28419372439, -0.09292718023, -0.19295911491, -0.16784620285, 0.14463432133, 0.07884997874, 0.09310130030, -0.03350754827, 0.11334607750, 0.00378494663, -0.01155315712, -0.19273024797, 0.05381853133, 0.00743055809, -0.34269157052, 0.18250645697, -0.25411984324, 0.02147693560, 0.04779018089, 0.13373464346, 0.10506016761, 0.21106469631, -0.00851478335, -0.06302963942, -0.13576593995, 0.14497612417, -0.12894767523, -0.24865879118, -0.09251198918, -0.06214007735, 0.09195743501, -0.21209937334, -0.39441052079, 0.04023836181, 0.03830469772, 0.14821074903, -0.06516553462, 0.04585967958, -0.28108531237, 0.12488981336, -0.09040454775, 0.12466336042, -0.21530282497, 0.12690377235, -0.03166736290, -0.19848290086, 0.46953243017, 0.05096804723, 0.24129115045, 0.18541213870, 0.21068367362, -0.07505287975, -0.24277803302, -0.31397542357, 0.29378339648, -0.01766637899, 0.03671866655, -0.03479340300, 0.05504868552, 0.28147923946, 0.00797583163, -0.10477033257, -0.06913210452, -0.27895748615, 0.16880935431, 0.13087165356, -0.04261124134, -0.10584732890, 0.46988111734, -0.05861877650, 0.13842719793, 0.02996260487, -0.12519763410, 0.29396077991, -0.14839065075, 0.04146813601, -0.09890742600, -0.10989163071, -0.04449924454, -0.13659067452, -0.04586633667, -0.01056468301, -0.10138303787, 0.14584760368, -0.07477392256, -0.06858463585, 0.10403411090, -0.19771151245, -0.02024975419, -0.12237893045, 0.03170433268, -0.35879373550, 0.22086171806, 0.23075534403, 0.13556177914, 0.18247237802, 0.06137644500, -0.09866932034, 0.09721676260, 0.09461630136, -0.01572481543, -0.06588838249, -0.01855116896, 0.11242650449, -0.10430555791, -0.23386643827, 0.20652323961, -0.14922559261, 0.01408575289, 0.18715074658, 0.12819497287, 0.09959299117, 0.19609764218, 0.11891105026, 0.01563103124, -0.17207691073, 0.14723379910, 0.15758168697, -0.08032254130, 0.16739216447};
#endif

#endif
