//Numpy array shape [2, 4, 32]
//Min -0.421177953482
//Max 0.510431349277
//Number of zeros 0

#ifndef KEY_WEIGHT5_H_
#define KEY_WEIGHT5_H_

#ifndef __SYNTHESIS__
q_multi_head_attention_default_t key_weight5[256];
#else
q_multi_head_attention_default_t key_weight5[256] = {-0.224808, 0.061134, -0.172528, -0.047558, -0.271347, 0.157093, -0.007101, 0.054713, -0.045326, -0.196530, -0.231637, 0.019622, 0.135606, -0.103082, -0.214789, 0.113324, 0.213197, 0.046311, 0.015400, -0.166939, -0.020192, -0.262653, 0.083683, -0.257569, 0.192773, -0.164129, -0.183423, 0.321715, -0.212653, 0.225068, 0.351162, 0.070917, -0.421178, 0.504504, -0.132412, 0.024113, 0.506848, -0.025380, 0.382084, -0.180186, -0.313405, 0.038260, 0.038563, -0.197323, -0.301150, 0.510431, 0.223759, -0.242778, -0.042169, 0.154292, -0.125320, -0.367228, -0.153406, 0.037454, 0.394604, -0.254481, -0.289017, -0.052743, 0.066559, -0.054873, 0.278252, -0.277050, -0.206709, -0.345560, -0.105313, -0.101889, 0.121806, 0.011605, 0.238041, 0.004031, -0.062502, 0.071815, 0.158871, 0.001959, -0.273103, 0.013070, -0.113259, 0.074197, -0.169483, 0.020341, 0.387860, -0.176688, -0.108453, 0.041254, -0.071473, 0.104380, 0.050044, 0.131222, 0.290410, -0.079310, 0.130005, -0.381148, -0.051588, 0.028411, 0.258801, 0.236705, 0.157734, -0.381223, 0.307755, 0.130625, -0.369024, 0.072912, -0.081193, -0.219743, 0.329366, 0.069863, 0.176357, 0.046202, -0.234772, -0.000352, -0.271428, 0.267599, -0.333848, -0.199566, 0.290724, 0.003349, 0.041344, 0.258059, -0.132244, -0.260774, -0.019466, 0.244389, -0.394093, -0.080252, -0.043356, 0.271528, 0.261448, 0.335402, 0.375071, -0.071711, 0.082865, 0.077911, 0.217492, 0.016344, 0.335433, 0.214541, -0.335533, 0.297867, 0.083551, -0.171848, -0.008669, 0.290666, -0.028156, 0.179489, 0.157729, 0.306964, -0.381060, 0.015445, 0.010183, -0.319285, -0.213816, 0.031529, 0.106838, -0.231555, 0.132802, -0.078030, -0.032822, -0.330441, -0.383891, 0.063271, 0.091815, -0.084512, -0.026764, 0.240354, 0.109763, -0.201600, 0.160636, -0.157198, 0.030467, 0.125016, 0.139009, -0.249568, 0.198925, -0.055140, -0.060595, 0.209102, -0.259666, 0.173229, 0.054721, 0.076615, -0.126076, 0.003079, -0.248016, -0.098946, 0.248112, -0.000770, 0.119250, -0.058049, -0.150029, 0.274727, -0.122563, -0.275307, -0.202616, -0.255894, 0.121741, 0.012704, 0.216870, 0.117949, -0.174526, -0.182340, 0.279200, 0.066912, -0.392947, 0.291588, 0.037950, 0.104342, -0.124920, -0.140860, -0.220694, -0.268271, 0.313045, 0.253721, 0.212633, 0.277184, 0.018308, 0.340909, 0.105497, -0.003887, -0.115908, -0.177428, 0.177478, 0.050751, 0.244096, 0.248161, -0.164023, -0.024203, 0.184252, -0.024384, 0.125654, 0.109784, -0.082731, -0.179016, -0.039078, 0.154078, -0.231933, 0.313494, -0.135962, -0.191219, 0.140888, 0.151979, -0.316609, -0.315507, 0.043769, 0.219249, 0.247379, 0.287327, 0.255526, 0.184008, -0.062064, 0.201114, 0.027623, -0.085533, -0.019720, 0.161360, 0.292548, 0.282191};
#endif

#endif
