//Numpy array shape [2, 4, 32]
//Min -0.421989947557
//Max 0.416668504477
//Number of zeros 0

#ifndef VALUE_WEIGHT14_H_
#define VALUE_WEIGHT14_H_

#ifndef __SYNTHESIS__
q_multi_head_attention_1_default_t value_weight14[256];
#else
q_multi_head_attention_1_default_t value_weight14[256] = {0.160686, -0.029850, 0.110416, 0.003163, 0.202551, -0.203962, 0.096914, -0.031716, -0.058222, -0.207168, -0.060422, 0.277213, 0.046640, -0.275163, 0.044420, 0.025076, 0.127079, -0.144552, -0.128517, -0.172174, -0.134502, -0.116835, -0.192653, 0.157604, -0.096888, -0.163575, -0.136132, -0.185465, 0.138222, 0.118721, 0.087475, 0.086606, 0.225260, -0.345068, -0.199802, -0.194736, 0.196231, -0.105866, 0.041205, -0.040171, -0.053654, 0.230413, 0.227058, -0.070869, 0.008248, 0.196341, 0.049295, -0.173492, 0.286293, -0.211518, 0.041596, -0.245062, 0.054966, 0.182713, 0.023778, -0.034561, 0.216532, 0.139214, -0.063883, -0.092723, 0.110413, -0.096037, 0.096898, -0.005574, -0.421990, 0.206757, 0.251289, 0.330996, 0.194313, -0.298599, -0.142908, 0.154332, 0.326925, -0.319278, -0.124182, -0.014633, -0.006033, 0.062205, 0.068379, -0.098103, 0.090596, -0.212413, 0.402695, -0.032374, -0.166624, 0.101082, -0.389062, 0.231473, -0.365735, 0.073410, -0.152331, 0.353382, -0.252582, -0.319015, 0.416669, 0.176181, -0.058052, -0.137202, 0.068485, -0.313808, 0.184026, 0.181802, -0.038155, 0.251740, -0.241774, 0.106958, 0.146288, -0.147232, 0.202722, 0.010026, -0.221455, -0.240475, 0.067933, -0.169490, 0.097544, 0.010712, 0.063024, 0.174408, 0.230189, -0.220431, 0.212489, -0.033919, 0.181206, -0.047313, 0.223624, 0.373325, -0.069206, 0.158689, 0.155147, 0.061697, -0.068012, -0.195996, 0.036597, 0.061170, -0.206983, -0.156493, 0.235787, 0.268054, 0.018354, 0.025442, 0.136986, -0.149026, 0.183417, 0.225664, -0.217664, -0.296951, -0.223173, 0.151924, 0.237271, 0.086820, 0.048380, -0.133508, 0.192118, -0.203143, -0.096209, 0.154348, -0.038275, -0.164644, 0.021535, 0.134845, -0.185275, 0.237476, 0.113529, -0.192984, -0.154452, -0.265205, 0.156625, -0.102145, 0.113893, -0.097168, 0.196152, -0.198455, -0.072893, 0.084202, -0.168843, 0.208593, -0.181295, 0.134408, -0.285543, 0.209470, 0.056504, 0.209622, 0.125292, -0.050196, 0.227867, 0.241368, 0.190780, -0.134336, 0.061476, -0.127087, 0.216410, -0.193314, 0.099112, -0.002281, 0.006660, -0.112024, -0.294028, 0.314361, -0.219758, 0.127245, -0.105668, 0.013985, -0.259868, 0.039208, -0.176533, -0.125400, 0.194218, -0.033577, 0.227867, 0.218542, 0.298748, -0.024462, -0.043085, 0.001697, -0.231660, -0.232360, 0.135308, 0.139267, -0.128884, -0.247216, -0.170585, 0.073320, 0.046895, -0.307929, -0.312580, -0.185601, -0.029252, 0.152973, 0.116558, -0.090273, -0.074455, 0.128183, 0.054676, -0.199239, 0.084947, -0.112382, -0.087252, -0.071871, -0.261554, -0.233805, 0.042567, -0.052718, 0.049306, 0.149789, -0.034267, -0.202677, 0.043410, 0.204727, -0.275364, -0.118733, 0.256998, -0.054447, -0.020904, 0.032236, -0.132077, -0.069757};
#endif

#endif
