0.318186, 0.194469, 0.092744, 0.182714, -0.105172, -0.215202, -0.179528, 0.196873, -0.219448, -0.270710, -0.180553, -0.168407, 0.006688, 0.198333, 0.297985, 0.017078, -0.118720, 0.198692, 0.306466, 0.003905, 0.063988, 0.123624, 0.198551, -0.203638, 0.203152, -0.244085, -0.045074, -0.075286, -0.263562, 0.174324, -0.173824, 0.063740, 0.000044, 0.064362, -0.198325, 0.081822, -0.072434, 0.232059, 0.035718, 0.301904, 0.243974, 0.176716, -0.033245, 0.225519, -0.220746, 0.050208, -0.148798, 0.025703, -0.255764, -0.234086, 0.103229, -0.128441, -0.093716, -0.168909, 0.110422, 0.132224, -0.271283, -0.172446, -0.041942, 0.111765, -0.092998, -0.092224, -0.109950, -0.311525, 0.161355, 0.240575, 0.134721, -0.178185, 0.038218, -0.165681, -0.081922, -0.049060, -0.044906, 0.003677, -0.154095, 0.001147, -0.037207, 0.250794, 0.025671, -0.382313, 0.028487, -0.186546, 0.339717, 0.051013, 0.266552, 0.247096, 0.134867, 0.044491, -0.061127, -0.261586, -0.144633, -0.031128, -0.393267, -0.335240, -0.219338, 0.111138, 0.007598, -0.308991, 0.161834, -0.070574, 0.029442, -0.158395, -0.044798, 0.314674, -0.005177, 0.213725, -0.099489, -0.082549, -0.302181, -0.253995, 0.111581, 0.065973, -0.256522, 0.045712, -0.079070, -0.091248, -0.123524, -0.051925, -0.182374, -0.279727, -0.118629, -0.032325, 0.075794, 0.089495, -0.041248, 0.305061, -0.011171, 0.019402, 0.007573, -0.105342, -0.174629, 0.223735, 0.017125, 0.344292, 0.211853, 0.354265, -0.380993, 0.140159, -0.004239, -0.019473, -0.036544, 0.105714, -0.100059, 0.270492, -0.123996, 0.260056, 0.138659, 0.117991, -0.308939, -0.074961, 0.092702, 0.110218, -0.281862, -0.077461, -0.063296, 0.165795, 0.080855, -0.153952, -0.105440, 0.001517, 0.125419, -0.049673, -0.293364, -0.084931, 0.224118, -0.156518, 0.137573, -0.015028, 0.266603, -0.082227, -0.220198, 0.092624, -0.233077, -0.033462, -0.269524, -0.110639, 0.267222, -0.063835, 0.197670, -0.179318, 0.010559, 0.219365, -0.043933, 0.214213, -0.240746, 0.067466, -0.075407, -0.083193, -0.122591, -0.039360, -0.112807, 0.067249, -0.200208, 0.166104, 0.085474, -0.033084, -0.281830, 0.293120, 0.360018, 0.356154, -0.152247, -0.271905, 0.220388, -0.095475, 0.349471, -0.297744, -0.114322, 0.072759, -0.140080, 0.178939, -0.103699, -0.030225, -0.273038, 0.272076, -0.307330, -0.356768, -0.199102, -0.185185, 0.282721, 0.218414, 0.017249, 0.121270, -0.048503, 0.264308, -0.063992, 0.190910, 0.171205, 0.038977, -0.027473, 0.036660, -0.086824, -0.156050, 0.234436, 0.312829, -0.083699, -0.018267, -0.019206, -0.073068, -0.313710, -0.262155, 0.002831, -0.212413, -0.082013, 0.031892, 0.120866, -0.281258, -0.126642, 0.348696, 0.168513, 0.092907, -0.135159, -0.070158, 0.127490, -0.030146, 0.096373, -0.261325