//Numpy array shape [2, 32]
//Min -0.000036895501
//Max 0.000057302965
//Number of zeros 0

#ifndef KEY_BIAS9_H_
#define KEY_BIAS9_H_

#ifndef __SYNTHESIS__
q_multi_head_attention_46_default_t key_bias9[64];
#else
q_multi_head_attention_46_default_t key_bias9[64] = {0.000016761845, 0.000021825124, 0.000015773272, -0.000005266244, 0.000026592355, -0.000026164857, -0.000024074130, 0.000023657602, -0.000006332671, 0.000045465327, -0.000019666706, -0.000010123009, 0.000008712841, -0.000024658179, 0.000015273676, -0.000009120507, 0.000057302965, 0.000005953999, -0.000014814392, 0.000026106134, 0.000032185391, -0.000004960322, -0.000001636266, -0.000015632766, 0.000010931616, 0.000026324202, 0.000026691760, -0.000025270730, -0.000015551719, -0.000012770811, -0.000012202779, -0.000023729150, 0.000014105833, -0.000012735771, -0.000003465500, 0.000013959107, 0.000006190739, -0.000028358685, 0.000005480850, -0.000030023008, 0.000027173566, -0.000036895501, 0.000021987449, 0.000002410313, 0.000015026819, -0.000014443342, 0.000014381595, 0.000020042058, -0.000001615133, -0.000013092445, 0.000013290219, -0.000001595038, 0.000007062411, 0.000004546776, -0.000018339371, 0.000001079991, -0.000008472693, -0.000007865634, -0.000008046956, -0.000001619814, 0.000011622858, -0.000001464677, -0.000001342724, -0.000010581900};
#endif

#endif
