-0.000020470183, -0.000020333757, -0.000010979861, -0.000025678946, 0.000014855525, -0.000000235484, 0.000035736794, -0.000044019893, -0.000002817183, 0.000025770623, -0.000012091249, -0.000019828374, 0.000008213947, 0.000001393533, 0.000007254107, -0.000007049985, -0.000005324942, 0.000029970617, 0.000013729315, 0.000012171604, -0.000020586935, -0.000001002766, -0.000033728425, -0.000005109362, 0.000019285359, -0.000021933201, 0.000000737968, 0.000000200447, 0.000040070383, 0.000008211601, 0.000010345399, 0.000027877457, 0.000056106928, 0.000038035367, -0.000012951015, -0.000025196045, 0.000014463100, -0.000010049167, -0.000025926360, 0.000030832132, 0.000022494682, 0.000044000830, -0.000006381330, 0.000063121508, 0.000023095445, 0.000024662206, -0.000047020203, -0.000014472561, -0.000033299595, 0.000050152561, -0.000041084120, 0.000015074555, -0.000027560440, 0.000079455356, -0.000004506682, 0.000014748343, -0.000008220452, 0.000029238068, 0.000012726127, 0.000028117371, -0.000007940783, 0.000025711632, -0.000025969744, -0.000055383167