-0.188274145126, -0.170252278447, 0.025176851079, 0.107288658619, -0.031222427264, -0.190988197923, -0.222160130739, 0.140368148685, 0.107680633664, 0.059294201434, -0.165804341435, 0.116702683270, -0.310996055603, 0.222528725863, -0.267504364252, 0.395112991333, 0.094869442284, -0.047018174082, -0.124683819711, 0.104347385466, 0.081971272826, 0.178234532475, 0.238518223166, 0.286515414715, -0.145861715078, -0.054808281362, -0.437835842371, -0.198592931032, -0.315837293863, -0.060987252742, 0.170698285103, 0.196683987975, -0.146332994103, 0.246617481112, 0.165573567152, -0.004121347796, 0.291710853577, -0.187696054578, -0.162449106574, 0.266893923283, 0.163324877620, -0.035889174789, 0.077584117651, -0.074829705060, 0.040485750884, -0.082082025707, 0.211703464389, -0.018897747621, 0.098310291767, 0.020953638479, 0.298019856215, 0.215221345425, 0.115716502070, 0.266075849533, 0.054271351546, 0.048611368984, 0.318358093500, 0.083315536380, 0.018207186833, -0.245320960879, -0.150190830231, -0.024241566658, -0.117120981216, 0.242110401392, 0.159594953060, 0.296372920275, -0.075621530414, 0.019921964034, 0.095813222229, -0.223312392831, -0.244151428342, 0.080013915896, 0.202436506748, 0.051260583103, 0.042924072593, 0.327251166105, 0.259080439806, -0.280912578106, 0.159317299724, -0.393193185329, 0.085386469960, 0.423642337322, 0.100204177201, 0.119592964649, 0.075312651694, 0.059629153460, -0.022258091718, -0.173544839025, 0.101673088968, 0.277018487453, 0.184535607696, -0.065799236298, 0.031935747713, 0.247684508562, 0.230488091707, -0.034179203212, 0.094271153212, 0.018269332126, 0.085233286023, 0.078308321536, 0.154948860407, 0.024658719078, -0.283859670162, -0.146910563111, 0.009005443193, 0.228651389480, -0.283545076847, -0.120744764805, 0.027496555820, -0.198124825954, 0.069269157946, 0.043907705694, 0.091502487659, 0.207924216986, -0.176760837436, -0.038124956191, 0.215018630028, 0.048134725541, -0.129196524620, -0.023056980222, 0.423182725906, 0.141406357288, 0.247208222747, 0.102366574109, -0.222870752215, -0.202800422907, -0.147793382406, -0.053317289799, 0.126459464431, -0.187943413854, -0.118289828300, -0.207553818822, -0.075180403888, -0.105988033116, 0.145456746221, -0.027244050056, 0.247137710452, -0.209635749459, 0.145820289850, 0.161012709141, -0.064894758165, -0.098598308861, 0.005755100399, 0.191521719098, 0.078902035952, -0.021570537239, 0.124027721584, 0.069672338665, 0.177244201303, 0.195905208588, -0.199066549540, 0.014909598045, -0.210585013032, 0.016033938155, -0.017826484516, 0.032607179135, -0.040161378682, -0.158886507154, 0.141583338380, -0.235021322966, 0.037750039250, 0.150614604354, -0.522809088230, 0.136372417212, -0.102899290621, -0.024062313139, -0.163155078888, -0.305832296610, 0.044339843094, -0.176411360502, -0.358127206564, -0.315184265375, -0.022568479180, -0.200937673450, 0.199471011758, -0.033742394298, 0.078684285283, 0.206398472190, 0.305868417025, -0.168348759413, 0.079298041761, 0.209078714252, -0.144224479795, -0.092350438237, 0.169045090675, 0.040511276573, 0.204299360514, 0.169101864100, 0.156701698899, -0.342534601688, -0.216795310378, -0.295809626579, -0.163354799151, 0.161713823676, 0.073811054230, -0.088381089270, 0.178954675794, 0.229607596993, 0.163915917277, 0.114514969289, 0.126759946346, -0.016180394217, -0.107344739139, -0.200593173504, -0.178843602538, -0.106960967183, 0.094337180257, 0.003121138085, -0.053409367800, -0.239119321108, 0.184647202492, -0.112434707582, -0.073453187943, 0.225389942527, -0.185828700662, -0.032251827419, -0.145093873143, -0.154888078570, -0.105948477983, -0.249920904636, 0.009890549816, 0.197493478656, -0.111941605806, 0.031744960696, -0.026743639261, -0.276647984982, 0.236511811614, -0.176007762551, 0.083724774420, 0.039932832122, -0.173625230789, 0.219556987286, -0.087849758565, -0.224395170808, 0.049365207553, 0.194688230753, -0.166530534625, 0.095887877047, -0.033254828304, 0.116947151721, -0.017069052905, 0.108060993254, 0.033169765025, -0.212557345629, 0.258172094822, 0.125007063150, 0.138178125024, 0.191863849759, 0.051372028887, -0.066445298493, 0.051242187619, 0.057182274759, 0.209566220641, 0.222664535046, -0.121844880283, 0.111981928349, 0.012717741542, -0.215725243092, 0.223544239998, 0.132499441504, 0.270193338394, 0.282976955175, 0.002378690755, 0.286044090986, 0.219328075647, -0.111741133034, -0.023540718481, -0.364572107792, 0.129022181034, -0.074102394283, 0.094962745905, 0.093773573637, -0.082927688956, -0.125399708748, 0.289585739374, -0.262747913599, 0.233950152993, 0.062531374395, -0.407386809587, 0.200150594115, 0.018944842741, 0.045970842242, -0.103261552751, -0.142760246992, 0.210183858871, 0.245411694050, 0.061547718942, 0.132371932268, -0.094204314053, -0.134415388107, 0.123376801610, 0.260262399912, -0.043470978737, -0.028194826096, -0.165616393089, 0.024603981525, 0.154583454132, -0.053662519902, -0.308266431093, -0.169560045004, 0.096085727215, 0.169664457440, 0.130750328302, 0.284000933170, 0.095392420888, -0.068001843989, 0.054265987128, -0.031285934150, -0.090189121664, 0.108003064990, -0.317473948002, 0.143244132400, -0.267908155918, -0.084410913289, -0.103073433042, 0.165936872363, 0.185211047530, 0.405961036682, -0.281895399094, -0.222503736615, 0.106477111578, -0.109292514622, -0.090464949608, -0.319478571415, -0.188936561346, 0.111668564379, -0.262879252434, 0.265381455421, -0.217289105058, -0.408896595240, 0.330779403448, 0.544938206673, -0.150427863002, 0.151636272669, -0.422286152840, -0.032317053527, 0.152053043246, -0.264135837555, 0.147688746452, -0.186117589474, 0.294214636087, -0.236282780766, 0.250367105007, 0.277163326740, 0.349120408297, 0.171836107969, 0.201304778457, 0.145733878016, 0.423831433058, -0.100299775600, 0.078959010541, 0.181148871779, 0.116428442299, -0.059076666832, 0.085905432701, 0.344133496284, 0.041085969657, 0.143908187747, -0.008698553778, -0.099100522697, 0.279766768217, -0.088249847293, -0.196649149060, -0.276084691286, 0.113668985665, -0.090000607073, 0.263153642416, -0.279564321041, 0.136316478252, 0.168139889836, 0.071229211986, -0.125331893563, 0.164184942842, -0.235589504242, -0.254159897566, 0.039616342634, -0.286258101463, -0.127604812384, -0.081172771752, 0.080870226026, 0.074420750141, -0.152759537101, 0.045115828514, 0.062191348523