0.001783375046, 0.095541790128, 0.125368922949, -0.080298252404, -0.110979758203, -0.033632677048, 0.087181627750, -0.041798006743, -0.029985155910, -0.087617315352, 0.069928660989, 0.184689536691, 0.047596324235, 0.178016886115, -0.095233626664, 0.078825235367, -0.055382132530, -0.064983427525, 0.049931701273, 0.097688809037, -0.029574718326, -0.054792348295, -0.114386536181, -0.134342715144, 0.003229270922, -0.041713535786, -0.127916812897, -0.053837943822, -0.012370016426, -0.064239032567, 0.146526411176, 0.091731883585, -0.054032366723, 0.098777987063, 0.163601785898, -0.087715357542, -0.218655556440, -0.081423595548, -0.110319577157, -0.181593939662, -0.032255552709, 0.176357790828, 0.081750310957, -0.112540036440, -0.094054132700, -0.026355842128, -0.176133811474, 0.014206293039, -0.035298820585, -0.090129442513, 0.067791745067, -0.058640930802, -0.176537990570, 0.061945382506, -0.156044259667, 0.057085491717, 0.084640815854, 0.046360470355, -0.026500150561, -0.092333421111, 0.131882131100, 0.103174477816, -0.001272569411, 0.000044545279, -0.151184931397, -0.090920247138, -0.093491755426, -0.128066763282, -0.071606330574, 0.119482368231, -0.109422422945, -0.046411775053, -0.106724373996, -0.126801475883, -0.150213718414, 0.134499981999, 0.019561415538, 0.136591076851, 0.062189787626, -0.093917883933, 0.047249894589, 0.048537101597, -0.038516618311, 0.115653738379, 0.097804613411, 0.031733792275, -0.085531793535, -0.059567317367, 0.110438965261, -0.097817622125, 0.005867154337, -0.075178831816, -0.072312034667, 0.013236202300, -0.017500709742, 0.051913645118, 0.176759183407, 0.162257522345, 0.030618513003, 0.163149312139, -0.094157576561, 0.030222337693, -0.082921102643, 0.176368236542, 0.033545143902, -0.061122581363, 0.167149811983, 0.103440172970, 0.178730055690, 0.120825946331, -0.039588294923, 0.121062532067, 0.099324151874, -0.063153110445, 0.053920194507, 0.035020947456, -0.070318274200, -0.085423730314, -0.151658058167, -0.031973812729, -0.031142113730, -0.029108045623, -0.066532656550, 0.136388212442, 0.096077546477, -0.183927580714, 0.113999500871, 0.082043685019, 0.091795705259, -0.027250129730, 0.057205837220, 0.141660898924, 0.140724062920, 0.052306484431, -0.155568793416, -0.038443513215, 0.222062572837, -0.102709025145, 0.116691686213, -0.148375675082, -0.129636734724, 0.095169417560, -0.110326603055, 0.248695313931, -0.001545133418, 0.239030823112, -0.070205487311, 0.030370593071, 0.056334596127, -0.070647872984, -0.157101944089, -0.142019510269, -0.051864996552, 0.029605742544, -0.026290899143, -0.101939626038, -0.075384899974, -0.140469476581, 0.046609852463, -0.137725025415, -0.028919285163, 0.011496546678, -0.030709467828, -0.255998879671, -0.032692648470, -0.208312764764, -0.028554266319, 0.044513039291, -0.021084403619, 0.093969397247, 0.026133930311, -0.014076340012, 0.057107329369, -0.035613216460, 0.035102222115, 0.019577007741, -0.053773362190, 0.106158852577, 0.021333647892, -0.000842562062, 0.053509820253, -0.183906853199, 0.216262593865, -0.114577479661, 0.166753619909, 0.053642064333, 0.012034905143, 0.038396641612, -0.104535192251, 0.017790554091, 0.003457445418, -0.194916278124, -0.105572111905, 0.161504343152, -0.036144513637, -0.095784731209, 0.099011123180, -0.123091258109, -0.128452852368, -0.038088869303, -0.112050339580, -0.098660230637, 0.186460390687, -0.137356460094, -0.124007739127, -0.249354720116, -0.004150013905, 0.220872119069, -0.109043575823, -0.223396733403, -0.202846437693, -0.120260611176, -0.099429093301, 0.035606089979, -0.092940121889, -0.282331883907, -0.062029983848, -0.070636004210, -0.016448182985, -0.247639715672, 0.166580781341, -0.022827517241, 0.136299997568, -0.127805843949, 0.147243186831, 0.092697553337, -0.104966416955, -0.023223415017, 0.102403298020, 0.054901223630, 0.124793782830, -0.037382166833, -0.084434516728, 0.188677966595, -0.130954444408, -0.031914874911, 0.079314053059, 0.040139541030, 0.053933139890, 0.211302652955, 0.110135205090, 0.022625282407, 0.057708952576, -0.140735283494, -0.095450446010, 0.056092515588, 0.104603976011, 0.107894562185, -0.145210936666, 0.067802645266, 0.159827455878, -0.135315522552, 0.103098072112, -0.042113196105, -0.076738931239, 0.031034059823, -0.031017469242, -0.116604126990, -0.045567609370, 0.166592046618, -0.089521750808, 0.320194929838, 0.235996782780, -0.191364005208, 0.017654372379, 0.320714265108, -0.083409234881, 0.200514256954, -0.219671130180, 0.260086864233, 0.006321511697, -0.193613797426, 0.153114497662, 0.269695550203, 0.213303580880, 0.048610731959, -0.029867354780, -0.257612824440, -0.168648853898, -0.044994149357, 0.093950763345, -0.216980442405, -0.250321447849, 0.145310744643, -0.091554291546, -0.158793464303, 0.052241727710, 0.067024201155, 0.066816240549, -0.038247838616, 0.023211179301, 0.023822510615, 0.284012883902, 0.136532664299, 0.060131352395, 0.154546722770, 0.119716353714, 0.002872345038, -0.154660582542, -0.098877601326, -0.084357522428, 0.072130955756, 0.016386484727, -0.097718015313, -0.307406604290, 0.215116024017, -0.141909942031, -0.262126177549, -0.103293024004, -0.118961252272, 0.026539660990, 0.134444743395, 0.158000454307, -0.095079429448, -0.106750011444, 0.029274942353, -0.096534401178, -0.152329325676, -0.198158726096, 0.157501205802, -0.030925674364, -0.082685232162, 0.172480225563, 0.026489628479, 0.139706730843, -0.098335392773, 0.117465302348, -0.046919625252, -0.176975488663, 0.200851082802, 0.032805770636, -0.193181186914, 0.195923998952, 0.179989084601, 0.056010510772, -0.017654029652, -0.088725820184, 0.002552048303, -0.107313178480, -0.163962468505, -0.043128486723, 0.021284401417, -0.100808903575, 0.144183233380, 0.011795147322, 0.079987838864, 0.061915911734, 0.027748705819, -0.060139648616, -0.177189901471, 0.035424496979, 0.004369623493, 0.056207116693, -0.091001130641, -0.173119366169, -0.161421939731, 0.023185290396, 0.193442627788, 0.033703517169, -0.278555214405, -0.010666502640, 0.121030889452, -0.233166754246, 0.081237196922, 0.144770205021, -0.155668884516, -0.050951812416, -0.053474381566, 0.123390778899, 0.032948575914, 0.021008530632, 0.041017550975, 0.096369042993, -0.020441036671, 0.143767744303, 0.093903735280, 0.130892664194, 0.016183368862, -0.089398480952, -0.213554084301, 0.126404121518, -0.109189368784, 0.098743222654, -0.198376238346