//Numpy array shape [2, 32, 4]
//Min -0.557130455971
//Max 0.500120818615
//Number of zeros 0

#ifndef ATTENTION_OUTPUT_WEIGHT5_H_
#define ATTENTION_OUTPUT_WEIGHT5_H_

#ifndef __SYNTHESIS__
q_multi_head_attention_default_t attention_output_weight5[256];
#else
q_multi_head_attention_default_t attention_output_weight5[256] = {-0.251073, -0.159475, 0.353135, 0.228274, -0.161094, 0.105903, 0.207794, 0.155319, -0.292631, 0.230996, -0.235033, -0.247096, -0.059929, -0.114505, 0.182266, -0.255790, 0.182196, -0.000981, 0.085528, -0.221330, 0.237940, 0.383254, -0.379205, 0.342349, 0.270585, -0.193618, 0.020559, 0.061317, 0.176588, 0.244965, -0.278247, 0.209948, 0.220242, 0.106243, -0.410324, -0.233771, 0.152938, 0.395379, 0.043332, 0.300745, 0.280747, 0.069325, -0.071703, 0.182847, -0.201427, -0.155122, -0.196060, 0.148923, -0.400081, -0.343613, 0.009287, -0.083007, -0.037157, -0.180719, 0.435639, -0.010186, -0.178979, -0.042631, -0.011210, -0.344315, 0.335037, 0.285255, -0.221335, -0.238586, 0.051751, -0.007339, 0.427278, 0.123616, -0.114944, 0.057283, -0.090056, -0.298638, -0.421035, -0.072505, 0.443100, -0.138012, -0.289506, 0.316088, 0.053394, -0.134696, -0.192114, 0.109894, 0.467934, 0.228826, -0.393034, -0.332674, 0.308974, -0.161963, -0.047654, -0.111259, -0.138921, -0.079105, -0.389073, 0.303863, 0.204303, -0.248657, -0.129013, 0.235624, 0.202721, 0.236909, 0.343175, 0.174611, -0.351187, -0.112410, 0.082230, -0.022224, -0.142641, -0.353972, -0.187993, 0.271297, -0.304245, -0.292136, 0.318670, -0.028824, -0.336380, -0.307107, 0.431484, 0.282186, -0.250906, 0.136017, 0.286993, 0.155739, -0.041800, 0.200628, -0.200482, -0.003784, 0.392467, 0.092656, -0.054090, -0.241457, 0.127355, 0.145777, -0.131647, 0.152432, 0.279277, -0.084123, 0.337777, -0.439441, -0.244473, -0.112075, -0.281371, 0.254925, -0.238418, -0.088776, -0.313220, 0.222804, 0.453590, -0.367888, 0.285070, 0.347730, -0.016767, 0.121488, -0.029931, -0.153411, -0.379791, -0.045667, 0.301023, 0.500121, -0.273182, 0.304655, -0.341139, -0.557130, 0.315785, -0.408607, -0.075106, -0.454770, 0.357381, 0.214341, 0.034514, 0.366368, -0.014886, 0.218614, 0.296152, 0.020619, 0.251193, 0.003833, 0.340228, 0.234976, -0.347216, 0.376470, 0.081199, 0.087730, 0.356251, -0.345333, 0.169074, 0.070276, -0.044076, -0.072748, 0.377509, -0.139825, -0.266329, 0.346785, -0.183330, -0.236090, 0.170221, -0.000600, 0.146402, 0.291590, 0.004298, 0.368549, -0.187333, -0.090442, 0.038556, -0.192525, -0.254064, 0.016802, -0.149252, -0.146034, -0.318188, -0.254877, 0.363370, 0.134855, 0.332469, 0.259004, -0.091247, 0.128028, 0.092964, -0.003494, 0.258319, -0.005621, -0.137644, -0.530148, 0.473249, -0.244156, -0.146609, -0.347660, 0.103649, 0.194231, -0.032643, -0.165765, 0.373341, -0.345060, 0.011157, 0.215782, -0.187281, -0.212879, 0.192869, 0.350946, -0.136103, -0.246180, -0.100340, -0.148915, 0.124128, 0.391160, 0.119570, 0.259296, 0.291567, 0.088096, 0.067175, -0.136833, 0.026702, -0.117276, 0.320859, 0.055247, -0.208630, 0.203734};
#endif

#endif
