0.236242, -0.043149, -0.287491, -0.192410, -0.145443, -0.294266, 0.043955, -0.141277, 0.195668, -0.166633, 0.058861, 0.257875, -0.084884, -0.041920, 0.153394, 0.283792, 0.299788, -0.116824, 0.202449, 0.241657, 0.023700, -0.025080, -0.132533, 0.132918, -0.121100, -0.237144, 0.242004, 0.243781, -0.271118, -0.114884, -0.224537, -0.003652, -0.036692, -0.038632, 0.197811, 0.024109, -0.124526, 0.003858, 0.128120, -0.069677, -0.183178, 0.057899, -0.100160, -0.328511, -0.243350, -0.205286, 0.212212, -0.209090, 0.206749, -0.206408, -0.266595, 0.263231, 0.030704, 0.096145, 0.043463, -0.001186, 0.214907, 0.005015, 0.277128, -0.114463, 0.141231, 0.185781, -0.065089, 0.194195, -0.269512, 0.268339, 0.177325, -0.335572, -0.095306, 0.036749, 0.296147, 0.326643, 0.174035, 0.299551, 0.264390, 0.258258, 0.229941, -0.080891, 0.250323, -0.104164, 0.193109, 0.355579, -0.337800, 0.022339, -0.255173, -0.276827, -0.195514, 0.118781, 0.075947, 0.164865, 0.039823, 0.133065, 0.062991, -0.294684, -0.095285, -0.268101, 0.007599, -0.293307, -0.325801, 0.511670, 0.608637, 0.292926, -0.312638, 0.139173, -0.601481, -0.302425, -0.494171, 0.008872, -0.253861, 0.133848, -0.383981, -0.291442, -0.212474, -0.370230, 0.371965, -0.208614, 0.083791, 0.471419, 0.330642, -0.032995, -0.416220, 0.012390, -0.212645, -0.242180, -0.017018, 0.514922, 0.443839, 0.028168, -0.168154, 0.162187, 0.092520, 0.096837, -0.057213, 0.198497, -0.227853, -0.116095, 0.132079, -0.089307, -0.176713, 0.172324, -0.227213, -0.127667, -0.089275, 0.150528, 0.030014, 0.225752, 0.243721, -0.172896, -0.100109, 0.042686, 0.185088, 0.221206, -0.021405, 0.256818, -0.063654, -0.051978, -0.195047, 0.051781, 0.120453, 0.154118, 0.001991, -0.200561, 0.166693, -0.054414, 0.212070, -0.220460, 0.132966, -0.032905, -0.116242, 0.054790, 0.007553, -0.078861, 0.018280, -0.152121, -0.192962, -0.042410, -0.134533, 0.162245, 0.241903, 0.192665, 0.199894, -0.062693, -0.217341, -0.022112, 0.015063, -0.115729, -0.363816, 0.137689, -0.114239, -0.197977, 0.267946, -0.161311, -0.037957, 0.169909, 0.144418, -0.142556, -0.206442, 0.015352, 0.252595, -0.050643, 0.184084, 0.203839, -0.033498, 0.145120, 0.067462, -0.132834, 0.007341, -0.080945, 0.076468, 0.255014, 0.228715, 0.047488, -0.224323, -0.251910, 0.158717, -0.144808, -0.151858, -0.292116, 0.045131, 0.222486, 0.074439, -0.162445, -0.111691, -0.078697, -0.455859, 0.238623, -0.318798, -0.156572, 0.038996, 0.261063, -0.364761, 0.301977, 0.302405, -0.129384, 0.068924, -0.150717, -0.162179, -0.401695, -0.041363, 0.271975, -0.333526, -0.489475, -0.435004, 0.212698, 0.155831, -0.006061, -0.146155, -0.131070, 0.266670, 0.399425, 0.088543, -0.002678, 0.335683, 0.417681, -0.007924, -0.138998