//Numpy array shape [2, 32, 6]
//Min -0.331006377935
//Max 0.347318172455
//Number of zeros 0

#ifndef ATTENTION_OUTPUT_WEIGHT9_H_
#define ATTENTION_OUTPUT_WEIGHT9_H_

#ifndef __SYNTHESIS__
multi_head_attention_3_default_t attention_output_weight9[384];
#else
multi_head_attention_3_default_t attention_output_weight9[384] = {0.207816988230, 0.255369693041, -0.125278174877, 0.109459109604, -0.079659499228, -0.235428869724, 0.109087176621, 0.053022988141, 0.165976703167, -0.131336271763, 0.001650733058, -0.237635999918, 0.030914740637, 0.227779373527, 0.157553032041, -0.216972544789, 0.261468023062, 0.196236819029, -0.237907901406, -0.017040476203, -0.091518841684, 0.058294162154, -0.150449231267, -0.130839541554, 0.140892803669, -0.015712978318, -0.170316338539, -0.186262175441, 0.263579100370, 0.203818425536, -0.156190037727, 0.246493592858, -0.050777617842, -0.222429603338, 0.074895299971, 0.096266619861, 0.138075947762, 0.235901594162, -0.048244576901, 0.009846535511, 0.174380183220, 0.177722603083, 0.180851563811, -0.150081589818, 0.203941062093, 0.191389530897, 0.185860961676, -0.123470045626, -0.145152807236, -0.106980517507, -0.228599503636, 0.137328505516, 0.236684322357, 0.023607254028, -0.007969965227, -0.046804618090, 0.096688166261, 0.073376491666, -0.109070941806, -0.260791629553, 0.166547670960, 0.056046944112, 0.112325459719, 0.115117743611, 0.090711705387, 0.120326630771, -0.030198708177, 0.011900217272, 0.163218438625, -0.006462980527, 0.137214958668, 0.204224064946, -0.044572014362, 0.208838582039, 0.106936991215, 0.201023772359, -0.017269616947, -0.044987518340, -0.331006377935, 0.169334501028, 0.052936874330, -0.166853174567, 0.195106223226, 0.081487558782, -0.061485227197, -0.133054390550, 0.170608013868, 0.036637295038, -0.176142096519, -0.107930943370, 0.310802966356, -0.114664852619, -0.150250792503, -0.013396819122, 0.252736449242, -0.166224956512, -0.225158542395, 0.115214496851, -0.102815099061, -0.082394272089, -0.264705389738, 0.026849800721, 0.157164618373, -0.106887765229, -0.210063427687, 0.212019562721, -0.003587450134, 0.119174860418, -0.084933578968, 0.078714199364, -0.079284481704, 0.058571569622, -0.052113674581, 0.137684106827, -0.223904788494, -0.204660177231, 0.037241119891, -0.011323569342, 0.027293859050, 0.163617253304, -0.081739045680, -0.201186463237, 0.009467826225, 0.166831403971, 0.151111662388, 0.110858552158, -0.000406863459, -0.003755695885, -0.091318778694, 0.133091270924, -0.240165635943, -0.202990800142, 0.151983648539, 0.065612666309, -0.176848843694, 0.193816632032, -0.158686235547, -0.256956934929, 0.220467180014, -0.215419128537, 0.118752732873, 0.082782015204, -0.129595637321, 0.262341052294, -0.206985682249, 0.023710198700, 0.171103149652, 0.042841602117, -0.103351980448, 0.224761396646, 0.312633097172, -0.110463507473, 0.101953998208, -0.064577929676, 0.251674681902, 0.121103532612, 0.058867625892, -0.168123319745, 0.208178058267, 0.223980784416, -0.260236233473, 0.000248828757, 0.063592463732, -0.187925413251, 0.244579017162, -0.010642733425, 0.166139453650, 0.213702216744, 0.056435290724, 0.143825456500, 0.172687679529, -0.132165789604, 0.229802057147, -0.095534168184, -0.107752673328, -0.024073749781, 0.097239799798, 0.128513336182, -0.269326508045, 0.074494153261, -0.280351132154, 0.191081881523, -0.096660494804, 0.208458483219, 0.099889226258, 0.028025977314, -0.185583353043, -0.131925076246, 0.087583027780, 0.175256073475, -0.283533960581, -0.096049606800, 0.116068266332, 0.131083324552, 0.164523765445, 0.111425787210, 0.146640509367, 0.019574990496, -0.133598163724, 0.120714634657, 0.222172185779, -0.048613209277, 0.168779417872, -0.159808903933, -0.106686621904, -0.107145272195, 0.017554890364, -0.053695742041, 0.101972728968, -0.032996140420, 0.251668334007, 0.232383191586, 0.083874471486, 0.030413806438, -0.181287601590, 0.241999864578, 0.070901267231, 0.179869383574, 0.124953553081, -0.028905989602, 0.183083176613, -0.132509410381, -0.174864917994, -0.219507858157, 0.096522316337, -0.030526204035, 0.214382648468, -0.330922991037, -0.108449511230, 0.275598675013, -0.144633620977, -0.088272877038, 0.058811984956, -0.012409906834, -0.141344994307, -0.010887091979, 0.102455928922, 0.221973687410, -0.086069278419, -0.149652034044, 0.204387724400, -0.126925870776, -0.175503864884, 0.182781293988, 0.194195225835, 0.117569021881, 0.027616575360, -0.171307161450, -0.214261502028, -0.062026925385, -0.134151354432, -0.134912401438, 0.150960668921, 0.291329860687, -0.212873339653, 0.199706122279, 0.095131367445, -0.131649911404, -0.228814616799, 0.158168181777, 0.004015424754, 0.165244162083, 0.107324123383, 0.098629392684, 0.036110516638, -0.084785573184, 0.037013437599, -0.108310014009, -0.109336003661, -0.237274721265, 0.188646674156, 0.116978280246, -0.091830909252, 0.127988219261, 0.163430854678, 0.102838695049, -0.167227253318, 0.033032875508, -0.060393977910, -0.224029898643, 0.347318172455, -0.097276717424, -0.167714029551, -0.003229988506, 0.101410605013, -0.019906591624, 0.201730698347, -0.244246885180, -0.022725576535, 0.003831418464, 0.078072294593, 0.023387089372, -0.190203577280, 0.149219289422, 0.310442209244, 0.080646492541, -0.002492716303, -0.058623511344, 0.049628946930, -0.295083224773, 0.008340486325, 0.052129391581, 0.028820037842, -0.094481013715, -0.075847737491, -0.122007168829, 0.218507796526, -0.071006186306, 0.025857178494, 0.032808553427, -0.012681859545, -0.019338129088, 0.004756516311, -0.119207233191, -0.041058186442, 0.068960510194, -0.120272956789, -0.052142594010, -0.043954551220, -0.196406334639, 0.080065712333, 0.220614507794, -0.112788669765, -0.264994293451, 0.008807780221, -0.012591628358, -0.163012787700, 0.029652144760, -0.167167812586, 0.152069687843, 0.103857375681, 0.062503889203, 0.017497362569, 0.114021375775, 0.250772476196, 0.143451422453, 0.114607468247, 0.022018110380, 0.266711890697, 0.248808398843, 0.165547251701, 0.073715053499, 0.143895134330, 0.015657056123, 0.044536538422, -0.079449445009, -0.158515587449, 0.184969156981, -0.083637692034, 0.322907298803, 0.133654624224, -0.175541803241, -0.095027737319, -0.257746428251, -0.058063670993, 0.135328531265, 0.214041963220, 0.002777735936, 0.204406067729, 0.255368232727, 0.064303644001, 0.126123070717, 0.163702175021, 0.049847014248, 0.030164577067, -0.185353338718, -0.085778385401, -0.017302084714, -0.099629499018, 0.153368785977, 0.087563373148, 0.142229765654, 0.116893023252, -0.004564542789, -0.089412555099, -0.005456121173, -0.226267457008, -0.268893301487, -0.164120391011, 0.048851605505, 0.115695893764, -0.088375359774, -0.277323812246, -0.050485413522};
#endif

#endif
