//Numpy array shape [2, 6, 32]
//Min -0.592691600323
//Max 0.604571521282
//Number of zeros 0

#ifndef KEY_WEIGHT9_H_
#define KEY_WEIGHT9_H_

#ifndef __SYNTHESIS__
multi_head_attention_3_default_t key_weight9[384];
#else
multi_head_attention_3_default_t key_weight9[384] = {-0.299827456474, -0.145575553179, 0.270899832249, -0.046986721456, 0.286047101021, -0.305406004190, -0.258224695921, -0.188969045877, -0.293031126261, 0.151871085167, 0.229926958680, 0.422051250935, -0.074118636549, 0.004676096141, -0.174469128251, 0.180866107345, -0.200458630919, 0.062244966626, -0.170778110623, -0.265101581812, 0.237540334463, -0.265892922878, 0.295673191547, -0.122730307281, -0.017060795799, -0.002575583057, 0.363297313452, 0.149030670524, -0.128519922495, 0.051430713385, -0.164586499333, 0.031121587381, 0.386407345533, 0.308278650045, -0.216667339206, -0.210764169693, -0.125513687730, -0.316447436810, 0.032310921699, 0.263104438782, -0.350674271584, 0.315878361464, -0.031778100878, 0.000626542431, -0.360144883394, 0.094188466668, -0.157876059413, -0.044803474098, -0.335227549076, -0.013438045979, -0.290780931711, -0.258556753397, 0.513376712799, -0.356818377972, -0.142482683063, -0.322327643633, -0.115721710026, 0.033505074680, -0.141164585948, 0.378940135241, -0.013451009989, -0.049254633486, 0.006902186200, 0.110631786287, -0.168810635805, 0.213223278522, 0.294320076704, 0.026801757514, 0.172177881002, 0.298843950033, -0.304901242256, -0.207645103335, -0.045481733978, 0.085416041315, 0.004528139252, 0.178328052163, -0.099204145372, -0.290241688490, 0.051288727671, -0.064366586506, -0.044898048043, 0.061324857175, -0.147085860372, -0.022439165041, 0.152908116579, -0.270321428776, 0.222220450640, -0.004121714737, -0.150935977697, -0.220330327749, 0.155635252595, 0.108839236200, 0.092943258584, 0.135824099183, -0.212580710649, -0.258208632469, -0.140669226646, -0.058283492923, -0.229516670108, 0.146086305380, -0.168933555484, 0.046733826399, 0.182911574841, 0.225550740957, 0.076912216842, -0.225805699825, -0.102089129388, -0.088691972196, 0.019463704899, 0.159213885665, -0.249901041389, -0.075394988060, -0.085792876780, -0.166589066386, -0.114353001118, 0.047100197524, 0.006854132283, 0.266105204821, -0.123301997781, 0.170158401132, 0.117014184594, 0.248000636697, -0.039450399578, -0.202217444777, 0.089347623289, -0.225264012814, 0.151734694839, 0.287980884314, -0.046574171633, 0.103662081063, 0.150919675827, -0.304584801197, 0.132382273674, -0.088794417679, -0.238132923841, -0.140367254615, -0.228913679719, 0.149825617671, 0.128717735410, 0.195958867669, -0.285128295422, 0.192009806633, -0.163544267416, 0.224071040750, 0.025661181659, 0.135956972837, -0.451690107584, -0.192977413535, 0.265363007784, -0.293155282736, 0.121786028147, -0.373015195131, -0.096982106566, -0.200935736299, -0.074778646231, 0.216454669833, -0.000144494712, 0.055252011865, -0.133460327983, -0.210712805390, -0.036639824510, -0.082998298109, -0.080202631652, 0.604571521282, -0.431133210659, 0.271772027016, 0.061973601580, -0.097780048847, 0.400072276592, -0.240189462900, -0.359528660774, 0.359822809696, -0.324768722057, -0.475515425205, -0.445725739002, -0.373708784580, 0.246168836951, -0.580516159534, -0.166960760951, 0.233190163970, 0.257867395878, 0.350410938263, -0.084482178092, 0.457051187754, 0.389456152916, -0.357597827911, 0.334957093000, 0.275187343359, 0.225740760565, -0.544438600540, 0.402704715729, -0.014538809657, 0.170604571700, -0.189034178853, -0.018866039813, -0.109506897628, 0.197959735990, -0.198914751410, 0.427611678839, 0.472693532705, 0.171167820692, -0.273384004831, -0.308305621147, -0.482035309076, 0.406625986099, -0.230911895633, 0.049484726042, -0.226907700300, -0.000014604651, -0.396356135607, 0.236297473311, 0.452744483948, -0.108868218958, 0.400359004736, -0.068872839212, -0.012879908085, 0.071244277060, -0.351441055536, 0.235906243324, 0.148386299610, 0.184705302119, 0.262962192297, 0.476596266031, -0.592691600323, -0.289948910475, 0.127797126770, -0.123847238719, 0.142960309982, 0.034093018621, 0.181732535362, -0.121006272733, 0.039533641189, -0.275693595409, 0.035177581012, 0.232497528195, 0.008319897577, -0.287189275026, -0.037398524582, -0.110369913280, 0.082660622895, 0.045856319368, 0.154342725873, -0.026281906292, -0.279475688934, 0.075519867241, -0.040702555329, -0.006349124480, -0.236369699240, -0.041085049510, 0.132565379143, 0.046971894801, 0.232482105494, -0.179687544703, -0.135151460767, -0.276724904776, 0.164431631565, -0.092737108469, 0.096901640296, -0.034198015928, 0.013954406604, 0.008624489419, -0.120484866202, -0.070394486189, 0.230709448457, 0.002781512681, -0.107091255486, -0.036680053920, -0.046508733183, 0.086127795279, -0.081517376006, 0.003480791813, -0.232183396816, 0.145512089133, -0.120710499585, 0.089764684439, -0.070832245052, 0.072488188744, 0.010152254254, -0.235981658101, 0.172879695892, 0.014810862951, -0.113182172179, 0.096981801093, -0.055678643286, -0.064030334353, -0.047906853259, 0.236606597900, -0.082971282303, -0.072042301297, -0.267287880182, 0.085657708347, -0.019820259884, -0.216719225049, 0.039035674185, -0.111912555993, 0.506077706814, 0.242212876678, -0.470282137394, 0.091425299644, -0.201788425446, 0.355665862560, 0.239791676402, 0.524490237236, -0.396451056004, -0.273249894381, -0.143144965172, 0.121849514544, 0.414740830660, 0.158739835024, 0.375375270844, 0.054208129644, 0.022870928049, 0.115664377809, -0.177469730377, 0.147911444306, 0.071155324578, 0.346431940794, -0.061244405806, 0.045282516629, -0.309536933899, -0.133898243308, -0.212890550494, 0.332080096006, 0.135894477367, 0.269022554159, 0.053322836757, 0.152842387557, 0.244761720300, 0.077442094684, 0.121304146945, -0.061365112662, -0.139009281993, -0.084533289075, 0.045363198966, 0.040617886931, 0.161731675267, 0.287071853876, -0.240343973041, -0.151261687279, 0.216735899448, 0.069583922625, 0.133490324020, 0.157091498375, -0.021923400462, 0.256657123566, -0.214572891593, 0.112312391400, -0.281255453825, -0.239390745759, -0.110549569130, 0.025562034920, -0.217588275671, -0.161667883396, 0.173247978091, -0.210629776120, -0.116334468126, -0.196619033813, 0.203027576208, -0.163996756077, 0.142221137881, 0.017337769270, 0.089305810630, 0.111503399909, 0.187157317996, -0.127733275294, -0.222961068153, 0.023878870532, -0.252640575171, -0.254569292068, 0.252075076103, -0.205951139331, -0.078583918512, -0.226393744349, -0.020581265911, -0.123251721263, -0.306079775095, -0.344816684723, 0.022985074669, 0.066285334527, 0.232637017965, -0.093016706407, 0.056220542639, 0.107521340251, -0.029822526500};
#endif

#endif
