//Numpy array shape [2, 32]
//Min -0.000068829308
//Max 0.000060629314
//Number of zeros 0

#ifndef KEY_BIAS16_H_
#define KEY_BIAS16_H_

#ifndef __SYNTHESIS__
multi_head_attention_4_default_t key_bias16[64];
#else
multi_head_attention_4_default_t key_bias16[64] = {-0.000006116858, 0.000015243098, -0.000007205300, 0.000002316356, 0.000000049804, 0.000005868348, -0.000009127885, -0.000003970391, -0.000003953525, -0.000000573086, 0.000008428211, -0.000002033637, 0.000015591753, 0.000015556876, -0.000026041547, -0.000002754196, 0.000000611084, -0.000000039626, 0.000005537458, 0.000002933710, 0.000005730406, 0.000007098671, 0.000024076060, -0.000012118393, -0.000000090074, -0.000007441935, 0.000024553308, 0.000010820910, 0.000002921611, 0.000002414039, 0.000000725261, -0.000011114958, 0.000002037659, 0.000000748999, -0.000020629344, 0.000016732336, -0.000036512520, -0.000043111355, -0.000014351456, -0.000046942732, 0.000051071253, -0.000006975257, -0.000012990622, -0.000018836778, 0.000002201245, 0.000046480476, -0.000011591915, 0.000038632927, 0.000029590101, 0.000014287355, 0.000014012822, -0.000000892533, 0.000049625214, 0.000028602677, -0.000043911117, 0.000008030997, 0.000034746445, -0.000009682374, -0.000019222212, 0.000009868182, -0.000068829308, 0.000025323976, -0.000003542148, 0.000060629314};
#endif

#endif
