//Numpy array shape [2, 32]
//Min -0.000022891447
//Max 0.000026363334
//Number of zeros 0

#ifndef KEY_BIAS2_H_
#define KEY_BIAS2_H_

#ifndef __SYNTHESIS__
multi_head_attention_2_default_t key_bias2[64];
#else
multi_head_attention_2_default_t key_bias2[64] = {0.000001802372, 0.000004797591, 0.000009000136, -0.000001676002, -0.000005009565, 0.000008292905, 0.000007793528, 0.000021438469, -0.000005131786, 0.000013077442, 0.000008599340, 0.000004897621, -0.000009948873, 0.000009179481, 0.000000299572, -0.000005166585, 0.000000052610, -0.000002923403, -0.000013567794, 0.000008054809, 0.000013543637, -0.000011647715, 0.000004030830, 0.000006323493, -0.000014072994, 0.000007497952, 0.000008254985, 0.000025474043, -0.000003550131, -0.000000639921, 0.000005006133, -0.000007205709, -0.000000377137, 0.000006660469, 0.000013088228, 0.000006016499, 0.000004721647, -0.000000858870, -0.000000231991, -0.000002515415, 0.000006611871, -0.000016469274, -0.000009579904, -0.000003483111, -0.000002308161, 0.000015457177, -0.000016488122, 0.000026363334, 0.000006948741, -0.000012970144, -0.000007277454, 0.000010054642, -0.000005234526, -0.000000092937, -0.000002169251, 0.000019248399, -0.000004139766, 0.000017490873, -0.000010023767, 0.000002494806, -0.000022891447, -0.000009399685, -0.000005833020, -0.000014864037};
#endif

#endif
