//Numpy array shape [2, 32]
//Min -0.423417955637
//Max 0.441067159176
//Number of zeros 0

#ifndef QUERY_BIAS2_H_
#define QUERY_BIAS2_H_

#ifndef __SYNTHESIS__
multi_head_attention_2_default_t query_bias2[64];
#else
multi_head_attention_2_default_t query_bias2[64] = {0.139845803380, 0.079109773040, 0.073326468468, -0.423417955637, 0.187703430653, 0.035735812038, -0.023787261918, -0.018599972129, 0.063837356865, 0.189189195633, -0.079414971173, 0.006876961328, -0.017135104164, 0.015384810045, -0.087970301509, 0.310246169567, -0.006072061602, 0.081040322781, 0.052583735436, 0.039406839758, 0.024680385366, -0.025104930624, 0.196166977286, -0.116958551109, 0.068614661694, 0.091146446764, 0.052952867001, 0.047543793917, 0.024954669178, 0.036739360541, 0.040737733245, 0.053035575897, -0.406356900930, -0.159280300140, -0.179583013058, 0.184506952763, 0.219589903951, 0.013838707469, 0.056879069656, 0.060332208872, 0.036229670048, -0.320423483849, 0.050286740065, 0.225767478347, 0.077324360609, -0.334331035614, -0.220978379250, 0.207532644272, -0.231998831034, 0.160684898496, -0.294874012470, -0.022209921852, 0.178067192435, 0.203267380595, 0.089465722442, 0.384780347347, -0.090801529586, 0.441067159176, -0.268243879080, -0.007042947225, -0.401545435190, -0.298431158066, 0.008705200627, 0.111512616277};
#endif

#endif
