//Numpy array shape [2, 6, 32]
//Min -0.463728338480
//Max 0.501122176647
//Number of zeros 0

#ifndef QUERY_WEIGHT16_H_
#define QUERY_WEIGHT16_H_

#ifndef __SYNTHESIS__
multi_head_attention_4_default_t query_weight16[384];
#else
multi_head_attention_4_default_t query_weight16[384] = {-0.050581712276, -0.159674569964, 0.099856138229, 0.032151915133, -0.105104796588, -0.120441682637, -0.051376141608, -0.025717644021, -0.092450395226, 0.110755614936, -0.133969232440, 0.043791498989, -0.174368843436, -0.150507465005, 0.129528880119, -0.159788027406, -0.000941787264, -0.073948785663, -0.143126577139, -0.151796653867, -0.019420400262, -0.108921475708, -0.207814395428, 0.160256102681, 0.012599527836, 0.131827145815, -0.028450705111, 0.039701573551, -0.060249835253, -0.081322863698, -0.087196663022, -0.185865029693, 0.010601180606, 0.009527154267, -0.159652695060, -0.062808357179, 0.245132416487, -0.077311411500, 0.209575340152, 0.126751914620, 0.126699522138, -0.093284741044, -0.091884493828, 0.032728213817, 0.035184748471, -0.105069614947, 0.067933820188, -0.032764010131, -0.128503620625, -0.088698223233, 0.138100519776, -0.070964023471, -0.066751122475, -0.081550851464, 0.016956275329, -0.014417776838, -0.051780465990, 0.068705253303, 0.075012937188, -0.095186859369, 0.045516490936, -0.078162014484, -0.015990871936, 0.234879404306, -0.108599260449, 0.145256787539, 0.116517938673, -0.060269117355, 0.161673977971, 0.126979991794, 0.037456084043, 0.163013577461, -0.094605453312, -0.006040499080, 0.100463584065, -0.011867773719, 0.145051985979, 0.105801276863, -0.111739262938, 0.135768517852, 0.152238965034, -0.135327190161, -0.020613135770, 0.003121565562, 0.001319946256, -0.020926110446, 0.125642806292, -0.019944909960, -0.055405996740, -0.119313053787, -0.023798666894, 0.019668033347, 0.078388288617, -0.008051428013, 0.006949200295, 0.211728096008, 0.025325952098, -0.120525680482, -0.043327830732, -0.130878180265, -0.072234332561, 0.157185226679, 0.057450313121, 0.059621885419, -0.061970707029, -0.101192437112, -0.088761560619, -0.034221567214, -0.086139291525, -0.238845616579, -0.112390302122, 0.071501724422, -0.018951145932, -0.192270204425, -0.142620652914, -0.037288308144, -0.123963795602, -0.053636990488, -0.165066465735, 0.181020617485, 0.001360275666, 0.208875074983, -0.248008027673, -0.098064266145, 0.028760729358, 0.081038929522, -0.018265873194, -0.072644948959, 0.073608167470, -0.115786969662, -0.132209718227, 0.057937625796, 0.148151472211, -0.136289790273, 0.079176209867, -0.078427679837, -0.014205339365, -0.067364484072, -0.076813243330, 0.128284007311, 0.208141550422, 0.044787697494, 0.057028271258, 0.178415939212, -0.020606270060, -0.032755803317, 0.159382879734, 0.042285442352, 0.084505371749, 0.124047428370, 0.285531699657, -0.007082760800, -0.001167505514, -0.110282428563, -0.053975138813, -0.260988324881, 0.159388899803, -0.151053339243, 0.075602702796, 0.193433105946, 0.110287003219, -0.088848516345, 0.083251744509, 0.004051140044, -0.074265010655, 0.027775572613, -0.094427369535, -0.051211487502, -0.082055747509, 0.159078493714, 0.021059127524, -0.049862105399, 0.055031925440, -0.015562836081, 0.001037072157, 0.093473918736, -0.091838628054, 0.101020760834, -0.114881321788, -0.011358557269, -0.029907781631, 0.126003563404, 0.203574791551, 0.014494008385, -0.231569141150, 0.163959503174, 0.139538407326, 0.149711728096, -0.235259771347, -0.000008762261, -0.101337239146, -0.003304935992, -0.033032607287, 0.254246264696, -0.213718518615, -0.150300711393, 0.025797713548, -0.001682958566, 0.027039501816, -0.066230103374, 0.212837845087, 0.039257321507, 0.153021767735, 0.041007202119, -0.192326113582, -0.043169487268, 0.059258963913, 0.248184353113, -0.267395168543, 0.251349300146, -0.100766882300, -0.002162029268, -0.363768607378, -0.086847685277, -0.126263946295, 0.154976144433, 0.019229019061, -0.007106035948, 0.048351760954, -0.111681602895, -0.068165995181, 0.261410474777, -0.162010192871, 0.113871142268, -0.103951960802, 0.055402517319, 0.501122176647, 0.405103534460, 0.276169955730, 0.408650845289, -0.045702159405, 0.027566438541, -0.163792029023, -0.036070026457, -0.104724369943, -0.176317334175, -0.117089420557, 0.160068333149, 0.162487402558, -0.127372652292, -0.214355587959, 0.250141978264, -0.006974061485, 0.200351715088, 0.207076966763, -0.166042417288, -0.103659518063, -0.161423191428, -0.178596466780, 0.199313506484, 0.397238373756, -0.193847820163, 0.122420154512, -0.056429367512, -0.131702855229, 0.050935391337, -0.022220460698, 0.078193396330, 0.333308994770, 0.217644885182, 0.153827816248, 0.081267476082, -0.052450526506, 0.167394056916, 0.034138072282, -0.050772774965, -0.248651847243, -0.059357702732, -0.074492067099, -0.221459314227, -0.053513240069, -0.320086330175, -0.001408200827, -0.008872715756, -0.126763433218, 0.004587206524, 0.315215975046, -0.095333218575, 0.232127904892, -0.144224867225, -0.219370171428, -0.005143302958, 0.151961579919, -0.058961577713, 0.291129320860, -0.029267566279, 0.008556815796, -0.137884393334, -0.131197378039, 0.239567682147, -0.275095313787, -0.084559276700, -0.250818610191, -0.291530042887, -0.066663451493, -0.057132799178, 0.334151059389, -0.198154017329, 0.367004603148, 0.184334978461, -0.051027670503, 0.070475906134, -0.075804308057, 0.438935160637, 0.078048259020, 0.075222432613, -0.192597836256, -0.105212949216, -0.392120599747, 0.055747464299, -0.262692749500, 0.203446373343, 0.091122061014, -0.057649839669, 0.184896692634, 0.178123638034, -0.200695946813, 0.179317161441, -0.105824865401, 0.385130256414, 0.089389026165, 0.182661667466, 0.001728701754, -0.265250504017, 0.006717344280, 0.221151351929, 0.042160242796, -0.155338406563, 0.166532784700, 0.264154225588, 0.008547769859, 0.152902185917, 0.136285990477, 0.000201812421, 0.249328657985, 0.141642600298, 0.090876787901, 0.096145771444, -0.006774073001, 0.250947505236, -0.330288857222, -0.030635129660, -0.203230738640, -0.056837752461, 0.272338300943, 0.096645958722, -0.074781455100, 0.061522271484, 0.270543873310, -0.047415126115, 0.022554730996, 0.067466817796, 0.002002791036, 0.060077898204, -0.101975366473, -0.258735477924, 0.077821657062, 0.083945281804, -0.255194276571, -0.052255425602, -0.222346961498, 0.158169403672, -0.463728338480, -0.024737652391, 0.001935109030, -0.398964494467, 0.268307179213, -0.152696803212, 0.057366758585, -0.314501106739, 0.183856576681, 0.014936745167, 0.245134875178, 0.032066654414, 0.219119042158, -0.112547539175, 0.033427648246, 0.107818596065, -0.130843952298, -0.035740770400, 0.252648413181, -0.279847443104, 0.067012444139, -0.307385653257};
#endif

#endif
