-0.089273832738, -0.068930670619, 0.057238396257, -0.049389000982, -0.059269294143, -0.072482630610, -0.038442004472, -0.006542621180, 0.129545554519, 0.027745338157, 0.046406172216, 0.095930345356, -0.001834809198, 0.149784103036, -0.089930728078, -0.026165099815, -0.094744168222, 0.010926543735, 0.048091441393, -0.063237927854, -0.132523402572, -0.117148146033, 0.020293639973, -0.001804229687, 0.132084697485, -0.116226054728, -0.117285899818, 0.009160430171, 0.016494583338, -0.023338954896, -0.062300242484, 0.046484205872, 0.105676613748, 0.052871190012, 0.150621503592, -0.072078645229, -0.084871798754, 0.042078886181, 0.121385514736, 0.151407673955, -0.036767292768, -0.084135897458, -0.054708015174, -0.027769688517, -0.042888935655, 0.025688096881, 0.049918092787, -0.017255306244, -0.043447121978, -0.054766904563, -0.083121031523, 0.113300323486, -0.002874115249, -0.079358585179, 0.122091233730, 0.129185408354, -0.051865853369, -0.001101867063, -0.041975095868, -0.135366141796, -0.054174192250, -0.070357091725, -0.004292129539, 0.047326296568, -0.105963923037, -0.093336477876, -0.026480775326, -0.097471103072, 0.079752326012, -0.144264146686, -0.033574331552, 0.054000329226, 0.069501332939, -0.069603279233, -0.101289749146, -0.054646007717, 0.095623567700, -0.042269472033, 0.106263741851, -0.167498975992, -0.111506961286, 0.094458729029, -0.077960819006, 0.113714382052, 0.079205185175, 0.117199443281, -0.128857225180, -0.087432317436, -0.025306018069, -0.110831864178, -0.038324713707, -0.039607655257, 0.031013725325, -0.041358634830, -0.106117606163, -0.023451881483, -0.103463739157, 0.016085939482, 0.047962084413, 0.078416459262, 0.053028747439, 0.084705799818, -0.072938024998, 0.112678661942, 0.115578874946, -0.058255460113, 0.086156979203, 0.069982632995, -0.011643493548, -0.080743737519, -0.051986765116, -0.092713162303, 0.026527509093, -0.046487689018, 0.047945123166, -0.050158545375, -0.001450658310, 0.111599348485, -0.051670029759, -0.089144915342, -0.062190994620, 0.013985537924, -0.094331972301, -0.038108788431, -0.101179838181, -0.064342178404, 0.023998923600, -0.046289585531, 0.043671261519, 0.048458103091, 0.212988063693, 0.013347410597, -0.083561077714, -0.008675497025, -0.040199100971, 0.002476423280, -0.188330411911, 0.004211940803, 0.153221979737, -0.014125850052, -0.122160553932, 0.033853802830, -0.051884684712, 0.038052752614, 0.076180532575, 0.058286689222, 0.015265597962, 0.117611601949, 0.124663025141, 0.060459513217, 0.072818465531, -0.107493750751, 0.001612237538, -0.088001430035, 0.109325990081, -0.175331026316, 0.055348373950, -0.011526574381, -0.042912166566, -0.008328991942, -0.083408355713, -0.039106901735, 0.202276483178, 0.002220339142, 0.167141437531, -0.076885849237, 0.003961888608, -0.048211704940, 0.047102928162, 0.210423633456, 0.007135876920, -0.159887403250, 0.031986597925, -0.176033332944, 0.149614512920, 0.175682380795, -0.016070660204, 0.056091610342, -0.108378812671, 0.119975939393, -0.035802364349, -0.184315770864, 0.119979113340, -0.067688785493, 0.126887664199, 0.073197051883, 0.018766557798, -0.075393177569, -0.050292160362, -0.242266148329, 0.078440390527, -0.009949209169, -0.084409222007, -0.013760312460, -0.011342897080, 0.176965594292, 0.079648941755, 0.006770089269, 0.018426187336, 0.166665598750, -0.075570374727, 0.084073550999, -0.058591019362, 0.034346226603, -0.112846769392, 0.054582186043, 0.012339181267, 0.125414192677, -0.056498903781, -0.065698660910, -0.049242708832, 0.049485944211, 0.016073994339, -0.070198550820, 0.028669785708, 0.085068039596, 0.037227280438, -0.133980467916, 0.080730237067, 0.096118740737, 0.012636722997, -0.085443601012, -0.030640909448, -0.121472664177, 0.109580568969, -0.109611541033, -0.138718500733, -0.066013045609, -0.043259315193, -0.117692716420, 0.146139115095, -0.004074997269, -0.101613238454, -0.111311785877, 0.050740011036, -0.040037974715, -0.024838002399, 0.062322251499, 0.019246442243, 0.072842575610, 0.173016503453, -0.053132191300, -0.129677951336, 0.084701851010, -0.024427020922, -0.149357408285, 0.092208027840, -0.011742275208, 0.070136345923, -0.024224620312, -0.078792229295, 0.057175647467, 0.024950079620, -0.072417981923, 0.120064698160, 0.011753520928, -0.100877277553, -0.072516001761, 0.165902897716, -0.110020875931, -0.117516681552, -0.074198149145, -0.064832746983, -0.123708114028, -0.034815471619, -0.054057098925, 0.017388619483, -0.132746800780, -0.098325274885, -0.029467385262, 0.052617929876, -0.058942951262, -0.067778818309, -0.059762760997, -0.012294780463, 0.070092342794, 0.105170585215, 0.129591539502, 0.019295278937, -0.147980749607, -0.152928993106, 0.070893481374, -0.006638678722, 0.004977363627, -0.116320334375, 0.124028682709, 0.082603320479, -0.030456688255, 0.097356706858, 0.153027042747, -0.026347989216, 0.133915886283, 0.078530162573, 0.117264345288, -0.130830973387, 0.018580006436, 0.176102250814, 0.046970818192, -0.108166761696, -0.027872784063, -0.051879517734, -0.095482856035, 0.085841782391, -0.028933487833, -0.129177466035, 0.174836397171, 0.140331730247, -0.002340198494, -0.057963084430, 0.116699896753, -0.108991220593, -0.056721035391, 0.078672803938, 0.051158234477, -0.007932450622, 0.097368061543, -0.054923538119, -0.048091612756, -0.107112057507, 0.088576763868, 0.127996787429, -0.072016246617, -0.180486366153, 0.066626951098, 0.104523912072, -0.060715556145, 0.000571823097, -0.005394922104, -0.003116165288, -0.137827008963, 0.179008111358, -0.003742478555, -0.047277312726, 0.033127304167, -0.173406735063, 0.109229460359, -0.044615115970, 0.140823274851, 0.123979307711, -0.049683578312, 0.005183841102, 0.082126192749, 0.027636155486, -0.010600349866, 0.157888606191, -0.034512892365, -0.079069368541, 0.007636174094, 0.133777186275, -0.136410325766, -0.170165881515, -0.130895331502, 0.032037936151, -0.078908808529, 0.076901011169, 0.075015231967, 0.140167132020, 0.028456142172, 0.043690029532, 0.035596083850, 0.025191731751, 0.020761068910, -0.147707745433, 0.026335181668, 0.069278411567, 0.018162481487, 0.159558385611, -0.135015025735, -0.113513872027, -0.032210424542, -0.038032289594, -0.050649255514, 0.084685117006, -0.147999987006, -0.042214944959, -0.121542528272, 0.067477568984, 0.084371760488, -0.074308559299, -0.036784302443, -0.078780226409, 0.042177770287, -0.115589380264, -0.008234433830