-0.022207831964, 0.000363398634, -0.031343087554, 0.045655533671, 0.010612049140, -0.007618958130, -0.000130130749, -0.007093731314, 0.007560796104, -0.009976271540, -0.028516465798, 0.012341105379, -0.020221404731, 0.015269476920, 0.010975582525, 0.004347865935, -0.000200543611, 0.000918742677, -0.009581094608, 0.018394257873, 0.011608785018, -0.049708902836, -0.003051575506, 0.074520081282, 0.009331468493, 0.006718227640, 0.012858589180, 0.015107166022, -0.033719614148, 0.011853637174, 0.021628763527, 0.040896408260, -0.016939798370, -0.003739515552, 0.010283726268, 0.016347195953, -0.045327831060, -0.020349588245, 0.013156575151, -0.000234876003, 0.005755920429, -0.017649644986, -0.024933215231, 0.065024644136, -0.040333952755, -0.027730600908, -0.001436459017, -0.007756491192, 0.016326116398, -0.047813978046, -0.019377138466, -0.029761038721, -0.056831203401, -0.020305903628, 0.006087098271, 0.023147154599, 0.012205798179, 0.016169399023, 0.001519381418, 0.017322057858, -0.013249499723, 0.012985961512, -0.063815005124, -0.001479399041