-0.047316685319, 0.087866880000, -0.100912109017, 0.002959286794, 0.120478250086, 0.023628633469, -0.137634426355, 0.012001948431, 0.002823445480, 0.106623746455, -0.079620152712, 0.136933296919, -0.110848680139, 0.161618068814, 0.111060202122, -0.069212965667, -0.009226858616, -0.057290744036, 0.061786036938, 0.037447713315, -0.092209979892, -0.155672416091, 0.073297403753, -0.100122265518, -0.026003008708, -0.130443900824, 0.053727496415, -0.038199491799, 0.018763421103, -0.044980198145, 0.162739083171, 0.181373432279, 0.015023493208, 0.017141779885, 0.100214399397, 0.058644726872, -0.064395174384, -0.217713475227, -0.164525002241, -0.100011102855, 0.007865642197, 0.053030487150, -0.094572439790, -0.028289012611, -0.058755248785, 0.069344222546, -0.078832291067, 0.117016620934, -0.115687184036, 0.123844891787, -0.219202578068, -0.020996008068, 0.172279387712, -0.049222636968, 0.117048442364, -0.006960561499, 0.059427965432, 0.018474824727, 0.140248686075, 0.138859704137, 0.004028430209, -0.080466136336, -0.035805385560, -0.074748650193, 0.098752588034, -0.034884359688, -0.130345106125, 0.091187559068, 0.090095616877, 0.031951505691, 0.090877778828, 0.003869947046, -0.062182694674, -0.098750412464, -0.120978772640, 0.052047878504, -0.069642543793, -0.011955671012, 0.080976933241, 0.000524874078, 0.029208129272, -0.000145272716, -0.056744001806, -0.085954979062, -0.094119079411, -0.052787758410, 0.054310567677, 0.170170083642, -0.091429248452, 0.140570461750, 0.068732656538, 0.106676988304, -0.006971122231, -0.046148825437, 0.153303474188, 0.112281225622, -0.139998465776, 0.142015069723, -0.015627874061, 0.089761443436, -0.097344897687, -0.096980087459, -0.016825437546, -0.101259581745, -0.083500474691, 0.148056179285, 0.093174397945, -0.109152399004, -0.091422617435, 0.140402942896, -0.121624238789, -0.058134984225, -0.089937493205, -0.139626502991, -0.007119351067, 0.139203429222, -0.014118948951, 0.005876918789, 0.085599176586, -0.033180005848, 0.133202865720, 0.060869347304, -0.069361269474, -0.138051971793, -0.034486450255, -0.017545007169, 0.191935807467, -0.152355283499, 0.068614363670, 0.121590003371, 0.057420194149, 0.059650119394, -0.012611133978, 0.111132822931, 0.004294069950, -0.122734852135, 0.047893300653, -0.015421857126, 0.092065446079, -0.059147506952, -0.023517251015, -0.091891855001, 0.054031908512, 0.130897060037, 0.014606335200, -0.103554092348, 0.118662394583, -0.071015909314, 0.103775359690, -0.082914315164, -0.014973086305, 0.068206004798, 0.045768566430, 0.064915478230, 0.045421760529, -0.032233901322, -0.087803520262, 0.017577346414, -0.057877968997, 0.096246622503, -0.099498264492, 0.042217880487, 0.060754913837, 0.033646117896, 0.030363244936, 0.176657304168, -0.082799568772, 0.148606196046, -0.060593046248, -0.100589483976, -0.021846743301, -0.006000794470, 0.221800744534, -0.100260838866, -0.016912663355, 0.116869747639, 0.141622647643, 0.008537262678, -0.027224591002, 0.061921406537, 0.092788539827, 0.020299758762, 0.051391854882, -0.102498039603, -0.030873037875, -0.032342601568, 0.010949684307, 0.003301614430, 0.007840697654, -0.001483952627, 0.053632460535, -0.009770724922, -0.043353438377, 0.149798288941, -0.099585175514, 0.086800552905, -0.022518474609, 0.048243518919, -0.021431786940, 0.172037065029, -0.019877426326, 0.014748371206, 0.067652225494, 0.160656303167, 0.126998737454, 0.078087963164, -0.100536897779, 0.038253176957, -0.063916936517, -0.051660817116, 0.089336134493, 0.066795885563, -0.109960295260, -0.149783357978, 0.078488670290, -0.146880805492, 0.018059499562, 0.075628042221, -0.053942237049, -0.115372873843, -0.040783938020, -0.003782877699, -0.157495394349, 0.030910199508, -0.097466118634, 0.050007291138, -0.135157108307, 0.085111819208, -0.041255418211, -0.137422576547, 0.200907990336, 0.072332724929, 0.089825801551, 0.115364193916, 0.199953660369, 0.143704473972, -0.022952951491, -0.006395557895, 0.025547808036, 0.108415931463, 0.089102625847, 0.022607015446, 0.213071212173, -0.055508993566, 0.139110714197, 0.019525069743, 0.084459424019, -0.140453711152, -0.030501784757, 0.000258795830, 0.081480443478, 0.114820368588, 0.070914797485, -0.201342508197, 0.066555902362, 0.122279025614, 0.142320364714, 0.026574898511, 0.086957804859, -0.063240274787, -0.130791321397, -0.024604456499, -0.037467267364, -0.039436288178, -0.171957671642, 0.050099939108, -0.014987512492, 0.048093255609, -0.126812160015, -0.047901660204, -0.016280323267, -0.137160509825, -0.036692433059, -0.175011187792, -0.088040046394, -0.019344436005, -0.042272482067, -0.129739478230, -0.115856304765, 0.004119088408, 0.034503430128, 0.115129061043, 0.061964467168, -0.010258627124, -0.011970657855, 0.121764138341, -0.121931761503, 0.061738122255, 0.076865538955, 0.001943831798, 0.120934568346, -0.004211672582, 0.101073883474, 0.179451435804, -0.008227529004, -0.019332475960, -0.014122738503, 0.196305766702, 0.074543118477, -0.170067384839, -0.170026555657, 0.057918138802, -0.109155051410, 0.122391484678, -0.043778952211, 0.024352662265, -0.109937109053, -0.050412394106, 0.105712190270, 0.053575582802, -0.042253483087, -0.145364493132, -0.073865711689, -0.055493649095, -0.083635240793, 0.016452183947, 0.061880484223, 0.113181605935, -0.056506216526, -0.030233088881, -0.049002196640, 0.104594148695, -0.133550718427, 0.179865628481, -0.018017562106, 0.055595315993, 0.025875290856, 0.040885645896, -0.079745054245, -0.007803389337, 0.078918658197, -0.085149720311, -0.096591211855, 0.059935517609, -0.183095380664, -0.154033139348, -0.027354825288, -0.003833740018, 0.034073550254, 0.102492697537, 0.050457064062, -0.105241380632, -0.123606778681, -0.085256554186, -0.146446496248, -0.028644138947, -0.040005732328, -0.154787853360, 0.104661874473, -0.040461044759, -0.193383589387, 0.104193143547, 0.003726156661, -0.035450264812, -0.029691779986, 0.052338566631, -0.197829425335, -0.142288610339, 0.011233542114, -0.100792497396, 0.159648701549, -0.051821429282, -0.136063709855, 0.037584401667, 0.081274583936, -0.123377837241, -0.080364204943, -0.067574523389, -0.003802714869, 0.057995680720, -0.024166313931, 0.080037131906, -0.076748676598, -0.113711252809, -0.009211500175, 0.113338567317, 0.141642376781, -0.000798026565, -0.033563714474, -0.095918357372, -0.040322881192, -0.139002382755, -0.133848652244, -0.036847945303