//Numpy array shape [2, 32]
//Min -0.031499754637
//Max 0.030180938542
//Number of zeros 0

#ifndef VALUE_BIAS2_H_
#define VALUE_BIAS2_H_

#ifndef __SYNTHESIS__
multi_head_attention_2_default_t value_bias2[64];
#else
multi_head_attention_2_default_t value_bias2[64] = {0.021960999817, 0.016973141581, -0.019888963550, 0.019828910008, -0.005444764625, 0.024867035449, 0.007615945302, 0.000710128690, 0.008934830315, -0.008248737082, 0.004109901842, 0.012691862881, -0.005501513369, -0.001393813873, -0.014166657813, 0.007184992079, 0.009731009603, -0.009648713283, 0.010453010909, -0.031499754637, -0.019197216257, -0.012172600254, 0.012002483010, 0.007066098507, -0.015090895817, 0.007493061014, 0.006878416985, 0.030180938542, -0.012020883150, 0.016568629071, -0.002034659497, 0.001446603099, -0.009086219594, -0.009373852983, 0.022205775604, 0.021643597633, 0.017732715234, 0.004224956967, 0.008035277948, 0.007792222314, 0.002788627055, -0.000340423576, -0.018705109134, 0.009994160384, 0.012673922814, 0.005634109490, 0.014835366979, -0.000604315661, -0.008308089338, -0.024122644216, -0.007383084856, 0.002727383748, -0.003428013762, -0.017251137644, 0.001732056611, 0.008476302959, 0.014589997940, 0.000436472677, -0.001883417601, 0.001240607467, -0.010937043466, -0.006265079603, 0.014079455286, 0.022472925484};
#endif

#endif
