//Numpy array shape [6, 8]
//Min -0.842099308968
//Max 1.784675240517
//Number of zeros 0

#ifndef W11_H_
#define W11_H_

#ifndef __SYNTHESIS__
dense_10_default_t w11[48];
#else
dense_10_default_t w11[48] = {0.437317848206, -0.297925770283, -0.464990973473, 0.558973371983, 0.119194149971, 0.071081444621, -0.291749000549, 0.367882251740, 1.545175671577, 0.011710462160, 0.015716912225, 0.033073659986, -0.015089361928, 0.904565930367, -0.127482593060, 1.784675240517, -0.009321133606, -0.045580744743, -0.351940602064, 0.551103174686, 0.761242449284, 1.185786128044, -0.014459043741, 0.023530937731, -0.842099308968, -0.079113915563, 0.197769165039, -0.622734010220, -0.117011673748, 0.361972063780, 0.029431531206, 0.191275700927, -0.189712688327, -0.568966388702, -0.453214645386, 0.159620329738, -0.389500916004, 0.289441406727, 1.710596680641, 1.045150041580, 0.047459047288, 0.023361548781, -0.593396365643, -0.309275567532, 0.108718268573, -0.348062843084, -0.104506395757, 0.363316684961};
#endif

#endif
