//Numpy array shape [8, 6]
//Min -1.433987498283
//Max 1.033303380013
//Number of zeros 0

#ifndef W13_H_
#define W13_H_

#ifndef __SYNTHESIS__
dense_11_default_t w13[48];
#else
dense_11_default_t w13[48] = {0.164233222604, 0.981558799744, 0.079547017813, 0.164882630110, 0.424682855606, -0.366626977921, 0.819327473640, -0.223474144936, -0.412199765444, -0.783403396606, 0.268364220858, -0.200921356678, 0.291468501091, 0.118320666254, 0.215464949608, 0.425539642572, 0.909083962440, -0.258549332619, -0.775721848011, -0.460383772850, -0.398866951466, 0.895132541656, -0.065943196416, -0.754056751728, 0.034007605165, 0.615132689476, -1.433987498283, 0.960212886333, 0.081954292953, 0.870681047440, 1.033303380013, 0.108500130475, 0.325099796057, 0.870419204235, -0.769949257374, 0.465937882662, -0.070630848408, 0.369340956211, 0.428637474775, 0.068301752210, 0.251195847988, -0.681763052940, -0.318970829248, 0.155968934298, -0.275515168905, 0.205133736134, -1.362713813782, -0.409087151289};
#endif

#endif
