//Numpy array shape [6, 8]
//Min -0.869617521763
//Max 1.254394173622
//Number of zeros 0

#ifndef W18_H_
#define W18_H_

#ifndef __SYNTHESIS__
dense_12_default_t w18[48];
#else
dense_12_default_t w18[48] = {1.254394173622, -0.267666727304, 1.060582637787, -0.445715934038, -0.078283451498, -0.045560277998, -0.816955208778, 0.406109064817, 0.391760289669, -0.869617521763, -0.078900143504, 0.201523929834, 0.418618410826, 0.649456024170, 0.044414568692, -0.284345507622, 0.394617646933, -0.201448634267, -0.542595386505, 0.032676022500, 0.494872301817, -0.534847974777, 0.153246298432, 0.003143124748, -0.096288353205, 0.140337884426, -0.117524228990, 0.636543989182, 0.079715870321, -0.174259483814, -0.000556422980, 0.025858493522, -0.244583964348, -0.522997558117, -0.438146710396, 0.088869176805, -0.407660603523, -0.239119783044, 0.691967010498, 0.751798272133, 0.123460605741, 0.329132378101, 1.062473535538, -0.263399899006, 0.784745156765, -0.074168227613, -0.578596770763, -0.235217392445};
#endif

#endif
