//Numpy array shape [6, 8]
//Min -2.119373321533
//Max 2.066653966904
//Number of zeros 0

#ifndef W4_H_
#define W4_H_

#ifndef __SYNTHESIS__
dense_8_default_t w4[48];
#else
dense_8_default_t w4[48] = {0.350076049566, -2.119373321533, -0.025598118082, -1.246616244316, 0.011060422286, 0.001658383058, 1.014330863953, -1.157346248627, 0.348609238863, -0.217119887471, 0.025917863473, -0.006224588957, -0.075539723039, 0.297391325235, -1.173640251160, -0.250783085823, 0.007374777459, 0.017834642902, -0.377610743046, 2.066653966904, 0.059078775346, 1.023042201996, -0.014523949474, 0.003777571721, 1.044986724854, 1.253307342529, -0.075376048684, 0.573498427868, 0.028762435541, -0.027184031904, 1.382485151291, 0.667006194592, -0.170774370432, 0.409281551838, 0.030058853328, -0.007389052305, -1.049776792526, -0.419744402170, 0.145973697305, 0.391096353531, 0.006479954813, 0.027672650293, 0.121387161314, -0.290823400021, 0.077046453953, 0.718701481819, 0.050849523395, -0.061345018446};
#endif

#endif
