//Numpy array shape [2, 32, 6]
//Min -0.367418140173
//Max 0.334756195545
//Number of zeros 0

#ifndef ATTENTION_OUTPUT_WEIGHT9_H_
#define ATTENTION_OUTPUT_WEIGHT9_H_

#ifndef __SYNTHESIS__
q_multi_head_attention_46_default_t attention_output_weight9[384];
#else
q_multi_head_attention_46_default_t attention_output_weight9[384] = {0.08538050205, 0.11654363573, 0.06407282501, 0.01936691627, 0.25419989228, -0.07301381230, -0.05676025152, 0.03506044671, 0.16832341254, -0.10806417465, 0.10729803890, -0.05085375160, 0.12301925570, -0.12552727759, -0.09043744951, -0.00251400145, 0.15439437330, 0.20964024961, 0.00493263779, 0.10505442321, 0.09245070815, -0.04307167977, -0.07173993438, -0.13218940794, -0.02865358070, 0.00559945451, 0.03026532196, 0.10491678119, -0.09750805050, 0.08573358506, -0.06183493137, 0.08638099581, 0.10516656935, -0.10913245380, 0.02687652223, -0.11799748242, -0.16289368272, 0.22003819048, 0.25134497881, 0.03299625963, 0.03836530074, -0.10082959384, 0.03375808895, 0.11281052977, 0.17750725150, -0.12459485233, -0.04018859938, 0.17047588527, 0.06541403383, 0.14640139043, 0.08769039065, -0.08894018084, -0.04398052394, -0.13567396998, 0.03677748889, -0.17101901770, -0.18535305560, 0.09323833138, 0.09481910616, 0.21119074523, 0.13521657884, -0.12772943079, -0.11314307153, -0.09156049788, -0.01829302125, -0.09077396244, 0.14867572486, -0.04395330697, -0.02906871587, -0.06348966807, -0.22887177765, -0.15718610585, 0.03335367516, -0.18390651047, -0.15955056250, -0.02652157657, -0.09336319566, -0.24848203361, 0.03426199034, -0.04774951190, -0.03367989883, 0.04093974456, 0.08154828101, 0.11234693974, -0.02661369741, 0.03761241212, -0.08169885725, -0.06162913516, 0.16902211308, -0.07545273006, 0.04809636623, 0.09867591411, 0.02363391779, -0.16874480247, 0.11382940412, -0.22783982754, 0.07555264980, 0.22082468867, 0.15924035013, 0.09109938145, -0.16688437760, 0.21981933713, -0.19517588615, 0.17671033740, -0.20033024251, 0.04422261938, 0.09991683066, 0.04556952044, 0.15245389938, -0.00142433960, 0.08145155758, -0.01081873942, -0.12575823069, -0.23683257401, 0.12022262812, -0.15312699974, -0.08031840622, 0.03335908428, -0.05020704120, 0.08801805973, 0.10651718825, 0.15133066475, -0.04643436894, -0.31502148509, -0.17979559302, -0.09384585172, 0.05992530659, 0.09682483971, 0.09466419369, 0.03307326883, 0.14257335663, 0.02818679810, 0.00506141083, 0.15604341030, -0.03069336526, -0.08282977343, 0.14850161970, -0.16175109148, 0.06168284640, -0.15566927195, -0.10580652952, 0.14182183146, 0.20606540143, 0.15363496542, -0.14831861854, -0.04515809566, 0.02709918097, -0.11982189864, -0.04426808655, -0.15740865469, -0.13387624919, 0.03551917523, -0.05289476365, -0.21221095324, 0.21760520339, -0.21090005338, -0.09384622425, -0.06523521990, -0.03431038558, 0.14666482806, -0.09514103830, -0.09041987360, 0.02740096673, -0.12048760802, 0.01084006391, 0.05566612631, -0.22799004614, -0.03414069116, -0.18209835887, 0.18918299675, 0.15538650751, -0.10847613961, 0.21253588796, 0.15565691888, 0.08163716644, 0.27465385199, -0.00736187398, -0.28760841489, 0.01982562989, 0.09963239729, 0.04049734771, 0.06661292911, 0.12389457971, -0.07426507771, 0.04666738585, 0.04595697299, -0.02900573611, -0.15519356728, -0.00015898584, 0.01529106218, -0.28358510137, 0.21772646904, 0.16086843610, 0.06359346211, 0.14918775856, 0.21992705762, 0.14545324445, -0.02241412178, -0.00524087297, -0.15190671384, -0.05560287088, -0.05749463663, -0.05759918690, -0.03291876614, -0.26889985800, 0.00845721271, -0.02545097098, 0.21458868682, 0.18206007779, -0.04470751062, -0.06500506401, 0.03023633361, 0.02679090388, 0.03010818176, -0.16521504521, -0.18210445344, 0.09409242868, -0.02765092440, 0.03195657581, -0.07160931826, 0.21016052365, -0.10279534757, 0.02295056544, 0.11463376135, -0.15604129434, -0.09213463962, 0.18818713725, 0.11498619616, 0.00968394801, -0.13042990863, -0.03000321239, 0.11407405883, -0.22174620628, 0.14918638766, 0.12626320124, -0.01602244005, -0.13909518719, -0.08307971805, -0.13265469670, 0.08732216060, 0.02929574251, 0.00244514924, -0.02250015922, -0.02857152000, -0.12902890146, -0.07698957622, 0.12231853604, 0.15372462571, 0.09668007493, -0.09431026131, 0.25672861934, 0.26415666938, -0.05460550264, -0.22287409008, -0.07733622193, 0.21680846810, -0.20120510459, 0.06890530139, -0.02178413235, -0.18550828099, 0.04135285318, 0.09498248249, -0.36741814017, 0.08653422445, -0.12835256755, 0.00237458409, -0.10682462156, 0.01324085053, 0.16954036057, 0.01687348634, -0.03674615920, -0.14703759551, -0.14149801433, 0.03492211178, -0.04139773175, 0.09444443136, -0.15404313803, 0.04059314728, -0.02346485481, 0.00210106373, -0.03257699311, -0.13352923095, 0.05469810590, 0.13582867384, 0.03043601662, -0.15506462753, -0.17466844618, 0.06961212307, 0.02960262261, -0.09499306977, -0.08185979724, 0.10886861384, 0.20489817858, -0.04985954985, -0.15666364133, 0.13702265918, 0.08464784175, -0.00491026510, 0.12877821922, -0.35768571496, -0.09211197495, 0.08707848191, -0.05339323357, 0.08693367243, 0.09234291315, -0.15045480430, -0.11359854043, 0.01157362107, 0.08984328061, 0.15362004936, -0.29042002559, 0.22676278651, 0.02734596469, -0.09414995462, -0.10089235753, 0.07751190662, 0.33475619555, -0.07995313406, -0.14172287285, -0.01815319993, 0.12519091368, -0.12362871319, -0.11379151046, 0.18113058805, 0.19939075410, 0.06387896091, 0.08974782377, -0.05656581372, -0.18272334337, -0.12431652844, -0.08713551611, 0.15212005377, 0.08178351820, -0.11135585606, -0.24625219405, -0.03955727443, 0.25081509352, 0.19878737628, -0.02637646347, -0.22253826261, 0.00985237584, 0.12520195544, 0.01019781176, 0.10698042810, 0.14694307745, -0.20940785110, 0.17529825866, 0.23584362864, -0.00387718598, 0.03721828386, 0.01913909428, -0.07922206074, -0.01225397456, -0.28867921233, -0.11331959814, 0.08375160396, -0.05761023983, -0.02903112955, 0.13452976942, 0.05365328863, -0.02810933441, -0.09059356153, -0.02308465913, -0.12287505716, -0.07247456908, 0.15809804201, 0.03447381034, -0.06724248081, -0.00415599346, -0.05709628388, 0.19943583012, 0.27871903777, -0.25903701782, 0.04445791990, -0.01841323078, -0.19164340198, -0.24141924083, -0.26102763414, 0.03043652698, -0.04419510812, 0.03188385814, 0.03616450727, 0.11725821346, 0.10072737187};
#endif

#endif
