0.09179815650, 0.02058069967, 0.18973277509, -0.25574126840, -0.12192780524, -0.13275840878, 0.03419618309, -0.21963968873, -0.04516613856, -0.15354990959, 0.00128195365, -0.03080282360, 0.12825207412, -0.03712452948, 0.01022159122, 0.14561897516, -0.17600432038, 0.10025790334, 0.28057768941, 0.09203983843, -0.02877408825, -0.30954658985, -0.02077417634, 0.27125477791, 0.07529951632, 0.39647710323, 0.17405878007, -0.02863450721, 0.00286388281, -0.04077471048, -0.13611695170, 0.12373416126, 0.02333225869, 0.00716234650, 0.12907865644, 0.15968069434, 0.05437063798, 0.23420420289, -0.22469221056, 0.18863873184, 0.11791358143, 0.13138657808, 0.16105936468, 0.08909750730, 0.09332489222, 0.08532341570, 0.14315932989, -0.01819314435, -0.02288685553, -0.21845649183, 0.04163081199, -0.08603160828, -0.15652501583, 0.11011612415, -0.14492221177, -0.22438465059, 0.24833552539, -0.07500008494, 0.12795168161, 0.09467341751, -0.15275633335, 0.03912213072, 0.04261812195, -0.32207277417, 0.04639915749, 0.11546258628, -0.19683066010, 0.19904948771, 0.16138485074, -0.13125447929, 0.03075632453, -0.28341701627, 0.08293292671, 0.32995542884, -0.08458011597, -0.05680745468, 0.07035308331, -0.05446686596, 0.15313750505, -0.04083792120, -0.11530215293, -0.34448307753, -0.06186014041, -0.05003502220, -0.03214294836, 0.13112962246, 0.04881418124, -0.02486811765, 0.08862630278, -0.15787121654, -0.17544005811, -0.31615376472, 0.05625103414, -0.23453022540, -0.03633653373, 0.04113473743, -0.00660444098, -0.13651689887, -0.27305826545, 0.17726466060, -0.14370636642, -0.04249629751, 0.09801356494, 0.12292349339, 0.02226482518, -0.15764386952, -0.14662784338, -0.18362219632, -0.21310766041, 0.04912120849, -0.11023635417, -0.05627296865, 0.23368519545, -0.06294523925, -0.25379431248, -0.11370017380, -0.01261073165, 0.13423839211, 0.01459316257, -0.05019803345, -0.08825539798, 0.11237998307, -0.03119196743, 0.10035008192, 0.03544590622, 0.00308706379, -0.17307989299, -0.14819781482, 0.18383865058, -0.18087731302, 0.06503947824, -0.15839967132, 0.02178584784, 0.36922535300, 0.26248568296, 0.16005906463, -0.09349621087, -0.27304035425, 0.20684896410, 0.11449228227, 0.14372506738, -0.18028059602, 0.14998348057, 0.22400285304, -0.20800019801, -0.08071130514, -0.13072103262, -0.15363723040, 0.15568251908, -0.22353488207, -0.09626727551, -0.13923983276, 0.17961567640, 0.02928873710, -0.17064951360, -0.11101279408, 0.16226610541, 0.21043342352, -0.16426578164, 0.27534317970, -0.01708774082, 0.25039482117, 0.03219052032, 0.15439638495, 0.03778177500, 0.08018867671, -0.03780223802, 0.01190685946, -0.07571613044, -0.02358851023, -0.09648313373, -0.13452239335, 0.19117587805, 0.13329201937, -0.03649177775, -0.00928488187, 0.11201284826, 0.17710287869, -0.03614401072, -0.02663173527, -0.12935751677, -0.13047371805, 0.15450072289, -0.24775707722, -0.10080385953, -0.10046361387, 0.03494065627, -0.18955340981, 0.08485233039, 0.02839325927, 0.03188658878, 0.15727432072, 0.11729385704, 0.12303128093, 0.19553217292, 0.17548108101, -0.05532240123, 0.00511134882, -0.11666004360, 0.20438659191, 0.05769408867, -0.09367007017, 0.05246960744, -0.17803430557, 0.09808284044, -0.28683850169, 0.18992452323, 0.04805253446, 0.21910350025, -0.12267675251, -0.06325257570, 0.16497863829, -0.03078453243, 0.13742107153, 0.21774049103, -0.04750771075, 0.15649801493, 0.07065450400, -0.24341192842, 0.12145406008, -0.06296793371, -0.31484040618, 0.30315962434, 0.01266398281, 0.18777944148, -0.04001103714, 0.10682840645, 0.31264552474, -0.04593409970, 0.09911792725, -0.08167891204, 0.26963382959, -0.05560688302, 0.17730669677, -0.32701736689, -0.19221216440, -0.11832223088, 0.38296461105, -0.08008008450, -0.11881624162, -0.12562689185, -0.24369753897, -0.12333337218, 0.06206732616, 0.01949354820, 0.10829569399, 0.03102027252, -0.02338545769, 0.26855668426, 0.32285028696, 0.23139116168, 0.31770882010, 0.09301385283, 0.15887962282, -0.14838887751, 0.24062409997, -0.17755383253, -0.26281887293, -0.01591006480, 0.13599124551, 0.23449194431, -0.09240057319, -0.08622396737, 0.27307960391, 0.13395802677, -0.31657120585, -0.33935967088, -0.10184451193, -0.05426780134, -0.00240592845, 0.10151148587, -0.36029681563, 0.28961503506, 0.34526365995, 0.02895572782, 0.16611748934, -0.24060778320, 0.07015210390, -0.00887810159, 0.07163693756, 0.03325141966, 0.11569547653, -0.17583654821, 0.20337127149, 0.16223803163, -0.15757513046, -0.20614476502, -0.25935342908, 0.00496195443, 0.25104370713, 0.31842228770, -0.00210777600, -0.22763054073, 0.23051448166, 0.13478921354, -0.10803309083, 0.08627217263, 0.15116226673, 0.11223855615, 0.20444653928, 0.30701380968, 0.26245516539, 0.35966235399, 0.03432692587, 0.09440296143, -0.14567250013, 0.06179572269, 0.18596124649, 0.33714202046, -0.09456680715, 0.04895843565, 0.04131351039, -0.09805065393, -0.07392287999, 0.21085412800, -0.10262625664, -0.02904367819, -0.07963898778, 0.14109078050, 0.18310323358, -0.35436156392, -0.23437254131, 0.22986677289, -0.37460473180, -0.06849020720, -0.04639760032, -0.26862230897, 0.03193337470, -0.08073591441, 0.26636666059, 0.27454572916, -0.35891160369, -0.19172306359, -0.00417436147, -0.02095296420, 0.20712149143, 0.22789345682, -0.20267070830, -0.25574418902, -0.18926168978, 0.28294467926, 0.25580146909, 0.03238360584, 0.11310950667, -0.35683977604, -0.11239624023, 0.01159193926, 0.01826180145, 0.07803838700, 0.18303298950, -0.04549329355, 0.24037185311, -0.12827627361, -0.19194529951, 0.11397444457, -0.26435413957, 0.16243550181, 0.32618156075, 0.21938988566, 0.00560821127, -0.01780508831, -0.05118306354, -0.05843817070, -0.36756959558, -0.00705297338, -0.24414242804, 0.02779894881, 0.38220024109, -0.12384261936, 0.05621514842, 0.16796712577, -0.06898271292, 0.03782831505, -0.13948433101, 0.05877391249, -0.14074715972, -0.25248098373, 0.13234080374, 0.02067090571, -0.18407528102, 0.27949443460, 0.28538975120, -0.15245436132, -0.03422942013