-0.18827414513, -0.17025227845, 0.02517685108, 0.10728865862, -0.03122242726, -0.19098819792, -0.22216013074, 0.14036814868, 0.10768063366, 0.05929420143, -0.16580434144, 0.11670268327, -0.31099605560, 0.22252872586, -0.26750436425, 0.39511299133, 0.09486944228, -0.04701817408, -0.12468381971, 0.10434738547, 0.08197127283, 0.17823453248, 0.23851822317, 0.28651541471, -0.14586171508, -0.05480828136, -0.43783584237, -0.19859293103, -0.31583729386, -0.06098725274, 0.17069828510, 0.19668398798, -0.14633299410, 0.24661748111, 0.16557356715, -0.00412134780, 0.29171085358, -0.18769605458, -0.16244910657, 0.26689392328, 0.16332487762, -0.03588917479, 0.07758411765, -0.07482970506, 0.04048575088, -0.08208202571, 0.21170346439, -0.01889774762, 0.09831029177, 0.02095363848, 0.29801985621, 0.21522134542, 0.11571650207, 0.26607584953, 0.05427135155, 0.04861136898, 0.31835809350, 0.08331553638, 0.01820718683, -0.24532096088, -0.15019083023, -0.02424156666, -0.11712098122, 0.24211040139, 0.15959495306, 0.29637292027, -0.07562153041, 0.01992196403, 0.09581322223, -0.22331239283, -0.24415142834, 0.08001391590, 0.20243650675, 0.05126058310, 0.04292407259, 0.32725116611, 0.25908043981, -0.28091257811, 0.15931729972, -0.39319318533, 0.08538646996, 0.42364233732, 0.10020417720, 0.11959296465, 0.07531265169, 0.05962915346, -0.02225809172, -0.17354483902, 0.10167308897, 0.27701848745, 0.18453560770, -0.06579923630, 0.03193574771, 0.24768450856, 0.23048809171, -0.03417920321, 0.09427115321, 0.01826933213, 0.08523328602, 0.07830832154, 0.15494886041, 0.02465871908, -0.28385967016, -0.14691056311, 0.00900544319, 0.22865138948, -0.28354507685, -0.12074476480, 0.02749655582, -0.19812482595, 0.06926915795, 0.04390770569, 0.09150248766, 0.20792421699, -0.17676083744, -0.03812495619, 0.21501863003, 0.04813472554, -0.12919652462, -0.02305698022, 0.42318272591, 0.14140635729, 0.24720822275, 0.10236657411, -0.22287075222, -0.20280042291, -0.14779338241, -0.05331728980, 0.12645946443, -0.18794341385, -0.11828982830, -0.20755381882, -0.07518040389, -0.10598803312, 0.14545674622, -0.02724405006, 0.24713771045, -0.20963574946, 0.14582028985, 0.16101270914, -0.06489475816, -0.09859830886, 0.00575510040, 0.19152171910, 0.07890203595, -0.02157053724, 0.12402772158, 0.06967233866, 0.17724420130, 0.19590520859, -0.19906654954, 0.01490959805, -0.21058501303, 0.01603393815, -0.01782648452, 0.03260717914, -0.04016137868, -0.15888650715, 0.14158333838, -0.23502132297, 0.03775003925, 0.15061460435, -0.52280908823, 0.13637241721, -0.10289929062, -0.02406231314, -0.16315507889, -0.30583229661, 0.04433984309, -0.17641136050, -0.35812720656, -0.31518426538, -0.02256847918, -0.20093767345, 0.19947101176, -0.03374239430, 0.07868428528, 0.20639847219, 0.30586841702, -0.16834875941, 0.07929804176, 0.20907871425, -0.14422447979, -0.09235043824, 0.16904509068, 0.04051127657, 0.20429936051, 0.16910186410, 0.15670169890, -0.34253460169, -0.21679531038, -0.29580962658, -0.16335479915, 0.16171382368, 0.07381105423, -0.08838108927, 0.17895467579, 0.22960759699, 0.16391591728, 0.11451496929, 0.12675994635, -0.01618039422, -0.10734473914, -0.20059317350, -0.17884360254, -0.10696096718, 0.09433718026, 0.00312113808, -0.05340936780, -0.23911932111, 0.18464720249, -0.11243470758, -0.07345318794, 0.22538994253, -0.18582870066, -0.03225182742, -0.14509387314, -0.15488807857, -0.10594847798, -0.24992090464, 0.00989054982, 0.19749347866, -0.11194160581, 0.03174496070, -0.02674363926, -0.27664798498, 0.23651181161, -0.17600776255, 0.08372477442, 0.03993283212, -0.17362523079, 0.21955698729, -0.08784975857, -0.22439517081, 0.04936520755, 0.19468823075, -0.16653053463, 0.09588787705, -0.03325482830, 0.11694715172, -0.01706905290, 0.10806099325, 0.03316976503, -0.21255734563, 0.25817209482, 0.12500706315, 0.13817812502, 0.19186384976, 0.05137202889, -0.06644529849, 0.05124218762, 0.05718227476, 0.20956622064, 0.22266453505, -0.12184488028, 0.11198192835, 0.01271774154, -0.21572524309, 0.22354424000, 0.13249944150, 0.27019333839, 0.28297695518, 0.00237869075, 0.28604409099, 0.21932807565, -0.11174113303, -0.02354071848, -0.36457210779, 0.12902218103, -0.07410239428, 0.09496274590, 0.09377357364, -0.08292768896, -0.12539970875, 0.28958573937, -0.26274791360, 0.23395015299, 0.06253137439, -0.40738680959, 0.20015059412, 0.01894484274, 0.04597084224, -0.10326155275, -0.14276024699, 0.21018385887, 0.24541169405, 0.06154771894, 0.13237193227, -0.09420431405, -0.13441538811, 0.12337680161, 0.26026239991, -0.04347097874, -0.02819482610, -0.16561639309, 0.02460398152, 0.15458345413, -0.05366251990, -0.30826643109, -0.16956004500, 0.09608572721, 0.16966445744, 0.13075032830, 0.28400093317, 0.09539242089, -0.06800184399, 0.05426598713, -0.03128593415, -0.09018912166, 0.10800306499, -0.31747394800, 0.14324413240, -0.26790815592, -0.08441091329, -0.10307343304, 0.16593687236, 0.18521104753, 0.40596103668, -0.28189539909, -0.22250373662, 0.10647711158, -0.10929251462, -0.09046494961, -0.31947857141, -0.18893656135, 0.11166856438, -0.26287925243, 0.26538145542, -0.21728910506, -0.40889659524, 0.33077940345, 0.54493820667, -0.15042786300, 0.15163627267, -0.42228615284, -0.03231705353, 0.15205304325, -0.26413583755, 0.14768874645, -0.18611758947, 0.29421463609, -0.23628278077, 0.25036710501, 0.27716332674, 0.34912040830, 0.17183610797, 0.20130477846, 0.14573387802, 0.42383143306, -0.10029977560, 0.07895901054, 0.18114887178, 0.11642844230, -0.05907666683, 0.08590543270, 0.34413349628, 0.04108596966, 0.14390818775, -0.00869855378, -0.09910052270, 0.27976676822, -0.08824984729, -0.19664914906, -0.27608469129, 0.11366898566, -0.09000060707, 0.26315364242, -0.27956432104, 0.13631647825, 0.16813988984, 0.07122921199, -0.12533189356, 0.16418494284, -0.23558950424, -0.25415989757, 0.03961634263, -0.28625810146, -0.12760481238, -0.08117277175, 0.08087022603, 0.07442075014, -0.15275953710, 0.04511582851, 0.06219134852