//Numpy array shape [2, 32]
//Min -0.671836256981
//Max 0.723046422005
//Number of zeros 0

#ifndef QUERY_BIAS2_H_
#define QUERY_BIAS2_H_

#ifndef __SYNTHESIS__
q_multi_head_attention_45_default_t query_bias2[64];
#else
q_multi_head_attention_45_default_t query_bias2[64] = {-0.24588109553, 0.06878148764, -0.67183625698, -0.34267503023, -0.06313721836, 0.03366668150, 0.00879722647, -0.59458845854, 0.23477375507, -0.13286927342, 0.15685714781, 0.08187510818, -0.18002480268, 0.21128693223, 0.01480422728, -0.24654117227, 0.02695187367, 0.37661415339, -0.16376344860, -0.13548889756, 0.21519413590, -0.06523846090, 0.09116028994, 0.28313556314, 0.72304642200, -0.12708321214, -0.02305595577, 0.00403342117, -0.09657520056, 0.39105001092, 0.27244323492, -0.06762545556, -0.01183645241, 0.09336217493, -0.10154809058, -0.04776463658, 0.02432188205, 0.05830149353, -0.00290343584, 0.26047378778, -0.15113283694, 0.07032703608, -0.33502504230, -0.09071364999, 0.25005441904, 0.21524170041, 0.21020267904, -0.09381001443, 0.01899650507, -0.09811343253, -0.16563241184, 0.10608473420, -0.20082174242, 0.05228111893, 0.09962134808, 0.05819199607, -0.21701937914, -0.10748836398, -0.00239387946, -0.16858413815, 0.03198781982, -0.14730447531, 0.09337182343, 0.15009003878};
#endif

#endif
