0.00178337505, 0.09554179013, 0.12536892295, -0.08029825240, -0.11097975820, -0.03363267705, 0.08718162775, -0.04179800674, -0.02998515591, -0.08761731535, 0.06992866099, 0.18468953669, 0.04759632424, 0.17801688612, -0.09523362666, 0.07882523537, -0.05538213253, -0.06498342752, 0.04993170127, 0.09768880904, -0.02957471833, -0.05479234830, -0.11438653618, -0.13434271514, 0.00322927092, -0.04171353579, -0.12791681290, -0.05383794382, -0.01237001643, -0.06423903257, 0.14652641118, 0.09173188359, -0.05403236672, 0.09877798706, 0.16360178590, -0.08771535754, -0.21865555644, -0.08142359555, -0.11031957716, -0.18159393966, -0.03225555271, 0.17635779083, 0.08175031096, -0.11254003644, -0.09405413270, -0.02635584213, -0.17613381147, 0.01420629304, -0.03529882059, -0.09012944251, 0.06779174507, -0.05864093080, -0.17653799057, 0.06194538251, -0.15604425967, 0.05708549172, 0.08464081585, 0.04636047035, -0.02650015056, -0.09233342111, 0.13188213110, 0.10317447782, -0.00127256941, 0.00004454528, -0.15118493140, -0.09092024714, -0.09349175543, -0.12806676328, -0.07160633057, 0.11948236823, -0.10942242295, -0.04641177505, -0.10672437400, -0.12680147588, -0.15021371841, 0.13449998200, 0.01956141554, 0.13659107685, 0.06218978763, -0.09391788393, 0.04724989459, 0.04853710160, -0.03851661831, 0.11565373838, 0.09780461341, 0.03173379228, -0.08553179353, -0.05956731737, 0.11043896526, -0.09781762213, 0.00586715434, -0.07517883182, -0.07231203467, 0.01323620230, -0.01750070974, 0.05191364512, 0.17675918341, 0.16225752234, 0.03061851300, 0.16314931214, -0.09415757656, 0.03022233769, -0.08292110264, 0.17636823654, 0.03354514390, -0.06112258136, 0.16714981198, 0.10344017297, 0.17873005569, 0.12082594633, -0.03958829492, 0.12106253207, 0.09932415187, -0.06315311044, 0.05392019451, 0.03502094746, -0.07031827420, -0.08542373031, -0.15165805817, -0.03197381273, -0.03114211373, -0.02910804562, -0.06653265655, 0.13638821244, 0.09607754648, -0.18392758071, 0.11399950087, 0.08204368502, 0.09179570526, -0.02725012973, 0.05720583722, 0.14166089892, 0.14072406292, 0.05230648443, -0.15556879342, -0.03844351321, 0.22206257284, -0.10270902514, 0.11669168621, -0.14837567508, -0.12963673472, 0.09516941756, -0.11032660306, 0.24869531393, -0.00154513342, 0.23903082311, -0.07020548731, 0.03037059307, 0.05633459613, -0.07064787298, -0.15710194409, -0.14201951027, -0.05186499655, 0.02960574254, -0.02629089914, -0.10193962604, -0.07538489997, -0.14046947658, 0.04660985246, -0.13772502542, -0.02891928516, 0.01149654668, -0.03070946783, -0.25599887967, -0.03269264847, -0.20831276476, -0.02855426632, 0.04451303929, -0.02108440362, 0.09396939725, 0.02613393031, -0.01407634001, 0.05710732937, -0.03561321646, 0.03510222211, 0.01957700774, -0.05377336219, 0.10615885258, 0.02133364789, -0.00084256206, 0.05350982025, -0.18390685320, 0.21626259387, -0.11457747966, 0.16675361991, 0.05364206433, 0.01203490514, 0.03839664161, -0.10453519225, 0.01779055409, 0.00345744542, -0.19491627812, -0.10557211190, 0.16150434315, -0.03614451364, -0.09578473121, 0.09901112318, -0.12309125811, -0.12845285237, -0.03808886930, -0.11205033958, -0.09866023064, 0.18646039069, -0.13735646009, -0.12400773913, -0.24935472012, -0.00415001391, 0.22087211907, -0.10904357582, -0.22339673340, -0.20284643769, -0.12026061118, -0.09942909330, 0.03560608998, -0.09294012189, -0.28233188391, -0.06202998385, -0.07063600421, -0.01644818299, -0.24763971567, 0.16658078134, -0.02282751724, 0.13629999757, -0.12780584395, 0.14724318683, 0.09269755334, -0.10496641695, -0.02322341502, 0.10240329802, 0.05490122363, 0.12479378283, -0.03738216683, -0.08443451673, 0.18867796659, -0.13095444441, -0.03191487491, 0.07931405306, 0.04013954103, 0.05393313989, 0.21130265296, 0.11013520509, 0.02262528241, 0.05770895258, -0.14073528349, -0.09545044601, 0.05609251559, 0.10460397601, 0.10789456218, -0.14521093667, 0.06780264527, 0.15982745588, -0.13531552255, 0.10309807211, -0.04211319610, -0.07673893124, 0.03103405982, -0.03101746924, -0.11660412699, -0.04556760937, 0.16659204662, -0.08952175081, 0.32019492984, 0.23599678278, -0.19136400521, 0.01765437238, 0.32071426511, -0.08340923488, 0.20051425695, -0.21967113018, 0.26008686423, 0.00632151170, -0.19361379743, 0.15311449766, 0.26969555020, 0.21330358088, 0.04861073196, -0.02986735478, -0.25761282444, -0.16864885390, -0.04499414936, 0.09395076334, -0.21698044240, -0.25032144785, 0.14531074464, -0.09155429155, -0.15879346430, 0.05224172771, 0.06702420115, 0.06681624055, -0.03824783862, 0.02321117930, 0.02382251061, 0.28401288390, 0.13653266430, 0.06013135239, 0.15454672277, 0.11971635371, 0.00287234504, -0.15466058254, -0.09887760133, -0.08435752243, 0.07213095576, 0.01638648473, -0.09771801531, -0.30740660429, 0.21511602402, -0.14190994203, -0.26212617755, -0.10329302400, -0.11896125227, 0.02653966099, 0.13444474339, 0.15800045431, -0.09507942945, -0.10675001144, 0.02927494235, -0.09653440118, -0.15232932568, -0.19815872610, 0.15750120580, -0.03092567436, -0.08268523216, 0.17248022556, 0.02648962848, 0.13970673084, -0.09833539277, 0.11746530235, -0.04691962525, -0.17697548866, 0.20085108280, 0.03280577064, -0.19318118691, 0.19592399895, 0.17998908460, 0.05601051077, -0.01765402965, -0.08872582018, 0.00255204830, -0.10731317848, -0.16396246850, -0.04312848672, 0.02128440142, -0.10080890357, 0.14418323338, 0.01179514732, 0.07998783886, 0.06191591173, 0.02774870582, -0.06013964862, -0.17718990147, 0.03542449698, 0.00436962349, 0.05620711669, -0.09100113064, -0.17311936617, -0.16142193973, 0.02318529040, 0.19344262779, 0.03370351717, -0.27855521441, -0.01066650264, 0.12103088945, -0.23316675425, 0.08123719692, 0.14477020502, -0.15566888452, -0.05095181242, -0.05347438157, 0.12339077890, 0.03294857591, 0.02100853063, 0.04101755098, 0.09636904299, -0.02044103667, 0.14376774430, 0.09390373528, 0.13089266419, 0.01618336886, -0.08939848095, -0.21355408430, 0.12640412152, -0.10918936878, 0.09874322265, -0.19837623835