//Numpy array shape [2, 32]
//Min -0.203696697950
//Max 0.084440767765
//Number of zeros 0

#ifndef VALUE_BIAS16_H_
#define VALUE_BIAS16_H_

#ifndef __SYNTHESIS__
q_multi_head_attention_47_default_t value_bias16[64];
#else
q_multi_head_attention_47_default_t value_bias16[64] = {-0.01735655218, 0.02446345985, -0.05401762202, 0.02349005826, -0.04567647353, 0.03107089177, -0.02312823944, -0.05302273110, 0.05756182596, 0.04867228866, 0.04712744057, -0.12539631128, -0.06424091756, -0.00799017493, -0.06485448033, 0.03656067327, -0.01795016602, 0.02667355351, -0.04514366761, -0.02785979025, -0.03225062415, 0.03210830688, -0.20369669795, 0.01732601225, 0.00451898621, 0.03107122332, 0.00054632255, -0.00486799143, 0.04126237333, 0.03437250853, -0.00152446411, 0.02178055979, 0.02332423814, 0.08444076777, -0.02368820086, -0.02253893204, 0.00126673165, -0.03122868761, 0.06513850391, 0.02176322788, 0.03601305187, -0.01251806971, -0.04039502889, 0.03073120862, -0.02708529867, -0.01471636351, 0.06979428232, 0.03235623986, -0.00879202317, -0.02364247479, -0.01140701678, -0.03267885745, -0.02328173816, -0.05341096595, 0.04003233463, 0.01459087525, -0.03057050519, 0.01548212394, -0.01765557379, -0.03578285128, -0.00432654005, 0.04093339667, 0.02838105708, -0.01599784568};
#endif

#endif
