//Numpy array shape [2, 32]
//Min -0.771858692169
//Max 0.889924168587
//Number of zeros 0

#ifndef QUERY_BIAS16_H_
#define QUERY_BIAS16_H_

#ifndef __SYNTHESIS__
q_multi_head_attention_47_default_t query_bias16[64];
#else
q_multi_head_attention_47_default_t query_bias16[64] = {0.04591238499, -0.70138573647, -0.09913033247, 0.13579724729, 0.08876584470, 0.06906432658, 0.18198715150, 0.09451820701, 0.14843747020, 0.01741433516, 0.35395184159, 0.15543866158, 0.32431539893, 0.03091062605, 0.06266719103, 0.10821927339, 0.16330534220, 0.19944185019, -0.35995662212, -0.07031043619, -0.08126751333, 0.12978424132, 0.14029060304, -0.22947865725, 0.09555943310, -0.16640053689, -0.47460147738, 0.16303125024, -0.20532318950, 0.02745429054, 0.39878520370, 0.39446875453, 0.45360466838, 0.28282624483, 0.71705776453, -0.24828732014, -0.08967614919, 0.55746167898, -0.26432743669, 0.69531065226, 0.43247854710, 0.22068738937, 0.46208745241, 0.50517344475, -0.77185869217, -0.14002415538, -0.43472665548, 0.52449721098, 0.53485333920, 0.03050983325, -0.37176588178, -0.41249561310, -0.53206819296, 0.35480174422, 0.29111132026, -0.22132153809, -0.21987348795, 0.88992416859, -0.38103950024, -0.39533156157, 0.33080896735, -0.47759327292, 0.59298712015, -0.32428804040};
#endif

#endif
