//Numpy array shape [2, 6, 32]
//Min -2.431322336197
//Max 2.237792968750
//Number of zeros 0

#ifndef QUERY_WEIGHT2_H_
#define QUERY_WEIGHT2_H_

#ifndef __SYNTHESIS__
q_multi_head_attention_45_default_t query_weight2[384];
#else
q_multi_head_attention_45_default_t query_weight2[384] = {1.33076190948, 2.21045374870, -0.26828238368, 0.58087974787, -1.53750348091, 1.65760004520, -1.05060434341, 0.16628570855, 1.31646788120, -1.68236732483, 0.64521658421, 0.00342167541, -2.26217484474, 1.33949089050, -0.69778627157, 1.44659674168, 1.74905014038, -0.61727571487, -1.41688489914, -1.43467450142, 0.76123178005, 1.95467340946, 2.06774616241, 1.19536650181, -0.41710859537, -0.64292937517, 0.70545697212, -0.92819863558, -2.43132233620, 0.11804136634, 2.23779296875, 1.23082923889, 0.02303198725, 0.14255526662, 0.02636493556, 0.22707436979, 0.04105279595, 0.09619595855, -0.02356385998, -0.04307786003, 0.07134774327, 0.15663863719, 0.32944443822, -0.25032630563, 0.01600924879, -0.08116721362, 0.24024511874, -0.13678419590, 0.28231379390, -0.14419467747, 0.03509744257, -0.18823607266, 0.41219186783, 0.34410622716, -0.06027443707, 0.12448253483, 0.25565716624, -0.10007786006, 0.25737911463, -0.27255126834, -0.19105538726, 0.00293024909, 0.16501890123, 0.00419171480, 0.02592230588, -0.21035964787, 0.13438944519, -0.25357171893, 0.04947623983, -0.09780915827, -0.18049798906, 0.15095730126, -0.20608568192, 0.14958114922, -0.30486285686, -0.21800068021, 0.41630104184, -0.42778506875, -0.01975974813, -0.24289242923, -0.19235312939, 0.02439929172, 0.36216333508, 0.05239118263, -0.04784268141, -0.14611022174, -0.10623557121, 0.17736177146, -0.13026767969, -0.02283825912, 0.03753307834, 0.00624737376, 0.44902145863, -0.19888168573, -0.69037377834, -0.03422290832, -0.20213238895, -0.15587173402, 0.16350568831, -0.08042644709, 0.16949921846, -0.11636693776, 0.18489843607, -0.19586983323, 0.30296346545, 0.09911306202, 0.29766014218, -0.22557571530, -0.08394400775, -0.45501130819, -0.09049121290, 0.06631468982, -0.32364138961, -0.10186510533, 0.21620133519, 0.08530831337, 0.29657861590, -0.25181788206, 0.03003947437, -0.22361424565, -0.01017824840, 0.14313432574, -0.00352379214, -0.12782025337, -0.02660695650, -0.24547310174, -0.14438830316, -0.20854578912, -0.19708676636, -0.01683755592, -0.38623350859, -0.16592393816, 0.10021107644, 0.20574322343, -0.18392771482, 0.12070193142, 0.31135106087, -0.03113318793, -0.09196054190, -0.37873300910, -0.02073545568, 0.17825187743, -0.02445687912, -0.28595033288, -0.01163228322, -0.00635492522, 0.01975218765, -0.04414564371, 0.22971232235, 0.04617933929, 0.09710081667, 0.10722857714, 0.28214636445, -0.18401512504, 0.12227471918, 0.17279985547, -0.01737529412, 0.09088370204, 0.26360872388, 0.13471943140, 0.18744882941, 0.01336119417, -0.27339592576, -0.04589152709, 0.13250337541, -0.23370696604, -0.38628274202, 0.45782616735, -0.09731201828, -0.17959617078, 0.02410384454, 0.14965392649, -0.15155415237, 0.03151621670, -0.38240543008, -0.16614353657, -0.15192648768, -0.24826258421, -0.17849327624, -0.20238552988, 0.09425975382, -0.26919791102, 0.16837655008, 0.31906318665, 0.30674919486, 0.16658096015, 0.08148926497, -0.15650057793, 0.17601791024, -0.26747632027, -0.31018155813, -0.27237510681, 0.22653473914, -0.18650293350, -0.13954648376, -0.23885610700, 1.83262336254, -2.09575986862, -0.41727861762, 0.20046089590, 0.47147569060, 0.18643590808, -0.82422482967, 0.30383852124, 0.95591640472, -0.47944778204, 0.26192292571, -0.67348992825, 0.05519057065, 1.04772424698, -0.81785172224, -0.08206591010, -0.03079135530, 0.75054049492, 0.69416248798, 0.38144060969, -0.09668485820, 0.47082167864, 0.19205282629, 0.86194866896, -0.44006136060, -0.46554911137, -0.04663496464, -0.53058433533, 0.35089814663, -0.30875152349, -0.17196239531, -0.13634124398, 0.25095865130, 0.12066633254, 0.15560212731, 0.13283212483, 0.00789180119, 0.21148498356, -0.10281060636, 0.24317619205, 0.04448233917, 0.01859616861, -0.17481070757, -0.08887367696, 0.07145651430, 0.27940368652, 0.12675611675, 0.13722555339, -0.08660858124, 0.08543325961, 0.08089841902, 0.00638838764, -0.20663136244, 0.08968933672, 0.08453976363, 0.05364783481, 0.00236230227, 0.10360531509, -0.03919912875, -0.11862825602, 0.31012326479, 0.21077406406, -0.18496744335, -0.14390389621, -0.08324615657, 0.05230119079, -0.02346128225, 0.08159218729, 0.03155616671, 0.29981723428, 0.07888609171, 0.18605890870, -0.04057221487, 0.14822065830, -0.31290382147, -0.14870539308, -0.07446430624, 0.07031477988, -0.12465358526, 0.04236442596, -0.20725454390, 0.23083978891, -0.03909267485, -0.01719015092, 0.02767216787, 0.06873385608, 0.18491041660, 0.18019720912, 0.08667888492, 0.17801000178, -0.04179066792, -0.07486688346, 0.02895674482, 0.00391017972, 0.01787946373, 0.13993898034, 0.04887682572, 0.00246671564, 0.04289187863, -0.27046266198, 0.14229497313, 0.03343549743, -0.06724211574, 0.13867478073, -0.20542748272, 0.03526141122, 0.07390139997, 0.04750322551, 0.16676814854, 0.03857427463, -0.09434746951, 0.12775659561, -0.03099950962, -0.27286183834, 0.27657178044, -0.14376401901, -0.17525926232, 0.21411499381, 0.00888240710, -0.17315325141, -0.07540488243, -0.04013754055, -0.09510859847, -0.27394676208, 0.06929638237, -0.09012278169, -0.08697695285, -0.30108258128, 0.21639464796, -0.03495483100, 0.01532723382, 0.03091795929, 0.05971262231, 0.26033058763, 0.02558754385, -0.19489778578, -0.12273721397, 0.06608519703, -0.07354412973, 0.00596952904, 0.09051418304, 0.21382118762, -0.11434014142, -0.01024880074, -0.02952688560, 0.07373516262, -0.10570591688, 0.18092653155, 0.18015372753, -0.07547192276, 0.00834870152, -0.06180002540, 0.03241878375, 0.10498344898, 0.18264679611, 0.25677049160, -0.07362306118, -0.21451333165, 0.13222573698, 0.11594683677, -0.06982795149, 0.01708751358, -0.07057558745, -0.02551419474, 0.10188623518, -0.02803893201, -0.00597805530, -0.07152996212, 0.08114976436, -0.21316698194, 0.46873331070, 0.05934432521, -0.19131009281, 0.05892486498, 0.10198623687, -0.13474199176, 0.27029159665, -0.34528207779, 0.27419325709, -0.14696270227, -0.02341714688, 0.08982699364, 0.02811683714, -0.09560333192, 0.08080863208, -0.03198632225, -0.03505897149, -0.21838919818};
#endif

#endif
