//Numpy array shape [2, 6, 32]
//Min -0.515552520752
//Max 0.475483924150
//Number of zeros 0

#ifndef QUERY_WEIGHT16_H_
#define QUERY_WEIGHT16_H_

#ifndef __SYNTHESIS__
q_multi_head_attention_47_default_t query_weight16[384];
#else
q_multi_head_attention_47_default_t query_weight16[384] = {-0.18874290586, 0.07110288739, -0.24678094685, 0.20953360200, 0.06197988614, -0.17225578427, -0.18409772217, 0.06314494461, -0.17060503364, -0.01622547209, -0.01345228124, 0.17608289421, -0.18310104311, -0.15969613194, 0.05188207328, -0.03638817370, 0.11507201195, -0.09429004788, 0.15705902874, 0.18458636105, 0.10156819224, -0.11210974306, -0.13337950408, -0.04378404096, 0.00561061921, 0.04721537977, 0.13079553843, -0.25426617265, 0.05276140571, -0.28763714433, -0.01590282843, -0.16066245735, -0.06602571160, -0.09077550471, -0.12775659561, 0.06563492864, -0.00980878621, -0.04978823289, -0.02073835395, 0.18155242503, 0.03395817801, 0.13287051022, 0.14174681902, 0.22388468683, -0.24162982404, -0.29143381119, 0.25512766838, -0.31159973145, 0.20999348164, 0.07408625633, 0.29090425372, 0.07749107480, 0.09084069729, -0.15328393877, 0.37400236726, 0.02158656530, 0.41405257583, 0.04111034796, -0.02986428700, -0.29414856434, 0.18278069794, -0.15071366727, -0.16264116764, -0.49793991446, -0.07878544927, 0.19535593688, -0.06836949289, 0.06052710116, -0.05372313410, 0.14853428304, -0.21279960871, -0.02048550732, -0.04758883268, -0.05063651875, -0.15461860597, 0.09113162011, 0.06616581976, 0.04554737359, -0.25632250309, -0.16278223693, 0.03126420826, -0.16495445371, 0.18388690054, -0.11130862683, -0.11121160537, -0.03204920515, -0.29330360889, -0.03326706588, -0.28745502234, 0.25525993109, -0.01527697872, -0.11726309359, 0.08990883827, -0.25948265195, -0.07109566033, 0.15171310306, -0.12079688907, 0.22806832194, 0.08415710181, 0.13913236558, -0.06226506829, -0.16947264969, 0.16015574336, -0.25605514646, -0.09167112410, 0.09942699224, 0.20816822350, 0.07764603198, -0.13655914366, 0.08036640286, 0.04085860774, -0.03301192448, 0.06067444757, 0.08141162992, 0.23749808967, 0.19113324583, 0.23562514782, 0.18458099663, 0.22638958693, -0.10196662694, 0.09129369259, 0.01731057465, -0.29866963625, 0.01383080706, -0.12043362856, -0.21451890469, -0.07881956547, -0.51216101646, -0.11937923729, -0.27128091455, -0.30326518416, -0.00331781735, 0.22099892795, -0.19419077039, 0.19363495708, -0.01387116592, 0.23069146276, -0.15388110280, -0.07977262884, 0.13539567590, -0.14956003428, -0.20301212370, 0.06657011807, 0.03881543130, 0.26612940431, 0.04475571960, 0.00590846082, 0.11268065870, 0.36039280891, 0.01276016515, 0.00960290246, -0.25814852118, 0.34917935729, -0.06239058822, 0.07615175098, -0.03916633874, -0.14299131930, 0.10987523943, -0.15982247889, 0.28954559565, 0.16934452951, 0.25683504343, 0.00851599406, 0.05070702732, 0.23135668039, 0.05650208518, -0.24762727320, -0.04959842190, -0.27638304234, 0.09623377025, -0.22423371673, -0.05624288321, 0.31337839365, 0.03935384378, 0.13314744830, -0.02521179058, 0.04668215290, -0.21652336419, -0.16026756167, 0.36434757710, -0.04464343190, -0.21097278595, -0.51555252075, -0.02911646664, -0.31263855100, -0.02761215903, 0.47548392415, 0.02344732545, 0.16222648323, -0.01179369725, 0.31984382868, 0.27728655934, -0.12355142832, 0.02244607173, -0.09892036766, 0.11784103513, -0.18949814141, 0.11988598853, 0.13111245632, 0.14109458029, -0.11674433202, 0.02317551151, 0.07468040287, 0.03124315292, -0.02843125165, -0.01716259681, 0.00812647399, 0.12565691769, 0.06644478440, 0.24172425270, -0.01916372031, -0.05434772000, 0.01776059344, -0.00495691737, -0.13696560264, -0.12268074602, 0.08710714430, -0.03454598039, 0.15602077544, -0.00889344513, -0.10371990502, -0.08032487333, -0.00326526654, 0.15750904381, -0.09477611631, 0.17051558197, -0.03957253322, 0.05834319815, 0.12668940425, -0.22907243669, -0.27363991737, -0.11784338951, -0.09854156524, 0.03719352558, 0.16057857871, 0.30290883780, 0.05866877362, -0.15856824815, 0.13739167154, -0.21363462508, 0.20001812279, -0.22792078555, 0.03080791235, 0.08974014968, 0.09851460159, 0.04743869975, -0.05193306133, 0.15726377070, 0.00599898398, 0.16626989841, 0.12160088867, -0.11021481454, -0.02965231799, -0.00846616086, -0.06979226321, 0.17224790156, -0.06064603478, 0.00279007968, -0.05454884842, 0.11342341453, -0.03569173813, -0.16064849496, 0.05506146327, 0.01655440219, -0.18606875837, 0.05783813074, -0.01797274500, 0.12873165309, -0.14678163826, -0.25285005569, 0.03434127197, 0.06896232069, -0.08079733700, -0.09135979414, 0.15155133605, 0.02115561254, 0.03268921375, 0.15661047399, -0.01509147417, -0.03116793744, -0.09579224885, -0.12488962710, 0.24850265682, -0.24226775765, -0.04849918559, -0.04182416201, -0.02316983603, -0.07594326138, 0.27930900455, -0.07031578571, 0.09053880721, 0.14851376414, -0.17421026528, 0.00591098284, 0.20964694023, -0.11272493750, 0.05824027210, 0.01625444181, -0.10523253679, -0.08371987194, 0.14699552953, 0.00910583790, -0.09041883051, -0.05431483686, -0.01883101650, -0.07796688378, -0.14262570441, -0.03114407696, -0.09638735652, 0.03098838590, 0.14534401894, 0.01543531287, 0.09448178858, -0.26856184006, -0.00211058254, 0.26901102066, -0.21254451573, 0.08542872965, -0.03194718063, -0.13491906226, -0.01264552493, -0.15680420399, 0.02630222961, -0.00881918892, 0.08190855384, 0.03049900010, 0.08050336689, -0.02158824168, 0.08408499509, 0.05968789756, 0.19012574852, -0.09182092547, 0.22302763164, 0.11661153287, 0.12279423326, -0.01934066787, -0.11676491052, 0.10768034309, -0.09194114059, -0.15614561737, -0.11371900141, 0.11731170863, -0.14313222468, 0.16219168901, -0.13507066667, -0.06089626625, -0.03842071816, 0.10872137547, 0.08390545845, 0.02978468128, 0.02685013041, -0.11170279235, -0.08143296093, -0.23802609742, 0.09686510265, 0.24124942720, -0.20223101974, -0.05267624930, -0.05096141249, -0.01349393371, 0.06217387691, -0.15988360345, 0.17165619135, 0.02864198200, -0.10718400031, 0.01436045300, -0.10919962078, 0.03265905753, -0.18276782334, 0.29311922193, -0.09275786579, 0.09701749682, -0.04540725052, -0.09578468651, 0.17014022171, 0.15628105402, 0.04541068152, 0.12961880863, 0.21350875497, -0.12552809715, -0.15434022248, -0.15551316738, -0.00493803620, 0.17513440549};
#endif

#endif
