//Numpy array shape [2, 32]
//Min -0.081358306110
//Max 0.094336606562
//Number of zeros 0

#ifndef VALUE_BIAS9_H_
#define VALUE_BIAS9_H_

#ifndef __SYNTHESIS__
q_multi_head_attention_46_default_t value_bias9[64];
#else
q_multi_head_attention_46_default_t value_bias9[64] = {0.03389342874, -0.03548846021, 0.03185285628, 0.03366816044, 0.03525930271, 0.02230799198, 0.02494239062, 0.04017936066, -0.08135830611, 0.06561315805, -0.04231384024, -0.02966300212, 0.00224191812, 0.02950946800, 0.04295963794, 0.00598369865, 0.03131218627, 0.01818494126, -0.06028801948, -0.03157551214, -0.07535078377, 0.09433660656, -0.05693066120, 0.01294434723, 0.02193667926, -0.02064714395, 0.01054209936, 0.03256529197, -0.01477661449, -0.01564121060, 0.02097213268, 0.04621350765, 0.03877484798, -0.02320215479, 0.07525765896, 0.02934806421, -0.07114338875, -0.01528129540, -0.03061948717, 0.01515604649, -0.03015199676, -0.03176596388, -0.02630489320, 0.01281814370, 0.02795988880, -0.02870554850, 0.03135194257, -0.03958498314, 0.01549097337, 0.04253989086, -0.00016623941, 0.00433108723, -0.02066561021, 0.03099371307, -0.02082934417, 0.00401639054, -0.02585751005, -0.01069099363, 0.03089906089, 0.03152830526, 0.02148780413, -0.00491752755, 0.06682245433, -0.02770966850};
#endif

#endif
