-0.125981301, 0.220232427, -0.109502204, -0.041772239, 0.111056916, -0.180769473, -0.259370059, 0.030047966, -0.270091563, 0.012088804, -0.127525821, -0.061506584, -0.129499197, -0.229504287, 0.078727841, -0.136404082, 0.003298011, -0.196974322, 0.239547223, 0.162388146, 0.090062536, -0.221455961, -0.262443721, 0.111309677, 0.032432284, 0.118040867, 0.307275355, -0.263463259, 0.206098184, -0.189100221, -0.192189589, -0.173650399, -0.145604432, -0.282080203, -0.292778462, 0.373221517, 0.101034291, -0.169950828, 0.108918421, 0.217373192, 0.109104693, 0.113381989, 0.283313960, 0.516435742, -0.078121893, -0.283428699, 0.370791703, -0.158686429, 0.429326236, 0.321710914, -0.051577270, 0.190404177, 0.268816054, -0.075729221, 0.647791743, -0.219116881, 0.558243871, -0.049718797, -0.247845024, -0.174287453, 0.004986228, -0.134060189, 0.108704835, -0.249434069, -0.118317373, 0.166505530, -0.035565857, 0.074382626, -0.071345478, 0.078527048, -0.167459205, -0.012913110, -0.104754947, 0.155629516, 0.011013739, 0.137499884, -0.035015371, -0.061001629, -0.033366140, -0.165641531, 0.011472960, -0.168318957, 0.202505499, 0.047199193, -0.090306811, -0.021065053, -0.105984636, 0.018705824, -0.212052748, 0.113980621, 0.009365400, -0.292407036, 0.051977947, -0.418967038, -0.047631606, -0.125583321, 0.058467008, 0.258857459, 0.217244595, 0.222344577, 0.133060664, -0.179378778, -0.087306798, -0.327657044, -0.282583296, 0.203008935, -0.137429819, -0.025418675, -0.185908303, 0.070198052, 0.182753190, -0.069294542, 0.080422170, -0.096935034, 0.222263291, 0.206024036, 0.265491486, -0.057216823, 0.022063065, 0.079550706, -0.020544250, -0.019631390, 0.039827667, 0.068842299, 0.115394376, -0.057282086, -0.030813079, -0.327938050, -0.174614280, -0.036509622, -0.256041467, -0.022870841, 0.084446318, -0.208256260, 0.100170583, -0.013479812, 0.197834611, 0.031695113, -0.049477980, 0.007355436, -0.170538753, -0.178486288, 0.015528140, 0.093562417, 0.159613788, 0.011103375, 0.106896646, 0.111134462, 0.197120726, 0.025207475, 0.101527348, -0.219073042, 0.285934031, -0.092603080, 0.146278530, -0.132484734, -0.122452386, -0.001379783, -0.206965312, 0.069632359, 0.074677989, -0.078557685, -0.159457609, 0.251849800, 0.154450029, 0.101450704, -0.180803403, -0.053963687, -0.246426895, -0.012242352, -0.034644913, -0.028145701, 0.442186624, 0.111197963, 0.047421589, 0.055880174, 0.096843600, -0.092870861, -0.243667528, 0.255465180, -0.090328306, -0.119174704, -0.638840079, -0.056962028, -0.318811268, -0.074838698, 0.184322700, 0.200898632, -0.021641089, 0.076458290, 0.353225440, 0.313266635, -0.389582843, -0.131763682, -0.631435990, 0.156745598, 0.121630512, -0.233888164, 0.289292008, -0.481408775, -0.164356560, -0.070401512, -0.464304984, -0.532918572, 0.430840135, 0.017743241, 0.376804650, -0.347383529, -0.360769242, -0.037439652, 0.108241819, 0.271936148, 0.462240666, -0.199663386, -0.107031196, 0.295954138, 0.175849259, -0.503618598, 0.093443282, 0.284371048, -0.235425413, 0.236735031, -0.523536503, 0.225456879, 0.202012554, -0.140458718, 0.194653437, 0.023671828, 0.041782890, 0.121467382, -0.322906047, -0.018095324, 0.148261949, -0.000445145, 0.205642045, 0.171979070, 0.006254006, -0.010835512, -0.127348155, -0.030791076, -0.003797417, 0.044435054, -0.240793332, -0.118322641, -0.027914777, -0.001252921, 0.367350519, 0.281732082, -0.210209057, 0.110630006, -0.011055312, -0.160909668, 0.079797886, -0.099063054, -0.067691214, -0.219276726, 0.263771176, 0.219232887, 0.095919929, -0.140527397, 0.162479937, 0.331646204, -0.150632933, 0.190076470, 0.231201246, 0.146824613, 0.188011706, 0.126053199, 0.002303122, 0.031838302, -0.266694456, -0.084025033, 0.222838163, -0.037573125, -0.201428249, -0.245527208, -0.274268538, -0.020144861, 0.114912257, 0.016503394, -0.211805731, 0.083994232, -0.313899934, -0.087930918, 0.222629219, -0.112323090, 0.342995554, -0.184043601, -0.067592382, -0.105262861, -0.362104982, -0.047570337, 0.243499130, 0.058002766, 0.047272947, -0.014745369, -0.055080097, 0.035755694, -0.312161505, -0.137578771, 0.264244229, -0.291756123, 0.231701404, -0.306697220, 0.059084099, -0.317131579, 0.133852348, 0.176799342, 0.344298005, 0.034792773, -0.183254719, 0.124795370, 0.094490647, -0.343857735, 0.128722236, 0.085040957, -0.257756591, 0.113976657, -0.082037397, 0.206332937, 0.326637208, 0.053824104, 0.390313923, 0.009424406, 0.096690781, 0.232492715, -0.215803012, 0.178543895, 0.204089195, 0.026499080, 0.342722863, 0.313649505, -0.042419318, -0.152260512, -0.207485631, -0.036994919, 0.108032569, -0.115427665, -0.218698442, -0.170469999, -0.247379377, 0.159956470, 0.214909494, 0.096486717, -0.156566560, 0.138583079, -0.188787296, -0.225555822, 0.156710416, -0.093505606, 0.146606982, -0.186547920, 0.281612098, -0.103706129, 0.190996051, 0.136009783, -0.224817693, 0.287062556, 0.316542149, 0.251047611, 0.134396911, 0.002066646, -0.129761562, -0.145980582, 0.011566742, 0.037077952, -0.204946116, -0.020482099, -0.072666705, -0.027891247, -0.149682477, -0.066351943, -0.203105956, 0.137840375, 0.242623225, -0.120539956, 0.142694637, 0.016927266, -0.133896962, 0.332419336, -0.239915028, -0.171124771, 0.209181488, -0.117330454