1.330761909, 2.210453749, -0.268282384, 0.580879748, -1.537503481, 1.657600045, -1.050604343, 0.166285709, 1.316467881, -1.682367325, 0.645216584, 0.003421675, -2.262174845, 1.339490891, -0.697786272, 1.446596742, 1.749050140, -0.617275715, -1.416884899, -1.434674501, 0.761231780, 1.954673409, 2.067746162, 1.195366502, -0.417108595, -0.642929375, 0.705456972, -0.928198636, -2.431322336, 0.118041366, 2.237792969, 1.230829239, 0.023031987, 0.142555267, 0.026364936, 0.227074370, 0.041052796, 0.096195959, -0.023563860, -0.043077860, 0.071347743, 0.156638637, 0.329444438, -0.250326306, 0.016009249, -0.081167214, 0.240245119, -0.136784196, 0.282313794, -0.144194677, 0.035097443, -0.188236073, 0.412191868, 0.344106227, -0.060274437, 0.124482535, 0.255657166, -0.100077860, 0.257379115, -0.272551268, -0.191055387, 0.002930249, 0.165018901, 0.004191715, 0.025922306, -0.210359648, 0.134389445, -0.253571719, 0.049476240, -0.097809158, -0.180497989, 0.150957301, -0.206085682, 0.149581149, -0.304862857, -0.218000680, 0.416301042, -0.427785069, -0.019759748, -0.242892429, -0.192353129, 0.024399292, 0.362163335, 0.052391183, -0.047842681, -0.146110222, -0.106235571, 0.177361771, -0.130267680, -0.022838259, 0.037533078, 0.006247374, 0.449021459, -0.198881686, -0.690373778, -0.034222908, -0.202132389, -0.155871734, 0.163505688, -0.080426447, 0.169499218, -0.116366938, 0.184898436, -0.195869833, 0.302963465, 0.099113062, 0.297660142, -0.225575715, -0.083944008, -0.455011308, -0.090491213, 0.066314690, -0.323641390, -0.101865105, 0.216201335, 0.085308313, 0.296578616, -0.251817882, 0.030039474, -0.223614246, -0.010178248, 0.143134326, -0.003523792, -0.127820253, -0.026606956, -0.245473102, -0.144388303, -0.208545789, -0.197086766, -0.016837556, -0.386233509, -0.165923938, 0.100211076, 0.205743223, -0.183927715, 0.120701931, 0.311351061, -0.031133188, -0.091960542, -0.378733009, -0.020735456, 0.178251877, -0.024456879, -0.285950333, -0.011632283, -0.006354925, 0.019752188, -0.044145644, 0.229712322, 0.046179339, 0.097100817, 0.107228577, 0.282146364, -0.184015125, 0.122274719, 0.172799855, -0.017375294, 0.090883702, 0.263608724, 0.134719431, 0.187448829, 0.013361194, -0.273395926, -0.045891527, 0.132503375, -0.233706966, -0.386282742, 0.457826167, -0.097312018, -0.179596171, 0.024103845, 0.149653926, -0.151554152, 0.031516217, -0.382405430, -0.166143537, -0.151926488, -0.248262584, -0.178493276, -0.202385530, 0.094259754, -0.269197911, 0.168376550, 0.319063187, 0.306749195, 0.166580960, 0.081489265, -0.156500578, 0.176017910, -0.267476320, -0.310181558, -0.272375107, 0.226534739, -0.186502934, -0.139546484, -0.238856107, 1.832623363, -2.095759869, -0.417278618, 0.200460896, 0.471475691, 0.186435908, -0.824224830, 0.303838521, 0.955916405, -0.479447782, 0.261922926, -0.673489928, 0.055190571, 1.047724247, -0.817851722, -0.082065910, -0.030791355, 0.750540495, 0.694162488, 0.381440610, -0.096684858, 0.470821679, 0.192052826, 0.861948669, -0.440061361, -0.465549111, -0.046634965, -0.530584335, 0.350898147, -0.308751523, -0.171962395, -0.136341244, 0.250958651, 0.120666333, 0.155602127, 0.132832125, 0.007891801, 0.211484984, -0.102810606, 0.243176192, 0.044482339, 0.018596169, -0.174810708, -0.088873677, 0.071456514, 0.279403687, 0.126756117, 0.137225553, -0.086608581, 0.085433260, 0.080898419, 0.006388388, -0.206631362, 0.089689337, 0.084539764, 0.053647835, 0.002362302, 0.103605315, -0.039199129, -0.118628256, 0.310123265, 0.210774064, -0.184967443, -0.143903896, -0.083246157, 0.052301191, -0.023461282, 0.081592187, 0.031556167, 0.299817234, 0.078886092, 0.186058909, -0.040572215, 0.148220658, -0.312903821, -0.148705393, -0.074464306, 0.070314780, -0.124653585, 0.042364426, -0.207254544, 0.230839789, -0.039092675, -0.017190151, 0.027672168, 0.068733856, 0.184910417, 0.180197209, 0.086678885, 0.178010002, -0.041790668, -0.074866883, 0.028956745, 0.003910180, 0.017879464, 0.139938980, 0.048876826, 0.002466716, 0.042891879, -0.270462662, 0.142294973, 0.033435497, -0.067242116, 0.138674781, -0.205427483, 0.035261411, 0.073901400, 0.047503226, 0.166768149, 0.038574275, -0.094347470, 0.127756596, -0.030999510, -0.272861838, 0.276571780, -0.143764019, -0.175259262, 0.214114994, 0.008882407, -0.173153251, -0.075404882, -0.040137541, -0.095108598, -0.273946762, 0.069296382, -0.090122782, -0.086976953, -0.301082581, 0.216394648, -0.034954831, 0.015327234, 0.030917959, 0.059712622, 0.260330588, 0.025587544, -0.194897786, -0.122737214, 0.066085197, -0.073544130, 0.005969529, 0.090514183, 0.213821188, -0.114340141, -0.010248801, -0.029526886, 0.073735163, -0.105705917, 0.180926532, 0.180153728, -0.075471923, 0.008348702, -0.061800025, 0.032418784, 0.104983449, 0.182646796, 0.256770492, -0.073623061, -0.214513332, 0.132225737, 0.115946837, -0.069827951, 0.017087514, -0.070575587, -0.025514195, 0.101886235, -0.028038932, -0.005978055, -0.071529962, 0.081149764, -0.213166982, 0.468733311, 0.059344325, -0.191310093, 0.058924865, 0.101986237, -0.134741992, 0.270291597, -0.345282078, 0.274193257, -0.146962702, -0.023417147, 0.089826994, 0.028116837, -0.095603332, 0.080808632, -0.031986322, -0.035058971, -0.218389198