//Numpy array shape [2, 6, 32]
//Min -0.213196694851
//Max 0.239174574614
//Number of zeros 0

#ifndef VALUE_WEIGHT9_H_
#define VALUE_WEIGHT9_H_

#ifndef __SYNTHESIS__
q_multi_head_attention_46_default_t value_weight9[384];
#else
q_multi_head_attention_46_default_t value_weight9[384] = {-0.056680370, -0.012224875, -0.090016700, -0.054623228, 0.031442694, -0.031790931, -0.000945545, 0.002300041, 0.030671418, -0.119097047, -0.070437871, 0.027175175, 0.006297108, -0.052979883, -0.031214694, -0.073034376, -0.069859676, -0.044851005, 0.074731678, 0.031225411, -0.140420869, -0.049480695, 0.094427049, 0.087815069, 0.015073863, -0.030477928, -0.032566015, -0.109118946, 0.113356277, -0.137570560, -0.070432745, -0.093973711, -0.036166120, 0.147829175, 0.062331442, -0.018242091, 0.144078583, 0.132869169, -0.070537843, 0.135875970, -0.059422769, 0.070348963, 0.031579804, -0.011188214, 0.090576932, 0.030300379, 0.079735324, -0.006122446, 0.138157323, 0.034368459, -0.063650131, 0.030882042, -0.194707513, 0.061040901, 0.040112201, 0.131495327, 0.062617242, -0.155007988, -0.095297791, -0.026433010, 0.035741128, -0.148419499, -0.064624503, 0.079194449, 0.016419068, -0.077501483, -0.082855739, -0.019495644, -0.088403717, 0.006914767, -0.191444591, 0.104356512, -0.088277414, 0.074285142, -0.028283853, 0.057606313, -0.155376360, 0.093638308, 0.103711948, 0.101169348, 0.069949508, -0.020649193, -0.125551701, 0.126363710, 0.125963837, -0.093550980, 0.153196797, 0.047373615, -0.031574860, 0.029981518, -0.095485255, 0.080187842, 0.033891000, -0.020655971, -0.093485743, -0.069511496, 0.093725219, 0.152065873, 0.016156295, -0.105977550, -0.034051903, -0.027379841, -0.030226203, 0.093526699, -0.040435825, -0.020297393, 0.178045005, 0.042441599, 0.063836627, 0.047936562, -0.086886689, 0.152415633, 0.093966752, 0.142458573, -0.024823232, 0.030885622, 0.034357563, -0.059855469, 0.091934748, 0.007161704, 0.158003554, 0.038762186, 0.003973073, 0.094736397, -0.052984830, -0.020355443, 0.085332341, 0.142305300, -0.156846479, -0.021428483, -0.072512619, -0.002796451, 0.137500092, 0.013920609, 0.090048380, -0.050124526, 0.002142802, -0.094038658, -0.091615483, 0.011533249, 0.093361281, -0.081386670, -0.156080678, 0.003036631, 0.018793898, 0.030899821, 0.076019444, 0.014415824, -0.030632710, 0.033979967, -0.093168281, 0.014342585, -0.028161816, -0.058140837, 0.064310215, 0.005243457, 0.077357098, -0.106816240, 0.093449503, 0.059947260, -0.152076676, -0.053510234, -0.055686068, -0.009980777, -0.128469482, 0.055930983, 0.021362197, -0.120298378, 0.091655955, -0.135086074, 0.091912895, 0.136795610, 0.136068299, -0.064304702, 0.100955039, 0.112933464, 0.156025246, -0.033190753, -0.045102645, 0.092355900, -0.020684639, -0.156472355, 0.066782624, -0.213196695, -0.117356122, -0.003852581, -0.086606964, -0.028359259, -0.066529714, 0.239174575, -0.148440555, 0.048404843, -0.162463680, 0.098373860, -0.177280784, -0.034218669, 0.057411555, 0.154962927, 0.060569048, 0.001396714, 0.126330867, -0.147848681, 0.070794813, 0.076240376, -0.093095139, 0.063938536, 0.024052935, 0.159221217, -0.092856698, -0.093516357, 0.047707524, 0.049759127, -0.031088140, -0.164500415, 0.104149789, 0.104708761, 0.164279729, 0.071136042, 0.050243217, -0.027901709, 0.096978620, -0.063552134, -0.056690950, -0.156785071, -0.022061532, 0.094667263, 0.159758270, -0.037846994, -0.084954001, 0.085791543, 0.053322807, 0.148319870, 0.125716090, -0.108704925, -0.074352391, -0.035561569, 0.043508541, 0.070394546, 0.048901103, 0.071107581, -0.105637304, -0.092444934, 0.093321033, -0.070870616, -0.079273768, 0.103357226, 0.123372316, 0.160482988, 0.145637110, -0.025704443, 0.093542740, 0.213378742, 0.091088817, -0.038131695, 0.081028126, -0.173772857, 0.022299375, -0.037783846, 0.023821885, 0.006795629, -0.076947384, -0.192429423, -0.053512339, 0.041620210, -0.148746312, -0.096171699, 0.031601664, -0.011210060, 0.014988764, -0.028672991, 0.161884382, -0.065656416, -0.032018073, 0.213874280, 0.025274236, -0.142202094, -0.019372789, 0.135606855, 0.010789966, 0.031247193, 0.022749064, -0.047227938, 0.090173326, -0.018919431, -0.147662371, -0.112337999, 0.207863107, -0.131366909, 0.118393809, -0.101205617, 0.059897050, -0.100330569, 0.094531767, 0.052388638, 0.086368553, -0.096000135, 0.077301383, -0.038786989, 0.028331161, -0.159766138, -0.078110993, -0.095218681, -0.097647630, -0.089313231, -0.039728872, -0.028640278, 0.095695794, 0.033451002, 0.158155560, 0.153557286, 0.119447738, -0.009044549, -0.065994389, -0.087759681, 0.028798072, 0.006545240, -0.080590039, 0.156473622, -0.032512974, 0.046197057, 0.031629335, 0.111983791, 0.188058197, -0.030970655, 0.014125387, 0.104399480, 0.032091107, -0.031935651, 0.031957816, 0.124332927, -0.016517114, 0.111845374, 0.130958229, 0.091831595, 0.020668831, -0.060600653, 0.030233940, -0.098109603, -0.029093735, -0.031128485, -0.129383221, 0.015288511, 0.058916815, -0.032513279, 0.121547140, 0.071290493, -0.044552043, 0.099228814, 0.053009875, 0.043177593, -0.050007317, 0.030834697, -0.006929858, 0.152751550, 0.011384330, 0.094667837, 0.092662416, -0.093336008, -0.086844280, -0.001671957, 0.106452554, -0.065855041, 0.107163645, -0.147544026, -0.117963821, 0.030655673, -0.030775331, -0.016751884, 0.088703431, 0.054016210, 0.130895391, -0.114099592, -0.023126109, 0.133309305, 0.015754357, -0.035757132, -0.032596000, 0.091702648, 0.001854771, -0.146150455, -0.082874447, -0.142269582, -0.139708817, 0.038138680};
#endif

#endif
