//Numpy array shape [2, 6, 32]
//Min -0.216636925936
//Max 0.201923400164
//Number of zeros 0

#ifndef VALUE_WEIGHT2_H_
#define VALUE_WEIGHT2_H_

#ifndef __SYNTHESIS__
q_multi_head_attention_45_default_t value_weight2[384];
#else
q_multi_head_attention_45_default_t value_weight2[384] = {0.094447032, 0.091819301, 0.021746881, 0.030401744, 0.030051224, -0.026011696, -0.021341616, 0.023307780, 0.155870587, -0.021373568, 0.027992373, 0.029147120, -0.010073129, -0.010148602, -0.014445050, -0.036291588, -0.036663167, 0.101001143, 0.098409981, 0.140451446, -0.082001723, 0.038087316, 0.014599469, 0.116257139, 0.032941889, 0.070718013, -0.092494272, 0.019390879, -0.022353284, -0.072927609, 0.027108643, -0.094229385, 0.052661207, 0.001934705, -0.029041683, 0.013501426, -0.057228826, 0.098408930, 0.180104941, -0.070731252, 0.094464041, -0.037663013, 0.019652409, -0.089009650, -0.038669564, -0.141827852, 0.029194739, 0.017838642, -0.087356262, -0.023118176, 0.058353912, -0.115473323, -0.052898448, -0.030027468, -0.064741872, -0.022242239, 0.023564965, -0.056528635, 0.001735788, -0.009910791, -0.085508503, 0.137139216, -0.018854657, 0.089028887, -0.170883417, -0.100410961, -0.030204106, -0.129553497, -0.052129891, 0.192239478, -0.101999603, -0.016127875, -0.164235324, -0.036791354, 0.091842212, -0.144634038, 0.053179730, 0.140336126, -0.044528943, -0.017637445, -0.022128137, -0.039530493, 0.031579617, 0.036267523, 0.084670238, 0.030488364, -0.043374084, -0.102193408, -0.025118427, 0.034276772, -0.033026475, -0.029731283, 0.010424947, -0.003830001, -0.034718260, 0.056129176, 0.030496931, 0.035892051, 0.082482502, -0.010678259, 0.095512822, -0.093994468, -0.096766278, 0.090399653, -0.038931541, -0.140941724, 0.085965656, 0.123130426, 0.034983244, -0.061922565, 0.081356056, -0.029071018, 0.030731583, -0.079933599, -0.042574339, -0.002933769, -0.079144694, 0.032315183, 0.037457068, -0.094702236, -0.050993774, 0.093044102, -0.004666163, 0.032390311, 0.064826705, -0.068182535, 0.020147208, -0.043140169, -0.148066044, 0.024327274, -0.005088030, -0.070039392, -0.032903135, 0.164735973, -0.100392804, 0.030006791, -0.028450599, 0.142969742, -0.083056360, 0.046902865, 0.034403183, 0.111259356, 0.058566220, 0.070814766, 0.044695634, -0.063630216, -0.093801618, -0.075057074, 0.035217095, -0.095120013, 0.028116310, -0.088503711, 0.029079923, 0.093088053, -0.108045951, 0.021457290, 0.009989423, -0.128643453, 0.028130652, 0.087525703, 0.030665591, -0.017145149, -0.013336037, -0.093284123, -0.030579209, 0.046590623, 0.017852997, -0.029045973, -0.053064123, -0.053124301, -0.021288684, -0.019742781, 0.044793081, -0.111124963, 0.035757963, 0.046050698, -0.017510198, -0.083478667, 0.043923926, 0.046472006, -0.041404679, 0.074510284, 0.018374855, 0.107791081, 0.079699852, -0.031929925, -0.030826950, -0.017778059, 0.004828664, -0.089529157, -0.026918754, -0.216636926, 0.030977283, -0.056101471, -0.029532548, -0.038086962, -0.027710330, -0.055412427, 0.069123149, -0.028658457, -0.059411686, 0.083856858, -0.025712570, 0.030011555, 0.107789509, 0.060860161, 0.148710310, -0.035686269, 0.063782014, 0.030611696, 0.029618103, -0.012992376, -0.027530149, 0.067806788, 0.030948829, -0.036773264, -0.166395009, -0.024348876, -0.029875439, 0.055449866, -0.061858419, 0.080098487, -0.016898073, 0.094879501, -0.076344617, 0.081205256, 0.040414415, 0.084067345, -0.051251795, 0.085703045, 0.037720785, -0.095475487, 0.124071568, -0.055418037, -0.047622140, 0.042392127, -0.060687818, -0.143211231, 0.085672908, -0.049449172, 0.158910692, -0.030525994, 0.032520946, -0.034076206, 0.032252990, 0.173511475, 0.027547443, -0.002057344, 0.031992633, 0.048377067, -0.011336341, -0.060947809, -0.012307772, 0.015766863, -0.041976396, 0.028458294, 0.071231253, 0.001369378, 0.010386108, 0.109857470, 0.023008849, 0.087046705, -0.028146831, 0.035837319, 0.084402494, 0.075087972, 0.126855835, 0.032571767, -0.035755653, 0.192801505, -0.011014885, -0.023530435, -0.059022799, -0.031528890, 0.137403458, 0.079147048, -0.032674599, -0.175787434, 0.171119794, -0.016563125, 0.165871933, -0.051733352, 0.079658568, 0.149200842, 0.053056765, -0.006932959, 0.028269012, -0.031933498, -0.031121397, -0.109539665, -0.097665332, 0.039896332, 0.063247070, -0.131770611, -0.000569738, 0.060733773, -0.117607497, -0.125800192, 0.017432684, 0.007212365, 0.058473743, 0.094678082, 0.068294063, 0.099263482, -0.140408441, -0.033700351, -0.031494830, 0.032917541, -0.039736010, 0.016281297, -0.034254029, 0.096240394, 0.030763300, 0.023344131, -0.093087591, -0.065238498, -0.025921885, -0.076320753, 0.177321315, -0.093696490, -0.098219715, 0.047203839, 0.092597693, -0.002246996, -0.003695737, -0.028935095, 0.034285422, -0.030686185, 0.027864125, 0.201923400, -0.153685004, -0.028091108, 0.086885042, 0.097315475, -0.047086831, -0.042578563, -0.184315324, -0.019018298, -0.034795906, 0.050097551, -0.078708827, -0.021029353, 0.027557848, 0.046411015, 0.034581374, -0.081533857, -0.030058581, 0.095239550, -0.024348067, -0.017325809, 0.024715457, 0.090267621, -0.005401015, -0.033331510, -0.030168170, -0.051791921, -0.022094015, -0.010707677, 0.023770273, -0.024900200, -0.148546293, 0.084430635, 0.065300092, 0.003479577, 0.003497793, -0.094647661, 0.033907503, -0.026771676, 0.000773796, 0.030860135, 0.023535458, -0.142844796, -0.044047564, -0.031824846, 0.007152345, -0.077905297, -0.195709571, 0.023359299, 0.035809077, -0.082804516, 0.028849369, -0.071614265, 0.140157491, -0.032864153};
#endif

#endif
