//Numpy array shape [2, 32]
//Min -0.048342388123
//Max 0.083165287971
//Number of zeros 0

#ifndef VALUE_BIAS2_H_
#define VALUE_BIAS2_H_

#ifndef __SYNTHESIS__
q_multi_head_attention_45_default_t value_bias2[64];
#else
q_multi_head_attention_45_default_t value_bias2[64] = {0.078308441, -0.004391926, -0.000060406, -0.010184119, -0.023705773, -0.036662437, -0.031806782, -0.023092603, 0.027985727, -0.048342388, 0.028426955, -0.034951109, -0.028798955, -0.030138919, -0.035086825, -0.027716439, -0.029644499, 0.030332381, 0.016663628, -0.001520957, 0.029691773, 0.019373899, -0.029130844, 0.014438025, -0.030167898, -0.002487327, 0.083165288, -0.004936571, 0.012560901, 0.046725288, -0.027453862, -0.019650793, -0.012340051, -0.000307539, -0.028352899, -0.030611176, -0.030642634, -0.012733073, 0.025777038, 0.004635701, 0.008862116, -0.020871066, -0.013019379, -0.015679367, 0.022729656, 0.025149934, 0.033707440, -0.022018593, -0.001529801, 0.002514091, 0.003605598, -0.030653445, 0.019578073, 0.028525932, 0.010453456, 0.009349333, -0.030150745, -0.022187008, 0.007870496, -0.019113617, -0.006217993, 0.007461322, 0.042395055, 0.004515498};
#endif

#endif
