//Numpy array shape [2, 32]
//Min -0.000015185712
//Max 0.000015040097
//Number of zeros 2

#ifndef KEY_BIAS14_H_
#define KEY_BIAS14_H_

#ifndef __SYNTHESIS__
q_multi_head_attention_1_default_t key_bias14[64];
#else
q_multi_head_attention_1_default_t key_bias14[64] = {0.0000041, 0.0000012, -0.0000039, 0.0000014, 0.0000111, -0.0000044, -0.0000038, 0.0000000, -0.0000000, 0.0000050, -0.0000041, 0.0000026, -0.0000007, -0.0000013, -0.0000152, -0.0000012, 0.0000150, -0.0000038, -0.0000021, 0.0000019, 0.0000000, 0.0000040, -0.0000053, 0.0000044, -0.0000016, -0.0000038, -0.0000001, 0.0000056, 0.0000018, 0.0000007, -0.0000024, 0.0000011, 0.0000013, 0.0000043, -0.0000013, 0.0000006, 0.0000047, 0.0000005, -0.0000041, -0.0000075, 0.0000009, -0.0000064, -0.0000014, -0.0000008, 0.0000008, -0.0000018, 0.0000031, 0.0000040, -0.0000013, -0.0000020, 0.0000025, 0.0000022, -0.0000021, -0.0000052, 0.0000000, 0.0000039, -0.0000005, -0.0000012, 0.0000021, -0.0000021, 0.0000067, 0.0000015, 0.0000014, 0.0000001};
#endif

#endif
