-0.1208164, 0.1123094, -0.0507590, -0.0660006, 0.2683752, 0.2180176, 0.0288005, 0.0207478, 0.0150345, 0.0292006, 0.1215520, 0.0170721, 0.0269855, 0.0190022, 0.0003582, -0.0240124, 0.0827008, 0.0767225, 0.1475466, -0.0293213, 0.0335670, 0.0096392, 0.1730208, 0.2158711, 0.0293913, -0.0242330, 0.0163176, -0.0110984, 0.1095431, 0.2178186, 0.1260151, 0.0316921, 0.0364582, 0.1413791, -0.3508993, -0.2178743, 0.1322041, 0.0277175, 0.0313702, 0.0528392, 0.2517637, 0.1399319, 0.0111032, -0.0305522, -0.0317570, 0.0835757, -0.0989031, -0.0791045, -0.0757413, -0.0934016, 0.0100390, 0.2154586, -0.0337992, -0.0658904, 0.0416422, -0.1030226, -0.0343827, 0.2432364, -0.1430953, -0.0378764, -0.0296286, -0.0333146, 0.0936190, -0.0748552, -0.2516404, 0.1886532, 0.2080800, 0.0918029, 0.0288315, -0.0865151, 0.2024250, -0.1696104, 0.0213142, 0.0266552, 0.0277596, -0.0266573, -0.1450492, -0.1783260, 0.2247633, 0.1311946, 0.0308324, -0.0906635, -0.0441899, -0.0303631, 0.1074971, 0.0470985, -0.0509038, -0.0164632, 0.2066588, -0.0167662, -0.0428928, -0.0660193, -0.0825586, 0.1026713, 0.0460114, -0.1367580, 0.0251014, 0.0287723, -0.0279592, -0.0491806, -0.0851060, -0.3048709, -0.1143364, -0.0939609, 0.0226534, 0.0743136, 0.0448487, 0.1376297, -0.1201581, -0.1423557, -0.1650292, 0.0148408, 0.0645164, -0.0376182, 0.1095719, 0.1498142, -0.1549964, 0.0790566, -0.0102038, 0.1503986, -0.0857497, -0.0792871, -0.0512438, 0.1323982, 0.0312285, 0.0940807, 0.0322992, -0.0238282, 0.0920241, -0.1194203, 0.1309911, 0.2380517, 0.0116622, -0.0210104, -0.0296526, 0.0755373, 0.0374187, -0.0127164, 0.0326489, 0.1381129, 0.1288508, -0.1215728, 0.2504458, -0.2612894, -0.0290216, 0.0283393, 0.0117537, -0.0697215, 0.0984225, -0.1909794, -0.0780464, -0.0321233, -0.1406201, 0.1517834, -0.3015001, 0.0432549, -0.2277086, 0.0292917, 0.0399504, 0.0123101, -0.0009677, 0.3209637, 0.0068605, 0.0260313, -0.0092717, -0.0263464, 0.0403193, -0.0678604, 0.0411173, -0.0405876, -0.0187745, 0.0417528, -0.0849753, 0.1102716, -0.1050527, -0.0044852, -0.0550183, -0.0217098, 0.1568587, 0.2172486, 0.0301491, -0.0291550, -0.0282776, 0.0833976, 0.0137181, 0.0101397, 0.2498238, 0.0935257, -0.0234408, 0.0755444, -0.0417212, 0.0937691, -0.0334440, -0.0323441, -0.0461569, 0.0795028, 0.3561392, 0.0549733, -0.1718125, 0.0555224, -0.0131342, -0.1137436, -0.1494253, 0.0974577, -0.1296560, 0.0325242, -0.0323155, -0.0927726, 0.1450926, 0.3742118, 0.0298427, 0.0314220, 0.0579544, -0.1159986, 0.0557770, 0.0135902, 0.0419230, 0.0344757, -0.0238891, -0.0748425, 0.1165813, -0.0473873, 0.0331474, -0.0301862, -0.0214656, 0.0807879, 0.2572318, 0.0379708, 0.0298213, 0.0310395, 0.0277538, -0.0930101, -0.1163828, 0.0211751, -0.0321628, -0.0922381, -0.0310638, 0.0955245, 0.1615141, 0.2119467, -0.0493925, -0.0320987, 0.1571853, -0.0193225, -0.0405322, 0.1889595, -0.1565583, 0.0769814, -0.0034732, -0.1632108, -0.0772994, -0.0591956, 0.0977591, 0.1843286, 0.1498941, -0.0476162, 0.3370024, -0.4665398, 0.1093606, 0.0699474, 0.0273976, -0.0186314, -0.0143616, -0.0261910, 0.1303942, -0.0423466, 0.0314117, 0.0973535, -0.1723120, 0.3462657, -0.2522458, -0.0304978, 0.2378680, 0.1540242, -0.0759422, -0.0253512, 0.0271381, 0.0233897, 0.0472916, 0.0211670, -0.2453307, -0.0680082, 0.1495699, -0.0170659, 0.0355273, -0.0255642, 0.0734638, -0.0952096, 0.1709067, -0.1393837, -0.0271180, 0.1454885, 0.0278112, -0.2948610, -0.0207761, 0.0305161, -0.0317905, -0.0683185, 0.2186396, -0.1563271, 0.0918072, 0.0111468, 0.0275784, 0.0520893, 0.0950130, -0.0847523, -0.0313189, 0.0331040, -0.0320182, -0.1025291, 0.2762830, 0.2197073, -0.0625238, 0.1131484, 0.1155373, -0.1522473, -0.0496324, -0.0863677, -0.1157183, 0.0680358, -0.0606916, -0.0709659, -0.1429273, -0.2989032, 0.0345492, 0.0627624, 0.0649865, 0.0336521, 0.1587222, -0.0440662, 0.0858850, 0.0668895, -0.0823804, 0.0112579, 0.1343693, 0.3636010, -0.1610656, -0.0536475, -0.0556729, 0.0315005, 0.1871490, 0.2630047, 0.0909242, 0.0785606, -0.0071845, -0.0130581, 0.2054968, -0.0830372, -0.0301885, -0.0126279, 0.0130803, 0.0340858, 0.0152922, -0.1450697, -0.0539805, -0.1805469, -0.0262898, -0.1627333, -0.0908315, 0.2494426, -0.0304183, -0.0314252, -0.0310422, 0.0331200, 0.1925465, -0.0129633, 0.1500413, -0.0308578, 0.1576512, 0.0866019, 0.1021013, -0.1458963, 0.0063799, 0.0227102, 0.0137377, 0.0220531, -0.1124433, -0.0725524, -0.2098223, 0.1423624, -0.1323302, -0.1569255, 0.2164494, 0.2929586