//Numpy array shape [2, 32]
//Min -0.000036895501
//Max 0.000057302965
//Number of zeros 0

#ifndef KEY_BIAS9_H_
#define KEY_BIAS9_H_

#ifndef __SYNTHESIS__
q_multi_head_attention_46_default_t key_bias9[64];
#else
q_multi_head_attention_46_default_t key_bias9[64] = {0.0000168, 0.0000218, 0.0000158, -0.0000053, 0.0000266, -0.0000262, -0.0000241, 0.0000237, -0.0000063, 0.0000455, -0.0000197, -0.0000101, 0.0000087, -0.0000247, 0.0000153, -0.0000091, 0.0000573, 0.0000060, -0.0000148, 0.0000261, 0.0000322, -0.0000050, -0.0000016, -0.0000156, 0.0000109, 0.0000263, 0.0000267, -0.0000253, -0.0000156, -0.0000128, -0.0000122, -0.0000237, 0.0000141, -0.0000127, -0.0000035, 0.0000140, 0.0000062, -0.0000284, 0.0000055, -0.0000300, 0.0000272, -0.0000369, 0.0000220, 0.0000024, 0.0000150, -0.0000144, 0.0000144, 0.0000200, -0.0000016, -0.0000131, 0.0000133, -0.0000016, 0.0000071, 0.0000045, -0.0000183, 0.0000011, -0.0000085, -0.0000079, -0.0000080, -0.0000016, 0.0000116, -0.0000015, -0.0000013, -0.0000106};
#endif

#endif
