-0.1522964, 0.0877279, -0.2253930, 0.2125921, -0.0320341, -0.0886176, -0.2212766, 0.0378504, 0.0772606, -0.1013160, -0.2464364, 0.0849572, -0.0835342, 0.0858342, -0.0696459, 0.1016380, 0.0050439, 0.1275689, 0.2061485, 0.0504031, 0.0051683, 0.2542295, 0.1957849, 0.0780139, 0.0923659, 0.1386794, -0.0684553, 0.0038784, -0.2192575, -0.0348548, 0.0042471, -0.0019161, -0.0925742, 0.2743230, 0.2851513, 0.0239894, 0.3557564, -0.3120868, -0.1666608, 0.2929142, 0.2152531, 0.1907646, 0.1636582, 0.1485002, -0.0588654, -0.1451366, 0.0836137, -0.0193254, 0.1797751, -0.0800323, 0.1314254, 0.2213852, 0.2229466, 0.1122734, 0.0073575, -0.0074819, 0.1689760, 0.1247861, -0.2025440, -0.2395537, -0.2643551, 0.0842154, 0.1412983, 0.2584230, 0.0945456, 0.1547794, 0.1546233, -0.0855341, 0.1404276, -0.2140722, 0.1112641, 0.2325735, -0.0744553, 0.0940982, 0.1023567, 0.4654914, 0.1234941, -0.0578255, -0.1095456, -0.2688943, 0.0735498, 0.1952937, -0.0971345, 0.1572640, 0.0363979, -0.1332789, 0.1353119, -0.1186488, -0.2184846, 0.1010364, 0.0620541, -0.1297399, -0.0460657, 0.3372542, 0.3941961, -0.0643216, -0.0393155, 0.1932294, 0.0836894, 0.1549917, 0.2281093, 0.0002397, -0.1932433, -0.0271629, -0.1675702, 0.3744195, -0.4347779, -0.3029011, 0.0428826, -0.1388451, 0.0566685, 0.0045360, 0.1468977, 0.1502143, -0.2313224, -0.0865309, 0.0108826, -0.0362265, 0.1361964, 0.0938889, 0.2653948, 0.0932967, 0.1868118, 0.0062406, -0.2949939, -0.1393593, -0.1894367, 0.0238429, 0.0615489, -0.0963186, -0.0300801, -0.1711294, -0.0299813, -0.0711192, -0.0232213, 0.1126011, 0.0212974, -0.0937749, 0.1283005, -0.0675969, 0.1465370, 0.1036436, 0.0540595, 0.0166403, -0.0338105, -0.0342299, 0.0606784, 0.1248109, 0.0495667, 0.0908738, -0.1048216, -0.0840368, 0.0097053, 0.1493311, 0.0676544, -0.0777553, -0.0847191, -0.0614660, -0.1540491, -0.1246628, 0.0262565, -0.2339743, -0.4356614, -0.1707582, -0.1284479, -0.0967804, -0.0637721, -0.1176468, 0.2090766, -0.0083051, -0.1549056, 0.1183290, -0.2367991, -0.0722763, -0.1654564, 0.3131088, 0.1433311, -0.0453379, 0.0727781, 0.0386720, 0.2248510, 0.2284355, -0.0730007, 0.0880467, -0.1978287, -0.0141927, -0.1002113, 0.0297378, -0.1779145, -0.2053774, 0.2747840, -0.2196299, -0.1240671, 0.0939545, 0.1565026, 0.1538513, 0.0607034, 0.1859054, 0.1645080, 0.0088319, 0.3348409, 0.0106272, -0.0934206, -0.1337340, 0.1015621, -0.3070289, 0.0909850, 0.0045745, 0.0067940, -0.0769858, 0.2614769, -0.1537850, 0.1114143, -0.0857730, -0.2568184, 0.0159781, -0.0214032, -0.0348294, 0.0175214, -0.2164989, 0.0249724, -0.0371345, 0.0708348, 0.2021166, 0.0011322, 0.1634761, -0.2431044, -0.0348930, -0.1044732, -0.0626908, 0.2730086, -0.2204864, 0.1093396, 0.3665378, -0.0690115, -0.0550573, -0.0785920, -0.1584571, 0.0590811, -0.3277958, -0.0023724, 0.0088401, -0.0773546, 0.2475335, -0.3960349, 0.0139189, 0.0597646, -0.2975938, -0.0951047, 0.0144192, -0.1152358, 0.0132741, -0.2938061, -0.1867238, 0.0411095, 0.0226504, -0.0621947, -0.1776070, 0.1000275, 0.3423803, 0.0889243, 0.2628236, -0.1263692, 0.0627711, 0.2841937, -0.0929272, -0.1929591, -0.1678462, 0.1446343, 0.0788500, 0.0931013, -0.0335075, 0.1133461, 0.0037849, -0.0115532, -0.1927302, 0.0538185, 0.0074306, -0.3426916, 0.1825065, -0.2541198, 0.0214769, 0.0477902, 0.1337346, 0.1050602, 0.2110647, -0.0085148, -0.0630296, -0.1357659, 0.1449761, -0.1289477, -0.2486588, -0.0925120, -0.0621401, 0.0919574, -0.2120994, -0.3944105, 0.0402384, 0.0383047, 0.1482107, -0.0651655, 0.0458597, -0.2810853, 0.1248898, -0.0904045, 0.1246634, -0.2153028, 0.1269038, -0.0316674, -0.1984829, 0.4695324, 0.0509680, 0.2412912, 0.1854121, 0.2106837, -0.0750529, -0.2427780, -0.3139754, 0.2937834, -0.0176664, 0.0367187, -0.0347934, 0.0550487, 0.2814792, 0.0079758, -0.1047703, -0.0691321, -0.2789575, 0.1688094, 0.1308717, -0.0426112, -0.1058473, 0.4698811, -0.0586188, 0.1384272, 0.0299626, -0.1251976, 0.2939608, -0.1483907, 0.0414681, -0.0989074, -0.1098916, -0.0444992, -0.1365907, -0.0458663, -0.0105647, -0.1013830, 0.1458476, -0.0747739, -0.0685846, 0.1040341, -0.1977115, -0.0202498, -0.1223789, 0.0317043, -0.3587937, 0.2208617, 0.2307553, 0.1355618, 0.1824724, 0.0613764, -0.0986693, 0.0972168, 0.0946163, -0.0157248, -0.0658884, -0.0185512, 0.1124265, -0.1043056, -0.2338664, 0.2065232, -0.1492256, 0.0140858, 0.1871507, 0.1281950, 0.0995930, 0.1960976, 0.1189111, 0.0156310, -0.1720769, 0.1472338, 0.1575817, -0.0803225, 0.1673922