//Numpy array shape [2, 32, 4]
//Min -0.479929357767
//Max 0.621748149395
//Number of zeros 0

#ifndef ATTENTION_OUTPUT_WEIGHT14_H_
#define ATTENTION_OUTPUT_WEIGHT14_H_

#ifndef __SYNTHESIS__
q_multi_head_attention_1_default_t attention_output_weight14[256];
#else
q_multi_head_attention_1_default_t attention_output_weight14[256] = {0.185202, -0.025477, -0.046781, 0.360099, -0.409027, -0.196403, 0.185592, 0.028934, -0.365851, -0.300631, -0.190180, -0.264286, -0.251471, -0.164628, 0.286924, 0.000848, -0.102055, -0.174160, -0.268291, -0.297226, 0.364457, 0.124508, -0.206688, 0.180145, 0.034409, 0.063242, 0.245836, 0.232344, 0.347816, 0.019594, 0.300690, -0.201683, -0.344783, -0.164213, 0.374522, 0.059544, 0.352839, 0.264684, 0.076929, 0.352232, 0.029550, -0.274657, -0.103526, 0.144279, -0.382495, 0.218917, 0.100160, 0.256236, 0.267718, -0.330233, -0.268199, 0.157445, 0.312038, 0.076302, -0.075993, -0.314780, -0.443087, -0.243295, 0.062433, 0.179651, -0.459358, 0.192794, -0.117667, 0.157089, 0.191294, 0.287904, -0.059277, -0.163508, -0.338847, -0.309629, 0.106860, 0.165386, 0.002263, 0.321041, 0.335780, -0.117876, -0.064643, 0.000187, 0.075621, -0.369866, 0.158450, 0.131168, -0.277132, 0.126545, 0.149642, -0.100208, 0.057555, 0.222221, 0.499642, -0.251021, -0.426336, -0.124855, -0.255872, 0.216603, 0.386793, -0.337986, 0.621748, -0.205690, -0.054586, 0.170523, 0.061884, -0.151275, 0.312827, -0.038831, 0.350721, 0.027915, 0.218230, 0.184224, -0.258862, 0.421620, 0.249881, 0.159542, 0.156166, 0.123219, -0.173994, -0.013446, 0.356348, -0.230001, -0.209141, -0.279275, -0.281778, 0.276839, 0.378595, -0.062447, 0.158720, -0.318911, 0.001839, -0.162858, -0.056005, 0.350784, 0.415167, 0.226964, 0.139614, 0.350728, -0.067557, -0.186321, 0.221294, -0.171802, -0.287674, -0.283376, -0.093656, 0.184180, -0.046997, -0.100166, 0.274780, 0.253737, 0.150588, 0.280429, -0.215871, 0.108051, 0.335671, 0.082169, 0.338646, -0.169510, -0.013125, 0.122425, 0.045285, 0.117720, 0.113119, 0.248323, 0.105114, -0.111717, 0.319241, 0.160260, -0.375999, 0.167956, 0.127700, -0.083445, -0.021330, 0.051958, -0.222859, 0.149577, -0.028406, -0.083734, -0.153428, -0.335670, -0.296793, 0.161923, -0.248883, -0.050965, 0.311008, 0.080168, -0.055179, -0.088323, -0.479929, 0.321124, 0.078176, -0.158838, -0.142413, 0.119849, -0.142308, 0.279637, -0.364888, 0.208576, 0.385018, -0.272349, 0.059891, 0.374786, -0.105278, 0.101029, -0.427655, 0.110800, 0.177025, -0.322950, -0.086025, 0.322309, 0.237188, 0.257666, 0.030815, -0.194339, 0.004794, -0.014020, 0.239879, -0.136511, 0.143206, -0.187094, 0.365467, -0.118993, 0.150194, 0.321179, -0.034500, -0.222587, -0.243960, 0.307871, -0.192036, 0.219415, -0.070505, 0.087616, -0.034816, 0.182350, -0.322262, -0.174236, 0.236069, -0.268331, -0.331911, 0.356141, -0.136119, -0.228688, -0.058401, 0.341375, -0.067165, 0.111223, 0.061685, -0.226362, -0.173171, 0.288459, -0.037184, -0.018994, 0.050195, 0.116080, 0.111998, 0.348484, 0.186833, -0.203346, -0.117678, 0.140549};
#endif

#endif
