//Numpy array shape [2, 4, 32]
//Min -0.556196033955
//Max 0.471544355154
//Number of zeros 0

#ifndef QUERY_WEIGHT14_H_
#define QUERY_WEIGHT14_H_

#ifndef __SYNTHESIS__
q_multi_head_attention_1_default_t query_weight14[256];
#else
q_multi_head_attention_1_default_t query_weight14[256] = {0.074535, 0.298810, 0.242148, -0.366802, -0.556196, -0.483396, 0.282931, 0.125105, 0.331402, 0.320819, 0.345327, 0.258110, 0.161958, -0.124793, 0.447698, 0.109970, 0.471544, 0.134671, -0.312404, 0.322816, -0.008367, -0.201679, -0.354542, 0.286678, 0.312084, -0.101257, 0.138382, 0.150370, 0.180490, -0.321972, -0.350604, -0.171184, -0.008314, -0.002757, 0.069492, -0.005477, 0.034753, 0.262221, -0.057177, 0.239215, 0.045562, -0.142674, 0.083142, 0.208157, 0.011506, 0.124681, 0.120417, -0.037273, -0.222221, 0.070546, 0.163100, -0.227081, 0.003051, 0.053043, -0.140970, -0.106538, -0.271618, -0.116910, -0.349521, 0.108697, 0.070154, 0.020475, 0.189597, -0.233638, 0.318142, -0.245219, -0.351113, -0.014805, 0.169028, 0.203284, -0.187965, -0.233298, -0.036705, 0.015132, -0.326305, -0.143929, -0.026471, 0.016707, -0.225088, -0.000029, -0.275848, -0.302755, 0.176904, -0.127600, 0.120264, 0.197306, 0.140799, -0.050606, -0.023854, -0.268630, 0.152011, 0.043216, 0.052381, -0.046315, 0.207762, 0.306901, -0.007339, -0.284965, 0.080599, 0.238652, 0.052295, 0.043172, 0.083805, -0.106375, -0.178782, -0.238959, -0.049134, 0.089745, -0.207713, -0.180036, -0.063561, -0.167192, 0.011184, -0.282546, 0.286510, 0.184530, 0.104646, 0.152847, -0.062556, 0.167998, -0.157077, 0.072054, -0.210889, -0.076817, 0.001087, 0.182668, 0.000333, 0.094651, 0.308503, 0.002489, 0.114395, 0.161796, -0.139832, -0.162151, 0.244528, -0.096033, -0.190800, 0.092788, -0.218388, 0.004370, 0.021831, 0.196457, 0.126909, -0.188841, -0.030868, 0.411086, 0.357865, -0.227710, 0.042903, -0.030609, 0.008482, 0.169006, 0.050676, -0.312663, 0.015631, -0.065963, -0.089249, -0.523704, 0.077435, -0.031082, 0.078865, 0.177973, -0.039862, -0.131397, -0.214453, 0.010260, 0.016470, 0.255472, 0.171762, 0.217020, 0.238240, 0.041305, -0.028920, -0.067605, 0.000089, 0.002522, 0.057028, -0.098556, -0.063765, -0.049363, -0.007699, -0.053481, 0.092141, -0.227417, -0.101750, -0.005350, 0.216031, 0.116456, 0.189036, 0.203731, 0.018087, -0.090572, -0.331023, -0.110406, -0.254997, 0.015735, 0.208004, 0.102189, -0.306278, 0.123299, -0.262351, -0.052573, -0.031139, 0.122694, -0.008460, -0.168277, 0.122146, 0.149400, -0.172685, -0.161357, -0.295865, -0.128840, 0.023735, 0.258534, -0.052673, -0.069059, 0.221690, 0.150908, -0.234282, -0.193294, -0.081158, -0.001699, 0.173322, -0.232071, -0.142225, 0.116548, 0.153419, 0.145819, 0.186962, 0.173981, 0.187786, -0.154713, -0.038147, -0.194160, 0.024504, -0.196581, 0.090928, -0.132405, -0.203165, 0.074931, 0.074960, -0.098837, -0.204883, -0.041770, 0.198691, 0.015833, -0.066787, 0.132745, 0.090224, 0.002849, 0.077378, 0.134397, -0.105359, 0.204935, 0.032138, -0.059138};
#endif

#endif
