//Numpy array shape [2, 4, 32]
//Min -1.031108856201
//Max 1.082191824913
//Number of zeros 0

#ifndef QUERY_WEIGHT5_H_
#define QUERY_WEIGHT5_H_

#ifndef __SYNTHESIS__
q_multi_head_attention_default_t query_weight5[256];
#else
q_multi_head_attention_default_t query_weight5[256] = {-0.313646, 0.312366, -0.208268, -0.120477, 1.082192, 0.107678, 0.203465, 0.122039, -0.455293, 0.132068, 0.195579, -0.130793, -0.148272, 0.490380, 0.293802, -0.413845, 0.049231, -0.049323, -0.317147, -0.254401, -0.082154, -0.059058, 0.386860, 0.079134, -0.130443, -0.100953, 0.126815, -0.265882, 0.240924, -0.443126, -0.090191, -0.310685, -0.134623, -0.051041, -0.116480, 0.153427, 0.126454, 0.054295, 0.220538, 0.157714, 0.004427, -0.264884, -0.191801, 0.047632, 0.197929, 0.074591, -0.144072, -0.228085, -0.020882, 0.234861, 0.066446, 0.120512, 0.139436, -0.317382, -0.048981, -0.256061, 0.188247, -0.173830, 0.091705, -0.133454, 0.255443, -0.051785, 0.191812, -0.114210, 0.065029, -0.203793, 0.243352, -0.032108, -1.031109, 0.186901, -0.208911, -0.074535, 0.146260, 0.024675, 0.317990, 0.247813, -0.264908, -0.133535, -0.308452, 0.299454, -0.327663, -0.104805, 0.236595, 0.284461, 0.183229, -0.112243, -0.051895, -0.280429, 0.061403, 0.118929, -0.300724, 0.486321, 0.113197, 0.358614, 0.168502, 0.214021, 0.279774, -0.360003, 0.010950, -0.105194, -0.931908, 0.094415, -0.236357, 0.256360, 0.353102, -0.168887, 0.134162, 0.185038, 0.213391, -0.305680, -0.190293, 0.435064, -0.054992, -0.362540, 0.149346, 0.202272, -0.080630, 0.252937, -0.251493, 0.027422, 0.321598, 0.040414, -0.295427, 0.109242, -0.130133, 0.505965, 0.317317, 0.179814, -0.469296, -0.104289, -0.063045, -0.293393, -0.146314, 0.152539, -0.237291, 0.040801, 0.787072, -0.243161, -0.357013, 0.536045, 0.033295, -0.121766, 0.153596, 0.088610, -0.017899, -0.422943, 0.586197, 0.335452, 0.057604, 0.208463, 0.249873, 0.359073, -0.099804, 0.146549, -0.042878, -0.158303, 0.126929, 0.274264, 0.440388, 0.071898, 0.088776, 0.247917, -0.017010, -0.036047, -0.227526, 0.309532, -0.066067, -0.112793, -0.204752, 0.031030, -0.269003, 0.177300, -0.138513, 0.134354, -0.261649, -0.182355, -0.252329, -0.121582, 0.138592, 0.106079, 0.115280, 0.193784, 0.113405, 0.101644, -0.258440, 0.153045, 0.145465, 0.237371, -0.119408, -0.006029, 0.239269, -0.043410, 0.297888, -0.027835, -0.231837, -0.020026, -0.099553, -0.150463, 0.294248, 0.265066, -0.331222, 0.229560, -0.082849, -0.151750, -0.034836, -0.120547, -0.103343, -0.186505, 0.228117, 0.373828, -0.543179, -0.256637, -0.070862, 0.056822, -0.062607, -0.211971, -0.104570, -0.188302, 0.067454, -0.296945, -0.172539, -0.263640, -0.182794, -0.116667, 0.317393, 0.279235, -0.050749, -0.096560, -0.122981, 0.042258, 0.160699, 0.231414, -0.846337, -0.038417, 0.489191, -0.003189, -0.116907, 0.228332, -0.054465, 0.221433, 0.237992, 0.473517, -0.736643, -0.125152, -0.121024, -0.338628, -0.173935, -0.277768, 0.126216, 0.137596, 0.143226, 0.091054, 0.077146, 0.213835, -0.054659, -0.370591};
#endif

#endif
