//Numpy array shape [2, 32, 4]
//Min -0.479929357767
//Max 0.621748149395
//Number of zeros 0

#ifndef ATTENTION_OUTPUT_WEIGHT14_H_
#define ATTENTION_OUTPUT_WEIGHT14_H_

#ifndef __SYNTHESIS__
q_multi_head_attention_1_default_t attention_output_weight14[256];
#else
q_multi_head_attention_1_default_t attention_output_weight14[256] = {0.185201570, -0.025476513, -0.046781123, 0.360098511, -0.409027249, -0.196403205, 0.185591817, 0.028934481, -0.365850836, -0.300631195, -0.190180451, -0.264286280, -0.251471043, -0.164628491, 0.286923945, 0.000847606, -0.102054991, -0.174159735, -0.268290907, -0.297225744, 0.364457190, 0.124508172, -0.206688404, 0.180145130, 0.034408882, 0.063242443, 0.245835811, 0.232343718, 0.347815573, 0.019593840, 0.300690353, -0.201683089, -0.344782919, -0.164212942, 0.374521911, 0.059544031, 0.352839410, 0.264684051, 0.076929174, 0.352231652, 0.029550003, -0.274656564, -0.103525862, 0.144278735, -0.382495165, 0.218917042, 0.100159958, 0.256236076, 0.267718315, -0.330233097, -0.268198878, 0.157445148, 0.312037706, 0.076301679, -0.075993016, -0.314779967, -0.443086654, -0.243294507, 0.062433310, 0.179651469, -0.459358364, 0.192793876, -0.117667258, 0.157088891, 0.191294193, 0.287903577, -0.059277121, -0.163507596, -0.338846534, -0.309628993, 0.106859766, 0.165386096, 0.002263161, 0.321040988, 0.335780203, -0.117876023, -0.064643398, 0.000187138, 0.075621001, -0.369866341, 0.158449918, 0.131167620, -0.277132243, 0.126544833, 0.149641708, -0.100207821, 0.057555098, 0.222221196, 0.499641806, -0.251020759, -0.426335722, -0.124855064, -0.255872071, 0.216603220, 0.386793047, -0.337985694, 0.621748149, -0.205689579, -0.054585658, 0.170523182, 0.061883848, -0.151275441, 0.312826574, -0.038830616, 0.350721359, 0.027915342, 0.218230084, 0.184224039, -0.258862466, 0.421620190, 0.249881476, 0.159541875, 0.156166360, 0.123218939, -0.173994496, -0.013445946, 0.356347531, -0.230000764, -0.209140748, -0.279274732, -0.281778067, 0.276838839, 0.378594667, -0.062447030, 0.158719897, -0.318911284, 0.001839147, -0.162857875, -0.056005277, 0.350783825, 0.415167361, 0.226964116, 0.139613777, 0.350727826, -0.067557357, -0.186321333, 0.221293762, -0.171802357, -0.287674427, -0.283376455, -0.093655646, 0.184179738, -0.046996634, -0.100165911, 0.274780214, 0.253737003, 0.150588334, 0.280429304, -0.215871379, 0.108051486, 0.335671306, 0.082168505, 0.338645697, -0.169509992, -0.013124588, 0.122424573, 0.045285203, 0.117720395, 0.113119133, 0.248322740, 0.105113521, -0.111716956, 0.319240749, 0.160260245, -0.375998557, 0.167955726, 0.127699897, -0.083444662, -0.021330312, 0.051958248, -0.222859204, 0.149576917, -0.028406041, -0.083733588, -0.153428495, -0.335669547, -0.296792805, 0.161923289, -0.248882651, -0.050964553, 0.311008245, 0.080167577, -0.055179417, -0.088323221, -0.479929358, 0.321123660, 0.078175806, -0.158838406, -0.142413348, 0.119849466, -0.142307729, 0.279636621, -0.364887983, 0.208575517, 0.385017931, -0.272348553, 0.059890915, 0.374786079, -0.105277799, 0.101029284, -0.427654654, 0.110800348, 0.177025318, -0.322950333, -0.086024903, 0.322308630, 0.237188220, 0.257666498, 0.030814713, -0.194339171, 0.004794234, -0.014020423, 0.239879042, -0.136511266, 0.143206239, -0.187094077, 0.365467489, -0.118992545, 0.150193602, 0.321179152, -0.034499671, -0.222587362, -0.243959770, 0.307870626, -0.192035884, 0.219414979, -0.070504650, 0.087616056, -0.034816273, 0.182349533, -0.322262496, -0.174236447, 0.236069098, -0.268331140, -0.331910551, 0.356140941, -0.136118993, -0.228687987, -0.058401074, 0.341375440, -0.067164890, 0.111222908, 0.061685026, -0.226362154, -0.173171028, 0.288459241, -0.037184112, -0.018993849, 0.050195180, 0.116079569, 0.111998454, 0.348484010, 0.186832517, -0.203345731, -0.117678113, 0.140549138};
#endif

#endif
