-0.18827415, -0.17025228, 0.02517685, 0.10728866, -0.03122243, -0.19098820, -0.22216013, 0.14036815, 0.10768063, 0.05929420, -0.16580434, 0.11670268, -0.31099606, 0.22252873, -0.26750436, 0.39511299, 0.09486944, -0.04701817, -0.12468382, 0.10434739, 0.08197127, 0.17823453, 0.23851822, 0.28651541, -0.14586172, -0.05480828, -0.43783584, -0.19859293, -0.31583729, -0.06098725, 0.17069829, 0.19668399, -0.14633299, 0.24661748, 0.16557357, -0.00412135, 0.29171085, -0.18769605, -0.16244911, 0.26689392, 0.16332488, -0.03588917, 0.07758412, -0.07482971, 0.04048575, -0.08208203, 0.21170346, -0.01889775, 0.09831029, 0.02095364, 0.29801986, 0.21522135, 0.11571650, 0.26607585, 0.05427135, 0.04861137, 0.31835809, 0.08331554, 0.01820719, -0.24532096, -0.15019083, -0.02424157, -0.11712098, 0.24211040, 0.15959495, 0.29637292, -0.07562153, 0.01992196, 0.09581322, -0.22331239, -0.24415143, 0.08001392, 0.20243651, 0.05126058, 0.04292407, 0.32725117, 0.25908044, -0.28091258, 0.15931730, -0.39319319, 0.08538647, 0.42364234, 0.10020418, 0.11959296, 0.07531265, 0.05962915, -0.02225809, -0.17354484, 0.10167309, 0.27701849, 0.18453561, -0.06579924, 0.03193575, 0.24768451, 0.23048809, -0.03417920, 0.09427115, 0.01826933, 0.08523329, 0.07830832, 0.15494886, 0.02465872, -0.28385967, -0.14691056, 0.00900544, 0.22865139, -0.28354508, -0.12074476, 0.02749656, -0.19812483, 0.06926916, 0.04390771, 0.09150249, 0.20792422, -0.17676084, -0.03812496, 0.21501863, 0.04813473, -0.12919652, -0.02305698, 0.42318273, 0.14140636, 0.24720822, 0.10236657, -0.22287075, -0.20280042, -0.14779338, -0.05331729, 0.12645946, -0.18794341, -0.11828983, -0.20755382, -0.07518040, -0.10598803, 0.14545675, -0.02724405, 0.24713771, -0.20963575, 0.14582029, 0.16101271, -0.06489476, -0.09859831, 0.00575510, 0.19152172, 0.07890204, -0.02157054, 0.12402772, 0.06967234, 0.17724420, 0.19590521, -0.19906655, 0.01490960, -0.21058501, 0.01603394, -0.01782648, 0.03260718, -0.04016138, -0.15888651, 0.14158334, -0.23502132, 0.03775004, 0.15061460, -0.52280909, 0.13637242, -0.10289929, -0.02406231, -0.16315508, -0.30583230, 0.04433984, -0.17641136, -0.35812721, -0.31518427, -0.02256848, -0.20093767, 0.19947101, -0.03374239, 0.07868429, 0.20639847, 0.30586842, -0.16834876, 0.07929804, 0.20907871, -0.14422448, -0.09235044, 0.16904509, 0.04051128, 0.20429936, 0.16910186, 0.15670170, -0.34253460, -0.21679531, -0.29580963, -0.16335480, 0.16171382, 0.07381105, -0.08838109, 0.17895468, 0.22960760, 0.16391592, 0.11451497, 0.12675995, -0.01618039, -0.10734474, -0.20059317, -0.17884360, -0.10696097, 0.09433718, 0.00312114, -0.05340937, -0.23911932, 0.18464720, -0.11243471, -0.07345319, 0.22538994, -0.18582870, -0.03225183, -0.14509387, -0.15488808, -0.10594848, -0.24992090, 0.00989055, 0.19749348, -0.11194161, 0.03174496, -0.02674364, -0.27664798, 0.23651181, -0.17600776, 0.08372477, 0.03993283, -0.17362523, 0.21955699, -0.08784976, -0.22439517, 0.04936521, 0.19468823, -0.16653053, 0.09588788, -0.03325483, 0.11694715, -0.01706905, 0.10806099, 0.03316977, -0.21255735, 0.25817209, 0.12500706, 0.13817813, 0.19186385, 0.05137203, -0.06644530, 0.05124219, 0.05718227, 0.20956622, 0.22266454, -0.12184488, 0.11198193, 0.01271774, -0.21572524, 0.22354424, 0.13249944, 0.27019334, 0.28297696, 0.00237869, 0.28604409, 0.21932808, -0.11174113, -0.02354072, -0.36457211, 0.12902218, -0.07410239, 0.09496275, 0.09377357, -0.08292769, -0.12539971, 0.28958574, -0.26274791, 0.23395015, 0.06253137, -0.40738681, 0.20015059, 0.01894484, 0.04597084, -0.10326155, -0.14276025, 0.21018386, 0.24541169, 0.06154772, 0.13237193, -0.09420431, -0.13441539, 0.12337680, 0.26026240, -0.04347098, -0.02819483, -0.16561639, 0.02460398, 0.15458345, -0.05366252, -0.30826643, -0.16956005, 0.09608573, 0.16966446, 0.13075033, 0.28400093, 0.09539242, -0.06800184, 0.05426599, -0.03128593, -0.09018912, 0.10800306, -0.31747395, 0.14324413, -0.26790816, -0.08441091, -0.10307343, 0.16593687, 0.18521105, 0.40596104, -0.28189540, -0.22250374, 0.10647711, -0.10929251, -0.09046495, -0.31947857, -0.18893656, 0.11166856, -0.26287925, 0.26538146, -0.21728911, -0.40889660, 0.33077940, 0.54493821, -0.15042786, 0.15163627, -0.42228615, -0.03231705, 0.15205304, -0.26413584, 0.14768875, -0.18611759, 0.29421464, -0.23628278, 0.25036711, 0.27716333, 0.34912041, 0.17183611, 0.20130478, 0.14573388, 0.42383143, -0.10029978, 0.07895901, 0.18114887, 0.11642844, -0.05907667, 0.08590543, 0.34413350, 0.04108597, 0.14390819, -0.00869855, -0.09910052, 0.27976677, -0.08824985, -0.19664915, -0.27608469, 0.11366899, -0.09000061, 0.26315364, -0.27956432, 0.13631648, 0.16813989, 0.07122921, -0.12533189, 0.16418494, -0.23558950, -0.25415990, 0.03961634, -0.28625810, -0.12760481, -0.08117277, 0.08087023, 0.07442075, -0.15275954, 0.04511583, 0.06219135