1.33076191, 2.21045375, -0.26828238, 0.58087975, -1.53750348, 1.65760005, -1.05060434, 0.16628571, 1.31646788, -1.68236732, 0.64521658, 0.00342168, -2.26217484, 1.33949089, -0.69778627, 1.44659674, 1.74905014, -0.61727571, -1.41688490, -1.43467450, 0.76123178, 1.95467341, 2.06774616, 1.19536650, -0.41710860, -0.64292938, 0.70545697, -0.92819864, -2.43132234, 0.11804137, 2.23779297, 1.23082924, 0.02303199, 0.14255527, 0.02636494, 0.22707437, 0.04105280, 0.09619596, -0.02356386, -0.04307786, 0.07134774, 0.15663864, 0.32944444, -0.25032631, 0.01600925, -0.08116721, 0.24024512, -0.13678420, 0.28231379, -0.14419468, 0.03509744, -0.18823607, 0.41219187, 0.34410623, -0.06027444, 0.12448253, 0.25565717, -0.10007786, 0.25737911, -0.27255127, -0.19105539, 0.00293025, 0.16501890, 0.00419171, 0.02592231, -0.21035965, 0.13438945, -0.25357172, 0.04947624, -0.09780916, -0.18049799, 0.15095730, -0.20608568, 0.14958115, -0.30486286, -0.21800068, 0.41630104, -0.42778507, -0.01975975, -0.24289243, -0.19235313, 0.02439929, 0.36216334, 0.05239118, -0.04784268, -0.14611022, -0.10623557, 0.17736177, -0.13026768, -0.02283826, 0.03753308, 0.00624737, 0.44902146, -0.19888169, -0.69037378, -0.03422291, -0.20213239, -0.15587173, 0.16350569, -0.08042645, 0.16949922, -0.11636694, 0.18489844, -0.19586983, 0.30296347, 0.09911306, 0.29766014, -0.22557572, -0.08394401, -0.45501131, -0.09049121, 0.06631469, -0.32364139, -0.10186511, 0.21620134, 0.08530831, 0.29657862, -0.25181788, 0.03003947, -0.22361425, -0.01017825, 0.14313433, -0.00352379, -0.12782025, -0.02660696, -0.24547310, -0.14438830, -0.20854579, -0.19708677, -0.01683756, -0.38623351, -0.16592394, 0.10021108, 0.20574322, -0.18392771, 0.12070193, 0.31135106, -0.03113319, -0.09196054, -0.37873301, -0.02073546, 0.17825188, -0.02445688, -0.28595033, -0.01163228, -0.00635493, 0.01975219, -0.04414564, 0.22971232, 0.04617934, 0.09710082, 0.10722858, 0.28214636, -0.18401513, 0.12227472, 0.17279986, -0.01737529, 0.09088370, 0.26360872, 0.13471943, 0.18744883, 0.01336119, -0.27339593, -0.04589153, 0.13250338, -0.23370697, -0.38628274, 0.45782617, -0.09731202, -0.17959617, 0.02410384, 0.14965393, -0.15155415, 0.03151622, -0.38240543, -0.16614354, -0.15192649, -0.24826258, -0.17849328, -0.20238553, 0.09425975, -0.26919791, 0.16837655, 0.31906319, 0.30674919, 0.16658096, 0.08148926, -0.15650058, 0.17601791, -0.26747632, -0.31018156, -0.27237511, 0.22653474, -0.18650293, -0.13954648, -0.23885611, 1.83262336, -2.09575987, -0.41727862, 0.20046090, 0.47147569, 0.18643591, -0.82422483, 0.30383852, 0.95591640, -0.47944778, 0.26192293, -0.67348993, 0.05519057, 1.04772425, -0.81785172, -0.08206591, -0.03079136, 0.75054049, 0.69416249, 0.38144061, -0.09668486, 0.47082168, 0.19205283, 0.86194867, -0.44006136, -0.46554911, -0.04663496, -0.53058434, 0.35089815, -0.30875152, -0.17196240, -0.13634124, 0.25095865, 0.12066633, 0.15560213, 0.13283212, 0.00789180, 0.21148498, -0.10281061, 0.24317619, 0.04448234, 0.01859617, -0.17481071, -0.08887368, 0.07145651, 0.27940369, 0.12675612, 0.13722555, -0.08660858, 0.08543326, 0.08089842, 0.00638839, -0.20663136, 0.08968934, 0.08453976, 0.05364783, 0.00236230, 0.10360532, -0.03919913, -0.11862826, 0.31012326, 0.21077406, -0.18496744, -0.14390390, -0.08324616, 0.05230119, -0.02346128, 0.08159219, 0.03155617, 0.29981723, 0.07888609, 0.18605891, -0.04057221, 0.14822066, -0.31290382, -0.14870539, -0.07446431, 0.07031478, -0.12465359, 0.04236443, -0.20725454, 0.23083979, -0.03909267, -0.01719015, 0.02767217, 0.06873386, 0.18491042, 0.18019721, 0.08667888, 0.17801000, -0.04179067, -0.07486688, 0.02895674, 0.00391018, 0.01787946, 0.13993898, 0.04887683, 0.00246672, 0.04289188, -0.27046266, 0.14229497, 0.03343550, -0.06724212, 0.13867478, -0.20542748, 0.03526141, 0.07390140, 0.04750323, 0.16676815, 0.03857427, -0.09434747, 0.12775660, -0.03099951, -0.27286184, 0.27657178, -0.14376402, -0.17525926, 0.21411499, 0.00888241, -0.17315325, -0.07540488, -0.04013754, -0.09510860, -0.27394676, 0.06929638, -0.09012278, -0.08697695, -0.30108258, 0.21639465, -0.03495483, 0.01532723, 0.03091796, 0.05971262, 0.26033059, 0.02558754, -0.19489779, -0.12273721, 0.06608520, -0.07354413, 0.00596953, 0.09051418, 0.21382119, -0.11434014, -0.01024880, -0.02952689, 0.07373516, -0.10570592, 0.18092653, 0.18015373, -0.07547192, 0.00834870, -0.06180003, 0.03241878, 0.10498345, 0.18264680, 0.25677049, -0.07362306, -0.21451333, 0.13222574, 0.11594684, -0.06982795, 0.01708751, -0.07057559, -0.02551419, 0.10188624, -0.02803893, -0.00597806, -0.07152996, 0.08114976, -0.21316698, 0.46873331, 0.05934433, -0.19131009, 0.05892486, 0.10198624, -0.13474199, 0.27029160, -0.34528208, 0.27419326, -0.14696270, -0.02341715, 0.08982699, 0.02811684, -0.09560333, 0.08080863, -0.03198632, -0.03505897, -0.21838920