//Numpy array shape [2, 32]
//Min -0.554449856281
//Max 0.588663637638
//Number of zeros 0

#ifndef QUERY_BIAS9_H_
#define QUERY_BIAS9_H_

#ifndef __SYNTHESIS__
q_multi_head_attention_46_default_t query_bias9[64];
#else
q_multi_head_attention_46_default_t query_bias9[64] = {0.22946113, 0.55313838, -0.34738374, -0.09878956, 0.21342367, -0.03625351, -0.01306729, -0.23921327, 0.14438219, -0.10493129, -0.03905694, -0.10923962, 0.32363421, -0.54634142, 0.47383121, -0.44712093, 0.13658223, 0.38719878, 0.56852818, -0.11740013, 0.17879902, 0.12638383, -0.28369004, -0.31768832, 0.23911408, 0.25412419, 0.37597257, 0.18285541, 0.42841923, -0.07674246, -0.10817012, -0.22755152, 0.23540102, -0.26061702, -0.09506992, -0.26329741, -0.31347030, -0.10019828, -0.53203410, 0.16305141, -0.28815430, -0.55444986, 0.30195728, 0.28972042, 0.04720487, 0.17318240, -0.32253182, -0.23458634, 0.24817617, -0.08701271, 0.01973682, -0.05717279, 0.39316320, -0.30481979, 0.36028868, 0.27302396, 0.39169642, 0.17693675, 0.23998192, 0.32454923, 0.58866364, -0.30511361, 0.25259361, 0.18381488};
#endif

#endif
