//Numpy array shape [2, 32]
//Min -0.671836256981
//Max 0.723046422005
//Number of zeros 0

#ifndef QUERY_BIAS2_H_
#define QUERY_BIAS2_H_

#ifndef __SYNTHESIS__
q_multi_head_attention_45_default_t query_bias2[64];
#else
q_multi_head_attention_45_default_t query_bias2[64] = {-0.24588110, 0.06878149, -0.67183626, -0.34267503, -0.06313722, 0.03366668, 0.00879723, -0.59458846, 0.23477376, -0.13286927, 0.15685715, 0.08187511, -0.18002480, 0.21128693, 0.01480423, -0.24654117, 0.02695187, 0.37661415, -0.16376345, -0.13548890, 0.21519414, -0.06523846, 0.09116029, 0.28313556, 0.72304642, -0.12708321, -0.02305596, 0.00403342, -0.09657520, 0.39105001, 0.27244323, -0.06762546, -0.01183645, 0.09336217, -0.10154809, -0.04776464, 0.02432188, 0.05830149, -0.00290344, 0.26047379, -0.15113284, 0.07032704, -0.33502504, -0.09071365, 0.25005442, 0.21524170, 0.21020268, -0.09381001, 0.01899651, -0.09811343, -0.16563241, 0.10608473, -0.20082174, 0.05228112, 0.09962135, 0.05819200, -0.21701938, -0.10748836, -0.00239388, -0.16858414, 0.03198782, -0.14730448, 0.09337182, 0.15009004};
#endif

#endif
