//Numpy array shape [2, 6, 32]
//Min -0.213196694851
//Max 0.239174574614
//Number of zeros 0

#ifndef VALUE_WEIGHT9_H_
#define VALUE_WEIGHT9_H_

#ifndef __SYNTHESIS__
q_multi_head_attention_46_default_t value_weight9[384];
#else
q_multi_head_attention_46_default_t value_weight9[384] = {-0.05668037, -0.01222488, -0.09001670, -0.05462323, 0.03144269, -0.03179093, -0.00094554, 0.00230004, 0.03067142, -0.11909705, -0.07043787, 0.02717518, 0.00629711, -0.05297988, -0.03121469, -0.07303438, -0.06985968, -0.04485101, 0.07473168, 0.03122541, -0.14042087, -0.04948070, 0.09442705, 0.08781507, 0.01507386, -0.03047793, -0.03256601, -0.10911895, 0.11335628, -0.13757056, -0.07043274, -0.09397371, -0.03616612, 0.14782917, 0.06233144, -0.01824209, 0.14407858, 0.13286917, -0.07053784, 0.13587597, -0.05942277, 0.07034896, 0.03157980, -0.01118821, 0.09057693, 0.03030038, 0.07973532, -0.00612245, 0.13815732, 0.03436846, -0.06365013, 0.03088204, -0.19470751, 0.06104090, 0.04011220, 0.13149533, 0.06261724, -0.15500799, -0.09529779, -0.02643301, 0.03574113, -0.14841950, -0.06462450, 0.07919445, 0.01641907, -0.07750148, -0.08285574, -0.01949564, -0.08840372, 0.00691477, -0.19144459, 0.10435651, -0.08827741, 0.07428514, -0.02828385, 0.05760631, -0.15537636, 0.09363831, 0.10371195, 0.10116935, 0.06994951, -0.02064919, -0.12555170, 0.12636371, 0.12596384, -0.09355098, 0.15319680, 0.04737362, -0.03157486, 0.02998152, -0.09548526, 0.08018784, 0.03389100, -0.02065597, -0.09348574, -0.06951150, 0.09372522, 0.15206587, 0.01615630, -0.10597755, -0.03405190, -0.02737984, -0.03022620, 0.09352670, -0.04043582, -0.02029739, 0.17804500, 0.04244160, 0.06383663, 0.04793656, -0.08688669, 0.15241563, 0.09396675, 0.14245857, -0.02482323, 0.03088562, 0.03435756, -0.05985547, 0.09193475, 0.00716170, 0.15800355, 0.03876219, 0.00397307, 0.09473640, -0.05298483, -0.02035544, 0.08533234, 0.14230530, -0.15684648, -0.02142848, -0.07251262, -0.00279645, 0.13750009, 0.01392061, 0.09004838, -0.05012453, 0.00214280, -0.09403866, -0.09161548, 0.01153325, 0.09336128, -0.08138667, -0.15608068, 0.00303663, 0.01879390, 0.03089982, 0.07601944, 0.01441582, -0.03063271, 0.03397997, -0.09316828, 0.01434258, -0.02816182, -0.05814084, 0.06431022, 0.00524346, 0.07735710, -0.10681624, 0.09344950, 0.05994726, -0.15207668, -0.05351023, -0.05568607, -0.00998078, -0.12846948, 0.05593098, 0.02136220, -0.12029838, 0.09165595, -0.13508607, 0.09191290, 0.13679561, 0.13606830, -0.06430470, 0.10095504, 0.11293346, 0.15602525, -0.03319075, -0.04510264, 0.09235590, -0.02068464, -0.15647236, 0.06678262, -0.21319669, -0.11735612, -0.00385258, -0.08660696, -0.02835926, -0.06652971, 0.23917457, -0.14844055, 0.04840484, -0.16246368, 0.09837386, -0.17728078, -0.03421867, 0.05741156, 0.15496293, 0.06056905, 0.00139671, 0.12633087, -0.14784868, 0.07079481, 0.07624038, -0.09309514, 0.06393854, 0.02405293, 0.15922122, -0.09285670, -0.09351636, 0.04770752, 0.04975913, -0.03108814, -0.16450042, 0.10414979, 0.10470876, 0.16427973, 0.07113604, 0.05024322, -0.02790171, 0.09697862, -0.06355213, -0.05669095, -0.15678507, -0.02206153, 0.09466726, 0.15975827, -0.03784699, -0.08495400, 0.08579154, 0.05332281, 0.14831987, 0.12571609, -0.10870492, -0.07435239, -0.03556157, 0.04350854, 0.07039455, 0.04890110, 0.07110758, -0.10563730, -0.09244493, 0.09332103, -0.07087062, -0.07927377, 0.10335723, 0.12337232, 0.16048299, 0.14563711, -0.02570444, 0.09354274, 0.21337874, 0.09108882, -0.03813170, 0.08102813, -0.17377286, 0.02229938, -0.03778385, 0.02382188, 0.00679563, -0.07694738, -0.19242942, -0.05351234, 0.04162021, -0.14874631, -0.09617170, 0.03160166, -0.01121006, 0.01498876, -0.02867299, 0.16188438, -0.06565642, -0.03201807, 0.21387428, 0.02527424, -0.14220209, -0.01937279, 0.13560686, 0.01078997, 0.03124719, 0.02274906, -0.04722794, 0.09017333, -0.01891943, -0.14766237, -0.11233800, 0.20786311, -0.13136691, 0.11839381, -0.10120562, 0.05989705, -0.10033057, 0.09453177, 0.05238864, 0.08636855, -0.09600013, 0.07730138, -0.03878699, 0.02833116, -0.15976614, -0.07811099, -0.09521868, -0.09764763, -0.08931323, -0.03972887, -0.02864028, 0.09569579, 0.03345100, 0.15815556, 0.15355729, 0.11944774, -0.00904455, -0.06599439, -0.08775968, 0.02879807, 0.00654524, -0.08059004, 0.15647362, -0.03251297, 0.04619706, 0.03162934, 0.11198379, 0.18805820, -0.03097066, 0.01412539, 0.10439948, 0.03209111, -0.03193565, 0.03195782, 0.12433293, -0.01651711, 0.11184537, 0.13095823, 0.09183159, 0.02066883, -0.06060065, 0.03023394, -0.09810960, -0.02909373, -0.03112848, -0.12938322, 0.01528851, 0.05891681, -0.03251328, 0.12154714, 0.07129049, -0.04455204, 0.09922881, 0.05300988, 0.04317759, -0.05000732, 0.03083470, -0.00692986, 0.15275155, 0.01138433, 0.09466784, 0.09266242, -0.09333601, -0.08684428, -0.00167196, 0.10645255, -0.06585504, 0.10716365, -0.14754403, -0.11796382, 0.03065567, -0.03077533, -0.01675188, 0.08870343, 0.05401621, 0.13089539, -0.11409959, -0.02312611, 0.13330930, 0.01575436, -0.03575713, -0.03259600, 0.09170265, 0.00185477, -0.14615045, -0.08287445, -0.14226958, -0.13970882, 0.03813868};
#endif

#endif
