//Numpy array shape [2, 32]
//Min -0.081358306110
//Max 0.094336606562
//Number of zeros 0

#ifndef VALUE_BIAS9_H_
#define VALUE_BIAS9_H_

#ifndef __SYNTHESIS__
q_multi_head_attention_46_default_t value_bias9[64];
#else
q_multi_head_attention_46_default_t value_bias9[64] = {0.03389343, -0.03548846, 0.03185286, 0.03366816, 0.03525930, 0.02230799, 0.02494239, 0.04017936, -0.08135831, 0.06561316, -0.04231384, -0.02966300, 0.00224192, 0.02950947, 0.04295964, 0.00598370, 0.03131219, 0.01818494, -0.06028802, -0.03157551, -0.07535078, 0.09433661, -0.05693066, 0.01294435, 0.02193668, -0.02064714, 0.01054210, 0.03256529, -0.01477661, -0.01564121, 0.02097213, 0.04621351, 0.03877485, -0.02320215, 0.07525766, 0.02934806, -0.07114339, -0.01528130, -0.03061949, 0.01515605, -0.03015200, -0.03176596, -0.02630489, 0.01281814, 0.02795989, -0.02870555, 0.03135194, -0.03958498, 0.01549097, 0.04253989, -0.00016624, 0.00433109, -0.02066561, 0.03099371, -0.02082934, 0.00401639, -0.02585751, -0.01069099, 0.03089906, 0.03152831, 0.02148780, -0.00491753, 0.06682245, -0.02770967};
#endif

#endif
