//Numpy array shape [2, 32]
//Min -0.000344245549
//Max 0.000527181081
//Number of zeros 0

#ifndef KEY_BIAS5_H_
#define KEY_BIAS5_H_

#ifndef __SYNTHESIS__
q_multi_head_attention_default_t key_bias5[64];
#else
q_multi_head_attention_default_t key_bias5[64] = {-0.0000634, 0.0001360, -0.0000708, -0.0000015, 0.0005272, 0.0000281, 0.0001232, -0.0000171, -0.0001785, 0.0000307, -0.0000027, -0.0000845, 0.0000097, 0.0001249, 0.0000523, -0.0003442, 0.0000098, -0.0000089, -0.0002135, -0.0001514, -0.0000235, -0.0000205, 0.0001173, 0.0000193, -0.0000457, 0.0000101, 0.0001050, 0.0000058, 0.0000988, -0.0001647, -0.0000714, -0.0001934, -0.0002168, -0.0000636, 0.0000109, -0.0000530, 0.0000052, -0.0000217, -0.0001064, -0.0000159, 0.0001345, -0.0000543, -0.0001268, 0.0001353, 0.0000068, -0.0000368, 0.0000241, 0.0000214, -0.0000019, -0.0001584, 0.0004258, 0.0000881, -0.0000006, -0.0000314, 0.0001393, 0.0001397, 0.0000083, 0.0000060, -0.0000636, -0.0000179, 0.0000662, 0.0000617, 0.0002473, -0.0000040};
#endif

#endif
