-0.2248079, 0.0611338, -0.1725283, -0.0475584, -0.2713467, 0.1570925, -0.0071011, 0.0547133, -0.0453257, -0.1965298, -0.2316368, 0.0196217, 0.1356055, -0.1030824, -0.2147890, 0.1133236, 0.2131965, 0.0463111, 0.0153999, -0.1669391, -0.0201924, -0.2626535, 0.0836826, -0.2575686, 0.1927733, -0.1641288, -0.1834233, 0.3217151, -0.2126528, 0.2250677, 0.3511624, 0.0709172, -0.4211780, 0.5045044, -0.1324115, 0.0241127, 0.5068475, -0.0253796, 0.3820844, -0.1801857, -0.3134053, 0.0382605, 0.0385633, -0.1973230, -0.3011498, 0.5104313, 0.2237589, -0.2427785, -0.0421691, 0.1542920, -0.1253204, -0.3672283, -0.1534064, 0.0374538, 0.3946038, -0.2544814, -0.2890170, -0.0527434, 0.0665593, -0.0548733, 0.2782517, -0.2770498, -0.2067093, -0.3455598, -0.1053127, -0.1018893, 0.1218058, 0.0116050, 0.2380415, 0.0040313, -0.0625023, 0.0718149, 0.1588711, 0.0019594, -0.2731032, 0.0130703, -0.1132588, 0.0741965, -0.1694826, 0.0203406, 0.3878595, -0.1766879, -0.1084525, 0.0412536, -0.0714726, 0.1043803, 0.0500438, 0.1312218, 0.2904097, -0.0793101, 0.1300050, -0.3811478, -0.0515882, 0.0284106, 0.2588011, 0.2367052, 0.1577335, -0.3812230, 0.3077552, 0.1306254, -0.3690241, 0.0729116, -0.0811927, -0.2197434, 0.3293663, 0.0698633, 0.1763568, 0.0462020, -0.2347721, -0.0003517, -0.2714279, 0.2675993, -0.3338478, -0.1995655, 0.2907237, 0.0033490, 0.0413439, 0.2580592, -0.1322435, -0.2607736, -0.0194657, 0.2443888, -0.3940925, -0.0802524, -0.0433562, 0.2715276, 0.2614484, 0.3354016, 0.3750714, -0.0717105, 0.0828654, 0.0779111, 0.2174922, 0.0163445, 0.3354334, 0.2145415, -0.3355334, 0.2978674, 0.0835508, -0.1718483, -0.0086689, 0.2906662, -0.0281560, 0.1794894, 0.1577293, 0.3069642, -0.3810604, 0.0154451, 0.0101832, -0.3192846, -0.2138164, 0.0315294, 0.1068384, -0.2315548, 0.1328023, -0.0780299, -0.0328217, -0.3304407, -0.3838913, 0.0632714, 0.0918153, -0.0845125, -0.0267642, 0.2403542, 0.1097627, -0.2015997, 0.1606362, -0.1571984, 0.0304671, 0.1250165, 0.1390090, -0.2495684, 0.1989251, -0.0551397, -0.0605949, 0.2091018, -0.2596657, 0.1732292, 0.0547211, 0.0766148, -0.1260762, 0.0030793, -0.2480155, -0.0989458, 0.2481115, -0.0007703, 0.1192502, -0.0580487, -0.1500293, 0.2747268, -0.1225631, -0.2753071, -0.2026163, -0.2558942, 0.1217406, 0.0127040, 0.2168700, 0.1179486, -0.1745265, -0.1823401, 0.2791995, 0.0669120, -0.3929465, 0.2915882, 0.0379500, 0.1043417, -0.1249198, -0.1408600, -0.2206937, -0.2682711, 0.3130453, 0.2537208, 0.2126334, 0.2771842, 0.0183079, 0.3409087, 0.1054967, -0.0038874, -0.1159078, -0.1774280, 0.1774778, 0.0507509, 0.2440958, 0.2481609, -0.1640231, -0.0242034, 0.1842522, -0.0243844, 0.1256540, 0.1097835, -0.0827307, -0.1790161, -0.0390777, 0.1540778, -0.2319326, 0.3134943, -0.1359618, -0.1912188, 0.1408880, 0.1519791, -0.3166086, -0.3155068, 0.0437686, 0.2192493, 0.2473795, 0.2873273, 0.2555258, 0.1840077, -0.0620639, 0.2011142, 0.0276229, -0.0855325, -0.0197205, 0.1613597, 0.2925479, 0.2821905