0.2362415, -0.0431489, -0.2874906, -0.1924104, -0.1454426, -0.2942656, 0.0439549, -0.1412767, 0.1956682, -0.1666328, 0.0588612, 0.2578746, -0.0848842, -0.0419200, 0.1533935, 0.2837916, 0.2997878, -0.1168238, 0.2024488, 0.2416572, 0.0236996, -0.0250802, -0.1325328, 0.1329181, -0.1211003, -0.2371437, 0.2420037, 0.2437807, -0.2711179, -0.1148837, -0.2245372, -0.0036521, -0.0366916, -0.0386319, 0.1978111, 0.0241086, -0.1245262, 0.0038576, 0.1281204, -0.0696774, -0.1831778, 0.0578989, -0.1001602, -0.3285115, -0.2433499, -0.2052859, 0.2122117, -0.2090900, 0.2067490, -0.2064083, -0.2665951, 0.2632310, 0.0307041, 0.0961449, 0.0434633, -0.0011862, 0.2149068, 0.0050153, 0.2771280, -0.1144629, 0.1412306, 0.1857812, -0.0650887, 0.1941949, -0.2695123, 0.2683387, 0.1773254, -0.3355720, -0.0953064, 0.0367492, 0.2961467, 0.3266434, 0.1740346, 0.2995510, 0.2643905, 0.2582582, 0.2299411, -0.0808908, 0.2503229, -0.1041638, 0.1931091, 0.3555787, -0.3377996, 0.0223387, -0.2551725, -0.2768274, -0.1955138, 0.1187806, 0.0759468, 0.1648646, 0.0398227, 0.1330645, 0.0629908, -0.2946840, -0.0952854, -0.2681007, 0.0075988, -0.2933073, -0.3258009, 0.5116699, 0.6086373, 0.2929260, -0.3126385, 0.1391725, -0.6014815, -0.3024247, -0.4941706, 0.0088719, -0.2538611, 0.1338481, -0.3839805, -0.2914418, -0.2124738, -0.3702296, 0.3719653, -0.2086142, 0.0837909, 0.4714194, 0.3306420, -0.0329954, -0.4162197, 0.0123905, -0.2126453, -0.2421805, -0.0170175, 0.5149217, 0.4438388, 0.0281684, -0.1681539, 0.1621870, 0.0925204, 0.0968373, -0.0572126, 0.1984967, -0.2278530, -0.1160952, 0.1320786, -0.0893070, -0.1767134, 0.1723236, -0.2272127, -0.1276674, -0.0892750, 0.1505277, 0.0300138, 0.2257521, 0.2437212, -0.1728958, -0.1001086, 0.0426857, 0.1850878, 0.2212061, -0.0214046, 0.2568181, -0.0636542, -0.0519779, -0.1950469, 0.0517812, 0.1204534, 0.1541176, 0.0019910, -0.2005610, 0.1666929, -0.0544138, 0.2120703, -0.2204598, 0.1329660, -0.0329052, -0.1162421, 0.0547895, 0.0075531, -0.0788607, 0.0182797, -0.1521215, -0.1929616, -0.0424096, -0.1345332, 0.1622455, 0.2419033, 0.1926651, 0.1998938, -0.0626932, -0.2173408, -0.0221122, 0.0150630, -0.1157289, -0.3638155, 0.1376890, -0.1142387, -0.1979766, 0.2679457, -0.1613115, -0.0379567, 0.1699086, 0.1444181, -0.1425558, -0.2064423, 0.0153519, 0.2525950, -0.0506429, 0.1840840, 0.2038390, -0.0334978, 0.1451204, 0.0674615, -0.1328342, 0.0073412, -0.0809455, 0.0764680, 0.2550139, 0.2287155, 0.0474884, -0.2243227, -0.2519103, 0.1587174, -0.1448075, -0.1518582, -0.2921162, 0.0451308, 0.2224857, 0.0744385, -0.1624450, -0.1116913, -0.0786970, -0.4558595, 0.2386231, -0.3187979, -0.1565716, 0.0389961, 0.2610625, -0.3647612, 0.3019771, 0.3024052, -0.1293845, 0.0689239, -0.1507166, -0.1621786, -0.4016947, -0.0413626, 0.2719745, -0.3335262, -0.4894753, -0.4350044, 0.2126984, 0.1558308, -0.0060611, -0.1461555, -0.1310704, 0.2666704, 0.3994254, 0.0885431, -0.0026782, 0.3356828, 0.4176812, -0.0079235, -0.1389981