-0.3136459, 0.3123661, -0.2082677, -0.1204768, 1.0821918, 0.1076775, 0.2034648, 0.1220392, -0.4552925, 0.1320682, 0.1955785, -0.1307930, -0.1482720, 0.4903798, 0.2938021, -0.4138454, 0.0492306, -0.0493234, -0.3171465, -0.2544015, -0.0821535, -0.0590585, 0.3868595, 0.0791339, -0.1304429, -0.1009527, 0.1268154, -0.2658819, 0.2409237, -0.4431257, -0.0901906, -0.3106850, -0.1346232, -0.0510412, -0.1164804, 0.1534269, 0.1264543, 0.0542949, 0.2205378, 0.1577141, 0.0044273, -0.2648844, -0.1918012, 0.0476317, 0.1979292, 0.0745912, -0.1440717, -0.2280847, -0.0208820, 0.2348615, 0.0664462, 0.1205119, 0.1394363, -0.3173818, -0.0489809, -0.2560610, 0.1882466, -0.1738297, 0.0917046, -0.1334542, 0.2554428, -0.0517852, 0.1918115, -0.1142104, 0.0650290, -0.2037926, 0.2433520, -0.0321085, -1.0311089, 0.1869006, -0.2089107, -0.0745350, 0.1462604, 0.0246752, 0.3179898, 0.2478129, -0.2649075, -0.1335345, -0.3084520, 0.2994539, -0.3276632, -0.1048047, 0.2365954, 0.2844611, 0.1832289, -0.1122427, -0.0518945, -0.2804286, 0.0614034, 0.1189288, -0.3007244, 0.4863208, 0.1131970, 0.3586145, 0.1685019, 0.2140205, 0.2797736, -0.3600027, 0.0109503, -0.1051939, -0.9319082, 0.0944155, -0.2363574, 0.2563603, 0.3531019, -0.1688868, 0.1341619, 0.1850381, 0.2133914, -0.3056795, -0.1902928, 0.4350645, -0.0549917, -0.3625404, 0.1493462, 0.2022721, -0.0806301, 0.2529374, -0.2514925, 0.0274222, 0.3215985, 0.0404143, -0.2954269, 0.1092419, -0.1301328, 0.5059654, 0.3173172, 0.1798142, -0.4692963, -0.1042886, -0.0630446, -0.2933928, -0.1463140, 0.1525387, -0.2372906, 0.0408009, 0.7870719, -0.2431605, -0.3570135, 0.5360445, 0.0332955, -0.1217658, 0.1535959, 0.0886095, -0.0178992, -0.4229434, 0.5861973, 0.3354518, 0.0576043, 0.2084635, 0.2498734, 0.3590734, -0.0998045, 0.1465494, -0.0428781, -0.1583027, 0.1269290, 0.2742639, 0.4403882, 0.0718983, 0.0887757, 0.2479171, -0.0170096, -0.0360467, -0.2275263, 0.3095320, -0.0660668, -0.1127929, -0.2047517, 0.0310305, -0.2690035, 0.1773002, -0.1385135, 0.1343543, -0.2616489, -0.1823549, -0.2523294, -0.1215815, 0.1385922, 0.1060791, 0.1152795, 0.1937840, 0.1134052, 0.1016443, -0.2584398, 0.1530449, 0.1454646, 0.2373714, -0.1194076, -0.0060290, 0.2392695, -0.0434098, 0.2978876, -0.0278350, -0.2318375, -0.0200260, -0.0995530, -0.1504629, 0.2942483, 0.2650663, -0.3312223, 0.2295603, -0.0828494, -0.1517499, -0.0348361, -0.1205467, -0.1033428, -0.1865048, 0.2281172, 0.3738285, -0.5431793, -0.2566368, -0.0708616, 0.0568219, -0.0626074, -0.2119710, -0.1045703, -0.1883024, 0.0674539, -0.2969450, -0.1725389, -0.2636397, -0.1827940, -0.1166665, 0.3173931, 0.2792345, -0.0507487, -0.0965599, -0.1229806, 0.0422583, 0.1606995, 0.2314140, -0.8463367, -0.0384174, 0.4891912, -0.0031886, -0.1169073, 0.2283315, -0.0544651, 0.2214332, 0.2379918, 0.4735169, -0.7366429, -0.1251524, -0.1210238, -0.3386281, -0.1739347, -0.2777684, 0.1262164, 0.1375964, 0.1432258, 0.0910543, 0.0771465, 0.2138354, -0.0546589, -0.3705908