0.3181863, 0.1944689, 0.0927442, 0.1827144, -0.1051722, -0.2152019, -0.1795284, 0.1968731, -0.2194476, -0.2707101, -0.1805528, -0.1684071, 0.0066882, 0.1983327, 0.2979846, 0.0170779, -0.1187196, 0.1986918, 0.3064655, 0.0039051, 0.0639885, 0.1236244, 0.1985507, -0.2036377, 0.2031517, -0.2440854, -0.0450738, -0.0752859, -0.2635615, 0.1743235, -0.1738237, 0.0637398, 0.0000443, 0.0643621, -0.1983251, 0.0818223, -0.0724336, 0.2320585, 0.0357181, 0.3019038, 0.2439736, 0.1767163, -0.0332451, 0.2255193, -0.2207459, 0.0502082, -0.1487976, 0.0257034, -0.2557643, -0.2340863, 0.1032287, -0.1284406, -0.0937160, -0.1689094, 0.1104218, 0.1322236, -0.2712829, -0.1724459, -0.0419420, 0.1117652, -0.0929979, -0.0922235, -0.1099501, -0.3115247, 0.1613545, 0.2405750, 0.1347207, -0.1781853, 0.0382182, -0.1656807, -0.0819222, -0.0490601, -0.0449065, 0.0036772, -0.1540946, 0.0011474, -0.0372074, 0.2507935, 0.0256714, -0.3823130, 0.0284875, -0.1865461, 0.3397166, 0.0510127, 0.2665524, 0.2470964, 0.1348670, 0.0444907, -0.0611274, -0.2615865, -0.1446332, -0.0311280, -0.3932667, -0.3352396, -0.2193384, 0.1111377, 0.0075978, -0.3089909, 0.1618336, -0.0705736, 0.0294424, -0.1583950, -0.0447977, 0.3146740, -0.0051769, 0.2137245, -0.0994889, -0.0825491, -0.3021808, -0.2539945, 0.1115808, 0.0659725, -0.2565220, 0.0457118, -0.0790699, -0.0912476, -0.1235244, -0.0519245, -0.1823741, -0.2797266, -0.1186290, -0.0323254, 0.0757936, 0.0894947, -0.0412480, 0.3050614, -0.0111713, 0.0194016, 0.0075725, -0.1053424, -0.1746292, 0.2237351, 0.0171254, 0.3442922, 0.2118533, 0.3542651, -0.3809926, 0.1401595, -0.0042388, -0.0194726, -0.0365443, 0.1057144, -0.1000592, 0.2704915, -0.1239957, 0.2600563, 0.1386594, 0.1179910, -0.3089388, -0.0749613, 0.0927023, 0.1102184, -0.2818616, -0.0774613, -0.0632963, 0.1657952, 0.0808546, -0.1539519, -0.1054401, 0.0015172, 0.1254195, -0.0496728, -0.2933640, -0.0849314, 0.2241178, -0.1565176, 0.1375733, -0.0150281, 0.2666028, -0.0822271, -0.2201978, 0.0926237, -0.2330775, -0.0334619, -0.2695237, -0.1106392, 0.2672215, -0.0638352, 0.1976703, -0.1793178, 0.0105589, 0.2193653, -0.0439333, 0.2142134, -0.2407461, 0.0674655, -0.0754066, -0.0831926, -0.1225909, -0.0393604, -0.1128068, 0.0672494, -0.2002077, 0.1661045, 0.0854739, -0.0330839, -0.2818300, 0.2931195, 0.3600182, 0.3561535, -0.1522469, -0.2719046, 0.2203876, -0.0954751, 0.3494708, -0.2977444, -0.1143218, 0.0727593, -0.1400803, 0.1789386, -0.1036993, -0.0302253, -0.2730382, 0.2720757, -0.3073304, -0.3567677, -0.1991023, -0.1851849, 0.2827207, 0.2184137, 0.0172490, 0.1212705, -0.0485025, 0.2643084, -0.0639924, 0.1909100, 0.1712053, 0.0389771, -0.0274731, 0.0366604, -0.0868237, -0.1560501, 0.2344362, 0.3128291, -0.0836987, -0.0182669, -0.0192061, -0.0730683, -0.3137099, -0.2621550, 0.0028311, -0.2124134, -0.0820132, 0.0318915, 0.1208657, -0.2812585, -0.1266421, 0.3486958, 0.1685129, 0.0929070, -0.1351591, -0.0701575, 0.1274901, -0.0301461, 0.0963732, -0.2613251