//Numpy array shape [50, 32]
//Min -0.500000000000
//Max 0.500000000000
//Number of zeros 702

#ifndef W24_H_
#define W24_H_

#ifndef __SYNTHESIS__
weight24_t w24[1600];
#else
weight24_t w24[1600] = {0.50, 0.25, 0.00, 0.00, -0.25, 0.00, -0.25, 0.00, 0.25, 0.00, -0.25, -0.25, 0.00, 0.00, -0.25, 0.25, 0.00, 0.25, 0.00, -0.50, 0.25, -0.25, 0.25, 0.00, 0.25, 0.25, 0.00, 0.00, 0.25, 0.00, 0.00, 0.25, -0.25, 0.25, -0.25, 0.25, 0.00, -0.50, 0.00, -0.25, -0.25, -0.25, -0.25, 0.00, 0.25, 0.00, -0.25, 0.25, -0.50, -0.50, 0.25, -0.25, -0.25, 0.00, -0.25, 0.00, 0.25, 0.25, 0.25, 0.00, 0.00, -0.25, -0.25, 0.00, 0.00, 0.00, 0.50, 0.00, -0.25, 0.00, -0.25, 0.25, -0.25, 0.00, 0.25, 0.00, 0.00, 0.00, 0.00, 0.00, 0.25, -0.50, 0.00, -0.25, 0.00, 0.00, 0.00, -0.25, 0.25, -0.25, 0.00, 0.00, 0.00, -0.50, -0.25, 0.00, -0.25, -0.25, 0.25, 0.00, -0.25, -0.25, 0.25, 0.00, -0.25, 0.00, 0.00, 0.00, -0.25, 0.00, 0.25, -0.25, -0.25, 0.00, 0.00, -0.25, 0.25, -0.25, -0.25, 0.25, 0.25, 0.00, -0.25, 0.00, 0.00, 0.25, 0.25, -0.25, -0.25, 0.25, 0.00, 0.25, 0.25, 0.00, 0.00, 0.00, -0.50, 0.50, 0.25, -0.25, -0.50, 0.00, 0.00, 0.25, 0.00, -0.25, 0.00, -0.25, 0.00, -0.25, 0.00, 0.25, -0.25, 0.25, 0.00, 0.00, 0.00, -0.25, 0.50, -0.25, -0.25, 0.00, -0.25, 0.00, -0.25, 0.00, 0.00, 0.00, -0.25, 0.00, 0.00, 0.00, 0.00, 0.00, 0.25, -0.25, 0.00, 0.25, 0.25, -0.25, -0.25, -0.25, -0.25, 0.00, 0.25, -0.25, -0.25, 0.00, 0.00, 0.25, -0.25, 0.00, 0.00, 0.25, 0.25, -0.50, 0.25, 0.25, 0.00, 0.00, -0.25, 0.00, 0.25, -0.25, 0.00, -0.25, 0.00, 0.00, 0.25, -0.25, 0.25, 0.25, -0.25, 0.25, 0.00, 0.25, 0.25, -0.25, -0.25, 0.25, 0.00, -0.25, 0.00, -0.50, 0.00, 0.25, -0.50, -0.50, 0.25, 0.25, 0.00, 0.00, -0.25, 0.00, 0.25, 0.50, 0.00, -0.25, -0.25, 0.25, 0.25, -0.25, 0.00, -0.25, 0.00, -0.25, 0.00, 0.00, -0.25, -0.25, -0.25, 0.25, 0.00, 0.00, 0.00, 0.25, -0.25, 0.00, 0.00, 0.25, 0.25, 0.00, 0.00, -0.25, 0.25, 0.00, -0.25, 0.50, 0.25, 0.00, -0.25, 0.00, -0.25, -0.25, 0.00, 0.50, 0.00, 0.00, -0.25, 0.00, -0.50, -0.50, 0.00, 0.00, 0.25, 0.00, 0.00, 0.00, -0.50, 0.00, -0.25, 0.25, -0.25, 0.00, 0.00, 0.25, -0.25, -0.25, 0.25, -0.25, 0.00, 0.00, -0.50, 0.00, 0.00, -0.25, 0.25, 0.00, -0.50, 0.00, 0.25, -0.25, 0.00, -0.25, -0.25, 0.00, 0.25, 0.00, -0.25, 0.00, 0.00, 0.00, 0.00, -0.25, -0.25, 0.25, 0.00, 0.00, 0.00, -0.25, 0.25, 0.25, 0.25, 0.00, 0.00, 0.00, 0.25, 0.50, 0.00, -0.25, 0.00, 0.25, 0.25, 0.00, -0.25, 0.00, 0.00, 0.25, -0.25, -0.50, -0.25, 0.25, 0.00, 0.00, 0.00, 0.00, 0.00, 0.25, 0.25, -0.25, 0.00, 0.00, 0.25, 0.00, -0.50, 0.00, 0.00, 0.00, -0.25, -0.25, 0.00, 0.00, 0.00, -0.25, 0.25, 0.00, 0.00, -0.25, 0.25, -0.25, 0.25, 0.00, -0.50, -0.25, 0.00, 0.00, 0.00, -0.25, -0.25, 0.00, 0.25, 0.00, 0.00, 0.00, 0.25, 0.00, 0.25, 0.00, 0.00, 0.25, 0.25, 0.25, -0.25, -0.25, 0.25, 0.00, 0.00, -0.25, -0.25, 0.00, 0.00, 0.00, 0.00, -0.25, 0.25, 0.00, -0.25, 0.00, 0.50, -0.25, 0.25, -0.25, 0.25, 0.00, 0.00, 0.00, -0.25, -0.25, 0.00, -0.25, 0.00, 0.00, -0.25, -0.25, 0.00, 0.25, 0.00, -0.25, 0.00, 0.00, 0.25, 0.25, -0.25, -0.25, 0.25, 0.25, -0.25, -0.25, 0.25, 0.00, 0.00, -0.25, 0.25, -0.25, 0.00, -0.25, -0.25, 0.00, -0.25, 0.00, 0.25, 0.00, 0.00, 0.25, 0.00, -0.25, -0.25, -0.25, 0.25, 0.00, 0.00, 0.00, 0.00, -0.25, -0.25, 0.00, -0.25, 0.00, 0.25, 0.00, -0.25, 0.00, 0.00, -0.25, 0.00, 0.00, 0.25, 0.25, 0.00, 0.00, -0.25, 0.00, 0.25, 0.25, 0.00, 0.25, 0.00, -0.50, -0.25, -0.25, 0.00, 0.25, 0.00, 0.25, 0.00, 0.00, 0.00, 0.25, 0.00, -0.25, -0.25, 0.00, 0.25, -0.25, 0.00, -0.25, -0.25, 0.00, -0.25, 0.00, 0.00, -0.25, -0.25, 0.00, 0.50, 0.25, -0.25, 0.00, 0.00, 0.25, 0.25, -0.25, -0.25, 0.25, 0.00, 0.00, 0.00, -0.25, 0.00, 0.25, 0.00, -0.25, 0.00, 0.00, 0.00, 0.00, -0.25, 0.25, 0.00, 0.00, -0.25, 0.25, 0.00, 0.00, 0.00, 0.25, 0.25, -0.25, 0.00, 0.00, 0.00, 0.00, 0.25, 0.00, -0.25, -0.25, 0.00, 0.00, 0.00, -0.25, 0.00, 0.00, 0.00, 0.00, 0.25, 0.00, 0.25, 0.00, -0.25, 0.25, 0.00, 0.25, 0.00, 0.25, -0.50, 0.00, -0.25, -0.25, 0.50, -0.25, -0.25, -0.50, 0.25, 0.00, -0.25, -0.25, -0.25, 0.00, 0.25, -0.25, -0.25, -0.25, 0.00, -0.25, 0.00, -0.25, -0.25, 0.00, 0.00, 0.00, 0.00, 0.00, 0.00, 0.25, 0.25, 0.25, -0.25, 0.00, 0.00, 0.25, 0.00, 0.00, -0.50, -0.25, 0.00, 0.25, -0.25, -0.25, 0.25, -0.50, -0.25, 0.25, 0.00, 0.25, 0.00, -0.25, 0.25, 0.00, -0.25, -0.25, 0.25, 0.25, 0.25, -0.25, -0.25, 0.00, 0.00, -0.25, -0.25, 0.00, 0.00, -0.25, 0.00, 0.25, 0.25, 0.25, -0.25, -0.25, -0.25, -0.50, 0.00, -0.25, 0.25, 0.00, 0.00, 0.00, 0.00, -0.50, -0.50, 0.25, -0.25, 0.00, 0.50, -0.25, 0.00, 0.00, 0.00, -0.25, -0.25, 0.00, 0.25, -0.25, 0.00, 0.25, 0.25, -0.25, -0.25, 0.00, -0.25, -0.25, 0.25, 0.00, 0.25, 0.00, 0.25, -0.25, 0.25, -0.25, 0.00, 0.25, 0.00, 0.00, 0.00, 0.00, 0.00, 0.25, -0.25, 0.00, -0.50, 0.25, 0.00, 0.00, 0.00, -0.25, 0.00, 0.00, 0.25, 0.00, -0.25, 0.25, 0.25, -0.25, 0.00, 0.25, 0.00, 0.00, -0.25, 0.00, -0.25, 0.00, 0.00, -0.25, 0.00, 0.25, -0.25, 0.00, 0.00, 0.25, 0.25, 0.00, -0.25, 0.00, 0.25, 0.25, 0.00, -0.25, 0.00, 0.00, 0.00, 0.00, 0.25, -0.25, -0.25, 0.25, -0.25, 0.00, -0.25, -0.25, 0.00, 0.00, 0.00, -0.25, 0.00, -0.25, 0.00, 0.25, 0.00, 0.00, -0.25, 0.00, 0.25, 0.25, 0.25, -0.25, -0.50, 0.25, 0.00, 0.50, 0.00, -0.50, -0.25, 0.25, 0.50, -0.25, 0.00, -0.25, 0.25, 0.00, 0.00, 0.00, 0.00, 0.00, 0.00, 0.00, 0.00, 0.00, -0.25, 0.25, -0.25, 0.25, -0.25, 0.00, -0.25, 0.25, 0.00, 0.00, 0.00, 0.00, 0.25, 0.00, 0.00, -0.25, 0.25, 0.00, -0.25, 0.00, 0.00, -0.25, -0.50, 0.00, 0.00, 0.00, 0.25, 0.00, -0.25, -0.50, 0.00, -0.25, 0.25, -0.25, 0.00, 0.25, 0.25, -0.25, 0.00, 0.00, -0.25, 0.25, 0.00, 0.25, 0.00, -0.25, 0.25, -0.50, 0.00, -0.25, 0.00, -0.25, 0.25, 0.00, 0.00, 0.00, 0.00, 0.00, 0.00, 0.00, 0.00, 0.00, 0.00, 0.25, -0.25, 0.25, 0.25, 0.00, 0.00, 0.00, 0.25, 0.25, -0.25, -0.25, -0.25, 0.25, 0.00, -0.50, -0.25, 0.00, -0.25, 0.00, -0.25, 0.00, -0.25, 0.00, 0.00, 0.00, -0.25, 0.25, -0.25, 0.25, 0.00, 0.00, -0.25, 0.25, 0.00, -0.25, -0.25, -0.25, 0.50, 0.00, -0.25, 0.00, -0.50, 0.00, 0.25, 0.00, 0.00, 0.00, -0.25, 0.25, -0.25, 0.25, 0.25, 0.25, 0.00, -0.25, 0.25, -0.25, -0.25, 0.00, 0.00, 0.00, -0.50, -0.25, 0.00, -0.50, 0.00, -0.25, 0.25, 0.00, 0.00, 0.00, -0.25, -0.25, 0.00, 0.00, -0.25, -0.25, 0.25, 0.00, -0.50, -0.25, 0.00, -0.25, 0.00, 0.00, -0.25, -0.25, 0.00, -0.25, 0.25, 0.00, 0.25, 0.00, 0.00, 0.00, 0.00, 0.00, 0.50, -0.25, 0.00, -0.25, 0.00, 0.25, -0.25, 0.00, 0.00, 0.00, 0.00, 0.25, 0.00, 0.00, 0.00, -0.25, -0.25, 0.25, 0.25, -0.50, -0.25, 0.00, 0.00, 0.00, 0.00, 0.00, 0.00, -0.25, 0.25, 0.00, 0.00, 0.00, -0.25, 0.25, 0.00, 0.00, -0.25, -0.25, 0.00, -0.25, 0.00, -0.25, -0.50, -0.25, -0.25, 0.00, 0.25, 0.25, 0.25, 0.00, 0.25, 0.00, 0.00, 0.25, 0.25, -0.50, 0.00, -0.25, 0.25, -0.25, 0.00, -0.25, -0.25, 0.00, 0.00, 0.00, 0.00, -0.25, 0.25, 0.25, 0.00, 0.25, -0.25, 0.25, -0.25, 0.00, -0.25, -0.25, -0.25, -0.25, 0.00, -0.25, 0.00, -0.25, 0.00, 0.00, -0.25, 0.00, 0.00, 0.00, 0.00, 0.00, 0.00, -0.25, 0.00, 0.25, 0.00, -0.25, 0.25, 0.00, 0.00, 0.00, 0.25, 0.00, -0.25, 0.00, 0.00, 0.50, -0.25, -0.25, -0.25, 0.25, 0.00, 0.00, -0.25, -0.50, 0.00, 0.25, -0.25, -0.25, 0.00, -0.25, 0.00, 0.00, 0.00, -0.25, 0.00, 0.25, 0.00, 0.00, 0.00, -0.25, 0.50, 0.00, 0.00, -0.25, 0.00, 0.25, 0.00, 0.25, -0.50, 0.00, 0.25, 0.00, 0.00, 0.25, 0.00, 0.00, -0.25, -0.25, 0.25, 0.00, -0.25, -0.25, 0.25, -0.25, 0.00, 0.00, 0.00, 0.00, 0.00, 0.00, 0.00, 0.00, -0.25, -0.25, 0.00, 0.00, 0.00, 0.00, 0.25, -0.25, 0.00, -0.25, -0.50, 0.00, 0.25, 0.00, 0.25, 0.25, 0.00, 0.00, -0.25, 0.00, -0.25, 0.25, 0.00, 0.00, 0.25, 0.00, -0.25, -0.25, -0.25, -0.25, 0.25, 0.25, 0.00, 0.00, 0.00, -0.25, 0.00, 0.00, 0.00, 0.00, 0.25, 0.25, 0.00, -0.25, -0.25, 0.00, -0.25, 0.00, 0.25, 0.00, 0.25, 0.00, -0.25, -0.25, 0.00, -0.25, 0.00, 0.25, 0.00, 0.25, 0.25, -0.25, 0.00, 0.00, -0.25, 0.00, -0.25, 0.25, -0.25, -0.25, 0.00, -0.25, 0.00, 0.00, -0.25, -0.25, 0.00, 0.00, -0.25, 0.00, 0.00, -0.25, 0.25, -0.25, 0.00, 0.25, -0.25, 0.00, -0.25, 0.00, 0.00, 0.25, -0.25, -0.25, -0.25, 0.00, 0.25, 0.25, 0.00, 0.00, -0.50, 0.25, 0.25, 0.25, 0.00, -0.25, -0.50, 0.00, 0.25, 0.25, -0.25, -0.25, -0.25, 0.25, 0.00, -0.25, 0.50, -0.25, -0.25, -0.25, 0.50, 0.00, 0.00, -0.25, 0.25, -0.25, 0.00, 0.25, -0.25, -0.50, -0.25, -0.25, -0.25, -0.25, -0.25, 0.25, 0.00, 0.00, 0.00, -0.25, -0.50, 0.00, -0.50, 0.50, 0.25, 0.50, 0.00, 0.00, -0.25, 0.00, -0.25, 0.25, 0.25, 0.25, 0.00, 0.00, -0.25, -0.25, -0.25, -0.25, 0.25, 0.00, 0.00, -0.25, 0.00, 0.00, 0.00, -0.25, 0.00, 0.25, 0.00, -0.25, 0.25, 0.00, 0.00, -0.50, -0.25, 0.25, 0.00, 0.00, -0.25, -0.25, 0.25, -0.25, -0.25, -0.25, -0.25, 0.25, 0.00, -0.25, 0.25, 0.25, 0.00, 0.00, 0.00, 0.25, 0.25, 0.50, -0.25, -0.50, 0.00, 0.25, 0.00, -0.25, -0.50, -0.50, 0.25, -0.25, 0.00, -0.25, -0.25, -0.25, 0.00, 0.50, 0.00, 0.25, -0.25, 0.00, 0.25, 0.50, -0.25, 0.00, 0.00, 0.00, 0.00, 0.00, 0.00, 0.00, -0.25, 0.00, 0.00, -0.25, 0.00, -0.25, 0.00, -0.25, -0.25, 0.00, 0.00, 0.00, -0.25, -0.25, -0.50, 0.25, 0.00, 0.00, -0.25, -0.25, 0.00, 0.00, 0.50, 0.00, 0.00, -0.50, 0.25, 0.25, 0.00, 0.25, 0.00, -0.25, 0.00, 0.00, 0.25, 0.25, -0.25, -0.25, 0.25, 0.00, 0.00, 0.25, 0.00, -0.50, 0.25, 0.25, 0.25, 0.00, -0.25, 0.25, 0.25, -0.25, 0.00, 0.25, 0.00, 0.00, 0.00, 0.00, -0.25, 0.00, 0.00, 0.00, 0.00, 0.25, -0.25, 0.00, 0.00, -0.50, 0.25, 0.25, -0.25, -0.25, 0.00, 0.00, 0.00, 0.00, -0.25, 0.00, -0.25, 0.00, -0.25, 0.00, 0.00, 0.25, 0.25, 0.00, -0.25, -0.25, -0.25, -0.25, 0.25, 0.00, 0.25, 0.00, -0.25, 0.00, 0.00, -0.25, 0.00, 0.25, 0.25, 0.00, 0.00, -0.25, 0.00, 0.25, 0.00, 0.00, 0.00, 0.00, 0.00, -0.25, 0.00, 0.00, 0.00, 0.00, -0.50, 0.50, -0.25, 0.00, -0.25, 0.25, -0.25, 0.25, 0.00, 0.00, -0.25, 0.00, -0.25, -0.25, 0.25, -0.25, 0.25, 0.25, 0.00, 0.00, -0.25, -0.25, 0.00, 0.00, 0.00, -0.25, 0.50, 0.00, -0.25, 0.00, -0.25, -0.25, 0.00, 0.00, 0.25, 0.00, 0.00, -0.25, 0.00, 0.00, -0.25, 0.00, 0.25, 0.00, 0.00, 0.00, -0.25, -0.25, 0.00, -0.25, 0.50, 0.00, 0.25, -0.25, 0.00, -0.25, 0.00, 0.25, -0.25, 0.50, -0.25, 0.00, 0.00, 0.00, 0.00, 0.25, 0.25, -0.25, 0.00, 0.00, -0.25, 0.00, 0.25, 0.00, 0.25, -0.25, 0.00, -0.50, -0.25, 0.25, -0.25, 0.00, 0.25, 0.00, -0.25, -0.50, -0.25, 0.00, 0.00, 0.00, -0.25, 0.00, -0.25, 0.00, 0.50, -0.25, 0.25, -0.25, 0.00, 0.25, 0.25, 0.25, -0.25, -0.25, 0.00, 0.25, 0.25, -0.50, -0.25, -0.25, 0.25, -0.25, 0.00, 0.00, -0.25, 0.25, 0.00, -0.25, 0.50, 0.00, 0.00, 0.00, 0.00, 0.25, 0.00, -0.50, 0.00, 0.25, 0.00, 0.00, -0.50, 0.00, 0.25, 0.25, -0.50, 0.00};
#endif

#endif
