//Numpy array shape [2, 6, 32]
//Min -0.522809088230
//Max 0.544938206673
//Number of zeros 0

#ifndef KEY_WEIGHT9_H_
#define KEY_WEIGHT9_H_

#ifndef __SYNTHESIS__
q_multi_head_attention_46_default_t key_weight9[384];
#else
q_multi_head_attention_46_default_t key_weight9[384] = {-0.1882741451, -0.1702522784, 0.0251768511, 0.1072886586, -0.0312224273, -0.1909881979, -0.2221601307, 0.1403681487, 0.1076806337, 0.0592942014, -0.1658043414, 0.1167026833, -0.3109960556, 0.2225287259, -0.2675043643, 0.3951129913, 0.0948694423, -0.0470181741, -0.1246838197, 0.1043473855, 0.0819712728, 0.1782345325, 0.2385182232, 0.2865154147, -0.1458617151, -0.0548082814, -0.4378358424, -0.1985929310, -0.3158372939, -0.0609872527, 0.1706982851, 0.1966839880, -0.1463329941, 0.2466174811, 0.1655735672, -0.0041213478, 0.2917108536, -0.1876960546, -0.1624491066, 0.2668939233, 0.1633248776, -0.0358891748, 0.0775841177, -0.0748297051, 0.0404857509, -0.0820820257, 0.2117034644, -0.0188977476, 0.0983102918, 0.0209536385, 0.2980198562, 0.2152213454, 0.1157165021, 0.2660758495, 0.0542713515, 0.0486113690, 0.3183580935, 0.0833155364, 0.0182071868, -0.2453209609, -0.1501908302, -0.0242415667, -0.1171209812, 0.2421104014, 0.1595949531, 0.2963729203, -0.0756215304, 0.0199219640, 0.0958132222, -0.2233123928, -0.2441514283, 0.0800139159, 0.2024365067, 0.0512605831, 0.0429240726, 0.3272511661, 0.2590804398, -0.2809125781, 0.1593172997, -0.3931931853, 0.0853864700, 0.4236423373, 0.1002041772, 0.1195929646, 0.0753126517, 0.0596291535, -0.0222580917, -0.1735448390, 0.1016730890, 0.2770184875, 0.1845356077, -0.0657992363, 0.0319357477, 0.2476845086, 0.2304880917, -0.0341792032, 0.0942711532, 0.0182693321, 0.0852332860, 0.0783083215, 0.1549488604, 0.0246587191, -0.2838596702, -0.1469105631, 0.0090054432, 0.2286513895, -0.2835450768, -0.1207447648, 0.0274965558, -0.1981248260, 0.0692691579, 0.0439077057, 0.0915024877, 0.2079242170, -0.1767608374, -0.0381249562, 0.2150186300, 0.0481347255, -0.1291965246, -0.0230569802, 0.4231827259, 0.1414063573, 0.2472082227, 0.1023665741, -0.2228707522, -0.2028004229, -0.1477933824, -0.0533172898, 0.1264594644, -0.1879434139, -0.1182898283, -0.2075538188, -0.0751804039, -0.1059880331, 0.1454567462, -0.0272440501, 0.2471377105, -0.2096357495, 0.1458202899, 0.1610127091, -0.0648947582, -0.0985983089, 0.0057551004, 0.1915217191, 0.0789020360, -0.0215705372, 0.1240277216, 0.0696723387, 0.1772442013, 0.1959052086, -0.1990665495, 0.0149095980, -0.2105850130, 0.0160339382, -0.0178264845, 0.0326071791, -0.0401613787, -0.1588865072, 0.1415833384, -0.2350213230, 0.0377500392, 0.1506146044, -0.5228090882, 0.1363724172, -0.1028992906, -0.0240623131, -0.1631550789, -0.3058322966, 0.0443398431, -0.1764113605, -0.3581272066, -0.3151842654, -0.0225684792, -0.2009376734, 0.1994710118, -0.0337423943, 0.0786842853, 0.2063984722, 0.3058684170, -0.1683487594, 0.0792980418, 0.2090787143, -0.1442244798, -0.0923504382, 0.1690450907, 0.0405112766, 0.2042993605, 0.1691018641, 0.1567016989, -0.3425346017, -0.2167953104, -0.2958096266, -0.1633547992, 0.1617138237, 0.0738110542, -0.0883810893, 0.1789546758, 0.2296075970, 0.1639159173, 0.1145149693, 0.1267599463, -0.0161803942, -0.1073447391, -0.2005931735, -0.1788436025, -0.1069609672, 0.0943371803, 0.0031211381, -0.0534093678, -0.2391193211, 0.1846472025, -0.1124347076, -0.0734531879, 0.2253899425, -0.1858287007, -0.0322518274, -0.1450938731, -0.1548880786, -0.1059484780, -0.2499209046, 0.0098905498, 0.1974934787, -0.1119416058, 0.0317449607, -0.0267436393, -0.2766479850, 0.2365118116, -0.1760077626, 0.0837247744, 0.0399328321, -0.1736252308, 0.2195569873, -0.0878497586, -0.2243951708, 0.0493652076, 0.1946882308, -0.1665305346, 0.0958878770, -0.0332548283, 0.1169471517, -0.0170690529, 0.1080609933, 0.0331697650, -0.2125573456, 0.2581720948, 0.1250070632, 0.1381781250, 0.1918638498, 0.0513720289, -0.0664452985, 0.0512421876, 0.0571822748, 0.2095662206, 0.2226645350, -0.1218448803, 0.1119819283, 0.0127177415, -0.2157252431, 0.2235442400, 0.1324994415, 0.2701933384, 0.2829769552, 0.0023786908, 0.2860440910, 0.2193280756, -0.1117411330, -0.0235407185, -0.3645721078, 0.1290221810, -0.0741023943, 0.0949627459, 0.0937735736, -0.0829276890, -0.1253997087, 0.2895857394, -0.2627479136, 0.2339501530, 0.0625313744, -0.4073868096, 0.2001505941, 0.0189448427, 0.0459708422, -0.1032615528, -0.1427602470, 0.2101838589, 0.2454116940, 0.0615477189, 0.1323719323, -0.0942043141, -0.1344153881, 0.1233768016, 0.2602623999, -0.0434709787, -0.0281948261, -0.1656163931, 0.0246039815, 0.1545834541, -0.0536625199, -0.3082664311, -0.1695600450, 0.0960857272, 0.1696644574, 0.1307503283, 0.2840009332, 0.0953924209, -0.0680018440, 0.0542659871, -0.0312859342, -0.0901891217, 0.1080030650, -0.3174739480, 0.1432441324, -0.2679081559, -0.0844109133, -0.1030734330, 0.1659368724, 0.1852110475, 0.4059610367, -0.2818953991, -0.2225037366, 0.1064771116, -0.1092925146, -0.0904649496, -0.3194785714, -0.1889365613, 0.1116685644, -0.2628792524, 0.2653814554, -0.2172891051, -0.4088965952, 0.3307794034, 0.5449382067, -0.1504278630, 0.1516362727, -0.4222861528, -0.0323170535, 0.1520530432, -0.2641358376, 0.1476887465, -0.1861175895, 0.2942146361, -0.2362827808, 0.2503671050, 0.2771633267, 0.3491204083, 0.1718361080, 0.2013047785, 0.1457338780, 0.4238314331, -0.1002997756, 0.0789590105, 0.1811488718, 0.1164284423, -0.0590766668, 0.0859054327, 0.3441334963, 0.0410859697, 0.1439081877, -0.0086985538, -0.0991005227, 0.2797667682, -0.0882498473, -0.1966491491, -0.2760846913, 0.1136689857, -0.0900006071, 0.2631536424, -0.2795643210, 0.1363164783, 0.1681398898, 0.0712292120, -0.1253318936, 0.1641849428, -0.2355895042, -0.2541598976, 0.0396163426, -0.2862581015, -0.1276048124, -0.0811727718, 0.0808702260, 0.0744207501, -0.1527595371, 0.0451158285, 0.0621913485};
#endif

#endif
