//Numpy array shape [2, 32, 4]
//Min -0.479929357767
//Max 0.621748149395
//Number of zeros 0

#ifndef ATTENTION_OUTPUT_WEIGHT14_H_
#define ATTENTION_OUTPUT_WEIGHT14_H_

#ifndef __SYNTHESIS__
q_multi_head_attention_1_default_t attention_output_weight14[256];
#else
q_multi_head_attention_1_default_t attention_output_weight14[256] = {0.1852015704, -0.0254765134, -0.0467811227, 0.3600985110, -0.4090272486, -0.1964032054, 0.1855918169, 0.0289344806, -0.3658508360, -0.3006311953, -0.1901804507, -0.2642862797, -0.2514710426, -0.1646284908, 0.2869239450, 0.0008476055, -0.1020549908, -0.1741597354, -0.2682909071, -0.2972257435, 0.3644571900, 0.1245081723, -0.2066884041, 0.1801451296, 0.0344088823, 0.0632424429, 0.2458358109, 0.2323437184, 0.3478155732, 0.0195938405, 0.3006903529, -0.2016830891, -0.3447829187, -0.1642129421, 0.3745219111, 0.0595440306, 0.3528394103, 0.2646840513, 0.0769291744, 0.3522316515, 0.0295500029, -0.2746565640, -0.1035258621, 0.1442787349, -0.3824951649, 0.2189170420, 0.1001599580, 0.2562360764, 0.2677183151, -0.3302330971, -0.2681988776, 0.1574451476, 0.3120377064, 0.0763016790, -0.0759930164, -0.3147799671, -0.4430866539, -0.2432945073, 0.0624333099, 0.1796514690, -0.4593583643, 0.1927938759, -0.1176672578, 0.1570888907, 0.1912941933, 0.2879035771, -0.0592771210, -0.1635075957, -0.3388465345, -0.3096289933, 0.1068597659, 0.1653860956, 0.0022631607, 0.3210409880, 0.3357802033, -0.1178760231, -0.0646433979, 0.0001871378, 0.0756210014, -0.3698663414, 0.1584499180, 0.1311676204, -0.2771322429, 0.1265448332, 0.1496417075, -0.1002078205, 0.0575550981, 0.2222211957, 0.4996418059, -0.2510207593, -0.4263357222, -0.1248550639, -0.2558720708, 0.2166032195, 0.3867930472, -0.3379856944, 0.6217481494, -0.2056895792, -0.0545856580, 0.1705231816, 0.0618838482, -0.1512754411, 0.3128265738, -0.0388306156, 0.3507213593, 0.0279153418, 0.2182300836, 0.1842240393, -0.2588624656, 0.4216201901, 0.2498814762, 0.1595418751, 0.1561663598, 0.1232189387, -0.1739944965, -0.0134459464, 0.3563475311, -0.2300007641, -0.2091407478, -0.2792747319, -0.2817780674, 0.2768388391, 0.3785946667, -0.0624470301, 0.1587198973, -0.3189112842, 0.0018391469, -0.1628578752, -0.0560052767, 0.3507838249, 0.4151673615, 0.2269641161, 0.1396137774, 0.3507278264, -0.0675573573, -0.1863213331, 0.2212937623, -0.1718023568, -0.2876744270, -0.2833764553, -0.0936556458, 0.1841797382, -0.0469966345, -0.1001659110, 0.2747802138, 0.2537370026, 0.1505883336, 0.2804293036, -0.2158713788, 0.1080514863, 0.3356713057, 0.0821685046, 0.3386456966, -0.1695099920, -0.0131245879, 0.1224245727, 0.0452852026, 0.1177203953, 0.1131191328, 0.2483227402, 0.1051135212, -0.1117169559, 0.3192407489, 0.1602602452, -0.3759985566, 0.1679557264, 0.1276998967, -0.0834446624, -0.0213303119, 0.0519582480, -0.2228592038, 0.1495769173, -0.0284060407, -0.0837335885, -0.1534284949, -0.3356695473, -0.2967928052, 0.1619232893, -0.2488826513, -0.0509645529, 0.3110082448, 0.0801675767, -0.0551794171, -0.0883232206, -0.4799293578, 0.3211236596, 0.0781758055, -0.1588384062, -0.1424133480, 0.1198494658, -0.1423077285, 0.2796366215, -0.3648879826, 0.2085755169, 0.3850179315, -0.2723485529, 0.0598909147, 0.3747860789, -0.1052777991, 0.1010292843, -0.4276546538, 0.1108003482, 0.1770253181, -0.3229503334, -0.0860249028, 0.3223086298, 0.2371882200, 0.2576664984, 0.0308147129, -0.1943391711, 0.0047942339, -0.0140204234, 0.2398790419, -0.1365112662, 0.1432062387, -0.1870940775, 0.3654674888, -0.1189925447, 0.1501936018, 0.3211791515, -0.0344996713, -0.2225873619, -0.2439597696, 0.3078706264, -0.1920358837, 0.2194149792, -0.0705046505, 0.0876160562, -0.0348162726, 0.1823495328, -0.3222624958, -0.1742364466, 0.2360690981, -0.2683311403, -0.3319105506, 0.3561409414, -0.1361189932, -0.2286879867, -0.0584010743, 0.3413754404, -0.0671648905, 0.1112229079, 0.0616850257, -0.2263621539, -0.1731710285, 0.2884592414, -0.0371841118, -0.0189938489, 0.0501951799, 0.1160795689, 0.1119984537, 0.3484840095, 0.1868325174, -0.2033457309, -0.1176781133, 0.1405491382};
#endif

#endif
