//Numpy array shape [2, 32]
//Min -0.000344245549
//Max 0.000527181081
//Number of zeros 0

#ifndef KEY_BIAS5_H_
#define KEY_BIAS5_H_

#ifndef __SYNTHESIS__
q_multi_head_attention_default_t key_bias5[64];
#else
q_multi_head_attention_default_t key_bias5[64] = {-0.0000634016, 0.0001359953, -0.0000707987, -0.0000014690, 0.0005271811, 0.0000280882, 0.0001232447, -0.0000171474, -0.0001785478, 0.0000306800, -0.0000026776, -0.0000845106, 0.0000096736, 0.0001248793, 0.0000522583, -0.0003442455, 0.0000097611, -0.0000089388, -0.0002134833, -0.0001513804, -0.0000235046, -0.0000204590, 0.0001173389, 0.0000192763, -0.0000456954, 0.0000100993, 0.0001049886, 0.0000058215, 0.0000988068, -0.0001646541, -0.0000713984, -0.0001933746, -0.0002168030, -0.0000635938, 0.0000109371, -0.0000530276, 0.0000052034, -0.0000216502, -0.0001064076, -0.0000158780, 0.0001345045, -0.0000542858, -0.0001268311, 0.0001352881, 0.0000068297, -0.0000367777, 0.0000240547, 0.0000214386, -0.0000019344, -0.0001583750, 0.0004257589, 0.0000880670, -0.0000006114, -0.0000314076, 0.0001392928, 0.0001396887, 0.0000083165, 0.0000060031, -0.0000635938, -0.0000178767, 0.0000661641, 0.0000617409, 0.0002473235, -0.0000040264};
#endif

#endif
