//Numpy array shape [2, 4, 32]
//Min -0.601481497288
//Max 0.608637332916
//Number of zeros 0

#ifndef KEY_WEIGHT14_H_
#define KEY_WEIGHT14_H_

#ifndef __SYNTHESIS__
q_multi_head_attention_1_default_t key_weight14[256];
#else
q_multi_head_attention_1_default_t key_weight14[256] = {0.2362415344, -0.0431489274, -0.2874906361, -0.1924103945, -0.1454426497, -0.2942656279, 0.0439549163, -0.1412767470, 0.1956682205, -0.1666327566, 0.0588611886, 0.2578746378, -0.0848842412, -0.0419199541, 0.1533935219, 0.2837916315, 0.2997877598, -0.1168238446, 0.2024488002, 0.2416571826, 0.0236996412, -0.0250801891, -0.1325327605, 0.1329181343, -0.1211002618, -0.2371436805, 0.2420036644, 0.2437806576, -0.2711178660, -0.1148837358, -0.2245372236, -0.0036521000, -0.0366915725, -0.0386318900, 0.1978111416, 0.0241085738, -0.1245262474, 0.0038575961, 0.1281204224, -0.0696773529, -0.1831777543, 0.0578989051, -0.1001601890, -0.3285114765, -0.2433499396, -0.2052859068, 0.2122117132, -0.2090900391, 0.2067489773, -0.2064082772, -0.2665950954, 0.2632310092, 0.0307040513, 0.0961448699, 0.0434632674, -0.0011861927, 0.2149068266, 0.0050152568, 0.2771280110, -0.1144628823, 0.1412305683, 0.1857811809, -0.0650887117, 0.1941948533, -0.2695122957, 0.2683387399, 0.1773253977, -0.3355720043, -0.0953063592, 0.0367491953, 0.2961466610, 0.3266434073, 0.1740345657, 0.2995510399, 0.2643904984, 0.2582582235, 0.2299410552, -0.0808907524, 0.2503228784, -0.1041637957, 0.1931090653, 0.3555786908, -0.3377996385, 0.0223387107, -0.2551725209, -0.2768274248, -0.1955137700, 0.1187805608, 0.0759468451, 0.1648645848, 0.0398227349, 0.1330645382, 0.0629907995, -0.2946839631, -0.0952854306, -0.2681007087, 0.0075988085, -0.2933073044, -0.3258008957, 0.5116699338, 0.6086373329, 0.2929260433, -0.3126384914, 0.1391725242, -0.6014814973, -0.3024247289, -0.4941706359, 0.0088719223, -0.2538610697, 0.1338481307, -0.3839805126, -0.2914418280, -0.2124738246, -0.3702296019, 0.3719653487, -0.2086142451, 0.0837908685, 0.4714193940, 0.3306420445, -0.0329953767, -0.4162196517, 0.0123904860, -0.2126453221, -0.2421804965, -0.0170175191, 0.5149217248, 0.4438387752, 0.0281683616, -0.1681538522, 0.1621869951, 0.0925203860, 0.0968373418, -0.0572125614, 0.1984967142, -0.2278529555, -0.1160951555, 0.1320786029, -0.0893069878, -0.1767133921, 0.1723235995, -0.2272126675, -0.1276673526, -0.0892749578, 0.1505277306, 0.0300138164, 0.2257521302, 0.2437212318, -0.1728958189, -0.1001086012, 0.0426856503, 0.1850878000, 0.2212061286, -0.0214046109, 0.2568180859, -0.0636541545, -0.0519779101, -0.1950469315, 0.0517811701, 0.1204533949, 0.1541175991, 0.0019909632, -0.2005609870, 0.1666929424, -0.0544138439, 0.2120702714, -0.2204597741, 0.1329659522, -0.0329051986, -0.1162420958, 0.0547895394, 0.0075530512, -0.0788607001, 0.0182796661, -0.1521214545, -0.1929615885, -0.0424095914, -0.1345331669, 0.1622454822, 0.2419032604, 0.1926651001, 0.1998938471, -0.0626931638, -0.2173407674, -0.0221121553, 0.0150629701, -0.1157288700, -0.3638155162, 0.1376890242, -0.1142387465, -0.1979766339, 0.2679457068, -0.1613114625, -0.0379566625, 0.1699085534, 0.1444180757, -0.1425558180, -0.2064422667, 0.0153518571, 0.2525949776, -0.0506429225, 0.1840840429, 0.2038389593, -0.0334978439, 0.1451203823, 0.0674615279, -0.1328341663, 0.0073412354, -0.0809454769, 0.0764679611, 0.2550138831, 0.2287154794, 0.0474884287, -0.2243227363, -0.2519102693, 0.1587173641, -0.1448075324, -0.1518581957, -0.2921161950, 0.0451308265, 0.2224857062, 0.0744385049, -0.1624450237, -0.1116912514, -0.0786969662, -0.4558594823, 0.2386230975, -0.3187978566, -0.1565715671, 0.0389961004, 0.2610625029, -0.3647612035, 0.3019770682, 0.3024052083, -0.1293844879, 0.0689239204, -0.1507165730, -0.1621785760, -0.4016946554, -0.0413625948, 0.2719745338, -0.3335261941, -0.4894752502, -0.4350043833, 0.2126984149, 0.1558307856, -0.0060610538, -0.1461554766, -0.1310703903, 0.2666704357, 0.3994253576, 0.0885431468, -0.0026782141, 0.3356828094, 0.4176811874, -0.0079235053, -0.1389980763};
#endif

#endif
