//Numpy array shape [2, 32]
//Min -0.205379843712
//Max 0.229686006904
//Number of zeros 0

#ifndef QUERY_BIAS14_H_
#define QUERY_BIAS14_H_

#ifndef __SYNTHESIS__
q_multi_head_attention_1_default_t query_bias14[64];
#else
q_multi_head_attention_1_default_t query_bias14[64] = {0.0788852125, -0.0358191095, 0.0492471308, -0.0388791040, -0.1030804813, -0.1418612748, -0.0175796673, -0.1464108676, 0.0511030816, -0.0540695116, -0.0413266011, -0.0422940403, -0.0766830891, -0.2053798437, 0.0923306197, 0.1091529280, 0.1034873202, -0.0320364386, -0.0872278139, 0.1951362491, 0.0509452708, -0.0106076468, -0.0487280041, 0.0868582726, 0.2296860069, -0.0788852125, 0.2011912316, -0.0120204929, 0.0259517189, 0.0191824138, -0.1178978980, 0.0865989178, -0.0923035219, -0.1085192710, -0.0544189736, 0.1135687083, 0.1087352261, -0.1418448389, -0.0935908481, -0.1121243387, -0.1107551083, -0.0964572430, -0.0820104033, 0.1063108072, -0.0973830372, -0.0121421656, -0.1128667071, 0.0929429978, -0.0158665236, 0.1188001707, 0.1182690710, -0.0229319222, 0.0931172818, 0.1513189226, -0.0658345073, 0.1200517043, 0.0457021631, 0.1390836537, -0.1090189293, -0.1067320332, -0.1233609840, -0.0270621330, 0.1124235019, -0.1144628152};
#endif

#endif
