//Numpy array shape [2, 32]
//Min -0.092722997069
//Max 0.100318118930
//Number of zeros 0

#ifndef VALUE_BIAS5_H_
#define VALUE_BIAS5_H_

#ifndef __SYNTHESIS__
q_multi_head_attention_default_t value_bias5[64];
#else
q_multi_head_attention_default_t value_bias5[64] = {0.0639613569, -0.0555021577, -0.0644248798, 0.0352523290, -0.0493123792, -0.0434019677, 0.0530430898, -0.0490085334, -0.0846085250, -0.0426287502, 0.0236726664, 0.0614463501, 0.0666856021, 0.0578868613, -0.0236726664, -0.0700539649, 0.0390505306, -0.0420025364, -0.0008832853, -0.0389732867, 0.0209359284, 0.0610343963, -0.0436755903, -0.0254201423, -0.0165737011, -0.0347759761, -0.0927229971, -0.0644248798, 0.0383516252, -0.0472943112, 0.0528733991, 0.0361863449, 0.1003181189, -0.0305872019, 0.0034091549, -0.0828684792, -0.0268706121, -0.0500283726, 0.0392433517, -0.0433834754, 0.0556274019, 0.0751909763, -0.0573430099, 0.0482556522, -0.0453718528, -0.0475741103, 0.0202938896, 0.0349406414, 0.0682617798, 0.0645587817, 0.0292836633, 0.0014161156, 0.0357734971, -0.0202440191, 0.0398321599, 0.0680617690, 0.0471681058, 0.0004000670, -0.0619666688, -0.0534948744, 0.0789111257, -0.0374740288, 0.0135078793, 0.0804902837};
#endif

#endif
