//Numpy array shape [2, 32, 4]
//Min -0.557130455971
//Max 0.500120818615
//Number of zeros 0

#ifndef ATTENTION_OUTPUT_WEIGHT5_H_
#define ATTENTION_OUTPUT_WEIGHT5_H_

#ifndef __SYNTHESIS__
q_multi_head_attention_default_t attention_output_weight5[256];
#else
q_multi_head_attention_default_t attention_output_weight5[256] = {-0.25107, -0.15948, 0.35314, 0.22827, -0.16109, 0.10590, 0.20779, 0.15532, -0.29263, 0.23100, -0.23503, -0.24710, -0.05993, -0.11450, 0.18227, -0.25579, 0.18220, -0.00098, 0.08553, -0.22133, 0.23794, 0.38325, -0.37921, 0.34235, 0.27059, -0.19362, 0.02056, 0.06132, 0.17659, 0.24496, -0.27825, 0.20995, 0.22024, 0.10624, -0.41032, -0.23377, 0.15294, 0.39538, 0.04333, 0.30075, 0.28075, 0.06932, -0.07170, 0.18285, -0.20143, -0.15512, -0.19606, 0.14892, -0.40008, -0.34361, 0.00929, -0.08301, -0.03716, -0.18072, 0.43564, -0.01019, -0.17898, -0.04263, -0.01121, -0.34431, 0.33504, 0.28526, -0.22134, -0.23859, 0.05175, -0.00734, 0.42728, 0.12362, -0.11494, 0.05728, -0.09006, -0.29864, -0.42103, -0.07251, 0.44310, -0.13801, -0.28951, 0.31609, 0.05339, -0.13470, -0.19211, 0.10989, 0.46793, 0.22883, -0.39303, -0.33267, 0.30897, -0.16196, -0.04765, -0.11126, -0.13892, -0.07911, -0.38907, 0.30386, 0.20430, -0.24866, -0.12901, 0.23562, 0.20272, 0.23691, 0.34318, 0.17461, -0.35119, -0.11241, 0.08223, -0.02222, -0.14264, -0.35397, -0.18799, 0.27130, -0.30424, -0.29214, 0.31867, -0.02882, -0.33638, -0.30711, 0.43148, 0.28219, -0.25091, 0.13602, 0.28699, 0.15574, -0.04180, 0.20063, -0.20048, -0.00378, 0.39247, 0.09266, -0.05409, -0.24146, 0.12735, 0.14578, -0.13165, 0.15243, 0.27928, -0.08412, 0.33778, -0.43944, -0.24447, -0.11207, -0.28137, 0.25493, -0.23842, -0.08878, -0.31322, 0.22280, 0.45359, -0.36789, 0.28507, 0.34773, -0.01677, 0.12149, -0.02993, -0.15341, -0.37979, -0.04567, 0.30102, 0.50012, -0.27318, 0.30465, -0.34114, -0.55713, 0.31578, -0.40861, -0.07511, -0.45477, 0.35738, 0.21434, 0.03451, 0.36637, -0.01489, 0.21861, 0.29615, 0.02062, 0.25119, 0.00383, 0.34023, 0.23498, -0.34722, 0.37647, 0.08120, 0.08773, 0.35625, -0.34533, 0.16907, 0.07028, -0.04408, -0.07275, 0.37751, -0.13982, -0.26633, 0.34679, -0.18333, -0.23609, 0.17022, -0.00060, 0.14640, 0.29159, 0.00430, 0.36855, -0.18733, -0.09044, 0.03856, -0.19252, -0.25406, 0.01680, -0.14925, -0.14603, -0.31819, -0.25488, 0.36337, 0.13486, 0.33247, 0.25900, -0.09125, 0.12803, 0.09296, -0.00349, 0.25832, -0.00562, -0.13764, -0.53015, 0.47325, -0.24416, -0.14661, -0.34766, 0.10365, 0.19423, -0.03264, -0.16577, 0.37334, -0.34506, 0.01116, 0.21578, -0.18728, -0.21288, 0.19287, 0.35095, -0.13610, -0.24618, -0.10034, -0.14891, 0.12413, 0.39116, 0.11957, 0.25930, 0.29157, 0.08810, 0.06717, -0.13683, 0.02670, -0.11728, 0.32086, 0.05525, -0.20863, 0.20373};
#endif

#endif
