//Numpy array shape [2, 4, 32]
//Min -0.556196033955
//Max 0.471544355154
//Number of zeros 0

#ifndef QUERY_WEIGHT14_H_
#define QUERY_WEIGHT14_H_

#ifndef __SYNTHESIS__
q_multi_head_attention_1_default_t query_weight14[256];
#else
q_multi_head_attention_1_default_t query_weight14[256] = {0.07454, 0.29881, 0.24215, -0.36680, -0.55620, -0.48340, 0.28293, 0.12510, 0.33140, 0.32082, 0.34533, 0.25811, 0.16196, -0.12479, 0.44770, 0.10997, 0.47154, 0.13467, -0.31240, 0.32282, -0.00837, -0.20168, -0.35454, 0.28668, 0.31208, -0.10126, 0.13838, 0.15037, 0.18049, -0.32197, -0.35060, -0.17118, -0.00831, -0.00276, 0.06949, -0.00548, 0.03475, 0.26222, -0.05718, 0.23922, 0.04556, -0.14267, 0.08314, 0.20816, 0.01151, 0.12468, 0.12042, -0.03727, -0.22222, 0.07055, 0.16310, -0.22708, 0.00305, 0.05304, -0.14097, -0.10654, -0.27162, -0.11691, -0.34952, 0.10870, 0.07015, 0.02047, 0.18960, -0.23364, 0.31814, -0.24522, -0.35111, -0.01480, 0.16903, 0.20328, -0.18796, -0.23330, -0.03671, 0.01513, -0.32630, -0.14393, -0.02647, 0.01671, -0.22509, -0.00003, -0.27585, -0.30276, 0.17690, -0.12760, 0.12026, 0.19731, 0.14080, -0.05061, -0.02385, -0.26863, 0.15201, 0.04322, 0.05238, -0.04632, 0.20776, 0.30690, -0.00734, -0.28497, 0.08060, 0.23865, 0.05229, 0.04317, 0.08381, -0.10638, -0.17878, -0.23896, -0.04913, 0.08975, -0.20771, -0.18004, -0.06356, -0.16719, 0.01118, -0.28255, 0.28651, 0.18453, 0.10465, 0.15285, -0.06256, 0.16800, -0.15708, 0.07205, -0.21089, -0.07682, 0.00109, 0.18267, 0.00033, 0.09465, 0.30850, 0.00249, 0.11440, 0.16180, -0.13983, -0.16215, 0.24453, -0.09603, -0.19080, 0.09279, -0.21839, 0.00437, 0.02183, 0.19646, 0.12691, -0.18884, -0.03087, 0.41109, 0.35787, -0.22771, 0.04290, -0.03061, 0.00848, 0.16901, 0.05068, -0.31266, 0.01563, -0.06596, -0.08925, -0.52370, 0.07743, -0.03108, 0.07886, 0.17797, -0.03986, -0.13140, -0.21445, 0.01026, 0.01647, 0.25547, 0.17176, 0.21702, 0.23824, 0.04131, -0.02892, -0.06761, 0.00009, 0.00252, 0.05703, -0.09856, -0.06377, -0.04936, -0.00770, -0.05348, 0.09214, -0.22742, -0.10175, -0.00535, 0.21603, 0.11646, 0.18904, 0.20373, 0.01809, -0.09057, -0.33102, -0.11041, -0.25500, 0.01574, 0.20800, 0.10219, -0.30628, 0.12330, -0.26235, -0.05257, -0.03114, 0.12269, -0.00846, -0.16828, 0.12215, 0.14940, -0.17268, -0.16136, -0.29586, -0.12884, 0.02374, 0.25853, -0.05267, -0.06906, 0.22169, 0.15091, -0.23428, -0.19329, -0.08116, -0.00170, 0.17332, -0.23207, -0.14222, 0.11655, 0.15342, 0.14582, 0.18696, 0.17398, 0.18779, -0.15471, -0.03815, -0.19416, 0.02450, -0.19658, 0.09093, -0.13240, -0.20317, 0.07493, 0.07496, -0.09884, -0.20488, -0.04177, 0.19869, 0.01583, -0.06679, 0.13274, 0.09022, 0.00285, 0.07738, 0.13440, -0.10536, 0.20493, 0.03214, -0.05914};
#endif

#endif
