//Numpy array shape [2, 4, 32]
//Min -0.393266737461
//Max 0.360018223524
//Number of zeros 0

#ifndef VALUE_WEIGHT5_H_
#define VALUE_WEIGHT5_H_

#ifndef __SYNTHESIS__
q_multi_head_attention_default_t value_weight5[256];
#else
q_multi_head_attention_default_t value_weight5[256] = {0.31819, 0.19447, 0.09274, 0.18271, -0.10517, -0.21520, -0.17953, 0.19687, -0.21945, -0.27071, -0.18055, -0.16841, 0.00669, 0.19833, 0.29798, 0.01708, -0.11872, 0.19869, 0.30647, 0.00391, 0.06399, 0.12362, 0.19855, -0.20364, 0.20315, -0.24409, -0.04507, -0.07529, -0.26356, 0.17432, -0.17382, 0.06374, 0.00004, 0.06436, -0.19833, 0.08182, -0.07243, 0.23206, 0.03572, 0.30190, 0.24397, 0.17672, -0.03325, 0.22552, -0.22075, 0.05021, -0.14880, 0.02570, -0.25576, -0.23409, 0.10323, -0.12844, -0.09372, -0.16891, 0.11042, 0.13222, -0.27128, -0.17245, -0.04194, 0.11177, -0.09300, -0.09222, -0.10995, -0.31152, 0.16135, 0.24058, 0.13472, -0.17819, 0.03822, -0.16568, -0.08192, -0.04906, -0.04491, 0.00368, -0.15409, 0.00115, -0.03721, 0.25079, 0.02567, -0.38231, 0.02849, -0.18655, 0.33972, 0.05101, 0.26655, 0.24710, 0.13487, 0.04449, -0.06113, -0.26159, -0.14463, -0.03113, -0.39327, -0.33524, -0.21934, 0.11114, 0.00760, -0.30899, 0.16183, -0.07057, 0.02944, -0.15839, -0.04480, 0.31467, -0.00518, 0.21372, -0.09949, -0.08255, -0.30218, -0.25399, 0.11158, 0.06597, -0.25652, 0.04571, -0.07907, -0.09125, -0.12352, -0.05192, -0.18237, -0.27973, -0.11863, -0.03233, 0.07579, 0.08949, -0.04125, 0.30506, -0.01117, 0.01940, 0.00757, -0.10534, -0.17463, 0.22374, 0.01713, 0.34429, 0.21185, 0.35427, -0.38099, 0.14016, -0.00424, -0.01947, -0.03654, 0.10571, -0.10006, 0.27049, -0.12400, 0.26006, 0.13866, 0.11799, -0.30894, -0.07496, 0.09270, 0.11022, -0.28186, -0.07746, -0.06330, 0.16580, 0.08085, -0.15395, -0.10544, 0.00152, 0.12542, -0.04967, -0.29336, -0.08493, 0.22412, -0.15652, 0.13757, -0.01503, 0.26660, -0.08223, -0.22020, 0.09262, -0.23308, -0.03346, -0.26952, -0.11064, 0.26722, -0.06384, 0.19767, -0.17932, 0.01056, 0.21937, -0.04393, 0.21421, -0.24075, 0.06747, -0.07541, -0.08319, -0.12259, -0.03936, -0.11281, 0.06725, -0.20021, 0.16610, 0.08547, -0.03308, -0.28183, 0.29312, 0.36002, 0.35615, -0.15225, -0.27190, 0.22039, -0.09548, 0.34947, -0.29774, -0.11432, 0.07276, -0.14008, 0.17894, -0.10370, -0.03023, -0.27304, 0.27208, -0.30733, -0.35677, -0.19910, -0.18518, 0.28272, 0.21841, 0.01725, 0.12127, -0.04850, 0.26431, -0.06399, 0.19091, 0.17121, 0.03898, -0.02747, 0.03666, -0.08682, -0.15605, 0.23444, 0.31283, -0.08370, -0.01827, -0.01921, -0.07307, -0.31371, -0.26215, 0.00283, -0.21241, -0.08201, 0.03189, 0.12087, -0.28126, -0.12664, 0.34870, 0.16851, 0.09291, -0.13516, -0.07016, 0.12749, -0.03015, 0.09637, -0.26133};
#endif

#endif
